{"model_data": {"model": "SimpleRNN", "input_size": 1, "skip": 1, "output_size": 1, "unit_type": "LSTM", "num_layers": 1, "hidden_size": 32, "bias_fl": true}, "state_dict": {"rec.weight_ih_l0": [[3.523845589370467e-05], [1.6775265976320952e-05], [-0.00019664043793454766], [0.14045332372188568], [-2.8770473363692872e-05], [0.0002807623241096735], [0.00015747928409837186], [0.0003011807275470346], [-2.8013582777930424e-05], [-0.00019638282537925988], [-0.29474541544914246], [0.0004533771425485611], [1.5154967513808515e-05], [0.00039764767279848456], [8.908958261599764e-05], [0.39346739649772644], [0.00023977331875357777], [0.04063453897833824], [0.0002408316795481369], [0.000282964640064165], [0.0005205287015996873], [-0.00023631364456377923], [-5.029150997870602e-06], [2.478070200595539e-05], [0.00028738201945088804], [-0.0005304858204908669], [-8.978131518233567e-05], [0.0003726294671650976], [-8.854124462231994e-05], [-0.00012355422950349748], [-0.5704385638237], [1.836221963458229e-05], [7.039863703539595e-05], [5.452262848848477e-05], [-0.00019804018666036427], [0.13120657205581665], [1.9120658180327155e-05], [0.0002779969072435051], [0.00017390830907970667], [0.0003356276429258287], [-1.913476808113046e-05], [-0.0001746289781294763], [-0.1569613367319107], [0.0004917033948004246], [5.9271103964420035e-05], [0.0004526034463196993], [0.00014267905498854816], [-0.4543799161911011], [0.0002251892874483019], [0.10609094053506851], [0.0002765760291367769], [0.00031172894523479044], [0.0005751131102442741], [-0.00010929755080724135], [-2.5374863980687223e-05], [8.77491693245247e-05], [0.0003080239112023264], [-0.0005316946771927178], [-5.2159306505927816e-05], [0.0004158128867857158], [-9.669980499893427e-05], [-0.00011730701226042584], [0.6257467865943909], [2.883361594285816e-05], [0.008153853937983513], [-0.01401603501290083], [-0.003671442624181509], [-0.5573525428771973], [0.0026979863177984953], [0.016321856528520584], [-0.0006433457019738853], [0.014192501083016396], [-0.002713860711082816], [-0.003907816484570503], [2.311596155166626], [-0.014735514298081398], [-0.013362106867134571], [0.013334873132407665], [0.018176432698965073], [0.7836560010910034], [0.016195988282561302], [2.098734140396118], [0.01493118330836296], [-0.013912145048379898], [0.009393702261149883], [-0.027247563004493713], [-0.0007073449669405818], [0.019655756652355194], [0.014507103711366653], [0.006203289143741131], [0.010276885703206062], [0.00796164758503437], [0.010533289052546024], [0.002223493531346321], [0.2675148844718933], [-0.011745243333280087], [3.053538966923952e-05], [1.6675205188221298e-05], [-0.00018903151794802397], [0.6992266774177551], [-1.64212251547724e-05], [0.00027448503533378243], [0.0001617317320778966], [0.00028797428240068257], [-1.478008198319003e-05], [-0.00018342577095609158], [-0.38156598806381226], [0.0004402659833431244], [2.3110904294298962e-05], [0.00039703905349597335], [5.85866036999505e-05], [-0.6211041808128357], [0.00022409253870137036], [0.4316893219947815], [0.0002364695246797055], [0.00026655354304239154], [0.0005142329609952867], [-0.0002849024604074657], [1.110783159674611e-05], [1.0980075785482768e-05], [0.0002865303249564022], [-0.0005259191384539008], [-8.131509821396321e-05], [0.00037084484938532114], [-8.050083852140233e-05], [-0.0001244033919647336], [0.7942244410514832], [6.733640475431457e-06]], "rec.weight_hh_l0": [[-1.2495645933086053e-05, 1.3679658877663314e-05, -7.206649115687469e-06, 2.6296642317902297e-05, 9.88591546047246e-06, -3.557273157639429e-05, 2.4683247829671018e-05, -4.407598316902295e-05, 3.437507257331163e-05, -1.9527566109900363e-05, -1.500172493251739e-05, 2.2982136215432547e-05, -2.93077313529011e-08, -1.1504299664011342e-06, -2.437418334011454e-05, 9.490505908615887e-05, -2.618191319925245e-05, 0.0004951715236529708, -2.811153171933256e-05, 1.52241618707194e-05, -1.1783368790929671e-05, 2.8505284717539325e-05, 5.1490402256604284e-05, -3.113539787591435e-05, -3.440436194068752e-05, -1.1540414845967462e-07, 5.475956641021185e-06, -2.2517831894219853e-05, -2.305942507518921e-05, 1.0599271263345145e-05, -0.0008501182892359793, 2.319373561476823e-05], [-1.2554487511806656e-05, 1.493654417572543e-05, -8.929644536692649e-06, 0.0002441735123284161, -5.283915470499778e-06, -3.65900996257551e-05, 2.0557083189487457e-05, -4.0636408812133595e-05, 1.733654244162608e-05, -4.989560693502426e-06, 0.00020293159468565136, 2.3030901502352208e-05, 1.5202957911242265e-05, -1.2195779163448606e-05, -2.1852803911315277e-05, 0.0003616349713411182, -2.570703873061575e-05, 0.0005067982710897923, -2.9775361326755956e-05, 1.3750558537140023e-05, -1.2758358934661373e-05, 2.823868635459803e-05, 3.909935912815854e-05, -2.8772392397513613e-05, -3.0653045541839674e-05, 5.753182108492183e-07, -1.8172835552832112e-05, -2.2041465854272246e-05, -2.2754358724341728e-05, 1.1374308087397367e-05, -0.0011227953946217895, 1.586842154210899e-05], [-9.855824828264304e-06, 9.379938092024531e-06, -3.851563633361366e-06, -0.00022829869703855366, -1.9007529772352427e-06, -1.6353324099327438e-05, 6.9641132540709805e-06, -1.58917682711035e-05, 3.1248821414919803e-06, -5.724869538425992e-07, -0.0005090223276056349, 1.4188890418154188e-05, 6.562342605320737e-06, -1.1657846698653884e-05, -1.5527813957305625e-05, -0.0003025312616955489, -1.6116528058773838e-05, 0.00027267145924270153, -9.230788236891385e-06, 1.3067667168797925e-05, -1.0946724614768755e-05, 1.886937752715312e-05, 5.7322054090036545e-06, -1.1307281056360807e-05, -9.081668395083398e-06, -2.499180709492066e-06, -2.621849034767365e-06, -1.0237418791803066e-05, -8.17153249954572e-06, 5.3550288612314034e-06, -0.00027795665664598346, 1.2323602277319878e-05], [-0.001106841373257339, -0.0003402316360734403, 0.0018494604155421257, 0.16528742015361786, -0.0012541748583316803, -0.0017552600475028157, -0.0006265416741371155, -0.0017980262637138367, -0.0014894527848809958, 0.0004091553564649075, 0.337206095457077, -0.0009173827129416168, 0.001696243998594582, 0.0015174478758126497, -0.00017700789612717927, 0.43411335349082947, -0.001842035329900682, 0.31097206473350525, -0.001830377266742289, -0.00038252881495282054, 0.002087476197630167, -0.0012120457831770182, -0.001180830760858953, 0.0018623695941641927, -0.00041319639421999454, 0.002584947971627116, -0.0026695248670876026, 0.002538153436034918, 0.0024175436701625586, -0.0020825208630412817, 0.19168312847614288, 0.001511289388872683], [-1.1875317795784213e-05, 9.89837008091854e-06, -5.667996447300538e-06, 0.0005851036985404789, -5.671904546034057e-06, -2.5565830583218485e-05, 5.928768587182276e-06, -2.0958328605047427e-05, -2.6641359909262974e-06, 3.936426764994394e-06, 9.591536218067631e-05, 1.3359944205149077e-05, 1.0821388968906831e-05, -6.237965862965211e-06, -2.1012467186665162e-05, -6.520427268696949e-05, -2.691974805202335e-05, 9.968104859581217e-05, -1.2632450307137333e-05, 1.4988965631346218e-05, -9.250406037608627e-06, 2.3586479073856026e-05, 1.4934510090824915e-06, -1.3026035958318971e-05, -8.815282853902318e-06, -1.4735439890500857e-06, -1.3773599675914738e-05, -1.156933285528794e-05, -1.0255482266074978e-05, 4.110278950975044e-06, -0.0005094679654575884, 2.1683952581952326e-05], [-1.9102248188573867e-05, 1.991128192457836e-05, -1.4648187971033622e-05, -0.0011769734555855393, 4.4630687625613064e-05, -6.448905332945287e-05, 4.937304765917361e-05, -7.852738053770736e-05, 9.62148405960761e-05, -6.215789471752942e-05, 0.00013795706036034971, 3.84912418667227e-05, -1.2785818398697302e-05, 1.3586422937805764e-05, -4.328848444856703e-05, -0.0006404588930308819, -4.9198464694200084e-05, 0.0006730882450938225, -5.42284942639526e-05, 2.7103036700282246e-05, -1.720944965200033e-05, 4.5955988753121346e-05, 9.712498285807669e-05, -5.569290806306526e-05, -6.029160431353375e-05, 1.298590450460324e-05, 2.5718405595398508e-05, -3.710754026542418e-05, -2.9663651730515994e-05, 2.7410213078837842e-05, -0.0014929447788745165, 4.585774877341464e-05], [-1.4404723515326623e-05, 9.95836489892099e-06, -7.071019808790879e-06, 4.4598575186682865e-05, -1.1467440344858915e-05, -3.935700442525558e-05, 5.230930582911242e-06, -3.011887201864738e-05, -6.3711299844726454e-06, 9.714065527077764e-06, 0.0003412098449189216, 2.1061829102109186e-05, 2.250656507385429e-05, -2.0912832042085938e-05, -2.6765736038214527e-05, 0.00027909816708415747, -3.74721857951954e-05, 0.00037707059527747333, -2.428108018648345e-05, 2.1473113520187326e-05, -1.3496346582542174e-05, 2.9946597351226956e-05, 1.2122211501264246e-06, -1.4505922081298195e-05, -9.783492714632303e-06, 6.910099727974739e-06, -2.1629020920954645e-05, -1.2483860700740479e-05, -7.018576525297249e-06, 6.847240911156405e-06, -0.000580018968321383, 2.4596649382147007e-05], [-5.434440936369356e-06, -3.6386777537700254e-06, -2.7135154141433304e-06, -0.0007567260763607919, 2.4341321477550082e-05, -5.40343789907638e-05, 3.0111717933323234e-05, -6.32993906037882e-05, 6.717869837302715e-05, -4.2235973523929715e-05, 0.0005828704452142119, 1.7083051716326736e-05, -2.1386822481872514e-05, 3.40771657647565e-05, -2.4771532480372116e-05, -0.00039337389171123505, -4.3065709178335965e-05, 0.000572819379158318, -4.702630758401938e-05, 1.2096089449187275e-05, 5.84729741603951e-06, 9.884322025754955e-06, 8.563049777876586e-05, -2.0763669454026967e-05, -4.35173642472364e-05, 2.3355762095889077e-05, 2.8015798307023942e-05, -4.471111878956435e-06, -5.9516364672163036e-06, 1.2244077879586257e-05, -0.0016480564372614026, 4.000448461738415e-05], [-9.707539902592544e-06, 5.259530553303193e-06, -5.980734840704827e-06, 0.0005711593548767269, -1.572997643961571e-05, -2.426977334835101e-05, -4.588339095334959e-07, -1.8864244339056313e-05, -1.9052256902796216e-05, 1.644367330300156e-05, 0.00010654741345206276, 1.110804714699043e-05, 1.341772349405801e-05, -8.239574526669458e-06, -2.076231612591073e-05, -0.00022760691354051232, -2.8585340260178782e-05, -0.00015984397032298148, -1.0277612091158517e-05, 1.4868298421788495e-05, -8.997672011901159e-06, 2.2689106117468327e-05, -1.5742029063403606e-05, -7.000012374192011e-06, -1.2262769359949743e-06, 5.883536232431652e-06, -2.13698349398328e-05, -8.347249604412355e-06, -2.898731736422633e-06, 2.712874447752256e-06, -0.00010624213609844446, 2.2320878997561522e-05], [-1.160967985924799e-05, 8.419156984018628e-06, -5.94935181652545e-06, 0.0006655550096184015, -1.4244585145206656e-05, -2.566424518590793e-05, 1.2677531913141138e-06, -2.0402314476086758e-05, -1.4970461961638648e-05, 1.4170597751217429e-05, -2.146821771020768e-06, 1.3983031749376096e-05, 1.5174871805356815e-05, -1.2123002306907438e-05, -2.3095413780538365e-05, -0.00022040106705389917, -2.9179593184380792e-05, -0.00024769059382379055, -1.1852966963488143e-05, 1.668660479481332e-05, -1.0898021173488814e-05, 2.733601832005661e-05, -1.1086215636169072e-05, -1.0479949196451344e-05, -3.011038643307984e-06, 3.345437562529696e-06, -2.0087953089387156e-05, -1.068493293132633e-05, -5.852677986695198e-06, 3.513823912726366e-06, -0.0002934966760221869, 2.242723712697625e-05], [0.0033887543249875307, -0.003714480670168996, -0.0005849067238159478, 0.5328760147094727, 0.0018082379829138517, -4.108311259187758e-05, -0.0023926759604364634, 0.000984367448836565, 0.00019134099420625716, -0.0011179139837622643, 0.11710810661315918, -0.0019387187203392386, 0.0004554566403385252, 0.0009114514687098563, 0.003162673907354474, -0.7233951091766357, -0.0010196731891483068, 0.11808812618255615, 2.8185744668007828e-05, -0.0015939933946356177, 0.003052840707823634, -0.005611943081021309, -0.0005910327890887856, 0.0043924408964812756, -0.0009731373866088688, -0.0028375815600156784, -0.002936260076239705, 0.004381239879876375, 0.0007498586783185601, 0.000770174665376544, -0.1359998881816864, -0.0011481787078082561], [-9.558832061884459e-06, 8.320331289723981e-06, -1.4045214811631013e-05, -0.00041234478703700006, 2.4185933398257475e-06, -3.897354690707289e-05, 2.3987406166270375e-05, -4.626418376574293e-05, 3.0076364055275917e-05, -1.3153547115507536e-05, 0.0009142655762843788, 1.722384331515059e-05, -9.017954880619072e-07, 6.3203501667885575e-06, -2.167618731618859e-05, 0.00018431249191053212, -2.9592178179882467e-05, 0.000791799568105489, -3.3875407098094e-05, 1.1112791980849579e-05, -3.116388370472123e-06, 1.9564462490961887e-05, 5.392813545768149e-05, -2.4118209694279358e-05, -3.362914503668435e-05, 7.518674919992918e-06, 6.143915015854873e-06, -1.3585008673544507e-05, -1.886544851004146e-05, 1.6509929992025718e-05, -0.0013409126549959183, 2.6155754312640056e-05], [-2.7756099370890297e-05, 3.266048224759288e-05, -1.3376501556194853e-05, -0.00023522734409198165, 6.540246886288514e-06, -4.941642691846937e-05, 2.90790503640892e-05, -5.636633432004601e-05, 2.678461532923393e-05, -1.483770120103145e-05, -0.00033558104769326746, 4.0821392758516595e-05, 1.7721758922562003e-05, -2.2887812519911677e-05, -4.7203437134157866e-05, 3.002728772116825e-05, -4.4207954488229007e-05, 0.0009987413650378585, -3.1954430596670136e-05, 3.329221362946555e-05, -3.248174107284285e-05, 6.305988790700212e-05, 3.433562596910633e-05, -4.972641545464285e-05, -3.6084569728700444e-05, -9.769251846591942e-06, -1.0473989277670626e-05, -4.158453521085903e-05, -3.411889338167384e-05, 1.6844271158333868e-05, -0.0004887949908152223, 3.502325853332877e-05], [-2.8419708542060107e-05, 3.5945231502410024e-05, -1.8954402548843063e-05, -0.0003483247710391879, 5.862119451194303e-06, -4.9323578423354775e-05, 3.410149292903952e-05, -5.544126543099992e-05, 2.639707781781908e-05, -1.3723343727178872e-05, 0.0003703336988110095, 4.017305764136836e-05, 1.9559936845325865e-05, -2.2935795641387813e-05, -4.2334933823440224e-05, 0.00029616724350489676, -3.921835741493851e-05, 0.001265843166038394, -3.5822104109684005e-05, 3.007225677720271e-05, -3.090956306550652e-05, 5.5805532610975206e-05, 3.898899012710899e-05, -5.165985567145981e-05, -4.121585880056955e-05, -1.481056369811995e-05, -1.0837708032340743e-05, -4.194888970232569e-05, -4.007820098195225e-05, 2.2428781448979862e-05, -0.0010285930475220084, 3.0147761208354495e-05], [8.505619916832075e-06, -1.257885651284596e-05, 4.979275217920076e-06, -0.0002610869414638728, 5.9845842770300806e-05, -2.5681520128273405e-05, 3.344601282151416e-05, -4.357934813015163e-05, 0.00010569195728749037, -7.699842535657808e-05, 0.0006318113300949335, -5.962592695141211e-07, -4.8661549953976646e-05, 5.8985900977859274e-05, 1.530047484266106e-06, -0.0002862926630768925, -1.1772799553000368e-05, 0.0005854099872522056, -2.970537570945453e-05, -9.153181963483803e-06, 2.064522595901508e-05, -2.1853029466001317e-05, 0.00011704419739544392, -1.08120366348885e-05, -4.825243740924634e-05, 6.1013874983473215e-06, 6.2972518207971e-05, 5.336373305908637e-06, -1.0844254575204104e-05, 6.54297900837264e-06, -0.0016487082466483116, 1.773601252352819e-05], [0.011724589392542839, -0.016544969752430916, 0.006207919213920832, -0.41191715002059937, -0.003700933651998639, 0.0057820286601781845, -0.01363835483789444, 0.0153949661180377, -0.008885903283953667, 0.008305550552904606, 0.5406113266944885, -0.009963324293494225, -0.002395153511315584, 0.004003094043582678, 0.016644692048430443, -0.8152928352355957, 0.008012020029127598, 0.28729045391082764, 0.004542381037026644, -0.008441982790827751, 0.012371974065899849, -0.023854687809944153, -0.013851527124643326, 0.022055570036172867, 0.010183053091168404, 0.011588399298489094, -0.002303163055330515, 0.01842140033841133, 0.01713331788778305, -0.007569875102490187, -0.13093101978302002, -0.012943455949425697], [-6.4169103097810876e-06, 8.694200005265884e-06, -4.515043656283524e-06, -0.0012926715426146984, 8.644554327474907e-05, -4.549330333247781e-05, 5.892159606446512e-05, -6.7839355324395e-05, 0.00014975063095334917, -0.00010758007556432858, -3.2988627935992554e-05, 2.5899915272020735e-05, -5.018888259655796e-05, 5.1069611799903214e-05, -2.3487098587793298e-05, -0.0008645888301543891, -2.538078661018517e-05, 0.0006049011717550457, -4.497617555898614e-05, 1.1507548151712399e-05, -3.5322045732755214e-06, 1.6722804502933286e-05, 0.000141640062793158, -4.925301982439123e-05, -6.927804497536272e-05, 5.909971605433384e-06, 7.05775964888744e-05, -2.7376070647733286e-05, -2.631101779115852e-05, 2.4639473849674687e-05, -0.001240664510987699, 3.1310955819208175e-05], [0.006752294488251209, -0.0061919717118144035, 0.0027120185550302267, 0.32318350672721863, 0.008952384814620018, 0.009490740485489368, -0.0014937567757442594, 0.008291102945804596, 0.007311901543289423, -0.009192648343741894, 0.3271339237689972, -0.008333812467753887, -0.008606895804405212, 0.008885383605957031, 0.011133318766951561, -0.37266644835472107, 0.009230735711753368, 0.08082807064056396, 0.008562474511563778, -0.008744469843804836, 0.007277223281562328, -0.014625475741922855, 0.0031106399837881327, 0.00852437224239111, 0.0030317488126456738, -0.005786438472568989, 0.007917143404483795, 0.007480013184249401, 0.0024961044546216726, -0.002239796333014965, 0.13294553756713867, -0.009328662417829037], [-2.702964047784917e-05, 2.7684334781952202e-05, -1.2058672837156337e-05, -0.0003288150765001774, -7.269920843100408e-06, -5.381157825468108e-05, 2.0941633920301683e-05, -5.592292291112244e-05, 1.0601457688608207e-05, 1.3462694425925292e-07, 7.114832897059387e-06, 3.8784524804214016e-05, 2.618307735247072e-05, -2.833844155247789e-05, -4.860907938564196e-05, 0.00019492502906359732, -5.027401493862271e-05, 0.0006692078313790262, -3.566510713426396e-05, 3.4053231502184644e-05, -2.9392051146714948e-05, 6.372755160555243e-05, 1.8670254576136358e-05, -4.260661080479622e-05, -2.7081177904619835e-05, 3.005138296430232e-06, -2.2812013412476517e-05, -3.6268662370275706e-05, -2.513388426450547e-05, 1.4688976079924032e-05, -0.000554573314730078, 3.907909558620304e-05], [-8.25704319140641e-06, 7.587895197502803e-06, -9.805357876757625e-06, -0.00038909949944354594, 2.5729075787239708e-05, -3.671769081847742e-05, 3.0291155781014822e-05, -4.782632095157169e-05, 5.788925045635551e-05, -3.656151602626778e-05, 0.0005578247946687043, 1.770885501173325e-05, -1.3964641766506247e-05, 1.644252370169852e-05, -1.98962716240203e-05, -8.551331848138943e-05, -2.5934592486009933e-05, 0.0006214927998371422, -3.1727216992294416e-05, 1.0164211744267959e-05, -3.3446528959757416e-06, 1.693051126494538e-05, 7.38497546990402e-05, -2.765867975540459e-05, -4.015183003502898e-05, 4.3060354073531926e-06, 2.3636619516764767e-05, -1.626023367862217e-05, -2.1228417608654127e-05, 1.5254904610628728e-05, -0.0009651827276684344, 2.552282421675045e-05], [3.477390919215395e-06, -4.207387519272743e-06, -5.293230060487986e-06, -0.00011427158460719511, 1.1910005923709832e-06, -1.237744618265424e-05, 1.2370000149530824e-05, -1.9183406038791873e-05, 2.1026817194069736e-05, -1.0936357284663245e-05, 0.0013056230964139104, -2.626897412483231e-06, -6.866038347652648e-06, 1.8804435967467725e-05, 3.741733735296293e-06, 0.0005470511387102306, -3.66085919267789e-06, 0.0007399488240480423, -1.7294401914114133e-05, -7.909043233667035e-06, 1.229304416483501e-05, -1.190168404718861e-05, 4.548343349597417e-05, -2.0805814529012423e-06, -2.057179699477274e-05, 4.357057605375303e-06, 5.443591817311244e-06, 5.123492428538157e-06, -8.001301466720179e-06, 6.5187218751816545e-06, -0.000993772060610354, 3.119271013929392e-06], [4.588203228195198e-05, -5.1273058488732204e-05, 2.16591615753714e-05, 0.00020130854682065547, 7.916359754744917e-05, 2.6238190912408754e-05, 1.2390812116791494e-05, 5.699520897906041e-06, 0.00011584156891331077, -9.436390973860398e-05, 0.0008521024719811976, -5.474586214404553e-05, -8.233659173129126e-05, 0.0001061498187482357, 6.238230707822368e-05, 0.00017395032045897096, 3.7288573366822675e-05, 0.0007539529469795525, -8.938017117543495e-07, -5.985577809042297e-05, 7.188016752479598e-05, -0.00010948499402729794, 0.00012490789231378585, 4.657194949686527e-05, -3.072166509809904e-05, -4.445407739694929e-06, 9.742489783093333e-05, 6.089743328629993e-05, 1.2775604773196392e-05, -1.1934216672671027e-05, -0.002369214780628681, -2.1754107365268283e-05], [-1.9524397430359386e-05, 1.2707748282991815e-05, -8.76143076311564e-06, 0.0005878468509763479, -1.9921968487324193e-05, -3.237554483348504e-05, 1.3771455087407958e-06, -2.9669121431652457e-05, -2.5525105229462497e-05, 2.2687554519507103e-05, 0.0005081100971437991, 2.234314160887152e-05, 1.5968385923770256e-05, -2.0865025362581946e-05, -3.974707578890957e-05, -0.00021058898710180074, -4.1778344893828034e-05, -0.0003638299531303346, -1.276753482670756e-05, 2.976791984110605e-05, -1.9280701962998137e-05, 4.4117026845924556e-05, -2.113158188876696e-05, -1.670488200034015e-05, -7.729772733000573e-07, 1.48079216160113e-05, -1.8638469555298798e-05, -1.366668857372133e-05, 2.6489919946470764e-07, 7.260311122081475e-06, -0.0001993852638406679, 4.043487933813594e-05], [5.8970445024897344e-06, -1.5619105397490785e-05, 3.0760249956074404e-06, 0.0003707529103849083, -1.3988644241180737e-05, -2.0475050405366346e-05, 4.486809757509036e-06, -2.647373366926331e-05, 1.632442945265211e-05, -5.320720902091125e-06, 0.0011545517481863499, -7.378990176221123e-06, -8.329136107931845e-06, 2.9502516554202884e-05, -2.436495378788095e-07, 0.00033647080999799073, -1.6450831026304513e-05, 0.00030131233506835997, -2.11093392863404e-05, -7.149369594117161e-06, 2.1197991372901015e-05, -1.7791253412724473e-05, 4.2303483496652916e-05, 7.881933015596587e-06, -1.6057512766565196e-05, 1.5003876796981785e-05, -1.1552306204976048e-06, 1.75414934346918e-05, 6.699930963804945e-06, -2.83675854007015e-06, -0.0015549680683761835, 1.7833093806984834e-05], [-2.7326488634571433e-05, 2.5281889975303784e-05, -1.4473682313109748e-05, -0.00015598653408233076, -1.8633973013493232e-05, -5.309107655193657e-05, 1.722909655654803e-05, -4.885075759375468e-05, -3.6198255202180007e-06, 1.2930800039612222e-05, 0.00040162281948141754, 3.570004628272727e-05, 3.240196019760333e-05, -3.202386142220348e-05, -4.5271361159393564e-05, 0.0005131429643370211, -4.923143933410756e-05, 0.00037132552824914455, -3.5779525205725804e-05, 3.353738793521188e-05, -2.7108295398647897e-05, 5.5349679314531386e-05, 1.001360851660138e-05, -3.504535561660305e-05, -2.1318348444765434e-05, 4.305953098082682e-06, -3.422000736463815e-05, -3.0437302484642714e-05, -2.171714550058823e-05, 1.4847515558358282e-05, -9.858870907919481e-05, 3.8541413232451305e-05], [2.7449759727460332e-06, -5.0417365855537355e-06, 1.2473653896449832e-06, 0.0009815518278628588, -8.404232175962534e-06, 1.207267700920056e-06, -6.727432719344506e-06, 4.936363438901026e-06, -1.3397559996519703e-05, 1.0163082151848357e-05, 0.00010443377686897293, -3.6404489947017282e-06, 3.0532262371707475e-06, -1.887709572656604e-06, 1.48389062815113e-06, -0.0007560952217318118, -1.559756810820545e-06, -0.0009569512330926955, 2.3647314719710266e-06, -8.765179018155322e-07, 2.8688946258625947e-06, -2.7233370474277763e-06, -1.3975983165437356e-05, 7.930717401904985e-06, 7.941920557641424e-06, 5.1274901124998e-06, -6.0212610151211265e-06, 6.219248462002724e-06, 7.417543656629277e-06, -2.2358076421369333e-06, -0.0005127050098963082, 4.923832079839485e-07], [-2.223362389486283e-05, 2.597071033960674e-05, -1.1067843843193259e-05, -0.00031526811653748155, 6.774717348889681e-06, -3.888571882271208e-05, 2.4941491574281827e-05, -4.530039950623177e-05, 2.374885298195295e-05, -1.3633804883284029e-05, -0.00026265194173902273, 3.233563984395005e-05, 1.0599281267786864e-05, -1.4741281120222993e-05, -4.046875983476639e-05, -0.00039148752694018185, -3.5532320907805115e-05, 0.00047147960867732763, -2.5418014047318138e-05, 2.803628558467608e-05, -2.574337850091979e-05, 5.2304851124063134e-05, 2.7986154236714356e-05, -4.1853534639813006e-05, -2.911705269070808e-05, -3.783079137065215e-06, -4.243984221830033e-06, -3.314123387099244e-05, -2.5458562959101982e-05, 1.4209926121111494e-05, -0.00026491848984733224, 3.24946413456928e-05], [1.3469512850861065e-05, -1.9565846741897985e-05, 4.360248112789122e-06, 8.16629544715397e-05, -6.431818746932549e-06, -1.263852254851372e-06, 5.1673691103815145e-08, -6.899400887050433e-06, 1.750570663716644e-05, -9.361672709928825e-06, 0.0014586843317374587, -1.827670530474279e-05, -1.2027362572553102e-05, 3.3366897696396336e-05, 1.6060201232903637e-05, 0.0005623844917863607, 3.713602836796781e-06, 0.0004657656536437571, -1.1049683052988257e-05, -1.869702828116715e-05, 2.787587436614558e-05, -3.4186501579824835e-05, 3.507698784233071e-05, 1.772403447830584e-05, -9.190831406158395e-06, 9.700517694000155e-06, 1.00705221939279e-06, 2.5381697923876345e-05, 1.0091015610669274e-05, -3.918108177458635e-06, -0.0013068667612969875, -1.7741722047048825e-07], [-1.529680594103411e-05, 1.377177977701649e-05, -7.0951514317130204e-06, 0.00037016149144619703, -1.1731322956620716e-05, -4.5659053284907714e-05, 1.4336667845782358e-05, -3.744204150279984e-05, 4.721614004665753e-06, 4.145271304878406e-06, 0.0001973504840862006, 2.5720841222209856e-05, 2.7568092264118604e-05, -2.13106868613977e-05, -2.998214949911926e-05, -0.00014176110562402755, -3.867871782858856e-05, 0.00023639739083591849, -3.239067882532254e-05, 2.300354935869109e-05, -1.63432505360106e-05, 3.5037137422477826e-05, 1.7655567717156373e-05, -2.4022761863307096e-05, -1.992634861380793e-05, 3.985848252341384e-06, -2.8381216907291673e-05, -1.8286866179550998e-05, -1.2387924471113365e-05, 1.0610656318021938e-05, -0.0009098660666495562, 2.6239031285513192e-05], [-1.5169898688327521e-05, 1.484612403146457e-05, -6.6391953623679e-06, -0.0002009098679991439, -1.9105709725408815e-06, -2.729443986027036e-05, 1.0191248293267563e-05, -2.5278011889895424e-05, 6.125044365035137e-06, -1.6599027503616526e-06, -0.00048312917351722717, 2.168282117054332e-05, 1.1151269063702784e-05, -1.7585160094313323e-05, -2.5074503355426714e-05, -8.162254380295053e-05, -2.625018714752514e-05, 0.00032747420482337475, -1.542393511044793e-05, 2.0376321117510088e-05, -1.6906044038478285e-05, 3.057817593798973e-05, 6.625938567594858e-06, -1.882090509752743e-05, -1.3259560546430293e-05, -2.6104194148501847e-06, -3.975975232606288e-06, -1.6763875464675948e-05, -1.2729612535622437e-05, 7.5777838901558425e-06, -0.0003129054675810039, 2.0212872186675668e-05], [-0.01198339182883501, 0.01502036303281784, -0.009340942837297916, -0.355460524559021, -0.007992309518158436, -0.01387610100209713, 0.008439837023615837, -0.014747243374586105, -0.004100181628018618, 0.005390214268118143, -0.1557909995317459, 0.01264683622866869, 0.010245869867503643, -0.012488563545048237, -0.01878022402524948, -0.20351934432983398, -0.015954699367284775, 0.9486484527587891, -0.008245599456131458, 0.010817233473062515, -0.010964388027787209, 0.029176101088523865, -0.002335014520213008, -0.017333457246422768, -0.00509862182661891, -8.685266220709309e-05, -0.007984375581145287, -0.014217322692275047, -0.011789650656282902, 0.008672746829688549, -0.37949419021606445, 0.012942332774400711], [-1.6321280781994574e-05, 1.3024357031099498e-05, -3.0058947686484316e-07, -0.0004711264045909047, 5.1038412493653595e-05, -5.646107092616148e-05, 4.4065993279218674e-05, -7.138310320442542e-05, 9.917835996020585e-05, -6.78647484164685e-05, -9.496245911577716e-05, 3.3296022593276575e-05, -2.327576839888934e-05, 2.6729847377282567e-05, -3.571352135622874e-05, -0.0004654032236430794, -4.147808431298472e-05, 0.0003170117852278054, -4.5911860070191324e-05, 2.287059396621771e-05, -1.2623937436728738e-05, 3.22603082167916e-05, 0.00010564466356299818, -4.4823860662290826e-05, -5.660492752213031e-05, 5.632412012346322e-06, 3.610462590586394e-05, -2.873558332794346e-05, -2.4691284124855883e-05, 1.3501445209840313e-05, -0.0006463757017627358, 3.9998962165554985e-05], [-1.1759070730477106e-05, 1.3615372154163197e-05, -5.937074092798866e-06, -2.9870747312088497e-05, 1.3338134522200562e-05, -3.26011395372916e-05, 2.6001220248872414e-05, -4.229768455843441e-05, 3.8414833397837356e-05, -2.284792935824953e-05, -3.326916339574382e-05, 2.1913447199040093e-05, -4.307927611080231e-06, 2.219464249719749e-06, -2.3563918148283847e-05, 0.00014339375775307417, -2.2985070245340466e-05, 0.0005656943540088832, -2.6663499738788232e-05, 1.4456813914875966e-05, -1.1204475413251203e-05, 2.7550913728191517e-05, 5.486267036758363e-05, -3.223331077606417e-05, -3.538161763572134e-05, -3.7356429061219387e-07, 1.1447304132161662e-05, -2.2444817659561522e-05, -2.2676083972328342e-05, 1.0527705853746738e-05, -0.000948282249737531, 2.315934034413658e-05], [-1.0747714441095013e-05, 1.4286625628301408e-05, -7.827353329048492e-06, 0.0001587734295753762, -3.1608360586687922e-06, -3.196726174792275e-05, 2.1271021978463978e-05, -3.7023295590188354e-05, 1.971804340428207e-05, -7.033394012978533e-06, 0.0001852076966315508, 2.0852176021435298e-05, 1.133016667154152e-05, -8.96089113666676e-06, -1.9649052774184383e-05, 0.00040495823486708105, -2.0629813661798835e-05, 0.0005898764356970787, -2.7475338356452994e-05, 1.1780717613874003e-05, -1.1427207937231287e-05, 2.6022282327176072e-05, 4.115631600143388e-05, -2.9146023734938353e-05, -3.089192250627093e-05, 4.0758254726824816e-07, -1.3329774446901865e-05, -2.1181704141781665e-05, -2.1727044440922327e-05, 1.1256908692303114e-05, -0.001269302680157125, 1.4152527910482604e-05], [-1.0334453691029921e-05, 1.0227978236798663e-05, -3.993439804617083e-06, -0.0002880435495171696, -7.508147064072546e-07, -1.6391037206631154e-05, 8.113986950775143e-06, -1.6351856174878776e-05, 4.88330169901019e-06, -1.8890598312282236e-06, -0.0005481547559611499, 1.4744201507710386e-05, 6.157884399726754e-06, -1.1393278327886946e-05, -1.6089647033368237e-05, -0.00030530046205967665, -1.582598088134546e-05, 0.0002672197297215462, -9.335805771115702e-06, 1.3429576029011514e-05, -1.1551269381016027e-05, 1.9735298337764107e-05, 7.632844244653825e-06, -1.293457989959279e-05, -1.0097868653247133e-05, -2.9236377940833336e-06, -1.8895512994276942e-06, -1.1412294952606317e-05, -9.03543423191877e-06, 5.901782969885971e-06, -0.00031814342946745455, 1.2719968253804836e-05], [0.0023830002173781395, -0.003376375650987029, 0.001390397665090859, 0.4902360737323761, 0.00218886137008667, 0.005165207665413618, -0.0014748898101970553, 0.0018121694447472692, -0.0008417704957537353, -0.004450962878763676, 0.43332427740097046, -0.009677469730377197, -0.0033573308028280735, 0.008247887715697289, 0.007669112179428339, 0.7535284757614136, 0.005614496301859617, 0.04195143282413483, 0.0036569416988641024, -0.009929287247359753, 0.00799619872123003, -0.00958336517214775, -0.0027486442122608423, 0.008854256942868233, 0.0031782323494553566, 1.3029616638959851e-06, 0.0020332050044089556, 0.007135455496609211, 0.0030208174139261246, -0.0031368043273687363, 0.09231479465961456, -0.0045573050156235695], [-1.1456373613327742e-05, 9.494598089077044e-06, -5.212158157519298e-06, 0.0004990839515812695, -4.057868409290677e-06, -2.4628157916595228e-05, 6.383344498317456e-06, -2.053252319456078e-05, -2.5668120429145347e-07, 2.0734669305966236e-06, 0.00011049743625335395, 1.3082655641483143e-05, 9.308433618571144e-06, -5.146976945979986e-06, -2.045824112428818e-05, -3.714211561600678e-05, -2.5446961444686167e-05, 9.884188330033794e-05, -1.247338059329195e-05, 1.4502131307381205e-05, -8.842981515044812e-06, 2.289579606440384e-05, 3.5626721910375636e-06, -1.3259659681352787e-05, -9.018231139634736e-06, -1.637956529521034e-06, -1.1558378901099786e-05, -1.1490395991131663e-05, -1.0063014087791089e-05, 4.0459781303070486e-06, -0.0004819466557819396, 2.1089859728817828e-05], [-1.7185342585435137e-05, 1.7069402019842528e-05, -1.2640211934922263e-05, -0.0010699281701818109, 4.541328235063702e-05, -6.281935930019245e-05, 4.758579234476201e-05, -7.628298772033304e-05, 9.70493711065501e-05, -6.26441978965886e-05, 0.00014106440357863903, 3.6347071727504954e-05, -1.4946560440876056e-05, 1.652918399486225e-05, -4.1461291402811185e-05, -0.0005880927201360464, -4.794445703737438e-05, 0.0006986130611039698, -5.314111695042811e-05, 2.588493407529313e-05, -1.4924475181032903e-05, 4.286675903131254e-05, 9.657486225478351e-05, -5.289220280246809e-05, -5.885319842491299e-05, 1.4646962881670333e-05, 2.734851477725897e-05, -3.380208363523707e-05, -2.6321407858631574e-05, 2.562657027738169e-05, -0.0015763044357299805, 4.5514258090406656e-05], [-1.3391379980021156e-05, 9.339664757135324e-06, -6.556719199579675e-06, -8.19346314528957e-06, -1.1034736417059321e-05, -3.7203473766567186e-05, 5.060807325207861e-06, -2.7870197300217114e-05, -5.9229187172604725e-06, 9.223633242072538e-06, 0.0003359854454174638, 1.969487675523851e-05, 2.1610721887554973e-05, -1.9625082131824456e-05, -2.5228026061085984e-05, 0.0002997283881995827, -3.510555325192399e-05, 0.0003970446705352515, -2.3229318685480393e-05, 2.0267430954845622e-05, -1.2541020623757504e-05, 2.821303678501863e-05, 1.5576141549900058e-06, -1.3946189028501976e-05, -9.357830094813835e-06, 6.806205419707112e-06, -2.0893270630040206e-05, -1.1606855878198985e-05, -6.3256652538257185e-06, 6.5993044700007886e-06, -0.0006239870563149452, 2.3319307729252614e-05], [-4.435309620021144e-06, -4.925843313685618e-06, -8.42012639168388e-07, -0.0006826898315921426, 2.403629150649067e-05, -5.323530422174372e-05, 2.9998962418176234e-05, -6.257743370952085e-05, 6.809656042605639e-05, -4.233877552906051e-05, 0.000613638898357749, 1.6430389223387465e-05, -2.4346136342501268e-05, 3.6644483770942315e-05, -2.4849650799296796e-05, -0.0003186339163221419, -4.2433151975274086e-05, 0.0006315712234936655, -4.6926201321184635e-05, 1.2203037840663455e-05, 6.536905402754201e-06, 9.250866241927724e-06, 8.580194844398648e-05, -2.0617568225134164e-05, -4.354021075414494e-05, 2.5572571757948026e-05, 3.1241153919836506e-05, -3.1394167763210135e-06, -3.0664864425489213e-06, 1.1567900401132647e-05, -0.001723517314530909, 4.113406976102851e-05], [-9.412719009560533e-06, 5.009124379284913e-06, -5.750790478487033e-06, 0.0005612319218926132, -1.4921962247171905e-05, -2.413719084870536e-05, -1.856688527368533e-07, -1.897526999528054e-05, -1.7960690456675366e-05, 1.5552364857285284e-05, 0.000117616837087553, 1.0985517292283475e-05, 1.267307743546553e-05, -7.614971309521934e-06, -2.066570959868841e-05, -0.00022604760306421667, -2.833196231222246e-05, -0.0001630827464396134, -1.0267751349601895e-05, 1.4678193110739812e-05, -8.767024155531544e-06, 2.2569694920093752e-05, -1.4941194422135595e-05, -7.206557711469941e-06, -1.5115105043150834e-06, 5.8747868934005965e-06, -2.0451012460398488e-05, -8.348742085217964e-06, -2.8464460228860844e-06, 2.6942605018120958e-06, -9.994091669796035e-05, 2.2311027350951917e-05], [-1.1672287655528635e-05, 8.700189027877059e-06, -5.818846148031298e-06, 0.000617550453171134, -1.3114765351929236e-05, -2.5515686502330936e-05, 2.0225752450642176e-06, -2.0697360014310107e-05, -1.3132197636878118e-05, 1.280019660043763e-05, -3.0436185625148937e-06, 1.4279046808951534e-05, 1.4392673620022833e-05, -1.1662050383165479e-05, -2.3324648282141425e-05, -0.00021262075460981578, -2.8674054192379117e-05, -0.00025488747633062303, -1.1978950169577729e-05, 1.6753880117903464e-05, -1.1108621038147248e-05, 2.7835170840262435e-05, -9.339605639979709e-06, -1.1483661182865035e-05, -3.6686876683234004e-06, 3.0350054203154286e-06, -1.8748853108263575e-05, -1.1371051186870318e-05, -6.326208676910028e-06, 3.6984420148655772e-06, -0.00027357088401913643, 2.243301787530072e-05], [0.006759281270205975, -0.007466724142432213, 0.0014615334803238511, 0.5100102424621582, 0.004163769539445639, 0.0008960822597146034, -0.004184989724308252, 0.0013210258912295103, 0.0004356946446932852, -0.003615660360082984, 0.4783309996128082, -0.0050721862353384495, -0.0013280194252729416, 0.003957225475460291, 0.006218272726982832, -0.9345301985740662, -0.0017291466938331723, 0.5618442296981812, -0.00010607726289890707, -0.004048401955515146, 0.006649764254689217, -0.011941551230847836, -0.0013945624232292175, 0.008162850514054298, -0.000980172771960497, -0.002275958191603422, -0.004126424435526133, 0.009947681799530983, 0.004459365736693144, -0.001057695015333593, -0.42459920048713684, -0.0008185829501599073], [-8.22167203295976e-06, 7.712875230936334e-06, -1.2914189937873743e-05, -0.00043884152546525, 5.269592747936258e-06, -3.547929009073414e-05, 2.520478119549807e-05, -4.406686275615357e-05, 3.36910379701294e-05, -1.5974419511621818e-05, 0.0009187648538500071, 1.589323983353097e-05, -5.846722615387989e-06, 1.01578207249986e-05, -2.0411351215443574e-05, 0.00026195545797236264, -2.5754614398465492e-05, 0.0008325640810653567, -3.2103900593938306e-05, 9.993996172852349e-06, -2.280916760355467e-06, 1.8131859178538434e-05, 5.751750722993165e-05, -2.500444679753855e-05, -3.452206146903336e-05, 7.1681802182865795e-06, 1.2664991118072066e-05, -1.319401872024173e-05, -1.7969072359846905e-05, 1.6349285942851566e-05, -0.0014068238670006394, 2.558125925133936e-05], [-2.9526869184337556e-05, 3.6229786928743124e-05, -1.3836744983564131e-05, -0.0004196312220301479, 1.1048055057472084e-05, -4.953698589815758e-05, 3.360287519171834e-05, -5.87722533964552e-05, 3.4079901524819434e-05, -2.0199931896058843e-05, -0.0004117221978958696, 4.365966378827579e-05, 1.4774373994441703e-05, -2.190857230743859e-05, -4.999770317226648e-05, 7.447015377692878e-05, -4.284644091967493e-05, 0.0010363872861489654, -3.300678508821875e-05, 3.503842162899673e-05, -3.531150287017226e-05, 6.77025891491212e-05, 4.115670526516624e-05, -5.649267404805869e-05, -4.033503500977531e-05, -1.1150270438520238e-05, -4.755864210892469e-06, -4.653911310015246e-05, -3.739908788702451e-05, 1.8812690541381016e-05, -0.0005433243350125849, 3.637038025772199e-05], [-2.9771159461233765e-05, 3.923305848729797e-05, -1.9547984265955165e-05, -0.0005179026629775763, 8.944243745645508e-06, -4.7411875129910186e-05, 3.80274977942463e-05, -5.562783917412162e-05, 3.0365985367097892e-05, -1.697650077403523e-05, 0.0003350207698531449, 4.1795945435296744e-05, 1.6618891095276922e-05, -2.145736652892083e-05, -4.3758722313214093e-05, 0.0003760237304959446, -3.577896859496832e-05, 0.0012868954800069332, -3.562138954293914e-05, 3.084596392000094e-05, -3.305083009763621e-05, 5.876083014300093e-05, 4.416709634824656e-05, -5.756605605711229e-05, -4.4540094677358866e-05, -1.607781814527698e-05, -5.435065759229474e-06, -4.6149718400556594e-05, -4.307974813855253e-05, 2.4313740141224116e-05, -0.0010780150769278407, 3.0350478482432663e-05], [1.1458505468908697e-05, -1.672565304033924e-05, 8.367333975911606e-06, -0.0001281162112718448, 5.827425775351003e-05, -2.267204035888426e-05, 3.060811650357209e-05, -4.010241536889225e-05, 0.00010380475578131154, -7.512774027418345e-05, 0.0006741308607161045, -4.026191618322628e-06, -5.2452644013101235e-05, 6.347565067699179e-05, 4.094340965821175e-06, -0.00021375040523707867, -9.476777449890506e-06, 0.0006829419289715588, -2.8071546694263816e-05, -1.1028034350601956e-05, 2.4074903194559738e-05, -2.6534145945333876e-05, 0.00011405244731577113, -7.035722319415072e-06, -4.578061998472549e-05, 1.0039321750809904e-05, 6.597727042390034e-05, 1.041101677401457e-05, -4.394233656057622e-06, 4.052717031299835e-06, -0.0017867216374725103, 1.7522823327453807e-05], [-0.012934618629515171, 0.01196596771478653, 0.005126680247485638, -0.052686866372823715, -0.01667998917400837, -0.032810747623443604, -0.0038853324949741364, -0.02177445776760578, -0.013479422777891159, 0.01784505695104599, -0.7771328687667847, 0.0206681527197361, 0.02812223881483078, -0.019328780472278595, -0.030345015227794647, 0.3950699269771576, -0.030088504776358604, 0.2831627428531647, -0.025589438155293465, 0.021068258211016655, -0.01094688568264246, 0.03911709785461426, -0.01799105852842331, -0.015753136947751045, -0.00941708404570818, 0.00489420210942626, -0.026459842920303345, -0.006363425403833389, -0.005955404136329889, -6.900574953760952e-05, -0.06812341511249542, 0.023968568071722984], [-3.971875230490696e-06, 4.475678906601388e-06, -1.4754833728147787e-06, -0.001119352993555367, 8.564082236262038e-05, -4.380472455522977e-05, 5.5116626754170284e-05, -6.494931585621089e-05, 0.00014795850438531488, -0.00010608376032905653, -3.53956529579591e-05, 2.2869944587000646e-05, -5.174980833544396e-05, 5.411254824139178e-05, -2.0971245248802006e-05, -0.0008181665907613933, -2.457178561598994e-05, 0.0006501488969661295, -4.379226447781548e-05, 9.913777830661274e-06, -2.523706541524007e-07, 1.2027185221086256e-05, 0.0001381808251608163, -4.431115303304978e-05, -6.62496531731449e-05, 8.932643140724394e-06, 7.078028284013271e-05, -2.211404535046313e-05, -2.0657069399021566e-05, 2.1500240109162405e-05, -0.0013514341553673148, 3.0914157832739875e-05], [-0.0015992710832506418, -0.00018066607299260795, 0.007879026234149933, -0.4497547149658203, -0.008769484236836433, -0.014797791838645935, -0.0015345647698268294, -0.006416672840714455, -0.005348193924874067, 0.00569800054654479, 0.034390948712825775, 0.0030102457385510206, 0.00788146536797285, -0.00026693250401876867, -0.009279453195631504, -0.3074030578136444, -0.014095932245254517, 1.2021570205688477, -0.0147124994546175, 0.00825616717338562, 0.003434352111071348, 0.008050251752138138, -0.011925522238016129, 0.0011730396654456854, -0.00704793818295002, 0.010566147044301033, -0.010951144620776176, 0.00909754354506731, 0.00773789593949914, -0.0013456229353323579, -0.005375618580728769, 0.01306811161339283], [-2.6754156351671554e-05, 2.812135426211171e-05, -1.170462928712368e-05, -0.0004174026835244149, -4.889525371254422e-06, -5.27610354765784e-05, 2.24342384171905e-05, -5.567093467107043e-05, 1.4277719856181648e-05, -2.580449063316337e-06, -1.7726433725329116e-05, 3.8922287785680965e-05, 2.4098702851915732e-05, -2.6868216082220897e-05, -4.855233783018775e-05, 0.0002276851882925257, -4.865231676376425e-05, 0.0006873178645037115, -3.5475706681609154e-05, 3.388537879800424e-05, -2.9646622351719998e-05, 6.423229933716357e-05, 2.1720932636526413e-05, -4.435612208908424e-05, -2.835736086126417e-05, 2.689751909201732e-06, -1.971495476027485e-05, -3.737913357326761e-05, -2.5828820071183145e-05, 1.519470606581308e-05, -0.0005873162299394608, 3.8834874430904165e-05], [-6.5481926867505535e-06, 5.687517386832042e-06, -7.572516096843174e-06, -0.0003706608258653432, 2.8742322683683597e-05, -3.373169602127746e-05, 2.999737989739515e-05, -4.53259090136271e-05, 6.101923281676136e-05, -3.918729635188356e-05, 0.0005682663759216666, 1.5603447536705062e-05, -1.8275999536854215e-05, 2.0609146304195747e-05, -1.8014161469182e-05, -2.3341921405517496e-05, -2.304812915099319e-05, 0.0006732198526151478, -3.0084995159995742e-05, 8.763383448240347e-06, -1.466266098759661e-06, 1.3895716620027088e-05, 7.586771971546113e-05, -2.6455873012309894e-05, -3.983592978329398e-05, 4.706541858467972e-06, 2.8671840482275002e-05, -1.4056792679184582e-05, -1.8748241927823983e-05, 1.3907775610277895e-05, -0.0010440716287121177, 2.5112500225077383e-05], [4.989889021089766e-06, -4.40504118159879e-06, -4.192914275336079e-06, -0.00021030817879363894, 3.624938699431368e-06, -7.418762834277004e-06, 1.3937332369096112e-05, -1.5953672118484974e-05, 2.4505578039679676e-05, -1.3670363841811195e-05, 0.001302955555729568, -4.35346009908244e-06, -1.1997830370091833e-05, 2.2774747776566073e-05, 5.6270455388585106e-06, 0.0006360997213050723, 1.8543304349805112e-06, 0.0007887777173891664, -1.5022855222923681e-05, -9.597574717190582e-06, 1.3133791071595624e-05, -1.373954273731215e-05, 4.904541856376454e-05, -3.252064516345854e-06, -2.1478526832652278e-05, 4.005423761554994e-06, 1.2253798558958806e-05, 5.27746806255891e-06, -7.432752681779675e-06, 6.73950535201584e-06, -0.0010417439043521881, 1.5926436844893033e-06], [5.091752973385155e-05, -5.7904482673620805e-05, 2.6223864551866427e-05, 0.0004084123356733471, 7.218018436105922e-05, 3.130583354504779e-05, 7.035017461021198e-06, 1.179142691398738e-05, 0.00010815982386702672, -8.723124483367428e-05, 0.0009557691519148648, -6.026265327818692e-05, -8.670837996760383e-05, 0.00011172031372552738, 6.642949301749468e-05, 0.0002754103916231543, 4.112839451408945e-05, 0.0008925984147936106, 1.6101165556392516e-06, -6.293807382462546e-05, 7.721697329543531e-05, -0.00011635230475803837, 0.00011707132216542959, 5.275920557323843e-05, -2.561381370469462e-05, 3.6321816878626123e-06, 9.978087473427877e-05, 6.884133472340181e-05, 2.3272303224075586e-05, -1.5304951375583187e-05, -0.002523948671296239, -2.2733092919224873e-05], [-1.979521766770631e-05, 1.2919209439132828e-05, -8.863103175826836e-06, 0.0006185929523780942, -2.024215427809395e-05, -3.279870725236833e-05, 1.118411319112056e-06, -2.9981649277033284e-05, -2.632047835504636e-05, 2.3296059225685894e-05, 0.0005102738505229354, 2.2555854229722172e-05, 1.6206720829359256e-05, -2.1175634174142033e-05, -4.0557388274464756e-05, -0.00021461774304043502, -4.267847543815151e-05, -0.0003806227177847177, -1.2825122212234419e-05, 3.0351429813890718e-05, -1.9504737792885862e-05, 4.496051769820042e-05, -2.199100526922848e-05, -1.6835239875945263e-05, -7.775416293043236e-07, 1.5073757822392508e-05, -1.889256054710131e-05, -1.3533273886423558e-05, 4.4346506911097094e-07, 7.291109795914963e-06, -0.00022009659733157605, 4.145764251006767e-05], [8.489947504131123e-06, -1.7840562577475794e-05, 5.352294010663172e-06, 0.00037127421819604933, -1.3580968698079232e-05, -1.629480902920477e-05, 4.26082942794892e-06, -2.2905371224624105e-05, 1.7535356164444238e-05, -5.950164450041484e-06, 0.00118611182551831, -1.027894268190721e-05, -1.2906850315630436e-05, 3.390797064639628e-05, 2.209003696407308e-06, 0.00038461427902802825, -1.2400477316987235e-05, 0.00040333656943403184, -1.906657053041272e-05, -9.157318345387466e-06, 2.348824818909634e-05, -2.1427949832286686e-05, 4.234398147673346e-05, 9.13565691007534e-06, -1.5711450032540597e-05, 1.725607035041321e-05, 3.1063268579600845e-06, 2.031448639172595e-05, 1.0434220712340903e-05, -3.5097079944534926e-06, -0.001694736653007567, 1.701526161923539e-05], [-2.6240388251608238e-05, 2.4926061087171547e-05, -1.3806145943817683e-05, -0.00023854977916926146, -1.7718235540087335e-05, -4.977695061825216e-05, 1.7766811652109027e-05, -4.641651685233228e-05, -2.481171122781234e-06, 1.1873963558173273e-05, 0.0003924120683223009, 3.4241114917676896e-05, 2.9622391593875363e-05, -2.971053254441358e-05, -4.3543190258787945e-05, 0.0005456910002976656, -4.5642813347512856e-05, 0.0003931004030164331, -3.4125430829590186e-05, 3.209690476069227e-05, -2.6223387976642698e-05, 5.350603532860987e-05, 1.1722459930751938e-05, -3.508097870508209e-05, -2.1510637452593073e-05, 4.21843606090988e-06, -3.0671944841742516e-05, -2.99039911624277e-05, -2.1335179553716443e-05, 1.4695404388476163e-05, -0.00012651253200601786, 3.708193253260106e-05], [3.3566136607987573e-06, -5.949852038611425e-06, 1.4574204669770552e-06, 0.000978885218501091, -8.816447007120587e-06, 1.527112090116134e-06, -7.582772013847716e-06, 5.576494004344568e-06, -1.4307739547803067e-05, 1.0765207662188914e-05, 0.00013605685671791434, -4.492741027206648e-06, 3.0281091767392354e-06, -1.3977577282275888e-06, 2.107005911966553e-06, -0.000756533641833812, -1.4865559023746755e-06, -0.000959279655944556, 2.6444070044817636e-06, -1.4535934269588324e-06, 3.742177796084434e-06, -3.6553001336869784e-06, -1.5016668839962222e-05, 9.150857295026071e-06, 8.737832104088739e-06, 5.59771251573693e-06, -6.406906322808936e-06, 7.348280632868409e-06, 8.34008551464649e-06, -2.663949544512434e-06, -0.0005194660625420511, 2.888780556986603e-07], [-2.345877146581188e-05, 2.808361386996694e-05, -1.1273170457570814e-05, -0.0004112083406653255, 9.594629773346242e-06, -4.010715565527789e-05, 2.789673635561485e-05, -4.7695881221443415e-05, 2.883330307668075e-05, -1.7199325156980194e-05, -0.0002936079981736839, 3.451158045209013e-05, 9.13697476789821e-06, -1.4043290320842061e-05, -4.281600922695361e-05, -0.00037096094456501305, -3.588023173506372e-05, 0.0004990943125449121, -2.6791856726049446e-05, 2.958718869194854e-05, -2.754513297986705e-05, 5.5698681535432115e-05, 3.2697989809094e-05, -4.6217253839131445e-05, -3.200790524715558e-05, -4.430227818374988e-06, -1.43364582072536e-06, -3.6198536690790206e-05, -2.7409179892856628e-05, 1.553473703097552e-05, -0.0003001265286002308, 3.4022297768387944e-05], [1.4728789210494142e-05, -1.9614004486356862e-05, 5.6910148487077095e-06, 3.3604734198888764e-05, -4.59137982034008e-06, 3.1702397791377734e-06, 1.4834971580057754e-06, -3.830217337963404e-06, 2.1032119548181072e-05, -1.185816199722467e-05, 0.001446237089112401, -1.9936536773457192e-05, -1.6611227692919783e-05, 3.695428677019663e-05, 1.7311689589405432e-05, 0.0006307848962023854, 8.331016942975111e-06, 0.0005130866775289178, -9.09323716768995e-06, -1.985546259675175e-05, 2.8565149477799423e-05, -3.563700374797918e-05, 3.724878479260951e-05, 1.666702883085236e-05, -1.0127485438715667e-05, 1.0053138794319239e-05, 6.662491614406463e-06, 2.5874071070575155e-05, 1.122423418564722e-05, -3.554709337549866e-06, -0.0013874692376703024, -6.550515649905719e-07], [-1.5449799320776947e-05, 1.4776189345866442e-05, -6.886406481498852e-06, 0.0003220356593374163, -1.0248452781524975e-05, -4.446806269697845e-05, 1.5507996067753993e-05, -3.647078119684011e-05, 6.6458264882385265e-06, 2.691432428036933e-06, 0.00015249915304593742, 2.571396362327505e-05, 2.657122786331456e-05, -2.048360875051003e-05, -3.06851216009818e-05, -0.00012929426156915724, -3.7252182664815336e-05, 0.0002536576066631824, -3.192931762896478e-05, 2.3357755708275363e-05, -1.6829741070978343e-05, 3.6185490898787975e-05, 1.9150236767018214e-05, -2.599104118417017e-05, -2.093401417369023e-05, 3.734442543645855e-06, -2.6704636184149422e-05, -1.9043331121793017e-05, -1.261679790331982e-05, 1.1261669897066895e-05, -0.0010367751820012927, 2.70755681412993e-05], [-1.5001730389485601e-05, 1.4912680853740312e-05, -6.4931477936625015e-06, -0.00024584203492850065, -1.1915205959667219e-06, -2.6491983589949086e-05, 1.0665576155588496e-05, -2.4687667973921634e-05, 7.118117082427489e-06, -2.501759581718943e-06, -0.0005045158904977143, 2.1338350052246824e-05, 1.059640635503456e-05, -1.6800928278826177e-05, -2.4539705918869004e-05, -8.490548498230055e-05, -2.5139495846815407e-05, 0.0003345953591633588, -1.5127615370147396e-05, 1.993144178413786e-05, -1.6660020264680497e-05, 2.994476744788699e-05, 7.881439159973525e-06, -1.9192184481653385e-05, -1.3590556591225322e-05, -2.9302157145139063e-06, -3.457822913333075e-06, -1.6872565538506024e-05, -1.2903115930384956e-05, 7.645224286534358e-06, -0.00035444804234430194, 1.9745086319744587e-05], [0.017012538388371468, -0.020594991743564606, 0.004896888509392738, 1.8392786979675293, -0.005836447235196829, 0.019188901409506798, -0.009715382009744644, 0.02358548529446125, -0.007888293825089931, 0.0024308247957378626, 1.6497722864151, -0.022575313225388527, -0.010704606771469116, 0.014678810723125935, 0.026257352903485298, 0.9901147484779358, 0.018926504999399185, -0.683297336101532, 0.0065833935514092445, -0.020668424665927887, 0.018618324771523476, -0.03385603055357933, -0.014839024282991886, 0.028392069041728973, 0.01861063949763775, 0.00834229588508606, 0.004693896975368261, 0.022271042689681053, 0.021526815369725227, -0.006997543852776289, 0.22693021595478058, -0.018030958250164986], [-1.4609388927055988e-05, 1.0371124517405406e-05, 2.8173014925414464e-06, -0.0003954703570343554, 5.207262438489124e-05, -5.489734758157283e-05, 4.232188075548038e-05, -6.919476436451077e-05, 9.996127482736483e-05, -6.84396072756499e-05, -0.00011105895100627095, 3.117520100204274e-05, -2.5740504497662187e-05, 3.0049883207539096e-05, -3.411237048567273e-05, -0.00042261279304511845, -4.048460323247127e-05, 0.0003839945129584521, -4.502734373090789e-05, 2.1944924810668454e-05, -1.043405518430518e-05, 2.8821486921515316e-05, 0.00010424271749798208, -4.2102201405214146e-05, -5.516535384231247e-05, 8.276601874968037e-06, 3.8003014196874574e-05, -2.5164174076053314e-05, -2.0345083612482995e-05, 1.1549997907422949e-05, -0.0007505957619287074, 4.0243699913844466e-05], [-0.0022031436674296856, 0.001587490551173687, -0.001343509298749268, 0.001321264891885221, 0.0005784593522548676, -0.0019303786102682352, 0.0012041241861879826, -0.0019802493043243885, 0.0005158243584446609, -0.0008868242148309946, 0.020453231409192085, 0.0016198455123230815, 0.0015208522090688348, -0.00111876311711967, -0.00189513573423028, -0.006681501399725676, -0.0022189393639564514, -0.009410567581653595, -0.0013728354824706912, 0.0020487343426793814, -0.0015070748049765825, 0.0010428958339616656, 0.0010898113250732422, -0.0012002780567854643, -0.0020829467102885246, -0.001107579912059009, -0.0015305298147723079, -0.0011784088565036654, -0.001259630429558456, 0.0013184987474232912, -0.004064090084284544, 0.0025745369493961334], [0.0021454202942550182, -0.0019069507252424955, 0.0017064923886209726, -0.0038160677067935467, -0.0015837503597140312, 0.0013239545514807105, -0.0016700708074495196, 0.0016781813465058804, -0.0015297910431399941, 0.0019048103131353855, -0.022662481293082237, -0.0014998815022408962, -0.0008058972889557481, 0.0008531852508895099, 0.001665241550654173, 0.006790167186409235, 0.0016495806630700827, 0.007670344319194555, 0.0006270208978094161, -0.001778232748620212, 0.0015332584735006094, -0.0009720748057588935, -0.0018154210411012173, 0.0015408304752781987, 0.0021750356536358595, 0.0019792986568063498, 0.0005644815391860902, 0.0014997073449194431, 0.001949126599356532, -0.001678392756730318, 0.0011226048227399588, -0.0021596569567918777], [-0.0008133777882903814, 0.0011774759041145444, -0.0014488812303170562, -0.0027226710226386786, 0.0020419254433363676, 0.0006246418925002217, 0.0012236001202836633, 1.9693630747497082e-05, 0.0019797543063759804, -0.0021487190388143063, 0.012511907145380974, 0.00019945231906604022, -0.0005260034813545644, 0.0001918459020089358, 2.153456625819672e-05, -0.0034289660397917032, 0.0004910811549052596, -0.004242300055921078, 0.0007972668972797692, 8.018498920137063e-05, -0.0003695534251164645, -0.00025305847520940006, 0.0016710559139028192, -0.0008446454303339124, -0.0010191320907324553, -0.002156099770218134, 0.0010229481849819422, -0.0008194629335775971, -0.0017915277276188135, 0.001298184273764491, -0.001036084140650928, 2.8641150493058376e-05], [0.009061991237103939, -0.0035625912714749575, 0.0036266304086893797, 0.5657974481582642, 0.017865559086203575, 0.008215113542973995, -0.0015494587132707238, 0.0006889226497150958, 0.017253609374165535, -0.0133400559425354, -1.023488163948059, -0.00324058230035007, -0.015664083883166313, 0.010667715221643448, 0.004203301854431629, -0.7263031005859375, 0.010342355817556381, -1.2117645740509033, 0.011464647948741913, -0.008350192569196224, 0.004494794178754091, 0.0007648717728443444, 0.0172349214553833, -0.006934724748134613, 0.004280184395611286, -0.007283382583409548, 0.018783560022711754, -0.0037741672713309526, -0.004762009717524052, -0.004042962100356817, -1.2684308290481567, -0.011055872775614262], [0.0003604541998356581, -0.0005000287783332169, -0.00015938968863338232, 0.001058751717209816, -0.002182048512622714, -0.0005094597581773996, -0.00024296119227074087, -9.189815318677574e-05, -0.0018525752238929272, 0.0018946744967252016, 0.0068833231925964355, -0.00013531990407500416, 0.0008389782160520554, -0.0005754383164457977, 5.6638757087057456e-05, 0.0025205279234796762, -0.0003937603032682091, -0.009899446740746498, -0.0008950756164267659, -0.00015854679804760963, 4.996325515094213e-05, 8.870321471476927e-05, -0.00145374343264848, 0.0007073837332427502, 0.0004825573123525828, 0.001872173510491848, -0.0010992601746693254, 0.00033509606146253645, 0.0009378252434544265, -5.5217824410647154e-05, -0.01453390158712864, 1.1033630471501965e-05], [-0.0028020376339554787, 0.0019082555081695318, -0.0018737453501671553, 0.0033994598779827356, -0.0017030524322763085, -0.0038084040861576796, 0.0012658765772357583, -0.003439701162278652, -0.0013971631415188313, 0.001200626720674336, 0.019458264112472534, 0.0027355512138456106, 0.0031401608139276505, -0.0027156483847647905, -0.0032959552481770515, -0.0022208536975085735, -0.004022770561277866, -0.022126147523522377, -0.0028507427778095007, 0.003147071460261941, -0.0024809371680021286, 0.002660323167219758, -0.00018829993496183306, -0.0017038945807144046, -0.0021928928326815367, 0.0004327769856899977, -0.003391620935872197, -0.0019063682993873954, -0.001112920930609107, 0.0016527663683518767, -0.014079459942877293, 0.0038532025646418333], [0.001086337142623961, -0.0010013425489887595, 0.0011304193176329136, -0.0004425420775078237, -0.0019127762643620372, 0.0001631108607398346, -0.0013635936193168163, 0.000710572930984199, -0.001720602624118328, 0.002132846275344491, -0.01617255061864853, -0.0005721798515878618, 0.00032397572067566216, -8.577685366617516e-05, 0.0006577384192496538, 0.0026088205631822348, 0.0005045635043643415, 0.0020929898601025343, -0.0002922550484072417, -0.0007828316884115338, 0.0007640208932571113, -5.273994247545488e-05, -0.0017203058814629912, 0.0008686911896802485, 0.0015072437236085534, 0.0017040427774190903, -0.0005071461200714111, 0.0008344878442585468, 0.0012454369571059942, -0.0012153710704296827, -0.0006466351915150881, -0.0011980393901467323], [-0.0033669050317257643, 0.002536928281188011, -0.002227852353826165, 0.0022372647654265165, -0.0007109199650585651, -0.003942920360714197, 0.0019050640985369682, -0.004040762782096863, -0.00039748530252836645, 0.00012469921784941107, 0.023547112941741943, 0.00317603861913085, 0.003051281673833728, -0.0027748735155910254, -0.003776645055040717, -0.00468617444857955, -0.00433750357478857, -0.01929621584713459, -0.0027280135545879602, 0.0035757555160671473, -0.003022796008735895, 0.003070813836529851, 0.0009102283511310816, -0.0025028639938682318, -0.0027938648127019405, -0.0005768550909124315, -0.00313737359829247, -0.0025972637813538313, -0.0018301535164937377, 0.002129892585799098, -0.00985769648104906, 0.004358577076345682], [0.000790816789958626, -0.0008334802114404738, 0.000441051903180778, -0.0007963736425153911, -0.0021480959840118885, -1.621754199732095e-05, -0.000747502373997122, 0.00045072994544170797, -0.0019273757934570312, 0.0020381915383040905, 0.0006937013822607696, -0.000501010159496218, 0.0005668500671163201, -0.00029838350019417703, 0.0005161678418517113, 0.003385628806427121, 0.00017291113908868283, -0.00749659538269043, -0.000585149391554296, -0.0005818712525069714, 0.0004329117073211819, -0.00021013946388848126, -0.001653181854635477, 0.000988812418654561, 0.0008984304149635136, 0.0019079772755503654, -0.0007635221700184047, 0.0006637097685597837, 0.001209624228067696, -0.0006485512130893767, -0.01296399999409914, -0.0006084408960305154], [-0.00031997033511288464, 0.00036231623380444944, -4.712225199909881e-05, -0.0019260538974776864, 0.002540876157581806, 0.0007649159524589777, 0.00044014534796588123, 0.0002478895185049623, 0.0021452452056109905, -0.0023624158930033445, -0.002694102004170418, -0.00013397764996625483, -0.0011238445295020938, 0.0009699366637505591, 0.00019135704496875405, -0.0028274180367588997, 0.0005660078022629023, 0.008947008289396763, 0.001025310717523098, 5.784891982330009e-06, 0.00011664922203635797, -0.0006633953889831901, 0.0017014554468914866, -0.00043871416710317135, -0.0006652912124991417, -0.002024587243795395, 0.0013320421567186713, -7.91660204413347e-05, -0.0008105859160423279, 0.0002474716166034341, 0.012857263907790184, 6.365920853568241e-05], [0.003414235543459654, -1.8785282009048387e-05, 0.00016257245442830026, 0.7148250937461853, 0.008340300060808659, 0.008957719430327415, -0.0031538645271211863, 0.00835346058011055, 0.0051985508762300014, -0.00498709874227643, -0.11215256154537201, -0.006094920914620161, -0.00248306174762547, 0.005952737294137478, 0.006202463060617447, 0.0501365102827549, 0.008630028925836086, -0.2699446380138397, 0.0029102088883519173, -0.005943139549344778, 0.007395255845040083, -0.00804958213120699, 0.0020709678065031767, 0.0012350967153906822, 0.002700535347685218, -0.007957634516060352, 0.004663349129259586, 0.004857037682086229, -0.0045870221219956875, 0.0011064172722399235, 0.543833315372467, -0.006357277277857065], [0.0026190513744950294, -0.001994335325434804, 0.001667023985646665, -0.00443923007696867, 0.00042091397335752845, 0.0029328849632292986, -0.0015160079346969724, 0.002937356475740671, 0.00023842346854507923, 2.348318594158627e-05, -0.02376173995435238, -0.002480209106579423, -0.002357354387640953, 0.002194695407524705, 0.0028032923582941294, 0.0031067542731761932, 0.003222123021259904, 0.013821029104292393, 0.0019638456869870424, -0.0027985954657197, 0.002365200314670801, -0.00223783147521317, -0.0008212976390495896, 0.001852672197856009, 0.00229597557336092, 0.0006942624459043145, 0.002451980486512184, 0.0019892719574272633, 0.0015425324672833085, -0.0016067089745774865, 0.009592605754733086, -0.0032313636038452387], [0.0007906323880888522, -0.00040389984496869147, 0.0007848083623684943, -0.0013228822499513626, 0.0010769030777737498, 0.0011299344478175044, -0.00029860198264941573, 0.0007527358247898519, 0.0009991704719141126, -0.000825931434519589, -0.012363312765955925, -0.0005733295693062246, -0.0014134745579212904, 0.0009294029441662133, 0.000581639411393553, 0.002269479911774397, 0.0011628733482211828, 0.014231448993086815, 0.0011892844922840595, -0.000748513441067189, 0.0005357175832614303, -0.00016512838192284107, 0.0003849444619845599, -0.00011925688886549324, 0.0006876367260701954, -0.0003197397745680064, 0.0016179444501176476, 0.00019934702140744776, 0.00020089297322556376, -0.0005849162116646767, 0.011958512477576733, -0.0009811619529500604], [-0.0014791814610362053, 0.0012611872516572475, -0.001338450936600566, 0.0027290016878396273, -0.00036035431548953056, -0.001441292930394411, 0.0010793153196573257, -0.0014372890582308173, -0.00020808573754038662, 3.2444629596284358e-06, 0.021073011681437492, 0.0013192471815273166, 0.0014504912542179227, -0.0014517512172460556, -0.001315335277467966, -0.0018120278837159276, -0.0015932583482936025, -0.013540616258978844, -0.0009849388152360916, 0.0014116724487394094, -0.00141740997787565, 0.001039148890413344, 0.0004953342722728848, -0.0009063825127668679, -0.0014161455910652876, -0.0006341520347632468, -0.0014468072913587093, -0.0012214644812047482, -0.001182160573080182, 0.001169307972304523, -0.012741202488541603, 0.0015359744429588318], [-0.003401335561648011, 0.0025657685473561287, -0.0022861165925860405, 0.007700024172663689, -0.00046754672075621784, -0.003753123339265585, 0.0018863433506339788, -0.0037409828510135412, -0.00023160732234828174, -0.0001004539371933788, 0.026355940848588943, 0.003027974860742688, 0.002913513919338584, -0.0025661990512162447, -0.0036433329805731773, -0.0052521731704473495, -0.004119630437344313, -0.01851472817361355, -0.002632231917232275, 0.0035167017485946417, -0.002859877422451973, 0.002797467168420553, 0.0009089686791412532, -0.0023500004317611456, -0.002854914404451847, -0.0006663862150162458, -0.0029565305449068546, -0.002394780283793807, -0.0018056712578982115, 0.002146523678675294, -0.008298642002046108, 0.004302567336708307], [0.0012832885840907693, -0.0031023824121803045, -0.00047760221059434116, -0.4196726977825165, -0.003797895275056362, -0.001382616232149303, 0.0010551358573138714, -0.0007449268014170229, -0.0021851633209735155, 0.0022610824089497328, 0.7558259963989258, 0.0005184435285627842, -0.001148684648796916, -0.0013142062816768885, 0.0016380981542170048, 0.14917869865894318, 6.446840416174382e-05, 0.30320847034454346, 0.0006902035675011575, -0.0005067326710559428, -0.0010552911553531885, -0.0009559228201396763, -0.0016353874234482646, 0.0033050496131181717, 0.000658271019347012, 0.005813481751829386, -0.0002905944420490414, 0.00048042339039966464, 0.005080233793705702, -0.0006305339629761875, -0.9332853555679321, -0.0017110556364059448], [-0.003067279700189829, 0.0021447353065013885, -0.001993427751585841, 0.004012365359812975, -0.0012577904853969812, -0.0038223103620111942, 0.0014205112820491195, -0.0036215712316334248, -0.001036404399201274, 0.0007381943287327886, 0.01836850680410862, 0.0028151373844593763, 0.0031310413032770157, -0.0026333644054830074, -0.003441812004894018, -0.0016226079314947128, -0.004145079292356968, -0.023157814517617226, -0.0028386679477989674, 0.00329598574899137, -0.002618077676743269, 0.002659545047208667, 0.0002037647063843906, -0.0019004521891474724, -0.0025294057559221983, -3.0653134217573097e-06, -0.00330594670958817, -0.0020422448869794607, -0.0013176435604691505, 0.0017590683419257402, -0.013210086151957512, 0.004121684469282627], [0.002906916430220008, -0.006672769784927368, 0.0029566092416644096, 0.41370800137519836, -0.016255438327789307, -0.005707480479031801, -0.0008017098880372941, -0.0033895208034664392, -0.012957097962498665, 0.011339782737195492, 1.332215666770935, 0.0023651686497032642, 0.0026372012216597795, -0.006608839146792889, -0.0010227564489468932, -0.5171130299568176, -0.0055288816802203655, 1.3066613674163818, -0.0034140925854444504, 0.0013553366297855973, -0.005746523384004831, 0.00602942518889904, -0.008729294873774052, 0.004896534141153097, 0.0007465358357876539, 0.015586252324283123, -0.0074207051657140255, -0.0034905949141830206, 0.0118699437007308, -0.0059558856301009655, -0.6989195346832275, 0.0006355813820846379], [-0.0010651936754584312, 0.00046416951227001846, -0.000859833147842437, 0.003981228452175856, -0.0016809824155643582, -0.0020666238851845264, 0.0003189134004060179, -0.0016086091054603457, -0.0014386959373950958, 0.0013660212280228734, 0.0079007213935256, 0.0010274751111865044, 0.0017924883868545294, -0.0012621189234778285, -0.0014271928230300546, -0.0016698314575478435, -0.002140422584488988, -0.012523242272436619, -0.0018911625957116485, 0.001292416942305863, -0.0008139331475831568, 0.0010592760518193245, -0.0007659007096663117, -0.0002137278497684747, -0.000634850119240582, 0.001113099162466824, -0.0021182680502533913, -0.00041793574928306043, 5.333824083209038e-05, 0.0006861957954242826, -0.008358080871403217, 0.0019263147842139006], [0.002573932521045208, -0.0017818022752180696, 0.0014551971107721329, -0.0058563039638102055, 0.0006483530742116272, 0.0029817833565175533, -0.0011942227138206363, 0.002851389115676284, 0.0005580699071288109, -0.0002614575205370784, -0.01998918689787388, -0.002324835630133748, -0.002487377030774951, 0.0020462791435420513, 0.0027533334214240313, 0.002686008345335722, 0.003274837275967002, 0.013848005793988705, 0.0021826340816915035, -0.002784829121083021, 0.0021469476632773876, -0.0020267870277166367, -0.0004779111477546394, 0.0015516604762524366, 0.002215581713244319, 0.0003625445533543825, 0.002638630336150527, 0.0016266227466985583, 0.0011341964127495885, -0.0013837977312505245, 0.008180088363587856, -0.0033422550186514854], [-0.0021633494179695845, 0.0017017776845023036, -0.0015005141030997038, 0.0031441927421838045, 0.00046706476132385433, -0.001954379491508007, 0.001550936489365995, -0.0023161466233432293, 0.0005083886790089309, -0.0008965837187133729, 0.0256822369992733, 0.001851804438047111, 0.00145075807813555, -0.00142765324562788, -0.002123055746778846, -0.003382613882422447, -0.002351855393499136, -0.009992044419050217, -0.0011672499822452664, 0.002163075376302004, -0.0020050446037203074, 0.001498128636740148, 0.0013942328514531255, -0.0016059010522440076, -0.0021689352579414845, -0.0012420769780874252, -0.0014400474028661847, -0.0017631752416491508, -0.0014983377186581492, 0.0014618943678215146, -0.007431746460497379, 0.0026642088778316975], [0.003691129619255662, -0.002967322012409568, 0.0028796258848160505, -0.010929548181593418, 0.00021610921248793602, 0.0038484560791403055, -0.0024570715613663197, 0.003936925902962685, -0.0001253185182576999, 0.0005098870606161654, -0.03789031133055687, -0.003299154806882143, -0.002882535569369793, 0.0028265875298529863, 0.0038331865798681974, 0.006976465228945017, 0.004228262230753899, 0.02282487228512764, 0.002516017761081457, -0.0037132385186851025, 0.003277515061199665, -0.003020151983946562, -0.0013348206412047148, 0.002718745730817318, 0.0031559935305267572, 0.0010096223559230566, 0.002847026800736785, 0.0029092004988342524, 0.002285184571519494, -0.002679038094356656, 0.010918976739048958, -0.004418944474309683], [0.0013686518650501966, -0.0012176553718745708, 0.0006197012844495475, 0.00218213046900928, -0.001942629343830049, 0.0006278496002778411, -0.0011226162314414978, 0.001235075993463397, -0.001706012524664402, 0.0019633055198937654, -0.008203361183404922, -0.0010998855577781796, 6.630911229876801e-05, 0.00022098595218267292, 0.0012444400927051902, 0.004241576883941889, 0.0009665660327300429, -0.003593096509575844, -0.0001254129019798711, -0.0012799525866284966, 0.0011287231463938951, -0.0008380803046748042, -0.0019962373189628124, 0.0015015681274235249, 0.0014350619167089462, 0.00200758152641356, -0.00020421545195858926, 0.001264215330593288, 0.00144743372220546, -0.0008214132394641638, -0.007959379814565182, -0.001471177558414638], [-0.003387382021173835, 0.0028939435724169016, -0.0023014096077531576, 0.00786981638520956, 0.0008975280215963721, -0.003114636754617095, 0.0023282573092728853, -0.003537524491548538, 0.001101780915632844, -0.0014124783920124173, 0.027312949299812317, 0.0030027180910110474, 0.0020859113428741693, -0.002182282507419586, -0.0034708604216575623, -0.0069936104118824005, -0.003551769070327282, -0.010345464572310448, -0.0017851419979706407, 0.0033325168769806623, -0.002919396385550499, 0.0028383901808410883, 0.002036730293184519, -0.002899035345762968, -0.002965842839330435, -0.0018546096980571747, -0.0019127040868625045, -0.0028078549075871706, -0.0025798166170716286, 0.0022793759126216173, -0.001811865484341979, 0.0038865029346197844], [-0.00099721469450742, 0.00035675024264492095, -0.0002900692052207887, 0.0040169889107346535, 0.0008897793013602495, -0.0006602052599191666, 0.0005896908696740866, -0.0008278084569610655, 0.0005066054291091859, -0.0009979825699701905, 0.0096770403906703, 0.000540001317858696, 0.0003947192744817585, -4.097912460565567e-05, -0.0006676414050161839, -0.0026917438954114914, -0.000980736454948783, -0.004923456348478794, -0.0004650824994314462, 0.0009976971196010709, -0.0006687392597086728, -0.0002890836331062019, 0.0010173134505748749, -0.00014570362691301852, -0.001522492035292089, -0.0007364344783127308, -0.0005990331410430372, -0.0002732533903326839, -0.00024929913342930377, 0.00043088450911454856, 0.0035685149487107992, 0.001593377091921866], [-0.0004756331327371299, 0.0007187870214693248, -0.0005599540309049189, -0.0016870045801624656, 0.0031509187538176775, 0.0013505404349416494, 0.0007190437754616141, 0.0006974883726797998, 0.0026944500859826803, -0.003028372535482049, 0.005849056877195835, -0.00032011274015530944, -0.0011896296637132764, 0.0009957482106983662, 0.0006451281951740384, -0.003104744479060173, 0.0011439273366704583, 0.0030285613611340523, 0.0013727110344916582, -0.0002455330395605415, 0.0001346673961961642, -0.0012289927108213305, 0.0022656936198472977, -0.00040570416604168713, -0.0010783062316477299, -0.00316547229886055, 0.0016572793247178197, -0.0001798799348762259, -0.0015632030554115772, 0.0005577497649937868, 0.005251891445368528, -0.00039681739872321486], [-0.0005494749057106674, 5.287086241878569e-05, -0.00038202424184419215, -0.00010443457722431049, -0.001921492861583829, -0.0013860317412763834, -0.0001175047000288032, -0.0008216426940634847, -0.0018368237651884556, 0.0016956573817878962, 0.007409026846289635, 0.0005536542157642543, 0.0016929514240473509, -0.0011369521962478757, -0.0006311761680990458, 0.0007451543351635337, -0.0013955050380900502, -0.01625501736998558, -0.0014889870071783662, 0.0007475707097910345, -0.000473929540021345, 0.0003113580751232803, -0.0010810875101014972, 0.0003778042155317962, -0.00040764306322671473, 0.0011078589595854282, -0.0020702816545963287, 5.023883204557933e-06, 0.0003514816635288298, 0.00016446846711914986, -0.016284916549921036, 0.0010261534480378032], [-0.002750315936282277, 0.002418824005872011, -0.002063134917989373, 0.0016671890625730157, 0.0013106751721352339, -0.002224974101409316, 0.002164751524105668, -0.002828309778124094, 0.00139834254514426, -0.0017975501250475645, 0.031864069402217865, 0.0023669321089982986, 0.0013827773509547114, -0.0016353015089407563, -0.0026788110844790936, -0.006691011134535074, -0.002686243737116456, -0.00922074168920517, -0.0010727529879659414, 0.002609159564599395, -0.0024968457873910666, 0.0021034630481153727, 0.0022647397127002478, -0.002450124593451619, -0.0026529734022915363, -0.002141161123290658, -0.0011990393977612257, -0.0025035631842911243, -0.0024152130354195833, 0.0019876803271472454, -0.0064046913757920265, 0.0030779342632740736], [-0.0017552912468090653, 0.0018586197402328253, -0.001625354285351932, -0.00012477865675464272, 0.0026493696495890617, -0.00031372084049507976, 0.0017208594363182783, -0.0010073438752442598, 0.002470748033374548, -0.0028302075807005167, 0.02208019606769085, 0.0010980026563629508, -9.864074672805145e-05, -0.0003576937597244978, -0.0010281982831656933, -0.006361203268170357, -0.0006442065932787955, -0.005450178869068623, 0.00036825318238697946, 0.0011810617288574576, -0.001263652229681611, 0.0005202334723435342, 0.0025328483898192644, -0.0015941320452839136, -0.002017552964389324, -0.0029834473971277475, 0.0005728626274503767, -0.0015359149547293782, -0.002442257246002555, 0.001569003565236926, -0.0005397808272391558, 0.0012722270330414176], [0.0008126499014906585, -0.0010182828409597278, 0.0012358955573290586, 9.42569604376331e-05, -0.0016598914517089725, -0.000336232827976346, -0.0010313245002180338, 8.480789983877912e-05, -0.0015713279135525227, 0.00173559517133981, -0.011578455567359924, -0.0002641438622958958, 0.0002241662296000868, -5.375736145651899e-05, 0.00013747090997640043, 0.0020700807217508554, -0.00019652681658044457, 0.002977508818730712, -0.0004439259064383805, -0.00025475514121353626, 0.00033349028672091663, 0.0001815860450733453, -0.0013081232318654656, 0.0006815773667767644, 0.0009385386947542429, 0.001723235473036766, -0.0006291249883361161, 0.0006026822375133634, 0.0014272858388721943, -0.0012266308767721057, 8.295039879158139e-05, -0.0003004087193403393], [-0.007204401306807995, 0.005686489399522543, -0.0005300800548866391, 0.4804880619049072, -0.0037803880404680967, -0.009775493294000626, 0.0028319726698100567, -0.009946024976670742, -0.0021417392417788506, 0.0016740761930122972, 0.1867017149925232, 0.007939298637211323, 0.0054957810789346695, -0.006392825394868851, -0.010966364294290543, 0.9614226222038269, -0.01193736307322979, 0.22947509586811066, -0.00510738231241703, 0.009044745936989784, -0.00826690997928381, 0.011493940837681293, -0.0006032116361893713, -0.0077088093385100365, -0.004729374311864376, -0.0013258986873552203, -0.005867044907063246, -0.008364465087652206, -0.003210457507520914, 0.0003176171740051359, 0.6598291397094727, 0.010967484675347805], [0.0027513401582837105, -0.001762660569511354, 0.0016262971330434084, -0.006582486443221569, 0.0006100102327764034, 0.0032140789553523064, -0.0012183039216324687, 0.0031143766827881336, 0.0005531121278181672, -0.00017342531646136194, -0.016184093430638313, -0.002276492305099964, -0.0025346744805574417, 0.0018554417183622718, 0.00298236939124763, 0.003887822385877371, 0.003600745927542448, 0.015438365750014782, 0.0025025142822414637, -0.002898755483329296, 0.002092864830046892, -0.0019799426663666964, -0.00042130585643462837, 0.001501237042248249, 0.0023633691016584635, 0.00015164769138209522, 0.0027206160593777895, 0.0014765700325369835, 0.0009209987474605441, -0.001530528999865055, 0.004033989738672972, -0.003949148114770651], [-1.2923054782731924e-05, 1.4823400306340773e-05, -7.020630164333852e-06, 2.2506890672957525e-05, 1.0605094757920597e-05, -3.4730004699667916e-05, 2.5607781935832463e-05, -4.3656698835548013e-05, 3.555729199433699e-05, -2.0380843125167303e-05, -4.875336526311003e-05, 2.355386095587164e-05, -6.557412461916101e-07, -1.4053097174837603e-06, -2.495995067874901e-05, 0.00011111312778666615, -2.515807318559382e-05, 0.00048011858598329127, -2.775946632027626e-05, 1.5682140656281263e-05, -1.2779677490470931e-05, 2.9841232390026562e-05, 5.2236689953133464e-05, -3.275152266724035e-05, -3.5033775930060074e-05, -7.396858450192667e-07, 6.858806955278851e-06, -2.379064062552061e-05, -2.392045280430466e-05, 1.0968989954562858e-05, -0.0008565419120714068, 2.323718581465073e-05], [-1.2031481674057432e-05, 1.5183115465333685e-05, -8.194615475076716e-06, 0.00021454613306559622, -3.6463054584601196e-06, -3.3763786632334813e-05, 2.106097417708952e-05, -3.848010237561539e-05, 1.902150506793987e-05, -6.5380554588045925e-06, 0.00016698011313565075, 2.2272537535172887e-05, 1.3110265172144864e-05, -1.0857908819161821e-05, -2.0829898858210072e-05, 0.0003825321327894926, -2.271449557156302e-05, 0.0004940624930895865, -2.822880560415797e-05, 1.298084134759847e-05, -1.2692209566012025e-05, 2.7476884497446008e-05, 4.0046172216534615e-05, -2.9392624128377065e-05, -3.067060970352031e-05, -4.779400342158624e-08, -1.5375657312688418e-05, -2.228566154371947e-05, -2.2789306967752054e-05, 1.1239394552831072e-05, -0.0011226246133446693, 1.4677654689876363e-05], [-9.7153661045013e-06, 9.41266080189962e-06, -3.774674723899807e-06, -0.00024362174735870212, -1.5929784922263934e-06, -1.5656323739676736e-05, 7.104017640813254e-06, -1.5471889128093608e-05, 3.398834678591811e-06, -8.487095328746364e-07, -0.0005199069855734706, 1.4001312592881732e-05, 6.08835671300767e-06, -1.1329296285111923e-05, -1.5273657481884584e-05, -0.00030240355408750474, -1.5424626326421276e-05, 0.00026622580480761826, -8.834307664074004e-06, 1.285458347410895e-05, -1.0972548807330895e-05, 1.8689062926569022e-05, 5.942099051026162e-06, -1.1493345482449513e-05, -9.090645107789896e-06, -2.6102552510565147e-06, -2.116993755407748e-06, -1.0408532034489326e-05, -8.24899962026393e-06, 5.366821369534591e-06, -0.0002864912385120988, 1.2042606613249518e-05], [0.0074898493476212025, -0.010679705068469048, 0.007390309125185013, -0.5084735751152039, -0.008777587674558163, -0.0006173402070999146, -0.005539972335100174, 0.0032698423601686954, -0.004926855210214853, 0.0103416433557868, 0.6451568603515625, -0.0047186934389173985, -0.0037309499457478523, 0.004249305929988623, 0.0064092944376170635, 0.9468330144882202, 0.004811636637896299, 1.0085170269012451, -0.00140796834602952, -0.0043942565098404884, 0.004055395256727934, -0.008089029230177402, -0.005694226827472448, 0.01217405404895544, 0.008996878750622272, 0.015315529890358448, 0.0034444413613528013, 0.013208386488258839, 0.016130071133375168, -0.005290920380502939, 0.10508263111114502, -0.004556219559162855], [-1.2652266377699561e-05, 1.0135539014299866e-05, -5.8849000197369605e-06, 0.0005987450713291764, -6.3596262407372706e-06, -2.713751746341586e-05, 6.060021860321285e-06, -2.2108128177933395e-05, -3.1053280054038623e-06, 4.459830961422995e-06, 0.0001204289001179859, 1.4228621694201138e-05, 1.1588719644350931e-05, -6.542780738527654e-06, -2.2486694433609955e-05, -6.659206701442599e-05, -2.8557049517985433e-05, 0.00010099096107296646, -1.3440491784422193e-05, 1.6136995327542536e-05, -9.733242222864646e-06, 2.5045583242899738e-05, 1.3571557246905286e-06, -1.3509305972547736e-05, -8.777525181358214e-06, -1.180354615826218e-06, -1.4681118955195416e-05, -1.2070788216078654e-05, -1.0395521712780464e-05, 4.167760380369145e-06, -0.0004929967108182609, 2.314894663868472e-05], [-2.04586631298298e-05, 2.2112522856332362e-05, -1.4909435776644386e-05, -0.0011314640287309885, 4.461158096091822e-05, -6.506996578536928e-05, 5.079636684968136e-05, -7.941501826280728e-05, 9.718391083879396e-05, -6.23813466518186e-05, 0.0001006250677164644, 4.015952436020598e-05, -1.1968368198722601e-05, 1.1752806130971294e-05, -4.489494313020259e-05, -0.0006074137636460364, -4.96050161018502e-05, 0.0006614351295866072, -5.480493200593628e-05, 2.844752452801913e-05, -1.9238210370531306e-05, 4.8556114052189514e-05, 9.83390273177065e-05, -5.806221815873869e-05, -6.172737630549818e-05, 1.1553755939530674e-05, 2.5905203074216843e-05, -3.949257006752305e-05, -3.2188210752792656e-05, 2.8029277018504217e-05, -0.0015129782259464264, 4.659471596824005e-05], [-1.3430721992335748e-05, 9.576789125276264e-06, -6.455094535340322e-06, 1.053054893418448e-05, -1.0354315236327238e-05, -3.6301975342212245e-05, 5.2541427066898905e-06, -2.7529182261787355e-05, -5.170210442884127e-06, 8.561392860428896e-06, 0.0003198681224603206, 1.959633664228022e-05, 2.0863259123871103e-05, -1.9417033399804495e-05, -2.46383515332127e-05, 0.00028694162028841674, -3.412043224670924e-05, 0.00035953876795247197, -2.2783562599215657e-05, 1.9877306840498932e-05, -1.2638271982723381e-05, 2.7684083761414513e-05, 2.115094275723095e-06, -1.4011910934641492e-05, -9.517380021861754e-06, 6.2291610447573476e-06, -1.964694820344448e-05, -1.1937388990190811e-05, -6.902654604346026e-06, 6.505352303065592e-06, -0.0005722580244764686, 2.250249235657975e-05], [-6.4526261667197105e-06, -1.960962663360988e-06, -2.2678043478663312e-06, -0.0007157596410252154, 2.4645003577461466e-05, -5.39187021786347e-05, 3.1127547117648646e-05, -6.346430018311366e-05, 6.845338066341355e-05, -4.2888983443845063e-05, 0.0005499936523847282, 1.8233904484077357e-05, -2.1380063117248937e-05, 3.3052383514586836e-05, -2.6039611839223653e-05, -0.00035743185435421765, -4.279923450667411e-05, 0.0005786764668300748, -4.7190293116727844e-05, 1.3163271432858892e-05, 4.347775757196359e-06, 1.1958004506595898e-05, 8.624782640254125e-05, -2.2734775484423153e-05, -4.439146869117394e-05, 2.2380874725058675e-05, 2.894318095059134e-05, -6.140854111436056e-06, -7.292039754247526e-06, 1.2434293239493854e-05, -0.0016651126788929105, 4.061977961100638e-05], [-1.0138441211893223e-05, 5.438260359369451e-06, -6.174643658596324e-06, 0.0005923965363763273, -1.6227815649472177e-05, -2.5279674446210265e-05, -3.144016602618649e-07, -1.9611088646342978e-05, -1.9397051801206544e-05, 1.6829273590701632e-05, 0.00015382049605250359, 1.1600739526329562e-05, 1.3887759450881276e-05, -8.373644050152507e-06, -2.166971353290137e-05, -0.00023374958254862577, -2.965179010061547e-05, -0.000155336078023538, -1.0781722266983707e-05, 1.553391666675452e-05, -9.375765330332797e-06, 2.365576619922649e-05, -1.5841293134144507e-05, -7.5042785283585545e-06, -1.2275343124201754e-06, 6.1595728766405955e-06, -2.2069962142268196e-05, -8.894803613657132e-06, -3.0849121230858145e-06, 2.7892881462321384e-06, -9.52609843807295e-05, 2.3265401978278533e-05], [-1.249289471161319e-05, 9.031896297528874e-06, -6.281000878516352e-06, 0.0006758862291462719, -1.4997332073107827e-05, -2.7357560611562803e-05, 1.6043344430727302e-06, -2.180596857215278e-05, -1.5460105714737438e-05, 1.4770705092814751e-05, 2.33036535064457e-05, 1.5092801731952932e-05, 1.6024820070015267e-05, -1.281533513974864e-05, -2.483019488863647e-05, -0.000228420554776676, -3.0963543395046145e-05, -0.0002363209059694782, -1.2730964954243973e-05, 1.7980721167987213e-05, -1.1774787708418444e-05, 2.939461774076335e-05, -1.1238281331316102e-05, -1.1541756975930184e-05, -3.235222493458423e-06, 3.6475637443800224e-06, -2.1103371182107367e-05, -1.1685518074955326e-05, -6.270754056458827e-06, 3.76576576854859e-06, -0.0002811176818795502, 2.4013797883526422e-05], [9.234425670001656e-05, -0.00027136181597597897, -0.0014519551768898964, 0.60377436876297, 0.000974227034021169, -0.002851530909538269, -0.0007394945132546127, -0.0020269877277314663, 0.00037669704761356115, -0.0005513110081665218, -0.059157684445381165, 0.0011190550867468119, 0.0024441240821033716, -0.001563632395118475, -0.0006302623078227043, -0.5961614847183228, -0.0035698290448635817, 0.10752980411052704, -0.0017294760327786207, 0.0013115631882101297, 0.00013104417303111404, -0.0004966437118127942, 0.0004999607335776091, 0.0005334855522960424, -0.0024600885808467865, -0.002966193715110421, -0.0038944431580603123, 0.0009385091834701598, -0.001647826051339507, 0.00145740807056427, -0.13921554386615753, 0.0015755584463477135], [-1.0145859960175585e-05, 9.804515684663784e-06, -1.3619735909742303e-05, -0.00040216659544967115, 3.594649570004549e-06, -3.75057861674577e-05, 2.5110253773164004e-05, -4.547819116851315e-05, 3.189200651831925e-05, -1.454622542951256e-05, 0.0008641730528324842, 1.7772395949577913e-05, -1.932155328177032e-06, 6.2470171542372555e-06, -2.211847277067136e-05, 0.00021850514167454094, -2.790508369798772e-05, 0.000776557601056993, -3.317506343591958e-05, 1.1489811186038423e-05, -4.268315024091862e-06, 2.080248850688804e-05, 5.5290282034548e-05, -2.6011301088146865e-05, -3.4395150578347966e-05, 6.341264906950528e-06, 8.299232831632253e-06, -1.5156778317759745e-05, -2.0135594240855426e-05, 1.6710006093489937e-05, -0.0013474622974172235, 2.594352736196015e-05], [-2.985175342473667e-05, 3.508945519570261e-05, -1.3859371392754838e-05, -0.0002552808728069067, 5.522796527657192e-06, -5.199245424591936e-05, 3.0440529371844605e-05, -5.903742930968292e-05, 2.6455576517037116e-05, -1.4096452105150092e-05, -0.000367539789294824, 4.365460335975513e-05, 1.9248407625127584e-05, -2.5101373466895893e-05, -5.082468123873696e-05, 4.555203122436069e-05, -4.6811830543447286e-05, 0.0009900771547108889, -3.342527270433493e-05, 3.606065729400143e-05, -3.5222536098444834e-05, 6.80130542605184e-05, 3.437710620346479e-05, -5.308156687533483e-05, -3.737669612746686e-05, -9.618313015380409e-06, -1.1520490261318628e-05, -4.4470081775216386e-05, -3.5467361158225685e-05, 1.7636650227359496e-05, -0.0004888636758551002, 3.768054011743516e-05], [-2.947702341771219e-05, 3.739323074114509e-05, -1.9107608750346117e-05, -0.0003762737906072289, 6.026729352015536e-06, -4.9835984100354835e-05, 3.510779424686916e-05, -5.628385770251043e-05, 2.6814268494490534e-05, -1.397038340655854e-05, 0.0003222196828573942, 4.161912147537805e-05, 1.951042031578254e-05, -2.375850272073876e-05, -4.419636752572842e-05, 0.0003254660405218601, -3.9747657865518704e-05, 0.0012418375117704272, -3.5991615732200444e-05, 3.151324926875532e-05, -3.2589337934041396e-05, 5.857086580363102e-05, 3.9446666050935164e-05, -5.3950210713082924e-05, -4.198028545943089e-05, -1.4837583876214921e-05, -1.0233328794129193e-05, -4.390623507788405e-05, -4.085980981471948e-05, 2.2961045033298433e-05, -0.001028226688504219, 3.143918002024293e-05], [7.613877187395701e-06, -1.1178380191267934e-05, 5.631375188386301e-06, -0.00017781706992536783, 6.00826351728756e-05, -2.5650862880866043e-05, 3.420231951167807e-05, -4.376834476715885e-05, 0.00010691394709283486, -7.760935113765299e-05, 0.0005867504514753819, 4.3866532450920204e-07, -4.8638157750247046e-05, 5.808662172057666e-05, 2.3273655358480028e-07, -0.0002487824240233749, -1.164937020803336e-05, 0.000581434287596494, -2.992326881212648e-05, -8.09824177849805e-06, 1.933661405928433e-05, -1.9838198568322696e-05, 0.00011745699885068461, -1.2564732060127426e-05, -4.9028163630282506e-05, 5.135123046784429e-06, 6.379702972481027e-05, 4.013323632534593e-06, -1.1782956789829768e-05, 6.536780347232707e-06, -0.0016704956069588661, 1.8481699953554198e-05], [-0.0021855272352695465, 0.004805940669029951, -0.0010896559106186032, 0.11556848883628845, -0.0003112088015768677, -0.002033401280641556, 0.001402798225171864, -0.00464613689109683, 0.0013807949144393206, 0.0013726360630244017, -0.44648879766464233, 0.004453243222087622, -0.0007924577803350985, -0.006140801589936018, -0.006914990954101086, 0.20312321186065674, -0.0009163051727227867, 0.054208219051361084, -0.0006308150477707386, 0.004205017816275358, -0.00710900966078043, 0.013653717003762722, 0.002258619526401162, -0.00622232910245657, -0.003173860954120755, -0.0027139277663081884, 0.004104664083570242, -0.008134569972753525, -0.0055866907350718975, 0.0014065427239984274, -0.7054082751274109, 0.002325794193893671], [-7.188496056187432e-06, 9.868958841252606e-06, -4.300654381950153e-06, -0.0012249019928276539, 8.624658221378922e-05, -4.6031938836677e-05, 5.9557223721640185e-05, -6.835905514890328e-05, 0.00015034957323223352, -0.00010758958524093032, -6.958968151593581e-05, 2.6906423954642378e-05, -4.9381746066501364e-05, 4.9646921979729086e-05, -2.446004145895131e-05, -0.0008346294052898884, -2.5844092306215316e-05, 0.0005934644141234457, -4.551054007606581e-05, 1.238423828908708e-05, -4.6881632442818955e-06, 1.8193679352407344e-05, 0.00014219350123312324, -5.0301845476496965e-05, -7.009438559180126e-05, 4.832742433791282e-06, 7.038069452391937e-05, -2.8467635274864733e-05, -2.776213841571007e-05, 2.47173520619981e-05, -0.0012658936902880669, 3.179919804097153e-05], [-0.005176002625375986, 0.00019105174578726292, -0.002861632499843836, -0.09019365906715393, -0.007770819123834372, -0.014596361666917801, 0.003919785842299461, -0.005953694693744183, -0.0025404070038348436, 0.002830923069268465, 0.19549666345119476, 0.004659448750317097, 0.006526314187794924, -0.0020916927605867386, -0.007515827193856239, -0.5935215353965759, -0.01312226988375187, 0.10379916429519653, -0.012978911399841309, 0.007266143802553415, 0.0005142998998053372, 0.005955787375569344, -0.0068585872650146484, 0.0025531353894621134, -0.0008761610370129347, 0.005656659137457609, -0.012047737836837769, 0.004281339235603809, 0.004293536767363548, 0.00497228791937232, 0.8451544046401978, 0.012224199250340462], [-2.7923020752496086e-05, 2.9336059014895e-05, -1.2281136150704697e-05, -0.0003364122530911118, -6.972262781346217e-06, -5.369554492062889e-05, 2.203212170570623e-05, -5.625401172437705e-05, 1.1415064363973215e-05, -2.651868271641433e-07, -1.5960413293214515e-05, 3.9896676753414795e-05, 2.6258767320541665e-05, -2.9257471396704204e-05, -4.962171442457475e-05, 0.00020886825222987682, -4.9947564548347145e-05, 0.0006548504461534321, -3.5704582842299715e-05, 3.4846365451812744e-05, -3.08597955154255e-05, 6.575713632628322e-05, 1.9584349502110854e-05, -4.4692693336401135e-05, -2.801801383611746e-05, 2.1261980691633653e-06, -2.2065607481636107e-05, -3.822367580141872e-05, -2.6747076844912954e-05, 1.5188336874416564e-05, -0.0005520583945326507, 3.929892773157917e-05], [-9.051826964423526e-06, 9.125497854256537e-06, -9.675680303189438e-06, -0.00035812222631648183, 2.6168076146859676e-05, -3.6360754165798426e-05, 3.134015423711389e-05, -4.784960037795827e-05, 5.917596354265697e-05, -3.7318957765819505e-05, 0.0005149625358171761, 1.8666602045414038e-05, -1.4058460692467634e-05, 1.5599925973219797e-05, -2.0855550246778876e-05, -6.154971197247505e-05, -2.5382092644576915e-05, 0.0006037597195245326, -3.173006189172156e-05, 1.0937998013105243e-05, -4.6792592911515385e-06, 1.8742563042906113e-05, 7.482019282178953e-05, -2.9535383873735555e-05, -4.103044921066612e-05, 3.1558945465803845e-06, 2.465535726514645e-05, -1.7880942323245108e-05, -2.2678797904518433e-05, 1.5627298125764355e-05, -0.00097484583966434, 2.5798641217988916e-05], [3.6621211165766e-06, -3.736116468644468e-06, -4.625127985491417e-06, -0.0001410141121596098, 2.594159923319239e-06, -1.0119225407834165e-05, 1.2946407878189348e-05, -1.7562231732881628e-05, 2.2718759282724932e-05, -1.240991878148634e-05, 0.0012579889735206962, -2.983946615131572e-06, -8.603987225797027e-06, 1.9643199266283773e-05, 4.182938027952332e-06, 0.000577859696932137, -1.2696433486780734e-06, 0.0007337522692978382, -1.6053187209763564e-05, -8.241161594924051e-06, 1.203285592055181e-05, -1.1983891454292461e-05, 4.621843254426494e-05, -2.9616855954373023e-06, -2.0694871636806056e-05, 3.820272468146868e-06, 7.865087354730349e-06, 4.61115041616722e-06, -8.110086127999239e-06, 6.471305823652074e-06, -0.000991938402876258, 2.4472626591887092e-06], [4.486749094212428e-05, -4.996768620912917e-05, 2.266587944177445e-05, 0.0003226483822800219, 7.947210542624816e-05, 2.6343190256739035e-05, 1.29833188111661e-05, 5.437394975160714e-06, 0.00011726540105883032, -9.513536497252062e-05, 0.0007883787038736045, -5.364840035326779e-05, -8.282458293251693e-05, 0.00010563283285591751, 6.048842624295503e-05, 0.00023778399918228388, 3.7359688576543704e-05, 0.000777428038418293, -9.87350631476147e-07, -5.843906183145009e-05, 7.051147986203432e-05, -0.00010683052096283063, 0.00012490450171753764, 4.445633749128319e-05, -3.138466490781866e-05, -4.821898528462043e-06, 9.879998106043786e-05, 5.962657814961858e-05, 1.263510603166651e-05, -1.2136689292674419e-05, -0.0023938578087836504, -2.030162067967467e-05], [-1.8601178453536704e-05, 1.2044741197314579e-05, -8.31648867460899e-06, 0.000571390672121197, -1.8919965441455133e-05, -2.990429311466869e-05, 1.1308462717352086e-06, -2.7451773348730057e-05, -2.4610944819869474e-05, 2.1739959265687503e-05, 0.000553546124137938, 2.0785922970389947e-05, 1.4552500942954794e-05, -1.937492379511241e-05, -3.769921022467315e-05, -0.00021721748635172844, -3.905186531483196e-05, -0.0003486985806375742, -1.1535512385307811e-05, 2.8188491342007183e-05, -1.8091379388351925e-05, 4.164861820754595e-05, -2.0536892407108098e-05, -1.5668671039748006e-05, -3.263329233504919e-07, 1.4441630810324568e-05, -1.7138932889793068e-05, -1.26108361655497e-05, 7.326454465328425e-07, 6.943898824829375e-06, -0.0001862654316937551, 3.8662488805130124e-05], [6.663592557742959e-06, -1.5568728485959582e-05, 4.3534864744287916e-06, 0.000369189860066399, -1.1385111974959727e-05, -1.6474486983497627e-05, 4.7902426558721345e-06, -2.3499276721850038e-05, 1.9256733139627613e-05, -7.953553904371802e-06, 0.001117861713282764, -8.718704521015752e-06, -1.1445587915659416e-05, 3.1563424272462726e-05, 1.3073291711407364e-06, 0.00036778292269445956, -1.2330327081144787e-05, 0.00032666331389918923, -1.886225800262764e-05, -8.397070814680774e-06, 2.1686280888388865e-05, -1.9187202269677073e-05, 4.307654671720229e-05, 7.508762337238295e-06, -1.582991171744652e-05, 1.402664292982081e-05, 2.861782604668406e-06, 1.768177935446147e-05, 7.110067599569447e-06, -3.2564935281698126e-06, -0.0015584727516397834, 1.6220166799030267e-05], [-2.6320321921957657e-05, 2.5108924091910012e-05, -1.3749480785918422e-05, -0.000197331202798523, -1.7077150914701633e-05, -4.930490831611678e-05, 1.7466676581534557e-05, -4.590678508975543e-05, -1.9883329969161423e-06, 1.142814289778471e-05, 0.00037093207356519997, 3.421289875404909e-05, 3.0034128940314986e-05, -3.0362443794729188e-05, -4.3045067286584526e-05, 0.0005181065644137561, -4.517808702075854e-05, 0.0003444105386734009, -3.372996798134409e-05, 3.186248795827851e-05, -2.63755937339738e-05, 5.3168649174040183e-05, 1.1236662430746946e-05, -3.482107786112465e-05, -2.112328729708679e-05, 3.350396582391113e-06, -3.0897557735443115e-05, -3.0089229767327197e-05, -2.183446122216992e-05, 1.4537930837832391e-05, -9.174035949399695e-05, 3.619662675191648e-05], [2.6578929919196526e-06, -4.830620582652045e-06, 1.1885025514857261e-06, 0.0009828309994190931, -8.250705832324456e-06, 1.4336264939629473e-06, -6.5927883952099364e-06, 5.004696959076682e-06, -1.318101476499578e-05, 9.981384209822863e-06, 0.00011535243538673967, -3.636731207734556e-06, 2.787429821182741e-06, -1.6973925767160836e-06, 1.404280283168191e-06, -0.0007728068740107119, -1.3117544312990503e-06, -0.0009461314766667783, 2.5071333311643684e-06, -9.068094755093625e-07, 2.7463324840937275e-06, -2.3718259853922063e-06, -1.3705538549402263e-05, 7.562092378066154e-06, 7.892515895946417e-06, 4.883396286459174e-06, -5.708192475140095e-06, 5.856164534634445e-06, 7.060199550323887e-06, -2.2514461761602433e-06, -0.000505249307025224, 4.498459702517721e-07], [-2.41431625909172e-05, 2.8218861189088784e-05, -1.164732839242788e-05, -0.0003266122075729072, 5.711833637178643e-06, -4.1362243791809306e-05, 2.6146544769289903e-05, -4.7952577006071806e-05, 2.3395457901642658e-05, -1.2853002772317268e-05, -0.00026264769257977605, 3.490340168355033e-05, 1.232403428730322e-05, -1.7063244740711525e-05, -4.364679989521392e-05, -0.0003865298058371991, -3.8027130358386785e-05, 0.00048369108117185533, -2.6879597498918884e-05, 3.0405353754758835e-05, -2.821932139340788e-05, 5.6850662076612934e-05, 2.8165373805677518e-05, -4.4833755964646116e-05, -3.0398965463973582e-05, -3.840124009002466e-06, -5.541917289519915e-06, -3.5823119105771184e-05, -2.7033638616558164e-05, 1.4897726941853762e-05, -0.00026427156990393996, 3.4708904422586784e-05], [1.43218121593236e-05, -1.9666793377837166e-05, 5.462949047796428e-06, 3.4053082345053554e-05, -4.121797701372998e-06, 2.700404138522572e-06, 3.638673433670192e-07, -3.94819790017209e-06, 2.012391087191645e-05, -1.1758135769923683e-05, 0.001415566890500486, -1.965761293831747e-05, -1.5126693142519798e-05, 3.543799539329484e-05, 1.759826955094468e-05, 0.0005971327773295343, 7.758949323033448e-06, 0.00048736805911175907, -8.760064702073578e-06, -1.993943442357704e-05, 2.839280386979226e-05, -3.56288583134301e-05, 3.5740871680900455e-05, 1.7431069863960147e-05, -8.901381079340354e-06, 9.040639270097017e-06, 4.823767540074186e-06, 2.556980871304404e-05, 1.0639469110174105e-05, -4.226574674248695e-06, -0.0013029424007982016, -1.6885323930182494e-06], [-1.4378160813066643e-05, 1.3550182302424219e-05, -6.407879027392482e-06, 0.00032545739668421447, -9.887773558148183e-06, -4.215609806124121e-05, 1.4585605640604626e-05, -3.478473809082061e-05, 6.48742206976749e-06, 2.4226799268944887e-06, 0.00017679559823591262, 2.431566099403426e-05, 2.5159117285511456e-05, -1.948584394995123e-05, -2.8128513804404065e-05, -0.00013117548951413482, -3.505334825604223e-05, 0.00022675284708384424, -3.0391760446946137e-05, 2.1549980374402367e-05, -1.5701338270446286e-05, 3.318148083053529e-05, 1.8610628103488125e-05, -2.3957243683980778e-05, -1.970532684936188e-05, 3.284739477749099e-06, -2.540334935474675e-05, -1.8034592358162627e-05, -1.2236764632689301e-05, 1.0347762327000964e-05, -0.000904501648619771, 2.4408765966654755e-05], [-1.487004010414239e-05, 1.485244411014719e-05, -6.452314664784353e-06, -0.00020951592887286097, -1.3382913266468677e-06, -2.599786785140168e-05, 1.034850356518291e-05, -2.4308428692165762e-05, 6.66457799525233e-06, -2.193191448895959e-06, -0.0004981550155207515, 2.1198557078605518e-05, 1.0419354111945722e-05, -1.7006481357384473e-05, -2.4315000700880773e-05, -8.222323231166229e-05, -2.484002470737323e-05, 0.0003019868745468557, -1.4766994354431517e-05, 1.979270928131882e-05, -1.6740154023864307e-05, 2.985855462611653e-05, 7.1141321313916706e-06, -1.8864184312405996e-05, -1.3261910680739675e-05, -2.971433332277229e-06, -3.1365091217594454e-06, -1.6809930457384326e-05, -1.2875787433586083e-05, 7.515384368161904e-06, -0.00031465591746382415, 1.938991408678703e-05], [-0.0020703847985714674, 0.000796227715909481, -0.0028039284516125917, 0.7671917676925659, -0.00478625763207674, -0.0005594209651462734, 0.002060790080577135, 0.0012610318372026086, -0.0036150417290627956, 0.00197955803014338, 0.7207251787185669, -0.0008112359209917486, 0.0027572521939873695, -0.00023868407879490405, 0.0008360963547602296, 0.5744165182113647, 0.0005358426715247333, 0.5138846635818481, -0.0018916004337370396, 0.0006132552516646683, 0.001211542054079473, -0.00288598844781518, -0.004382526036351919, 0.0037646370474249125, 0.001554326037876308, 0.003889369545504451, -0.001834506751038134, 0.0008019172237254679, 0.0050584133714437485, 0.0005584669415839016, -0.048035040497779846, -0.000858382205478847], [-1.671397876634728e-05, 1.3929004126111977e-05, -1.2356164802440617e-07, -0.00042285790550522506, 5.0951650337083265e-05, -5.6317978305742145e-05, 4.4638039980782196e-05, -7.131972233764827e-05, 9.990507533075288e-05, -6.804961594752967e-05, -0.0001178845195681788, 3.391866266611032e-05, -2.306406167917885e-05, 2.5791301595745608e-05, -3.628914419095963e-05, -0.0004530894220806658, -4.1175007936544716e-05, 0.00030698018963448703, -4.608905510394834e-05, 2.3376722310786135e-05, -1.3466219570545945e-05, 3.3458552934462205e-05, 0.00010595124331302941, -4.588762385537848e-05, -5.7144123275065795e-05, 