{"model_data": {"model": "SimpleRNN", "input_size": 1, "skip": 1, "output_size": 1, "unit_type": "LSTM", "num_layers": 1, "hidden_size": 32, "bias_fl": true}, "state_dict": {"rec.weight_ih_l0": [[-0.008750095032155514], [-0.0035557416267693043], [-0.006835198495537043], [0.5280700922012329], [-0.007711777929216623], [7.064034434733912e-05], [-0.015908343717455864], [-0.014231494627892971], [-0.009732305072247982], [-0.0026830420829355717], [-0.07662267237901688], [-0.0040648882277309895], [-0.012024310417473316], [-0.005759750492870808], [-0.009091475047171116], [0.15420205891132355], [-0.00462712487205863], [0.052309274673461914], [0.008189713582396507], [-0.015126879326999187], [-0.01083475723862648], [-0.026799852028489113], [-0.014528370462357998], [-0.006461319513618946], [-0.0018272105371579528], [0.007771509233862162], [0.0036722798831760883], [-0.002061759354546666], [-0.0008859355584718287], [-0.00807846337556839], [-0.6018959879875183], [-0.01129968836903572], [-0.007334832567721605], [-0.0028240482788532972], [-0.005562851671129465], [0.31698858737945557], [-0.006454508285969496], [-0.0002583178866188973], [-0.014599951915442944], [-0.009091775864362717], [-0.00824248231947422], [0.0009070340893231332], [-0.04146452993154526], [-0.0007534372853115201], [-0.009337465278804302], [-0.00448374031111598], [-0.013050544075667858], [-0.2847456932067871], [-0.003981183283030987], [0.0934128537774086], [0.008094058372080326], [-0.01164067443460226], [-0.010397694073617458], [-0.026156805455684662], [-0.019604451954364777], [-0.004199503920972347], [-0.0015557545702904463], [0.009698128327727318], [0.005061575677245855], [-0.0015478815184906125], [0.0006480894517153502], [-0.004509205464273691], [0.5534864664077759], [-0.011557013727724552], [-0.052175261080265045], [0.005890216212719679], [-0.0522039495408535], [-1.5967421531677246], [-0.007063392549753189], [-0.01994749717414379], [-0.002499890746548772], [-0.018768876791000366], [-0.0008460447425022721], [0.06551279872655869], [2.472136974334717], [0.014244390651583672], [0.052627984434366226], [0.024269450455904007], [-0.05138164013624191], [0.6224109530448914], [0.01755894161760807], [2.730337142944336], [0.01569892093539238], [0.02182271145284176], [0.0031243632547557354], [0.05286310985684395], [-0.0037453577388077974], [-0.010807923041284084], [0.006449327804148197], [-0.03785905987024307], [-0.09711014479398727], [0.03163935989141464], [-0.03584476560354233], [-0.030764300376176834], [0.2757662236690521], [-0.008073372766375542], [-0.00900167878717184], [-0.0035571614280343056], [-0.006960970815271139], [0.7665973901748657], [-0.007617973256856203], [-0.00030696450266987085], [-0.01655798777937889], [-0.014469127170741558], [-0.010563269257545471], [-0.002412581816315651], [-0.27398762106895447], [-0.004028622061014175], [-0.012222197838127613], [-0.005844960454851389], [-0.010293190367519855], [-0.8573970198631287], [-0.004049251321703196], [0.5340650081634521], [0.00822896882891655], [-0.014896056614816189], [-0.010694452561438084], [-0.027249427512288094], [-0.017135480418801308], [-0.0068146600387990475], [-0.0016938240732997656], [0.007491033058613539], [0.0033404564019292593], [-0.0020808724220842123], [-0.0008806606056168675], [-0.008468857035040855], [0.8933418393135071], [-0.011682062409818172]], "rec.weight_hh_l0": [[0.0011860232334583998, -0.0006232426385395229, 0.0003617157635744661, -0.0036092675291001797, 0.00037301756674423814, 0.0008406873093917966, 0.007314959075301886, -0.00017056336218956858, 0.006270053796470165, -0.003248978639021516, -0.008270641788840294, -0.00485548609867692, -0.00016055301239248365, -0.00034600531216710806, -0.003410247154533863, -0.015953438356518745, -0.0014874233165755868, -0.003433600999414921, 0.00018402883142698556, -0.007415784988552332, -0.0007916479953564703, 0.005440931301563978, -0.002436053939163685, -4.510261715040542e-05, 0.0003785731678362936, 0.00324786058627069, -0.0020621551666408777, -2.6271796741639264e-05, 0.0038532703183591366, 0.0029407432302832603, 0.01537908986210823, -0.0039392090402543545], [-0.0011253244010731578, -0.0020657621789723635, -0.00021865601593162864, -0.008066599257290363, -0.0012001482537016273, 0.0015123927732929587, 0.005770572926849127, -0.002656591823324561, 0.005967248231172562, -0.004718653857707977, 0.007183144334703684, -0.0051994482055306435, 0.00038686563493683934, 0.00037335886736400425, -0.0015301720704883337, -0.012383056804537773, -0.0025158689823001623, 0.008170620538294315, -0.003009847830981016, -0.006299769505858421, 0.0014055632054805756, -1.3336170013644733e-05, -0.0019585289992392063, 0.0035435946192592382, -0.0011173480888828635, 0.001971309306100011, 0.0010743476450443268, -0.0012014020467177033, 0.0019137667259201407, 0.004645335953682661, -0.009710579179227352, -0.0019175613997504115], [0.0004860554472543299, -0.00020620485884137452, 0.0004892387660220265, 0.0025576790794730186, 0.0007247028406709433, 0.0006313924095593393, 0.004699823912233114, 0.00022738485131412745, 0.003942965995520353, -0.0026721309404820204, -0.006618068553507328, -0.003118677530437708, -0.00047364557394757867, -0.0004262219008523971, -0.000692519242875278, -0.0037918277084827423, -0.0003556782321538776, -0.0005383441457524896, 0.00027712987503036857, -0.0043079485185444355, -0.00041334988782182336, 0.0019370232475921512, -0.005183657631278038, -0.00018277422350365669, 0.000877462443895638, 0.0024046567268669605, 0.0007438992615789175, -0.00035717972787097096, 0.0028284278232604265, 0.0024853856302797794, 0.005885843653231859, -0.001267653307877481], [0.030949953943490982, -0.05086458474397659, 0.03725658729672432, -0.25733453035354614, -0.022167526185512543, -0.011998377740383148, 0.09604194760322571, 0.01182696782052517, 0.08615878969430923, -0.05913783237338066, 0.6626633405685425, -0.09302431344985962, -0.018435198813676834, -0.01947908103466034, -0.03689135983586311, 0.612288236618042, -0.04312361776828766, 0.6214974522590637, -0.03848711773753166, -0.09222700446844101, 0.028490565717220306, 0.02456325851380825, -0.1444438397884369, -0.0002488468890078366, -0.01904427446424961, 0.055052850395441055, 0.01183913741260767, -0.045852404087781906, 0.043315935879945755, 0.0868670642375946, 0.2776244282722473, -0.04275740683078766], [5.513554424396716e-05, -0.0010324482573196292, 5.0130865929531865e-06, 0.004084441810846329, -0.00259206909686327, -0.0019503708463162184, -0.004508910235017538, 0.0010135849006474018, -0.0026929634623229504, 0.0026489002630114555, -0.0041222902946174145, 0.002154440153390169, 0.00020665235933847725, 0.0001793288392946124, 0.001954025123268366, -0.01483843568712473, -0.0020865476690232754, -0.00013134392793290317, -0.002497576642781496, -0.00015620292106177658, 0.002572961850091815, 0.001625912031158805, 0.005293719470500946, -0.003061741590499878, -0.0024250124115496874, -0.0023882384411990643, -0.0009327507577836514, 7.300760626094416e-05, -0.0008114884258247912, -0.0013925180537626147, -0.01852959394454956, 0.00032995312358252704], [0.0036387143190950155, -0.0005632465472444892, 0.0031039712484925985, 0.0009664157987572253, -0.0007575868512503803, -0.0006117206066846848, 0.0007507439004257321, 0.0012548404047265649, 0.0003371284401509911, -0.002437254413962364, 0.004287248477339745, -0.002737251576036215, -0.0033720058854669333, -0.0014641879824921489, 0.003921245690435171, -0.002848687581717968, -7.349884981522337e-05, 0.004329681862145662, -0.001664690556935966, 0.0005978487897664309, 5.318643161444925e-05, -0.004676315002143383, 0.00041588267777115107, -0.001198433106765151, -0.0007592144538648427, 0.002589663490653038, 0.006581201683729887, -0.002968416316434741, 0.0010740082943812013, 0.003678014501929283, -0.016791438683867455, 0.001803745748475194], [-0.0034090345725417137, 0.001706874929368496, 0.000938402081374079, -0.010545133613049984, 0.007069407030940056, 0.012331207282841206, -0.02031680941581726, -0.0032267021015286446, -0.01660836488008499, 0.010593973100185394, -0.016026003286242485, 0.01754583977162838, -0.00394106563180685, -0.0027801634278148413, 0.0005328734987415373, 0.009153743274509907, -0.0002217576839029789, 0.0386703796684742, 0.0038714944384992123, 0.027834147214889526, -0.003626114223152399, -0.0025867216754704714, 0.03433186933398247, 0.0027648156974464655, 0.003094397485256195, -0.0012756672222167253, 0.007326545659452677, -0.0028027521912008524, 0.0006400730926543474, -0.01951715163886547, -0.03237117826938629, 0.0005161521257832646], [0.0013313826639205217, -0.0007644799188710749, 0.0011504007270559669, 0.006619768682867289, -0.001633474137634039, 0.0005311567801982164, 0.00028241300606168807, 0.0014548529870808125, 0.0018814628710970283, -0.0005624220357276499, -0.006374056916683912, -0.002698489697650075, -0.0010856399312615395, -0.0006795660592615604, 0.0012867194600403309, -0.02191561460494995, -0.0022961099166423082, -0.0064405761659145355, -0.0024279924109578133, -0.003153401892632246, 0.0017781980568543077, -0.001292397384531796, 0.0011009674053639174, -0.0020438474602997303, -0.0018767419969663024, 0.002581109292805195, 0.004126606043428183, -0.0009865321917459369, 0.0011368117993697524, 0.0030411677435040474, 0.0009008073247969151, 2.0783700165338814e-05], [-0.0024824850261211395, -0.001646021381020546, 0.0007657271926291287, -0.013508312404155731, 0.0032105634454637766, 0.008027557283639908, -0.0126262828707695, -0.003631523810327053, -0.009961739182472229, 0.003113077487796545, -0.009970398619771004, 0.011307750828564167, 0.00043124918011017144, -0.001220418605953455, -0.008625413291156292, -0.0033293673768639565, -0.004985155072063208, 0.021322518587112427, 0.0007840452017262578, 0.015485404059290886, -0.0014551939675584435, 0.00023795728338882327, 0.028757410123944283, 0.004812439903616905, 0.0019130315631628036, 0.010402987711131573, 0.009040108881890774, -0.002335644792765379, 0.009519725106656551, -0.004616669844835997, -0.02359876036643982, -0.006257813423871994], [0.0065543157979846, -0.0033835391514003277, 0.007470579817891121, 0.002515418455004692, 0.0026967714074999094, 0.00904906541109085, -0.0042657144367694855, -0.002195279812440276, -0.0014572731452062726, 0.003952194936573505, -0.005479739047586918, 0.004351391457021236, -0.0070099132135510445, -0.0023652948439121246, 0.00364336627535522, 0.015441269613802433, -0.0013296047691255808, 0.020222308114171028, -0.0046463715843856335, 0.00846333522349596, -0.004186777863651514, -0.016108039766550064, 0.015404234640300274, 0.004465566948056221, 0.0012905936455354095, 0.0031559723429381847, -0.00015104546037036926, -0.008479512296617031, 0.004594555590301752, -0.0052553643472492695, -0.03286750614643097, -0.0015679531497880816], [-0.06262747943401337, 0.04601651802659035, -0.07362169027328491, 0.23058047890663147, 0.0423692911863327, -0.009154366329312325, -0.16386544704437256, -0.0021317165810614824, -0.12435837835073471, 0.129680335521698, 0.228247731924057, 0.14692212641239166, 0.03175995871424675, 0.045278217643499374, 0.016194310039281845, -0.8086539506912231, 0.07276695966720581, 0.24592608213424683, 0.08134443312883377, 0.16571766138076782, -0.02292790822684765, 0.07488714903593063, 0.21649722754955292, -0.03344360738992691, 0.0317334346473217, -0.11189816147089005, -0.15019452571868896, 0.068824402987957, -0.10519571602344513, -0.1501532346010208, -0.17522773146629333, 0.056458357721567154], [0.0033654000144451857, -0.0027777680661529303, 0.005595448426902294, -0.0007916248869150877, 0.0042183115147054195, 0.007838165387511253, -0.012551733292639256, -0.004477451089769602, -0.01040280144661665, 0.007598528638482094, 0.001997869461774826, 0.014966672286391258, -0.004921380430459976, -0.002086113439872861, -0.003776941914111376, 0.020123274996876717, -0.0011020180536434054, 0.03707113862037659, 0.0010148268193006516, 0.013865684159100056, -0.004029789939522743, -0.01151937898248434, 0.028831282630562782, 0.005153833422809839, 0.001499681267887354, -0.0017321843188256025, -0.002266970695927739, -0.006934142205864191, 0.0045253438875079155, -0.012239956296980381, -0.044029027223587036, -0.003516428405418992], [-0.0003912221873179078, -0.0012321871472522616, -6.528413905471098e-06, -2.1822912458446808e-05, 0.00015302939573302865, 0.001962612848728895, -0.0035063379909843206, 7.1417407525586896e-06, 0.005924825556576252, -0.0021784165874123573, -0.006364197004586458, -0.004857736639678478, -0.0005792773445136845, -0.00015523323963861912, -0.0007577199139632285, -0.014588014222681522, -0.0019056927412748337, -0.006539842579513788, -0.0006288183503784239, -0.0009799138642847538, 0.00011704073403961957, 0.0017829056596383452, 0.003794465446844697, -0.000514932326041162, -8.580686699133366e-05, 0.003317109774798155, -0.0015777242369949818, -0.00034522140049375594, 0.0019783712923526764, 0.00611406983807683, 0.00764940120279789, -0.0026225666515529156], [0.0003425292670726776, 0.00023755661095492542, 0.00031384857720695436, 0.006020596716552973, -0.0004627200250979513, -0.00019389668887015432, -0.00022050231928005815, 0.0003155214071739465, -0.00018676317995414138, 0.0001744654291542247, -0.0037513093557208776, 0.00019400037126615644, -0.00031176969059742987, -0.0001845871447585523, 0.00023727309599053115, -0.008510326035320759, -4.810837344848551e-05, -0.004445414990186691, 2.7420386686571874e-05, -0.00041575648356229067, 0.00019158137729391456, 2.8595944968401454e-05, 0.0002389762958046049, -0.00043034233385697007, -0.0003540217294357717, -0.0002550720237195492, 0.0005286042578518391, -0.00018335327331442386, 0.0003245965053793043, -0.00018251403525937349, 0.004687110893428326, -5.352648440748453e-05], [-0.0045700822956860065, -0.004953873343765736, -0.002519122324883938, -0.01892283372581005, 0.0030587122309952974, 0.005395801737904549, -0.01187088992446661, -0.003308533690869808, -0.0050052921287715435, -0.009023281745612621, -0.0059776464477181435, 0.0015223037917166948, 0.003181649371981621, 0.0012654585298150778, 0.003126055933535099, -0.02830539084970951, -0.0031267942395061255, 0.011499088257551193, 0.0016120614018291235, 0.021685559302568436, 0.0018151202239096165, 0.005571285728365183, 0.029279451817274094, 0.00036939565325155854, 0.0021193029824644327, 0.013330061919987202, -0.005892547778785229, 0.0017526625888422132, 0.010121013969182968, -0.005425107199698687, 0.019356662407517433, -0.0028665915597230196], [-0.07121291011571884, 0.010783587582409382, -0.07172135263681412, -0.7901166677474976, 0.0033409451134502888, 0.039304982870817184, 0.005300707649439573, -0.07961354404687881, -0.005437775049358606, -0.0011979701230302453, 0.29888132214546204, 0.005083288066089153, 0.07710128277540207, 0.0695355236530304, -0.029030658304691315, -0.24587412178516388, -0.004387023393064737, 0.17218907177448273, -0.01833188161253929, -0.004036749247461557, 0.009413191117346287, -0.01673896238207817, 0.023780416697263718, 0.04819956794381142, 0.00019850298122037202, 0.0104379178956151, -0.018314359709620476, 0.03319760784506798, -0.0633038654923439, 0.009821664541959763, -0.27297958731651306, 0.005220108199864626], [-0.001373299048282206, -0.003310629166662693, -0.0008166535990312696, -0.016042297706007957, -0.0031188020948320627, 0.000204221680178307, 0.004905117675662041, -0.00223767152056098, 0.005671027582138777, -0.0031130723655223846, -0.0032338756136596203, -0.005637829657644033, 0.0015929024666547775, 0.00038072813185863197, -0.0027821725234389305, -0.03142406791448593, -0.0043288329616189, 0.0019214365165680647, -0.0034831513185054064, -0.007010264787822962, 0.003641353687271476, 0.0023627716582268476, 0.004898013547062874, 0.0019404890481382608, -0.002318980637937784, 0.002455825451761484, -0.0006899120635353029, -0.0006154399598017335, 0.000965279177762568, 0.005705155432224274, -0.015999943017959595, -0.0029543712735176086], [-0.012453163042664528, -0.061537206172943115, -0.00037164680543355644, 0.12401003390550613, -0.017737669870257378, 0.02762986533343792, 0.09413664042949677, -0.0341402031481266, 0.09901347011327744, -0.06882399320602417, 0.015219288878142834, -0.10990957915782928, 0.01481667347252369, 0.008358916267752647, -0.04081843048334122, -0.29540547728538513, -0.05055006593465805, 0.0846518948674202, -0.05412912368774414, -0.1075046956539154, 0.029826238751411438, 0.005503474269062281, -0.1723356395959854, 0.05733266472816467, -0.021997325122356415, 0.07967948913574219, 0.034091174602508545, -0.032229211181402206, 0.03617009148001671, 0.1243075504899025, 0.03529481962323189, -0.04542382061481476], [-0.0007219185354188085, -0.002342348452657461, 0.0002396060444880277, -0.0113038569688797, -0.0023627786431461573, -0.0004152351466473192, 0.000639393285382539, -0.001350222621113062, 0.0015950314700603485, -0.0029737590812146664, 0.014244742691516876, -0.0020819229539483786, 0.000774919637478888, 0.0002492764906492084, -3.167966497130692e-05, 0.0021533076651394367, -0.00276905857026577, 0.022326990962028503, -0.001740188687108457, -0.004356917925179005, 0.0017673094989731908, 0.0002550606441218406, 0.0008687692461535335, -0.0004985583946108818, -0.002016237936913967, 0.0023206276819109917, 0.0016911200946196914, -0.001218109275214374, 0.0013451697304844856, 0.002924904227256775, -0.0207586158066988, -0.0012160362675786018], [-0.0026592968497425318, -0.00018362350238021463, 0.0035906615667045116, -0.017654694616794586, -0.00105896289460361, 0.0007173190824687481, -0.03701675683259964, 0.0030750655569136143, -0.03349709510803223, 0.029949545860290527, -0.02131776511669159, 0.035059601068496704, -0.0013925579842180014, -0.0014277647715061903, 0.016609521582722664, 0.02069014310836792, 0.005354747641831636, 0.06769943982362747, -0.0017196479020640254, 0.037048377096652985, 0.002350309630855918, -0.006620006635785103, 0.03818408027291298, -0.015539777465164661, -0.005266611929982901, -0.02571071684360504, -0.005830168724060059, -0.008629627525806427, -0.014555033296346664, -0.03632102161645889, -0.07217660546302795, 0.013574163429439068], [-8.856398198986426e-05, -0.0018890167120844126, -0.0003034336259588599, -0.005638042464852333, -0.003234506817534566, -0.001157072838395834, -0.0008332171710208058, 0.00019062741193920374, -8.342054206877947e-05, 0.0004962807288393378, -0.0069446503184735775, -0.0009608704713173211, -0.00012933369725942612, 0.0004987787106074393, 0.0008308013784699142, -0.019999396055936813, -0.0034677647054195404, -0.004767233971506357, -0.002599561121314764, -0.003641202813014388, 0.001955946208909154, 0.0014541727723553777, -0.0030393372289836407, -0.0009959700983017683, -0.0026236949488520622, -0.0005883777630515397, -0.0010226441081613302, -0.00022511793940793723, -0.000729413703083992, 0.001994302961975336, -0.010662421584129333, 0.0005011713947169483], [-0.00736314058303833, -0.007509071379899979, -0.0037324370350688696, 0.004079595673829317, 0.005934585817158222, 0.008239786140620708, -0.0008802192169241607, -0.012776307761669159, 0.004642104264348745, -0.013141604140400887, -0.013829000294208527, -0.003240458434447646, 0.004461279138922691, 0.002854986349120736, -0.01151399314403534, -0.04984240606427193, -0.001781094935722649, -0.0007702017319388688, 0.0014159762067720294, 0.014420634135603905, -0.0014809445710852742, -0.0004981270176358521, 0.02883339114487171, 0.01774130016565323, 0.0050219641998410225, 0.010426119901239872, -0.004179998300969601, -0.0024210845585912466, 0.01177897397428751, -0.001337386085651815, 0.022853437811136246, -0.008380177430808544], [0.007262594532221556, 0.022661808878183365, -1.5254193385771941e-05, -0.05324845761060715, 0.019163088873028755, -0.019581172615289688, -0.044896818697452545, 0.02733014151453972, -0.04890516772866249, 0.043495602905750275, -0.018096506595611572, 0.05310961231589317, -0.006281439680606127, -0.001988682197406888, 0.03283875808119774, 0.06563343852758408, 0.033258646726608276, 0.14517997205257416, 0.028303291648626328, 0.04306736961007118, -0.018751170486211777, -0.01794617436826229, 0.05536844953894615, -0.035766709595918655, 0.01412271149456501, -0.04129042848944664, -0.015506728552281857, 0.00023002333182375878, -0.02855324000120163, -0.0560995414853096, -0.04738003388047218, 0.03417573124170303], [0.0007766607450321317, 0.0007673857035115361, 4.181398981017992e-05, -0.01274588331580162, 0.0011176153784617782, -0.001995085272938013, -0.0017707844963297248, 0.0018350653117522597, -3.948257290176116e-05, 0.0014188791392371058, -0.0024809918832033873, -0.0005356943001970649, -0.0006768720922991633, -0.0008731574052944779, 0.000743407872505486, -0.009993715211749077, 0.0012042183661833405, 0.003444225061684847, 0.00141509051900357, 0.004097305703908205, -0.0010772129753604531, -0.00504513131454587, 0.006631948985159397, -0.0017598423874005675, 0.00011747020471375436, 0.0061131552793085575, 0.008727550506591797, 0.000504380906932056, 0.0036219004541635513, 0.0010117427445948124, -0.011798040010035038, 0.0015954228583723307], [-0.00027247797697782516, -0.000941036909352988, -2.3591834178660065e-05, -0.001415202277712524, -0.0018196075689047575, -0.0008854085463099182, -0.001556355389766395, 0.00044731664820574224, -0.0014501706464216113, 0.0008096154779195786, 0.0002133277739631012, 0.0011166755575686693, 0.0002966976899188012, 0.00023466158017981797, 0.00025027053197845817, -0.006699377670884132, -0.0016244687139987946, 0.002854432910680771, -0.0012414089869707823, -0.0008600771543569863, 0.001599165960215032, 0.0010035654995590448, 0.0008606749470345676, -0.001174807664938271, -0.0010211733169853687, -0.001071666949428618, -9.625406528357416e-05, 6.17386194790015e-06, -0.00047965519479475915, 0.0002509065088815987, -0.007648775819689035, -0.00016738685371819884], [0.007126302924007177, -0.00023029110161587596, 0.004872798919677734, -0.006113180425018072, 0.0012811491033062339, 0.009613112546503544, 0.003149236785247922, -0.0021738726645708084, 0.006666149944067001, -0.003995233215391636, 0.005650118459016085, -0.0023606549948453903, -0.006938034202903509, -0.0027764085680246353, 0.005384533666074276, 0.024824509397149086, 0.0009209117270074785, 0.01704512909054756, -0.005259963218122721, 0.0016445090295746922, -0.002461531898006797, -0.011804593726992607, 0.008358282037079334, 0.008093897253274918, 0.00034586372203193605, -0.0021677345503121614, 0.0035378059837967157, -0.003988948650658131, 0.004330774303525686, 0.0014790614368394017, -0.03195886313915253, 0.0010389185044914484], [-0.0032411019783467054, -0.007167793344706297, 0.0022594125475734472, -0.037997055798769, 0.0034686157014220953, 0.010175338946282864, -0.009129436686635017, -0.009838402271270752, -0.0025256448425352573, 0.0063496483489871025, 0.007103088311851025, 0.011233439669013023, 0.0010954993776977062, -7.841025944799185e-05, -0.008718730881810188, 0.015407048165798187, -0.0017650496447458863, 0.03336860239505768, -0.0017664405750110745, 0.01451034378260374, -0.0026474185287952423, -0.0063951159827411175, 0.030058156698942184, 0.010121749714016914, 0.0011350522981956601, -0.0034229750744998455, -0.005118986591696739, -0.00644531287252903, 0.005122557748109102, -0.01555299200117588, 0.002913720440119505, -0.008149772882461548], [0.00047005416126921773, -0.0012630517594516277, 0.0005016456125304103, -0.001697481144219637, 0.0012590675614774227, 0.003090331796556711, 0.00570314284414053, -0.0006373872165568173, 0.005820214282721281, -0.003956328146159649, 0.0006674737669527531, -0.005041569005697966, -0.0007099834620021284, -0.0001077153065125458, -0.0006304011330939829, 0.0046624792739748955, 0.0003076060675084591, 0.003914110362529755, 5.5163734941743314e-05, -0.0037082526832818985, -0.001496206852607429, -0.001715942518785596, -0.005183807574212551, 0.000891511735972017, 0.0013537456979975104, 0.0028163723181933165, 0.0023232237435877323, -0.0006408351473510265, 0.002077118493616581, 0.003931347746402025, -0.0032542026601731777, -0.0007448817486874759], [0.00031382060842588544, -0.00041711601079441607, 0.0016734959790483117, 0.0009149432298727334, 0.0009185439557768404, 0.005200306884944439, 0.007525702938437462, -0.0016126176342368126, 0.00952452514320612, -0.004448399879038334, -0.006684475112706423, -0.010757671669125557, -0.0006233618478290737, -0.000375221308786422, -0.0026867040432989597, -0.0004138400254305452, -0.0007699734997004271, 0.015412195585668087, 1.3257077853268129e-06, -0.005717748310416937, -0.0013020267942920327, -0.0034471347462385893, 0.0010633469792082906, 0.006652184762060642, -5.7355198805453256e-05, 0.010007745586335659, 0.01087169162929058, -0.0030453631188720465, 0.0011945278383791447, 0.008210395462810993, -0.029708027839660645, -0.0030478995759040117], [0.0035104253329336643, -0.003402161644771695, 0.004989389330148697, 0.006015857215970755, 0.003954121842980385, 0.0040366193279623985, -0.015506604686379433, -0.005721018183976412, -0.008822626434266567, 0.011373063549399376, 0.006781637202948332, 0.017788738012313843, -0.005480853840708733, -0.002086763735860586, -0.0015091120731085539, 0.020561879500746727, 0.0008518581162206829, 0.04583635553717613, 0.0010890819830819964, 0.020226556807756424, -0.004284846130758524, -0.010804321616888046, 0.039048828184604645, 0.0013590361922979355, 0.0017200580332428217, -0.009095638990402222, -0.007978441193699837, -0.004568956326693296, 0.001314039807766676, -0.022562241181731224, -0.05363825336098671, -0.002997410949319601], [-0.011834322474896908, -0.025563867762684822, 0.004346984438598156, -0.005251062568277121, 0.0038865646347403526, 0.014211626723408699, 0.0382675975561142, -0.020755231380462646, 0.035446636378765106, -0.04662950336933136, 0.4224648177623749, -0.040395043790340424, 0.01999380812048912, 0.0198769923299551, -0.007528201211243868, -0.0829470306634903, -0.016527798026800156, 0.8544994592666626, -0.005886467639356852, -0.02825682796537876, 0.017406031489372253, 0.035809483379125595, -0.013195831328630447, 0.01786116696894169, 0.00541679747402668, 0.012770088389515877, -0.009074254892766476, 0.003113411134108901, -0.0025184983387589455, 0.018334530293941498, -0.2328747659921646, -0.0058710151351988316], [-0.002940243110060692, -0.0021682523656636477, -0.0007301454897969961, -0.006461582612246275, -0.0002836194180417806, 0.0015832915669307113, 0.007916430942714214, -0.0029498895164579153, 0.010367956012487411, -0.008623103611171246, -0.0069915540516376495, -0.00913368072360754, 0.0021318290382623672, 0.00048370694275945425, -0.003846303792670369, -0.03165305778384209, -0.004588492214679718, 0.002776196226477623, -0.001385628362186253, -0.0013294047676026821, 0.0002997770789079368, 0.0007041532080620527, 0.017141137272119522, 0.0018198353936895728, -0.0005762316868640482, 0.007473248057067394, -0.003098095301538706, -0.0002237827138742432, 0.0073996977880597115, 0.008342443034052849, -0.005718173459172249, 0.0017758478643372655], [0.0008366166730411351, -0.00048668161616660655, 7.442925561917946e-05, -0.003232767106965184, 0.0007418189779855311, 0.0010117278434336185, 0.008320827037096024, -0.0005842770915478468, 0.00615080026909709, -0.003464055946096778, -0.007367939222604036, -0.004847163800150156, 0.00022507034009322524, -0.0002173405373468995, -0.004309158306568861, -0.013086378574371338, -0.00027307294658385217, -0.001643671072088182, 0.0006358441896736622, -0.007913150824606419, -0.0007251985953189433, 0.0047038523480296135, -0.006839309819042683, 0.0005763268563896418, 0.000850164273288101, 0.0028786954935640097, -0.0022499195765703917, 0.00016138528008013964, 0.0038364047650247812, 0.003406540025025606, 0.01338654663413763, -0.003914452623575926], [-0.0006093847914598882, -0.0024415815714746714, -5.747050090576522e-05, -0.007386114448308945, -0.0010198538657277822, 3.395067324163392e-05, 0.005780302453786135, -0.0018326162826269865, 0.005087767727673054, -0.004676680080592632, 0.004519484471529722, -0.005643484182655811, 1.4350941455631983e-05, -4.8684130888432264e-05, -0.000982392462901771, -0.009943834505975246, -0.001978066749870777, 0.004934456665068865, -0.0021760191302746534, -0.006547403987497091, 0.0011934030335396528, -0.00020760466577485204, -0.0048199184238910675, 0.0026110007893294096, -0.000722107186447829, 0.0025723178405314684, 0.0014852805761620402, -0.0013090440770611167, 0.001699095475487411, 0.005468098446726799, -0.006446871906518936, -0.0013974040048196912], [0.0002754463057499379, -0.00015094925765879452, 0.0003614210872910917, 0.002012171084061265, 0.0009446058538742363, 0.0007620494579896331, 0.004936147481203079, 3.106657095486298e-05, 0.003603043034672737, -0.0027246398385614157, -0.005777587182819843, -0.002961997175589204, -0.0003343899152241647, -0.0003644345561042428, -0.0010374669218435884, -0.002200371352955699, -0.00016301832511089742, 0.000408479361794889, 0.0004993932670913637, -0.004323166329413652, -0.0005855823401361704, 0.001971278339624405, -0.006159691605716944, 0.00010393501725047827, 0.0010720681166276336, 0.0023091528564691544, 0.00021840065892320126, -0.00025190034648403525, 0.00257456349208951, 0.002479482674971223, 0.005144795402884483, -0.0013782518217340112], [0.019507819786667824, -0.056931618601083755, 0.019274471327662468, -0.005472882185131311, -0.02095206454396248, -0.0015809898031875491, 0.10417934507131577, -0.007710812613368034, 0.09738019853830338, -0.07987537235021591, 0.3858179450035095, -0.10344632714986801, 0.007050018757581711, 0.009503855369985104, -0.05054481700062752, 0.7603828310966492, -0.0410204641520977, 0.6725782752037048, -0.03939225152134895, -0.08795391768217087, 0.02752859890460968, 0.02548833005130291, -0.11558867245912552, 0.01244543120265007, -0.013417951762676239, 0.057180941104888916, 0.002239123685285449, -0.03523789346218109, 0.02075829729437828, 0.09318193048238754, -0.18088605999946594, -0.045991331338882446], [0.00014164035383146256, -0.0008821013616397977, -1.1772521247621626e-05, 0.003940249793231487, -0.002468658145517111, -0.001752703101374209, -0.0042743501253426075, 0.001065360615029931, -0.0025311873760074377, 0.0023932394105941057, -0.004507673904299736, 0.0019732979126274586, 6.13947631791234e-05, 0.00019770156359300017, 0.0017447317950427532, -0.014149694703519344, -0.0017778566107153893, -0.001377862528897822, -0.001720166066661477, -1.2101738320779987e-05, 0.0022517633624374866, 0.0013698069378733635, 0.005018382333219051, -0.002820411464199424, -0.00202868040651083, -0.0022544977255165577, -0.0005959635018371046, 0.00011284037464065477, -0.0008332801517099142, -0.0011445044074207544, -0.017313985154032707, 0.0003948677331209183], [0.0032636900432407856, -0.0003770780167542398, 0.002734613139182329, 0.0012763123959302902, -0.0006855449755676091, -0.00048552072257734835, 0.0005274020950309932, 0.0010606831638142467, 0.000326529290759936, -0.001869719009846449, 0.003728941548615694, -0.002366965636610985, -0.0029883773531764746, -0.0012618849286809564, 0.003539883531630039, -0.002593462588265538, -0.00011153593368362635, 0.003687992226332426, -0.0016854190034791827, 0.0003889829386025667, 0.00010759520228020847, -0.003973477985709906, 3.779412872972898e-05, -0.0009433130617253482, -0.0006564159994013608, 0.0019614193588495255, 0.005472484044730663, -0.002415403490886092, 0.0006221400690265, 0.003170702373608947, -0.014970571734011173, 0.0015700412914156914], [-0.004336549900472164, 0.000537471380084753, 0.0006830536876805127, -0.010664033703505993, 0.0055994014255702496, 0.012024030089378357, -0.01929163932800293, -0.004282396286725998, -0.015601684339344501, 0.009457184933125973, -0.014706979505717754, 0.016473278403282166, -0.003447343362495303, -0.002372984541580081, -0.001965481322258711, 0.0034274400677531958, -0.002804588759317994, 0.03527421876788139, 0.00293387146666646, 0.027087729424238205, -0.0024639954790472984, -0.001280169002711773, 0.034195851534605026, 0.004526194185018539, 0.0018978832522407174, 0.0019899660255759954, 0.007133857347071171, -0.0029016006737947464, 0.0023225073236972094, -0.017540860921144485, -0.03337167575955391, -0.0011750212870538235], [0.0010055849561467767, -0.00042930874042212963, 0.0010033121798187494, 0.004980758298188448, -0.0010572342434898019, 0.00040052703116089106, 0.0014763132203370333, 0.000989808700978756, 0.002067185938358307, -0.0010399447055533528, -0.0043738712556660175, -0.0025931273121386766, -0.0008777764160186052, -0.0005603357567451894, 0.0005715346778742969, -0.017108989879488945, -0.0013956325128674507, -0.003919735550880432, -0.0016525988467037678, -0.0033389986492693424, 0.0011333940783515573, -0.0005008019506931305, -0.002704755635932088, -0.0013545872643589973, -0.0013192122569307685, 0.0016783677274361253, 0.0020509306341409683, -0.0009311115136370063, 0.001431246753782034, 0.0031185606494545937, 0.0008851742604747415, -0.00035494324401952326], [-0.0025639536324888468, -0.0016388283111155033, 0.000608446600381285, -0.012884056195616722, 0.002608081791549921, 0.007172547746449709, -0.011945391073822975, -0.0034005565103143454, -0.009633169509470463, 0.003621974727138877, -0.00799306109547615, 0.010761561803519726, 0.0004343221662566066, -0.0011328625259920955, -0.008996207267045975, -0.006881531793624163, -0.005288179963827133, 0.019477559253573418, 0.0008860634407028556, 0.012350436300039291, -0.0012368285097181797, 0.00022919406183063984, 0.026635833084583282, 0.005043976940214634, 0.0017384253442287445, 0.011679215356707573, 0.00747055746614933, -0.0017836139304563403, 0.008549852296710014, -0.0015956292627379298, -0.022815318778157234, -0.0056123980320990086], [0.006073150783777237, -0.0033273969311267138, 0.007001814432442188, -0.000749127590097487, 0.002184380544349551, 0.00975310243666172, -0.0035277146380394697, -0.002767701167613268, -0.0008694390417076647, 0.002686606952920556, -0.002014213940128684, 0.0034864824265241623, -0.006847359240055084, -0.002452417276799679, 0.002741516102105379, 0.013016602024435997, -0.0018697116756811738, 0.022417256608605385, -0.005108958575874567, 0.006894509308040142, -0.0034813436213880777, -0.015918442979454994, 0.014719459228217602, 0.005970105994492769, 0.0007308172062039375, 0.004743491765111685, 0.0011491177137941122, -0.00872726459056139, 0.005697687156498432, -0.0037377597764134407, -0.034944113343954086, -0.0019652252085506916], [-0.07215118408203125, 0.035501930862665176, -0.08072556555271149, 0.32704252004623413, 0.045744650065898895, 0.017258932814002037, -0.13331249356269836, -0.020928233861923218, -0.09382321685552597, 0.09866587817668915, 0.5287235975265503, 0.11226826906204224, 0.025035757571458817, 0.042690303176641464, 0.003988014534115791, -1.098129391670227, 0.05536772310733795, 0.7108836770057678, 0.0770353153347969, 0.14196784794330597, -0.013491756282746792, 0.07365405559539795, 0.17855204641819, 0.012755177915096283, 0.022914385423064232, -0.07614846527576447, -0.1202780231833458, 0.0627794936299324, -0.08466234058141708, -0.11849016696214676, -0.49569714069366455, 0.04635946452617645], [0.002808033023029566, -0.002822648035362363, 0.004959902260452509, -0.0038781934417784214, 0.0032698330469429493, 0.007355282083153725, -0.01204800046980381, -0.003928033169358969, -0.010100959800183773, 0.007221587933599949, 0.004698412027209997, 0.014155120588839054, -0.003925538621842861, -0.0016193161718547344, -0.003340190974995494, 0.01601162925362587, -0.002061523264274001, 0.03574361279606819, 0.0008170003420673311, 0.011466403491795063, -0.0026543419808149338, -0.0104849673807621, 0.026438668370246887, 0.005424098577350378, 0.000699013180565089, 0.00034069939283654094, -0.0016101691871881485, -0.0069721899926662445, 0.0044327955693006516, -0.009513861499726772, -0.043928273022174835, -0.002905007917433977], [-0.0006493921391665936, -0.0007220201077871025, -0.00012712406169157475, -0.00010855477739823982, 0.0003999296168331057, 0.0015748164150863886, -0.0031192959286272526, -0.00037394367973320186, 0.00552402064204216, -0.001954943872988224, -0.005498578771948814, -0.0034901576582342386, -6.013969687046483e-05, -2.6539726150076604e-06, -0.0004797228320967406, -0.011287651024758816, -0.0014024836709722877, -0.0045431372709572315, -0.0003390096826478839, 0.0009520233143121004, -0.00038693269016221166, 0.0011163322487846017, 0.00418174359947443, -0.0005742881330661476, 6.628669507335871e-05, 0.0023860780056566, -0.0013193964259698987, -0.00017631507944315672, 0.0021454556845128536, 0.005254003219306469, 0.00627236720174551, -0.0026768045499920845], [0.00027122683241032064, 0.00021400919649749994, 0.00024330730957444757, 0.004618455655872822, -0.00032349274260923266, -0.0001775789278326556, -0.00010891885904129595, 0.0002815596235450357, -0.00018997170263901353, 0.00011694432032527402, -0.002953312825411558, 0.0002458625240251422, -0.0002629762457218021, -0.00017040014790836722, 0.00012209035048726946, -0.006422128062695265, 9.411205246578902e-05, -0.0031416304409503937, 0.00018998472660314292, -0.00031609818688593805, 5.845603664056398e-05, 0.00013946516264695674, 0.000275705213425681, -0.00036095938412472606, -0.0002102500293403864, -0.00027688994305208325, 0.0002495849330443889, -0.00011456573702162132, 0.00029149651527404785, -0.00027283007511869073, 0.004235311411321163, -6.391293572960421e-05], [-0.005584856495261192, -0.005091748666018248, -0.002839914057403803, -0.014984628185629845, 0.0030467528849840164, 0.006060378160327673, -0.009065882302820683, -0.004620197229087353, -0.0018433015793561935, -0.010909315198659897, -0.008606229908764362, -0.0016154824988916516, 0.003881283337250352, 0.0014118573162704706, 0.0006668997230008245, -0.032348062843084335, -0.004686434753239155, 0.010665085166692734, 0.0010609545279294252, 0.01904360204935074, 0.0020289793610572815, 0.007309256587177515, 0.027953265234827995, 0.002106999047100544, 0.0022653909400105476, 0.014223878271877766, -0.006710608955472708, 0.001594104920513928, 0.011535769328474998, -0.002339612692594528, 0.019036296755075455, -0.005255679599940777], [0.03849083185195923, -0.13858012855052948, 0.03225697949528694, 0.3782384693622589, -0.06161238253116608, -0.000526913208886981, 0.17721977829933167, -0.00901559554040432, 0.12104292958974838, -0.12810952961444855, -0.6245940327644348, -0.1660258173942566, -0.022831425070762634, -0.018138296902179718, -0.039726898074150085, 0.14859838783740997, -0.010599978268146515, -0.10551749169826508, -0.0768178254365921, -0.16201141476631165, 0.002137853531166911, 0.09934644401073456, -0.2635318338871002, 0.08726788312196732, -0.012758210301399231, 0.030654363334178925, -0.015035719610750675, -0.0381259024143219, 0.11968842893838882, 0.1963377445936203, -0.48105621337890625, -0.06332719326019287], [-0.0004899281775578856, -0.0029172354843467474, -0.0005804086104035378, -0.015838053077459335, -0.0026444331742823124, -0.00018333212938159704, 0.005461765918880701, -0.0015747006982564926, 0.005276734475046396, -0.002589757554233074, -0.0035819883923977613, -0.005631109233945608, 0.0008534500375390053, -8.564520248910412e-05, -0.0016732360236346722, -0.03194817155599594, -0.004311035852879286, 0.0003628635604400188, -0.0026305066421628, -0.00788610428571701, 0.0033290376886725426, 0.001533883041702211, 0.002447906881570816, 0.0015984948258846998, -0.0014748894609510899, 0.002448174636811018, -0.0006678658537566662, -0.0005192879470996559, 0.0001191286719404161, 0.0061517138965427876, -0.015355375595390797, -0.0019872284028679132], [-0.07581701129674911, -0.06137834116816521, -0.07530903816223145, -0.11337149143218994, 0.031479787081480026, 0.08300525695085526, 0.10645236819982529, -0.10413724184036255, 0.13010476529598236, -0.08351562917232513, -0.022348135709762573, -0.1288393884897232, 0.06764986366033554, 0.0406762920320034, -0.09229101240634918, -0.7371734976768494, -0.03444679453969002, 0.9498998522758484, -0.031501539051532745, -0.08738938719034195, -0.0036192673724144697, -0.03015241026878357, -0.16869916021823883, 0.15147872269153595, 0.007444273214787245, 0.12240041047334671, 0.04406866431236267, 0.01548806019127369, 0.0055597578175365925, 0.14324742555618286, -0.4050937592983246, -0.0487620048224926], [-0.0005692834965884686, -0.0017829060088843107, 0.0002791279985103756, -0.01151270978152752, -0.0021448121406137943, -0.00012045527546433732, 0.001127971918322146, -0.0012789322063326836, 0.0016951252473518252, -0.0029617841355502605, 0.013590902090072632, -0.002391307381913066, 0.0006364304572343826, 0.00014110072515904903, 1.684964809101075e-05, 0.002234682673588395, -0.0024891376961022615, 0.021462731063365936, -0.0018862487049773335, -0.004406833555549383, 0.00158940558321774, 6.688498251605779e-05, -0.0002901408006437123, -0.00023098749807104468, -0.001886299578472972, 0.0023516984656453133, 0.001942621311172843, -0.0010236195521429181, 0.0010511057917028666, 0.00323282927274704, -0.020376935601234436, -0.001090919948183], [-0.004107099026441574, -0.0009722202084958553, 0.003116588806733489, -0.017267460003495216, -0.001479482394643128, 0.00037604940007440746, -0.03677118569612503, 0.002418427960947156, -0.03411465883255005, 0.03107689879834652, -0.01685534603893757, 0.03594328090548515, -7.821405597496778e-05, -0.000773853447753936, 0.016770467162132263, 0.01885310187935829, 0.006396969314664602, 0.07251119613647461, -0.0012226765975356102, 0.036963872611522675, 0.002850065939128399, -0.006066672038286924, 0.03673195838928223, -0.015810208395123482, -0.005635598674416542, -0.027359845116734505, -0.009111262857913971, -0.009320921264588833, -0.0159173384308815, -0.037229012697935104, -0.07636041939258575, 0.014290204271674156], [-0.00035540189128369093, -0.0017696487484499812, -0.00029631107463501394, -0.005420895759016275, -0.002812473801895976, -0.001185193657875061, -0.0016264269361272454, 0.0008338329498656094, -0.0010673071956261992, 0.0005843333201482892, -0.006905007176101208, -0.00037767839967273176, -0.0007448533433489501, 0.00017180167196784168, 0.0019131959415972233, -0.01990625634789467, -0.00307612307369709, -0.006206507328897715, -0.001727119437418878, -0.002545569557696581, 0.0021732922177761793, 0.0006375852972269058, -0.0032313205301761627, -0.0010430497350171208, -0.002012892160564661, -0.0004936228506267071, -0.0008798586204648018, -0.00021140188619028777, -0.0012190180132165551, 0.0014437922509387136, -0.00966247171163559, 0.0014460610691457987], [-0.005738640204071999, -0.008124283514916897, -0.003330382751300931, 0.0049598487094044685, 0.005233522970229387, 0.007031488232314587, 0.00283062388189137, -0.01143547985702753, 0.008331366814672947, -0.0148977255448699, -0.01347402948886156, -0.006634005345404148, 0.00370137020945549, 0.0018366891890764236, -0.012909858487546444, -0.04830186441540718, -0.0029549950268119574, -0.0022481605410575867, 0.0012169076362624764, 0.010341411456465721, -0.0012569435639306903, -0.0005461641703732312, 0.02640942856669426, 0.017733028158545494, 0.0041884323582053185, 0.01182352565228939, -0.003556929063051939, -0.0013912530848756433, 0.011972063221037388, 0.0021859498228877783, 0.022944951429963112, -0.008812728337943554], [0.008564329706132412, 0.023187899962067604, -0.0014020958915352821, -0.051589109003543854, 0.016878049820661545, -0.022083938121795654, -0.045914825052022934, 0.028965188190340996, -0.05015132203698158, 0.04510323703289032, -0.0217694491147995, 0.05415730178356171, -0.005650871433317661, -0.0001834817958297208, 0.03467346727848053, 0.05684816092252731, 0.034231461584568024, 0.14577999711036682, 0.02847116068005562, 0.042909570038318634, -0.017673557624220848, -0.016977859660983086, 0.0557907409965992, -0.03776970133185387, 0.012798786163330078, -0.0434567928314209, -0.018142133951187134, -0.0001953936880454421, -0.030556347221136093, -0.05675886571407318, -0.058698125183582306, 0.03569478541612625], [0.0007210797630250454, 0.00045506839524023235, 8.303682261612266e-05, -0.010717600584030151, 0.0008936524973250926, -0.00146862689871341, -0.0008600333239883184, 0.0015266810078173876, 0.0010179050732403994, 0.0008057327358983457, -0.0018441072897985578, -0.0019318143604323268, -0.0006223777309060097, -0.0007409606478177011, 0.0006684375111944973, -0.008949178270995617, 0.0007641333504579961, 0.00290296389721334, 0.0010299818823114038, 0.001998728606849909, -0.0008919910760596395, -0.004527911078184843, 0.004552507773041725, -0.001489411573857069, -2.6322526537114754e-05, 0.0058134994469583035, 0.008717778138816357, 0.00034041880280710757, 0.003964992705732584, 0.0025568674318492413, -0.01030826848000288, 0.0012314248597249389], [-0.00019494863227009773, -0.0007308682543225586, 1.1253243428654969e-05, -0.0015048551140353084, -0.0016543439123779535, -0.000787213968578726, -0.0015881292056292295, 0.0006682082894258201, -0.001772982650436461, 0.000788083067163825, 0.000200768030481413, 0.001490875380113721, 0.0003210741560906172, 0.00015673847519792616, 0.00025085077504627407, -0.006695053540170193, -0.0013293144293129444, 0.002535192994400859, -0.0012589773396030068, -0.0005635121488012373, 0.0013317411066964269, 0.000877675658557564, 0.000885693181771785, -0.0010963738895952702, -0.0009752527694217861, -0.0011468451702967286, -4.7146648284979165e-05, 4.365365020930767e-05, -0.0005867521977052093, 0.00011209774675080553, -0.007140557747334242, -0.00015817942039575428], [0.006068773102015257, -0.0008960175327956676, 0.004920403007417917, -0.0073017580434679985, 0.0010692974319681525, 0.009106025099754333, 0.004188701044768095, -0.0019111818401142955, 0.007534582167863846, -0.005545171443372965, 0.007695167325437069, -0.003637736663222313, -0.005237176548689604, -0.0024364192504435778, 0.004009229131042957, 0.023263657465577126, 0.00028604824910871685, 0.018888046965003014, -0.005342281889170408, 0.00018100273155141622, -0.002337418496608734, -0.011977942660450935, 0.0074495854787528515, 0.007891950197517872, 2.8977878173463978e-05, -0.0011755293235182762, 0.004972826223820448, -0.004363717045634985, 0.004858414176851511, 0.0030965092591941357, -0.03264092281460762, 0.0004979063523933291], [-0.003631480736657977, -0.007837790064513683, 0.0022139446809887886, -0.038287099450826645, 0.0028373210225254297, 0.010283811949193478, -0.009107702411711216, -0.009858001954853535, -0.002137839561328292, 0.006229993887245655, 0.009786888025701046, 0.011131578125059605, 0.0018439334817230701, 8.418711513513699e-05, -0.008909533731639385, 0.012060830369591713, -0.0026462615933269262, 0.035532146692276, -0.002711985958740115, 0.0145962443202734, -0.0020352036226540804, -0.006662566214799881, 0.0313153937458992, 0.010227699764072895, 0.000500404741615057, -0.0033679648768156767, -0.0052244639955461025, -0.006938915699720383, 0.005530426744371653, -0.015504181385040283, -0.0017054298659786582, -0.008489057421684265], [0.0003244662657380104, -0.0012846066383644938, 0.00044004121446050704, -0.001528021297417581, 0.001324132434092462, 0.0029541137628257275, 0.005953344516456127, -0.0008344737580046058, 0.00567459873855114, -0.0042324126698076725, 0.0005177657585591078, -0.005204038694500923, -0.0006039610016159713, -5.827041604788974e-05, -0.0008391542360186577, 0.005286452826112509, 0.00017552751523908228, 0.004557929001748562, 0.00018475913384463638, -0.004132030066102743, -0.001426614704541862, -0.0011293143033981323, -0.006232105195522308, 0.0012611523270606995, 0.001235299394465983, 0.003115179715678096, 0.002378195757046342, -0.0007117261993698776, 0.0021945356857031584, 0.004192630294710398, -0.0037306288722902536, -0.0008939633844420314], [0.00023168457846622914, 0.00037761288695037365, 0.001155263278633356, -0.0015813105273991823, 0.0008116340613923967, 0.003327618818730116, 0.008575196377933025, -0.0020673158578574657, 0.00826083030551672, -0.005317268893122673, -0.005495624151080847, -0.00991075299680233, -0.0006289553712122142, -0.00041815737495198846, -0.002018730388954282, -0.001791316899470985, 0.0004819271562155336, 0.013811687007546425, 0.0015771174803376198, -0.007793257012963295, -0.0011413661995902658, -0.0014046194264665246, -0.003081695642322302, 0.0059480080381035805, -0.00010956839832942933, 0.009269721806049347, 0.009092149324715137, -0.002321193926036358, 0.0020704055204987526, 0.009054917842149734, -0.028856361284852028, -0.0015497934073209763], [0.003008286701515317, -0.004154783207923174, 0.004616122227162123, 0.0037510921247303486, 0.0031893339473754168, 0.005423782393336296, -0.013163055293262005, -0.006532873492687941, -0.006529055070132017, 0.009073244407773018, 0.010281611233949661, 0.015052209608256817, -0.004790686536580324, -0.001690218923613429, -0.0021189232356846333, 0.016385091468691826, -0.00019727111794054508, 0.047438330948352814, -0.0003600205236580223, 0.017794694751501083, -0.0036496722605079412, -0.010743895545601845, 0.03699423372745514, 0.0027982727624475956, 0.0010029716650024056, -0.007050376385450363, -0.006518498063087463, -0.004653753712773323, 0.00236282916739583, -0.01994803175330162, -0.05605117604136467, -0.0037255166098475456], [0.010422365739941597, -0.0032662067096680403, 0.03605419024825096, 1.9013378620147705, -0.055167801678180695, -0.007348009385168552, 0.01799456961452961, -0.01336874719709158, 0.03966211527585983, 0.005115040577948093, 1.1894077062606812, -0.051541976630687714, -0.013510854914784431, -0.02453354373574257, 0.02121146209537983, 0.7498214840888977, -0.07150925695896149, 0.07900658249855042, -0.03737911581993103, -0.09321393817663193, 0.06933765113353729, -0.05159011483192444, -0.16599349677562714, 0.0017416304908692837, -0.05483734980225563, 0.039073217660188675, 0.09095209091901779, -0.046873219311237335, 0.028988713398575783, 0.07198667526245117, 0.10355200618505478, -0.0038960278034210205], [-0.002990057924762368, -0.0023375453893095255, -0.0008168925996869802, -0.00567028159275651, -0.00015650573186576366, 0.0017989310435950756, 0.010487347841262817, -0.0033507454209029675, 0.01154154259711504, -0.008336950093507767, -0.007340686861425638, -0.010170231573283672, 0.001981908455491066, 0.0003856363473460078, -0.005277626682072878, -0.03246846795082092, -0.004416545387357473, 0.001748837879858911, -0.0006302589317783713, -0.0039692227728664875, -0.000941081962082535, 0.0006893412210047245, 0.013836311176419258, 0.0028918953612446785, -0.00041626658639870584, 0.007031696382910013, -0.0038375614676624537, -0.00013795439735986292, 0.006279291119426489, 0.009474674239754677, -0.004669667221605778, 0.0011636653216555715], [-0.0762699767947197, 0.01933206059038639, -0.05531292036175728, 0.0016797862481325865, 0.010100539773702621, 0.026146460324525833, 0.009581942111253738, -0.10099577158689499, 0.005150683224201202, -0.01811062917113304, -0.07422555983066559, 0.013119158335030079, 0.10443734377622604, 0.06497077643871307, -0.0594046488404274, -0.007619649171829224, -0.01286243461072445, -0.062010105699300766, 0.014677261002361774, -0.01548441406339407, 0.005558416713029146, 0.006198022048920393, 0.006882413290441036, 0.08596579730510712, 0.00543518690392375, 0.00021035315876360983, -0.0035718190483748913, 0.055598948150873184, -0.02584594488143921, -0.005162169225513935, -0.023415975272655487, -0.024183450266718864], [0.04214897006750107, -0.08339177072048187, 0.045203231275081635, 0.028066059574484825, -0.0408991277217865, -0.0014848068822175264, 0.05458582192659378, 0.008074000477790833, 0.07356595247983932, -0.0456879548728466, 0.0007603298290632665, -0.09373018145561218, -0.046833835542201996, -0.022388048470020294, 0.012655711732804775, 0.01938961260020733, -0.02701488323509693, -0.02015475183725357, -0.05419140309095383, -0.04629257321357727, 0.025080222636461258, 0.010846328921616077, -0.09402850270271301, 0.00874234177172184, -0.03106432408094406, 0.03842245042324066, 0.010266420431435108, -0.06231553480029106, 0.03541351854801178, 0.09761211276054382, -0.01497479435056448, -0.018108991906046867], [-0.06434307992458344, 0.033184681087732315, -0.0628056675195694, 0.005754135549068451, 0.017692027613520622, 0.023378033190965652, 0.000880841922480613, -0.07995941489934921, -0.006007128860801458, -0.006694886367768049, -0.05043363571166992, 0.030809512361884117, 0.09159526228904724, 0.061282578855752945, -0.06343108415603638, 0.0057646743953228, 0.0057275197468698025, -0.04900320991873741, 0.03161897137761116, -0.00206375471316278, -0.00629992363974452, 0.010867302305996418, 0.03181201219558716, 0.07720468938350677, 0.014745206572115421, -0.015178032219409943, -0.019321884959936142, 0.0636979341506958, -0.022991925477981567, -0.024265430867671967, -0.024098923429846764, -0.026477649807929993], [0.0420619435608387, 0.005033699795603752, 0.023192690685391426, 0.46474820375442505, -0.02020080015063286, -0.023731399327516556, -0.0442744642496109, 0.04535005986690521, -0.021114103496074677, 0.0394439697265625, -1.7123204469680786, 0.017826957628130913, -0.048401422798633575, -0.033552415668964386, 0.021970298141241074, -0.49307265877723694, 0.0010015304433181882, -0.6282775402069092, -0.025541124865412712, 0.006672212854027748, -0.0056154136545956135, -0.022840121760964394, 0.03966119885444641, -0.03556249290704727, -0.015784690156579018, -0.022213472053408623, 0.006710536312311888, -0.025388335809111595, 0.017338333651423454, 0.005958762485533953, -0.7135097980499268, -0.006623277440667152], [0.015514463186264038, -0.05840906500816345, 0.024698244407773018, -0.011474020779132843, -0.051134757697582245, -0.009310100227594376, 0.04885896295309067, 0.0014060757821425796, 0.06498362869024277, -0.028615454211831093, 0.0014489104505628347, -0.0746273621916771, -0.02625063620507717, -0.015908444300293922, -0.012456852942705154, -0.0063527487218379974, -0.045428164303302765, 0.012425539083778858, -0.06041125953197479, -0.08316356688737869, 0.046168357133865356, 0.03820157051086426, -0.12444261461496353, 0.01347109954804182, -0.040738701820373535, 0.019122064113616943, -0.0002840440138243139, -0.03885028138756752, 0.04095570743083954, 0.0812460258603096, 0.006703455001115799, -0.03303249925374985], [0.04261019453406334, -0.038875043392181396, 0.0466841384768486, 0.017018236219882965, -0.04113573580980301, -0.05181625857949257, 0.04944854602217674, 0.04289283603429794, 0.04240831732749939, -0.009501378051936626, -0.038156259804964066, -0.04598784074187279, -0.0414559580385685, -0.04177013412117958, 0.007680890616029501, 0.00654602563008666, -0.045593373477458954, 0.0019237897358834743, -0.04206958785653114, -0.06583935022354126, 0.0419297069311142, 0.031033622100949287, -0.1332467943429947, -0.043252114206552505, -0.029416561126708984, 0.005527379456907511, -0.0074430545791983604, -0.04343463107943535, 0.04479082673788071, 0.0494336299598217, 0.014062635600566864, -0.011288879439234734], [-0.05048901215195656, 0.01875787228345871, -0.03725261613726616, -0.030187154188752174, -0.0009423596784472466, -0.03491080552339554, -0.07446680217981339, -0.01357965636998415, -0.07052969187498093, 0.05925101414322853, -0.06795339286327362, 0.08606822043657303, 0.0483069084584713, 0.018735410645604134, -0.0021067368797957897, 0.07235685735940933, 0.016986796632409096, 0.032728634774684906, 0.019703254103660583, 0.025714196264743805, -0.006429679226130247, 0.05034947767853737, 0.04770279675722122, -0.013175400905311108, 0.0017310511320829391, -0.07895365357398987, -0.055359967052936554, 0.05263311788439751, -0.03300471603870392, -0.0808541476726532, 0.022212546318769455, 0.026286430656909943], [-0.05122742801904678, -0.0007858002209104598, -0.03329760581254959, -0.03985927626490593, 0.010568690486252308, 0.02072298526763916, 0.01612168550491333, -0.09388633072376251, 0.012266028672456741, -0.03681625798344612, -0.028421800583600998, -0.006712547969073057, 0.10226944833993912, 0.06215515732765198, -0.03879709914326668, -0.0013774980325251818, -0.009008415043354034, -0.029348814859986305, 0.00018922176968771964, -0.00239223288372159, 0.004667428322136402, -0.005256808828562498, 0.01480315811932087, 0.05855299532413483, 0.009440627880394459, 0.013912167400121689, 0.010233672335743904, 0.03339707478880882, -0.044315267354249954, 0.012689578346908092, -0.018386101350188255, -0.008683416992425919], [-0.043898992240428925, 0.029575424268841743, -0.03492971509695053, -0.020766202360391617, 0.0015086133498698473, -0.027341283857822418, -0.05203686282038689, -0.021872717887163162, -0.07164842635393143, 0.04680938273668289, -0.01494421437382698, 0.08445952087640762, 0.049963679164648056, 0.019827736541628838, -0.0010321114677935839, 0.05172521248459816, 0.016509216278791428, 0.001529542962089181, 0.00905931368470192, 0.010403183288872242, -0.008300471119582653, 0.04167132079601288, 0.029989171773195267, 0.008555201813578606, 0.010084397159516811, -0.07039188593626022, -0.048788778483867645, 0.04939180612564087, -0.027433710172772408, -0.0822284072637558, 0.014104987494647503, 0.028386255726218224], [0.023521196097135544, -0.02017420344054699, 0.01560224313288927, 0.004671378992497921, 0.0075148907490074635, 0.028498055413365364, 0.04040222987532616, -0.004281309898942709, 0.032433219254016876, -0.05517951771616936, 0.07317043095827103, -0.04949462041258812, -0.014073798432946205, 0.009505747817456722, 0.018755439668893814, -0.03349731117486954, 0.0022128387354314327, -0.01646103523671627, -0.018018899485468864, -0.0052004302851855755, -0.009116670116782188, -0.048237960785627365, -0.009645635262131691, 0.012473859824240208, 0.014179958961904049, 0.0466669425368309, 0.03806169703602791, -0.026313168928027153, -0.003150682197883725, 0.048201195895671844, -0.006094462238252163, 0.0023695537820458412], [-0.013707920908927917, -0.018820982426404953, -0.010359718464314938, 0.7424173951148987, -0.0037958165630698204, -0.001608458231203258, 0.008430063724517822, -0.0052619874477386475, 0.010438679717481136, -0.0005899291718378663, 0.1642964482307434, -0.004907207563519478, 0.005600867327302694, -0.005010033957660198, -0.019886044785380363, -0.09971722960472107, -0.011994648724794388, -0.09184340387582779, -0.011143242940306664, -0.031023237854242325, 0.0008356371545232832, 0.04535413533449173, -0.04604163393378258, 0.0067309048026800156, -0.0028934357687830925, -0.0074617317877709866, -0.023770885542035103, 0.006668367423117161, 0.015524099580943584, 0.010581869632005692, 0.389516681432724, -0.020691102370619774], [0.052531275898218155, -0.04690032824873924, 0.04227316752076149, -0.0015396331436932087, -0.006612599827349186, 0.02926473878324032, 0.042297061532735825, 0.029275944456458092, 0.061875712126493454, -0.04379411041736603, 0.058994535356760025, -0.08520062267780304, -0.06554462015628815, -0.023442555218935013, 0.02510739490389824, -0.032615095376968384, -0.010365203022956848, 0.008942901156842709, -0.022341884672641754, -0.006838219240307808, 0.003995436243712902, -0.05090387538075447, -0.020786188542842865, -0.013822975568473339, -0.011888893321156502, 0.06641116738319397, 0.048175834119319916, -0.06329019367694855, 0.021327119320631027, 0.07946107536554337, -0.018073562532663345, -0.012069148942828178], [0.034392524510622025, 0.0159918200224638, 0.015679046511650085, 0.010871721431612968, 0.009790807962417603, -0.005467842798680067, -0.05636027082800865, 0.0753205418586731, -0.04660177603363991, 0.0500134639441967, 0.08019301295280457, 0.039665043354034424, -0.0853317603468895, -0.04499436914920807, 0.05331340804696083, 0.0039403196424245834, 0.03935185447335243, 0.050690311938524246, 0.014153911732137203, 0.05106513947248459, -0.028404857963323593, -0.012643298134207726, 0.0687168687582016, -0.04605543985962868, 0.0052333734929561615, -0.027731720358133316, -0.01280832290649414, -0.016408292576670647, 0.012841575779020786, -0.04539322108030319, 0.014761200174689293, 0.032539427280426025], [0.04173104465007782, -0.01603999175131321, 0.03387356922030449, 0.008383586071431637, -0.008385255001485348, -0.0064255241304636, -0.005043111275881529, 0.05687369778752327, 0.0019610226154327393, 0.018811868503689766, 0.028697291389107704, -0.017486369237303734, -0.07367369532585144, -0.05729681998491287, 0.036743395030498505, -0.016980228945612907, 0.002396403579041362, 0.020200172439217567, -0.013274634256958961, 0.0010467945830896497, -0.003992108162492514, -0.017478108406066895, -0.019859125837683678, -0.03802384063601494, -0.01279167365282774, 0.012519373558461666, 0.020221130922436714, -0.039779096841812134, 0.02848837897181511, 0.01479719951748848, 0.012848279438912868, 0.01148219034075737], [-0.011896008625626564, 0.0009244918473996222, -0.009257921017706394, 0.04273959621787071, 0.001511031179688871, 0.020083457231521606, 0.06707113236188889, -0.04810035228729248, 0.07506328076124191, -0.051450736820697784, -0.07004770636558533, -0.06392312794923782, 0.04358720779418945, 0.025901401415467262, -0.07247008383274078, -0.0496867299079895, -0.029162034392356873, -0.05561886355280876, 0.014456193894147873, -0.02910236082971096, 0.021410737186670303, -0.011586803011596203, -0.052836544811725616, 0.049503616988658905, -0.007640461903065443, 0.049298983067274094, 0.032407376915216446, 0.012008897960186005, 0.02285340614616871, 0.06521957367658615, -0.0203987006098032, -0.06291039288043976], [-0.018180519342422485, 0.01248560193926096, -0.014389269053936005, -0.37428274750709534, 0.0002005818678298965, -0.00582770025357604, 0.003191146068274975, -0.019083362072706223, -0.0077421218156814575, 0.004987455904483795, 0.6959213018417358, 0.01500056404620409, 0.02738529071211815, 0.015828019008040428, -0.014447317458689213, 0.37950125336647034, 0.0005633538239635527, 0.6633691191673279, 0.009980280883610249, 0.0074560027569532394, 0.006078826263546944, 0.022994190454483032, 0.021328814327716827, 0.00878818053752184, -0.0005609981599263847, -0.016189346089959145, -0.025113461539149284, 0.02233346365392208, -0.009171850048005581, -0.01582246460020542, -1.1225215196609497, 0.0005709603428840637], [-0.008935661055147648, -0.029742756858468056, 0.00726728979498148, 0.004471044056117535, -0.02584882080554962, 0.010842621326446533, 0.0585382878780365, -0.022852487862110138, 0.07179035246372223, -0.04631160572171211, -0.024396853521466255, -0.0760950893163681, 0.004708935972303152, 0.006675118114799261, -0.027565626427531242, -0.03014889359474182, -0.05615634098649025, 0.00984055083245039, -0.04805038124322891, -0.06614101678133011, 0.042237091809511185, 0.0004278625128790736, -0.08932732045650482, 0.022210396826267242, -0.028949301689863205, 0.047544367611408234, 0.03147466853260994, -0.025896145030856133, 0.027000566944479942, 0.07428477704524994, -0.009095693938434124, -0.034883324056863785], [-0.010196229442954063, -0.015432418324053288, 0.0018878089031204581, 0.4826582968235016, -0.03018530271947384, 0.012485346756875515, 0.09958773851394653, -1.3211967598181218e-05, 0.08150763064622879, -0.04519307240843773, 1.6094167232513428, -0.06594392657279968, -0.009027072228491306, 0.0033993173856288195, -0.061805982142686844, -0.7387831807136536, -0.04839207977056503, 1.5080634355545044, -0.0010012434795498848, -0.10879400372505188, 0.04530424624681473, 0.04619280993938446, -0.11365576088428497, 0.04585256054997444, -0.021882539615035057, 0.045318812131881714, -0.00011802014341810718, -0.003359708236530423, 0.04502720758318901, 0.0409562774002552, -0.7554055452346802, -0.04797102138400078], [0.006323079578578472, -0.055300284177064896, 0.017721738666296005, -0.017020387575030327, -0.02645764872431755, -0.0076734935864806175, 0.03059680387377739, -0.005164343863725662, 0.03382522612810135, -0.03458697348833084, 0.03777477890253067, -0.05110367015004158, -0.009367967024445534, 0.0009510102099739015, 0.01475695800036192, -0.0055979713797569275, -0.03687429055571556, 0.01790393516421318, -0.05588344857096672, -0.05145760625600815, 0.029309984296560287, -0.0005409691366367042, -0.07308519631624222, -0.002225875621661544, -0.020185919478535652, 0.034614987671375275, 0.022002356126904488, -0.037152450531721115, 0.014365719631314278, 0.05595257505774498, -0.0018963445909321308, 0.0029151584021747112], [0.010828272439539433, -0.03934427350759506, 0.02005760744214058, 0.0018777359509840608, -0.02343597263097763, 0.03615514189004898, 0.04636956751346588, -0.012666194699704647, 0.055466506630182266, -0.05588800832629204, 0.08442585915327072, -0.07471346855163574, -0.02396775595843792, -0.007945653982460499, -9.928161307470873e-05, -0.08580464869737625, -0.034920983016490936, -0.05078950524330139, -0.05635678023099899, -0.07231210172176361, 0.0232098326086998, -0.02080671861767769, -0.06338366121053696, 0.039246246218681335, -0.02891518548130989, 0.06744259595870972, 0.06529301404953003, -0.04891389235854149, 0.04994245246052742, 0.08013834059238434, 0.003038368420675397, -0.02871875837445259], [-0.0033907832112163305, 0.028400324285030365, -0.014766709879040718, -0.003310175845399499, 0.03774212300777435, 0.010711166076362133, -0.0468289852142334, 0.007884454913437366, -0.06706706434488297, 0.022776488214731216, 0.04664972051978111, 0.06556210666894913, 0.004500212613493204, 0.00258649792522192, 0.02493145875632763, 0.009606711566448212, 0.05487941950559616, -0.031144721433520317, 0.044085875153541565, 0.06824923306703568, -0.053552430123090744, -0.024465903639793396, 0.10029663145542145, -0.009699161164462566, 0.03742183372378349, -0.019818171858787537, -0.005415251478552818, 0.02483532950282097, -0.028024137020111084, -0.06613923609256744, -0.006187869235873222, 0.034052472561597824], [-0.05639977380633354, 0.07011976093053818, -0.06160804629325867, -0.09140174835920334, 0.05316367372870445, 0.031183801591396332, -0.09134560078382492, -0.014016922563314438, -0.1006176769733429, 0.0420817993581295, 0.06000201031565666, 0.10157595574855804, 0.04827914386987686, 0.0436922051012516, 0.025978000834584236, 0.004185518715530634, 0.03418625518679619, 0.08287033438682556, 0.03144032135605812, 0.08952880650758743, -0.042733460664749146, -0.07720843702554703, 0.1650284379720688, -0.015224257484078407, 0.038519419729709625, -0.016886772587895393, 0.030267592519521713, 0.05594417452812195, -0.09423359483480453, -0.11259198933839798, -0.02540304698050022, 0.06144123896956444], [0.03955589607357979, -0.06925031542778015, 0.05139537155628204, 0.03108135610818863, -0.034797605127096176, 0.04305385425686836, 0.03752874583005905, -0.012526776641607285, 0.070350781083107, -0.05562737211585045, 0.04702787846326828, -0.1083218976855278, -0.053887177258729935, -0.01336455438286066, 0.03271370008587837, -0.09994387626647949, -0.05051189661026001, -0.03284001722931862, -0.08097328990697861, -0.011270669288933277, 0.04926757514476776, -0.06145646795630455, -0.06530525535345078, 0.03582189977169037, -0.05008768290281296, 0.09567263722419739, 0.10036550462245941, -0.08969907462596893, 0.043583158403635025, 0.11284824460744858, -0.044490717351436615, -0.010016772896051407], [0.035702385008335114, -0.013803580775856972, 0.05028282478451729, 0.017748087644577026, -0.025158248841762543, -0.04518213868141174, -0.0016561477677896619, 0.07999086380004883, -0.01094833854585886, 0.033883851021528244, 0.002110646106302738, 0.005963188596069813, -0.07438084483146667, -0.07122953981161118, 0.05138576403260231, 0.022122906520962715, -0.023242345079779625, 0.03094824217259884, -0.03531118854880333, -0.04228923097252846, 0.013931065797805786, 0.029648540541529655, -0.07620366662740707, -0.09135856479406357, -0.016852064058184624, -0.011983505450189114, -0.018610535189509392, -0.050170786678791046, 0.03394254297018051, -0.013176592998206615, 0.024996019899845123, 0.02578297071158886], [0.0003284815466031432, -0.04653465375304222, 0.010741193778812885, -0.0078010521829128265, -0.03160500526428223, 0.0011919413227587938, 0.025791751220822334, -0.008804503828287125, 0.05595674738287926, -0.012834030203521252, -0.023517195135354996, -0.06670155376195908, -0.011815831996500492, -0.004342354834079742, -0.012087199836969376, -0.010803308337926865, -0.03963996469974518, 0.021540334448218346, -0.022803466767072678, -0.05302627012133598, 0.03704054281115532, 0.010189195163547993, -0.08860685676336288, 0.014437020756304264, -0.044106993824243546, 0.032938215881586075, 0.016293006017804146, -0.026801737025380135, 0.023987961933016777, 0.050433725118637085, 0.005279292352497578, -0.021683715283870697], [0.0019541168585419655, -0.002562402980402112, 0.004496510606259108, 0.019833268597722054, -0.031287480145692825, -0.050455883145332336, -0.0007568236906081438, 0.010700316168367863, -0.007629170082509518, 0.026974637061357498, -0.045197535306215286, 0.026200680062174797, 0.007222221698611975, -0.010426226072013378, -0.025353342294692993, 0.03648601099848747, -0.009162462316453457, -0.015382429584860802, 0.0025968081317842007, -0.02798178233206272, 0.026017438620328903, 0.07839304953813553, -0.03633302077651024, -0.01107747107744217, -0.014392746612429619, -0.05288645997643471, -0.057363081723451614, 0.01401528436690569, 0.025246070697903633, -0.016390511766076088, 0.02376248687505722, -0.0184449665248394], [0.016944510862231255, 0.0041096811182796955, 0.017160944640636444, 0.06227133423089981, -0.019745182245969772, -0.049658551812171936, 0.035221166908741, 0.020013587549328804, 0.02358238771557808, 0.01759108528494835, -0.04069177806377411, -0.0005443631089292467, -0.010681231506168842, -0.024216582998633385, -0.04329762980341911, 0.05205622687935829, 0.0038562770932912827, -0.07435691356658936, 0.023290414363145828, -0.05845336243510246, 0.014605258591473103, 0.09360041469335556, -0.08670811355113983, -0.015316695906221867, -0.0009022169397212565, -0.04676801711320877, -0.07662045210599899, 0.008547208271920681, 0.04753347486257553, 0.0072012231685221195, 0.00868015456944704, -0.05092894285917282], [0.04648552089929581, -0.029798943549394608, 0.04330260306596756, -0.020724503323435783, -0.009331827983260155, -0.005868278909474611, -0.012304100207984447, 0.061247121542692184, 0.0010805383790284395, 0.01100778579711914, 0.057450853288173676, -0.023008743301033974, -0.0801851749420166, -0.05219658836722374, 0.05953795835375786, 0.0045920670963823795, 0.003102835500612855, 0.03726055100560188, -0.027932630851864815, 0.007737115491181612, -0.0054441108368337154, -0.01709809899330139, -0.0036059743724763393, -0.0582057386636734, -0.008853785693645477, 0.016650725156068802, 0.012880164198577404, -0.05718960240483284, 0.011378741823136806, 0.018732795491814613, 0.004104876425117254, 0.028181109577417374], [-0.03755126893520355, 0.034732162952423096, -0.026868263259530067, -0.02377184107899666, 0.01822897605597973, -0.01990380510687828, -0.04806246608495712, -0.033564720302820206, -0.06099178269505501, 0.029552580788731575, -0.03780549764633179, 0.07988792657852173, 0.0603160560131073, 0.03045063652098179, -0.002678320510312915, 0.061401162296533585, 0.016193514689803123, -0.004121164325624704, 0.0270445067435503, 0.047914404422044754, -0.010788433253765106, 0.028115982189774513, 0.08463481813669205, -0.016567785292863846, 0.02369074337184429, -0.05248381569981575, -0.05272560566663742, 0.03864872083067894, -0.060783520340919495, -0.07779384404420853, -0.02052806317806244, 0.025669801980257034], [-0.045331817120313644, 0.06858209520578384, -0.03566934913396835, 0.00514153903350234, 0.01437635999172926, -0.029030414298176765, -0.03798072040081024, -0.008070041425526142, -0.06407737731933594, 0.0474943071603775, -0.05943259969353676, 0.085265152156353, 0.05172089859843254, 0.008476216346025467, -0.015280637890100479, 0.02765713632106781, 0.01361805759370327, -0.027584467083215714, 0.030256329104304314, 0.003024972975254059, -0.010022197850048542, 0.04022707790136337, 0.01215249765664339, -0.009815983474254608, 0.005004082806408405, -0.06115225329995155, -0.04129089042544365, 0.06276795268058777, -0.022038569673895836, -0.08702962845563889, 0.006493593566119671, 0.016465628519654274], [0.017930321395397186, 0.021662427112460136, 0.014417547732591629, 0.5208736062049866, 0.006372120697051287, 0.025813130661845207, 0.003610084531828761, -0.0026426129043102264, -7.066658872645348e-05, -0.020022565498948097, 0.1749977469444275, -0.008097831159830093, -0.021576188504695892, -0.001891415799036622, 0.029927484691143036, 0.7636135220527649, 0.003077089786529541, -0.11880931258201599, -0.00397857278585434, -0.01672939583659172, -0.005517568904906511, -0.058907561004161835, 0.00760185532271862, 0.012662100605666637, 0.005886844824999571, 0.02353319153189659, 0.04480250924825668, -0.012977449223399162, 0.006303056143224239, 0.01141725666821003, 0.49440985918045044, 0.00890361424535513], [0.010119559243321419, -0.013983960263431072, 0.005653530824929476, 0.022506054490804672, -0.008826506324112415, 0.01623564586043358, 0.0549907386302948, -0.007253891322761774, 0.06386303901672363, -0.042168498039245605, -0.008060176856815815, -0.06411522626876831, -0.005689880810678005, -9.756705549079925e-05, -0.039272207766771317, -0.04320170730352402, -0.015371493063867092, -0.022288817912340164, 0.0030130150262266397, -0.04147157818078995, 0.01311005000025034, 0.002336403587833047, -0.05379999801516533, 0.026764558628201485, -0.011732583865523338, 0.04298114404082298, 0.021880153566598892, -0.00795042421668768, 0.037698179483413696, 0.06665777415037155, -0.00247581978328526, -0.0545455664396286], [0.001252484042197466, -0.0005975114181637764, 0.0004211722407490015, -0.0031833432149142027, 0.00036188788362778723, 0.0007919875788502395, 0.007249901536852121, -0.00011923172132810578, 0.0062172748148441315, -0.0031315076630562544, -0.008196608163416386, -0.004801708739250898, -0.0002050901675829664, -0.00037392336525954306, -0.0032821358181536198, -0.01630517654120922, -0.001528700115159154, -0.00379921798594296, 0.00018537245341576636, -0.0072365072555840015, -0.0007966927369125187, 0.005413709208369255, -0.0022294477093964815, -0.000120198106742464, 0.0003293446497991681, 0.0032752531114965677, -0.0019065510714426637, -5.816055272589438e-05, 0.003861866192892194, 0.002903939690440893, 0.015081781893968582, -0.0038951041642576456], [-0.0011527339229360223, -0.002023054054006934, -0.0002317555045010522, -0.00796277541667223, -0.0012127278605476022, 0.0015364096034318209, 0.0057596745900809765, -0.0026806271634995937, 0.005973507650196552, -0.004716838244348764, 0.006794323679059744, -0.005189805757254362, 0.0003998554602731019, 0.0003979488683398813, -0.001569350017234683, -0.012512938119471073, -0.0025375005789101124, 0.007669847924262285, -0.003013447392731905, -0.006307972129434347, 0.0014211258385330439, 2.2137523046694696e-05, -0.0018927323399111629, 0.0035508298315107822, -0.0011271288385614753, 0.001942991279065609, 0.00109134113881737, -0.001185330213047564, 0.0019080216297879815, 0.004646944813430309, -0.00959768146276474, -0.001940509187988937], [0.0005173328681848943, -0.00020236325508449227, 0.0005076620727777481, 0.0026951029431074858, 0.000719086267054081, 0.0006069312221370637, 0.004683087579905987, 0.0002523039001971483, 0.003963709343224764, -0.002641405677422881, -0.006480329670011997, -0.0031161403749138117, -0.0004945597029291093, -0.0004370052774902433, -0.0006507399957627058, -0.004043280612677336, -0.00036140080192126334, -0.0007674208027310669, 0.00027909272466786206, -0.004235998261719942, -0.00038776121800765395, 0.0019300758140161633, -0.005100918002426624, -0.00020742951892316341, 0.0008632562821730971, 0.0023996583186089993, 0.0007648245082236826, -0.00037061196053400636, 0.002846598159521818, 0.0024823721032589674, 0.005819873418658972, -0.001237079850398004], [0.049031659960746765, -0.04918350651860237, 0.041889410465955734, -0.364291787147522, -0.03242916613817215, -0.026528745889663696, 0.08085427433252335, 0.03018069639801979, 0.07871829718351364, -0.05227683112025261, 0.8831048011779785, -0.09006831794977188, -0.0404328815639019, -0.031990986317396164, -0.03043217770755291, 1.0534355640411377, -0.04347488284111023, 1.1165701150894165, -0.04863239452242851, -0.10237108916044235, 0.025166239589452744, 0.019465776160359383, -0.14043118059635162, -0.015487008728086948, -0.021204832941293716, 0.05244346708059311, 0.01568724773824215, -0.05270775035023689, 0.04899920895695686, 0.08702275902032852, 0.18064095079898834, -0.033866170793771744], [3.403251321287826e-05, -0.0010339959990233183, -6.070738436392276e-06, 0.004476688802242279, -0.002581321867182851, -0.001959781628102064, -0.004488680511713028, 0.0010117761557921767, -0.0026756117586046457, 0.0026465582195669413, -0.0038892405573278666, 0.0021503653842955828, 0.00022223698033485562, 0.0001810719695640728, 0.0019132413435727358, -0.014854859560728073, -0.002094118855893612, -7.78321991674602e-05, -0.0024690735153853893, -0.00018046298646368086, 0.0025760470889508724, 0.0016903216019272804, 0.005251591559499502, -0.003057012800127268, -0.002418303629383445, -0.002384682185947895, -0.0009751170873641968, 8.285014337161556e-05, -0.0008021771791391075, -0.0013968938728794456, -0.018468668684363365, 0.00030260183848440647], [0.0036783935502171516, -0.0005792733281850815, 0.003145291469991207, 0.001317318994551897, -0.0007861710619181395, -0.000659184530377388, 0.0007024129736237228, 0.0012630021665245295, 0.0003127261879853904, -0.0024922105949372053, 0.004300280008465052, -0.0027452255599200726, -0.003402464324608445, -0.0014744349755346775, 0.003985803574323654, -0.0027577427681535482, -7.302531594177708e-05, 0.004014298785477877, -0.0016722382279112935, 0.0006932448013685644, 6.275897612795234e-05, -0.004588794428855181, 0.0005596291739493608, -0.0012198432814329863, -0.0007535398472100496, 0.0026438224595040083, 0.00664279842749238, -0.003038248745724559, 0.0010779373114928603, 0.0036984048783779144, -0.01660379394888878, 0.0018502235179767013], [-0.002746931044384837, 0.0019382397877052426, 0.0014782794751226902, -0.008695615455508232, 0.006982509978115559, 0.012028269469738007, -0.02076261304318905, -0.00289494963362813, -0.01703648269176483, 0.011080586351454258, -0.014846286736428738, 0.017899872735142708, -0.004094465170055628, -0.002998107112944126, 0.0013363177422434092, 0.00911998376250267, 1.87526111403713e-05, 0.036779336631298065, 0.0038344278000295162, 0.02830120362341404, -0.00362088973633945, -0.004010919015854597, 0.03487267345190048, 0.0021491392981261015, 0.002973570954054594, -0.001901115057989955, 0.007099365349858999, -0.0032564986031502485, 0.00017129922343883663, -0.01985652558505535, -0.032749149948358536, 0.0011559374397620559], [0.0013435196597129107, -0.0007844256469979882, 0.0011393842287361622, 0.006592133082449436, -0.001651652273721993, 0.0004962013335898519, 0.00021695683244615793, 0.0014732409035786986, 0.0018832727801054716, -0.0004796916909981519, -0.006321858614683151, -0.0026791614945977926, -0.001084921881556511, -0.000675476505421102, 0.0013321355218067765, -0.02225383371114731, -0.002315462101250887, -0.00679674930870533, -0.0024259311612695456, -0.00300230598077178, 0.0018193786963820457, -0.0013122508535161614, 0.001289080479182303, -0.002095623640343547, -0.0019001447362825274, 0.002569281030446291, 0.004143595229834318, -0.0009600214543752372, 0.00113320117816329, 0.0030312594026327133, 0.0007844191859476268, 5.175039768801071e-05], [-0.0021088230423629284, -0.0015055382391437888, 0.0010388793889433146, -0.011729668825864792, 0.003142646746709943, 0.00799566600471735, -0.01298788096755743, -0.0034354275558143854, -0.010296325199306011, 0.0034569385461509228, -0.009412862360477448, 0.011537674814462662, 0.00017820279754232615, -0.0013059210032224655, -0.008034253492951393, -0.003365234937518835, -0.0049761198461055756, 0.01966855861246586, 0.0007441152702085674, 0.015966707840561867, -0.0014137262478470802, -0.0004906154936179519, 0.02917964942753315, 0.004627217072993517, 0.001814182847738266, 0.010379412211477757, 0.009279882535338402, -0.002617314923554659, 0.009227820672094822, -0.004793858155608177, -0.023944620043039322, -0.005826766602694988], [0.006690101698040962, -0.00345181068405509, 0.007563552353531122, 0.002633462892845273, 0.0026642102748155594, 0.008945689536631107, -0.00440992834046483, -0.0021481404546648264, -0.0016387756913900375, 0.004111722111701965, -0.004547172226011753, 0.0045281085185706615, -0.007109765894711018, -0.002374297473579645, 0.0039490824565291405, 0.015600758604705334, -0.001301705720834434, 0.019784068688750267, -0.004684451036155224, 0.008606837131083012, -0.004211860243231058, -0.01614072546362877, 0.015560071915388107, 0.004273056983947754, 0.0012781767873093486, 0.002975391922518611, -0.0003441416774876416, -0.00854320079088211, 0.0045374920591712, -0.0054052178747951984, -0.03264424577355385, -0.0014353503938764334], [-0.0663231611251831, 0.04281828925013542, -0.08101295679807663, 0.26977622509002686, 0.046816565096378326, -0.008030002005398273, -0.18057897686958313, -0.0018491321243345737, -0.14005902409553528, 0.13774366676807404, 0.08373770862817764, 0.15947942435741425, 0.0302481260150671, 0.04786624386906624, 0.024883104488253593, -1.1132344007492065, 0.08778634667396545, 0.19584380090236664, 0.09099478274583817, 0.1809648871421814, -0.0301405880600214, 0.09098950773477554, 0.23268158733844757, -0.03270067274570465, 0.03474515303969383, -0.12401831895112991, -0.1710209846496582, 0.07458826899528503, -0.11252636462450027, -0.16150914132595062, -0.2310723513364792, 0.06472969800233841], [0.0035542831756174564, -0.002632732968777418, 0.005721274763345718, 0.0002653200936038047, 0.004159222822636366, 0.0076567428186535835, -0.01282989140599966, -0.0043036905117332935, -0.010689760558307171, 0.00791504979133606, 0.0029539717361330986, 0.015242150984704494, -0.005073070526123047, -0.0020909029990434647, -0.003437707433477044, 0.020354893058538437, -0.0010679768165573478, 0.03601555898785591, 0.001094523468054831, 0.0141269126906991, -0.004039266612380743, -0.011670821346342564, 0.029167329892516136, 0.0049617718905210495, 0.0014657751889899373, -0.0019058320904150605, -0.0024023549631237984, -0.0069989655166864395, 0.0043389201164245605, -0.012460892088711262, -0.04388481751084328, -0.003231181763112545], [-0.0003071367391385138, -0.0008140893769450486, 4.9779944674810395e-05, -0.0006531990948133171, 0.00011978308612015098, 0.0019346175249665976, -0.004134383983910084, 0.00012753665214404464, 0.005812033545225859, -0.0016494564479216933, -0.006111892405897379, -0.003440577769652009, -9.782693086890504e-05, -0.00018157063459511846, 0.00023318537569139153, -0.014163092710077763, -0.0017196867847815156, -0.006647841539233923, -0.0004983302787877619, 0.0016990777803584933, 0.00017757814202923328, 0.001193814561702311, 0.006362367887049913, -0.0009811692871153355, -0.000109848115243949, 0.0027933588717132807, -0.0009499916341155767, -0.00022195366909727454, 0.0019529658602550626, 0.006070577073842287, 0.0074942768551409245, -0.00259509589523077], [0.00034159180358983576, 0.0002310325944563374, 0.0003126423398498446, 0.006035488564521074, -0.0004656343371607363, -0.00020351295825093985, -0.0002245495852548629, 0.0003190234419889748, -0.0001806226500775665, 0.00018813479982782155, -0.0036815968342125416, 0.00019653314666356891, -0.00031092020799405873, -0.00018456950783729553, 0.00023213683743961155, -0.008742474019527435, -5.2564962970791385e-05, -0.004535980522632599, 2.4464599846396595e-05, -0.0003971932455897331, 0.00019992522720713168, 4.3447846110211685e-05, 0.00022387750505004078, -0.0004340347950346768, -0.000358385470462963, -0.0002632233372423798, 0.0005181289161555469, -0.00018142798217013478, 0.0003242068050894886, -0.00018763156549539417, 0.00464785797521472, -5.5859334679553285e-05], [-0.004241021815687418, -0.004830394871532917, -0.0022485649678856134, -0.01664700172841549, 0.003022343385964632, 0.0053890482522547245, -0.012324715033173561, -0.0031462267506867647, -0.005390390288084745, -0.008805960416793823, -0.0063919262029230595, 0.0017752115381881595, 0.0029112095944583416, 0.0011353801237419248, 0.0036173025146126747, -0.028137974441051483, -0.003085270756855607, 0.009944232180714607, 0.0015201476635411382, 0.022154783830046654, 0.0018932371167466044, 0.004984140396118164, 0.029549812898039818, 0.00017545698210597038, 0.0019896517042070627, 0.013334891758859158, -0.005257940385490656, 0.0015294990735128522, 0.009943436831235886, -0.005662369541823864, 0.01859099790453911, -0.0024766484275460243], [-0.04625910893082619, -0.048732075840234756, -0.019628679379820824, 0.07377732545137405, 0.005795065313577652, 0.07245262712240219, 0.07670176774263382, -0.08710310608148575, 0.0558931939303875, -0.08530355989933014, -0.08366106450557709, -0.07577263563871384, 0.010016199201345444, 0.02276173233985901, -0.02650643140077591, 1.2262073755264282, -0.019911574199795723, 0.6532694697380066, -0.025714725255966187, -0.07991086691617966, -0.01842471957206726, -0.04474567621946335, -0.11802932620048523, 0.13342106342315674, -0.028253598138689995, 0.0904555469751358, 0.07199151813983917, -0.007794500794261694, 0.039354197680950165, 0.08953049033880234, -0.5258123278617859, -0.03551739826798439], [-0.0014619987923651934, -0.003331070300191641, -0.0008843554533086717, -0.016132153570652008, -0.003098183311522007, 0.00021291393204592168, 0.004945774096995592, -0.0022749791387468576, 0.005744682624936104, -0.003162184963002801, -0.0025440307799726725, -0.0056661940179765224, 0.001655792468227446, 0.0004181287076789886, -0.0029167041648179293, -0.03149355575442314, -0.004331204108893871, 0.002824910916388035, -0.0034525871742516756, -0.00702451728284359, 0.003617377020418644, 0.0025198073126375675, 0.004991306457668543, 0.0019898628816008568, -0.00230863643810153, 0.0024727871641516685, -0.0007497875485569239, -0.0005636291461996734, 0.0010196624789386988, 0.005708468146622181, -0.016415834426879883, -0.0030659176409244537], [-0.08333378285169601, -0.005780601408332586, -0.04678232595324516, -0.6044947504997253, 0.031920671463012695, 0.06603235751390457, 0.04487667605280876, -0.08701381087303162, 0.043093372136354446, -0.0550113171339035, -0.08560163527727127, -0.031785786151885986, 0.049914319068193436, 0.048843707889318466, -0.05022269859910011, -1.2636041641235352, -0.015273298136889935, -0.21856775879859924, 0.0016125324182212353, -0.018580010160803795, -0.004370000679045916, -0.047171905636787415, -0.059157609939575195, 0.10030467808246613, 0.016555245965719223, 0.0629073828458786, 0.01891244389116764, 0.02863701991736889, -0.011031685397028923, 0.022891288623213768, -0.0017775961896404624, -0.03165126591920853], [-0.0007629129104316235, -0.002372431568801403, 0.00021144439233466983, -0.01125557254999876, -0.0023601381108164787, -0.0004229412879794836, 0.0006321700639091432, -0.0013662901474162936, 0.0016108346171677113, -0.0029676868580281734, 0.01438098680227995, -0.002083755563944578, 0.0008124240557663143, 0.0002605825138743967, -7.004723011050373e-05, 0.0024264187086373568, -0.002779122209176421, 0.022154787555336952, -0.001708736177533865, -0.0043719797395169735, 0.0017693671397864819, 0.0003003990859724581, 0.0008622916648164392, -0.0005067121819593012, -0.002005773363634944, 0.002315146615728736, 0.0016679452965036035, -0.0012053600512444973, 0.0013476918684318662, 0.0029034933540970087, -0.020441802218556404, -0.0012337244115769863], [-0.0022718003019690514, -6.971594120841473e-05, 0.00396773824468255, -0.015777362510561943, -0.001108447089791298, 0.00011798052582889795, -0.03725035861134529, 0.00331443571485579, -0.03388892114162445, 0.030613595619797707, -0.017635323107242584, 0.035514358431100845, -0.0017980715492740273, -0.0015521254390478134, 0.016968989744782448, 0.021153628826141357, 0.005607469007372856, 0.06867541372776031, -0.0016283459262922406, 0.037202928215265274, 0.002317714039236307, -0.007654542103409767, 0.038165345788002014, -0.016050636768341064, -0.005354803986847401, -0.02649073116481304, -0.007193363271653652, -0.008968327194452286, -0.0151510089635849, -0.036711186170578, -0.07215867191553116, 0.013998727314174175], [-6.112167466199026e-05, -0.0018861505668610334, -0.0003271861933171749, -0.005431192461401224, -0.0032238480634987354, -0.0011430855374783278, -0.000762910523917526, 0.00016964785754680634, -1.7260526874451898e-05, 0.000479467969853431, -0.006877560168504715, -0.0009884953033179045, -9.965416393242776e-05, 0.0005320321070030332, 0.0007086389814503491, -0.020055297762155533, -0.003477053716778755, -0.004456177819520235, -0.002581075532361865, -0.003734061261638999, 0.0018865244928747416, 0.001553834299556911, -0.0030836332589387894, -0.0009704160038381815, -0.0026216255500912666, -0.0005891071632504463, -0.0010754064423963428, -0.00019345867622178048, -0.0007033550064079463, 0.0019997558556497097, -0.01087139081209898, 0.00042043370194733143], [-0.007446256000548601, -0.0074795447289943695, -0.0037599182687699795, 0.0051529123447835445, 0.005959140136837959, 0.007832219824194908, -0.0011535586090758443, -0.012765857391059399, 0.004412958864122629, -0.013051408343017101, -0.014037752524018288, -0.003116146195679903, 0.004505868069827557, 0.002851639175787568, -0.011229979805648327, -0.05022244527935982, -0.0017963673453778028, -0.0007347071659751236, 0.0014833534369245172, 0.014640633948147297, -0.0014580624410882592, -0.0007960523362271488, 0.029055362567305565, 0.01755732111632824, 0.005042187869548798, 0.01031030435115099, -0.004272416699677706, -0.0023740341421216726, 0.011817964725196362, -0.0014496893854811788, 0.021991033107042313, -0.008009458892047405], [0.009290476329624653, 0.023736529052257538, 0.001565207727253437, -0.04937157779932022, 0.018866680562496185, -0.021667057648301125, -0.045778751373291016, 0.028734205290675163, -0.04985986649990082, 0.04457957670092583, -0.015229319222271442, 0.05412867292761803, -0.007747169118374586, -0.002598685212433338, 0.03413155674934387, 0.0662713572382927, 0.034034356474876404, 0.14300262928009033, 0.028950152918696404, 0.0436447411775589, -0.018830742686986923, -0.01994381844997406, 0.0561952106654644, -0.037077389657497406, 0.014132100157439709, -0.042379770427942276, -0.016582787036895752, -0.0002396882337052375, -0.02944338321685791, -0.056959230452775955, -0.04806015267968178, 0.03526598960161209], [0.0008145063766278327, 0.00079762825043872, 7.53174172132276e-05, -0.01327113900333643, 0.0010605609277263284, -0.002034024801105261, -0.0018961757887154818, 0.001827279687859118, -4.8273734137183055e-05, 0.0015000576386228204, -0.002480002585798502, -0.000556632352527231, -0.0006885287002660334, -0.0008776882314123213, 0.0008105204324238002, -0.010089091025292873, 0.0011995567474514246, 0.0025167507119476795, 0.0013843055348843336, 0.00428483821451664, -0.0010064801899716258, -0.005208536982536316, 0.006810357794165611, -0.0017578465631231666, 6.577249587280676e-05, 0.006158365868031979, 0.008845561183989048, 0.0004759685543831438, 0.0035510987509042025, 0.001042777905240655, -0.01176470797508955, 0.0016649971948936582], [-0.0003124804934486747, -0.0009640699718147516, -5.7855999330058694e-05, -0.0013401007745414972, -0.0018093782709911466, -0.0008927477174438536, -0.0015359101817011833, 0.0004348635848145932, -0.001417783321812749, 0.0008139823912642896, 0.0003707951109390706, 0.001098211738280952, 0.00032114595524035394, 0.00024747371207922697, 0.00020464502449613065, -0.006678728386759758, -0.0016268519684672356, 0.0029410484712570906, -0.0012229051208123565, -0.0009019906283356249, 0.0015980700263753533, 0.0010410824324935675, 0.0008192957611754537, -0.0011658489238470793, -0.0009857956320047379, -0.0010620878310874104, -0.0001561396784381941, 3.188381379004568e-05, -0.00047852055286057293, 0.00024266279069706798, -0.007583749946206808, -0.00018362603441346437], [0.007299992721527815, -0.00018393114442005754, 0.004915591794997454, -0.0058461641892790794, 0.0012248513521626592, 0.009648838080465794, 0.003015819936990738, -0.0021720321383327246, 0.006576311308890581, -0.003898739581927657, 0.00619683088734746, -0.002229725942015648, -0.00711436802521348, -0.0028008483350276947, 0.005635359790176153, 0.025122975930571556, 0.0009044046746566892, 0.01630382612347603, -0.005361616611480713, 0.0017882594838738441, -0.0024250862188637257, -0.011936649680137634, 0.008552118204534054, 0.008054439909756184, 0.00031984195811674, -0.002264871960505843, 0.003566797124221921, -0.003973476123064756, 0.004286070354282856, 0.001388998469337821, -0.031514108180999756, 0.001177268335595727], [-0.0031522486824542284, -0.007119765970855951, 0.0023340280167758465, -0.038247354328632355, 0.0034846568014472723, 0.010037985630333424, -0.009280168451368809, -0.009789666160941124, -0.0026670927181839943, 0.00645990576595068, 0.007398257963359356, 0.011371721513569355, 0.0009463966125622392, -0.00015372039342764765, -0.00876990333199501, 0.015237713232636452, -0.0017637069104239345, 0.033320385962724686, -0.0017065751599147916, 0.01462365873157978, -0.0026568733155727386, -0.00635620066896081, 0.03022652305662632, 0.009992028586566448, 0.0011431847233325243, -0.003543861210346222, -0.005165603011846542, -0.006408143322914839, 0.0050810943357646465, -0.015688711777329445, 0.00289361085742712, -0.008164437487721443], [0.0004743427562061697, -0.0012561633484438062, 0.000501259055454284, -0.0017274374840781093, 0.0012483784230425954, 0.0030669879633933306, 0.005689472891390324, -0.0006035055266693234, 0.005816840101033449, -0.00392992002889514, 0.0008109443006105721, -0.005005497485399246, -0.0007107188575901091, -0.00011160959547851235, -0.000618239282630384, 0.0045915329828858376, 0.00030396756483241916, 0.0037701053079217672, 5.949628393864259e-05, -0.0036600728053599596, -0.0014811782166361809, -0.0017018270445987582, -0.005144007503986359, 0.000840015709400177, 0.0013501319335773587, 0.0027764062397181988, 0.0022943667136132717, -0.0006251389277167618, 0.002071708207949996, 0.003906180849298835, -0.0031172907911241055, -0.0007277996046468616], [0.0004303244932089001, -0.00041884282836690545, 0.0017677012365311384, 0.0010289485799148679, 0.0009055096888914704, 0.005319106858223677, 0.007404916454106569, -0.0015797603409737349, 0.00948928203433752, -0.004379284102469683, -0.0063130781054496765, -0.010779596865177155, -0.0006937626749277115, -0.00039892352651804686, -0.0025135260075330734, -0.00031612245948053896, -0.0007775750127620995, 0.01527427602559328, -7.586582796648145e-05, -0.005639440845698118, -0.0013227680465206504, -0.003694427665323019, 0.0011189673095941544, 0.0066465395502746105, -6.370773917296901e-05, 0.010062536224722862, 0.011094039306044579, -0.0031583840027451515, 0.0011820087675005198, 0.00817606970667839, -0.029640745371580124, -0.002972770482301712], [0.0036745413672178984, -0.0033102764282375574, 0.005084292031824589, 0.007681662682443857, 0.003895231755450368, 0.003923764452338219, -0.015763331204652786, -0.005680854432284832, -0.009059098549187183, 0.01166865136474371, 0.007748286705464125, 0.018111728131771088, -0.005613053683191538, -0.0020883313845843077, -0.001219480182044208, 0.020926298573613167, 0.0008949379553087056, 0.044945016503334045, 0.0011131647042930126, 0.020510628819465637, -0.004263321869075298, -0.010921791195869446, 0.03945698216557503, 0.001200344879180193, 0.0016821416793391109, -0.009374656714498997, -0.008195760659873486, -0.004609012044966221, 0.0012192000867798924, -0.022875409573316574, -0.05335782468318939, -0.0028421180322766304], [0.06457222998142242, -0.01559554785490036, 0.0506306029856205, 0.8648035526275635, -0.04778800159692764, -0.02660881169140339, 0.01834292709827423, 0.019791189581155777, 0.018187258392572403, -0.0038459699135273695, 0.8491934537887573, -0.03448035940527916, -0.029756704345345497, -0.008199786767363548, 0.036432910710573196, 0.3121505081653595, -0.022135481238365173, 0.03855191916227341, -0.02139144577085972, -0.0157613605260849, 0.0457756370306015, -0.01175360381603241, -0.014100727625191212, -0.06160996854305267, -0.026502778753638268, 0.015229971148073673, 0.008319264277815819, -0.045554809272289276, 0.010450558736920357, 0.041745852679014206, -0.24481216073036194, 0.019366083666682243], [-0.00283305742777884, -0.0021023722365498543, -0.0006278699729591608, -0.0054247318767011166, -0.0002775362809188664, 0.0014774989103898406, 0.007724892348051071, -0.0028984746895730495, 0.010320967994630337, -0.008661353029310703, -0.006680585443973541, -0.009051419794559479, 0.0020421240478754044, 0.0004503343952819705, -0.003523450344800949, -0.03163543716073036, -0.004578732885420322, 0.002465009456500411, -0.001448175054974854, -0.0009513477561995387, 0.00034568633418530226, 0.0003019025025423616, 0.017417173832654953, 0.0017434743931517005, -0.000545124989002943, 0.007586163002997637, -0.002836911240592599, -0.00031983849476091564, 0.007481118198484182, 0.00824060570448637, -0.0064060199074447155, 0.0020866990089416504]], "rec.bias_ih_l0": [-0.11074012517929077, -0.09906234592199326, -0.09079908579587936, -0.05649055913090706, -0.06583858281373978, -0.06996463984251022, -0.09376288205385208, -0.14648380875587463, -0.08631527423858643, -0.07282276451587677, 0.5333593487739563, -0.09865452349185944, -0.12949779629707336, -0.08799491077661514, -0.08766929805278778, -1.7977710962295532, -0.06562882661819458, 0.8512820601463318, -0.0677211657166481, -0.08323212713003159, -0.0677567794919014, -0.08548350632190704, -0.07520376145839691, -0.1299777776002884, -0.06450656801462173, -0.06449123471975327, -0.07808400690555573, -0.08108881115913391, -0.08548259735107422, -0.0987275093793869, -1.6178758144378662, -0.06983708590269089, -0.09201321750879288, -0.09061482548713684, -0.07553605735301971, 0.28568801283836365, -0.057995036244392395, -0.0608193576335907, -0.08375445008277893, -0.11920101940631866, -0.0797133594751358, -0.06332037597894669, -0.07470773160457611, -0.09252821654081345, -0.10525889694690704, -0.0716848373413086, -0.07912958413362503, 2.7420239448547363, -0.060643140226602554, 0.17958307266235352, -0.062013741582632065, -0.07695694267749786, -0.06040114909410477, -0.08157159388065338, -0.07160792499780655, -0.10956699401140213, -0.05382591858506203, -0.05857605114579201, -0.0779542401432991, -0.06804075837135315, -0.07318452000617981, -0.09285888075828552, 2.0243849754333496, -0.06228103116154671, -0.0013242101995274425, -0.010256058536469936, 0.0008635317208245397, 0.26918378472328186, 0.0035507609136402607, 0.004522074479609728, 0.030089249834418297, -0.008302825503051281, 0.02013336308300495, -0.01842270791530609, -0.09062324464321136, -0.021871253848075867, 0.001541432342492044, 0.0007219032268039882, -0.008383991196751595, 0.0023526696022599936, 0.0008332713623531163, -0.03211680054664612, 0.0033982277382165194, -0.008674763143062592, -0.0011597679695114493, 0.002388058928772807, -0.04322296753525734, 0.02012738212943077, 0.003239430021494627, 0.012628800235688686, -0.00193289783783257, -0.003032894805073738, 0.008433486334979534, 0.01939953863620758, -0.0433666929602623, -0.004208167549222708, -0.11093202233314514, -0.09927920252084732, -0.0909908190369606, -0.1641225963830948, -0.06597954779863358, -0.07014696300029755, -0.09454136341810226, -0.14659622311592102, -0.08675361424684525, -0.07332046329975128, 0.4672849178314209, -0.0992920771241188, -0.12848180532455444, -0.08814668655395508, -0.08787436783313751, -0.12106513977050781, -0.06578364968299866, -0.5309000015258789, -0.0678868517279625, -0.08347369730472565, -0.06788674741983414, -0.08567999303340912, -0.07617275416851044, -0.12998758256435394, -0.06476828455924988, -0.06489142775535583, -0.07835306972265244, -0.08127798140048981, -0.08571901172399521, -0.09947779774665833, 0.00040903218905441463, -0.07005413621664047], "rec.bias_hh_l0": [-0.11074012517929077, -0.09906234592199326, -0.09079908579587936, -0.05649055913090706, -0.06583858281373978, -0.06996463984251022, -0.09376288205385208, -0.14648380875587463, -0.08631527423858643, -0.07282276451587677, 0.5333593487739563, -0.09865452349185944, -0.12949779629707336, -0.08799491077661514, -0.08766929805278778, -1.7977691888809204, -0.06562882661819458, 0.8512711524963379, -0.0677211657166481, -0.08323212713003159, -0.0677567794919014, -0.08548350632190704, -0.07520376145839691, -0.1299777776002884, -0.06450656801462173, -0.06449123471975327, -0.07808400690555573, -0.08108881115913391, -0.08548259735107422, -0.0987275093793869, -1.6178758144378662, -0.06983708590269089, -0.09201321750879288, -0.09061482548713684, -0.07553605735301971, 0.28568801283836365, -0.057995036244392395, -0.0608193576335907, -0.08375445008277893, -0.11920101940631866, -0.0797133594751358, -0.06332037597894669, -0.07470773160457611, -0.09252821654081345,