{"model_data": {"model": "SimpleRNN", "input_size": 1, "skip": 1, "output_size": 1, "unit_type": "LSTM", "num_layers": 1, "hidden_size": 32, "bias_fl": true}, "state_dict": {"rec.weight_ih_l0": [[-0.5495773553848267], [-0.018660396337509155], [-0.002251275349408388], [-0.00986924022436142], [-0.017178360372781754], [-0.07397466152906418], [-0.1493362933397293], [-0.17422251403331757], [-0.019666070118546486], [-0.21111664175987244], [0.004438204225152731], [0.9183914661407471], [-0.05850612744688988], [-0.010940119624137878], [-0.005505053326487541], [-0.053581222891807556], [0.0033865775913000107], [-0.5625160932540894], [-0.03481043875217438], [-0.15548089146614075], [-0.037840984761714935], [0.19684630632400513], [0.006418172270059586], [-0.008738179691135883], [-0.01839628629386425], [-0.005528274457901716], [-0.021735768765211105], [-0.006668213754892349], [-0.012604568153619766], [0.17273671925067902], [-0.14417946338653564], [0.006324025336652994], [-0.5730409622192383], [-0.015145116485655308], [-0.0026521505787968636], [-0.0076093063689768314], [-0.01527694147080183], [-0.06099620461463928], [-0.15168225765228271], [-0.19877058267593384], [-0.025524966418743134], [-0.1881454885005951], [-0.003453762736171484], [0.619517982006073], [-0.05055994167923927], [-0.008878238499164581], [-0.0024679789785295725], [-0.04325983300805092], [0.001864542718976736], [-0.6924942135810852], [-0.026095909997820854], [-0.13763779401779175], [-0.02216394990682602], [0.2674856185913086], [-0.00015267590060830116], [-0.007194177247583866], [-0.0169975608587265], [-0.004043664783239365], [-0.018379265442490578], [-0.0046442002058029175], [-0.004746825899928808], [0.1489054411649704], [-0.14188718795776367], [0.003664660267531872], [-0.8684931397438049], [0.309247225522995], [0.12334192544221878], [-0.20287084579467773], [-0.03602073714137077], [0.015417401678860188], [0.6867280006408691], [0.7510043382644653], [-0.012177818454802036], [-0.5687589645385742], [0.1956130713224411], [-1.4431140422821045], [0.4533439874649048], [-0.13662321865558624], [-0.046364229172468185], [-0.025432424619793892], [-0.15783116221427917], [-0.8120213747024536], [0.1915229707956314], [-0.5946335196495056], [-0.03515470400452614], [0.30632975697517395], [0.11272319406270981], [-0.26345112919807434], [-0.0015725900884717703], [-0.1676616370677948], [-0.06548719853162766], [-0.1346949338912964], [-0.276955246925354], [-0.9488386511802673], [0.6561725735664368], [0.0459008626639843], [-0.5367235541343689], [-0.014225085265934467], [-0.001606085803359747], [-0.009360387921333313], [-0.01740705780684948], [-0.07587796449661255], [-0.13628725707530975], [-0.16609926521778107], [-0.019749818369746208], [-0.2216109335422516], [0.0077806562185287476], [1.0566824674606323], [-0.053398944437503815], [-0.011599774472415447], [-0.006980359088629484], [-0.05374448001384735], [0.0025244050193578005], [-0.7251160740852356], [-0.035110924392938614], [-0.1378474086523056], [-0.03846912831068039], [-0.7082488536834717], [0.006336982361972332], [-0.007816723547875881], [-0.01942015253007412], [-0.005815440323203802], [-0.022951940074563026], [-0.006608848460018635], [-0.005578683689236641], [0.2991205155849457], [-0.13042794167995453], [0.006469276733696461]], "rec.weight_hh_l0": [[0.04104539379477501, -0.02386329509317875, -0.007134178653359413, 0.018288586288690567, -0.050488825887441635, -0.018804160878062248, -0.09007418900728226, -0.15109822154045105, -0.01002572849392891, 0.15627825260162354, -0.027680816128849983, -0.08245700597763062, -0.05592222511768341, 0.0784606859087944, -0.004169621039181948, 0.003489918541163206, -0.012311567552387714, 0.06919702142477036, -0.011400305666029453, 0.04189162701368332, -0.012573507614433765, -0.03596922755241394, 0.0021115641575306654, 0.006116264034062624, 0.042806658893823624, 0.01915169693529606, -0.1054392084479332, 0.028100064024329185, 0.011429010890424252, -0.14345993101596832, -0.0905206948518753, 0.0444868728518486], [-0.011102044954895973, 0.00036713789450004697, 2.214505002484657e-05, 0.00027318697539158165, 0.0006771924090571702, -0.0045099081471562386, -0.001758628524839878, -0.0027968287467956543, -0.000455213914392516, 0.004276274237781763, 0.00020557839889079332, 0.002284976653754711, -0.0007644224097020924, -0.00021067415946163237, -0.00042925906018354, 0.0006119940080679953, 0.0006114677526056767, -0.014364916831254959, -0.0005579843418672681, 0.00032277274294756353, -0.0005335116875357926, 0.009551064111292362, 1.6283755030599423e-05, 0.00030453348881565034, 0.003331015584990382, 0.00030656560556963086, -0.0013060832861810923, 0.0004742678429465741, -0.0005869187298230827, 0.03588885813951492, -0.0013769547222182155, -0.0008158935233950615], [-0.02306441403925419, 0.0005680149770341814, 0.000390683941077441, -0.00023374556622002274, 0.00012777662777807564, 0.0008651642128825188, -0.0001709985372144729, -0.0007786496425978839, 0.0001203190186060965, 0.0029245836194604635, 0.00041946853161789477, -0.0014268200611695647, -0.0002244157949462533, -6.185498205013573e-05, 6.900458538439125e-05, -0.0003755024808924645, -0.00022332095250021666, -0.03973264992237091, 0.0002977137337438762, -0.000791862839832902, -0.001481462619267404, 0.013603394851088524, -5.0307709898333997e-05, -0.0001223480940097943, -0.0005589122301898897, -8.597901614848524e-05, 0.0003389253979548812, -0.0002463882847223431, -0.001734306220896542, 0.03821130469441414, -0.00010765941260615364, -0.00038445868995040655], [-0.014638308435678482, 0.0004636261728592217, 0.00012623252405319363, 6.532029510708526e-05, 3.204937820555642e-05, 0.0013240290572866797, -0.00016836471331771463, -0.00030937872361391783, 0.00020752483396790922, 0.002911652671173215, 0.0004955888143740594, -0.0009334575734101236, 5.332134242053144e-05, 0.0002065996959572658, 0.00013466116797644645, -0.0002897984522860497, -0.00030552464886568487, -0.024218333885073662, 6.127905362518504e-05, -0.0007760938606224954, -0.0015686105471104383, 0.011154493317008018, -6.239515641937032e-05, 1.6496884200023487e-05, -0.0002567250339780003, 0.00012226517719682306, -7.20304342394229e-06, 1.1433876352384686e-05, -0.0009480839944444597, 0.0625997930765152, 0.0003499768499750644, -0.00010311205551261082], [-0.020064253360033035, 0.0006722421385347843, 0.00010946305701509118, 3.281071485616849e-06, -0.0015009869821369648, -0.001901049050502479, -0.0011501702247187495, -0.0028828519862145185, 0.0001783265615813434, 0.006522876210510731, -0.00016993191093206406, 0.0015865863533690572, -0.0005086864694021642, 0.00010405547072878107, -5.733888428949285e-06, -0.00010708360059652478, 0.00010250097693642601, -0.025821497663855553, 9.122679330175743e-05, -0.0012310226447880268, -0.0015430579660460353, 0.033381689339876175, -5.1773527957266197e-05, -9.109793609241024e-05, -0.0003640000068116933, -0.00021121375903021544, -0.0008469164604321122, -0.00013945973478257656, -0.0016250411281362176, 0.05938895046710968, -0.0006160844350233674, 0.0003402779984753579], [-0.04065477102994919, -0.006183139979839325, -0.0014304087962955236, 0.0021250201389193535, 0.00029761894256807864, 0.010904548689723015, -0.011687897145748138, -0.014501015655696392, -0.006568423006683588, 0.022098319604992867, -0.003993257414549589, -0.00169306097086519, -0.006258954294025898, 0.008369780145585537, 0.0005401276284828782, 0.0033248772379010916, -0.0014233589172363281, -0.05721266195178032, -0.0009895493276417255, 0.004657866433262825, -0.005154406186193228, 0.023899709805846214, -0.0011344020022079349, 0.001656926004216075, -0.006913236808031797, 0.0012941365130245686, 0.005025004968047142, 0.004816262982785702, -0.0013271099887788296, 0.06528729200363159, -0.009335233829915524, 0.0040772445499897], [0.033620163798332214, -0.008367638103663921, -0.0025533800944685936, 0.001213011797517538, -0.002340565901249647, -0.03506641089916229, -0.004603996407240629, -0.00040556551539339125, -0.0046871863305568695, 0.015763521194458008, -0.008442501537501812, 0.014108984731137753, 0.0005760737112723291, -0.0007960213697515428, -0.0044260588474571705, 0.002839128253981471, 0.003066800767555833, 0.038490455597639084, -0.00024835599469952285, 0.006934355944395065, 0.006125805899500847, -0.1251179277896881, 0.0024450928904116154, 0.0027301216032356024, 0.01241200603544712, 0.001313364366069436, 0.0007166393916122615, 0.002431699074804783, 0.014040989801287651, 0.08137082308530807, -0.0005586773622781038, 0.0027650827541947365], [0.06775318831205368, -0.0067613092251122, 0.0014680707827210426, -0.007590360473841429, 0.0009916523704305291, -0.04766906797885895, 0.00342936092056334, 0.018747419118881226, -0.0014697755686938763, 0.022227227687835693, -0.010882913134992123, 0.020451359450817108, 0.015435293316841125, -0.009760618209838867, -0.005800553131848574, -0.0036292793229222298, 0.004483560565859079, 0.09332399070262909, 0.003113765735179186, 0.003669155528768897, 0.011051731184124947, -0.1796240359544754, 0.001601495547220111, 0.0015856812242418528, 0.009087146259844303, -0.0009394928347319365, 0.013009026646614075, 0.000960785779170692, 0.021285541355609894, 0.1482926309108734, 0.014396855607628822, 0.002280227607116103], [-0.021255657076835632, 0.0006696996279060841, 0.0006587347597815096, -0.0006769121973775327, 0.00028797145932912827, 0.004210859537124634, 0.0006052099051885307, -0.002381793688982725, 0.0013350939843803644, 0.00959536712616682, 0.0002985384198836982, 0.0009845810709521174, -0.0006156257586553693, 0.0014111584750935435, 0.00016570414300076663, -0.0014324772637337446, -0.0010662981076166034, -0.03236709162592888, 0.0010085555259138346, -0.0026584849692881107, -0.004767247941344976, 0.02093425951898098, -0.001165880123153329, -0.000765445816796273, -0.004483924247324467, -0.00030256318859755993, -0.00028073921566829085, -6.372506322804838e-05, -0.0037748415488749743, 0.024213263764977455, -0.00015489025099668652, 0.0003040581359528005], [0.09178737550973892, -0.01396652590483427, 0.00036688611726276577, 0.006787243764847517, -0.00014553460641764104, -0.019387532025575638, -0.01990494132041931, -0.02034137211740017, -0.003462869906798005, 0.04053177684545517, -0.0024753939360380173, -0.022934425622224808, -0.009215024299919605, -0.008617950603365898, -0.00644398108124733, 0.0002688055974431336, 0.0016717683756724, 0.12398877739906311, -0.005650600418448448, 0.0291957538574934, -0.014953935518860817, -0.06994708627462387, 0.0010546715930104256, -0.010980539955198765, -0.0004338143626227975, 0.00732515100389719, 0.010365494526922703, 0.0067464136518538, 0.04317652806639671, 0.278716504573822, -0.014717800542712212, 0.0037086382508277893], [-0.01681382767856121, 5.357560803531669e-05, -0.000136933580506593, 0.00026499948580749333, 0.00035447790287435055, -0.0006729562883265316, -0.0001650067715672776, -0.0003055109118577093, -2.662297811184544e-05, 0.002037563594058156, 0.0012111143441870809, 0.0052612898871302605, -0.0001721668231766671, 0.0003978644672315568, -4.163401172263548e-05, 9.108373342314735e-05, -0.00013688283797819167, -0.022942740470170975, -0.00018279640062246472, 0.0008280104957520962, -0.0012076502898707986, 0.016778049990534782, -7.961034134496003e-05, 0.0001592656917637214, 0.0006689297151751816, 0.00018223725783172995, -0.00022357060515787452, 0.00021618837490677834, -0.0010203669080510736, 0.019335433840751648, -0.0004757829010486603, -4.150357563048601e-05], [-0.30843979120254517, 0.013192630372941494, 0.030293002724647522, -0.031171582639217377, -0.005035083740949631, 0.03364313393831253, 0.013870743103325367, 0.023411793634295464, 0.021541832014918327, -0.06363248080015182, -0.009805664420127869, -0.3120020031929016, 0.011034933850169182, 0.03295936435461044, -0.0008359822677448392, -0.032678425312042236, -0.028643200173974037, -0.49145737290382385, 0.03532154858112335, -0.036493152379989624, -0.005036408547312021, -0.05647539719939232, -0.020962806418538094, -0.013495948165655136, -0.016978805884718895, -0.016607224941253662, 0.029370928183197975, -0.02091570571064949, -0.06776809692382812, -0.6239367723464966, 0.019429555162787437, -0.006686903536319733], [0.0021639710757881403, -0.0008443603874184191, 0.00028823010507039726, -0.0014978041872382164, -0.0016602437244728208, -0.014551670290529728, 0.00047622929560020566, 0.005943830590695143, 0.0003443018067628145, 0.008809790015220642, -0.002654805313795805, 0.014152146875858307, 0.0045854877680540085, -0.0011151263024657965, -0.0014425048138946295, -0.001435682992450893, 0.001109826611354947, 0.0007320442236959934, 0.0012964420020580292, -0.0006917511345818639, 0.0017262417823076248, -0.030733127146959305, 5.567350672208704e-05, 0.00038767498335801065, 0.004022657871246338, 0.00024615335860289633, 0.0008018856751732528, 0.0005485641886480153, 0.004182414151728153, 0.11044923216104507, 0.005371967330574989, 0.0010852459818124771], [-0.019195061177015305, 0.0011643206235021353, -0.0002356707991566509, 5.293698632158339e-05, 0.0003479280276224017, 0.0006496071582660079, 0.005654183682054281, 0.008969456888735294, -0.00026520798564888537, -0.00046294243657030165, -0.0004615904181264341, 0.008243527263402939, 0.003489615861326456, 0.00034238374792039394, -5.9301415603840724e-05, 0.0004726990300696343, -0.00027819443494081497, -0.02201220951974392, -0.0003165888774674386, -0.0035311151295900345, -0.0009232119773514569, 0.023253370076417923, 0.00023854630126152188, -0.0003096303262282163, -0.0016172019531950355, 7.643330172868446e-05, -0.0008128739427775145, -8.680718019604683e-05, -0.0004080976650584489, 0.04435843974351883, 0.006157423835247755, 0.000927498796954751], [-0.014438305050134659, -0.00018111406825482845, -1.340115977654932e-05, 4.5758672058582306e-05, 3.2596908567938954e-05, 0.0001385908981319517, -0.0004657082608900964, -0.0006759310490451753, -5.9850823163287714e-05, 0.0004189521714579314, -0.00012060097651556134, -0.0008922035922296345, -0.00032762103364802897, 0.00010945093526970595, -2.0444558685994707e-06, 7.726051262579858e-05, -3.2035364711191505e-05, -0.03493038937449455, -1.4249235391616821e-05, 0.00035395388840697706, -4.9761732952902094e-05, 0.01373375952243805, -5.0867252866737545e-05, 2.375588155700825e-05, -5.043784040026367e-05, 4.522220933722565e-06, -5.3367525651992764e-06, 9.466547635383904e-05, -4.1892828448908404e-05, 0.05009537935256958, -0.0005554442759603262, 1.0389167073299177e-05], [-0.02295749820768833, 0.0015982268378138542, 0.001399855362251401, -0.0010555897606536746, 0.0003398170811124146, 0.003879593452438712, 0.001041806535795331, -0.003213880117982626, 0.0018151483964174986, 0.010625563561916351, -0.0003169550036545843, 0.003909993916749954, -0.001210788614116609, 0.0013021922204643488, 0.00032072089379653335, -0.00272032106295228, -0.001506053376942873, -0.03508175164461136, 0.002147722989320755, -0.003342088544741273, -0.006947916932404041, 0.021697623655200005, -0.0013777111889794469, -0.0011053710477426648, -0.0037297552917152643, -0.0002962653525173664, 0.00036249455297365785, -0.0007100304355844855, -0.004687342327088118, 0.03683355450630188, -0.00034946115920320153, 0.00021806274889968336], [-0.03577340394258499, 0.0005605977494269609, 0.0004650939372368157, -0.0004366323701106012, -1.664380033616908e-05, 0.0006160509074106812, 0.001312968204729259, 0.00062490941490978, 0.00014849184663034976, 0.0012728057336062193, 0.00020928806043229997, -0.0018998346058651805, 0.00036875897785648704, -0.00023267872165888548, -8.84053065419721e-07, -0.00019624577544163913, -0.0004140238743275404, -0.06343457102775574, 0.0002004380221478641, -0.001869459287263453, -0.0013702349970117211, 0.02440112829208374, -3.7467791116796434e-05, -0.00027348409639671445, -0.0004099264624528587, -0.000124807222164236, -0.00029021056252531707, -0.00022181958775036037, -0.0018704415997490287, 0.05996428057551384, 0.000990777276456356, -0.0007731870864517987], [0.03999536857008934, -0.018465274944901466, -0.002263810718432069, 0.013292969204485416, -0.022044207900762558, 0.04109886661171913, -0.07483956962823868, -0.1327323019504547, -0.00022000647732056677, 0.17270521819591522, -0.015901733189821243, -0.11044371128082275, -0.06924998015165329, 0.06534124165773392, 0.004666868131607771, -0.006533571053296328, -0.014229129068553448, -0.026813199743628502, 0.010488799773156643, 0.04928673431277275, -0.028730524703860283, 0.051311980932950974, -0.004863108973950148, 0.006188025698065758, -0.009918596595525742, -0.0021166722290217876, -0.053091466426849365, -0.002586215501651168, -0.015456382185220718, -0.04663606360554695, -0.09767819195985794, 0.013388498686254025], [-0.022153133526444435, 0.0006245909607969224, 0.0005851851892657578, -0.00021979937446303666, -5.573367889155634e-05, 0.002067835070192814, -0.0009057798306457698, -0.00263512902893126, 0.0006105267675593495, 0.006013728678226471, 0.00048686264199204743, -0.004842760041356087, -0.0009652371518313885, 0.0004296324623282999, 0.00012287602294236422, -0.0014929274329915643, -0.0007537754718214273, -0.03429286554455757, 0.001255329349078238, -0.000846225128043443, -0.0036926972679793835, 0.01305848453193903, -0.00017088136519305408, -0.0001681868452578783, -0.0017935532378032804, 8.370753494091332e-05, 0.0007828262750990689, -0.00023861679073888808, -0.002459094626829028, 0.05231127142906189, -0.000959637516643852, -0.00045356358168646693], [0.015607548877596855, -0.005307055078446865, -0.0014337034663185477, 0.001461294712498784, -0.0040246713906526566, -0.022890141233801842, -0.00910432729870081, -0.013713919557631016, -0.006529178470373154, 0.017058486118912697, -0.007628619205206633, 0.010266702622175217, -0.005604159086942673, 0.008521716110408306, -0.002461165888234973, 0.004012643825262785, 0.00087464798707515, 0.012755334377288818, 0.0003965902142226696, 0.006938648875802755, 0.0015156383160501719, -0.03931231051683426, 0.00270248344168067, 0.0009457598207518458, 0.010762926191091537, 0.0012094840640202165, -0.011252268217504025, 0.0023369037080556154, 0.007415457163006067, 0.04927370697259903, -0.008926164358854294, 0.0027239378541707993], [-0.035809680819511414, 0.0021576909348368645, -0.00034140117350034416, 0.00042050922638736665, 0.0021234294399619102, -0.004363563377410173, 0.0007798773003742099, 0.0025813113898038864, -0.0034608356654644012, 0.00982449110597372, 0.0031249085441231728, -0.008436935022473335, 0.002765707904472947, 0.0003486150235403329, 9.746311843628064e-05, 0.003199995495378971, 0.0004843890492338687, -0.060736291110515594, -0.002240448957309127, -0.0035099005326628685, -0.002125947969034314, 0.09210998564958572, -0.0001113365069613792, 0.0011603549355641007, 0.00363630848005414, 0.001696715597063303, -0.003872362431138754, 0.002455533482134342, -9.106191282626241e-05, 0.15112802386283875, 0.004226251505315304, -0.0020782537758350372], [-0.5474113821983337, 0.14121106266975403, 0.006094125099480152, -0.029527893289923668, 0.0006217859918251634, 0.1486649513244629, 0.21496400237083435, 0.18250177800655365, -0.02234824001789093, 0.016918998211622238, 0.11372241377830505, -0.15155605971813202, 0.14247797429561615, -0.014265159144997597, 0.024049289524555206, 0.07153917849063873, 0.03636304289102554, -0.6544814109802246, -0.060446884483098984, -0.261300265789032, -0.11968677490949631, 0.1213451623916626, 0.042887311428785324, -0.06310003250837326, -0.08075699955224991, -0.0037795959506183863, -0.02177644893527031, -0.01150666642934084, -0.25122058391571045, 1.0761802196502686, 0.21013116836547852, 0.018985643982887268], [-0.019265515729784966, 0.00010009174002334476, 0.00030707803671248257, -0.0001435579761164263, -6.433764792745933e-05, -6.302302790572867e-05, 0.00035055470652878284, 8.471145520161372e-06, 0.0009482649620622396, 0.00033181844628416, 0.0004202836425974965, 0.0010704591404646635, 3.1033006962388754e-05, 0.00027115867123939097, -3.8585843867622316e-05, -0.0008506597951054573, -0.00042008934542536736, -0.028421662747859955, 0.0002742631477303803, -0.0015865105669945478, -0.0018945857882499695, 0.031118838116526604, -0.0006006719777360559, -0.00010248484613839537, 0.00023245018383022398, -6.8788876887992956e-06, 0.00013506627874448895, -0.00011941343836952001, -0.001900218310765922, 0.009588095359504223, 0.00042701722122728825, 0.00011332910071359947], [-0.009103097952902317, 0.0001906321558635682, 7.701348658883944e-05, 5.355085158953443e-05, 0.00017847698472905904, 0.0004438079195097089, -0.00015897203411441296, -0.0005798113415949047, -0.00023537420202046633, 0.0014979575062170625, 0.00012625586532521993, -0.0008279976318590343, -8.183881436707452e-05, 0.0005180285661481321, 5.86200003453996e-05, 0.00015972068649716675, -0.00020524341380223632, -0.015271865762770176, -7.294918759725988e-05, -0.00048171787057071924, -0.0009780433028936386, 0.005023027304559946, -0.00011582626757444814, -5.800217877549585e-06, 0.00016726071771699935, 7.590825407532975e-05, -0.0004560186935123056, 7.75025473558344e-05, -0.000534767983481288, 0.04244200512766838, 1.7388956621289253e-05, -0.0004234116931911558], [-0.0102225411683321, -0.0019795617554336786, -0.0005121500580571592, 0.0008704242645762861, -0.00010782311437651515, 0.004717377945780754, -0.003912046086043119, -0.004795344080775976, -0.0023804749362170696, 0.005507782567292452, -0.0023856423795223236, -0.0013122853124514222, -0.0017691097455099225, 0.0033051734790205956, 6.752243643859401e-05, 0.0013254866935312748, -0.00029947812436148524, -0.016813237220048904, -0.00048789827269501984, 0.00218772585503757, -0.0018452679505571723, 0.0030169992242008448, 0.00032375508453696966, 0.0004992431495338678, -0.002907085232436657, 0.000542128283996135, -0.001318659051321447, 0.0012298302026465535, 0.0012225925456732512, 0.031127339228987694, -0.00308107933960855, 0.0033521049190312624], [-0.012265575118362904, 0.0002970214991364628, 2.3056385543895885e-05, 0.0001669476187089458, 0.0001348120131297037, 0.0007994318148121238, -4.9788155592978e-05, -4.0401315345661715e-05, 1.69788454513764e-05, 0.0015973456902429461, 0.00042294285958632827, -0.0015466420445591211, 0.00010946678958134726, 0.00010223189747193828, 8.012012403924018e-05, 3.70376328646671e-05, -0.00011276617442490533, -0.022422216832637787, -0.00017392777954228222, -0.0006017673294991255, -0.0011404284741729498, 0.009985123760998249, -1.1750766134355217e-05, 8.1659309216775e-05, 4.3009706132579595e-05, 0.00017329913680441678, 1.1944188372581266e-05, 9.727502765599638e-05, -0.0005052274791523814, 0.056561216711997986, 0.00038349247188307345, -0.00011949155305046588], [-0.06895160675048828, 0.0042537241242825985, 0.0009725590352900326, -0.0015457308618351817, -0.0043640900403261185, 0.006191006395965815, 0.007414389867335558, -0.0017937537049874663, 0.002747377846390009, 0.015313327312469482, 0.0010799166047945619, 0.00017811522411648184, 0.001258745905943215, 0.002977654803544283, 0.0003530748072080314, -0.0006201700307428837, -0.004084752406924963, -0.08583921939134598, 0.002387882908806205, -0.009557628072798252, -0.01037682592868805, 0.06989329308271408, -0.00017613370437175035, -0.0035216519609093666, -0.0239030160009861, -0.000946603249758482, 0.0041465479880571365, -0.0012700955849140882, -0.006138817872852087, 0.05801255628466606, 0.0031700958497822285, -6.681847298750654e-05], [-0.011295418255031109, 0.0004188849707134068, 0.0001684733433648944, -2.0506424334598705e-05, -0.00014859845396131277, 0.0029692312236875296, 0.00015288140275515616, -0.00031334298546426, -5.352066000341438e-05, 0.0018431227654218674, 0.00036665156949311495, -0.0010793182300403714, 1.0453788490849547e-05, 0.00017664709594100714, 0.00019574817270040512, -0.0002062708226731047, -0.00037531976704485714, -0.02098332904279232, 0.0001636091183172539, -0.000767459801863879, -0.0013134317705407739, 0.009385135024785995, 0.00016468678950332105, -0.00012093650730093941, -0.0012140810722485185, 2.287790812260937e-05, 0.0001834910362958908, -7.299745630007237e-05, -0.0008805638644844294, 0.04937215521931648, 0.0002295004960615188, 0.00028949175612069666], [-0.052200205624103546, 0.001815641880966723, 0.0023303423076868057, -0.0021310015581548214, -0.000759870046749711, 0.006364339962601662, 0.0009627575054764748, -0.0031823539175093174, 8.42396984808147e-05, 0.010508736595511436, -9.483574831392616e-05, -0.007674981839954853, -0.0009953782428056002, 0.002917876001447439, 0.000698458927217871, -0.0006782577256672084, -0.0015722864773124456, -0.07066778838634491, 0.0009993622079491615, -0.0050394292920827866, -0.0061678229831159115, 0.07121441513299942, -0.0016876249574124813, -0.0014380612410604954, -0.0033290651626884937, -0.0010371713433414698, 0.0016081704525277019, -0.0013154203770682216, -0.007839307188987732, 0.07685452699661255, -0.00011975854431511834, -0.0022041297052055597], [-0.08566200733184814, -0.002092926297336817, -0.04082714021205902, 0.07708890736103058, -0.0678706094622612, -0.020160309970378876, -0.19185727834701538, -0.28538480401039124, 0.019080782309174538, 0.40505456924438477, 0.019800392910838127, -0.6928189992904663, -0.13886523246765137, 0.09390489757061005, 0.0023841389920562506, -0.0026136860251426697, -0.043458983302116394, -0.09166448563337326, -0.03736761584877968, 0.09047810733318329, -0.15917465090751648, -0.23016571998596191, -0.056868378072977066, 0.07314398884773254, -0.019796574488282204, 0.08669553697109222, -0.09309641271829605, 0.08528024703264236, 0.005011005327105522, 0.3294106125831604, -0.1846713423728943, 0.04733077809214592], [0.03217888996005058, -0.005532787647098303, -0.0005410266458056867, -0.0017667957581579685, -0.0034953909926116467, -0.034023504704236984, -0.0026472294703125954, 0.0034841112792491913, -0.001887040794827044, 0.01633446104824543, -0.008090236224234104, 0.018187986686825752, 0.00431206077337265, -0.0016222302801907063, -0.003991561010479927, -0.0017689793603494763, 0.002290822099894285, 0.042219363152980804, 0.002598383231088519, 0.004033962264657021, 0.006996591575443745, -0.10663299262523651, 0.002493735635653138, 0.0016532163135707378, 0.009769895114004612, 0.0004339763254392892, 0.002637345576658845, 0.0013048801338300109, 0.012331443838775158, 0.1017027348279953, 0.0037707635201513767, 0.0042172763496637344], [-0.03867122903466225, 0.0012636763276532292, 0.0006806597812101245, -0.0001417878083884716, -0.001313252723775804, 0.00272877118550241, -0.00017795110761653632, -0.002279442036524415, 0.00010999353253282607, 0.008053150959312916, 0.0012024329043924809, -0.015513814054429531, -2.71490280283615e-05, 0.000816853775177151, 2.8590573492692783e-05, 0.0006154707516543567, 6.652716547250748e-05, -0.06954751163721085, -0.0005188087816350162, -0.003158492036163807, -0.004160124808549881, 0.07070174813270569, -3.315880530863069e-05, -4.3957097659586e-05, -0.0007501549553126097, 0.0001902751682791859, 0.000252310186624527, 9.208879055222496e-05, -0.0035377596504986286, 0.10870742797851562, 0.000571678567212075, 0.00040785278542898595], [0.06510570645332336, -0.03255514055490494, -0.012101149186491966, 0.023194316774606705, -0.051457956433296204, -0.02774694375693798, -0.09616601467132568, -0.1557905226945877, -0.013132273219525814, 0.15818259119987488, -0.03951830044388771, -0.038854170590639114, -0.060680635273456573, 0.07891909778118134, -0.005574255716055632, 0.0010558763751760125, -0.009504514746367931, 0.10149713605642319, -0.006657530553638935, 0.05591414496302605, -0.0011983303120359778, 0.006744802463799715, 0.004667708650231361, 0.007530959323048592, 0.04131361469626427, 0.021958492696285248, -0.0967571884393692, 0.031434595584869385, 0.03401017561554909, -0.1253780722618103, -0.09825959801673889, 0.04930458962917328], [-0.001600331743247807, -7.44957578717731e-05, -0.00011940387776121497, 0.0003360419359523803, 0.0006583031499758363, -0.005607348866760731, -0.0016862154006958008, -0.002058906713500619, -0.00022861661273054779, 0.0021468219347298145, -3.356234810780734e-05, 0.0032161453273147345, -0.0006504677585326135, -0.0006113717099651694, -0.0005041526746936142, 0.0005375710316002369, 0.0007949358550831676, -0.0010876962915062904, -0.0005859333905391395, 0.0009406583267264068, 0.0004755382251460105, 0.00012637021427508444, -1.3231871889729518e-05, 0.0003801361017394811, 0.003687949851155281, 0.00026798140606842935, -0.0010145496344193816, 0.00045831705210730433, 0.00030529615469276905, 0.01975882053375244, -0.0013011557748541236, -0.0007047700928524137], [-0.01302188541740179, 0.0003498919541016221, 0.000261858367593959, -0.0001548706932226196, 0.00013317276898305863, 0.00044806525693275034, -0.00018691732839215547, -0.0006243354291655123, 7.543389074271545e-05, 0.001826099818572402, 0.000228704753681086, -0.000587433809414506, -0.0002034921635640785, -0.00012319890083745122, 4.877313403994776e-05, -0.00024425683659501374, -0.00011809496209025383, -0.02372010610997677, 0.0002117905969498679, -0.00042697173194028437, -0.0009344372665509582, 0.007039453834295273, -1.8982129404321313e-05, -7.730231300229207e-05, -0.0003798145626205951, -5.6655782827874646e-05, 0.0002541421272326261, -0.0001559216616442427, -0.001114361803047359, 0.024761319160461426, -0.00018629408441483974, -0.0002884400892071426], [-0.008992668241262436, 0.00024521222803741693, 6.964555359445512e-05, 5.2289964514784515e-05, 6.223817763384432e-05, 0.0007947193225845695, -0.00021969225781504065, -0.00014049331366550177, 0.00014880365051794797, 0.0015572546981275082, 0.00027837109519168735, -0.00012087652430636808, 4.715863906312734e-05, 9.584557119524106e-05, 8.446928404737264e-05, -0.00021083546744193882, -0.00017340628255624324, -0.016301890835165977, 4.546063064481132e-05, -0.0003706954012159258, -0.0009133417624980211, 0.006780750118196011, -4.320319931139238e-05, 3.424422175157815e-05, -9.337793744634837e-05, 8.620735752629116e-05, -4.546833679341944e-06, 1.6047333701862954e-05, -0.0005521114799194038, 0.05222547426819801, 0.00021792418556287885, -0.0001365972129860893], [-0.013803443871438503, -2.520976158848498e-05, -0.00014348387776408345, -0.00010421009210404009, 9.292802133131772e-06, -0.0004206735175102949, -0.00012336682993918657, -0.0013950621942058206, -8.568752673454583e-05, 0.002617838326841593, 0.00012541386240627617, 0.00037290764157660306, -0.00012344062270130962, -0.0007667922764085233, 6.435105660784757e-06, 0.00012013980449410155, 0.00013307783228810877, -0.012982690706849098, -0.0001659421541262418, -0.00037912328843958676, 0.0006262302631512284, 0.016624635085463524, 5.6560314988018945e-05, 5.11339349031914e-05, 0.0009528073132969439, 0.00012798674288205802, 0.0005467265727929771, 0.00012319008237682283, -0.0005909362225793302, 0.02602081559598446, -0.00029904182883910835, -0.00033503040322102606], [-0.02982439659535885, -0.004200926050543785, -0.0008185413898900151, 0.0016411212272942066, -0.0013165255077183247, 0.0065368060022592545, -0.012659972533583641, -0.01703939028084278, -0.0025407772045582533, 0.014686117880046368, -0.0030023977160453796, -0.0009289803565479815, -0.007601718418300152, 0.002816864987835288, 0.00034622097155079246, 0.0017025567358359694, -0.0009192598517984152, -0.04316718876361847, -0.00018420581181999296, 0.008076504804193974, -0.0023611292708665133, 0.017458753660321236, 0.0008909187745302916, 0.0007286856416612864, -0.004501320421695709, 0.0005763815133832395, 0.010287731885910034, 0.0009407051256857812, 0.0004891665303148329, 0.054339781403541565, -0.012622203677892685, 0.0039594657719135284], [0.05336456373333931, -0.009347188286483288, -0.0031253257766366005, 0.0008521192939952016, -0.00044909867574460804, -0.03482440859079361, -0.006156886927783489, -0.00013875853619538248, -0.005436684936285019, 0.01188597921282053, -0.010252401232719421, 0.029256384819746017, 0.0008903528796508908, -0.002145167673006654, -0.004299065563827753, 0.003243122948333621, 0.004278574138879776, 0.055898286402225494, -0.0006980436737649143, 0.009440021589398384, 0.009928535670042038, -0.10935103893280029, 0.0026055104099214077, 0.0030396569054573774, 0.011363604106009007, 0.001093014725483954, 0.0011292831040918827, 0.002524508396163583, 0.015336823649704456, 0.05328540876507759, -0.0014513644855469465, 0.0015585047658532858], [0.07875261455774307, -0.0034136485774070024, 0.004758546128869057, -0.012936177663505077, 0.004081569612026215, -0.04261069744825363, 0.004305458161979914, 0.021892091259360313, -0.004429121967405081, 0.02656572125852108, -0.010452731512486935, 0.02874896302819252, 0.020795078948140144, -0.008389593102037907, -0.00519468542188406, -0.0024686299730092287, 0.005772022996097803, 0.10438520461320877, 0.003694795537739992, 0.0017886447021737695, 0.011596059426665306, -0.15729345381259918, 0.002953022951260209, 0.0015330256428569555, 0.006550106219947338, -0.003487209789454937, 0.01101873628795147, -0.0009730046731419861, 0.019381703808903694, 0.12203586101531982, 0.01750650256872177, 0.00105418567545712], [-0.013144675642251968, 0.00035438311169855297, 0.0002446327416691929, -0.0004126134735997766, 0.00043196274782530963, 0.0029241638258099556, 0.0005736370803788304, -0.0013324236497282982, 0.0005185421323403716, 0.00605353619903326, -0.0001546884304843843, 0.0016240272670984268, -0.0003046316560357809, 0.0008456286159344018, -7.653057400602847e-05, -0.0006727388245053589, -0.0005703050410374999, -0.020306026563048363, 0.0004737885028589517, -0.0015120453899726272, -0.0026170567143708467, 0.008597568608820438, -0.0006582580972462893, -0.0005377294728532434, -0.0028987855184823275, -0.00020308647071942687, 0.00023665545450057834, -2.0811485228477977e-05, -0.0018839574186131358, 0.019401179626584053, -8.111306669889018e-05, 7.284510047611548e-06], [0.09754863381385803, -0.010756299830973148, 0.006112389732152224, 0.0017974654911085963, 0.0005865018465556204, -0.011469997465610504, -0.02114851027727127, -0.016486946493387222, -0.0017486622091382742, 0.030968623235821724, 0.003111917059868574, -0.05076932534575462, -0.004049742594361305, -0.003140660235658288, -0.005143674556165934, -0.0012492401292547584, 0.002830222714692354, 0.1310572624206543, -0.005714077036827803, 0.03023664467036724, -0.014751511625945568, -0.04646502807736397, 0.002065331907942891, -0.019279221072793007, -0.0010740745346993208, 0.004999176599085331, 0.005158239509910345, 0.0027394143398851156, 0.047489676624536514, 0.2770615518093109, -0.010997563600540161, 0.003344067372381687], [-0.009513858705759048, -0.0002905885921791196, -0.00018510565860196948, 0.0002602764288894832, 0.00017386626859661192, -0.0017843586392700672, -0.0004132351605221629, -0.00010230574844172224, -8.8780332589522e-05, -8.03648799774237e-06, 0.0005245720385573804, 0.005867634899914265, -0.0002748476399574429, 8.017846994334832e-05, -0.0001813757116906345, 0.00026140594854950905, 0.00021222472423687577, -0.009638188406825066, -0.0001597679074620828, 0.0012358002131804824, 0.00033655198058113456, 0.006256751250475645, -5.102324212202802e-05, 0.0002328009286429733, 0.0015005439054220915, 8.799936040304601e-05, -0.00015289518341887742, 0.0001752119860611856, 0.00011299908510409296, 0.010833967477083206, -0.0007052879082038999, 0.0001310557418037206], [-0.16983509063720703, 0.007143435534089804, 0.021717898547649384, -0.0203494094312191, -0.026457926258444786, 0.01390552707016468, 0.0003509495873004198, -0.005282167810946703, 0.02072521485388279, -0.029649509117007256, -0.025581693276762962, -0.15867358446121216, -0.00777149572968483, 0.04417792335152626, 0.0007497264887206256, -0.040113355964422226, -0.023026078939437866, -0.3011283874511719, 0.03870973736047745, -0.015107844956219196, -0.011505809612572193, 0.08087655156850815, -0.019850213080644608, -0.013172155246138573, -0.016300959512591362, -0.011286357417702675, 0.003496836870908737, -0.01141621544957161, -0.04609878733754158, -0.4302278459072113, -0.003401960479095578, 0.018456950783729553], [0.00859402772039175, -0.0007867063977755606, 0.0001999646337935701, -0.0018196667078882456, -0.0007301658042706549, -0.012700730003416538, 0.0002286937669850886, 0.0068280501291155815, -5.9405574575066566e-05, 0.006066910922527313, -0.0027756632771342993, 0.015259670093655586, 0.005227861925959587, -0.0014514448121190071, -0.0012137799058109522, -0.0008987386827357113, 0.0014034059131518006, 0.007852376438677311, 0.0008677388541400433, -0.000261012464761734, 0.002903590677306056, -0.024417085573077202, 8.452984184259549e-05, 0.0004476164758671075, 0.003397058229893446, 0.0001278815179830417, 0.0007097195484675467, 0.0005041597760282457, 0.004013841040432453, 0.09219846874475479, 0.005626793950796127, 0.0005010466556996107], [-0.0127662168815732, 0.0009440821595489979, 0.00021150417160242796, -0.0001088310091290623, -0.00026825760141946375, -0.002015697071328759, 0.0018982162000611424, 0.0030617269221693277, -0.00013404428318608552, -0.005253867711871862, 0.00012419422273524106, 0.0042390660382807255, 0.0016381265595555305, -0.0012724249390885234, -9.391759522259235e-05, 0.00011437701323302463, -8.320465713040903e-05, -0.015081548132002354, 0.0003000558936037123, -0.0025898944586515427, 0.0005944418953731656, 0.022208966314792633, 0.0004477818147279322, -0.0001307502534473315, -0.00017894606571644545, 0.00014643932809121907, 0.00045821472303941846, -0.00020097453671041876, 0.0010341288289055228, 0.029970770701766014, 0.0036735166795551777, 0.0013613898772746325], [-0.0018462621374055743, -8.103220170596614e-05, -1.0885883057198953e-05, 1.668219738348853e-05, 1.4577402907889336e-05, 9.510678501101211e-05, -0.0001752674870658666, -0.0004662660649046302, -1.6804902770672925e-05, 0.00031786883482709527, -6.378722173394635e-05, -0.000525582698173821, -0.00012176855670986697, 9.069077350432053e-05, -5.61819639699479e-08, 3.204784297849983e-05, -2.0540292098303325e-05, -0.006319954060018063, 7.659826906092349e-07, 0.00021077257406432182, -2.3356780729955062e-05, 0.000567937211599201, -3.7270829125191085e-06, 4.492491825658362e-06, -4.913377415505238e-05, -2.062309022221598e-06, 6.611723074456677e-05, 2.6705380150815472e-05, 2.2480631741927937e-05, 0.017345504835247993, -0.0002869388845283538, 1.92863512893382e-06], [-0.014738834463059902, 0.000996523187495768, 0.0008259792230091989, -0.0006838745903223753, 0.0011324364459142089, 0.0015303409891203046, 0.0009952159598469734, -0.002127602230757475, 0.0008778318297117949, 0.008121436461806297, -0.0004502112860791385, 0.0041977474465966225, -0.0007415997097268701, -0.0001428441028110683, 0.00024374180065933615, -0.0014838046627119184, -0.00048155791591852903, -0.022874372079968452, 0.0008390281582251191, -0.0024516270495951176, -0.004567361436784267, 0.01142444834113121, -0.0007191322511062026, -0.0007259895792230964, -0.0015841338317841291, -0.00022896830341778696, 0.00042657440644688904, -0.00046779552940279245, -0.0029377865139395, 0.026099229231476784, -9.008456981973723e-05, -0.0004163006669841707], [-0.013193130493164062, 0.00024922858574427664, 0.00019313936354592443, -0.00016190427413675934, 0.00011324101797072217, 0.00032902188831940293, 0.0007374577107839286, 0.0005880486569367349, 9.608803520677611e-05, 0.0006465688929893076, 0.00013165376731194556, -0.001063303672708571, 0.0003038967552129179, -0.00017723786004353315, 5.111091923026834e-07, -0.00010258460679324344, -0.00021310987358447164, -0.02762620523571968, 9.852798393694684e-05, -0.0009889442007988691, -0.0006237447378225625, 0.009700865484774113, -7.03907644492574e-05, -8.373244781978428e-05, -0.0002363016246818006, -6.138957542134449e-05, -0.0002851450990419835, -5.079281618236564e-05, -0.0006500125164166093, 0.030837776139378548, 0.0007231994532048702, -0.0003830601926892996], [0.08249260485172272, -0.028606589883565903, -0.0062250359915196896, 0.01596074551343918, -0.02456294558942318, 0.03837982565164566, -0.08944667130708694, -0.14696264266967773, -0.0034290002658963203, 0.17951266467571259, -0.02852507121860981, -0.07752961665391922, -0.07672997564077377, 0.07356525957584381, 0.0033405327703803778, -0.008558147586882114, -0.012740982696413994, 0.01559887733310461, 0.011853748932480812, 0.06530904024839401, -0.01971430703997612, 0.05623986944556236, -0.0021485777106136084, 0.01022046897560358, -0.013070831075310707, -0.001410990720614791, -0.05022917687892914, -0.0012414867524057627, -0.0036024569999426603, -0.012326872907578945, -0.1109730452299118, 0.01973435841500759], [-0.013629559427499771, 0.0004335224803071469, 0.0004293349920772016, -0.0001792312104953453, 0.00023454916663467884, 0.0008403083775192499, -0.0006902752793394029, -0.002048289170488715, 0.00029323124908842146, 0.004272189922630787, 0.00024540995946154, -0.002980792662128806, -0.0007474215817637742, -3.0251701900851913e-05, 0.00011095144873252138, -0.0008665780769661069, -0.00032611607457511127, -0.020589469000697136, 0.0008803610107861459, -0.0005224294145591557, -0.002579889027401805, 0.006759244482964277, -6.721883255522698e-05, -0.00013744327588938177, -0.0012712896568700671, 3.161186759825796e-05, 0.0005133900558575988, -0.00017014383047353476, -0.0017395063769072294, 0.03056655451655388, -0.0008224039920605719, -0.00056513148592785], [0.03734190762042999, -0.006086945533752441, -0.0019808781798928976, 0.0016974809113889933, -0.0020044094417244196, -0.02616208605468273, -0.008443446829915047, -0.01118504349142313, -0.005570953246206045, 0.009587576612830162, -0.007734848186373711, 0.01867292821407318, -0.005081310402601957, 0.005243394523859024, -0.002516167936846614, 0.004269277211278677, 0.002039970364421606, 0.03709593042731285, -0.0004232305509503931, 0.008468524552881718, 0.004394348245114088, -0.03865877538919449, 0.002138606272637844, 0.001169289113022387, 0.011043750680983067, 0.0011090792249888182, -0.008969712071120739, 0.0022982535883784294, 0.008980921469628811, 0.02446318231523037, -0.008570493198931217, 0.0003222325467504561], [-0.030878329649567604, 0.0026854868046939373, 0.00042228581150993705, -0.0011475057108327746, 0.0015676574548706412, -0.0018643202492967248, 0.001991678262129426, 0.006314651574939489, -0.0019511738792061806, 0.0009666264522820711, 0.0018774152267724276, -0.006214823108166456, 0.005206446163356304, 0.0005522851133719087, 9.462172602070495e-05, 0.001823793863877654, 0.00026468143914826214, -0.048714809119701385, -0.0012720455415546894, -0.004427444189786911, 0.00012025557953165844, 0.06485127657651901, -9.235798643203452e-05, 0.00036441473639570177, 0.001928355428390205, 0.0008354930905625224, -0.0022662943229079247, 0.0012689308496192098, -0.0006887713680043817, 0.14016500115394592, 0.0068408166989684105, -0.001523827901110053], [0.4160171151161194, -0.04073560982942581, -0.0035799876786768436, 0.0046330709010362625, 0.02746455930173397, 0.15041783452033997, -0.03387080505490303, 0.0361822135746479, -0.0354747511446476, 0.013632012531161308, -0.07915225625038147, 0.04798073321580887, 0.023594914004206657, 0.03491007909178734, -0.0010930739808827639, 0.0369616374373436, 0.03966943174600601, 0.5599109530448914, -0.011380976997315884, 0.08385629951953888, -0.042136188596487045, -0.8359366059303284, 0.02720571495592594, -0.01540904026478529, -0.12646709382534027, -0.021626992151141167, 0.008734572678804398, -0.050836771726608276, 0.1543465554714203, 0.2046263962984085, 0.00011925776925636455, 0.005740951281040907], [-0.007064145989716053, 8.320332199218683e-06, 2.962806865980383e-05, 2.7517115086084232e-05, 0.00014853785978630185, -0.00016403950576204807, 3.512642069836147e-05, 0.00022079801419749856, 0.0005096475360915065, -0.001702568493783474, 8.625461487099528e-05, 0.001348016201518476, 0.000121774421131704, 5.7068995374720544e-05, -2.6641895601642318e-05, -0.0004337929130997509, -0.00010997369099641219, -0.010888383723795414, 2.374970972596202e-05, -0.0006598061299882829, -0.000535493076313287, 0.00922546349465847, -0.00034560533822514117, 1.749415969243273e-05, 0.0005683785420842469, 1.938431705639232e-05, 0.00016811242676340044, 1.210901928061503e-06, -0.0008459964883513749, 0.006780331488698721, 0.00014325838128570467, -1.4424214896280318e-05], [-0.0034219385124742985, -9.763009074958973e-06, 2.180136789320386e-06, 7.65012446208857e-05, 0.00015535586862824857, -0.0001431541022611782, -0.0002551092766225338, -0.0004967005224898458, -0.00018744396220427006, 0.0008350350544787943, -1.7657759599387646e-05, 0.0003513924893923104, -0.00013500548084266484, 0.0002933065698016435, 1.3740100257564336e-05, 0.00017255332204513252, -6.455974653363228e-05, -0.0068290657363832, -9.787002636585385e-05, -6.806114834034815e-05, -0.00041615270311012864, 0.001134662888944149, -6.954803393455222e-05, 3.465824556769803e-05, 0.00033147999783977866, 5.952209539827891e-05, -0.00035284453770145774, 8.712233102414757e-05, -0.00015889130008872598, 0.02771865949034691, -0.00016582001990173012, -0.0004014993319287896], [-0.005586468148976564, -0.001645080279558897, -0.0003188636910635978, 0.0005489785689860582, -0.0004891058197245002, 0.003650711616501212, -0.0036165742203593254, -0.0051564425230026245, -0.0013040030607953668, 0.005572908092290163, -0.002148970728740096, -3.1637991924071684e-05, -0.0020496053621172905, 0.0024393191561102867, 3.847721382044256e-05, 0.0007274408708326519, -0.0003789144684560597, -0.006069706752896309, -0.00014203498722054064, 0.0024187956005334854, -0.002127494663000107, 0.001113447593525052, 0.00021348839800339192, 0.0002652782713994384, -0.0029725367203354836, 0.0002698231255635619, 0.00025944129447452724, 0.0002524814335629344, 0.0012267620768398046, 0.018695330247282982, -0.003439876716583967, 0.001679144916124642], [-0.007331510074436665, 0.0001700656139291823, 9.269456313631963e-06, 0.0001180619583465159, 0.00011613508831942454, 0.0005788513226434588, -9.186645911540836e-05, -0.0001011774584185332, -1.1513375284266658e-06, 0.0008912084740586579, 0.00026441755471751094, -0.0008374977041967213, 3.137881503789686e-05, 5.3872343414695933e-05, 5.129313649376854e-05, 1.9169654478901066e-05, -6.389109330484644e-05, -0.014076189137995243, -0.00011614803952397779, -0.00031870813108980656, -0.000702083227224648, 0.005356637295335531, -8.598103704571258e-06, 6.615901656914502e-05, 3.268009822932072e-05, 0.00011659139272524044, 2.7072805096395314e-05, 6.799713446525857e-05, -0.0003197424521204084, 0.04191647097468376, 0.0001665295712882653, -0.00010475557792233303], [-0.05837179720401764, 0.005191955715417862, 0.0010405327193439007, -0.0019586989656090736, -0.0005848158034496009, -0.02011159248650074, 0.014828376471996307, 0.007699992042034864, 0.0011901005636900663, 0.010672692209482193, 0.002056439872831106, -0.0030085332691669464, 0.00546752754598856, -0.0007698264089412987, -0.0006709927110932767, -0.0031357051339000463, 0.003471095347777009, -0.07755260169506073, 0.003451290540397167, -0.012813279405236244, -0.009534788317978382, 0.06023222208023071, -0.0002185736084356904, -0.003968088421970606, -0.009695565328001976, -0.001442499808035791, 0.0023750732652843, -0.002534985775128007, -0.003833318827673793, 0.054270919412374496, 0.009784772992134094, -0.0039036106318235397], [-0.006599847227334976, 0.0003022747114300728, 0.00013468424731399864, -4.1832096030702814e-05, -0.00013916959869675338, 0.0021756389178335667, 0.00012061119923600927, -0.00028702770941890776, -9.092219988815486e-05, 0.0013148488942533731, 0.0002381742961006239, -0.0005526320310309529, -1.3159410627849866e-05, 6.484994082711637e-05, 0.00012600250192917883, -0.0001315747358603403, -0.0002990558568853885, -0.010831526480615139, 0.00014440629456657916, -0.0005247863591648638, -0.0008937857346609235, 0.0045449635945260525, 0.00011089428880950436, -0.00010648470924934372, -0.0010818802984431386, 3.5516904972610064e-07, 0.00022163131507113576, -6.045536429155618e-05, -0.0006623080116696656, 0.026990218088030815, 0.00010099032078869641, 0.00015653518494218588], [-0.0303989015519619, 0.0008562443545088172, 0.0012260315706953406, -0.0012197446776553988, -0.0003200164355803281, 0.0027413489297032356, 0.000644608517177403, -0.001865419209934771, -0.00011646113853203133, 0.005766893737018108, -0.00023435063485521823, -0.004203750751912594, -0.0006477683200500906, 0.0015989483799785376, 0.0004634727374650538, -0.000255320017458871, -0.0007048588595353067, -0.04031085595488548, 0.00046230218140408397, -0.002950190333649516, -0.0036432971246540546, 0.041246842592954636, -0.0009808173635974526, -0.0008114775409922004, -0.0020747205708175898, -0.0005365472752600908, 0.0011187770869582891, -0.0005314789596013725, -0.004586922936141491, 0.039360422641038895, -0.00012938733561895788, -0.002087697619572282], [0.9123514294624329, -0.19902649521827698, -0.06316046416759491, 0.08986189216375351, 0.06695541739463806, 0.025680581107735634, -0.4352458715438843, -0.3855704367160797, -0.048309266567230225, 0.18439586460590363, -0.22923220694065094, -0.4698026180267334, -0.22921022772789001, 0.07942487299442291, -0.05379036068916321, -0.03666822612285614, 0.009645728394389153, 1.0284477472305298, 0.023786496371030807, 0.476824015378952, 0.07534471899271011, -1.0732096433639526, 0.036697085946798325, 0.07748886197805405, -0.05998385697603226, 0.033485252410173416, -0.024458106607198715, 0.014825335703790188, 0.23791983723640442, -0.28482773900032043, -0.40965235233306885, -0.030017895624041557], [0.04408260062336922, -0.00484028086066246, -0.0002733736182563007, -0.0034939583856612444, -0.00116542458999902, -0.031198663637042046, -0.0025279687251895666, 0.005968050565570593, -0.0031107787508517504, 0.014265730045735836, -0.008917626924812794, 0.026771733537316322, 0.006917316932231188, -0.0026157391257584095, -0.003580140182748437, -0.000914597068913281, 0.003269184846431017, 0.05346410721540451, 0.0019664654973894358, 0.004156917799264193, 0.010128351859748363, -0.0927521139383316, 0.0027376830112189054, 0.001505931606516242, 0.008101587183773518, -2.1383879357017577e-05, 0.0027279341593384743, 0.001185278408229351, 0.01206975243985653, 0.08032930642366409, 0.005562250502407551, 0.00284579093568027], [-0.024207748472690582, 3.1840150768402964e-05, -0.00015055644325912, -2.8311629648669623e-05, 0.00015260479995049536, 0.0018575305584818125, 0.0001448300463380292, -0.0007666993769817054, -0.0005124658346176147, 0.003505036700516939, -0.0004004805814474821, -0.008221163414418697, 0.00011650202941382304, 0.00026547559536993504, 0.00012782648263964802, 4.1763232729863375e-05, -0.0007726739859208465, -0.026947887614369392, 0.00028756653773598373, -0.001305297715589404, -0.00019101366342511028, 0.025910498574376106, 5.65085829293821e-05, -0.0001642171264393255, -0.002025689696893096, -0.00022297554824035615, -0.0002444460697006434, -2.191719067923259e-05, -0.0014220633311197162, 0.028535090386867523, 0.0004106618871446699, 5.57683379156515e-05], [-0.2640560269355774, 0.029092151671648026, 0.014807975850999355, -0.011535242199897766, -0.041402459144592285, 0.047502875328063965, -0.21965397894382477, -0.3681575059890747, -0.016542918980121613, 0.2545795142650604, 0.029038861393928528, -0.2308696061372757, -0.12547631561756134, 0.06432780623435974, 0.013363370671868324, 0.03497982397675514, -0.04758928343653679, -0.19655053317546844, -0.019404558464884758, 0.041411541402339935, -0.05788401514291763, 0.33353206515312195, 0.013127953745424747, 0.01437965128570795, 0.006057260558009148, -0.00761020602658391, -0.1546279788017273, 0.005954323336482048, -0.081633560359478, -0.38690000772476196, -0.23016421496868134, 0.006363885477185249], [0.13806486129760742, -0.06418070197105408, -0.0435381755232811, 0.04085643216967583, 0.010076151229441166, 0.0015818296233192086, 0.013608419336378574, 0.04714776203036308, -0.004657075274735689, -0.06672994792461395, -0.03796648979187012, 0.12983396649360657, -0.012203823775053024, -0.019368242472410202, -0.004989523906260729, 0.011200545355677605, 0.011051627807319164, 0.2288319170475006, -0.020115358754992485, 0.03754603490233421, -0.014837128110229969, -0.05699585750699043, 0.008331953547894955, 0.020986635237932205, -0.006208197679370642, 0.016501644626259804, 0.025299040600657463, 0.017186176031827927, 0.06970395892858505, 0.06744905561208725, 0.004501123912632465, 0.004815495572984219], [0.09717299044132233, -0.06989740580320358, -0.1072767972946167, 0.06519204378128052, -0.004068434238433838, 0.032738082110881805, -0.031534384936094284, -0.024956202134490013, -0.03555751219391823, -0.02355855144560337, -0.04207459092140198, -0.012676797807216644, -0.0465373732149601, 0.011040744371712208, 0.046827200800180435, 0.0503690168261528, 0.07369643449783325, 0.14827829599380493, -0.059145912528038025, 0.05902410298585892, -0.02806881070137024, -0.005581794772297144, 0.016955746337771416, 0.04144714027643204, -0.05033186450600624, 0.027484437450766563, 0.004096697550266981, 0.03676540404558182, 0.058240264654159546, 0.01756911538541317, -0.04257741943001747, 0.015825480222702026], [-0.16085132956504822, 0.10674234479665756, 0.11083241552114487, -0.10927783697843552, 0.008823007345199585, -0.023736391216516495, 0.05349956825375557, 0.034160908311605453, 0.03587557375431061, 0.05758575722575188, 0.07252877950668335, -0.03726569935679436, 0.08282294124364853, -0.01714269444346428, -0.004947538021951914, -0.0495588593184948, -0.02489156648516655, -0.20135705173015594, 0.06819416582584381, -0.09325385093688965, 0.047919612377882004, 0.031012754887342453, -0.014396130107343197, -0.06808874756097794, 0.03590019419789314, -0.0672895535826683, -0.00771115580573678, -0.07095276564359665, -0.07757996767759323, -0.03342321515083313, 0.0697646215558052, -0.0251719169318676], [-0.01343877986073494, 0.009998437948524952, 0.007639797870069742, -0.003564678132534027, -0.03485136106610298, 0.012516213580965996, -0.009531879797577858, -0.022677065804600716, -0.004151929635554552, -0.0040715280920267105, 0.0017065011197701097, -0.054209060966968536, 0.0011427123099565506, 0.025852849707007408, -0.0007839088793843985, 0.006144034676253796, -0.009674277156591415, 0.01341245323419571, -0.003348067170009017, -0.009366914629936218, 0.006157450377941132, -0.008444422855973244, 0.004799304995685816, -0.0030324833933264017, 0.0004594623751472682, 0.0013848897069692612, -0.02939695678651333, 0.0019985525868833065, 0.012950154952704906, -0.03701608628034592, -0.004517035558819771, 0.02243199199438095], [-0.014126050285995007, 0.027478329837322235, 0.05613911151885986, -0.02361687459051609, -0.04077635705471039, -0.09213060140609741, -0.004305997863411903, 0.0028169413562864065, 0.06417752057313919, -0.025763604789972305, -0.006955712102353573, 0.18186159431934357, -0.002813833300024271, 0.014773238450288773, -0.02002205140888691, -0.08108557760715485, -0.03734217584133148, -0.09727311134338379, 0.06199174001812935, -0.004032115451991558, -0.007937364280223846, -0.059193991124629974, -0.027234604582190514, -0.011819567531347275, 0.04266728460788727, -0.00950267817825079, 0.025625871494412422, -0.018839417025446892, -0.04431471228599548, 0.1182977706193924, -0.0022989781573414803, 0.0062215328216552734], [0.4485989809036255, -0.21864809095859528, -0.1613672822713852, 0.1470721811056137, 0.008788042701780796, -7.527450361521915e-05, -0.10900275409221649, 0.007179583422839642, -0.0519329272210598, -0.1448858380317688, -0.2715834379196167, 0.33571451902389526, -0.13263221085071564, 0.05659988522529602, -0.00952508207410574, 0.044210031628608704, 0.052347201853990555, 0.36195459961891174, -0.0669395849108696, 0.2787056565284729, -0.029989341273903847, -0.2329382598400116, 0.0440254770219326, 0.09910482168197632, -0.04286186769604683, 0.0973953977227211, 0.056851696223020554, 0.07061398774385452, 0.2704237401485443, 0.22868381440639496, -0.10212188214063644, 0.0626438558101654], [0.3727419078350067, -0.2286658138036728, -0.1795325130224228, 0.18427269160747528, 0.01671728864312172, 0.02820683643221855, -0.1265926957130432, -0.04125910624861717, -0.05575496330857277, -0.15297923982143402, -0.21573206782341003, 0.310769647359848, -0.14380523562431335, 0.09701830893754959, 0.009878632612526417, 0.026997290551662445, 0.06599664688110352, 0.39004144072532654, -0.08637459576129913, 0.26197803020477295, -0.004231985658407211, -0.2730313241481781, 0.05880322307348251, 0.10068413615226746, -0.07883765548467636, 0.12539708614349365, 0.0710718110203743, 0.09593856334686279, 0.19027207791805267, 0.24899126589298248, -0.10772212594747543, 0.08750162273645401], [-0.04165510833263397, -0.04342581704258919, -0.04670761525630951, 0.034495141357183456, 0.007451574318110943, 0.044070590287446976, -0.02158299833536148, -0.034668099135160446, -0.0702916830778122, 0.02472258359193802, -0.05426520109176636, -0.09342390298843384, -0.022499077022075653, 0.009738300926983356, 0.004131193272769451, 0.06186628341674805, 0.017692111432552338, 0.031002987176179886, -0.037911348044872284, 0.019152237102389336, -0.021358640864491463, 0.060848843306303024, 0.05361643433570862, 0.023116137832403183, -0.008533057756721973, 0.012432968243956566, -0.034297142177820206, 0.02152099832892418, 0.05659352242946625, -0.09375248104333878, -0.023338759317994118, 0.014440870843827724], [-0.22386494278907776, 0.16596293449401855, 0.15132513642311096, -0.12403813749551773, 0.018354883417487144, -0.023139948025345802, 0.10770806670188904, 0.07072874903678894, 0.07734876871109009, 0.026770157739520073, 0.0861753597855568, -0.11975512653589249, 0.10803979635238647, -0.08206799626350403, -0.021445851773023605, -0.05634627863764763, -0.06614884734153748, -0.27861276268959045, 0.10036765038967133, -0.15460103750228882, 0.05346769466996193, 0.2137085199356079, 0.035380784422159195, -0.16236096620559692, 0.13004040718078613, -0.09616333991289139, -0.11031556874513626, -0.1056898683309555, -0.14165380597114563, -0.0460367277264595, 0.12695647776126862, -0.0936770960688591], [0.05043315514922142, -0.014704442583024502, -0.006981153041124344, 0.006950022652745247, 0.005909196566790342, -0.003961791750043631, 0.03432023897767067, 0.06045941635966301, -0.004457490518689156, -0.05010954663157463, -0.062212638556957245, 0.05865100026130676, 0.019790928810834885, -0.0005790733266621828, -0.0020748525857925415, 0.0019425033824518323, 0.007902374491095543, 0.09517213702201843, -0.0026563548017293215, -0.007723575923591852, 0.012988980859518051, -0.06504307687282562, 0.010541629046201706, -0.0011441335082054138, -0.005988385062664747, 0.0025116365868598223, 0.01194133423268795, -0.0015610660193488002, 0.024402517825365067, 0.018262652680277824, 0.03724047914147377, 0.0020117848180234432], [0.11779887974262238, 0.05529874935746193, 0.10792883485555649, -0.10809563100337982, 0.020947957411408424, -0.06388624757528305, -0.046374041587114334, -0.07850658148527145, 0.02631169557571411, -0.002219473011791706, 0.06756547838449478, 0.07741081714630127, 0.05026065930724144, -0.08358760178089142, -0.014317959547042847, -0.01795593649148941, -0.07054844498634338, 0.26006174087524414, 0.07141921669244766, -0.03251137584447861, 0.060475919395685196, 0.3730778396129608, 0.022636977955698967, -0.053506121039390564, 0.11587904393672943, -0.09024233371019363, -0.0684564933180809, -0.10124780237674713, 0.04432181268930435, 0.3428395390510559, -0.013941725715994835, -0.007578864693641663], [0.20369300246238708, -0.12513922154903412, -0.11535994708538055, 0.12178627401590347, 0.0030994464177638292, -0.011166814714670181, -0.05363287776708603, -0.006674405187368393, -0.021416351199150085, -0.12117432057857513, -0.12729966640472412, 0.19036735594272614, -0.09475833177566528, 0.02833094447851181, -0.008605909533798695, 0.02870122715830803, 0.023121725767850876, 0.20642514526844025, -0.056895967572927475, 0.13173164427280426, -0.025970835238695145, -0.18086287379264832, 0.021834099665284157, 0.058857910335063934, -0.039542555809020996, 0.07606950402259827, 0.04030768945813179, 0.06433931738138199, 0.11296048760414124, 0.1787724792957306, -0.06947261840105057, 0.0273519828915596], [-0.0829816609621048, 0.018245315179228783, 0.007091911509633064, -0.00205590995028615, -0.000377031130483374, -0.011061189696192741, -0.004560928326100111, -0.007271092385053635, -0.0007708371267654002, 0.02927197329699993, -0.0008509365725331008, 0.031239774078130722, 0.005289738532155752, -0.031167957931756973, -0.0023934573400765657, -0.004205130971968174, -0.004630278795957565, -0.041595716029405594, -0.0016724102897569537, 0.0016038734465837479, -0.008608448319137096, 0.028434861451387405, 0.010557806119322777, 0.0011582340812310576, -0.0012902211165055633, 0.0005161408917047083, 0.045971110463142395, -0.0006668960559181869, 0.009439545683562756, 0.015390608459711075, -0.0025130396243184805, 0.002364718122407794], [-0.03468577191233635, 0.004705607425421476, 0.03590639308094978, -0.00051642837934196, -0.0006558428867720068, -0.014810185879468918, 0.01511183101683855, 0.019152281805872917, 0.009134783409535885, -0.01354829128831625, 0.0010216409573331475, 0.047840069979429245, 0.00664939871057868, -0.00916380062699318, -0.06706259399652481, -0.012956583872437477, -0.07206341624259949, -0.09715523570775986, 0.008940489031374454, -0.009444331750273705, -0.010025610215961933, 0.014836453832685947, -0.0019616244826465845, -0.0020639230497181416, 0.040309492498636246, -0.00021008795010857284, 0.016781048849225044, -0.005100082140415907, -0.016877075657248497, -0.030548281967639923, 0.01258049812167883, 0.000420667405705899], [-0.027900829911231995, 0.056380853056907654, 0.05088825896382332, -0.047823335975408554, 0.0017492789775133133, -0.051860418170690536, 0.03735264018177986, 0.04055091366171837, 0.055158793926239014, -0.0014585874741896987, 0.04993801563978195, 0.08359398692846298, 0.0372253842651844, -0.004245333839207888, -0.006366395391523838, -0.08284615725278854, -0.021623708307743073, -0.08977390825748444, 0.05172846466302872, -0.03677630051970482, 0.052961062639951706, -0.10809239000082016, -0.05391400679945946, -0.0334537997841835, 0.01967112347483635, -0.022763438522815704, 0.013923943042755127, -0.027477586641907692, -0.08100388944149017, 0.09116853773593903, 0.03682105615735054, -0.019050858914852142], [-0.13194121420383453, 0.06280038505792618, 0.141718327999115, -0.07074044644832611, 0.005071121267974377, -0.05038686469197273, 0.05049441382288933, 0.06700506806373596, 0.03141380846500397, -0.03863869979977608, 0.05026019364595413, 0.01725735142827034, 0.06160202994942665, -0.011470253579318523, -0.10151805728673935, -0.05138709023594856, -0.1401262730360031, -0.2533896267414093, 0.07787707448005676, -0.07366948574781418, 0.02737593650817871, -0.015750430524349213, -0.0185037050396204, -0.04014327749609947, 0.09466047585010529, -0.022365540266036987, -0.010159490630030632, -0.03469903767108917, -0.10150953382253647, -0.0281903725117445, 0.06384582817554474, -0.011794648133218288], [-0.08774644136428833, -0.0346548818051815, -0.08294113725423813, 0.11018522083759308, 0.030126359313726425, 0.02733210287988186, -0.16207264363765717, -0.2798439562320709, 0.022697897627949715, 0.27694493532180786, 0.0397261343896389, -0.06733871251344681, -0.1725883036851883, 0.04924875125288963, 0.014846019446849823, 0.002914628479629755, -0.027079083025455475, -0.3150114119052887, -0.045783206820487976, 0.0735279992222786, -0.17263741791248322, 0.21101650595664978, -0.01393143180757761, 0.07943492382764816, -0.025498609989881516, 0.0704740658402443, -0.058191604912281036, 0.06157722324132919, -0.0724121555685997, -0.03151758015155792, -0.20054641366004944, -0.0599997416138649], [0.16879966855049133, -0.10115222632884979, -0.13030117750167847, 0.10728225857019424, -0.015400293283164501, 0.050369743257761, -0.06652865558862686, -0.06407532840967178, -0.04066166281700134, -0.009199890308082104, -0.062442682683467865, 0.004738247022032738, -0.09100262075662613, 0.010715902782976627, 0.026977214962244034, 0.06507553160190582, 0.05275901407003403, 0.22781050205230713, -0.0967462807893753, 0.10140908509492874, -0.046814847737550735, 0.04122282564640045, 0.028011349961161613, 0.07436311990022659, -0.04573511704802513, 0.062440358102321625, 0.010147909633815289, 0.070726677775383, 0.10682505369186401, -0.00904050748795271, -0.08344969898462296, 0.028330199420452118], [-0.32088273763656616, 0.108063243329525, 0.07262609899044037, -0.07856184989213943, -0.0038073898758739233, 0.028977254405617714, 0.004292087629437447, -0.08426310122013092, 0.015338278375566006, 0.12219954282045364, 0.10670944303274155, -0.29120638966560364, 0.038584716618061066, 0.021392369642853737, 0.014653625898063183, -0.01147464569658041, -0.03164464235305786, -0.3580784201622009, 0.03024815209209919, -0.10849732160568237, 0.028403518721461296, 0.18869821727275848, -0.02149961329996586, -0.03393233194947243, 0.003564433893188834, -0.04243073612451553, -0.05839050933718681, -0.034269772469997406, -0.17296192049980164, -0.20292924344539642, 0.0030472881626337767, -0.02112557552754879], [0.0570087656378746, -0.06716093420982361, -0.030894223600625992, 0.0447559580206871, -0.001973930513486266, 0.01269385777413845, -0.04508695751428604, -0.02332363650202751, -0.0717054083943367, -0.07362046837806702, -0.045252908021211624, 0.039861779659986496, -0.04010339081287384, 0.021639598533511162, 0.013086941093206406, 0.10049936920404434, 0.0013711415231227875, 0.05025443434715271, -0.014959544874727726, 0.05799093097448349, -0.1514447182416916, -0.0251246877014637, 0.006544928997755051, 0.04498183727264404, -0.07908584177494049, 0.03476167470216751, 0.047871481627225876, 0.05145653337240219, 0.07473304867744446, -0.10093361139297485, -0.0443153940141201, 0.011126595549285412], [-0.005939886439591646, 0.04536072164773941, 0.06318651139736176, -0.08146161586046219, 0.00010166117863263935, -0.07434520125389099, 0.024899303913116455, -0.023984219878911972, 0.03647423908114433, -0.13955099880695343, 0.024443352594971657, -0.2937236726284027, 0.024136854335665703, -0.020718256011605263, -0.008073877543210983, -0.032573774456977844, -0.029107175767421722, -0.15601515769958496, 0.060017179697752, -0.04974394664168358, 0.21835412085056305, 0.6700580716133118, -0.004852298181504011, -0.06390682607889175, 0.04342757910490036, -0.07713907957077026, -0.043509211391210556, -0.07162556052207947, -0.11813855916261673, -0.5330908298492432, 0.017634380608797073, -0.1450687199831009], [0.07766209542751312, 0.017184946686029434, 0.012799356132745743, -0.011206019669771194, 0.00032652326626703143, -0.017646031454205513, 0.018557913601398468, 0.032319076359272, 0.04011455178260803, -0.03789744898676872, 0.039239585399627686, 0.06903500854969025, 0.008841543458402157, -0.002551931655034423, -0.001054844819009304, -0.04381990805268288, -0.002341448562219739, 0.05082506686449051, 0.017879668623209, -0.0069714076817035675, 0.002998220268636942, -0.06491860002279282, -0.07184240221977234, -0.006359525956213474, -0.0010100905783474445, -0.0048499335534870625, 0.02422683872282505, -0.007735303603112698, -0.030763063579797745, 0.09817641228437424, 0.01507082674652338, -0.01032705046236515], [-0.193729966878891, 0.09898164123296738, 0.09594739973545074, -0.08787090331315994, 0.004809280391782522, -0.00462558027356863, 0.05809300020337105, 0.02052033506333828, 0.026239437982439995, 0.018212925642728806, 0.08488280326128006, -0.11512674391269684, 0.06822214275598526, -0.003413574304431677, -0.0031298003159463406, -0.03518220782279968, -0.02278897352516651, -0.21951882541179657, 0.05289279669523239, -0.10708799958229065, 0.0655834823846817, 0.06744138151407242, -0.009558270685374737, -0.08041497319936752, 0.025702988728880882, -0.05138217285275459, -0.016958748921751976, -0.054861027747392654, -0.0895034670829773, -0.07335169613361359, 0.06318563967943192, -0.02373228780925274], [0.04406403377652168, -0.014568760059773922, -0.028980420902371407, 0.009503868408501148, 0.02218356542289257, 0.021197611466050148, -0.002417005831375718, 0.011032079346477985, -0.025827256962656975, -0.02031821757555008, -0.0009745791903696954, -0.08527038246393204, 0.0016318754060193896, -0.005862154997885227, 0.022284559905529022, 0.016817642375826836, 0.03787986561655998, 0.09638790041208267, -0.011666295118629932, 0.015590758062899113, 0.021039070561528206, -0.026595888659358025, 0.006136670242995024, 0.005850119050592184, -0.03849261999130249, 0.0049191005527973175, -0.016992565244436264, 0.013691936619579792, 0.020114922896027565, -0.04400188848376274, 0.0012446449836716056, -0.0068855625577270985], [-0.13537253439426422, 0.1445726454257965, 0.14785417914390564, -0.15021127462387085, 0.008925136178731918, -0.032007090747356415, 0.09718892723321915, 0.08486680686473846, 0.0407608225941658, 0.007916736416518688, 0.09768810123205185, -0.054205041378736496, 0.13295601308345795, -0.03872287645936012, -0.01023191399872303, -0.05443839728832245, -0.03000830113887787, -0.10285581648349762, 0.09768561273813248, -0.1467389464378357, 0.09456812590360641, 0.04252839460968971, -0.013973318040370941, -0.09559905529022217, 0.05266975238919258, -0.10616187006235123, -0.016426075249910355, -0.10737241804599762, -0.10535531491041183, -0.037787117063999176, 0.13095486164093018, -0.03426334261894226], [-0.004386130254715681, -0.017152993008494377, 0.021605661138892174, -0.012052697129547596, 0.04461711272597313, 0.04316917434334755, -0.04119601845741272, -0.05278981477022171, -0.007845234125852585, 0.03583788126707077, -0.019246166571974754, -0.1653561145067215, -0.022958004847168922, 0.0627596378326416, 0.007193574216216803, 0.0014950059121474624, -0.028311574831604958, -0.10108166933059692, 0.007021555211395025, 0.017605792731046677, 0.0202952791005373, 0.03762715309858322, -0.03236965835094452, 0.0030420427210628986, 0.022236982360482216, -0.007519116625189781, -0.14615264534950256, -0.0012145043583586812, -0.04020571708679199, -0.12150494754314423, -0.03929970785975456, -0.06686430424451828], [-0.08973058313131332, 0.09727311134338379, 0.11521682143211365, -0.10754405707120895, 0.009252098388969898, -0.029336821287870407, 0.06575748324394226, 0.07237032055854797, 0.02949981950223446, -0.012149781920015812, 0.04726928472518921, 0.00827229768037796, 0.0927327498793602, -0.023408498615026474, -0.007316578179597855, -0.03788122534751892, -0.017592033371329308, -0.1151968315243721, 0.06755226850509644, -0.09023982286453247, 0.04929773509502411, 0.025912106037139893, -0.007826730608940125, -0.0714668482542038, 0.02802238240838051, -0.0665966346859932, 0.005761176347732544, -0.07737386971712112, -0.07123469561338425, -0.02301762066781521, 0.0849258080124855, -0.018474450334906578], [-0.13940748572349548, 0.031056074425578117, 0.02439752034842968, -0.03243282437324524, 0.0073873382061719894, 0.006822007708251476, -0.003316506976261735, -0.01087215542793274, 0.03802166134119034, -0.02429012954235077, 0.010106828995049, -0.09265582263469696, 0.005892885848879814, 0.0038785168435424566, 0.006235694978386164, -0.03461473807692528, -0.008770212531089783, -0.26147204637527466, 0.02953410893678665, -0.017518680542707443, 0.012822230346500874, 0.07632096856832504, -0.014134335331618786, -0.01852995529770851, -0.0036478345282375813, -0.020955488085746765, 0.0017796788597479463, -0.02635332942008972, -0.0952298492193222, 0.05524848774075508, -0.003353151958435774, -0.03170601278543472], [-0.4762474000453949, 0.1465802937746048, 0.07660432904958725, -0.10151542723178864, -0.005505408626049757, 0.06931252777576447, 0.44768035411834717, 0.429008811712265, -0.0038755217101424932, -0.17239844799041748, 0.16055047512054443, -0.5771206617355347, 0.25712499022483826, -0.06734724342823029, 0.049776751548051834, 0.029169898480176926, 0.0020508577581495047, -0.4155980050563812, 0.01979278400540352, -0.36393439769744873, -0.0304981991648674, 0.817081093788147, 0.019162354990839958, -0.08274807780981064, 0.01743720844388008, -0.08133790642023087, 0.014061026275157928, -0.049274880439043045, -0.13054561614990234, 0.24401777982711792, 0.38093897700309753, 0.03982345014810562], [0.25699377059936523, -0.14857442677021027, -0.14370860159397125, 0.14767728745937347, 0.01377805508673191, -0.0055144065991044044, -0.07436501234769821, 0.025868363678455353, -0.03674214333295822, -0.15081796050071716, -0.21846114099025726, 0.2962489128112793, -0.11733470857143402, 0.04875994101166725, -0.007684304844588041, 0.03466043621301651, 0.04462107643485069, 0.4169754683971405, -0.06531427055597305, 0.20796526968479156, -0.02222907729446888, -0.2261517494916916, 0.04914015159010887, 0.059210967272520065, -0.04615524411201477, 0.09072088450193405, 0.05586126819252968, 0.07133113592863083, 0.15314257144927979, 0.2291402965784073, -0.08515511453151703, 0.051048021763563156], [0.04082829877734184, -0.014982090331614017, 0.0047309743240475655, 0.00883775670081377, 0.03263895586133003, -0.027836227789521217, 0.017651701346039772, 0.03382594883441925, 0.02477550134062767, 0.00576185155659914, -0.0056081111542880535, 0.1327419877052307, -0.008055894635617733, -0.027812529355287552, -0.003138889092952013, -0.01706322468817234, 0.006109058391302824, -0.0212126262485981, 0.014066838659346104, 0.014028173871338367, -0.034894511103630066, 0.07027522474527359, -0.005845046602189541, -0.007238865830004215, 5.2889947255607694e-05, -0.002986352890729904, 0.044513389468193054, -0.013722537085413933, 0.0029168797191232443, 0.12476715445518494, 0.0031888906378299, -0.0457732267677784], [0.06450244784355164, -0.019039371982216835, -0.008013629354536533, 0.015959246084094048, -0.05017857998609543, -0.019021185114979744, -0.07662113010883331, -0.1384832262992859, -0.014059123583137989, 0.15298227965831757, -0.029827918857336044, -0.07535148411989212, -0.047893743962049484, 0.07296368479728699, -0.004472881555557251, 0.003335976041853428, -0.011568299494683743, 0.1221947893500328, -0.005679774563759565, 0.03831445425748825, -0.006959245540201664, -0.07691431045532227, 0.006812389008700848, 0.00014247509534470737, 0.03543991968035698, 0.017848636955022812, -0.09744318574666977, 0.027343539521098137, 0.023163260892033577, -0.05847527086734772, -0.08059336990118027, 0.04654199257493019], [-0.01206575334072113, 0.0004956612247042358, 4.540467125480063e-05, 0.0002204276097472757, 0.0007005018997006118, -0.004504847340285778, -0.0014014189364388585, -0.0023193133529275656, -0.0004195253422949463, 0.0039910608902573586, 0.0003027039929293096, 0.002175976289436221, -0.0005521228886209428, -0.00038872554432600737, -0.00042203301563858986, 0.0006166518433019519, 0.0006249855505302548, -0.015228177420794964, -0.0005565444589592516, 2.8009158995701e-05, -0.0005602274322882295, 0.008988253772258759, 4.391792026581243e-05, 0.00023727340158075094, 0.0033258709590882063, 0.0002797238703351468, -0.001245129737071693, 0.00044225811143405735, -0.0006579296896234155, 0.03614266216754913, -0.0009959409944713116, -0.0008284985087811947], [-0.023487083613872528, 0.0005832628812640905, 0.00039505824679508805, -0.00023915289784781635, 0.0001146120484918356, 0.000871463620569557, -0.00014166221080813557, -0.000733733584638685, 0.0001385949581163004, 0.002921255072578788, 0.00043432789971120656, -0.0014078539097681642, -0.00020726749789901078, -7.444098446285352e-05, 6.961907638469711e-05, -0.0003982204070780426, -0.0002242225018562749, -0.04030350223183632, 0.00030994167900644243, -0.0008203759789466858, -0.0014848563587293029, 0.01418741513043642, -4.0935385186458007e-05, -0.0001275141694350168, -0.0005521751008927822, -8.933382923714817e-05, 0.00034886589855886996, -0.0002514304651413113, -0.001750126713886857, 0.03894072771072388, -7.022530917311087e-05, -0.00037765869637951255], [-0.014860657975077629, 0.00048466751468367875, 0.0001303848548559472, 5.579403295996599e-05, 1.676499050518032e-05, 0.0013280268758535385, -0.00011071624612668529, -0.0001980970992008224, 0.0002243724011350423, 0.003000380005687475, 0.0005168640054762363, -0.00105191208422184, 0.00011657944560283795, 0.00017290227697230875, 0.0001360322057735175, -0.0002875999198295176, -0.00030761436210013926, -0.024629728868603706, 6.0413240134948865e-05, -0.0008272584527730942, -0.0015677750343456864, 0.01117138285189867, -4.877801256952807e-05, 4.780939434567699e-06, -0.0002493701467756182, 0.00011832039308501408, -1.1463464034022763e-05, 7.510851446568267e-06, -0.000960008124820888, 0.06385189294815063, 0.00044824209180660546, -8.958621765486896e-05], [-0.020042041316628456, 0.0006981061887927353, 0.00011221056047361344, 3.8073685573181137e-06, -0.0015132527332752943, -0.0018977613653987646, -0.0011048419401049614, -0.0028046313673257828, 0.00018212608119938523, 0.006511465180665255, -0.00016131525626406074, 0.0017299456521868706, -0.00047351818648166955, 8.658979641040787e-05, -5.131699253979605e-06, -0.00011743650975404307, 0.00011007953435182571, -0.02557409182190895, 9.683855751063675e-05, -0.0012763198465108871, -0.0015654803719371557, 0.033137448132038116, -5.3605610446538776e-05, -9.086398495128378e-05, -0.00034750564373098314, -0.00021307104907464236, -0.0008408532012254, -0.00014369482232723385, -0.0016143297543749213, 0.06028765067458153, -0.0005483613931573927, 0.0003390355850569904], [-0.04042499512434006, -0.0063650584779679775, -0.0014502016128972173, 0.0021472168155014515, 0.0004123200196772814, 0.010964636690914631, -0.012050810270011425, -0.01494564302265644, -0.006739842239767313, 0.022349609062075615, -0.004087642300873995, -0.0009198508923873305, -0.006442341022193432, 0.008503210730850697, 0.0005345031968317926, 0.0035080367233604193, -0.0014335440937429667, -0.05661086365580559, -0.00106630043592304, 0.004954959731549025, -0.0050920951180160046, 0.023381290957331657, -0.0011637929128482938, 0.0016525997780263424, -0.006776007357984781, 0.0012667453847825527, 0.004769064951688051, 0.004884340334683657, -0.0013179356465116143, 0.06676500290632248, -0.009691298007965088, 0.004012450575828552], [0.03046138398349285, -0.007936212234199047, -0.002522583119571209, 0.0009469974902458489, -0.0020875560585409403, -0.03431176394224167, -0.003116907551884651, 0.0010589094599708915, -0.005071885883808136, 0.017031550407409668, -0.008321104571223259, 0.013742686249315739, 0.0016595994820818305, -0.0016627927543595433, -0.004322120454162359, 0.003604656318202615, 0.003458511084318161, 0.036446601152420044, -0.000649383058771491, 0.005687372758984566, 0.006170306820422411, -0.12881168723106384, 0.002837888663634658, 0.002329303417354822, 0.01191994920372963, 0.0012081320164725184, 0.0007702697184868157, 0.0023958932142704725, 0.013897952623665333, 0.08596400171518326, 0.0010070514399558306, 0.0025159551296383142], [0.06510790437459946, -0.0062072970904409885, 0.0018998298328369856, -0.00802275724709034, 0.0013392622349783778, -0.0462624616920948, 0.004747814033180475, 0.01973652094602585, -0.002370203146710992, 0.025950932875275612, -0.010718978941440582, 0.017659053206443787, 0.016468288376927376, -0.010273231193423271, -0.005646443460136652, -0.002566221635788679, 0.00508553022518754, 0.09098977595567703, 0.0027385945431888103, 0.0025559323839843273, 0.010003401897847652, -0.1865730583667755, 0.0021195022854954004, 0.0011015146737918258, 0.008256273344159126, -0.0011468403972685337, 0.012695001438260078, 0.0007851823465898633, 0.02108893170952797, 0.14731669425964355, 0.01563270203769207, 0.0020511189941316843], [-0.021373488008975983, 0.0006966638611629605, 0.0006630592979490757, -0.0006762545090168715, 0.0002549799391999841, 0.004194868728518486, 0.0006159603944979608, -0.0023727109655737877, 0.0013622394762933254, 0.009579326026141644, 0.0002988031483255327, 0.0017098949756473303, -0.0006258494104258716, 0.0014084079302847385, 0.00017616634431760758, -0.0014661143068224192, -0.0010585637064650655, -0.032711490988731384, 0.001018732669763267, -0.0026497317012399435, -0.0047659119591116905, 0.021369434893131256, -0.0011916495859622955, -0.0007691132486797869, -0.004479371942579746, -0.00031043554190546274, -0.0002663105260580778, -7.511515286751091e-05, -0.003807418281212449, 0.02344484068453312, -0.0001616516528883949, 0.00029724169871769845], [0.09756898134946823, -0.01820991560816765, -0.0022857575677335262, 0.011039569973945618, -6.78997312206775e-05, -0.018888534978032112, -0.02428923174738884, -0.02631983533501625, -0.0036962353624403477, 0.048675764352083206, -0.004293906502425671, -0.025312472134828568, -0.014846841804683208, -0.008382592350244522, -0.006334878969937563, 0.000799046189058572, 0.0021058334968984127, 0.12926548719406128, -0.0069999126717448235, 0.03415989130735397, -0.020114732906222343, -0.08598048239946365, 0.0009117356385104358, -0.009763610549271107, -0.0010682527208700776, 0.009467842057347298, 0.010312175378203392, 0.008485490456223488, 0.04624010995030403, 0.27782097458839417, -0.020422369241714478, 0.0036047305911779404], [-0.01783364824950695, 8.93858668860048e-05, -0.0001354285195702687, 0.00025015018763951957, 0.00033869201433844864, -0.0006808465695939958, -0.00016142957611009479, -0.00027165035135112703, -1.8412762074149214e-05, 0.0019409433007240295, 0.0013023646315559745, 0.004914901684969664, -0.00014606482000090182, 0.00037290126783773303, -3.5560216929297894e-05, 6.964808562770486e-05, -0.00012063874601153657, -0.024403639137744904, -0.00019254254584666342, 0.0007769939838908613, -0.001247042091563344, 0.017049770802259445, -8.546686876798049e-05, 0.0001605849975021556, 0.0006647955160588026, 0.00018059174180962145, -0.0002022601111093536, 0.00021264686074573547, -0.0011132159270346165, 0.018518326804041862, -0.00043271644972264767, -4.6859677240718156e-05], [-0.34371283650398254, 0.020432837307453156, 0.03541102260351181, -0.035426706075668335, -0.025463327765464783, 0.01826624386012554, 0.029219703748822212, 0.037368983030319214, 0.022822244092822075, -0.06871524453163147, -0.01406543143093586, -0.26270583271980286, 0.017698874697089195, 0.05596261844038963, -0.0007931860745884478, -0.042515043169260025, -0.03141491860151291, -0.5311428904533386, 0.04640557989478111, -0.050145771354436874, -0.006355356425046921, -0.01660308800637722, -0.02111983112990856, -0.020503388717770576, -0.015865612775087357, -0.01756194606423378, 0.00033182796323671937, -0.019012385979294777, -0.07282385230064392, -0.6183989644050598, 0.0328717976808548, 0.012059031054377556], [0.00071320915594697, -0.0005310090491548181, 0.00041956742643378675, -0.0017777312314137816, -0.0015939433360472322, -0.014314486645162106, 0.0011413145111873746, 0.006821186747401953, 0.00024981971364468336, 0.010029985569417477, -0.00254470924846828, 0.013334588147699833, 0.00530890841037035, -0.0013295115204527974, -0.001402178779244423, -0.0012141508050262928, 0.0012181811034679413, -0.0008702193736098707, 0.0011699760798364878, -0.001330330385826528, 0.0016161940293386579, -0.03169587627053261, 0.00010508183913771063, 0.0002287290117237717, 0.003832549322396517, 0.00020300375763326883, 0.0008002509130164981, 0.0005226997309364378, 0.004012450575828552, 0.11144706606864929, 0.006259820889681578, 0.0010129378642886877], [-0.019058717414736748, 0.0011082489509135485, -0.0002296446036780253, 8.386920671910048e-05, 0.00031274918001145124, 0.0006262940587475896, 0.005277091637253761, 0.008542697876691818, -0.0002958738768938929, -0.00029666611226275563, -0.0005023936391808093, 0.008459251374006271, 0.0033253608271479607, 0.0003187901165802032, -5.9590885939542204e-05, 0.0004887214163318276, -0.0002972254005726427, -0.0219589751213789, -0.0003446677001193166, -0.0033664843067526817, -0.0009203198133036494, 0.023037247359752655, 0.00029522678232751787, -0.0002829183649737388, -0.00160248635802418, 8.921397238736972e-05, -0.0005054008215665817, -6.521189061459154e-05, -0.0002779015339910984, 0.04473700374364853, 0.0059350174851715565, 0.0010411691619083285], [-0.014437873847782612, -0.00016756559489294887, -1.1194467333552893e-05, 4.130457091378048e-05, 3.334807843202725e-05, 0.00013738138659391552, -0.0004309604410082102, -0.0006429231143556535, -5.9978989156661555e-05, 0.00041157857049256563, -0.00011142255243612453, -0.0008709609392099082, -0.0003067276848014444, 0.00010429683607071638, -2.277146904816618e-06, 8.244821947300807e-05, -3.255644332966767e-05, -0.0348169319331646, -1.5316563803935423e-05, 0.00032982073025777936, -5.050800245953724e-05, 0.013404660858213902, -4.618362436303869e-05, 1.6318028428941034e-05, -4.687858745455742e-05, 2.198856918766978e-06, -1.1348934094712604e-05, 9.26019565667957e-05, -4.563916809274815e-05, 0.05131640285253525, -0.0005212515825405717, 8.938212886278052e-06], [-0.022974161431193352, 0.001594341709278524, 0.0013742707669734955, -0.0010191301116719842, 0.0002888223098125309, 0.003885214915499091, 0.0010271414648741484, -0.0032146498560905457, 0.0018414511578157544, 0.010593611747026443, -0.0003186576650477946, 0.005274786613881588, -0.001231858041137457, 0.0013252882054075599, 0.0003060649905819446, -0.0027483608573675156, -0.0014929361641407013, -0.03514992073178291, 0.002162926597520709, -0.003307745326310396, -0.006928514689207077, 0.02182203158736229, -0.0014048097655177116, -0.0010770000517368317, -0.003782423445954919, -0.00028064107755199075, 0.00042925786692649126, -0.0006931217503733933, -0.004678557626903057, 0.03679994121193886, -0.00037168266135267913, 0.0002260144829051569], [-0.035936612635850906, 0.0005586107145063579, 0.00047161622205749154, -0.0004377822915557772, -2.3566106392536312e-05, 0.0006026098853908479, 0.0012922342866659164, 0.0005952703068032861, 0.00016313123342115432, 0.001291746972128749, 0.0002014786732615903, -0.001844362122938037, 0.00035192258656024933, -0.00023127597523853183, -7.479555392819748e-07, -0.00021400161494966596, -0.0004163766570854932, -0.06348107755184174, 0.00021134653070475906, -0.0018558780429884791, -0.0013740002177655697, 0.024275770410895348, -4.39517134509515e-05, -0.0002710209519136697, -0.00040136362076736987, -0.00012531093670986593, -0.00025288722827099264, -0.00022922430071048439, -0.0018676028121262789, 0.06128467246890068, 0.0009679307695478201, -0.0007755510159768164], [0.09734519571065903, -0.02907230705022812, -0.008634439669549465, 0.020975783467292786, -0.02175101637840271, 0.039935506880283356, -0.08784210681915283, -0.1573009192943573, -0.004484832286834717, 0.2095731645822525, -0.025534603744745255, -0.11266554892063141, -0.08381287753582001, 0.06558310985565186, 0.004298769868910313, -0.008662506006658077, -0.013578429818153381, 0.06710382550954819, 0.014873072504997253, 0.06497913599014282, -0.03438149020075798, -0.07341813296079636, 0.0008570666541345417, 0.00886441022157669, -0.013512915000319481, -0.0015730680897831917, -0.05190294608473778, -0.0019970855209976435, 0.0011912469053640962, 0.05733678489923477, -0.11513083428144455, 0.01670393906533718], [-0.02202952839434147, 0.0006189775303937495, 0.0005715835723094642, -0.00020539546676445752, -6.155540177132934e-05, 0.0020639484282583, -0.0009142524795606732, -0.0026388599071651697, 0.0006366788875311613, 0.006020884495228529, 0.00048307859105989337, -0.004275033716112375, -0.0009725546115078032, 0.00040745013393461704, 0.00012336194049566984, -0.0015208331169560552, -0.0007472733850590885, -0.034165773540735245, 0.0012606236850842834, -0.0008254152489826083, -0.0036721397191286087, 0.012918569147586823, -0.0001649259211262688, -0.00016005535144358873, -0.0018035669345408678, 8.974902448244393e-05, 0.0007931579602882266, -0.00022665342839900404, -0.002443835837766528, 0.0528741292655468, -0.000970486958976835, -0.00045454074279405177], [0.011998794041574001, -0.004720912780612707, -0.001375438179820776, 0.0012077927822247148, -0.0040604183450341225, -0.02255435846745968, -0.007257317192852497, -0.011725353077054024, -0.006721305660903454, 0.016711954027414322, -0.007188586983829737, 0.00988634955137968, -0.004527722485363483, 0.007697898894548416, -0.0024377857334911823, 0.004536089953035116, 0.001045344164595008, 0.010669409297406673, 0.00017130155174527317, 0.00546861719340086, 0.0014766445383429527, -0.04137240722775459, 0.0031317321117967367, 0.00046462781028822064, 0.010430407710373402, 0.0010317332344129682, -0.010996311902999878, 0.002196629298850894, 0.007180970162153244, 0.05627605691552162, -0.007145389448851347, 0.0027085428591817617], [-0.0355331189930439, 0.0022859673481434584, -0.00033669709227979183, 0.0005329574923962355, 0.002215733053162694, -0.004386915359646082, 0.0009195474558509886, 0.002271725097671151, -0.0033398678060621023, 0.011494027450680733, 0.0031862123869359493, -0.008594931103289127, 0.0024946541525423527, 0.0003208042762707919, 0.00010360289161326364, 0.003135068342089653, 0.000494593579787761, -0.06024814769625664, -0.002223655814304948, -0.0035808745305985212, -0.0021110945381224155, 0.08930042386054993, -0.00014380805077962577, 0.0010888043325394392, 0.0036152841057628393, 0.0016824685735628009, -0.0037210925947874784, 0.002392444061115384, -0.00020594746456481516, 0.1518758088350296, 0.004014232195913792, -0.0023143549915403128], [0.190294548869133, -0.017180776223540306, -0.00821015890687704, -0.0032981140539050102, 0.005407522898167372, 0.03832448273897171, -0.03535834699869156, -0.07825326174497604, -0.015181115828454494, 0.09499458223581314, -0.010144052095711231, 0.04713797941803932, -0.02375955320894718, 0.021004751324653625, 0.015908345580101013, -0.009961001574993134, -0.012179662473499775, 0.20212598145008087, 0.03532170131802559, 0.030163107439875603, -0.04485922306776047, -0.2549949288368225, -0.011367719620466232, -0.0020824626553803682, -0.05542396008968353, -0.011778110638260841, -0.11517277359962463, -0.008404502645134926, 0.030637530609965324, 0.38649240136146545, -0.057548243552446365, 0.004455034155398607], [-0.019507424905896187, 9.858520206762478e-05, 0.00030235128360800445, -0.00014092771743889898, -6.351268530124798e-05, -6.438998389057815e-05, 0.0003633159794844687, 3.0353834517882206e-05, 0.0009565172949805856, 0.0003414632810745388, 0.00041178747778758407, 0.0014607595512643456, 4.332788012106903e-05, 0.0002745268284343183, -3.867745181196369e-05, -0.0008600892033427954, -0.00041145741124637425, -0.02882823720574379, 0.00027866160962730646, -0.0015852029900997877, -0.0018941927701234818, 0.03141876682639122, -0.0006119850440882146, -9.718210640130565e-05, 0.00023606639297213405, -1.01882915259921e-05, 0.00016786852211225778, -0.0001222440623678267, -0.0018874389352276921, 0.009142883121967316, 0.00043911009561270475, 0.00011809502757387236], [-0.009535746648907661, 0.00021842239948455244, 7.874442235333845e-05, 4.600867032422684e-05, 0.00012547956430353224, 0.0004386075306683779, -7.263420411618426e-05, -0.0004653451615013182, -0.000224571384023875, 0.0013449696125462651, 0.0001593732158653438, -0.0008331907447427511, -2.5099216145463288e-05, 0.00047282595187425613, 5.838237484567799e-05, 0.00017433839093428105, -0.000204964802833274, -0.016208896413445473, -8.356285252375528e-05, -0.0005538605619221926, -0.0009877922711893916, 0.004963382612913847, -8.236942812800407e-05, -2.4286788175231777e-05, 0.0001668484474066645, 6.88933942001313e-05, -0.0004509915306698531, 6.90193337504752e-05, -0.0005579147837124765, 0.043944548815488815, 0.00011268349044257775, -0.0003926812787540257], [-0.009952138178050518, -0.0021549337543547153, -0.0005423797992989421, 0.0009259748621843755, -4.332287517172517e-06, 0.0047029550187289715, -0.0043244631960988045, -0.005212171468883753, -0.002598326886072755, 0.005669897422194481, -0.002488386817276478, -0.0011904231505468488, -0.0019740064162760973, 0.003386886091902852, 6.634016608586535e-05, 0.0014589561615139246, -0.00029868975980207324, -0.016672132536768913, -0.0005671416874974966, 0.0025038712192326784, -0.0017781341448426247, 0.002310557756572962, 0.0002810307196341455, 0.0005613815737888217, -0.0027953304816037416, 0.0005661856848746538, -0.0016868800157681108, 0.0013317791745066643, 0.0012201821664348245, 0.03116016462445259, -0.0034372147638350725, 0.0033309722784906626], [-0.012051274999976158, 0.0002914358919952065, 2.182314347010106e-05, 0.00017149370978586376, 0.00013139407383278012, 0.0008167341002263129, -5.395626794779673e-05, -5.5665670515736565e-05, 1.8984219423145987e-05, 0.0017522183479741216, 0.00042596718412823975, -0.0015602943021804094, 0.00010367013601353392, 8.959991100709885e-05, 8.082383283181116e-05, 3.6992922105127946e-05, -0.0001125630660681054, -0.022004131227731705, -0.00017476695938967168, -0.0005891471519134939, -0.0011369904968887568, 0.009690324775874615, -3.6643498333432944e-06, 8.209528459701687e-05, 4.0969887777464464e-05, 0.00017261873290408403, 1.1321975762257352e-05, 9.612141730030999e-05, -0.0005038016242906451, 0.05647122859954834, 0.0003692497848533094, -0.00011313210416119546], [-0.06874387711286545, 0.0043495832942426205, 0.0009769756579771638, -0.0015528068179264665, -0.004547936376184225, 0.0061255041509866714, 0.0076037123799324036, -0.0017608199268579483, 0.0029032062739133835, 0.015365911647677422, 0.00121376384049654, 0.00029595542582683265, 0.001287739141844213, 0.003235087264329195, 0.0003297057410236448, -0.0006032358505763113, -0.004040939267724752, -0.08569753915071487, 0.0023133112117648125, -0.009679143317043781, -0.010390610434114933, 0.07041756063699722, -0.0005338364280760288, -0.003577784402295947, -0.023978382349014282, -0.0009531786781735718, 0.004133568145334721, -0.0013141444651409984, -0.006174906622618437, 0.05795750766992569, 0.003218139987438917, -0.0006675988552160561], [-0.011277927085757256, 0.00042012520134449005, 0.00016857519221957773, -2.048956048383843e-05, -0.00015689799329265952, 0.0029864166863262653, 0.00016327422054018825, -0.0003013108507730067, -4.2551775550236925e-05, 0.0018766423454508185, 0.00037435739068314433, -0.0011494839563965797, 1.5245565009536222e-05, 0.00016277779650408775, 0.00019824733317364007, -0.0002103221631841734, -0.0003721092361956835, -0.021068472415208817, 0.00016391447570640594, -0.000771027582231909, -0.0013105605030432343, 0.009289013221859932, 0.00017352733993902802, -0.00012281459930818528, -0.0012065164046362042, 2.1323658074834384e-05, 0.00018381002882961184, -7.560265657957643e-05, -0.0008883834816515446, 0.05005275085568428, 0.00023680852609686553, 0.00029516592621803284], [-0.05294223129749298, 0.0018973038531839848, 0.0022929487749934196, -0.00218154676258564, -0.0004377163713797927, 0.006034551188349724, 0.0015382152050733566, -0.0024642760399729013, -0.000207730641704984, 0.009845448657870293, -8.704711945028976e-05, -0.0076325275003910065, -0.0006871172809042037, 0.0026475933846086264, 0.0007211845368146896, -0.0004378599696792662, -0.001402591704390943, -0.07054995745420456, 0.000984453596174717, -0.005465907510370016, -0.006120671052485704, 0.06971871107816696, -0.0015094585251063108, -0.00155751989223063, -0.0037718855310231447, -0.0010363605106249452, 0.0019416974391788244, -0.0012489260407164693, -0.008014912717044353, 0.07406748086214066, 0.0004360731109045446, -0.0029335783328861], [0.26027509570121765, -0.10238125920295715, -0.07868976891040802, 0.10210227221250534, -0.012384362518787384, -0.04165276139974594, -0.15983910858631134, -0.18671581149101257, -0.04916496202349663, 0.26795223355293274, -0.05638091266155243, -0.6713327169418335, -0.11549636721611023, 0.024526633322238922, -0.015138734132051468, 0.024714572355151176, 0.0028667827136814594, 0.3585234582424164, -0.04464687779545784, 0.18577513098716736, -0.08140969276428223, -0.3575775921344757, -0.008695566095411777, 0.0818374902009964, 0.024190610274672508, 0.0879104733467102, -0.015981731936335564, 0.09623106569051743, 0.16924749314785004, 0.30796462297439575, -0.16330558061599731, 0.04320192709565163], [0.02844964526593685, -0.00471709156408906, -0.00026029444416053593, -0.002397483680397272, -0.0032384309452027082, -0.03311717510223389, -0.0009139935718849301, 0.005265841726213694, -0.0023617020342499018, 0.017868967726826668, -0.007858669385313988, 0.016676755622029305, 0.00580265186727047, -0.002297012135386467, -0.003890318563207984, -0.0010150161106139421, 0.0026218171697109938, 0.038907721638679504, 0.0022816574200987816, 0.0024334401823580265, 0.00702730193734169, -0.10965259373188019, 0.002859921660274267, 0.001099039800465107, 0.009191803634166718, 0.0002496596716810018, 0.00260313437320292, 0.001182991312816739, 0.011911021545529366, 0.10507766902446747, 0.00579680223017931, 0.00399981252849102], [-0.03866954520344734, 0.0012659055646508932, 0.0006835865788161755, -0.00014179301797412336, -0.0013086935505270958, 0.0027279469650238752, -0.00011671652464428917, -0.002210618695244193, 9.83915597316809e-05, 0.008023449219763279, 0.0012219755444675684, -0.015510660596191883, 7.998280125320889e-06, 0.0008049132884480059, 2.800269976432901e-05, 0.000632082053925842, 6.738864612998441e-05, -0.06953295320272446, -0.0005284570506773889, -0.003196400823071599, -0.004185742698609829, 0.0709000825881958, -2.4879931515897624e-05, -5.2731757023138925e-05, -0.0007334414403885603, 0.00019113303278572857, 0.00023888007854111493, 9.155775478575379e-05, -0.0035337514709681273, 0.1113925352692604, 0.0006260377704165876, 0.0004074628814123571]], "rec.bias_ih_l0": [-0.11384424567222595, -0.1844637393951416, -0.23644307255744934, -0.1953401416540146, -0.3367619514465332, -0.3810037672519684, -0.13539084792137146, -0.09384048730134964, -0.29004979133605957, -0.13941287994384766, -0.28020837903022766, -0.4524179995059967, -0.19160008430480957, -0.2844598591327667, -0.4501473009586334, -0.2884177267551422, -0.41026780009269714, 0.013717235997319221, -0.2626831531524658, -0.1785414069890976, -0.3440397381782532, -0.9078584909439087, -0.3248211145401001, -0.18900908529758453, -0.34286996722221375, -0.21071857213974, -0.29559674859046936, -0.2566572427749634, -0.39483019709587097, -0.3647601008415222, -0.09719180315732956, -0.4489724934101105, -0.049250904470682144, -0.09735941886901855, -0.15876495838165283, -0.13267090916633606, -0.15949852764606476, -0.20105643570423126, -0.027095746248960495, 0.027807559818029404, -0.16752929985523224, -0.02714279294013977, -0.16189731657505035, -0.277134507894516, -0.09886453300714493, -0.09156554937362671, -0.21804501116275787, -0.17586183547973633, -0.25222575664520264, -0.013511166907846928, -0.16717003285884857, -0.10018562525510788, -0.23880888521671295, 1.2813314199447632, -0.18711991608142853, -0.11429216712713242, -0.16421830654144287, -0.14317463338375092, -0.19572672247886658, -0.15250565111637115, -0.19163864850997925, 0.6960766315460205, 0.0009747844887897372, -0.21424280107021332, 0.17834176123142242, -0.03331516683101654, -0.020909957587718964, 0.09617546945810318, 0.004535837564617395, 0.0020527185406535864, -0.07000285387039185, -0.10381495952606201, -0.018638083711266518, 0.06557033956050873, -0.06606204807758331, 0.20203398168087006, 0.032291434705257416, -0.03378884866833687, -0.002803636249154806, -0.02432166039943695, 0.01323079876601696, 0.2815111577510834, 0.04330069571733475, -0.002006136579439044, -0.061832498759031296, -0.038101691752672195, -0.006878661923110485, 0.0864066481590271, 0.006374248769134283, 0.15858781337738037, 0.06561551243066788, 0.0459725484251976, 0.07097312062978745, 0.06426496058702469, -0.025001512840390205, 0.05027685686945915, 0.017349932342767715, -0.1737392693758011, -0.23838390409946442, -0.19636256992816925, -0.3381175696849823, -0.38208380341529846, -0.13573084771633148, -0.08310778439044952, -0.2921605110168457, -0.1330200433731079, -0.2851409912109375, -0.5968081951141357, -0.19226838648319244, -0.2868388593196869, -0.45242053270339966, -0.29220035672187805, -0.4112098515033722, 0.02114068903028965, -0.2632465660572052, -0.19528040289878845, -0.3442506492137909, 0.09015721082687378, -0.32469460368156433, -0.17802122235298157, -0.34427517652511597, -0.20794928073883057, -0.2959705591201782, -0.25779154896736145, -0.35426652431488037, -0.04106098785996437, -0.12331943213939667, -0.44827577471733093], "rec.bias_hh_l0": [-0.11286026984453201, -0.18609116971492767, -0.23639847338199615, -0.19492848217487335, -0.33676910400390625, -0.38100215792655945, -0.09663812816143036, -0.0758243277668953, -0.29001954197883606, -0.14210811257362366, -0.2800029218196869, -0.5510099530220032, -0.18891383707523346, -0.2846967875957489, -0.4501408040523529, -0.2886691391468048, -0.4102804660797119, -0.012686076574027538, -0.26271751523017883, -0.18502624332904816, -0.344035804271698, -0.918245792388916, -0.3256610035896301, -0.17603819072246552, -0.3429093360900879, -0.2120824158191681, -0.29559531807899475, -0.2566751539707184, 