{"model_data": {"model": "SimpleRNN", "input_size": 1, "skip": 1, "output_size": 1, "unit_type": "LSTM", "num_layers": 1, "hidden_size": 32, "bias_fl": true}, "state_dict": {"rec.weight_ih_l0": [[0.00238375598564744], [-0.004566797986626625], [0.0007843010826036334], [-0.004828365053981543], [0.0044344570487737656], [0.00035514499177224934], [-0.007066170684993267], [-0.005496943835169077], [-0.000713044370058924], [-0.003470150288194418], [-0.0047017717733979225], [-0.11659455299377441], [-0.0020933481864631176], [-0.0023866312112659216], [-0.00154158438090235], [0.00176282599568367], [-0.005893847905099392], [-0.3861042261123657], [-0.0016343630850315094], [-0.0017776216845959425], [-0.00684216758236289], [0.7334879636764526], [0.003080313326790929], [-0.0010843313066288829], [-0.003974654246121645], [-0.0048566111363470554], [-0.0066735222935676575], [-0.0019058629404753447], [0.004340869374573231], [-0.610220730304718], [-0.0030116024427115917], [-0.0015864884480834007], [0.002800111658871174], [-0.004228055477142334], [0.00074081338243559], [-0.0043233963660895824], [0.004257455002516508], [0.0015529859811067581], [-0.007058183196932077], [-0.005775629077106714], [-0.0004954401520080864], [-0.003325289348140359], [-0.004761739633977413], [0.7301971912384033], [-0.001661821035668254], [-0.002769527956843376], [-0.0012138321762904525], [0.0021112323738634586], [-0.005940579809248447], [-0.7456201910972595], [-0.0015606078086420894], [-0.0017765989759936929], [-0.00662058824673295], [0.5816035866737366], [0.0023697461001574993], [-0.0006686254637315869], [-0.0038966890424489975], [-0.004241071175783873], [-0.006795443594455719], [-0.0014199932338669896], [0.002303058048710227], [0.6134560108184814], [-0.002549954457208514], [-0.0014314358122646809], [-0.0787169560790062], [0.0019403608748689294], [0.010645882226526737], [0.010712115094065666], [0.015312876552343369], [-0.0004945324617438018], [0.0028701380360871553], [0.00035300530726090074], [-0.0009607155225239694], [0.00035147543530911207], [-0.009447291493415833], [-2.109724760055542], [-0.000819746230263263], [0.006236594170331955], [-3.0668204999528825e-05], [0.0030412005726248026], [0.0054539041593670845], [-1.5200953483581543], [0.003874022513628006], [-0.0034315832890570164], [0.0100929606705904], [0.5592759847640991], [0.008738306351006031], [-0.0078909732401371], [0.010618957690894604], [0.0005749227129854262], [-0.006970914080739021], [0.005007490981370211], [0.0048151337541639805], [-0.9036638736724854], [0.01050965953618288], [-0.007532258052378893], [0.002171911299228668], [-0.004125477280467749], [0.0007466818788088858], [-0.004954978358000517], [0.003856682451441884], [0.0004987088614143431], [-0.006452896166592836], [-0.005392048507928848], [-0.0007134245242923498], [-0.003856775350868702], [-0.004023682326078415], [1.5327551364898682], [-0.0020686686038970947], [-0.0014583123847842216], [-0.0015060969162732363], [0.001976648112758994], [-0.005754024721682072], [-0.7473037838935852], [-0.0009708707802928984], [-0.0018718258943408728], [-0.007255135104060173], [-0.38379955291748047], [0.0022394349798560143], [-0.0010977983474731445], [-0.0036749374121427536], [-0.004946993198245764], [-0.006395611446350813], [-0.0019208340672776103], [0.004422674421221018], [-0.07841464132070541], [-0.003017100039869547], [-0.0015691848238930106]], "rec.weight_hh_l0": [[-0.002059393562376499, -0.0028796731494367123, 0.001408167416229844, 0.0003898923459928483, 0.0033970712684094906, -0.0005072887288406491, -0.00229332922026515, -0.0018337357323616743, 0.0036912397481501102, 0.0036018365062773228, -0.0027831546030938625, -0.0018108813092112541, -0.0017805511597543955, -0.00266969483345747, 0.0011621098965406418, -0.001307453028857708, 0.0015906899934634566, -0.011483464390039444, -0.002964066108688712, -7.242275751195848e-05, -0.0002236153814010322, 0.0015940088778734207, 0.001986209535971284, -0.000511258258484304, -0.002022743923589587, 0.00023284982307814062, 0.001525891711935401, 0.00048585308832116425, 0.0005366277764551342, 0.012887206859886646, 0.0007994439220055938, 0.00034711763146333396], [-0.0006631819996982813, -0.0006358385435305536, 0.00012001059803878888, -0.0001505038671893999, 0.0009391829953528941, -0.0005815268377773464, -0.0008860171656124294, -0.00012347100710030645, 0.0005410387529991567, 0.000979423290118575, -0.0007720060530118644, 0.0050172340124845505, -0.00017359654884785414, -0.0007522859377786517, 0.0001849897380452603, -0.001231022528372705, 0.000536139530595392, 9.780923573998734e-05, -0.0007200223626568913, -0.0003516366414260119, 0.0009269684669561684, 0.002351130126044154, 0.001565992133691907, -0.00022451471886597574, -0.0005743515794165432, 0.0005354193854145706, 0.00044218587572686374, 0.0002844772825483233, -0.00024215588928200305, 0.003811504691839218, 0.0004303916066419333, -0.00022415799321606755], [-0.0004801102331839502, 2.3197451810119674e-05, 4.654606891563162e-05, 9.212901932187378e-05, 0.000162943106261082, -4.192203050479293e-05, 1.922426417877432e-05, 0.00010659583494998515, -4.234849984641187e-05, 0.00014933987404219806, 3.025809201062657e-05, 0.0002922495477832854, -7.763614121358842e-05, -3.0985613648226717e-06, 0.00010042775102192536, -0.00021071077208034694, -2.6567899112706073e-05, -0.0042086136527359486, 6.818908150307834e-05, 1.9006851289304905e-05, 7.656164234504104e-05, -0.0015824808506295085, 0.00010249586193822324, -9.946200589183718e-05, -3.368379839230329e-05, 0.00014493930211756378, -9.645090358390007e-06, 5.932903877692297e-05, -0.00012789246102329344, 0.001200003200210631, 5.9006364608649164e-05, 6.258613666432211e-06], [-9.0414920123294e-05, -2.9533697670558468e-05, 1.064242678694427e-05, -2.151646913262084e-05, 8.096068995655514e-06, 2.0956040316377766e-05, -4.037113831145689e-05, -3.010682121384889e-05, 2.0831861547776498e-05, 1.0033044191004592e-06, -4.200232069706544e-05, -0.0014709893148392439, 1.121023728956061e-06, -6.465206388384104e-05, 3.256679519836325e-06, -9.780673281056806e-06, 2.506289820303209e-05, 4.3268191802781075e-05, -4.324678593548015e-05, -4.753488155984087e-06, -1.0686319001251832e-05, -0.0013168524019420147, -9.934024092217442e-07, 5.461898240355367e-07, -1.9053932192036882e-05, -2.007628427236341e-05, 2.5251276383642107e-05, -4.192193046037573e-06, -6.986033986322582e-05, 0.0008783245575614274, -2.1453927274706075e-06, -1.4923682101652957e-05], [-0.0020827034022659063, -0.0001453684235457331, 0.0002075959782814607, 0.00028241900145076215, 0.0006197762559168041, -0.0001375916035613045, -0.00018780786194838583, 7.442037167493254e-05, 0.0001426224916940555, 0.00041620308184064925, -0.00026891124434769154, -0.0007608795422129333, -0.00027718328055925667, -0.0005052686319686472, 0.0003706644638441503, -0.0006808491889387369, 0.0001230766501976177, -0.01105049904435873, -0.00046086154179647565, -2.482657328073401e-05, 0.00011876365169882774, 0.0003572114510461688, 0.0006779211689718068, -0.0004383630002848804, -0.0003725896531250328, 0.0002915823133662343, 0.00013168701843824238, 0.0002295900194440037, -0.0008708903915248811, 0.002434228779748082, 0.00014902092516422272, 5.022720415581716e-06], [-0.00047104799887165427, -0.0005411026068031788, -2.792706436594017e-05, -7.713536615483463e-05, 0.0005500414990819991, -0.00032591682975180447, -0.0006611875141970813, -8.47350456751883e-05, 0.00047597551019862294, 0.00045766468974761665, -0.0005155135877430439, -0.002401496982201934, -0.0001050414502969943, -0.0005343775264918804, 8.924464782467112e-05, -0.0006168989348225296, 0.0003360457776580006, -0.002414293587207794, -0.000398593139834702, -0.00021442201978061348, 0.00037027482176199555, 0.0011998900445178151, 0.0006968289380893111, -0.00013710460916627198, -0.000361620303010568, 0.0003775940858758986, 0.00032739757443778217, 0.00013812776887789369, -0.00010923358058789745, 0.00021955801639705896, 0.00026637595146894455, -0.0001419940817868337], [-0.0008276734151877463, -0.0010815478162840009, 0.000150132822454907, -0.00018026064208243042, 0.0010074041783809662, -0.0009584992076270282, -0.0009199731866829097, -6.86721396050416e-05, 0.0011776284081861377, 0.0009711936581879854, -0.0007476024911738932, 0.005429624114185572, -0.0002941039565484971, -0.0008863566326908767, 0.00030843858257867396, -0.001292881672270596, 0.0006535880966112018, 0.000803658040240407, -0.001185086788609624, -0.0003397033142391592, 0.0008944555302150548, 0.0013477116590365767, 0.0017765234224498272, -0.000343977939337492, -0.000509454810526222, 0.0007412855629809201, 0.0004743991303257644, 0.0003086199867539108, 0.000162162643391639, 0.004490668885409832, 0.00048401555977761745, -0.00028107239631935954], [-0.0002735628222580999, -0.0001742574095260352, 0.00013912183931097388, -8.532912761438638e-05, 0.0002923792344518006, -0.0001535870396764949, -5.878147203475237e-05, -7.246345194289461e-05, 0.00017922651022672653, 0.00016254240472335368, -0.00011294965952401981, 0.0008891904726624489, -4.071178045705892e-05, -0.00015429285122081637, 4.824650750379078e-05, -0.00010475069575477391, 0.00015586009249091148, 0.0015076401177793741, -0.0002982230798806995, -7.073396409396082e-05, 0.0002211570244980976, 0.0010376148857176304, 0.00039712738362140954, -4.205457662465051e-05, 4.18834897573106e-05, 9.138535824604332e-05, -1.647515091462992e-05, 2.9077036742819473e-05, 2.4018156182137318e-05, 0.00340680917724967, 6.0848164139315486e-05, -0.00012785650324076414], [-0.0011190949007868767, -0.0003227838024031371, 2.6285721105523407e-05, -4.436383278516587e-06, 0.0005882770637981594, -0.00023768749088048935, -0.0005756912287324667, -0.00016572067397646606, 0.00032862016814760864, 0.0006504263146780431, -0.00033176984288729727, 0.0014786069514229894, -8.627512579550967e-05, -0.0003175220044795424, 5.995465107844211e-05, -0.0008273308048956096, 0.00022147428535390645, -0.002186041558161378, -0.00022786945919506252, -0.00012073706602677703, 0.0004955955082550645, 0.0031885909847915173, 0.0008003177354112267, -0.0001234290248248726, -0.0006145669030956924, 0.00032174753141589463, 0.0003813470830209553, 0.00012050780060235411, -2.6857694592763437e-06, 0.002965138293802738, 0.0002600659499876201, -5.211633470025845e-05], [-0.0024259057827293873, -0.0004572424222715199, 0.00021549587836489081, 0.00014484685380011797, 0.00062911695567891, -0.00017705713980831206, -0.000507830991409719, -0.00010353404650231823, 0.0005464798887260258, 0.0004618812818080187, -0.00048676380538381636, -0.0031646208371967077, -0.00036301487125456333, -0.0007606107392348349, 0.0004157251678407192, -0.0008794899913482368, 0.00024314971233252436, -0.0030186926014721394, -0.0008649438968859613, 8.057062223087996e-05, 0.00010215165821136907, 0.0006928406655788422, 0.0007471478311344981, -0.0004680698621086776, -0.0004518545465543866, 0.0002566193579696119, 0.00021498360729310662, 0.00019697606330737472, -0.0006644439417868853, 0.0013827872462570667, 0.00024594535352662206, 2.7304795366944745e-05], [0.0003470087831374258, -0.0006394560332410038, 0.00023136033269111067, -0.00021488286438398063, 0.0005493611679412425, -0.00043123055365867913, -0.00022657356748823076, 9.613677684683353e-05, 0.0004876092716585845, 0.0007068300619721413, -0.0007101028459146619, 0.008218573406338692, -0.00016519981727469712, -0.0007488165865652263, 0.00020773227151948959, -0.0005067241145297885, 0.0004911177675239742, -0.0010814976412802935, -0.000808531534858048, -0.0002962839789688587, 0.0011560143902897835, -0.002019956475123763, 0.0010831234976649284, -0.0001712958764983341, 0.0002668849774636328, 0.0004580101522151381, -0.00020891653548460454, 0.00024181371554732323, -0.0005403520190156996, 0.0008980237180367112, 0.00025739235570654273, -3.528114393702708e-05], [-0.0653148889541626, -0.01285752933472395, 0.017764346674084663, 0.017391003668308258, 0.015122976154088974, -0.028529919683933258, -0.004046319518238306, -0.00834772177040577, 0.011003628373146057, -0.016882259398698807, -0.020171018317341805, 0.5598313808441162, -0.027628449723124504, 0.0023740013130009174, 0.027721606194972992, -0.008985385298728943, 0.012939811684191227, -0.5567198991775513, -0.017087064683437347, -0.008071213029325008, -0.019322877749800682, -0.8729334473609924, 0.014283306896686554, -0.012897922657430172, 0.009384107775986195, -0.018253033980727196, 0.003748029237613082, 0.024978037923574448, -0.0014684544876217842, 0.6557103991508484, 0.024982066825032234, -0.022240934893488884], [0.0002387217100476846, -2.6695503038354218e-05, -4.668362089432776e-05, -2.207904981332831e-05, -5.5097661970648915e-05, -1.914787935675122e-05, -2.1644404114340432e-05, -1.2894282917841338e-05, -7.778435815453122e-07, -3.590432970668189e-05, -5.001650788472034e-05, -0.0008066811715252697, 8.200930096791126e-06, -4.270341378287412e-05, -5.54323787582689e-06, 3.8846319512231275e-05, 3.526942236931063e-05, -0.0006679712096229196, -1.869907100626733e-05, -3.81806748919189e-05, 3.0086468541412614e-05, -0.0008073142380453646, -4.724555401480757e-05, 7.064272267598426e-06, -1.112723839469254e-05, -4.729325155494735e-06, 2.8218872103025205e-05, 1.608833008504007e-05, -8.663624612381682e-05, 0.0009377535316161811, -1.7095709381464985e-06, -6.166383172967471e-06], [-0.0006589439581148326, -0.0008085522567853332, 0.00022373588581103832, -0.00019296674872748554, 0.0007495209574699402, -0.0005347641999833286, -0.000755054468754679, -0.000205224787350744, 0.0005749096162617207, 0.000938985962420702, -0.0008869555313140154, 0.008854215033352375, -0.00022812224051449448, -0.0009670646395534277, 0.0002609196526464075, -0.0011734107974916697, 0.0006638726918026805, -0.0023955046199262142, -0.0008923215209506452, -0.0004199905088171363, 0.0012092707911506295, 0.0006117459270171821, 0.0015854326775297523, -0.0002305672678630799, -0.00029881956288591027, 0.0005238100420683622, 0.0003129325632471591, 0.00032397112227045, -0.0009646022808738053, 0.0022012083791196346, 0.0004051427240483463, -0.00028682357515208423], [9.859787678578869e-05, -3.2809071853989735e-05, -6.626064714509994e-05, -2.1962008759146556e-05, -7.894536247476935e-05, 7.473478035535663e-06, -5.067019446869381e-05, -3.640469003585167e-05, 4.3779428438028845e-07, -5.192878961679526e-05, -6.86354615027085e-05, -0.000636831799056381, 1.1626601917669177e-05, -7.237506360979751e-05, -4.68363577965647e-06, 3.1991468858905137e-05, 4.213301508571021e-05, -0.0009552865521982312, -2.3673554096603766e-05, -3.3935735700652e-05, 1.0498003575776238e-05, -0.0009360458352603018, -6.624707748414949e-05, 9.817265890887938e-06, -3.478374856058508e-05, -2.638039950397797e-05, 5.536113530979492e-05, 7.80420577939367e-06, -0.00014005854609422386, 0.0001398427557433024, -3.4776091979438206e-06, -1.6932278867898276e-06], [-0.0005626698257401586, -0.0006299281376414001, 4.488258855417371e-05, 2.6253692340105772e-05, 0.0005163152818568051, -0.000395748793380335, -0.0007429876714013517, -0.0001918593334266916, 0.0007152596372179687, 0.0007815196295268834, -0.0006797323585487902, -0.00010255915549350902, -0.00029006050317548215, -0.0009483618196099997, 0.00023305781360249966, -0.0009603768703527749, 0.0003968958626501262, -0.003942115698009729, -0.0006590546690858901, -8.732816786505282e-05, 0.0002675176365301013, 1.2882129340141546e-05, 0.0007631714688614011, -0.0002249129320262, -0.0004981040256097913, 0.0005486716399900615, 0.0003944828058592975, 0.0002728327817749232, -0.00020904900156892836, 0.0012420720886439085, 0.00025207819999195635, 2.2634247216046788e-05], [-0.00013650594337377697, -0.00045618898002430797, 6.886700430186465e-05, -0.00016011072148103267, 0.0003792953793890774, -0.00027222599601373076, -0.0004280110588297248, -0.00012020736176054925, 0.00033742492087185383, 0.0003872847300954163, -0.0004829303070437163, 0.003393569029867649, -6.86190978740342e-05, -0.0005067425081506371, 7.434742292389274e-05, -0.0004646827874239534, 0.00036601556348614395, -0.0007735964027233422, -0.0004663924337364733, -0.00024305003171321005, 0.0005848733126185834, 0.0007220956613309681, 0.000787208613473922, -7.271120557561517e-05, -9.256910561816767e-05, 0.00019445570069365203, 0.00019784821779467165, 0.0001362466864520684, -0.00032550253672525287, 0.003544434206560254, 0.00020189385395497084, -0.00018501980230212212], [0.025613201782107353, -0.004822705872356892, 0.0044579943642020226, 0.01438224408775568, 0.0021777208894491196, -0.025405919179320335, 0.008616592735052109, 0.018772263079881668, 0.012478914111852646, 0.02818876877427101, -0.02157375030219555, -0.286140501499176, -0.014803024008870125, -0.010955946519970894, 0.016883281990885735, -0.032209064811468124, -0.004205943085253239, -0.027240876108407974, -0.016998376697301865, 0.007860701531171799, 0.03723699226975441, 0.48601603507995605, 0.017804034054279327, -0.020196158438920975, 0.015129000879824162, 0.030464190989732742, -0.014276405796408653, 0.022093623876571655, -0.0237877257168293, 0.41442978382110596, 0.0152986329048872, -0.011798900552093983], [-0.0004992284812033176, -0.00061644590459764, 0.0002591228112578392, -0.00016924715600907803, 0.0003475793928373605, -0.00018733480828814209, -0.0009555278229527175, -0.0004444928199518472, 0.00026015506591647863, 0.0004882141947746277, -0.0007863451028242707, 0.007833579555153847, -7.803285552654415e-05, -0.0008387693087570369, 0.00010433870193082839, -0.0008937760721892118, 0.0005790659924969077, -0.0016249129548668861, -0.00047097780043259263, -0.0004497860209085047, 0.001177931553684175, 0.001959884073585272, 0.00038762178155593574, -0.00010928385745501146, -0.0006030577351339161, 6.681471859337762e-05, 0.0007250342168845236, 0.00024429309996776283, -0.0012669118586927652, 0.0012342180125415325, 0.00030372579931281507, -0.00030895767849870026], [-0.00042805392877198756, -0.0003208927810192108, 2.65381604549475e-05, -7.345299673033878e-05, 0.0002198356087319553, -0.00017584723536856472, -0.0002299133047927171, 2.0460311134229414e-05, 0.00031564742675982416, 0.0003507122746668756, -0.00031871345709078014, 0.0013966945698484778, -9.466074698138982e-05, -0.00038570252945646644, 8.301002526422963e-05, -0.00020444246183615178, 0.00022084637021180242, -0.002925656270235777, -0.00041327899089083076, -8.680998143972829e-05, 0.00032394708250649273, -5.223380412644474e-06, 0.000180889866896905, -0.00010545547411311418, -5.484699795488268e-05, 0.0001975666091311723, 5.3745727200293913e-05, 8.636457641841844e-05, -6.826906610513106e-05, 0.0008616267004981637, 0.0001520428922958672, -8.056377555476502e-05], [-0.0011225652415305376, -9.561021579429507e-05, 0.0001212256756843999, 2.807294913509395e-05, 0.0003128027019556612, -7.72342027630657e-05, -0.0001627777237445116, 2.715394293772988e-05, 0.00018259102944284678, 0.00020879277144558728, 7.602715049870312e-05, -0.004099472891539335, -0.00015869275375735015, 1.7448406651965342e-05, 0.00016540948126930743, -0.00039319691131822765, 3.8800098991487175e-05, 0.0011489437893033028, -9.694691107142717e-05, 6.0191279771970585e-05, -4.293478195904754e-05, 0.003430390963330865, 0.0004298354615457356, -0.0001948349818121642, -0.00014581844152417034, 5.236223296378739e-05, 7.67074670875445e-05, 7.189271855168045e-05, 0.0005342490621842444, 0.0020765606313943863, 0.00013019429752603173, -3.224076863261871e-05], [0.006359180901199579, 0.030294839292764664, 0.021698489785194397, 0.004984485916793346, 0.012962432578206062, 0.004921811167150736, 0.03871799632906914, 0.031516630202531815, -0.024763943627476692, 0.011988355778157711, 0.016006354242563248, 0.4064882695674896, -0.003961616195738316, 0.03685607761144638, 0.0005416596541181207, -0.0041510118171572685, -0.03153277933597565, -0.5150864720344543, 0.031347427517175674, 0.011944320984184742, 0.015099545009434223, 0.37060633301734924, 0.005004687700420618, 0.01780509762465954, 0.034200649708509445, 0.012268956750631332, -0.034780558198690414, 0.0019017072627320886, 0.027211399748921394, 0.2572876513004303, -0.008470816537737846, -0.011143217794597149], [-0.002317402744665742, -0.0007182552362792194, 0.00012942329340148717, -0.00017638158169575036, 0.0009427294717170298, -9.447368938708678e-05, -0.00045942197903059423, -3.1417683203471825e-05, 0.000898984435480088, 0.0008224034099839628, -0.0005352997104637325, 0.0022049974650144577, -0.0002765862736850977, -0.0006467504426836967, 0.0001338860602118075, -0.0009279540390707552, 0.0002718915930017829, -0.015004959888756275, -0.0009936507558450103, 0.00010868128447327763, 0.0002328431437490508, 0.003917123191058636, 0.0009826761670410633, -0.0001985902345040813, -0.0006942302570678294, 0.0004824692732654512, 5.063241769676097e-05, 7.113639730960131e-05, 0.000138376111863181, 0.0052678328938782215, 0.0002146158367395401, -1.6271933418465778e-05], [0.0003587444080039859, 1.99165860976791e-05, -4.0572464058641344e-05, -9.070226042240392e-06, -2.030458563240245e-05, 1.3279975064506289e-05, 1.6351490558008663e-05, -9.821029379963875e-06, -3.0123275791993365e-05, -3.583515353966504e-05, 1.5251080185407773e-05, -0.001048573525622487, 3.3600092137930915e-05, 3.938299050787464e-05, -3.095364445471205e-05, 5.174868056201376e-05, 2.0196205241518328e-07, -0.0013794812839478254, 4.56348316220101e-05, -2.02051433007e-05, 9.240710642188787e-05, -5.785171742900275e-05, 5.498579776030965e-05, 2.7349244192009792e-05, -4.418718890519813e-05, -1.9094777599093504e-05, 9.416745342605282e-06, -9.965962817659602e-06, 3.6193658161209896e-05, 0.00040739975520409644, -1.4215656847227365e-05, -3.501251558191143e-05], [-0.0007174783968366683, -0.00039998983265832067, 3.906347410520539e-05, 1.9421146134845912e-05, 0.00028956501046195626, -0.00030883183353580534, -0.00040741535485722125, -6.613703590119258e-05, 0.0005109372432343662, 0.00030969196814112365, -0.00016078616317827255, 0.0016175821656361222, -0.00016677680832799524, -0.0003270893939770758, 0.00016219478857237846, -0.0005455987411551178, 0.00018987870134878904, 0.0001950794830918312, -0.00041385789518244565, -6.897439743625e-05, 0.00023409143614117056, 0.0001310902734985575, 0.0005948675679974258, -0.0002031074691331014, -0.0002850588352885097, 0.00029443835956044495, 0.00024261584621854126, 0.00011359396012267098, 0.0002712174318730831, 0.00273516564629972, 0.00020920592942275107, -4.998099757358432e-05], [-0.0005011556786485016, -0.00022976672335062176, 6.870827201055363e-05, -3.432774065004196e-06, 0.0002749105042312294, -0.0001447736722184345, -0.0001970758312381804, -1.3083216799714137e-05, 0.0002847118303179741, 0.00026465440168976784, -0.00016143258835654706, -0.003343157935887575, -9.521090396447107e-05, -0.00021133832342457026, 9.186634997604415e-05, -0.00034477407461963594, 0.0001094909239327535, 0.0015811416087672114, -0.00029572032508440316, -2.2356636691256426e-05, 0.0001421103806933388, 0.001531314803287387, 0.00038524478441104293, -0.00011996921966783702, -0.00014162425941322, 8.792225708020851e-05, 6.712379399687052e-05, 5.964135561953299e-05, 0.00012564088683575392, 0.0015771068865433335, 9.884236351354048e-05, -2.7263175070402212e-05], [-0.0006021523149684072, -0.00043109533726237714, 5.05657444591634e-05, -9.563507046550512e-05, 0.00042647580266930163, -0.000505782023537904, -0.00040928710950538516, 5.3084648243384436e-05, 0.0005946836899966002, 0.0003955565334763378, -0.00011519083636812866, 0.0035592885687947273, -0.0001556411007186398, -0.0003020932199433446, 0.00016945807146839797, -0.0006455707480199635, 0.000255327409831807, -0.0001669300108915195, -0.0006388610345311463, -0.00011344734957674518, 0.000413119065342471, 0.0007723640883341432, 0.0009420568821951747, -0.0001966919662663713, -0.000241124551394023, 0.00046795792877674103, 0.00023483941913582385, 0.00013191461039241403, 0.0004558119107969105, 0.0036700416821986437, 0.0002589603536762297, -0.00015553334378637373], [-8.163833263097331e-05, -0.00010884788207476959, -4.7690988139947876e-05, -4.447720857569948e-05, 1.120708020607708e-05, -4.734079629997723e-05, -4.1447143303230405e-05, 4.018520940007875e-06, 9.890535147860646e-05, 3.197286059730686e-05, -0.00011134016676805913, -0.0004411161062307656, -1.5458130292245187e-05, -0.00011524990986799821, 1.100433655665256e-05, -4.714516762760468e-06, 6.763459532521665e-05, -0.0016227263258770108, -0.00012650835560634732, -3.958828528993763e-05, 0.00010139714140677825, -0.001360635389573872, 8.681663166498765e-05, -1.263736339751631e-05, -5.914616394875338e-06, 5.201577005209401e-05, -1.180190793093061e-06, 1.4567681319022086e-05, -1.585229256306775e-05, -0.0002834660408552736, 2.2501264538732357e-05, -3.28585556417238e-05], [-0.00423435540869832, -0.0019838837906718254, -4.808426820090972e-05, -0.0009170958655886352, -4.940400322084315e-05, -0.0006171214627102017, -0.0022624635603278875, -0.0008647897047922015, 0.0015808441676199436, 0.0005146592739038169, -0.0025691138580441475, 0.016595304012298584, -0.0006023434107191861, -0.0030735223554074764, 0.0005883111152797937, -0.0010993623873218894, 0.0016431562835350633, -0.020151875913143158, -0.0029970232862979174, -0.0005970813799649477, -7.304311293410137e-05, 0.008248506113886833, 0.0004510967992246151, -0.0003752153425011784, -0.0012535228161141276, 0.0001445842208340764, 0.0010788682848215103, 0.0004950704169459641, -0.0027771731838583946, -0.0023231590166687965, 0.00048468649038113654, -2.0373970983200707e-05], [0.07492638379335403, 0.006958814803510904, -0.016017932444810867, 0.014078631065785885, -0.016359148547053337, 0.011976703070104122, 0.0007594827911816537, -0.011311010457575321, -0.009335880167782307, -0.003506080014631152, 0.004476197529584169, -1.9210566282272339, 0.004216648638248444, -0.008899222128093243, -0.005374053493142128, 0.015850085765123367, -0.00424548052251339, 1.0609514713287354, 0.007464732509106398, 0.00032558219390921295, 0.01095503382384777, 0.2877638041973114, -0.015338928438723087, -0.006357847712934017, -0.008152497932314873, 0.01241277251392603, 0.005110582802444696, 0.002636097837239504, -0.00881890393793583, -0.19598382711410522, -0.003824529703706503, 0.012262420728802681], [0.0001618103706277907, -0.00016376801067963243, -3.167782779200934e-05, -3.493309850455262e-05, 4.19824973505456e-05, -0.0001538118813186884, -0.000125085047329776, -2.3630265786778182e-05, 0.00017634039977565408, 9.71434565144591e-05, -0.00011989485938102007, -0.0007024282240308821, -1.4894333617121447e-05, -0.00011459049710538238, 1.432631142961327e-05, -0.00013950516586191952, 9.129996760748327e-05, -0.0005583107122220099, -0.00013104539539199322, -7.269822526723146e-05, 8.746427192818373e-05, -0.0006377353565767407, 0.00020699102606158704, -3.0765862902626395e-05, -7.033495785435662e-05, 0.00011085953883593902, 6.73863323754631e-05, 4.002383502665907e-05, 0.00011681763862725347, 0.0017749012913554907, 1.995695311052259e-05, -2.6271762180840597e-05], [-5.96741938352352e-06, 2.455594039929565e-05, 2.5389617803739384e-06, 8.375893230549991e-06, 1.3616531759907957e-05, 1.9373645045561716e-05, 2.5012415790115483e-05, -2.1134576400072547e-06, -1.2516639799287077e-05, 1.2733573385048658e-05, 4.731644366984256e-06, -0.001638910616748035, 1.0776619092212059e-05, 1.6843623598106205e-05, -8.494312169204932e-06, 8.364408131456003e-06, -1.2051711564708967e-05, -0.0017160384450107813, 1.8961645764647983e-05, 1.2068155228917021e-05, 1.2557474292407278e-05, -0.001411067321896553, 3.551961071934784e-06, 2.4814505650283536e-06, 2.5042591005330905e-06, 1.8739427787295426e-06, -1.3453867723001167e-05, -1.2446375876606908e-05, 9.149207471637055e-06, 0.002536288695409894, -4.3310990349709755e-07, -2.9516079393943073e-06], [-0.0018950107041746378, -0.002635081298649311, 0.0013797776773571968, 0.00032673703390173614, 0.0033621694892644882, -0.00036489017657004297, -0.0021018190309405327, -0.0016978624043986201, 0.0034653295297175646, 0.0035119461826980114, -0.0025922702625393867, -0.0018041810253635049, -0.0015732536558061838, -0.0022706238087266684, 0.0009605700033716857, -0.0010998372454196215, 0.0013926568208262324, -0.0118650421500206, -0.0027493860106915236, -3.086735887336545e-05, -0.0002012035547522828, 0.001241631107404828, 0.0018403494032099843, -0.0004025949165225029, -0.0019118585623800755, 9.469999349676073e-05, 0.0014057332882657647, 0.000311234500259161, 0.000617271929513663, 0.011310802772641182, 0.000673088594339788, 0.00028672878397628665], [-0.0006280189263634384, -0.0005964584415778518, 0.00011151376384077594, -0.0001438100152881816, 0.0009140077163465321, -0.0005740206106565893, -0.000851109332870692, -0.00011500100663397461, 0.0005129071651026607, 0.000953779264818877, -0.0007379184244200587, 0.0046680220402777195, -0.0001667523174546659, -0.0007080984651111066, 0.00017859924992080778, -0.0011666245991364121, 0.0005073790089227259, 0.00032700461451895535, -0.0006972092669457197, -0.00033269813866354525, 0.0008848860743455589, 0.002380325458943844, 0.0015066047199070454, -0.00021946914785075933, -0.0005632079555653036, 0.0005336401518434286, 0.000420611904701218, 0.00027110904920846224, -0.0001788339577615261, 0.003667261451482773, 0.0004130888555664569, -0.00020127507741563022], [-0.000378242606529966, 8.087111928034574e-05, 4.400435136631131e-05, 9.550938557367772e-05, 0.00014643352187704295, -1.3222054803918581e-05, 7.381091563729569e-05, 0.00010708472836995497, -9.691005834611133e-05, 0.00013590685557574034, 8.836521737976e-05, 0.0002014704659814015, -5.574123497353867e-05, 6.724942795699462e-05, 7.201656990218908e-05, -0.00015607249224558473, -5.2847579354420304e-05, -0.0039350539445877075, 0.0001269118074560538, 2.4892211513360962e-05, 6.680428487015888e-05, -0.0013911356218159199, 5.974705345579423e-05, -6.84304759488441e-05, 3.648874326245277e-06, 0.00011539945990080014, -3.657641718746163e-05, 4.208488098811358e-05, -0.00010609426681185141, 0.0011125104501843452, 4.1443814552621916e-05, 6.006752755638445e-06], [-9.169137774733827e-05, -2.8614167604246177e-05, 1.2200387573102489e-05, -1.9150318621541373e-05, 6.540145022881916e-06, 1.8212496797787026e-05, -4.0301820263266563e-05, -3.168498369632289e-05, 1.8024578821496107e-05, -1.8096109215548495e-06, -4.132571120862849e-05, -0.0015213846927508712, -2.7113983946946973e-07, -6.108464003773406e-05, 4.7091507440200076e-06, -6.889269116072683e-06, 2.5654280761955306e-05, -8.866775169735774e-05, -4.096341581316665e-05, -6.422640126402257e-06, -1.0043186193797737e-05, -0.0013914292212575674, -4.479056315176422e-06, 8.060104050855443e-08, -1.66104673553491e-05, -2.2936770619708113e-05, 2.5658062440925278e-05, -2.451497721267515e-06, -6.990716065047309e-05, 0.0008071564370766282, -1.1046079180232482e-06, -1.6797383068478666e-05], [-0.0020088059827685356, -4.949033973389305e-05, 0.000202362090931274, 0.0002964331360999495, 0.0006271610618568957, -0.00010635801299940795, -0.00010631799523252994, 7.319510041270405e-05, 1.5924330000416376e-05, 0.00043810487841255963, -0.00018034047388937324, -0.0012798338430002332, -0.0002496325469110161, -0.0004005917289759964, 0.00034057878656312823, -0.0006439673015847802, 9.225695976056159e-05, -0.010391117073595524, -0.00029629399068653584, -4.6976001613074914e-05, 0.00012772843183483928, 0.0008082956192083657, 0.0006469387444667518, -0.00038935363409109414, -0.00034394781687296927, 0.000257479288848117, 0.00011294033902231604, 0.0002159113355446607, -0.0008377201738767326, 0.002120252000167966, 0.00014139658014755696, 1.994651938730385e-06], [-0.00030134135158732533, -0.00046315178042277694, -5.535579475690611e-05, -6.362148269545287e-05, 0.0004834118008147925, -0.0002913547505158931, -0.0005931350751779974, -7.904355879873037e-05, 0.0004125333216506988, 0.0004127276479266584, -0.00043954685679636896, -0.0032815528102219105, -7.862046913942322e-05, -0.0004337969294283539, 6.008000855217688e-05, -0.0005362994852475822, 0.0002799775975290686, -0.0022412624675780535, -0.00030014372896403074, -0.00018966052448377013, 0.0003582153294701129, 0.0013632007176056504, 0.00063224823679775, -0.00010869697143789381, -0.00033688120311126113, 0.0003523874329403043, 0.0003179321647621691, 0.00011214878759346902, -3.991175253759138e-05, -0.0005160260479897261, 0.00023032160243019462, -0.00010992035095114261], [-0.0007095003384165466, -0.000985647551715374, 0.00015890304348431528, -0.0001650927879381925, 0.0009731440804898739, -0.0008929704781621695, -0.0008236175053752959, -3.3922748116310686e-05, 0.0011168995406478643, 0.0009281327947974205, -0.0006352558848448098, 0.005279914941638708, -0.0002640686579979956, -0.0007664512959308922, 0.00027746486011892557, -0.001176323276013136, 0.0005794749013148248, 0.0012268716236576438, -0.0010921688517555594, -0.00028820071020163596, 0.0008767695399001241, 0.0013560360530391335, 0.0016863396158441901, -0.0003142433997709304, -0.00045416667126119137, 0.0007235085940919816, 0.00040590850403532386, 0.0002637272991705686, 0.0003070230595767498, 0.004717862233519554, 0.0004396338772494346, -0.00027135046548210084], [-0.00015099406300578266, -8.424815314356238e-05, 0.00015322229592129588, -7.294440001714975e-05, 0.0002884282439481467, -0.00010133875184692442, 3.569767068256624e-05, -2.929310721810907e-05, 0.0001184428037959151, 0.00014035167987458408, -1.5207234355330002e-05, 0.0013136371271684766, -1.5913597962935455e-05, -4.3859228753717616e-05, 2.6222549422527663e-05, -5.111439895699732e-05, 9.210057760355994e-05, 0.001807643217034638, -0.00021871844364795834, -2.4553814000682905e-05, 0.00022133479069452733, 0.0009578033932484686, 0.0003922872128896415, -1.973832695512101e-05, 9.728162694955245e-05, 7.367454963969067e-05, -8.360402716789395e-05, -5.186201178730698e-06, 0.00013813667465001345, 0.003982532303780317, 1.8845776139642112e-05, -0.00012413450167514384], [-0.001160261919721961, -0.0003215453471057117, 2.7756492272601463e-05, -5.102867817186052e-06, 0.0005887647275812924, -0.00024128508812282234, -0.0005797636113129556, -0.0001661859278101474, 0.0003284820995759219, 0.0006516317371279001, -0.00033914652885869145, 0.001263776095584035, -9.001486614579335e-05, -0.0003221642691642046, 6.481299351435155e-05, -0.0008325054659508169, 0.0002227857621619478, -0.002130598295480013, -0.00023913955374155194, -0.00011985693708993495, 0.0004910536226816475, 0.003210060764104128, 0.0008064642897807062, -0.0001278737181564793, -0.0006122261402197182, 0.000326198321999982, 0.0003834266390185803, 0.00012374480138532817, -1.0804819794429932e-05, 0.0027825147844851017, 0.00026220508152619004, -4.99992493132595e-05], [-0.0021923216991126537, -0.0003480757004581392, 0.00019501321366988122, 0.00014908419689163566, 0.0005492828786373138, -0.00011875409836648032, -0.00040065599023364484, -7.087511767167598e-05, 0.00043853159877471626, 0.0004076545883435756, -0.0003743354754988104, -0.003033318556845188, -0.00032591127092018723, -0.0006241737282834947, 0.0003754142380785197, -0.0007771834498271346, 0.000181471390533261, -0.0026902828831225634, -0.0007055702735669911, 9.871031215880066e-05, 8.547607285436243e-05, 0.0005065927398391068, 0.0006537617882713675, -0.00042230129474774003, -0.00037756050005555153, 0.0002296647144248709, 0.00016312945808749646, 0.00016935207531787455, -0.0005572687950916588, 0.0016933395527303219, 0.00021297557395882905, 2.631186362123117e-05], [0.0005904902936890721, -0.0005855587078258395, 0.00022002383775543422, -0.0002013205230468884, 0.0005154075333848596, -0.00043133567669428885, -0.00013742833107244223, 0.0001246469037141651, 0.00046514158020727336, 0.0006332320044748485, -0.0006449054344557226, 0.007805004715919495, -0.0001562882971484214, -0.0006679927464574575, 0.00020270927052479237, -0.00038772664265707135, 0.0004450475098565221, -0.0002653421543072909, -0.0007720555295236409, -0.0002691951231099665, 0.0010513195302337408, -0.0019023537170141935, 0.0010460878256708384, -0.00016306167526636273, 0.0002403513208264485, 0.0004483450320549309, -0.00025231420295313, 0.00022401435126084834, -0.00042013253550976515, 0.0009156242595054209, 0.00022193761833477765, 2.7139565645484254e-05], [0.02113175019621849, 0.019014829769730568, 0.02115044742822647, 0.004125168547034264, 0.016986561939120293, -0.0018443556036800146, 0.02961915172636509, 0.011098215356469154, -0.01892111264169216, -0.007125346455723047, 0.012465983629226685, -0.45147836208343506, -0.005450481083244085, 0.028149401769042015, 0.0021321135573089123, 0.010004638694226742, -0.01826496608555317, -0.24647492170333862, 0.01876206137239933, 0.016836058348417282, -0.0027661635540425777, 0.03399008885025978, -0.009852285496890545, -4.7077872295631096e-05, 0.02729315124452114, -0.009923228062689304, -0.025454817339777946, 0.0004548925790004432, 0.012323783710598946, -0.6756772994995117, 0.004849135875701904, -0.02964777499437332], [0.0002895410289056599, -1.4313915016828105e-05, -4.777463254868053e-05, -1.5714162145741284e-05, -5.746775786974467e-05, -1.5655696188332513e-05, -1.3732721527048852e-05, -7.85517659096513e-06, -9.439380846743006e-06, -4.0141352656064555e-05, -3.384664887562394e-05, -0.000956689240410924, 1.1565509339561686e-05, -2.3753724235575646e-05, -9.42339829634875e-06, 4.611695840139873e-05, 2.4468277842970565e-05, -0.0006182087818160653, 6.114904635978746e-07, -3.335592191433534e-05, 2.733472138061188e-05, -0.0007386850193142891, -4.723453821497969e-05, 9.932448847393971e-06, -1.0346049748477526e-05, -4.136695679335389e-06, 2.584974208730273e-05, 1.2459539902920369e-05, -6.81076489854604e-05, 0.000760583090595901, -4.699183136835927e-06, -1.4255441556088044e-06], [-0.0005149001372046769, -0.0007919598137959838, 0.00023434165632352233, -0.0001884867815533653, 0.0007394040003418922, -0.0005292060668580234, -0.0006832911749370396, -0.00017813898739404976, 0.0005733805010095239, 0.0008976800017990172, -0.0008552189101465046, 0.008686551824212074, -0.00022577372146770358, -0.0009418175322934985, 0.00026267353678122163, -0.001069497549906373, 0.0006424939492717385, -0.0018813434289768338, -0.0008932636701501906, -0.0004059267230331898, 0.0011735010193660855, 0.0007092534215189517, 0.0015445699682459235, -0.00023152664653025568, -0.00023717981821391732, 0.0005102810682728887, 0.0002533441293053329, 0.00031273989588953555, -0.0008998852572403848, 0.002404758706688881, 0.00038213536026887596, -0.0002664633793756366], [0.00015909063222352415, -1.4971826203691307e-05, -7.34382338123396e-05, -1.3467072676576208e-05, -7.831565744709224e-05, 1.3678802133654244e-05, -3.1236188078764826e-05, -2.4130878955475055e-05, -7.185723916336428e-06, -5.8188827097183093e-05, -4.396241274662316e-05, -0.0009635233436711133, 1.356868688162649e-05, -4.462349534151144e-05, -5.580875040323008e-06, 3.871032822644338e-05, 2.4192950149881653e-05, -0.0008491442422382534, -7.826409273548052e-06, -2.2731381250196137e-05, 5.16836553288158e-06, -0.000935877556912601, -5.622886601486243e-05, 1.1864808584505226e-05, -2.2641550458502024e-05, -2.1868767362320796e-05, 4.2951589421136305e-05, 1.1554885759323952e-06, -0.00010116062185261399, -6.434944225475192e-05, -8.183560566976666e-06, 5.1362112571951e-06], [-0.000527489697560668, -0.0006126032094471157, 4.4954642362426966e-05, 2.6684980184654705e-05, 0.0005043312557972968, -0.000391042442061007, -0.0007252224604599178, -0.0001775468554114923, 0.0006973512354306877, 0.000783003750257194, -0.0006595398881472647, -0.00011696625006152317, -0.0002868851588573307, -0.0009099750313907862, 0.00023237317509483546, -0.0009151884587481618, 0.00038033933378756046, -0.003941067960113287, -0.0006437626434490085, -8.529998012818396e-05, 0.0002685676736291498, -6.6450056692701764e-06, 0.0007456851308234036, -0.00021652296709362417, -0.0004860175249632448, 0.0005528304609470069, 0.0003818242985289544, 0.0002704559883568436, -0.00020180395222268999, 0.001215082360431552, 0.0002458742819726467, 2.0063764168298803e-05], [-6.137704531283816e-06, -0.00040027013164944947, 6.893862155266106e-05, -0.00014967039169277996, 0.0003431921068113297, -0.0002505579905118793, -0.0003535569994710386, -9.423417941434309e-05, 0.00028879957972094417, 0.00033720655483193696, -0.0004247689212206751, 0.0033111709635704756, -5.297473035170697e-05, -0.00043932112748734653, 6.186012615216896e-05, -0.00036254775477573276, 0.00032575830118730664, -0.00017216587730217725, -0.00040994331357069314, -0.00022481614723801613, 0.0005403709947131574, 0.0008087721071206033, 0.0007183831185102463, -5.7574194215703756e-05, -5.5081010941648856e-05, 0.00017689124797470868, 0.00015155527216847986, 0.00012066611816408113, -0.00027815825887955725, 0.00371532398276031, 0.00017226047930307686, -0.0001674389059189707], [0.036715105175971985, 0.0021400591358542442, -0.0009073941619135439, 0.009111150167882442, -0.008829538710415363, -0.0175277441740036, 0.014764213934540749, 0.017154188826680183, 0.003784400410950184, 0.0151798902079463, -0.012013369239866734, -0.05583130568265915, -0.008378383703529835, -0.002995146671310067, 0.011806660331785679, -0.017876094207167625, -0.008551707491278648, -0.10925320535898209, -0.007501550018787384, 0.0062514073215425014, 0.02767995372414589, 0.8439666628837585, 0.004703110083937645, -0.013589740730822086, 0.015179264359176159, 0.01923605613410473, -0.014070463366806507, 0.014118785969913006, -0.017705295234918594, 0.4300675690174103, 0.004359145183116198, -0.013845630921423435], [-0.0004054672608617693, -0.0005495175719261169, 0.0002316781901754439, -0.00015083301695995033, 0.0002497268433216959, -0.0001539497316116467, -0.0008760166238062084, -0.00042308110278099775, 0.00021974479022901505, 0.00038428837433457375, -0.0007120168302208185, 0.007235167548060417, -6.542443588841707e-05, -0.0007582924445159733, 9.300593956140801e-05, -0.0008472059853374958, 0.0005195033736526966, -0.0012379480758681893, -0.00041738225263543427, -0.00041257779230363667, 0.001145769376307726, 0.0020229851361364126, 0.0003557681629899889, -9.58145537879318e-05, -0.0005754455924034119, 2.665074498509057e-05, 0.0006948030786588788, 0.00021995835413690656, -0.0011891848407685757, 0.0011803028173744678, 0.00026834066375158727, -0.00027673188014887273], [-0.00025857044965960085, -0.00027174377464689314, 1.6973091987892985e-05, -6.693078466923907e-05, 0.00016783003229647875, -0.00015024413005448878, -0.00016906650853343308, 2.7161891921423376e-05, 0.00026862515369430184, 0.0002875271311495453, -0.00026876162155531347, 0.0011918108211830258, -7.719863788224757e-05, -0.000328240217640996, 6.823015428381041e-05, -0.00010670498886611313, 0.00018731997988652438, -0.0023578840773552656, -0.0003592099528759718, -7.346053462242708e-05, 0.000277466926490888, 0.00014940480468794703, 9.176805906463414e-05, -8.770098793320358e-05, -3.0060900826356374e-05, 0.0001714692043606192, 2.6796376914717257e-05, 7.027174433460459e-05, -3.909401493729092e-05, 0.0008633419056423008, 0.0001248377957381308, -6.978111923672259e-05], [-0.0009135189466178417, 2.930330447270535e-05, 0.00011937981616938487, 3.8459053030237556e-05, 0.0002472159976605326, 1.626942093935213e-06, -4.1023777157533914e-05, 7.128949800971895e-05, 7.015257142484188e-05, 0.00016301414871122688, 0.00021111353999003768, -0.004131481982767582, -0.00011721240298356861, 0.0001643061696086079, 0.00011854934564325958, -0.00028769660275429487, -3.9608483348274603e-05, 0.0012879468267783523, 8.598010754212737e-05, 9.2687776486855e-05, -4.984629413229413e-05, 0.0029471470043063164, 0.0003568634856492281, -0.00014902121620252728, -5.902976045035757e-05, 3.871185253956355e-05, 3.5689511150849285e-06, 3.306253711343743e-05, 0.0006510424427688122, 0.002356620505452156, 9.87696330412291e-05, -3.39338366757147e-05], [0.010934261605143547, -0.010983784683048725, 0.008433808572590351, 0.005876894574612379, 0.01945192925632, -0.013090917840600014, -0.0024696909822523594, 0.003119200002402067, 0.011080726981163025, 0.022004002705216408, -0.010068154893815517, 0.1568727046251297, -0.009858226403594017, -0.007682166527956724, 0.006898648105561733, -0.009147110395133495, 0.001241358113475144, -0.23345239460468292, -0.010604221373796463, -0.0017189738573506474, 0.016842162236571312, 0.1933349370956421, 0.010201594792306423, -0.003882969729602337, 0.0046342508867383, 0.00768925528973341, -0.0032103639096021652, 0.01184643991291523, 0.00021819191169925034, 0.14803773164749146, 0.020270729437470436, -0.018908588215708733], [-0.0022694901563227177, -0.0006874158862046897, 9.138535824604332e-05, -0.00017948901222553104, 0.000870699412189424, -8.133101800922304e-05, -0.0003420714056119323, -6.0453489822975826e-06, 0.0008661926258355379, 0.0007160037639550865, -0.0004966070409864187, 0.0013953871093690395, -0.0002738721086643636, -0.0005458062514662743, 0.00014895769709255546, -0.0008215602720156312, 0.00024749874137341976, -0.013835831545293331, -0.0009980157483369112, 0.00010855701839318499, 0.00023435222101397812, 0.0045495787635445595, 0.0009052860550582409, -0.00020105404837522656, -0.0006417606491595507, 0.0003896194393746555, -2.1228272089501843e-05, 6.061064777895808e-05, 0.00011832018935820088, 0.005284009035676718, 0.00020960507390554994, -1.4973170436860528e-05], [0.00035090057644993067, 1.9316627003718168e-05, -4.3082021875306964e-05, -5.891348337172531e-06, -1.619147224118933e-05, 1.1711873412423301e-05, 1.5986499420250766e-05, -7.552868282800773e-06, -2.578508428996429e-05, -3.0250306735979393e-05, 1.848201463872101e-05, -0.0011383001692593098, 3.1339350243797526e-05, 4.2081326682819054e-05, -2.9692697353311814e-05, 4.8751902795629576e-05, -2.945515007013455e-06, -0.001387338968925178, 4.6126951929181814e-05, -1.6532309018657543e-05, 9.281608072342351e-05, -9.125885844696313e-05, 5.166196569916792e-05, 2.5328481569886208e-05, -5.191828677197918e-05, -1.4409676623472478e-05, 8.97470090421848e-06, -1.0660789484973066e-05, 4.883894507656805e-05, 0.00023296654399018735, -1.2839197552239057e-05, -3.0975526897236705e-05], [-0.0006730519817210734, -0.00034010340459644794, 5.063478238298558e-05, 3.12407901219558e-05, 0.0002911688352469355, -0.0002594062243588269, -0.0003561040502972901, -3.608379847719334e-05, 0.00045794766629114747, 0.00030880433041602373, -0.00010633304191287607, 0.0017577207181602716, -0.00014777015894651413, -0.000258678657701239, 0.00014013370673637837, -0.0005200167652219534, 0.00014653298421762884, 0.00018946723139379174, -0.00032993132481351495, -4.1981063986895606e-05, 0.00024596849107183516, 7.995866326382384e-05, 0.0006035322439856827, -0.00018343140254728496, -0.00025598175125196576, 0.00029922439716756344, 0.00020658121502492577, 8.928065653890371e-05, 0.0003469906805548817, 0.002885369583964348, 0.00019401070312596858, -5.6993339967448264e-05], [-0.0004391529655549675, -0.0001888393599074334, 6.844559538876638e-05, 1.2450780104700243e-06, 0.00025196271599270403, -0.00012137278099544346, -0.00015196068852674216, 5.040233190811705e-06, 0.0002457727969158441, 0.00024044384190347046, -0.00011510306649142876, -0.003295112866908312, -8.252145926235244e-05, -0.00016028550453484058, 8.132654329529032e-05, -0.0003034193068742752, 8.285408694064245e-05, 0.001343776355497539, -0.00025014413404278457, -1.1151635590067599e-05, 0.00013582082465291023, 0.001179574872367084, 0.00036114698741585016, -0.00010590315650915727, -0.00010956338519463316, 8.2233855209779e-05, 3.763016502489336e-05, 4.960274964105338e-05, 0.00016373521066270769, 0.0016051767161116004, 8.74855977599509e-05, -2.7663607397698797e-05], [-0.0003872328670695424, -0.0002813360479194671, 6.143896462162957e-05, -7.835685391910374e-05, 0.00038378569297492504, -0.00039277051109820604, -0.00027214756119064987, 9.669268183642998e-05, 0.00046486244536936283, 0.00034006894566118717, 3.9049027691362426e-05, 0.00347385392524302, -0.0001046117686200887, -0.0001200188125949353, 0.00011359631753293797, -0.0005070943734608591, 0.0001552864268887788, 0.0004129830631427467, -0.0004484509117901325, -5.769074414274655e-05, 0.0003961870970670134, 0.0007692668586969376, 0.0008618360734544694, -0.00014427518181037158, -0.0001533995964564383, 0.00042337176273576915, 0.00014790553541388363, 7.291649671969935e-05, 0.0006141405901871622, 0.004026412032544613, 0.0002014097844948992, -0.00015535863349214196], [3.814917363342829e-05, -8.125110616674647e-05, -5.938039976172149e-05, -3.616454341681674e-05, -1.6914169464143924e-05, -3.72765316569712e-05, -1.0803492841660045e-05, 9.98144423647318e-06, 7.839353202143684e-05, -4.038203314848943e-06, -8.144084131345153e-05, -0.0008194629335775971, -7.947556696308311e-06, -8.066275768214837e-05, 3.5983243833470624e-06, 4.27370032412e-05, 4.645975786843337e-05, -0.001386549323797226, -9.287939610658213e-05, -3.113182174274698e-05, 8.322293433593586e-05, -0.0012264952529221773, 6.156929157441482e-05, -4.7602406993974e-06, 1.5710042134742253e-05, 4.042973159812391e-05, -1.219720707013039e-05, 6.39341669739224e-06, 8.039138265303336e-06, -0.0006149114924483001, 1.0722816114139277e-05, -1.9756069377763197e-05], [-0.004302998073399067, -0.0018328664591535926, -0.0001255046227015555, -0.0009109965758398175, -0.00035017385380342603, -0.0005850665038451552, -0.0020198530983179808, -0.0007252187351696193, 0.0014948176685720682, 5.345588942873292e-05, -0.0024840072728693485, 0.014513173140585423, -0.0006024471367709339, -0.0029987571761012077, 0.0006218284252099693, -0.0010610970202833414, 0.0015309053706005216, -0.017621366307139397, -0.0030566316563636065, -0.0005302361096255481, -7.907713734311983e-05, 0.009685192257165909, 0.0003859006683342159, -0.00040169802377931774, -0.0009107385412789881, 3.6035282391821966e-05, 0.0008037823135964572, 0.0004636553640011698, -0.0026885021943598986, -0.001987796276807785, 0.00040063561755232513, -4.437011284608161e-06], [0.035104379057884216, -0.009543122723698616, -0.010059824213385582, 0.022732581943273544, -0.004555029328912497, -0.013141711242496967, -0.007525548804551363, -0.004503163509070873, 0.014206831343472004, 0.02540653757750988, -0.021860817447304726, -1.1110358238220215, -0.01231185719370842, -0.023485258221626282, 0.018512312322854996, -0.013937135227024555, 0.0098183061927557, 0.26191839575767517, -0.026466673240065575, -0.0009056442067958415, 0.03509313985705376, 0.06148902326822281, 0.007754882797598839, -0.0372919887304306, -0.007611338049173355, 0.03429756313562393, 0.005960936192423105, 0.015524878166615963, -0.023611489683389664, 0.6272693276405334, 0.004564445931464434, 0.01192545611411333], [0.00015108715160749853, -0.00016909952682908624, -3.431106233620085e-05, -3.7353871448431164e-05, 4.3708085286198184e-05, -0.00015549534873571247, -0.00013218728417996317, -4.0366790926782414e-05, 0.00018151891708839685, 0.00010166641004616395, -0.00013011277769692242, -0.0009117882582359016, -1.527439417259302e-05, -0.00012259010691195726, 1.5193812032521237e-05, -0.00014014683256391436, 9.619301999919116e-05, -0.0004723293532151729, -0.00013680086703971028, -7.584079139633104e-05, 9.166372910840437e-05, -0.0004676366806961596, 0.00020398671040311456, -3.180194471497089e-05, -6.972601113375276e-05, 0.00011421614908613265, 7.26359648979269e-05, 3.991600533481687e-05, 9.516761201666668e-05, 0.0015278083737939596, 1.8520227968110703e-05, -2.588731331343297e-05], [8.708891073183622e-06, 3.0662326025776565e-05, 1.9893109310942236e-06, 1.1699663446052e-05, 1.2486700143199414e-05, 1.5424375305883586e-05, 3.454795660218224e-05, 2.87422994915687e-06, -1.4901438589731697e-05, 1.2761674042849336e-05, 8.598873137088958e-06, -0.001644638366997242, 1.3685267731489148e-05, 3.0208087991923094e-05, -1.2654249076149426e-05, 1.3376818969845772e-05, -1.8041650037048385e-05, -0.0015751218888908625, 2.954369119834155e-05, 1.4116250895312987e-05, 1.3831899195793085e-05, -0.0012562162009999156, 2.8062031560693868e-06, 4.501913736021379e-06, 6.527342065965058e-06, 3.0961984975874657e-07, -1.8705402908381075e-05, -1.5375671864603646e-05, 2.7552727260626853e-05, 0.0024022895377129316, -3.0293515465018572e-06, -2.657885943335714e-06], [-0.01419607363641262, 0.0011753728613257408, 0.0076884073205292225, -0.004182733129709959, 0.010936644859611988, 0.002386252861469984, -0.0026037096977233887, -0.008664890192449093, -0.0036519302520900965, -0.009748263284564018, 0.000900257786270231, -0.05273139104247093, -0.001792951487004757, 0.008114210329949856, -0.0006287524593062699, 0.006742767058312893, 0.002933578798547387, -0.058600980788469315, 0.00062644510762766, -0.0029129195027053356, -0.012558730319142342, 0.04409291595220566, -0.002939756028354168, 0.006281581241637468, 0.0010060903150588274, -0.01236784178763628, 0.0041419523768126965, -0.002198572037741542, 0.003467889968305826, -0.029488248750567436, 0.0020343821961432695, -0.006488704588264227], [-0.007660971488803625, -0.015481007285416126, -0.006382901221513748, -0.005853910464793444, -0.001280123833566904, -0.005269060377031565, -0.01594114862382412, -0.014985071495175362, 0.011891111731529236, -0.018738899379968643, -0.006871577352285385, 0.011868266388773918, 0.001366028911434114, -0.009876553900539875, -0.0010239866096526384, 0.008605238050222397, 0.017865566536784172, 0.01517448015511036, -0.009574171155691147, -0.016817523166537285, -0.019578738138079643, -0.0036534913815557957, -0.001811599126085639, 0.003431447083130479, -0.008566954173147678, -0.01870543323457241, 0.016588302329182625, 0.001581336255185306, -0.005181632004678249, -0.012211982160806656, 0.003001090604811907, 0.0010535732144489884], [0.006412433460354805, -0.005368942394852638, -0.012667953968048096, -0.006593509577214718, -0.012859441339969635, 0.004549486096948385, -0.009142904542386532, -0.006641038227826357, 0.002296595135703683, -0.013383695855736732, 0.0021861752029508352, 0.0024514945689588785, 0.008408316411077976, -0.008920260705053806, -0.0058579277247190475, 0.008363588713109493, 0.008217689581215382, 0.015295329503715038, -0.0024955053813755512, -0.00846891663968563, -0.012622028589248657, -0.003816210897639394, -0.010369924828410149, 0.004691697657108307, -0.010528545826673508, -0.008092207834124565, 0.010497039183974266, -0.006295835133641958, -0.0112520232796669, -0.0025442102923989296, -0.007747171446681023, 0.012216467410326004], [-0.0013563100947067142, -0.0004055924073327333, -0.010078047402203083, -0.022887105122208595, -0.011325454339385033, 0.018117966130375862, -0.009822122752666473, -0.006769756320863962, -0.003916115965694189, -0.017201939597725868, 0.011430293321609497, -0.0028858808800578117, 0.020402342081069946, -0.002718769246712327, -0.020586369559168816, 0.010807454586029053, 0.0048196567222476006, 0.02081257477402687, 0.010109280236065388, -0.006279204040765762, -0.02218269743025303, -0.007205247413367033, -0.009727898985147476, 0.020213225856423378, -0.014493693597614765, -0.016933925449848175, 0.011537102982401848, -0.01982937380671501, 0.0020242049358785152, 0.00417738500982523, -0.018787261098623276, 0.01658785343170166], [0.010665788315236568, 0.0019266086164861917, -0.010332823731005192, -0.003995480481535196, -0.016098476946353912, 0.007911893539130688, -0.0012975928839296103, 0.0014965471345931292, -0.0028608753345906734, -0.006536324508488178, 0.004856203682720661, -0.00471536535769701, 0.008379924111068249, -0.006361111532896757, -0.005415716208517551, 0.005355451721698046, -0.00030641729244962335, 0.009139583446085453, 0.0005389850703068078, -9.045478691405151e-06, -0.00466754799708724, -0.00030514493118971586, -0.011172914877533913, 0.0027586470823735, -0.007363189477473497, 0.0007328594801947474, 0.0027765268459916115, -0.007280655205249786, -0.010977745056152344, -0.005052227061241865, -0.010846933349967003, 0.012647183611989021], [-0.013046366162598133, -0.014733153395354748, 0.002450334606692195, 0.002748951781541109, 0.008533417247235775, -0.019376564770936966, -0.008387777954339981, -0.007567920256406069, 0.014567838981747627, -0.010951290838420391, -0.014121687971055508, 0.025456193834543228, -0.01017468050122261, -0.005596875678747892, 0.008814974687993526, -0.0012248449493199587, 0.013039086945354939, 0.005693945102393627, -0.015036610886454582, -0.011425741948187351, -0.010127406567335129, -0.005490029696375132, 0.0074124750681221485, -0.005364898592233658, 0.0035690327640622854, -0.01122388057410717, 0.008085845969617367, 0.013316834345459938, 0.000148819774040021, -0.022109759971499443, 0.015214142389595509, -0.013019349426031113], [-0.0028814240358769894, -0.012280850671231747, -0.011338483542203903, -0.00928071141242981, -0.009227500297129154, 0.004476500209420919, -0.016811279579997063, -0.016540050506591797, 0.007263313513249159, -0.021084994077682495, -0.002593361074104905, 0.004337606485933065, 0.0076216161251068115, -0.011755703017115593, -0.005831119138747454, 0.013393722474575043, 0.017031274735927582, 0.02102658338844776, -0.006039231549948454, -0.0157576072961092, -0.02227763645350933, -0.0011719613103196025, -0.009176650084555149, 0.007386007346212864, -0.013868122361600399, -0.01929813250899315, 0.018205536529421806, -0.0051858751103281975, -0.010458859615027905, -0.012640205211937428, -0.004959451034665108, 0.010151268914341927], [0.0053324648179113865, -0.007588966283947229, -0.00900464691221714, -0.0016819809097796679, -0.010156862437725067, 0.004777317401021719, -0.0108242342248559, -0.015360877849161625, 0.003480218118056655, -0.014492105692625046, -0.005124571733176708, -0.009393369778990746, 0.003417855128645897, -0.01115779671818018, -0.001266977866180241, 0.014058304950594902, 0.012867762707173824, 0.02321052923798561, -0.00697107519954443, -0.010554559528827667, -0.014302635565400124, 0.0024916036054491997, -0.01100827194750309, 0.001136115868575871, -0.010060606524348259, -0.013293614611029625, 0.012513997964560986, -0.001661586808040738, -0.015383110381662846, -0.004613653756678104, -0.0034018680453300476, 0.00945991650223732], [0.010366528294980526, 0.015152481384575367, 0.0016172191826626658, 0.0027591644320636988, -0.006011639721691608, 0.010675466619431973, 0.013294922187924385, 0.011605022475123405, -0.013513391837477684, 0.014198210090398788, 0.006579311098903418, -0.012103077955543995, 0.002309904433786869, 0.006172579247504473, -0.0015393608482554555, -0.0034733496140688658, -0.01545142475515604, -0.004552442580461502, 0.009870114736258984, 0.014427199959754944, 0.01478563155978918, 0.004055799450725317, -0.0063509345054626465, -0.0009450941579416394, 0.004278840031474829, 0.015181398950517178, -0.01323954202234745, -0.0044382475316524506, -0.004570502322167158, 0.0020709694363176823, -0.006959500722587109, 0.004713404458016157], [0.0018816794035956264, -0.003147899406030774, -0.012320094741880894, -0.011991217732429504, -0.013514232821762562, 0.012550516054034233, -0.00964580848813057, -0.012562061659991741, -0.00033723851083777845, -0.024859152734279633, -0.0019120790529996157, -0.02427791617810726, 0.012108827009797096, -0.007431856356561184, -0.009402015246450901, 0.015932617709040642, 0.009013207629323006, 0.01917104981839657, -0.0017379304626956582, -0.00847525056451559, -0.025469060987234116, 0.003223070176318288, -0.011457781307399273, 0.01140508521348238, -0.013047218322753906, -0.020137883722782135, 0.013123564422130585, -0.009275630116462708, -0.012925724498927593, -0.010819271206855774, -0.012605973519384861, 0.014247183687984943], [-0.0029607682954519987, 0.0022273759823292494, 0.004376762080937624, 0.009379514493048191, 0.002094962866976857, -0.004471979103982449, 0.005911193322390318, -0.0007562033133581281, -0.0009278753423132002, 0.003061230992898345, -0.01233549416065216, 0.0013343573082238436, -0.009647177532315254, -0.0011743087088689208, 0.01007438451051712, -0.0005784325185231864, -0.0012019090354442596, -0.004458093084394932, -0.006633540615439415, 0.0030720075592398643, 0.005847185850143433, 0.0019218858797103167, -2.0862680685240775e-05, -0.00896734744310379, 0.007105761673301458, 0.0023260340094566345, -0.00569220120087266, 0.010790638625621796, -0.009622292593121529, -0.021302595734596252, 0.008525768294930458, -0.006322344299405813], [0.06021472439169884, 0.028294537216424942, -0.006388343870639801, -0.013279774226248264, -0.021855324506759644, 0.0164052601903677, 0.025570737197995186, 0.01236625388264656, -0.02263076789677143, -0.003691182006150484, 0.010758109390735626, -0.2558881640434265, 0.018245933577418327, 0.018411338329315186, -0.020162569358944893, 0.013089158572256565, -0.02525554969906807, 0.8390955328941345, 0.034147609025239944, 0.015379305928945541, 0.003662722185254097, 1.4465250968933105, -0.011837703175842762, 0.030359981581568718, 0.009671313688158989, 0.0010962329106405377, -0.01862752065062523, -0.01197836734354496, 0.01574769616127014, -0.3694813847541809, -0.029299482703208923, 0.010986319743096828], [-0.00446030730381608, -0.0010245060548186302, 0.008683769032359123, 0.014329832047224045, 0.010373150929808617, -0.014378594234585762, 0.006213514134287834, 0.0031329409684985876, 0.003831809386610985, 0.009862737730145454, -0.011077117174863815, 0.01087653636932373, -0.016169078648090363, 0.0017218791181221604, 0.015507965348660946, -0.007607948035001755, -0.0019915655720978975, -0.0012622670037671924, -0.00899062491953373, 0.0033169439993798733, 0.012704632245004177, 0.004596088081598282, 0.007826139219105244, -0.013183561153709888, 0.011058466508984566, 0.008280890062451363, -0.0073766522109508514, 0.015653232112526894, -0.0016463840147480369, -0.008199847303330898, 0.015533660538494587, -0.014592979103326797], [0.002758137183263898, -0.00699243089184165, -0.006780305411666632, -0.0003018116403836757, -0.0069031198509037495, 0.0008193475659936666, -0.0074802604503929615, -0.008266853168606758, 0.005183285102248192, -0.008177540265023708, -0.0022227487061172724, 0.0022745849564671516, 0.0016099241329357028, -0.010372738353908062, -0.00025422099861316383, 0.007606246508657932, 0.009585188701748848, 0.007272287271916866, -0.007222441490739584, -0.008344427682459354, -0.007014372851699591, 0.0015168064273893833, -0.007491814438253641, -0.0007673482759855688, -0.0060853674076497555, -0.006993831135332584, 0.007800484541803598, -0.0003353353531565517, -0.010575518943369389, -0.007840284146368504, -1.0241501513519324e-05, 0.005709684919565916], [0.002038242295384407, 0.00019171604071743786, -0.00799468345940113, -0.014831318520009518, -0.008524027653038502, 0.012822865508496761, -0.007176180835813284, -0.003421596484258771, -0.003465738147497177, -0.009722468443214893, 0.010732765309512615, -0.010348588228225708, 0.015396378003060818, -0.0013118295464664698, -0.01653192564845085, 0.007097506430000067, 0.002378724981099367, 0.005731821991503239, 0.009446822106838226, -0.003738395171239972, -0.013392037712037563, -0.005848417058587074, -0.007214749231934547, 0.013430841267108917, -0.011135200969874859, -0.008928338065743446, 0.008185617625713348, -0.015172635205090046, 0.002668070839717984, 0.010397855192422867, -0.014321135357022285, 0.013177972286939621], [-0.010098541155457497, -0.0005997840780764818, 0.00947089958935976, 0.004424628801643848, 0.012596984393894672, -0.009903539903461933, 0.003439253196120262, 0.004395400173962116, 0.0023883478716015816, 0.0071608382277190685, -0.003148149000480771, 0.02298002503812313, -0.008596702478826046, 0.005771893076598644, 0.006860827561467886, -0.012881994247436523, -0.0019357879646122456, -0.013853042386472225, -0.0015381986740976572, 0.002003933535888791, 0.007282895967364311, 0.0001762665342539549, 0.012947740964591503, -0.004475999157875776, 0.008850774727761745, 0.004139726050198078, -0.005128095392137766, 0.008278992027044296, 0.006807217840105295, -0.0012285747798159719, 0.009880543686449528, -0.012749245390295982], [0.0008446134743280709, 0.011817817576229572, 0.00850660540163517, 0.004645961336791515, 0.006433986593037844, -0.000911401235498488, 0.013577005825936794, 0.015840966254472733, -0.007811184972524643, 0.019408755004405975, 0.0058975801803171635, 0.003197524230927229, -0.00330102420412004, 0.010491017252206802, 0.0018899299902841449, -0.012621345929801464, -0.016698071733117104, -0.007924577221274376, 0.007999510504305363, 0.015361543744802475, 0.019183287397027016, -0.0005976817919872701, 0.006873683538287878, -0.0031872186809778214, 0.009354028850793839, 0.018565190955996513, -0.015071872621774673, 0.00034207222051918507, 0.011014255695044994, 0.017007125541567802, 0.0009668050333857536, -0.005807275418192148], [-0.10808330029249191, 0.004274052567780018, 0.01166092325001955, -0.02745223045349121, 0.016972023993730545, 0.014502162113785744, -0.004392161499708891, 0.006381290033459663, -0.0018789788009598851, 0.015932932496070862, 0.0025879645254462957, -1.1181265115737915, 0.008760768920183182, 0.0034838421270251274, -0.015254287980496883, -0.015377219766378403, -0.015428776852786541, -1.0335911512374878, 0.008213361725211143, 0.015508010983467102, -0.011591256596148014, 0.40612873435020447, 0.012919901870191097, 0.03373904898762703, -0.01136340294033289, -0.006986924447119236, -0.003406855743378401, -0.01833770051598549, 0.02471926063299179, -0.8210070729255676, -0.01690063811838627, 0.003284347476437688], [-0.0048969946801662445, -0.00804234016686678, 0.00048776157200336456, 0.006305304821580648, 0.0028936555609107018, -0.010441218502819538, -0.0030047958716750145, -0.006421878933906555, 0.009115384891629219, -0.0045906431041657925, -0.010094871744513512, 0.009018712677061558, -0.008076009340584278, -0.006953213829547167, 0.008237521164119244, 0.0025431255344301462, 0.00808528158813715, 0.0065223746933043, -0.013376264832913876, -0.005810561124235392, -0.002589704468846321, 0.001109030214138329, 0.0014395557809621096, -0.0071083251386880875, 0.0021531765814870596, -0.005038795992732048, 0.002723179990425706, 0.009444552473723888, -0.006086805835366249, -0.011821195483207703, 0.010497087612748146, -0.005886862054467201], [-0.000815917388536036, -0.010742696933448315, -0.009705972857773304, -0.007981156930327415, -0.0078086634166538715, 0.003195097204297781, -0.013399088755249977, -0.014460948295891285, 0.006583088077604771, -0.01974993757903576, -0.0032798401080071926, 0.0009705083211883903, 0.0063204276375472546, -0.009455697610974312, -0.004907207563519478, 0.01242665946483612, 0.015315381810069084, 0.007297424133867025, -0.00535015482455492, -0.015508027747273445, -0.02028040401637554, -0.0020776514429599047, -0.007883099839091301, 0.006621889304369688, -0.01026879157871008, -0.01915961503982544, 0.014906947501003742, -0.0032567025627940893, -0.009691967628896236, -0.01645406149327755, -0.003744286485016346, 0.007620533928275108], [-0.00017963844584301114, -0.0018982079345732927, -0.011874109506607056, -0.013567770831286907, -0.013466891832649708, 0.016043897718191147, -0.009587976150214672, -0.013111603446304798, -0.001973254606127739, -0.02398466132581234, 4.318737410358153e-05, -0.021415965631604195, 0.013811307959258556, -0.006422511301934719, -0.01132878102362156, 0.01795816607773304, 0.007981086149811745, 0.034170109778642654, 0.000156932816025801, -0.007683347444981337, -0.027036793529987335, 0.008255413733422756, -0.0129816560074687, 0.014004824683070183, -0.014123896136879921, -0.021667106077075005, 0.013281825929880142, -0.012072171084582806, -0.011372143402695656, -0.00601751497015357, -0.014328927733004093, 0.015718914568424225], [-0.026217034086585045, -0.0005021317629143596, 0.0023222744930535555, 0.018670085817575455, 0.0005711378180421889, 0.00024461332941427827, -0.0032539137173444033, -0.010806772857904434, 0.0009834998054429889, 0.004973588045686483, -0.0019931597635149956, -0.26433658599853516, -0.010961610823869705, -0.011078976094722748, 0.01231181900948286, -0.0032276231795549393, 0.00307363155297935, -0.20514675974845886, -0.00793476402759552, 0.0024967219214886427, -0.0023476057685911655, 0.45230478048324585, -0.0037147519178688526, -0.015544505789875984, -0.0032139529939740896, -0.0016514846356585622, 0.001968205673620105, 0.005756605416536331, -0.017554456368088722, -2.009066343307495, 0.005431610159575939, 0.002554519334807992], [0.011909876018762589, 0.0058813635259866714, -0.010084843263030052, -0.002226037671789527, -0.01709427870810032, 0.011627892032265663, 0.0024043952580541372, 0.00267300708219409, -0.006686112843453884, 0.0010302390437573195, 0.005765895824879408, -0.012070393189787865, 0.00772798340767622, -0.006560288369655609, -0.005914719775319099, 0.009675911627709866, -0.004480785224586725, 0.012915578670799732, 0.0035112625919282436, 0.0038223927840590477, 0.0021369585301727057, 0.005463050212711096, -0.01653916947543621, 0.0020363344810903072, -0.005816610064357519, 0.005389186553657055, -0.0014777523465454578, -0.0080528873950243, -0.010498692281544209, -0.011597825214266777, -0.010834066197276115, 0.013973788358271122], [0.004830754827708006, -0.0020713515114039183, 0.008742894046008587, 0.020985150709748268, 0.009862961247563362, -0.018603242933750153, 0.007729978766292334, 0.004758097697049379, 0.005955460015684366, 0.01428486779332161, -0.012182391248643398, 0.005131802521646023, -0.019329750910401344, 0.00022522537619806826, 0.018305866047739983, -0.008481713011860847, -0.0015836971579119563, -0.017357558012008667, -0.011519014835357666, 0.0032373308204114437, 0.01959509402513504, 0.00639711506664753, 0.006925435271114111, -0.02127922512590885, 0.013713512569665909, 0.014183111488819122, -0.009386514313519001, 0.019846802577376366, -0.004884754773229361, -0.010023823007941246, 0.01963493600487709, -0.016498129814863205], [0.0039091710932552814, -0.006766778416931629, -0.012005243450403214, -0.008879720233380795, -0.012071043252944946, 0.007571827620267868, -0.012386907823383808, -0.011060192249715328, 0.0027688059490174055, -0.01590750738978386, 0.0028640148229897022, 0.0008477479568682611, 0.00994391180574894, -0.009562505409121513, -0.007830476388335228, 0.011391808278858662, 0.010634246282279491, 0.02534683607518673, -0.0018621383933350444, -0.009988957084715366, -0.016659263521432877, -0.0024298729840666056, -0.010119272395968437, 0.007473546080291271, -0.014066694304347038, -0.011960807256400585, 0.013971571810543537, -0.008984190411865711, -0.00896545685827732, 0.0038285022601485252, -0.009321714751422405, 0.013738393783569336], [0.0006416912074200809, -0.0011195087572559714, -0.006861852016299963, -0.011308969929814339, -0.007991665974259377, 0.013005953282117844, -0.0071252696216106415, -0.011961827985942364, -0.0025104088708758354, -0.018657607957720757, -0.00022231035109143704, -0.023985737934708595, 0.01049098465591669, -0.003520325757563114, -0.009807330556213856, 0.015665696933865547, 0.006703267805278301, 0.027695627883076668, 0.0017192078521475196, -0.006297426763921976, -0.021747225895524025, 0.005044765770435333, -0.009412531740963459, 0.012334632687270641, -0.00986846350133419, -0.022629935294389725, 0.00980384647846222, -0.009139719419181347, -0.006589754484593868, -0.0007009809487499297, -0.009702134877443314, 0.01013459637761116], [-0.0008832209277898073, 0.010755795054137707, 0.013193562626838684, 0.00953176710754633, 0.012051894329488277, -0.0068825301714241505, 0.01596835069358349, 0.01645214855670929, -0.005754340905696154, 0.022463951259851456, 0.0023965134751051664, -0.0013151017483323812, -0.009077707305550575, 0.012287469580769539, 0.006683144718408585, -0.01501808688044548, -0.016052845865488052, -0.027737129479646683, 0.005685062147676945, 0.01484191045165062, 0.02315511554479599, 0.0015215351013466716, 0.011253434233367443, -0.007854307070374489, 0.014880115166306496, 0.019234469160437584, -0.018083296716213226, 0.006369329988956451, 0.012574574910104275, 0.011688411235809326, 0.007267429959028959, -0.012599318288266659], [0.0027476658578962088, 0.0012375127989798784, -0.0067785256542265415, -0.013570222072303295, -0.007620053831487894, 0.013900796882808208, -0.005786866415292025, -0.0021514631807804108, -0.0039435685612261295, -0.0072898841463029385, 0.01162287499755621, -0.008359869942069054, 0.014670663513243198, -0.00030310999136418104, -0.014666713774204254, 0.006816965527832508, 0.0009053883841261268, 0.007126538082957268, 0.009361175820231438, -0.0021156498696655035, -0.010627293959259987, -0.0032178261317312717, -0.007480331230908632, 0.01245243102312088, -0.010435568168759346, -0.006062016822397709, 0.006514071486890316, -0.016032768413424492, 0.004146968480199575, 0.01573655754327774, -0.01473977416753769, 0.013387233950197697], [0.01286379899829626, 0.011880172416567802, -0.001066390541382134, 0.012414450757205486, -0.009409107267856598, 0.009873362258076668, 0.014379149302840233, 0.005691688507795334, -0.008848820813000202, 0.012534643523395061, -0.0026583571452647448, -0.01435849443078041, -0.004529042635113001, -0.004780641291290522, 0.007151789031922817, 0.002602698514238, -0.008901518769562244, -0.013727971352636814, -0.0031524328514933586, 0.010005339980125427, 0.01777363382279873, 0.013858569785952568, -0.008155854418873787, -0.011266530491411686, 0.006273470353335142, 0.01264058705419302, -0.014396526850759983, 0.004671796225011349, -0.0182684026658535, -0.029067086055874825, -0.0002555862592998892, 0.005202455446124077], [0.009269495494663715, -0.006016021594405174, -0.002127068117260933, 0.02901386097073555, 0.004826036281883717, -0.015177172608673573, -0.004241071175783873, -0.0134670315310359, 0.009474986232817173, 0.00440096203237772, 0.0022492913994938135, -0.40732282400131226, -0.012090210802853107, -0.006647618021816015, 0.011998158879578114, -0.00516566913574934, 0.0074683018028736115, -0.37502485513687134, -0.006840546149760485, -0.0026945595163851976, 0.00843243021517992, 2.233891248703003, 0.014327396638691425, -0.02348439209163189, -0.001632855273783207, 0.007654210086911917, 0.0034519892651587725, 0.010475399903953075, 0.008727221749722958, 0.4292505979537964, 0.0063021439127624035, -0.001275125308893621], [0.004393802490085363, 0.0028499525506049395, -0.007486566435545683, -0.009971900843083858, -0.011783679947257042, 0.013681851327419281, -0.0036178086884319782, -2.2379044821718708e-05, -0.0046323793940246105, -0.0048114582896232605, 0.010482625104486942, -0.008402343839406967, 0.01265361811965704, -0.001210589543916285, -0.010904411785304546, 0.0033877852838486433, -0.0012316814390942454, 0.0099716205149889, 0.0077562895603477955, 0.0003953202103730291, -0.007028018590062857, -0.002637209603562951, -0.0061661964282393456, 0.009485739283263683, -0.009679057635366917, -0.0017309129470959306, 0.004247135482728481, -0.01394224725663662, 0.0013796166749671102, 0.01472496334463358, -0.0167467650026083, 0.014962718822062016], [-0.008763079531490803, -0.0018750193994492292, 0.009296685457229614, 0.005282965023070574, 0.01303990837186575, -0.011255614459514618, 0.0028595917392522097, 0.001655109692364931, 0.0035920559894293547, 0.0066846744157373905, -0.007602086290717125, 0.00832144170999527, -0.009818597696721554, 0.0038809687830507755, 0.007495655678212643, -0.007208716124296188, -0.0009605741943232715, -0.008209490217268467, -0.003919040784239769, 0.0013734184904024005, 0.006066779140383005, -0.0010339368600398302, 0.01029033213853836, -0.00521367322653532, 0.008200178854167461, 0.0019089997513219714, -0.004097007215023041, 0.010262621566653252, 0.007429362274706364, -0.0040916334837675095, 0.012105879373848438, -0.015065563842654228], [-0.00196046638302505, -0.002786939265206456, 0.0015055512776598334, 0.0004356823628768325, 0.003497104626148939, -0.000425501202698797, -0.0021885684691369534, -0.001721031847409904, 0.003672855207696557, 0.003754687961190939, -0.0026858604978770018, -0.002727929502725601, -0.0017209601355716586, -0.0025620905216783285, 0.001102834241464734, -0.001322166295722127, 0.0014791253488510847, -0.01054839976131916, -0.0028678658418357372, -5.989656983729219e-06, -6.324868445517495e-05, 0.0010004877112805843, 0.0020101978443562984, -0.0005153954261913896, -0.001965871313586831, 0.00034627484274096787, 0.0014045382849872112, 0.0004168963641859591, 0.0006017620326019824, 0.012126068584620953, 0.0007966951816342771, 0.00030731811420992017], [-0.0006048850482329726, -0.0006443464080803096, 8.660456660436466e-05, -0.000162596843438223, 0.0008723565842956305, -0.0005882846307940781, -0.0009113207343034446, -0.0001542809186503291, 0.000530821387656033, 0.0009167199023067951, -0.0007949154824018478, 0.004648575559258461, -0.00017509660392533988, -0.0007680956623516977, 0.00019008491653949022, -0.0011901591205969453, 0.0005578551208600402, -0.0004695628012996167, -0.0007310148212127388, -0.00036856322549283504, 0.0008607871131971478, 0.002055430319160223, 0.001492893323302269, -0.0002215910208178684, -0.0005930285551585257, 0.000491528189741075, 0.0004828423261642456, 0.0002934551448561251, -0.00032629145425744355, 0.004327172413468361, 0.00042497285176068544, -0.00019953609444200993], [-0.0004830457328353077, 2.6352250642958097e-05, 4.732162778964266e-05, 8.992908260552213e-05, 0.00016427741502411664, -3.0388378945644945e-05, 2.0589455743902363e-05, 9.817558020586148e-05, -4.502524097915739e-05, 0.00015360857651103288, 3.12422780552879e-05, 0.00012253779277671129, -7.564482802990824e-05, -2.0147716384144587e-07, 9.563165076542646e-05, -0.00020772049902006984, -2.705979932215996e-05, -0.003983825445175171, 7.123428076738492e-05, 2.1363824998843484e-05, 7.833864947315305e-05, -0.0017219922738149762, 0.0001053493469953537, -9.56588628469035e-05, -3.430463402764872e-05, 0.0001378650777041912, -1.0915225175267551e-05, 5.381889423006214e-05, -0.00012359202082734555, 0.0011142621515318751, 5.778696868219413e-05, 5.941735253145453e-06], [-9.065624908544123e-05, -3.0437604436883703e-05, 1.0676036254153587e-05, -2.1621135601890273e-05, 6.533064151881263e-06, 2.0266534193069674e-05, -4.2343803215771914e-05, -3.179363193339668e-05, 2.0163604858680628e-05, -6.830032361904159e-07, -4.3520412873476744e-05, -0.0014885321725159883, 8.621042866252537e-07, -6.594038131879643e-05, 3.826015927188564e-06, -8.873705155565403e-06, 2.6534637072472833e-05, 8.329925913130865e-05, -4.389890091260895e-05, -6.235030468815239e-06, -1.2621191672224086e-05, -0.0014512453926727176, -4.139308202866232e-06, 5.453059088722512e-07, -2.0632676751120016e-05, -2.1804278730996884e-05, 2.7344540285412222e-05, -3.502611434669234e-06, -7.423558417940512e-05, 0.0008734976290725172, -1.6944999288170948e-06, -1.527383938082494e-05], [-0.002036008518189192, -0.00013908385881222785, 0.00020767386013176292, 0.00028515755548141897, 0.000609368144068867, -0.00012115683784941211, -0.00018184236250817776, 6.370695336954668e-05, 0.00014499918324872851, 0.00043434128747321665, -0.0002582677989266813, -0.000864276138599962, -0.0002741962089203298, -0.0004943837411701679, 0.0003629661805462092, -0.0006925174384377897, 0.00011532783537404612, -0.010219648480415344, -0.0004499829956330359, -1.2357745617919136e-05, 0.00014488020678982139, 8.53242163429968e-05, 0.0006959260208532214, -0.00043470688979141414, -0.00036533953971229494, 0.00030145864002406597, 0.0001181797415483743, 0.00021993140398990363, -0.0008222647593356669, 0.00221357773989439, 0.00014910433674231172, 1.0305697628609778e-07], [-0.00042963065789081156, -0.0005474977660924196, -6.0156242398079485e-05, -8.236852590925992e-05, 0.0005030683241784573, -0.00033324718242511153, -0.0006853350787423551, -0.00010858333553187549, 0.0004719275748357177, 0.000432743807323277, -0.0005290306289680302, -0.00275745359249413, -0.00010519934585317969, -0.0005419703084044158, 8.959280967246741e-05, -0.0006041855667717755, 0.0003495996061246842, -0.0025016055442392826, -0.0003996781597379595, -0.00023126084124669433, 0.0003459904110059142, 0.0011665481142699718, 0.0006559283938258886, -0.00013494593440555036, -0.00038312305696308613, 0.0003588577383197844, 0.0003729302843566984, 0.0001447377580916509, -0.0001521349768154323, 0.0003647305129561573, 0.00026681600138545036, -0.00012537988368421793], [-0.0008122435538098216, -0.001087210956029594, 0.00011556074605323374, -0.00019946412066929042, 0.0009456670377403498, -0.0009380920673720539, -0.0009485307964496315, -0.0001127498471760191, 0.001155801466666162, 0.0008958079270087183, -0.0007684101583436131, 0.004943679552525282, -0.00028857082361355424, -0.0009180745109915733, 0.0003114453284069896, -0.0012266181875020266, 0.0006851300713606179, 6.180284981383011e-05, -0.0012042747111991048, -0.0003630732244346291, 0.0008129355846904218, 0.0010191425681114197, 0.0017010379815474153, -0.0003360271512065083, -0.0005375632899813354, 0.0006781163392588496, 0.0005187045899219811, 0.0003055954584851861, 5.792776573798619e-05, 0.005020505283027887, 0.0004690531059168279, -0.00024806015426293015], [-0.0002776802866719663, -0.00017532867786940187, 0.00013861064508091658, -8.836472261464223e-05, 0.00029248965438455343, -0.0001431555429007858, -6.317561928881332e-05, -8.574756793677807e-05, 0.0001762496103765443, 0.00014543575525749475, -0.0001131739845732227, 0.0007590975728817284, -3.985477451351471e-05, -0.0001614722132217139, 5.179780782782473e-05, -8.251894178101793e-05, 0.0001637857931200415, 0.0013408261584118009, -0.00030571044771932065, -7.326532067963853e-05, 0.0002023874403676018, 0.000767524354159832, 0.00039444485446438193, -4.250618803780526e-05, 3.1100840715225786e-05, 7.01141616445966e-05, -9.001872967928648e-06, 2.3066815629135817e-05, 6.845727057225304e-06, 0.003617543028667569, 5.023442645324394e-05, -0.00012046733900206164], [-0.001075499108992517, -0.0003221574879717082, 1.3150026461516973e-05, -1.0538768947299104e-05, 0.0005576408584602177, -0.00023661374871153384, -0.0005805192631669343, -0.00016992299060802907, 0.00032180326525121927, 0.0006307789008133113, -0.00033375690691173077, 0.0014697706792503595, -8.292926213471219e-05, -0.0003194376186002046, 5.755961319664493e-05, -0.0008199764415621758, 0.00022673211060464382, -0.002322243992239237, -0.0002271562843816355, -0.00012632337165996432, 0.00047893577720969915, 0.0029152913484722376, 0.0007712705410085618, -0.00011856137280119583, -0.0006137469899840653, 0.0003095526772085577, 0.00039237888995558023, 0.00012108030205126852, -2.877329825423658e-05, 0.0031072371639311314, 0.00025668449234217405, -4.621493644663133e-05], [-0.0023957048542797565, -0.0004486109537538141, 0.0002200641465606168, 0.00015036553668323904, 0.0006316001527011395, -0.00016034206782933325, -0.0004940264625474811, -9.420341666555032e-05, 0.000556408369448036, 0.0004782056203112006, -0.00046574106090702116, -0.003202276537194848, -0.0003593169676605612, -0.000740993011277169, 0.0004090102738700807, -0.0008893916965462267, 0.00022747370530851185, -0.0025521470233798027, -0.0008484100690111518, 9.70309047261253e-05, 0.00012684424291364849, 0.0005656018038280308, 0.0007766141789034009, -0.00046669039875268936, -0.0004442912759259343, 0.0002746454265434295, 0.0001971918682102114, 0.00018641505448613316, -0.0005901137483306229, 0.0013719291891902685, 0.00024533370742574334, 2.0200333892717026e-05], [0.0003772569471038878, -0.0006530404789373279, 0.0001982071262318641, -0.00021250121062621474, 0.00047893106238916516, -0.0004450863052625209, -0.00025394000113010406, 6.129138637334108e-05, 0.0004841912887059152, 0.0006350457551889122, -0.0007374706910923123, 0.007297871168702841, -0.00017667959036771208, -0.0007723079179413617, 0.00022163623361848295, -0.00044961582170799375, 0.0005130147910676897, -0.0016122318338602781, -0.0008210553205572069, -0.00031519634649157524, 0.0010908100521191955, -0.0021978430449962616, 0.0010009927209466696, -0.00017859030049294233, 0.0002522893773857504, 0.0004126135027036071, -0.0001707619521766901, 0.00025512478896416724, -0.0006150247063487768, 0.0014708967646583915, 0.0002527893811929971, -3.383874354767613e-05], [-0.09747577458620071, -0.013033955357968807, 0.021264152601361275, 0.03851282224059105, 0.03943878039717674, -0.03344833478331566, -0.003339160233736038, -8.559873094782233e-05, 0.017089391127228737, 0.022947298362851143, -0.024623215198516846, -0.060279153287410736, -0.04681409150362015, -0.0017458746442571282, 0.03852394223213196, -0.018646150827407837, 0.0007874626317061484, -1.138299584388733, -0.02746553346514702, 0.0013498159823939204, 0.004195203073322773, -1.332165002822876, 0.02332152985036373, -0.03024376556277275, 0.012515985406935215, 0.0022775442339479923, -0.0031791196670383215, 0.04057241976261139, -0.004205355420708656, 0.7299462556838989, 0.047439027577638626, -0.026874098926782608], [0.0002450361498631537, -2.9763657948933542e-05, -5.5211556173162535e-05, -2.158240749849938e-05, -6.461705197580159e-05, -2.3545782823930494e-05, -2.730069354583975e-05, -1.5592393538099714e-05, 2.1923378312749264e-07, -4.325075860833749e-05, -5.3795487474417314e-05, -0.0009767812443897128, 6.604524969588965e-06, -4.558227738016285e-05, -4.332303433329798e-06, 3.888704304699786e-05, 3.8300302549032494e-05, -0.000714715279173106, -1.980546221602708e-05, -4.134062328375876e-05, 2.048188616754487e-05, -0.0009221842046827078, -5.558215343626216e-05, 6.103095984144602e-06, -1.3523675988835748e-05, -7.103886218828848e-06, 3.58919714926742e-05, 1.8567223378340714e-05, -9.753378253662959e-05, 0.0009626640239730477, 1.5413048970458476e-07, -2.3685784071858507e-06], [-0.0006518128211610019, -0.0008197483257390559, 0.0001847208186518401, -0.00019161839736625552, 0.0006821678252890706, -0.0005428690928965807, -0.0007795310812070966, -0.0002439008530927822, 0.0005712473066523671, 0.0008593839593231678, -0.0009079977171495557, 0.007973343133926392, -0.00023658348072785884, -0.0009770209435373545, 0.000270870397798717, -0.0011006100103259087, 0.0006829063640907407, -0.0032062584068626165, -0.0009008220513351262, -0.0004356247663963586, 0.001128211384639144, 0.0004175214853603393, 0.0014870129525661469, -0.0002351502189412713, -0.0003274523769505322, 0.00046766601735726, 0.00035393418511375785, 0.0003324684512335807, -0.001011225045658648, 0.0026706841308623552, 0.0003953235282097012, -0.00025159757933579385], [0.00010170849418500438, -3.5704793845070526e-05, -7.845734944567084e-05, -2.024400237132795e-05, -8.490321488352492e-05, 2.122525984304957e-06, -5.614246765617281e-05, -3.7571815482806414e-05, 2.5608546820876654e-06, -5.8370067563373595e-05, -7.008134707575664e-05, -0.0008472207700833678, 9.57198062678799e-06, -7.282508158823475e-05, -2.7234973458689637e-06, 2.8457203370635398e-05, 4.374891796032898e-05, -0.0009713225299492478, -2.46578456426505e-05, -3.6094112147111446e-05, 1.9641932169633947e-07, -0.0009856232209131122, -6.615898746531457e-05, 8.465488463116344e-06, -3.7211681046755984e-05, -2.641647370182909e-05, 6.262808892643079e-05, 9.58713917498244e-06, -0.00014282623305916786, 0.00017514207866042852, -8.652867222735949e-07, 3.757592139663757e-06], [-0.0005559873534366488, -0.0006263594841584563, 4.1207546018995345e-05, 2.5916760932886973e-05, 0.0005126491887494922, -0.0003952014958485961, -0.0007427636883221567, -0.00018891578656621277, 0.0007123879622668028, 0.0007836715667508543, -0.0006780323456041515, -0.00031249361927621067, -0.00028613428003154695, -0.0009495673002675176, 0.000228731325478293, -0.0009661452495492995, 0.0003943982010241598, -0.003909355960786343, -0.0006515797576867044, -8.569310011807829e-05, 0.00027411439805291593, -5.139797576703131e-05, 0.0007608613814227283, -0.00022434386482927948, -0.0004966678097844124, 0.0005527784815058112, 0.00039432887570001185, 0.0002715468581300229, -0.0002050243638223037, 0.0010748568456619978, 0.00025076817837543786, 2.2675454601994716e-05], [-0.00012664120004046708, -0.00046667701099067926, 5.095426240586676e-05, -0.00016202076221816242, 0.0003465142799541354, -0.00028444663621485233, -0.0004477892944123596, -0.00014379681670106947, 0.00033415513462387025, 0.00034409179352223873, -0.0005013031768612564, 0.003100382862612605, -7.481715874746442e-05, -0.0005197341670282185, 8.322327630594373e-05, -0.0004267235635779798, 0.00038183582364581525, -0.0009341694531030953, -0.000476844550576061, -0.00025784067111089826, 0.0005351962172426283, 0.000397563970182091, 0.0007455248269252479, -7.609691238030791e-05, -0.00011091268970631063, 0.00016422243788838387, 0.00022553476446773857, 0.00014546571765094995, -0.0003727313887793571, 0.003975369036197662, 0.00020024047989863902, -0.00016690860502421856], [0.012733392417430878, -0.013789736665785313, -0.0037559063639491796, 0.010147529654204845, -0.005614332389086485, -0.02334086410701275, -0.0017883135005831718, 0.01282262522727251, 0.01814219169318676, 0.014623083174228668, -0.02065207064151764, -0.09394018352031708, -0.012380167841911316, -0.01601976342499256, 0.019326908513903618, -0.025911876931786537, 0.004458138719201088, 0.36374419927597046, -0.025653207674622536, -0.0029804345685988665, 0.020553242415189743, 0.1342540681362152, 0.013016605749726295, -0.015975061804056168, 0.004290769807994366, 0.022088898345828056, -0.0027005821466445923, 0.01825486309826374, -0.02532125823199749, 0.24902868270874023, 0.010374791920185089, -0.0064964513294398785], [-0.000490501755848527, -0.0006261898088268936, 0.0002087237808154896, -0.00016075609892141074, 0.00026266046916134655, -0.00021250676945783198, -0.000978621537797153, -0.00047102090320549905, 0.00026006740517914295, 0.0004128937143832445, -0.0007960795774124563, 0.006950506009161472, -8.867340511642396e-05, -0.0008328967960551381, 0.00011191461817361414, -0.0008509499602951109, 0.0005910767940804362, -0.002323075430467725, -0.0004698159173130989, -0.0004649027541745454, 0.0010946133406832814, 0.001860587508417666, 0.00030730364960618317, -0.00011377091141184792, -0.0006319654639810324, 2.454305467836093e-05, 0.0007684365846216679, 0.00025649150484241545, -0.0012786854058504105, 0.0018105758354067802, 0.0003063209296669811, -0.0002710550033953041], [-0.00043263559928163886, -0.0003233260358683765, 2.035940451605711e-05, -7.589376764371991e-05, 0.00021180871408432722, -0.00017948377353604883, -0.00024138686421792954, 4.894302037428133e-06, 0.00031342849251814187, 0.0003320275282021612, -0.00032586176530458033, 0.0012288381112739444, -9.573542774887756e-05, -0.0003901617892552167, 8.58152488945052e-05, -0.00018602170166559517, 0.0002259447064716369, -0.0027326138224452734, -0.0004172464250586927, -9.180805500363931e-05, 0.00030128980870358646, -0.00014890788588672876, 0.00016705501184333116, -0.00010561418457655236, -6.77608186379075e-05, 0.00018476064724382013, 6.819110421929508e-05, 8.825981058180332e-05, -8.704260835656896e-05, 0.0010610994650050998, 0.0001506902917753905, -7.291921065188944e-05], [-0.0011050390312448144, -9.863710874924436e-05, 0.0001235850213561207, 3.0354469345184043e-05, 0.00031749921618029475, -6.35182877886109e-05, -0.0001669871708145365, 2.6705049094744027e-05, 0.00018931689555756748, 0.00021490329527296126, 9.179222251987085e-05, -0.004221116192638874, -0.0001587281294632703, 2.181642412324436e-05, 0.00016385420167353004, -0.000396851624827832, 3.815536911133677e-05, 0.0014298061141744256, -9.375589434057474e-05, 6.408600165741518e-05, -3.630426726886071e-05, 0.003252047346904874, 0.00044902737135998905, -0.00019485664961393923, -0.00014813542657066137, 6.22444276814349e-05, 7.804412598488852e-05, 6.631053111050278e-05, 0.0005872588371858001, 0.0024085023906081915, 0.00013584128464572132, -3.43340179824736e-05], [0.0682033821940422, 0.030140256509184837, 0.007088907063007355, -0.01184170227497816, 0.0027281269431114197, 0.02394125796854496, 0.02386399917304516, 0.0015382991405203938, -0.02961389161646366, -0.011428283527493477, 0.02403920516371727, -0.8833357691764832, 0.016314387321472168, 0.028537485748529434, -0.024093229323625565, 0.029742032289505005, -0.015135477297008038, 0.5133163928985596, 0.04311688244342804, 0.011165792122483253, -0.003543125931173563, 0.04316839203238487, -0.019175393506884575, 0.0188798438757658, 0.018590033054351807, -0.026303183287382126, -0.018085883930325508, -0.01485307328402996, 0.0148931834846735, -0.30293145775794983, 0.0011992385843768716, -0.007606652565300465], [-0.0022396056447178125, -0.0007178352680057287, 0.00014665568596683443, -0.0001721195731079206, 0.0009499870939180255, -0.00010346086492063478, -0.0004409571993164718, -2.042656524281483e-05, 0.0009061142918653786, 0.0008497406379319727, -0.0005321089411154389, 0.002059903694316745, -0.0002783451636787504, -0.0006324312998913229, 0.00014326685050036758, -0.0009441004949621856, 0.0002595197584014386, -0.014159011654555798, -0.0009955816203728318, 0.00011432792962295935, 0.00027381739346310496, 0.00330752064473927, 0.001021318370476365, -0.00020766329544130713, -0.0006809099577367306, 0.00048600882291793823, 3.0124849217827432e-05, 6.90086671966128e-05, 0.0001279547723243013, 0.005202542990446091, 0.00022005087521392852, -2.534724262659438e-05], [0.0003744950226973742, 1.723312925605569e-05, -5.1889903261326253e-05, -1.0039801054517739e-05, -3.12814190692734e-05, 1.0944612768071238e-05, 1.0883734830713365e-05, -1.3451121958496515e-05, -2.985660103149712e-05, -4.519661524682306e-05, 1.2894400242657866e-05, -0.0012245214311406016, 3.2973315683193505e-05, 3.7446774513227865e-05, -3.0284729291452095e-05, 5.6265766033902764e-05, 3.2217492389463587e-06, -0.0014115023659542203, 4.379649544716813e-05, -2.3310936740017496e-05, 8.057036029640585e-05, -8.737533062230796e-05, 3.767918678931892e-05, 2.75514685199596e-05, -4.669101326726377e-05, -2.3939663151395507e-05, 1.7719630704959854e-05, -9.005329957290087e-06, 3.0236267775762826e-05, 0.00042476155795156956, -1.3758943168795668e-05, -3.1049992685439065e-05], [-0.000721760734450072, -0.0003939012240152806, 3.064005431951955e-05, 8.024953785934485e-06, 0.00027717286138795316, -0.0002847127034328878, -0.00041331551619805396, -8.17319451016374e-05, 0.0005004029371775687, 0.0002849027805496007, -0.00015649198030587286, 0.0014073950005695224, -0.00015737666399218142, -0.00033398476080037653, 0.00015420150884892792, -0.0005173150566406548, 0.00019587854330893606, -0.00017440550436731428, -0.0004118632641620934, -7.113030005712062e-05, 0.00020550668705254793, -6.668438436463475e-05, 0.0005684795905835927, -0.00019273499492555857, -0.0002941540442407131, 0.0002668491215445101, 0.0002545148890931159, 0.00010422141349408776, 0.00024250769638456404, 0.002896757097914815, 0.00020224683976266533, -3.9607570215594023e-05], [-0.0004883155925199389, -0.0002317495527677238, 6.77465068292804e-05, -4.57580017609871e-06, 0.0002772742882370949, -0.0001469036069465801, -0.0001983150141313672, -1.2482370038924273e-05, 0.0002860742970369756, 0.00026390806306153536, -0.00016034094733186066, -0.0033655590377748013, -9.582253551343456e-05, -0.00021134017151780427, 9.3788345111534e-05, -0.0003452342061791569, 0.00011067143350373954, 0.0016118378844112158, -0.0002988231717608869, -2.4194187062676065e-05, 0.0001419849431840703, 0.0014163082232698798, 0.00039318573544733226, -0.00012041640729876235, -0.00014248806110117584, 9.027393389260396e-05, 6.810715422034264e-05, 6.137284071883187e-05, 0.000136265778564848, 0.0017425239784643054, 0.00010126573033630848, -2.7801375836133957e-05], [-0.0006103442283347249, -0.00043225177796557546, 3.2578405807726085e-05, -0.0001092413003789261, 0.00039750165888108313, -0.0004754844412673265, -0.00042863376438617706, 2.255471918033436e-05, 0.0005801554070785642, 0.00035403622314333916, -0.00011783335503423586, 0.003161680418998003, -0.00014883231779094785, -0.000321785279083997, 0.00016778591088950634, -0.0005978055414743721, 0.0002752444997895509, -0.0004667196189984679, -0.0006510075181722641, -0.00012430988135747612, 0.0003644085954874754, 0.0004770991508848965, 0.0008986679604277015, -0.0001886715617729351, -0.00026012962916865945, 0.000422619137680158, 0.00026291655376553535, 0.00012242826051078737, 0.0003941078612115234, 0.00410072086378932, 0.00024914497043937445, -0.00013594389019999653], [-6.634288729401305e-05, -0.00011311531852697954, -5.8652894949773327e-05, -4.396869917400181e-05, -1.8092821392201586e-06, -5.332518048817292e-05, -4.993420952814631e-05, -2.1493021904461784e-06, 9.998646419262514e-05, 1.974559017980937e-05, -0.00011741049092961475, -0.0006603371002711356, -1.7538457541377284e-05, -0.00012162613711552694, 1.2957288163306657e-05, -4.463135155674536e-06, 7.210636249510571e-05, -0.0015399649273604155, -0.00012826206511817873, -4.468322731554508e-05, 8.851994789438322e-05, -0.0014167921617627144, 7.409832323901355e-05, -1.4275683497544378e-05, -1.1174362043675501e-05, 4.8024154239101335e-05, 1.1118655493191909e-05, 1.8314534827368334e-05, -3.4714008506853133e-05, -0.0002534962259232998, 2.437820876366459e-05, -2.6801186322700232e-05], [-0.004175492562353611, -0.002033202676102519, -8.765999518800527e-05, -0.0008814670145511627, -0.00010157909127883613, -0.0007059434428811073, -0.0022978712804615498, -0.0008703440544195473, 0.0016106019029393792, 0.00042437363299541175, -0.002627268200740218, 0.015364613384008408, -0.0006548456731252372, -0.00309754372574389, 0.0006526956567540765, -0.0011696210131049156, 0.0016668977914378047, -0.019623834639787674, -0.003038533264771104, -0.0006270575686357915, -9.929012594511732e-05, 0.00823821872472763, 0.00042922492139041424, -0.00042590414523147047, -0.0012335798237472773, 0.0001297867565881461, 0.001108141033910215, 0.0005501771229319274, -0.0028012609109282494, -0.0012181585188955069, 0.0005176545237191021, 1.3979061805002857e-05], [-0.0030964072793722153, 0.009284109808504581, -0.014052975922822952, 0.002952383831143379, -0.02401803247630596, 0.017566019669175148, 0.0039570811204612255, 0.004518007393926382, -0.009274640120565891, -0.0010222657583653927, 0.015494485385715961, -0.3814677894115448, 0.00815484020859003, -0.0036809828598052263, -0.0013793016551062465, 0.01681527867913246, -0.007569878362119198, 0.49313056468963623, -0.0035716139245778322, 0.010177566669881344, -0.0016588083235546947, 0.48169010877609253, -0.019121741876006126, -0.003006288781762123, -0.00946686789393425, 0.00981366541236639, 0.0024127080105245113, -0.009706409648060799, -0.003557274816557765, -0.0860246941447258, -0.011726221069693565, 0.010093784891068935], [0.0001851059787441045, -0.0001676744141150266, -4.035166057292372e-05, -3.954816929763183e-05, 2.84929592453409e-05, -0.0001581255637574941, -0.00013207897427491844, -2.7986861823592335e-05, 0.00017292304255533963, 8.442823309451342e-05, -0.00012897845590487123, -0.0008480557007715106, -1.5734221960883588e-05, -0.00012339133536443114, 1.7069145542336628e-05, -0.00013348404900170863, 9.893310198094696e-05, -0.000552964920643717, -0.00013701613352168351, -8.072754280874506e-05, 7.520180224673823e-05, -0.0008281568880192935, 0.0001857144379755482, -3.0357072319020517e-05, -7.298429409274831e-05, 0.00010384786583017558, 7.773398829158396e-05, 4.446320599527098e-05, 8.043329580686986e-05, 0.0018034817185252905, 2.0056197172380053e-05, -2.1660271158907562e-05], [-5.74915247852914e-06, 2.5385083063156344e-05, 2.327306447114097e-06, 6.804245458624791e-06, 1.3400880561675876e-05, 2.3344207875197753e-05, 2.451326508889906e-05, -4.325370355218183e-06, -1.421155047864886e-05, 1.2777984920830932e-05, 4.772728061652742e-06, -0.0017249039374291897, 1.1787989024014678e-05, 1.629238249734044e-05, -9.750841854838654e-06, 9.681845767772757e-06, -1.1500497748784255e-05, -0.0016846663784235716, 1.931227780005429e-05, 1.1974037079198752e-05, 1.1532412827364169e-05, -0.001653323881328106, 2.5660162918939022e-06, 3.879475571011426e-06, 2.109396518790163e-06, 2.2207184713352035e-07, -1.2540825082396623e-05, -1.3355451301322319e-05, 6.109098649176303e-06, 0.002418108517304063, -3.204664835720905e-07, -3.003056008310523e-06]], "rec.bias_ih_l0": [-0.024986738339066505, -0.016772044822573662, -0.014083386398851871, -0.02559136226773262, -0.01753251999616623, -0.020280512049794197, -0.017877845093607903, -0.01751836948096752, -0.014383131638169289, -0.026944870129227638, -0.012608986347913742, -0.11789704114198685, -0.018190234899520874, -0.01143218670040369, -0.01913987658917904, -0.014795615337789059, -0.018501905724406242, 0.054323431104421616, -0.014421658590435982, -0.017138337716460228, -0.027978025376796722, -1.2186444997787476, -0.01819750666618347, -0.02333877980709076, -0.01526806689798832, -0.024338481947779655, -0.019431201741099358, -0.017441969364881516, -0.01856270059943199, -1.00872802734375, -0.018292605876922607, -0.016145439818501472, -0.018097754567861557, -0.016093751415610313, -0.01329677551984787, -0.0242205448448658, -0.01685682311654091, -0.01996314898133278, -0.017258821055293083, -0.016130836680531502, -0.014066067524254322, -0.025916090235114098, 