{"model_data": {"model": "SimpleRNN", "input_size": 1, "skip": 1, "output_size": 1, "unit_type": "LSTM", "num_layers": 1, "hidden_size": 16, "bias_fl": true}, "state_dict": {"rec.weight_ih_l0": [[0.00012194503506179899], [-0.04047288000583649], [0.0002483299176674336], [-0.0023089004680514336], [-0.0007892829598858953], [0.0003644474199973047], [0.0002307955437572673], [0.0002658800804056227], [-0.5118616223335266], [0.0002079582045553252], [0.9956928491592407], [-0.00011472206824691966], [0.29311680793762207], [-0.0710400864481926], [-0.0003572941350284964], [0.0004885793314315379], [0.00014350572018884122], [-0.1927838772535324], [0.00035941277747042477], [-0.002178079215809703], [-0.0005565188475884497], [0.0003948514349758625], [0.00026340578915551305], [0.0003108463133685291], [0.19477489590644836], [0.00033139027073048055], [-0.45171114802360535], [3.097040917054983e-06], [0.16138789057731628], [0.1776312291622162], [-0.0002349803689867258], [0.0004512538143899292], [0.0014949003234505653], [3.295051336288452], [-0.007776595186442137], [0.007410826161503792], [-0.0002841459645424038], [0.012491175904870033], [0.006519780028611422], [0.004503026604652405], [0.7465416193008423], [-0.008791951462626457], [-1.062747597694397], [0.005467517301440239], [-2.6713860034942627], [-0.6452751755714417], [-0.0083683542907238], [-0.015845464542508125], [9.9936019978486e-05], [-0.07471449673175812], [0.00031024322379380465], [-0.0019245181465521455], [-0.0007554020849056542], [0.0003789569018408656], [0.0003243107639718801], [0.00038951323949731886], [0.4538266360759735], [0.00030152281397022307], [-0.2919480502605438], [2.1335466954042204e-05], [-0.13378077745437622], [-0.38797301054000854], [-0.00027286491240374744], [0.0004735657130368054]], "rec.weight_hh_l0": [[-3.901635864167474e-05, 0.0001623137213755399, 1.8911701772594824e-05, 0.00018604622164275497, -1.8045102478936315e-05, -3.959569221478887e-05, 4.689757406595163e-05, 6.358894461300224e-05, -0.0010639585088938475, -1.2940521628479473e-05, 0.0009376609814353287, 6.0622096498264e-05, 1.645532756811008e-05, -0.0021527314092963934, -3.318087328807451e-05, -1.2049006727465894e-05], [0.0020454442128539085, -0.20053045451641083, 0.007646178361028433, -0.001984216272830963, -0.006350988056510687, -0.005678208079189062, -0.004344675224274397, -0.005512068048119545, -0.1373206079006195, 0.007641610223799944, -0.16115118563175201, -0.006446674931794405, 0.028445852920413017, -0.1938641369342804, 0.005103986244648695, 0.0009694087202660739], [4.417920354171656e-05, 0.00013990131265018135, -5.3390118409879506e-05, -0.00020409982244018465, 5.539644189411774e-05, 5.056833106209524e-05, -3.5471388400765136e-05, -5.583001620834693e-05, -0.0004299329884815961, -2.1913134332862683e-05, -0.0010576022323220968, -3.872050001518801e-05, 0.00018725142581388354, -0.0011363278608769178, 3.975943855039077e-06, 3.2897183700697497e-05], [-0.00039333553286269307, 0.0053512235172092915, 0.0002042239357251674, 0.0011715339496731758, -0.0003793837677221745, -0.00026892623282037675, 0.0002980584977194667, 0.00040700522367842495, -0.004997637588530779, 2.2980325411481317e-06, 0.004178722854703665, 0.00030940951546654105, 0.003862636862322688, 0.01066640205681324, -7.543679384980351e-05, -0.00022537089535035193], [0.00011334472219459713, 0.00047393827117048204, -6.213619781192392e-05, -0.00035016308538615704, -5.4238742450252175e-05, 0.00015426697791554034, -7.432201527990401e-05, -0.00010862934868782759, 0.0002524395240470767, 1.1378589078958612e-05, 0.0008814194588921964, -0.0001222121500177309, 0.001014198875054717, 0.0003609169798437506, 9.465374023420736e-05, -0.0001245754538103938], [-4.709550194093026e-05, -0.0005707829841412604, 1.7274120182264596e-05, 0.00012606226664502174, 0.0001150327516370453, -8.690661343280226e-05, 1.1503084351716097e-05, 2.3725433493382297e-05, -0.0014128554612398148, -1.3765579751634505e-05, -0.002657861914485693, 6.447339546866715e-05, -0.0009402281721122563, -0.0025494087021797895, -6.933245458640158e-05, 0.0001450598647352308], [-2.531211794121191e-05, 0.0011580989230424166, -6.3910324570315424e-06, 1.2282376701477915e-05, -9.280402446165681e-05, 2.8267118977964856e-05, 3.118844688287936e-05, 3.0439889087574556e-05, 6.310825847322121e-05, -6.387819212250179e-06, 0.000781017413828522, 1.6992347582345246e-06, -0.00018589547835290432, 0.0018162875203415751, 2.195313027186785e-05, -0.00010208222374785691], [-5.8544894272927195e-05, 0.002122418489307165, 3.378299652467831e-06, 0.0001391913538100198, -0.00014619386638514698, 1.9192215404473245e-05, 7.163198461057618e-05, 8.324026566697285e-05, -0.00020071050676051527, -1.4775878298678435e-05, 0.0013981176307424903, 3.664971518446691e-05, -0.000406884792027995, 0.003103916998952627, 1.5348201486631297e-05, -0.0001567956933286041], [-0.005845532286912203, 0.6906704306602478, 2.6454035833012313e-05, -0.01096899900585413, -0.0012938566505908966, 0.0012138901511207223, -0.003684369148686528, -0.0036802191752940416, -0.705143392086029, 7.212813943624496e-05, -0.3460657596588135, -0.0010970246512442827, -0.6642919778823853, 0.9176903367042542, 0.001701758592389524, -0.0035772162955254316], [5.914433131692931e-05, 0.0009388219332322478, -5.025862265028991e-05, -0.00027253286680206656, -3.489390655886382e-05, 9.07899157027714e-05, -4.517967317951843e-05, -7.361021562246606e-05, 0.00012297344801481813, -4.373628598841606e-06, 0.00020032297470606863, -8.101219282252714e-05, 0.0003646973054856062, 0.0006061567692086101, 5.4897805966902524e-05, -6.423607555916533e-05], [0.014096931554377079, 1.3108876943588257, -0.018680986016988754, -0.00884026475250721, 0.0009589656256139278, 0.025553852319717407, 0.013386344537138939, 0.012786141596734524, 0.0714293047785759, -0.016505634412169456, 0.42418789863586426, 0.011934896931052208, 0.5697619318962097, 0.18498480319976807, -0.008134930394589901, -0.027803562581539154], [-9.78253683570074e-06, 0.0021379634272307158, 1.7935958851467149e-07, -6.59043071209453e-05, -0.00017640738224145025, 7.288651977432892e-05, 9.134123502008151e-06, 4.989416879652708e-07, -0.0002820196677930653, 1.89886886801105e-05, 0.0017811879515647888, -4.9264384870184585e-05, 0.000602449057623744, 0.003509845118969679, 8.2444901636336e-05, -0.00020607303304132074], [0.018206017091870308, 0.38633954524993896, -0.011332174763083458, 0.022273629903793335, 0.005091038998216391, 0.011064956896007061, 0.014353886246681213, 0.0142112597823143, 1.148637294769287, -0.012668892741203308, 1.5012223720550537, 0.011343758553266525, -0.8732353448867798, 0.2213822603225708, -0.01229882426559925, -0.009827522560954094], [-0.008100437931716442, -0.08681736886501312, 0.001753253280185163, 0.0029426838736981153, 0.002926129847764969, -0.005959820933640003, 0.002263269852846861, 0.004538250621408224, -0.17773737013339996, -0.0008570625795982778, 0.2306796908378601, 0.002391266170889139, -0.4566372036933899, -0.16717374324798584, -0.002169571816921234, 0.0026666014455258846], [3.431016011745669e-05, 0.0008177697891369462, -2.3884365873527713e-05, -0.0001894806046038866, -9.882274025585502e-05, 8.58162748045288e-05, -2.9060227461741306e-05, -4.8966794565785676e-05, -6.94098198437132e-05, 1.3926270185038447e-05, 0.0010615900391712785, -7.639610703336075e-05, 0.0011676285648718476, 0.0017914106138050556, 7.328231731662527e-05, -0.00013690264313481748], [-8.64509929670021e-05, 0.0010974030010402203, 6.490393570857123e-05, 0.00029354525031521916, 5.713257269235328e-05, -0.00012711908493656665, 3.383766670594923e-05, 5.449519449030049e-05, -2.0917215806548484e-05, 1.3379096344579011e-05, -0.0015649774577468634, 8.15373714431189e-05, -0.0034660135861486197, -0.0023147619795054197, -7.076930342009291e-05, 0.00014556107635144144], [-3.648642814368941e-05, 6.80361918057315e-05, 1.8744702174444683e-05, 0.00017508170276414603, -1.764312037266791e-05, -3.791895869653672e-05, 4.331254604039714e-05, 5.894105197512545e-05, -0.001088977325707674, -1.1183105925738346e-05, 0.000807281699962914, 5.6376218708464876e-05, -4.798896952706855e-06, -0.0021839262917637825, -3.05273242702242e-05, -1.0413948075438384e-05], [0.011577323079109192, -0.2565935552120209, 0.0028708516620099545, 0.009003312326967716, 0.005722165107727051, -0.004138502292335033, 0.0030086729675531387, 0.0005923422868363559, -0.19345296919345856, 0.0011237494181841612, 0.1438634991645813, 0.002415505237877369, 0.12444411218166351, -0.4292706251144409, -0.004813101142644882, -0.0004442922945600003], [3.895072950399481e-05, 0.0003056774439755827, -5.1677448936970904e-05, -0.0001955645129783079, 5.4926214943407103e-05, 4.518547939369455e-05, -3.163809378747828e-05, -5.117934779264033e-05, -0.0004285367904230952, -2.3170683562057093e-05, -0.000900011567864567, -3.459479194134474e-05, 0.0001904750824905932, -0.0009162541246041656, 6.730302857249626e-07, 3.336240115459077e-05], [-0.0003939078887924552, 0.005314184352755547, 0.00020576758834067732, 0.0011731414124369621, -0.0003817409451585263, -0.0002714417059905827, 0.0002991841465700418, 0.0004083312232978642, -0.005138908047229052, 2.648940608196426e-06, 0.004314771853387356, 0.0003093449049629271, 0.0037779039703309536, 0.010903190821409225, -7.470333366654813e-05, -0.0002262313209939748], [0.00011299258767394349, 0.0007701299618929625, -5.895033245906234e-05, -0.0003537502489052713, -5.6205259170383215e-05, 0.00015205189993139356, -7.721471774857491e-05, -0.00011210174852749333, 0.0004169784369878471, 1.4982811080699321e-05, 0.0011415312765166163, -0.00012562648043967783, 0.0009186039096675813, 0.0006228754064068198, 9.712637984193861e-05, -0.00011913910566363484], [-4.8852300096768886e-05, -0.0005039758398197591, 2.0511981347226538e-05, 0.00012881022121291608, 0.00011352997535141185, -8.932971832109615e-05, 1.1897319382114802e-05, 2.4800521714496426e-05, -0.001426892587915063, -1.157199585577473e-05, -0.0025614271871745586, 6.539549212902784e-05, -0.0009095576824620366, -0.0024182565975934267, -6.807172030676156e-05, 0.00014257660950534046], [-2.530937308620196e-05, 0.001179231097921729, -6.955940079933498e-06, 1.0535348337725736e-05, -9.140522888628766e-05, 2.7798369046649896e-05, 3.137715975753963e-05, 3.053115142392926e-05, 7.159173401305452e-05, -6.975831183808623e-06, 0.000818324857391417, 1.9330379927851027e-06, -0.0001581350079504773, 0.0018463050946593285, 2.10111520573264e-05, -0.000100198361906223], [-5.798308484372683e-05, 0.002144962316378951, 2.840408342308365e-06, 0.00013538723578676581, -0.00014434268814511597, 1.8709408323047683e-05, 7.127547723939642e-05, 8.26703617349267e-05, -0.00018598552560433745, -1.5041278857097495e-05, 0.0014399318024516106, 3.6419372918317094e-05, -0.0003683996037580073, 0.0031248920131474733, 1.4587983969249763e-05, -0.00015339248056989163], [-0.01208009198307991, 2.082653522491455, 0.01682545617222786, -0.01238090917468071, -0.0040899538435041904, -0.017004651948809624, -0.014139468781650066, -0.016133571043610573, -1.2348114252090454, 0.015287250280380249, -0.6174659132957458, -0.009960097260773182, -2.205225706100464, 0.2898433208465576, 0.009256706573069096, 0.01621989905834198], [5.524350854102522e-05, 0.0010932721197605133, -4.973550312570296e-05, -0.0002668582310434431, -3.5142926208209246e-05, 8.664171036798507e-05, -4.203647040412761e-05, -7.037125760689378e-05, 0.00014913969789631665, -6.159155873319833e-06, 0.0003688817087095231, -7.82240167609416e-05, 0.0003623989468906075, 0.0008306126692332327, 5.142716327100061e-05, -6.285587733145803e-05], [0.010207957588136196, -0.570626437664032, 0.008632957004010677, -0.00015729721053503454, 0.002559984102845192, -0.011615460738539696, -0.005314315669238567, -0.006289282813668251, 0.5276244282722473, 0.007414268329739571, -0.6771146059036255, -0.0037724487483501434, -0.10405611991882324, 1.127073884010315, 0.0011253030970692635, 0.013424313627183437], [-1.1087861821579281e-05, 0.0022258262615650892, 1.409787728334777e-06, -6.605673843296245e-05, -0.00017607737390790135, 7.078752969391644e-05, 9.00196118891472e-06, 2.522547504213435e-07, -0.000249124423135072, 1.9791063095908612e-05, 0.001945161959156394, -4.926487599732354e-05, 0.0006098405574448407, 0.0037159607745707035, 8.197913120966405e-05, -0.00020327638776507229], [0.01381591334939003, 0.09170142561197281, -0.02018200419843197, 0.019023513421416283, 0.018281115218997, 0.013241801410913467, 0.02101276069879532, 0.019077518954873085, 1.1001996994018555, -0.023391859605908394, 0.6183079481124878, 0.022697707638144493, -0.9334374666213989, 0.10380277037620544, -0.022186674177646637, -0.010744664818048477], [-0.0013712032232433558, 0.17463184893131256, -0.0076604001224040985, -0.0047318884171545506, 0.007258840836584568, 0.005804124288260937, 0.003813425311818719, 0.0017502608243376017, 1.7271686792373657, -0.0081854946911335, 1.1904109716415405, 0.0036398395895957947, -0.2492205947637558, 0.6601717472076416, -0.004350326955318451, -0.0052908663637936115], [3.337617818033323e-05, 0.0009361613192595541, -2.3434295144397765e-05, -0.00019093522860202938, -9.926823258865625e-05, 8.459189848508686e-05, -2.9421013095998205e-05, -4.987284410162829e-05, -1.548934778838884e-05, 1.423013600287959e-05, 0.0011988678015768528, -7.743442984065041e-05, 0.001119406777434051, 0.001963217742741108, 7.304276368813589e-05, -0.00013558189675677568], [-8.304091898025945e-05, 0.0010687902104109526, 6.135715375421569e-05, 0.00028035874129273, 5.718628744943999e-05, -0.0001212305505760014, 3.236353586544283e-05, 5.2018032874912024e-05, 3.0186072763171978e-05, 1.2428205991454888e-05, -0.001482551684603095, 7.790536619722843e-05, -0.0034244314301759005, -0.0022775460965931416, -6.813574873376638e-05, 0.00013915164163336158], [-0.00920102559030056, -0.003907555714249611, 0.006920860148966312, -0.005437932908535004, -0.006986673921346664, -0.006362000945955515, -0.008580201305449009, -0.008594107814133167, 0.009546622633934021, 0.0073501649312675, 0.0018622901989147067, -0.008272361941635609, 0.0025326355826109648, 0.0013497108593583107, 0.008304900489747524, 0.004030336160212755], [0.0013201397377997637, -0.8334940671920776, 0.001013916335068643, 0.0018663291120901704, -0.0009130393736995757, -0.001960802124813199, -0.003233858849853277, -0.003035386558622122, -0.7791457772254944, 0.0027227280661463737, 0.39226123690605164, -0.006574773695319891, -0.5467106699943542, 1.171698808670044, 0.003169585019350052, 0.002860588952898979], [0.0058286250568926334, 0.009711128659546375, -0.00705895246937871, -0.00031881031463854015, 0.007654345594346523, 0.006335791666060686, 0.006364558823406696, 0.006541807670146227, -0.014604941941797733, -0.00679131131619215, -0.0140735087916255, 0.006316630635410547, -0.0032364814542233944, -0.009258100762963295, -0.006752767600119114, -0.0021619827020913363], [-0.00568387983366847, -0.010065089911222458, 0.005871118512004614, 0.0003352588682901114, -0.005295256618410349, -0.006212363950908184, -0.0038227231707423925, -0.0031854177359491587, -0.0010864065261557698, 0.005083852913230658, 0.018262993544340134, -0.0031694339122623205, -0.0025426235515624285, 0.010402264073491096, 0.0044042314402759075, 0.005062786862254143], [-0.004809598438441753, -0.022065572440624237, 0.004618100821971893, -0.00204031215980649, -0.0076563600450754166, -0.002681152196601033, -0.00442776083946228, -0.004307886119931936, 0.0031616264022886753, 0.00484809884801507, 0.006711592897772789, -0.005264385137706995, -0.0031687654554843903, 0.0002662178303580731, 0.006095722783356905, -0.003255076939240098], [-0.005405439529567957, -0.005170887336134911, 0.006840370129793882, 2.2000836906954646e-05, -0.006490346044301987, -0.006852998863905668, -0.006757788360118866, -0.007017338648438454, 0.015676697716116905, 0.0065320818684995174, 0.014966575428843498, -0.00622174795717001, 0.004374159965664148, 0.011254879646003246, 0.00640281243249774, 0.004190243314951658], [-0.006876532454043627, -0.004355324432253838, 0.00657866382971406, 0.0024676097091287374, -0.007045786827802658, -0.006164041813462973, -0.00566965201869607, -0.005556254647672176, 0.008686186745762825, 0.006070573348551989, 0.012122709304094315, -0.005186276510357857, 8.985467866295949e-05, 0.009258599020540714, 0.006002307403832674, 0.0025120622012764215], [-0.005926627200096846, -0.004705364815890789, 0.006086927838623524, 0.004102429375052452, -0.00674086669459939, -0.005739263258874416, -0.004709122236818075, -0.004642484709620476, 0.007580762729048729, 0.005414951592683792, 0.012552585452795029, -0.004258941393345594, -0.00139419490005821, 0.010701761581003666, 0.0051584006287157536, 0.002041862579062581], [-0.006671305745840073, 1.9094600677490234, 0.0201583094894886, -0.008354427292943, -0.013539925217628479, -0.018146192654967308, -0.015029741451144218, -0.01590750180184841, 0.2568095922470093, 0.018403084948658943, 1.603500485420227, -0.013133663684129715, -0.18234707415103912, 0.8021964430809021, 0.013088536448776722, 0.011760953813791275], [0.006116984877735376, 0.010951385833323002, -0.007254540454596281, -0.000963236263487488, 0.008000819012522697, 0.006395157892256975, 0.006129895336925983, 0.006209568586200476, -0.01206133607774973, -0.006911630276590586, -0.014590596780180931, 0.006174666807055473, -0.0014597997069358826, -0.010011802427470684, -0.006770052947103977, -0.0019387558568269014], [-0.0011050814064219594, -0.08316518366336823, 0.002681157784536481, -0.007269195280969143, -0.0020372855942696333, -0.0015922983875498176, -0.006338855251669884, -0.006690201349556446, -0.984291672706604, 0.0041346075013279915, 0.4704738259315491, -0.006089369300752878, -0.06251368671655655, 0.3371313810348511, 0.005313042085617781, 0.001930065220221877], [-0.006182822864502668, -0.011102677322924137, 0.006761557422578335, 0.001809030887670815, -0.008056423626840115, -0.005731241777539253, -0.005275208503007889, -0.00517151178792119, 0.00674141850322485, 0.006340696942061186, 0.012045232579112053, -0.0054710726253688335, -0.0015537095023319125, 0.010501737706363201, 0.006341450847685337, 0.000779567111749202], [-0.006715074181556702, -1.7441531419754028, 0.006685386411845684, -0.008160509169101715, 0.0010855573927983642, -0.011534593068063259, -0.007057253737002611, -0.005396217107772827, -0.6168122887611389, 0.007439229171723127, 0.38682058453559875, -0.008967775851488113, 0.5734321475028992, 0.7349547147750854, 0.005628951825201511, 0.017671817913651466], [0.01903667487204075, -0.9671413898468018, -0.00880743470042944, -0.011458130553364754, 0.006047118920832872, 0.011976558715105057, 0.001137369778007269, -0.0005547611508518457, 0.48953792452812195, -0.004304293543100357, 0.16128242015838623, -0.0025127683766186237, 0.7088034152984619, 0.9491205215454102, -0.0015763186383992434, -0.002955825300887227], [0.006830751430243254, 0.0154165830463171, -0.006513753905892372, 0.00022792226809542626, 0.007953090593218803, 0.005395920481532812, 0.005812887102365494, 0.005637898109853268, -0.005102141294628382, -0.006329426076263189, -0.010759602300822735, 0.005951236467808485, 0.00201516505330801, -0.0066960896365344524, -0.006799833383411169, -0.0004964026738889515], [0.005708291660994291, -0.009378128685057163, -0.006992052309215069, -0.0027488821651786566, 0.0032952676992863417, 0.008635075762867928, 0.006135452073067427, 0.006231083534657955, -0.013643515296280384, -0.006028420757502317, -0.020734302699565887, 0.004338755737990141, -0.00430642906576395, -0.009888076223433018, -0.004316464066505432, -0.009304496459662914], [-3.8981917896308005e-05, 0.00015259614156093448, 1.9451716070761904e-05, 0.0001856465096352622, -1.8227085092803463e-05, -4.00948993046768e-05, 4.6423276216955855e-05, 6.303990812739357e-05, -0.0010657692328095436, -1.2438575140549801e-05, 0.0009622729266993701, 6.019675129209645e-05, 4.240413909428753e-05, -0.0021751215681433678, -3.2892021408770233e-05, -1.1664736121019814e-05], [0.003322057658806443, -0.4466136693954468, 0.011691175401210785, -0.003520241705700755, -0.0074419304728507996, -0.009748362004756927, -0.007711303886026144, -0.00934827420860529, -0.09238862991333008, 0.011602603830397129, -0.2776767909526825, -0.009576951153576374, 0.1309380829334259, -0.2075653374195099, 0.007139788940548897, 0.006487726233899593], [4.209164762869477e-05, 0.0003007191698998213, -5.325535676092841e-05, -0.0002030387840932235, 5.6831107940524817e-05, 4.9216163461096585e-05, -3.4915276046376675e-05, -5.482019696501084e-05, -0.0004897643229924142, -2.2358601199812256e-05, -0.0010429003741592169, -3.73407565348316e-05, 0.00014728242240380496, -0.0011697522131726146, 3.0053536193008767e-06, 3.393507722648792e-05], [-0.0003886688209604472, 0.005849900655448437, 0.0002058541140286252, 0.0011673708213493228, -0.00038045214023441076, -0.0002685178187675774, 0.0002994610695168376, 0.0004086034605279565, -0.004781920928508043, 3.3260052987316158e-06, 0.00423126295208931, 0.00030799544765613973, 0.002648442517966032, 0.010580232366919518, -7.542974344687536e-05, -0.00023628071357961744], [0.00011133669613627717, 0.0005039206589572132, -6.301785469986498e-05, -0.0003493309486657381, -5.269047323963605e-05, 0.00015420046111103147, -7.325584738282487e-05, -0.00010754112008726224, 0.0002738349139690399, 1.0221515367447864e-05, 0.0008911248878575861, -0.00012098507431801409, 0.0009864268358796835, 0.00032094737980514765, 9.318258526036516e-05, -0.0001248089101864025], [-4.721849472844042e-05, -0.0005193756660446525, 1.648876423132606e-05, 0.00012705395056400448, 0.00011624154285527766, -8.656587306177244e-05, 1.1751274541893508e-05, 2.419581142021343e-05, -0.0014936310471966863, -1.4637916137871798e-05, -0.002653046976774931, 6.571946869371459e-05, -0.0008523456635884941, -0.0025487015955150127, -7.012341666268185e-05, 0.0001459463674109429], [-2.5546429242240265e-05, 0.0013247084571048617, -5.366433470044285e-06, 1.2079907719453331e-05, -9.26440188777633e-05, 2.7069127099821344e-05, 3.1305953598348424e-05, 3.0644798243884e-05, 0.00010684554581530392, -5.676497039530659e-06, 0.0007909205160103738, 1.2876150776719442e-06, -0.00044321303721517324, 0.001729716663248837, 2.1900290448684245e-05, -0.00010232058411929756], [-5.8428522606845945e-05, 0.0023606002796441317, 4.649620223062811e-06, 0.00013837117876391858, -0.00014585199824068695, 1.7862697859527543e-05, 7.158043445087969e-05, 8.319724292960018e-05, -0.00013156335626263171, -1.3818827937939204e-05, 0.00141119584441185, 3.5885113902622834e-05, -0.0007733545498922467, 0.0029828583355993032, 1.53372257045703e-05, -0.0001572793844388798], [-0.004112600814551115, 1.362533688545227, -0.002748160855844617, -0.021712053567171097, -0.01298430748283863, 0.008773896843194962, -0.0023799219634383917, -0.004133256617933512, -0.4699786603450775, 0.0012329870369285345, -0.02336823008954525, -0.006342385429888964, -0.39550548791885376, 0.9555490612983704, 0.011156327091157436, -0.012604741379618645], [5.6963315728353336e-05, 0.0011497901286929846, -4.990656816517003e-05, -0.0002714915026444942, -3.3195974538102746e-05, 8.907985466066748e-05, -4.4229273044038564e-05, -7.231233757920563e-05, 0.0001095598709071055, -4.704145794676151e-06, 0.00021479926363099366, -7.978896610438824e-05, 0.0001771192910382524, 0.0005479728570207953, 5.353716551326215e-05, -6.29841088084504e-05], [0.008553624153137207, -0.23334528505802155, -0.016889333724975586, -0.002666713437065482, 0.010553494095802307, 0.01719692163169384, 0.009334078989923, 0.00993996299803257, -0.019584711641073227, -0.014891509898006916, -0.10070043057203293, 0.010939134284853935, 0.3192163109779358, 0.5449419617652893, -0.009876785799860954, -0.010613104328513145], [-1.0110084076586645e-05, 0.0023725705686956644, 4.92239280447393e-07, -6.558401219081134e-05, -0.00017482409020885825, 7.182690751506016e-05, 9.998994755733293e-06, 1.356339225822012e-06, -0.00021891154756303877, 1.8887099940911867e-05, 0.0017985638696700335, -4.89409503643401e-05, 0.00021074562391731888, 0.003430805169045925, 8.110566704999655e-05, -0.00020639160356950015], [0.02159973233938217, -0.014277351088821888, -0.007002511061728001, 0.02369058132171631, 0.006817771587520838, 0.004196238238364458, 0.013184254057705402, 0.013780011795461178, -0.29119330644607544, -0.009262156672775745, -0.19493980705738068, 0.012068918906152248, 0.3322116732597351, 0.5185242891311646, -0.010553763248026371, -0.003372881328687072], [-0.016858374699950218, -1.2116096019744873, 0.00854763388633728, -0.017601722851395607, -0.001317173126153648, -0.010322966612875462, -0.011437542736530304, -0.011277236975729465, 0.42828258872032166, 0.008450103923678398, -1.510252833366394, -0.007460324093699455, 0.2099190652370453, -0.33020588755607605, 0.008126945234835148, 0.009172393940389156], [3.338348324177787e-05, 0.000953479262534529, -2.3723645426798612e-05, -0.00018775601347442716, -9.76068404270336e-05, 8.470650936942548e-05, -2.8182019377709366e-05, -4.792740219272673e-05, -3.312532862764783e-05, 1.3607164873974398e-05, 0.0010779950534924865, -7.56331646698527e-05, 0.0009541925974190235, 0.0017519791144877672, 7.213783101178706e-05, -0.00013698433758690953], [-8.658933074912056e-05, 0.001053324551321566, 6.555853178724647e-05, 0.0002975896350108087, 5.694434366887435e-05, -0.00012785031867679209, 3.3848635212052613e-05, 5.488792885444127e-05, -1.535831870569382e-05, 1.3678982213605195e-05, -0.0015879509737715125, 8.239526505349204e-05, -0.003431599121540785, -0.002350669354200363, -7.139523950172588e-05, 0.00014675366401206702]], "rec.bias_ih_l0": [-0.0102347107604146, 0.8983844518661499, -0.007275816053152084, -8.300492481794208e-05, -0.007718108594417572, -0.007140554022043943, -0.005847112275660038, -0.0047413501888513565, -2.133042097091675, -0.007104047574102879, -2.0012283325195312, -0.005618217401206493, 0.3084002733230591, -0.9764765501022339, -0.006988020148128271, -0.009804777801036835, -0.009725668467581272, -0.06680313497781754, -0.007144511211663485, 0.00027874973602592945, -0.007764452137053013, -0.00693556759506464, -0.0057501825504004955, -0.0047037024050951, 1.9907240867614746, -0.0069928294979035854, 2.659698963165283, -0.005546095315366983, 0.11195502430200577, 1.9033297300338745, -0.00689703831449151, -0.009426603093743324, -0.0025611785240471363, -0.04211374372243881, -0.0011822369415313005, 0.01018372643738985, 0.0014899286907166243, -0.0007863693172112107, 0.004021473228931427, 0.004866717383265495, -0.12969361245632172, -0.002795514650642872, -0.11562856286764145, 0.004831403028219938, -0.021290475502610207, 0.08836439251899719, -0.003599656280130148, -0.00042569474317133427, -0.0102486377581954, 0.9731723070144653, -0.007284090854227543, -9.623738878872246e-05, -0.007729665841907263, -0.007151771802455187, -0.005857761949300766, -0.004751813597977161, 0.16361649334430695, -0.0071127526462078094, 0.548907458782196, -0.0056279562413692474, -0.024258149787783623, -0.6479616165161133, -0.006998453289270401, -0.009825590066611767], "rec.bias_hh_l0": [-0.0102347107604146, 0.8983844518661499, -0.007275816053152084, -8.300492481794208e-05, -0.007718108594417572, -0.007140554022043943, -0.005847112275660038, -0.0047413501888513565, -2.133042097091675, -0.007104047574102879, -2.0012283325195312, -0.005618217401206493, 0.3084002733230591, -0.9764765501022339, -0.006988020148128271, -0.009804777801036835, -0.009725668467581272, -0.06680313497781754, -0.007144511211663485, 0.00027874973602592945, -0.007764452137053013, -0.00693556759506464, -0.0057501825504004955, -0.0047037024050951, 1.9900572299957275, -0.0069928294979035854, 2.659698963165283, -0.005546095315366983, 0.11195502430200577, 1.9033297300338745, -0.00689703831449151, -0.009426603093743324, -0.0025611785240471363, -0.04211374372243881, -0.0011822369415313005, 0.01018372643738985, 0.0014899286907166243, -0.0007863693172112107, 0.004021473228931427, 0.004866717383265495, -0.19836054742336273, -0.002795514650642872, -0.014632772654294968, 0.004831403028219938, -0.021290475502610207, 0.08836439251899719, -0.003599656280130148, -0.00042569474317133427, -0.0102486377581954, 0.9731723070144653, -0.007284090854227543, -9.623738878872246e-05, -0.007729665841907263, -0.007151771802455187, -0.005857761949300766, -0.004751813597977161, 0.17008881270885468, -0.0071127526462078094, 0.548907458782196, -0.0056279562413692474, -0.024258149787783623, -0.6479616165161133, -0.006998453289270401, -0.009825590066611767], "lin.weight": [[-0.0023785424418747425, -0.2870509624481201, -0.005065164994448423, 0.005988131742924452, 0.0027125924825668335, 0.003883796278387308, 0.005046420730650425, 0.006118295714259148, 0.22519347071647644, -0.00543332239612937, -0.028342457488179207, 0.005132291465997696, -0.25498202443122864, 0.18606527149677277, -0.003525952808558941, -0.004197981208562851]], "lin.bias": [0.016696296632289886]}}