{"model_data": {"model": "SimpleRNN", "input_size": 1, "skip": 1, "output_size": 1, "unit_type": "LSTM", "num_layers": 1, "hidden_size": 16, "bias_fl": true}, "state_dict": {"rec.weight_ih_l0": [[-0.0006801965064369142], [-0.1321488469839096], [0.0004981482052244246], [-0.00802641175687313], [-0.004473581910133362], [-0.002055432880297303], [-0.021902214735746384], [-0.00724398298189044], [-0.775152862071991], [-0.00204729032702744], [0.9660854339599609], [0.0019182735122740269], [0.24316009879112244], [0.3853205740451813], [-0.005676249973475933], [0.0011665584752336144], [-0.000266224960796535], [-0.3683624267578125], [0.0005144553142599761], [-0.005680521950125694], [-0.0035033891908824444], [-0.0010702136205509305], [-0.01919673942029476], [-0.005942272022366524], [0.5464617013931274], [0.0004593456396833062], [-0.29274648427963257], [0.002645800355821848], [0.19463537633419037], [0.7235670685768127], [-0.006362558342516422], [0.000919060839805752], [0.005484480410814285], [3.1396291255950928], [-0.01594056934118271], [-0.02467786706984043], [0.02494375966489315], [0.004544912371784449], [-0.06616415828466415], [-0.005554569885134697], [1.5190296173095703], [-0.07131674140691757], [-1.451372504234314], [-0.009453524835407734], [-3.1748368740081787], [-0.8182352781295776], [0.06382277607917786], [-0.021999571472406387], [-0.0006690039299428463], [-0.406711220741272], [0.0003786257584579289], [-0.007784815970808268], [-0.004349400755017996], [-0.0020253730472177267], [-0.021483417600393295], [-0.006803655996918678], [0.2082628458738327], [-0.002167994389310479], [0.07133839279413223], [0.002134507056325674], [-0.2215406596660614], [0.08294342458248138], [-0.005069649312645197], [0.0009149151737801731]], "rec.weight_hh_l0": [[-0.0007990403100848198, 0.009991600178182125, 0.0006813411600887775, 0.00020299412426538765, -0.00018096175335813314, 0.0005600586300715804, -0.0005528530455194414, 0.00024776949430815876, -0.0037687220610678196, -0.00037499345489777625, 0.0024882592260837555, -0.00041138895903714, 0.004867378622293472, 0.004736265633255243, -0.0005330120911821723, 0.0008414561161771417], [0.025617165490984917, -0.33616915345191956, -0.01817825809121132, 0.02760775201022625, -0.009367765858769417, -0.0008984251762740314, -0.022735334932804108, 0.014036687090992928, -0.18169787526130676, 0.06736936420202255, -0.20985151827335358, 0.016460200771689415, -0.010049965232610703, -0.28517839312553406, 0.004298356827348471, -0.025015346705913544], [-0.0013664300786331296, 0.0015843365108594298, 0.0015009036287665367, 0.0005900041433051229, -0.0002660857862792909, 0.0007497955812141299, -0.0014171514194458723, 0.00023527294979430735, 0.006440888624638319, 0.00015328428708016872, -0.006629918236285448, -0.0003289302403572947, -0.0007692834478802979, -0.002983775222674012, 0.0009825421730056405, 0.0014476205687969923], [-0.0012565406505018473, -0.009969978593289852, 0.000711598782800138, -0.0007536504417657852, 0.00046547441161237657, -2.493746615073178e-05, 2.9926570277893916e-05, -0.0006049906951375306, 0.005357267800718546, -0.001598398550413549, -0.010187803767621517, -0.00040209118742495775, 0.0005373667809180915, -0.002144983969628811, 0.0007689920021221042, 0.0008485990110784769], [-0.0009077521972358227, 0.0017800215864554048, 0.0006882998277433217, -0.00025674887001514435, -0.00044944058754481375, 0.00042307996773160994, -0.0006467062630690634, 0.00042741489596664906, -0.001758692436851561, -0.0004349512455519289, -0.0048340014182031155, -0.0011295592412352562, 0.0013151912717148662, 0.0004107008862774819, -0.0011667206417769194, 0.0007992348982952535], [-0.0006655971519649029, 0.0040010991506278515, 0.0007011838024482131, -5.1747221732512116e-05, -2.6305053324904293e-05, 0.00025058837491087615, -0.00046569257392548025, -4.438983523868956e-05, 0.0038191459607332945, -0.00032959296368062496, -0.00034911156399175525, -0.00026760384207591414, 0.002622408326715231, 0.002779717091470957, -0.00044127105502411723, 0.0007146716816350818], [-0.0004144676204305142, -0.025826217606663704, 0.0011474607745185494, -6.313234916888177e-05, -0.0001947123382706195, 0.00041517571662552655, 0.0019905208609998226, -0.00030158282606862485, -0.010676531121134758, -0.0021869358606636524, -0.02065085433423519, -0.001387483556754887, 0.015141705051064491, -0.009617803618311882, -0.0034896335564553738, 0.001450337702408433], [-0.0009011639631353319, 0.0023764187935739756, 0.000666354491841048, -0.000530285993590951, -0.00034249931923113763, 0.0003301239921711385, -0.000183823038241826, 9.269011934520677e-05, 0.0030060051940381527, -0.0010204355930909514, -0.0009053376270458102, -0.001275080256164074, 0.0031831618398427963, 0.006389322225004435, -0.0006526274955831468, 0.0009627700783312321], [0.057613804936409, 1.500852346420288, -0.040501244366168976, -0.02430994063615799, -0.012659342959523201, -0.029410848394036293, 0.027452703565359116, -0.0021751641761511564, -0.9214830994606018, 0.08647552877664566, 0.007572787813842297, 0.073057159781456, -0.554135262966156, 1.7882407903671265, -0.02995152585208416, -0.052366651594638824], [-0.0035318087320774794, -0.017440851777791977, 0.0010748023632913828, -0.002537042135372758, 0.001144837005995214, 0.00044582763803191483, 0.003161147003993392, -0.0015642779180780053, 0.004480294417589903, -0.007438288535922766, -0.021282510831952095, -0.0027034939266741276, -0.0018413889920338988, -0.013744320720434189, -0.009375697001814842, 0.002155827358365059], [0.001088527380488813, 1.1007575988769531, -0.007968055084347725, 0.03355306014418602, -0.006061914376914501, 0.010371300391852856, -0.12423336505889893, 0.02128612995147705, 0.40273308753967285, 0.06351915746927261, 0.7287865877151489, 0.014352195896208286, 0.8386517763137817, -0.16851215064525604, 0.08297506719827652, -0.022249683737754822], [-0.00018507317872717977, 0.008839275687932968, 0.0005705344374291599, -3.652285522548482e-05, -0.0013673421926796436, 0.0010282116709277034, -0.0006865223404020071, 0.0014382634544745088, -0.02295778878033161, -0.00020916468929499388, -0.0125039117410779, -0.0024213006254285574, -0.005322100594639778, -0.0029597957618534565, -0.003296542912721634, 0.0009264972759410739], [-0.016787637025117874, 0.8270699977874756, -0.01197144202888012, -0.001551085733808577, -0.0014048469020053744, -0.008311701007187366, -0.03055264987051487, 0.0020306173246353865, 0.7150633931159973, 0.017653577029705048, 1.2188360691070557, -0.04417645186185837, -0.8427914977073669, 0.4869740605354309, 0.025250351056456566, -0.006962770130485296], [-0.0075185964815318584, 0.8656643033027649, -0.05373692885041237, -0.10165466368198395, 0.012074877507984638, -0.036946896463632584, 0.07754578441381454, -0.05234822258353233, 0.13074618577957153, -0.12107934802770615, -0.49047937989234924, -0.004559108521789312, -1.257259488105774, -0.09090264141559601, 0.031555552035570145, -0.027659233659505844], [0.0017234253464266658, 0.009201747365295887, 0.0004433413268998265, 0.0004624475259333849, 0.0013349037617444992, -0.0018960083834826946, 0.003316232468932867, -0.002691371599212289, 0.00815291702747345, 0.001493371557444334, 0.001966297859326005, 0.00247951946221292, 0.01699197106063366, 0.01659909449517727, 0.0014869673177599907, 0.000443582161096856], [-0.0015317565994337201, 0.006415670271962881, 0.0014970185002312064, 0.0004808967642020434, -0.00019077271281275898, 0.0007811648538336158, -0.0011874313931912184, 0.0001606819569133222, 0.0046608904376626015, -0.00025665221619419754, -0.0017003386747092009, -0.0004549924051389098, 0.0012100095627829432, -0.001218373654410243, -0.00011492655903566629, 0.001508413115516305], [-0.00047737383283674717, 0.006536032073199749, 0.0004406945954542607, 0.00020524235151242465, -8.765799429966137e-05, 0.0003916273999493569, -0.00039100763387978077, 0.00016800547018647194, -0.003721160814166069, -0.00019445807265583426, -0.00013175947242416441, -0.00017935015785042197, 0.004277356900274754, 0.0023166898172348738, -0.0009475145488977432, 0.0005536966491490602], [0.03494798392057419, -0.3034008741378784, -0.03255164623260498, -0.009183738380670547, 0.014245900325477123, -0.02030056156218052, 0.007413393817842007, -0.017489446327090263, -0.5669193267822266, 0.04664646089076996, -0.19431543350219727, 0.03903055563569069, 0.0628424659371376, -0.6913710832595825, -0.018322566524147987, -0.04208170250058174], [-0.0009945356287062168, -0.0016661499394103885, 0.001188436639495194, 0.0007271604845300317, -0.00025418680161237717, 0.0006209677667357028, -0.0010758917778730392, 0.0002022359985858202, 0.004020840860903263, 0.0003493047843221575, -0.0073345559649169445, -0.00021784559066873044, -0.0006859668646939099, -0.00539989722892642, -9.87867169897072e-05, 0.0011855142656713724], [-0.0009301561512984335, -0.007462310139089823, 0.0005912435008212924, -0.0005207423237152398, 0.0002999846765305847, 1.9563256500987336e-05, -3.420425491640344e-05, -0.0004033345903735608, 0.005357448011636734, -0.0011238397564738989, -0.008777813985943794, -0.00031215077615343034, 0.0012437620898708701, -0.0013515726896002889, 0.00026214192621409893, 0.0006671480368822813], [-0.0006270696758292615, 0.00014528360043186694, 0.0005432919133454561, -0.00013595707423519343, -0.00039835469215177, 0.0003605330130085349, -0.0004335202684160322, 0.0003637575719039887, -0.002559104235842824, -0.00029640598222613335, -0.0050347535870969296, -0.0009036302217282355, 0.0009665133547969162, -0.0009950605453923345, -0.0011626619379967451, 0.0006606311071664095], [-0.0005045933648943901, 0.000926136621274054, 0.0005555333918891847, 5.228714144323021e-05, -5.097647226648405e-05, 0.0002180599985877052, -0.00037688997690565884, -1.3570323972089682e-05, 0.0027818656526505947, -0.00019162519311066717, -0.0015640631318092346, -0.0002171157393604517, 0.002711813896894455, 0.0010370539966970682, -0.0006749326712451875, 0.0005866375286132097], [0.0001883588411146775, -0.026714488863945007, 0.000809339398983866, -9.941248208633624e-06, 3.615220703068189e-05, 0.0002139694697689265, 0.0019501550123095512, -0.00043560858466662467, -0.009087225422263145, -0.0018137221923097968, -0.020145680755376816, -0.0006188919069245458, 0.013639228418469429, -0.009017689153552055, -0.0023599613923579454, 0.000995005713775754], [-0.0005384285468608141, 0.00037262000842019916, 0.0004960542428307235, -0.0003781215928029269, -0.0002645052154548466, 0.00025701761478558183, -2.3657546989852563e-05, 7.022772479103878e-05, 0.002430948428809643, -0.0008166634943336248, -0.0011881566606462002, -0.0009392788051627576, 0.0034040005411952734, 0.004393782466650009, -0.0004990323795937002, 0.0007470462005585432], [-0.0037295883521437645, 2.203127145767212, 0.056038592010736465, 0.045875418931245804, -0.046372175216674805, 0.04347619786858559, -0.0427490659058094, 0.045656654983758926, -0.9284370541572571, -0.019970757886767387, -0.12305128574371338, 0.0076121860183775425, -1.5703495740890503, 0.2793448269367218, -0.08190280199050903, 0.042602743953466415], [-0.002935288939625025, -0.014840840362012386, 0.0009104838245548308, -0.002192205749452114, 0.0009602797799743712, 0.00038975386996753514, 0.0027008773759007454, -0.0013293334050104022, 0.006297675427049398, -0.006421207450330257, -0.018505150452256203, -0.0023119475226849318, -0.002353532472625375, -0.011952417902648449, -0.00866316631436348, 0.001821777317672968], [-0.058554213494062424, -1.1685051918029785, 0.07577791064977646, 0.04968367889523506, -0.07387267053127289, 0.07435211539268494, -0.08148112893104553, 0.08928436785936356, 1.240688443183899, 0.02432650327682495, -0.3597404956817627, -0.09494458884000778, 0.6046615242958069, -0.16892090439796448, 0.023915931582450867, 0.06863909214735031], [0.0003444655449129641, 0.007638018112629652, 0.00028898075106553733, 2.5293755243183114e-05, -0.0009812710341066122, 0.0007383277406916022, -0.00019186003191862255, 0.0010311735095456243, -0.020161641761660576, -0.00014132495562080294, -0.013658291660249233, -0.0018396559171378613, -0.006543381605297327, -0.002954467898234725, -0.0028422505129128695, 0.0006131075206212699], [0.025338189676404, 0.8473255634307861, -0.049762193113565445, -0.00852766539901495, 0.015549076721072197, -0.05075625330209732, 0.02302078902721405, -0.025612860918045044, 1.733309268951416, 0.025133643299341202, 1.4511014223098755, 0.009801500476896763, -1.616637110710144, 0.4037836790084839, -0.10094878077507019, -0.05136388912796974], [0.011048777028918266, 0.9859133958816528, 0.01795947179198265, -0.023731451481580734, -0.006615208461880684, 0.011622888967394829, 0.04485367238521576, -0.00918697938323021, 0.6714252829551697, -0.052010681480169296, 0.02138175070285797, 0.011649671010673046, -0.5153169631958008, -0.09072303026914597, -0.02009974792599678, -0.0018430801574140787], [0.00042540160939097404, 0.004145537503063679, 0.0009930577361956239, 0.0005064517026767135, 9.680335642769933e-05, 7.08665611455217e-05, 0.002384728053584695, -0.002055118093267083, 0.008229362778365612, 0.0009098544833250344, 0.00040423983591608703, 0.0019296716200187802, 0.015336827374994755, 0.011122389696538448, 0.0009521050960756838, 0.0010510298889130354], [-0.0011522903805598617, 0.0026405290700495243, 0.0011887508444488049, 0.000523860624525696, -0.0001684637536527589, 0.0006277573411352932, -0.0008996365359053016, 0.00013437629968393594, 0.0031783287413418293, -0.00010766954073915258, -0.0029370684642344713, -0.00034414129913784564, 0.0007635907968506217, -0.0036928255576640368, -0.0009255178738385439, 0.0012271072482690215], [-0.06896793842315674, -0.0030396804213523865, 0.055381592363119125, 0.0929856076836586, -0.05334440991282463, 0.05890671908855438, -0.0755302831530571, 0.060848575085401535, 0.01987338438630104, 0.0608825720846653, -0.012843403965234756, -0.06564072519540787, 0.048839226365089417, 0.055787209421396255, 0.06760036945343018, 0.06342028826475143], [0.002508600475266576, -1.027827262878418, 0.01655733212828636, 0.016482960432767868, 0.03365851938724518, 0.02130810357630253, -0.014107489958405495, 0.010569069534540176, -0.543078601360321, -0.016569193452596664, 0.4128900468349457, -0.003996475599706173, -0.49582788348197937, 1.5140172243118286, -0.0015913855750113726, 0.02193562500178814], [0.03890037536621094, -0.00482083298265934, -0.06945610791444778, -0.11144305020570755, 0.05333414301276207, -0.06411013752222061, 0.057715967297554016, -0.05553271248936653, -0.0032337235752493143, -0.07808458805084229, -0.031814705580472946, 0.03146735951304436, -0.010194708593189716, -0.016756027936935425, -0.01998940482735634, -0.06544077396392822], [-0.001795244519598782, -0.013365555554628372, -0.02236407808959484, -0.08413594216108322, 0.022066885605454445, -0.0206796545535326, 0.01630506105720997, -0.019638754427433014, -0.0019437131704762578, -0.07177626341581345, -0.003202608786523342, 0.009456617757678032, 0.009717632085084915, 0.006800852715969086, 0.017956500872969627, -0.014391059055924416], [-0.03529702499508858, -0.03594765067100525, 0.042563296854496, 0.09543614089488983, -0.059646643698215485, 0.04835457727313042, -0.06181252375245094, 0.05887969583272934, -0.011741690337657928, 0.07990724593400955, -0.018984399735927582, -0.04997905343770981, -0.02616071328520775, -0.026405299082398415, 0.03123443014919758, 0.04355422407388687], [0.04443521797657013, 0.025366663932800293, -0.05551711469888687, -0.0978979840874672, 0.05301064997911453, -0.06462625414133072, 0.06449336558580399, -0.05996272712945938, -0.019577283412218094, -0.07146281749010086, -0.013346197083592415, 0.04670148342847824, -0.0022407055366784334, 0.004125809296965599, -0.03454247862100601, -0.0594240203499794], [-0.03204691410064697, -0.051081158220767975, 0.033086229115724564, 0.07029709219932556, -0.039645176380872726, 0.044494111090898514, -0.07789430767297745, 0.0559503510594368, 0.02927408739924431, 0.05313295125961304, -0.04592740908265114, -0.05337013676762581, 0.02887113392353058, 0.03771977871656418, 0.03370753675699234, 0.03499500826001167], [0.040529560297727585, 0.05236942693591118, -0.045537449419498444, -0.08933375775814056, 0.05834895372390747, -0.05816568061709404, 0.07773490995168686, -0.073113352060318, -0.0025366717018187046, -0.0727715864777565, 0.023560525849461555, 0.056055620312690735, 0.016371099278330803, 0.016829773783683777, -0.036903392523527145, -0.04777943342924118], [-0.001928051933646202, 2.226951837539673, -0.025025678798556328, -0.06219257041811943, -0.011020978912711143, 0.0013306238688528538, -0.004218202084302902, -0.005959790199995041, 0.3991968631744385, -0.06284391134977341, 1.831200361251831, 0.0024803082924336195, 0.026415850967168808, 0.6120228171348572, -0.033373866230249405, -0.016679013147950172], [-0.03202611580491066, 0.026023659855127335, 0.01930145174264908, -0.020389843732118607, 0.0033572171814739704, 0.012466443702578545, -0.0075536188669502735, 0.002122855745255947, 0.014477211982011795, -0.06641807407140732, 0.05503857880830765, 0.011648030951619148, 0.058474376797676086, 0.061177074909210205, 0.036244992166757584, 0.024932172149419785], [-0.009679523296654224, -0.29093044996261597, 0.027373244985938072, 0.027382738888263702, -0.028369411826133728, 0.038328006863594055, -0.03740217164158821, 0.04976086691021919, -1.1223410367965698, 0.010496699251234531, 0.27806827425956726, -0.0340605266392231, -0.03027626872062683, 0.5950300097465515, -0.027540842071175575, 0.026764636859297752], [-0.04772685468196869, -0.020268969237804413, 0.03178824484348297, 0.05202382057905197, -0.042663998901844025, 0.036037854850292206, -0.07035145908594131, 0.047153498977422714, -0.0030065702740103006, 0.06382309645414352, -0.04392389580607414, -0.07049562782049179, 0.04414316266775131, 0.04795117303729057, 0.061552856117486954, 0.03601682186126709], [0.0009970283135771751, -2.077477216720581, 0.009837438352406025, 0.006974133662879467, 0.03350427374243736, 0.023926028981804848, 0.0050328318029642105, 0.012699216604232788, -0.35369330644607544, -0.021258540451526642, 0.7633986473083496, -0.0018845992162823677, 0.5045579671859741, 0.818354070186615, -0.03420533239841461, 0.017563939094543457], [-0.005578435026109219, -1.2127543687820435, -0.007882092148065567, 0.03793002665042877, -0.017271023243665695, -0.006543965078890324, -0.010137241333723068, 0.018200870603322983, 0.636288046836853, 0.06963393092155457, 0.679997980594635, -0.02667473442852497, 0.7329732179641724, 0.7969985604286194, 0.04802747443318367, -0.019885621964931488], [-0.00024160400789696723, -0.0247617419809103, 0.007806835696101189, -0.016425758600234985, 0.023007791489362717, 0.00791221298277378, 0.015900559723377228, -0.013249012641608715, 0.02555115520954132, -0.045506060123443604, 0.03770838677883148, 0.031426846981048584, 0.04185468703508377, -0.11573381721973419, -0.07919188588857651, 0.010443894192576408], [0.048937395215034485, -0.0021687718108296394, -0.06973181664943695, -0.11377086490392685, 0.056322477757930756, -0.0664098709821701, 0.0665031373500824, -0.05935289338231087, -0.009011807851493359, -0.08517641574144363, -0.025557778775691986, 0.042855747044086456, -0.02405557408928871, -0.03943664953112602, -0.0382038913667202, -0.073505699634552], [-0.000810376659501344, 0.010116481222212315, 0.0006836018292233348, 0.0001950364385265857, -0.00018104922492057085, 0.0005622589378617704, -0.0005680883186869323, 0.0002485322183929384, -0.003845565253868699, -0.0003883068566210568, 0.0026758620515465736, -0.0004280137945897877, 0.00503960344940424, 0.004643973894417286, -0.0005286701489239931, 0.0008481742115691304], [0.032556306570768356, -0.9421691298484802, -0.02895975112915039, 0.017102818936109543, -0.0021624104119837284, -0.008980133570730686, -0.013347454369068146, 0.005790629889816046, 0.007168623153120279, 0.0669703483581543, -0.18662042915821075, 0.019309667870402336, 0.20075339078903198, -0.3353770673274994, -0.0065796566195786, -0.0343850813806057], [-0.0013651893241330981, 0.002186371246352792, 0.0014485057909041643, 0.0005557734402827919, -0.00025465612998232245, 0.0007394107524305582, -0.00140264886431396, 0.00022748553601559252, 0.006363071501255035, 0.00013182916154619306, -0.00656905910000205, -0.00032370485132560134, -0.0009185689268633723, -0.002945784479379654, 0.0009994098218157887, 0.0014106235466897488], [-0.0012268706923350692, -0.01056184247136116, 0.0006489374791271985, -0.0007632902124896646, 0.0004891122225672007, -5.5724500271026045e-05, 6.687030690954998e-05, -0.0006185491802170873, 0.005109619349241257, -0.0015942621976137161, -0.010063973255455494, -0.00038361502811312675, 0.0011458322405815125, -0.002243835711851716, 0.0008371704025194049, 0.0007890850538387895], [-0.0009244086104445159, 0.00233417097479105, 0.0006808455800637603, -0.00028390815714374185, -0.00042285112431272864, 0.000406327802920714, -0.0006573988357558846, 0.00040981717756949365, -0.0017637091223150492, -0.00045585521729663014, -0.004706124309450388, -0.0011164058232679963, 0.001367758261039853, 0.00042439819662831724, -0.0011437437497079372, 0.0007817638688720763], [-0.000669655273668468, 0.004986865445971489, 0.0006950512761250138, -7.748149073449895e-05, -1.3735947504756041e-05, 0.00024332600878551602, -0.0004646536835934967, -5.1568506023613736e-05, 0.0037634088657796383, -0.00034775747917592525, -0.0002648092922754586, -0.00026393335429020226, 0.002245835494250059, 0.002825838280841708, -0.00042822823161259294, 0.0007037217146717012], [-0.00037083899951539934, -0.025043347850441933, 0.0011394242756068707, -7.593118061777204e-05, -0.00022630876628682017, 0.0004222581337671727, 0.0019957078620791435, -0.0002759393828455359, -0.010757741518318653, -0.002137972041964531, -0.020325416699051857, -0.001354455598630011, 0.015764115378260612, -0.009105687029659748, -0.0034658031072467566, 0.001432330347597599], [-0.00092611851869151, 0.003469151444733143, 0.0006662032101303339, -0.0005526962922886014, -0.00033731514122337103, 0.0003272045578341931, -0.00020525511354207993, 3.580226257327013e-05, 0.0031247080769389868, -0.0010268785990774632, -0.0007081892690621316, -0.0012785637518391013, 0.0026989253237843513, 0.006555257365107536, -0.00039502853178419173, 0.0009555895812809467], [0.033694539219141006, 0.5573834180831909, -0.013506564311683178, 0.03463796153664589, -0.05735928565263748, 0.0031290254555642605, 0.016903838142752647, 0.015290675684809685, -1.1988881826400757, 0.10848866403102875, -1.487561821937561, 0.03956075385212898, -0.744655430316925, 0.2670431435108185, -0.000306416506646201, -0.021444853395223618], [-0.0034695258364081383, -0.01731993816792965, 0.0010573113104328513, -0.0024788284208625555, 0.0011176051339134574, 0.00044187039020471275, 0.0031224468257278204, -0.001531587215140462, 0.003906149184331298, -0.007308470085263252, -0.021163631230592728, -0.0026381725911051035, -0.0009435960673727095, -0.01371618453413248, -0.009283608756959438, 0.002116382122039795], [-0.020906023681163788, 0.5471662878990173, 0.02404024824500084, 0.07906485348939896, -0.035193491727113724, 0.012035501189529896, -0.03158273175358772, 0.022578025236725807, 0.8007709383964539, 0.10527890175580978, 0.21893678605556488, -0.0037206639535725117, 0.43729403614997864, 0.8071528673171997, 0.12801381945610046, 0.018227731809020042], [-0.0002875631325878203, 0.008767904713749886, 0.000593858421780169, -5.620219235424884e-05, -0.0013788607902824879, 0.0010430851252749562, -0.0007887143874540925, 0.001456702477298677, -0.02303481101989746, -0.00022441890905611217, -0.012036742642521858, -0.0024446716997772455, -0.0046353875659406185, -0.003108453005552292, -0.0032837246544659138, 0.0009484559413976967], [-0.017878398299217224, 0.4497912526130676, -0.016040252521634102, -0.05934785678982735, -0.0159994475543499, 0.004054945427924395, -0.012026299722492695, 0.011761590838432312, -0.6054538488388062, -0.057798054069280624, 0.6022340059280396, -0.03156911954283714, 0.19592781364917755, 0.8460546731948853, -0.05843770131468773, -0.010388311930000782], [-0.03184850513935089, -0.4933156371116638, 0.04958604648709297, -0.014793501235544682, 0.015538480132818222, 0.02064407430589199, 0.033926479518413544, -0.01010314654558897, -0.11590255796909332, -0.08845242112874985, -1.8463635444641113, -0.01490046177059412, 1.153977870941162, -0.5756084322929382, 0.11952636390924454, 0.06506885588169098], [0.001802718616090715, 0.009237819351255894, 0.00042754001333378255, 0.00047597504453733563, 0.0013206674484536052, -0.001960854511708021, 0.00338824768550694, -0.0026751579716801643, 0.007749006152153015, 0.0015641568461433053, 0.0022146597038954496, 0.002544557675719261, 0.017492325976490974, 0.016638247296214104, 0.0015153273707255721, 0.00040609881398268044], [-0.0015300484374165535, 0.007001552730798721, 0.0014662289759144187, 0.0004402603372000158, -0.00017582684813532978, 0.0007647222955711186, -0.001175150042399764, 0.00014899375673849136, 0.00459412531927228, -0.0002741449570748955, -0.0016133897006511688, -0.00044617627281695604, 0.0011343640508130193, -0.0011594678508117795, -8.380093640880659e-05, 0.0014756432501599193]], "rec.bias_ih_l0": [-0.17456290125846863, 0.8890505433082581, -0.20949843525886536, -0.22443008422851562, -0.1610850840806961, -0.16996845602989197, -0.17824749648571014, -0.16022679209709167, -2.047628879547119, -0.16188545525074005, -2.084310293197632, -0.14630191028118134, 0.38372766971588135, -1.2902768850326538, -0.24626411497592926, -0.1907891184091568, -0.1151762455701828, -0.10502501577138901, -0.13088521361351013, -0.14761237800121307, -0.1026320829987526, -0.11072546988725662, -0.12314007431268692, -0.11129038035869598, 2.2181382179260254, -0.10999350249767303, 2.799553871154785, -0.10440737009048462, 0.23507381975650787, 1.8933669328689575, -0.15202650427818298, -0.12565402686595917, -0.008300723508000374, -0.005517791025340557, 0.0032229507341980934, -0.02715217135846615, 0.002107220469042659, 0.005720168352127075, 0.02273828350007534, -0.003448996925726533, -0.0442613810300827, -0.055232398211956024, -0.089668869972229, -0.012400597333908081, -0.008618888445198536, 0.08443740010261536, -0.029795436188578606, 0.009317288175225258, -0.1753050684928894, 0.8590326905250549, -0.21082742512226105, -0.22785161435604095, -0.16264420747756958, -0.17121881246566772, -0.17881497740745544, -0.16173961758613586, -0.17895932495594025, -0.16362087428569794, 0.22076664865016937, -0.14729243516921997, -0.1919776201248169, -0.7385404109954834, -0.24790357053279877, -0.19203661382198334], "rec.bias_hh_l0": [-0.17456290125846863, 0.8890505433082581, -0.20949843525886536, -0.22443008422851562, -0.1610850840806961, -0.16996845602989197, -0.17824749648571014, -0.16022679209709167, -2.047628879547119, -0.16188545525074005, -2.084310293197632, -0.14630191028118134, 0.38372766971588135, -1.2902768850326538, -0.24626411497592926, -0.1907891184091568, -0.1151762455701828, -0.10502501577138901, -0.13088521361351013, -0.14761237800121307, -0.1026320829987526, -0.11072546988725662, -0.12314007431268692, -0.11129038035869598, 2.2172985076904297, -0.10999350249767303, 2.799553871154785, -0.10440737009048462, 0.23507381975650787, 1.8933669328689575, -0.15202650427818298, -0.12565402686595917, -0.008300723508000374, -0.005517791025340557, 0.0032229507341980934, -0.02715217135846615, 0.002107220469042659, 0.005720168352127075, 0.02273828350007534, -0.003448996925726533, -0.12670020759105682, -0.055232398211956024, 0.015744196251034737, -0.012400597333908081, -0.008618888445198536, 0.08443740010261536, -0.029795436188578606, 0.009317288175225258, -0.1753050684928894, 0.8590326905250549, -0.21082742512226105, -0.22785161435604095, -0.16264420747756958, -0.17121881246566772, -0.17881497740745544, -0.16173961758613586, -0.17017942667007446, -0.16362087428569794, 0.22076664865016937, -0.14729243516921997, -0.1919776201248169, -0.7385404109954834, -0.24790357053279877, -0.19203661382198334], "lin.weight": [[-0.013832206837832928, -0.3043898046016693, 0.00826295930892229, 0.017758289352059364, -0.0029180317651480436, 0.014548713341355324, -0.03527861461043358, 0.01780615746974945, 0.3260689675807953, 0.015010734088718891, 0.04779396206140518, -0.012199994176626205, -0.31688639521598816, 0.19563955068588257, 0.010073885321617126, 0.009991006925702095]], "lin.bias": [0.009858554229140282]}}