{"model_data": {"model": "SimpleRNN", "input_size": 1, "skip": 1, "output_size": 1, "unit_type": "LSTM", "num_layers": 1, "hidden_size": 16, "bias_fl": true}, "state_dict": {"rec.weight_ih_l0": [[-3.635251778177917e-05], [0.0007264649029821157], [0.0001876719470601529], [0.0007562627433799207], [-0.000943267485126853], [0.2988331615924835], [0.0011512980563566089], [0.0007334050606004894], [0.012350810691714287], [-0.0004661634156946093], [-0.9935847520828247], [-0.10446237772703171], [0.0005195306148380041], [-0.0010141906095668674], [0.0002228150115115568], [-0.0016687887255102396], [5.02488728670869e-05], [0.000797666551079601], [0.0002014794881688431], [0.0006915063131600618], [-0.0008910361211746931], [-0.26785382628440857], [0.001162983593530953], [0.0007220044499263167], [0.014469779096543789], [-0.0004387504595797509], [0.1730164885520935], [0.4113834798336029], [0.0005521981511265039], [-0.000941574340686202], [0.00019000517204403877], [-0.001598185277543962], [-0.0058349925093352795], [0.01269573625177145], [-0.00013928193948231637], [-0.008403986692428589], [0.0033103523310273886], [-0.7868756055831909], [0.001725289854221046], [0.005735134705901146], [-0.007211846299469471], [-0.0021151502151042223], [0.7015827894210815], [-1.236189603805542], [0.014823589473962784], [0.0007651057676412165], [0.010726800188422203], [-0.002780816052109003], [-7.19000308890827e-05], [0.0007423163042403758], [0.00020423151727300137], [0.0007376006105914712], [-0.0009543236810714006], [-0.43351465463638306], [0.0009768166346475482], [0.0008032614132389426], [0.01307464949786663], [-0.0004883027286268771], [-1.2373837232589722], [0.11228958517313004], [0.0005341274081729352], [-0.001042123301886022], [0.00020510896865744144], [-0.0016484353691339493]], "rec.weight_hh_l0": [[-1.1714297215803526e-05, 8.316959565490833e-07, 2.486758603481576e-06, 3.885378191625932e-06, 1.0133281648450065e-05, -0.0017834698082879186, 5.561432317335857e-06, -1.8676138324735803e-06, 1.238574714079732e-05, -1.192504782920878e-06, 0.0018990696407854557, -0.0006234562024474144, 1.0937547813227866e-05, 1.0623581147228833e-05, 1.8118860680260696e-05, -2.936968030553544e-06], [3.3851585612865165e-05, -8.258133311755955e-05, -2.6855743271880783e-05, -6.554998981300741e-05, -4.374821583041921e-05, -0.004379496444016695, 6.491456588264555e-05, 3.1572442821925506e-05, 8.151214387908112e-06, 1.3322382983460557e-06, 0.0034044329077005386, 0.0004923610831610858, -0.00010620171087794006, -3.2155301596503705e-05, 9.364020115754101e-06, 1.8699698557611555e-05], [6.9946618168614805e-06, -1.7225996998604387e-05, -8.003499715414364e-06, -3.355069929966703e-05, -5.801275619887747e-06, -0.0032409520354121923, 1.3426929399429355e-05, 1.4235726666811388e-05, 7.976587949087843e-05, -6.262279839575058e-06, 0.0020434667821973562, 0.00025488826213404536, 1.578301862537046e-06, -1.5500523886657902e-07, 1.5032055671326816e-05, 9.534652889442441e-08], [-2.6041212549898773e-05, -3.9314432797254995e-05, -1.5819228792679496e-05, -2.618131838971749e-05, -1.1757650099752937e-05, -0.001953334081918001, 1.0131820999959018e-05, 1.9076947864959948e-05, 0.00016236270312219858, 2.6060813524964033e-06, 0.00172139098867774, 8.791859727352858e-05, -2.358340316277463e-05, 1.2224874808453023e-05, 2.8552360163303092e-05, -2.2681122118228814e-06], [1.5073473150550853e-05, -3.049747465411201e-05, -5.885511200176552e-06, -6.531347025884315e-05, -2.0417031919350848e-05, -0.004787725396454334, 3.508527879603207e-05, 1.6692843928467482e-05, -4.286199327907525e-05, -2.0006875274702907e-05, 0.0031000750605016947, -0.0002436059876345098, -2.280101580254268e-05, -1.4337649190565571e-05, -9.902030797093175e-06, -2.0900066374451853e-05], [0.005992240272462368, 0.012333344668149948, -0.0032536801882088184, 0.015889523550868034, 0.007992994040250778, 0.19835244119167328, -0.0042401026003062725, -0.005635500885546207, 0.038080912083387375, 0.0009908064967021346, 0.08505773544311523, -0.801552414894104, 0.013458551838994026, 0.007750243414193392, -0.007088180165737867, -0.00042403931729495525], [9.152401617029682e-06, -6.957917503314093e-05, -1.4714421013195533e-05, -6.50806468911469e-05, -3.70875459339004e-05, -0.005366719793528318, 5.917952876188792e-05, 2.652594048413448e-05, -0.00013258673425298184, -7.0016026256780606e-06, 0.0033384663984179497, 0.000504840281791985, -5.4135944083100185e-06, -2.62576559180161e-05, 2.1746089259977452e-05, 1.5471026927116327e-05], [-4.122803602513159e-06, -5.809123194921995e-06, -1.263423428099486e-06, -1.7391379515174776e-05, 4.0379800338996574e-06, -0.001414267928339541, 6.610074706259184e-06, 4.856389296037378e-06, -5.096532731840853e-06, -2.2118624656286556e-06, 0.0008146188920363784, -0.00021043221931904554, -2.1848780306754634e-05, 5.018778665544232e-06, 8.764419362705667e-06, -1.281574327549606e-06], [-0.000248576863668859, -0.00026676570996642113, 8.870715100783855e-05, -0.0007467961986549199, 5.423655966296792e-05, -0.03152468800544739, 0.00030695347231812775, 0.0003046258061658591, -0.0014101453125476837, -0.0004996989155188203, 0.0080104386433959, -0.005746637005358934, -0.0006557118613272905, 5.17696826136671e-05, 0.00027155180578120053, -0.00013244766159914434], [2.1677574295608792e-06, 3.2181356800720096e-05, -3.6590020613402885e-07, 1.714566906230175e-06, 2.9418761187116615e-05, -0.0028044157661497593, -3.527509397827089e-05, -8.712641488273221e-07, -5.898990639252588e-05, -1.183259973913664e-05, 0.0018911910010501742, -0.0004866548115387559, -6.344625489873579e-06, 3.174046287313104e-05, -3.566715349734295e-06, 2.963976385217393e-06], [0.00856008380651474, -0.004419685807079077, 0.0005658032605424523, 0.023518308997154236, -0.015667753294110298, -1.7246953248977661, -0.0022009494714438915, -0.002508288947865367, -0.011652033776044846, 0.005242037586867809, -0.46988487243652344, 0.23661313951015472, -0.010391892865300179, -0.012734323740005493, -0.020591063424944878, 0.008038175292313099], [0.007736999541521072, -0.013693973422050476, -0.005239932332187891, -0.01915740594267845, -0.015671653673052788, 0.3369799852371216, 0.009451212361454964, 0.011908665299415588, 0.06600302457809448, 0.011145410127937794, -0.32416948676109314, -0.6448480486869812, 0.00972809363156557, -0.00857421662658453, -0.014203649945557117, 0.009953096508979797], [1.101715588447405e-05, -3.7208988942438737e-05, -2.4316421331604943e-05, -9.37307340791449e-05, 1.2647858056880068e-05, -0.006542217452079058, 3.864599420921877e-05, 4.1552695620339364e-05, -1.066132313098933e-06, -1.901073665067088e-05, 0.00216702395118773, -0.0008737947791814804, -4.378911035018973e-05, 4.92342269353685e-06, 1.2256359696038999e-05, -8.385552973777521e-06], [3.1684883197158342e-06, 6.875592134747421e-06, 3.452301598372287e-06, -3.0411474654101767e-05, 2.2598584109800868e-05, -0.0035755671560764313, 2.917547362812911e-06, 1.0210281288891565e-05, -5.345837780623697e-05, -1.638956382521428e-05, 0.0025041343178600073, -0.0004311582015361637, -1.6226716979872435e-05, 2.6353234716225415e-05, -1.8185547787652467e-06, -3.189718700014055e-05], [-1.6345818949048407e-05, -1.3872232557332609e-05, -8.781772521615494e-06, -4.487350088311359e-05, 1.5844636436668225e-05, -0.0034411586821079254, -8.626024282420985e-06, 3.0286673791124485e-05, 0.00011641855962807313, -2.1743744582636282e-05, 0.0014514364302158356, -0.0014818354975432158, 2.656105971254874e-05, 2.3649961804039776e-05, 3.12086776830256e-05, -2.0872217646683566e-05], [-6.8829936026304495e-06, 2.5288893084507436e-05, 3.6969599932490382e-06, -7.2897732934507076e-06, 3.284800914116204e-05, -0.0022234611678868532, -2.4517472411389463e-05, -1.507058868810418e-07, 1.058050384017406e-05, -8.382863256883866e-07, 0.002287651412189007, 1.1191556041012518e-05, 1.494855860073585e-05, 2.8470494726207107e-05, 9.426370525034145e-06, -2.2001944671501406e-05], [-1.121402056014631e-05, 1.1582015986277838e-06, 2.735326006586547e-06, 3.3953153888433008e-06, 1.0139179721591063e-05, -0.0017509015742689371, 4.4602697926166e-06, -1.6101512301247567e-06, 2.2161792003316805e-05, 7.829356718502822e-07, 0.0018621698254719377, -0.0006519380840472877, 1.2421513019944541e-05, 9.704030162538402e-06, 1.713289020699449e-05, -2.571300399267784e-07], [3.327554077259265e-05, -8.299201726913452e-05, -2.906759073084686e-05, -6.322836270555854e-05, -4.728310159407556e-05, -0.004175249021500349, 6.308421143330634e-05, 3.189487324561924e-05, -1.1191199519089423e-05, 6.1614432524947915e-06, 0.0031729815527796745, 0.0004063377564307302, -9.957805013982579e-05, -3.531513357302174e-05, 9.850673450273462e-06, 2.3904553017928265e-05], [6.409831257769838e-06, -1.639264155528508e-05, -6.445291546697263e-06, -3.229063077014871e-05, -5.746000624640146e-06, -0.0031594913452863693, 1.2724903172056656e-05, 1.3431864317681175e-05, 7.658730464754626e-05, -6.1746891333314124e-06, 0.0019582160748541355, 0.00025094865122810006, 1.2037039596179966e-06, 2.126530205259769e-07, 1.4194492905517109e-05, 2.994453041083034e-07], [-2.6658915885491297e-05, -3.537978045642376e-05, -1.5069189430505503e-05, -2.439609306748025e-05, -9.73452642938355e-06, -0.002000238746404648, 8.110987437248696e-06, 1.7788068362278864e-05, 0.00014821594231761992, 1.312237714046205e-06, 0.0015675907488912344, 7.858600292820483e-05, -1.1971776075370144e-05, 1.2692811651504599e-05, 2.569398748164531e-05, -3.7168442759138998e-06], [1.4344285773404408e-05, -2.9075308702886105e-05, -5.837066055391915e-06, -6.356350786518306e-05, -1.9549819626263343e-05, -0.004621353931725025, 3.327014565002173e-05, 1.629295729799196e-05, -4.3292086047586054e-05, -1.999613959924318e-05, 0.00300002982839942, -0.00026439089560881257, -2.2291727873380296e-05, -1.3960771866550203e-05, -9.007017069961876e-06, -1.9693041394930333e-05], [0.02291063778102398, 0.030501343309879303, 0.00600430928170681, -0.010863461531698704, 0.033067863434553146, 0.9236873984336853, -0.014022842049598694, 0.004559636116027832, 0.011299888603389263, -0.022913632914423943, -1.7116464376449585, 0.17519646883010864, 0.004116475116461515, 0.01987372897565365, 0.029318245127797127, -0.025979576632380486], [8.18677926872624e-06, -6.446163024520501e-05, -1.3746767763223033e-05, -5.9306294133421034e-05, -3.4459546441212296e-05, -0.004959714133292437, 5.3222611313685775e-05, 2.4470267817378044e-05, -0.00013045892410445958, -1.7429944136893027e-06, 0.002979900222271681, 0.00044348067604005337, -7.584816103189951e-06, -2.4284227038151585e-05, 2.2435513528762385e-05, 1.7330152331851423e-05], [-4.531291324383346e-06, -5.332207820174517e-06, -1.7259183948681311e-07, -1.57278154802043e-05, 4.060766968905227e-06, -0.001433940720744431, 6.042961558705429e-06, 4.275201717973687e-06, -5.892142326047178e-06, -2.288518771820236e-06, 0.000749845989048481, -0.00017720939649734646, -2.2788628484704532e-05, 5.126694759383099e-06, 8.598924068792257e-06, -1.6208199440370663e-06], [-0.00031846939236856997, -0.0003700735396705568, -9.299817611463368e-05, -0.0006749040330760181, -0.00010176342038903385, -0.02747521549463272, 0.00029369417461566627, 0.00033460301347076893, -0.0010551403975114226, -0.00033351703314110637, 0.004092315211892128, -0.007762613240629435, -0.0005853993934579194, -0.0001286060141865164, 0.0001913947780849412, 4.064020322402939e-05], [1.865310650828178e-06, 3.1310566555475816e-05, -8.449217716588464e-07, 8.115155765153759e-07, 2.8984795790165663e-05, -0.0027733915485441685, -3.466890484560281e-05, -6.752095487172483e-07, -6.054367622709833e-05, -1.1394751709303819e-05, 0.0018471409566700459, -0.000479453505249694, -5.989768396830186e-06, 3.188845585100353e-05, -3.4387403502478264e-06, 3.3088365398725728e-06], [-0.0009169256663881242, -0.0015166659140959382, -0.0013691525673493743, 0.003953173290938139, -0.005738269537687302, -0.5085340738296509, 0.003854690119624138, -0.0003840572608169168, -0.009744363836944103, -0.003405865514650941, -1.3044527769088745, -0.3110634982585907, 0.0197596438229084, 0.0024798375088721514, 0.015221814624965191, -0.003518379060551524], [0.000488513964228332, -0.034268349409103394, -0.020367814227938652, -0.044183362275362015, -0.030218753963708878, 0.7720716595649719, 0.034535523504018784, 0.03112492524087429, 0.05989762768149376, 0.016466518864035606, -0.49353790283203125, -0.9784259796142578, 0.010874761268496513, -0.019274313002824783, -0.011516391299664974, 0.02230490930378437], [1.1883137631230056e-05, -4.36529990111012e-05, -2.880569445551373e-05, -9.559873433317989e-05, 7.044794983812608e-06, -0.006088500842452049, 4.119001096114516e-05, 4.566561619867571e-05, -5.250532012723852e-06, -1.717961822578218e-05, 0.0020628173369914293, -0.001068107201717794, -4.507210906012915e-05, -8.176789947356156e-07, 1.1500826985866297e-05, -3.456140802882146e-06], [2.8520960313471733e-06, 7.4534750638122205e-06, 3.048175585718127e-06, -2.9868597266613506e-05, 2.2851363610243425e-05, -0.0034379297867417336, 2.1003861547796987e-06, 1.0005197509599384e-05, -5.452376353787258e-05, -1.6691496057319455e-05, 0.002434594789519906, -0.00043742251000367105, -1.7421132724848576e-05, 2.511192906240467e-05, -8.554503665436641e-07, -3.0116849302430637e-05], [-1.3415544344752561e-05, -1.2844948287238367e-05, -1.2506811799539719e-05, -4.092651579412632e-05, 1.6554537069168873e-05, -0.003221171908080578, -1.0711442882893607e-05, 2.9212784284027293e-05, 0.0001170747127616778, -1.933105340867769e-05, 0.0014204091858118773, -0.0013930792920291424, 2.583441892056726e-05, 2.266245792270638e-05, 2.5249475584132597e-05, -1.8732112948782742e-05], [-6.213599135662662e-06, 2.487674828444142e-05, 2.280191893078154e-06, -8.464209713565651e-06, 3.498208388919011e-05, -0.0021793851628899574, -2.425753882562276e-05, 4.0555119085183833e-07, 7.236404599098023e-06, 7.492133136111079e-09, 0.002244949573650956, -6.847172699053772e-06, 1.5322944818763062e-05, 2.301795393577777e-05, 9.55320501816459e-06, -1.7602145817363635e-05], [-0.011665663681924343, -0.002309808973222971, -0.00041956707718782127, -0.0018752326723188162, 0.0030411717016249895, -0.008851919323205948, -0.000888656300958246, 0.0025283361319452524, 0.002101810649037361, -0.0006208331906236708, -0.004104888532310724, 0.0034465722274035215, 0.001037674956023693, 0.004122669342905283, 0.003413973841816187, -0.0031538826879113913], [-0.0037491549737751484, -0.012075581587851048, -0.005868040956556797, -0.005526040215045214, -0.007839987054467201, -0.0021808797027915716, 0.008420568890869617, 0.006487797014415264, 0.006672240328043699, 0.0038755855057388544, -0.017712077125906944, 0.0007026882958598435, 0.0034173247404396534, -0.0033529531210660934, -0.0007514104945585132, 0.003652038052678108], [0.0032775646541267633, -0.0015753646148368716, -0.010670912452042103, -0.0032369496766477823, -0.0006668381975032389, -0.0022874181158840656, 0.0009700180380605161, 0.0056516993790864944, -0.0017944041173905134, 0.0011911942856386304, -0.0008612345554865897, -0.0032586907036602497, -0.0013795951381325722, -0.0025575270410627127, -0.004002284724265337, 0.003660003887489438], [-0.0011148105841130018, -0.005669690202921629, -0.006050944793969393, -0.017717087641358376, -0.0015225906390696764, -0.008696908131241798, 0.006889661308377981, 0.01339313481003046, 0.008422303013503551, 0.0029077690560370684, 0.008119294419884682, -0.01830490306019783, -7.1429026320402045e-06, -0.0027729577850550413, -0.0017840121872723103, 0.003744009416550398], [-0.0012516977731138468, -0.011676390655338764, -0.004800226539373398, 0.0003607856633607298, -0.012860200367867947, -0.002773270243778825, 0.008084510453045368, 0.0009044298203662038, 0.007503901608288288, 0.008588393218815327, -0.005750585813075304, -0.01322640385478735, 0.003826647764071822, -0.009153448045253754, -0.0010870643891394138, 0.00859410036355257], [-0.0003556945302989334, -0.005072563420981169, -0.0050316471606493, -0.013815918006002903, -0.011627168394625187, 0.6059104800224304, 0.000307445036014542, 0.00502576632425189, 0.027731331065297127, 0.00920561607927084, -1.0983449220657349, 0.45604461431503296, -0.014998301863670349, -0.01700744964182377, -0.009397744201123714, 0.0174708254635334], [0.004753177985548973, 0.010434366762638092, 0.0017001945525407791, 0.008003326132893562, 0.008008260279893875, 0.010320772416889668, -0.01153862290084362, -0.006570479366928339, -0.007673774380236864, -0.004381993785500526, 0.0011464273557066917, 0.02415521629154682, -0.005478153005242348, 0.004050666932016611, -0.0024340234231203794, -0.003804293926805258], [-0.0012915637344121933, 0.0038564023561775684, 0.006407065317034721, 0.012268761172890663, -0.00018985081987921149, 0.00443244306370616, -0.004502056632190943, -0.011823821812868118, -0.0015270013827830553, -0.0011462648399174213, -0.0005014450871385634, 0.010233947075903416, 0.002003319328650832, 0.0009403618751093745, 0.002634579548612237, -0.0017551255878061056], [0.0037721965927630663, 0.007745837792754173, 0.0005290035624057055, -5.65100199310109e-05, -0.0026657877024263144, 0.10878055542707443, 0.0010175271891057491, -0.0007492336444556713, -0.0026602456346154213, -0.0026694987900555134, 0.054335467517375946, -0.0008305851370096207, -0.008060765452682972, -0.0014925063587725163, 0.012976744212210178, -0.0031525534577667713], [-0.0004320275620557368, 0.006797569803893566, 0.005480451975017786, 0.002075089607387781, 0.00833026971668005, -0.00015269908180925995, -0.004447498358786106, -0.00238436134532094, -0.0017888308502733707, -0.008876407518982887, -0.0008551239152438939, -0.0012161006452515721, -2.9821863790857606e-05, 0.008902758359909058, 0.003141700755804777, -0.008741331286728382], [0.0033827873412519693, -0.0033354228362441063, -0.005305031314492226, -0.0017658525612205267, 0.003576600458472967, 1.4228625297546387, -0.00015396355593111366, -0.0006767188315279782, 0.025880813598632812, -0.009783608838915825, 0.2962774336338043, 0.45867666602134705, 0.01614866964519024, 0.0074846139177680016, 0.00875780638307333, -0.011581222526729107], [-0.001769252703525126, -0.011923128738999367, -0.004658775869756937, -0.01346631534397602, -0.009174616076052189, -0.7977021932601929, 0.009700538590550423, 0.012713455595076084, -0.019645826891064644, 0.006910205353051424, 0.7048024535179138, -0.9606648087501526, -0.004439083393663168, 0.0006595654413104057, -0.02260596863925457, 0.0064048548229038715], [0.008257241919636726, 0.008131006732583046, -0.0007695762324146926, 0.0005694620194844902, 0.00025273548089899123, 0.027525976300239563, -0.007914344780147076, -0.0022190078161656857, -0.02327459678053856, 0.0031997866462916136, 0.013115042820572853, 0.023968124762177467, -0.021302752196788788, -0.0037942517083138227, -0.004342170897871256, 0.002946492750197649], [0.0012475104304030538, -0.009395373985171318, -0.006000950001180172, -0.0032596574164927006, -0.011649565771222115, 0.00014811026630923152, 0.007754833437502384, 0.0024225322995334864, 0.006670257076621056, 0.010253812186419964, 0.0037038240116089582, -0.0105820307508111, 0.0020280363969504833, -0.012472630478441715, -0.0022912712302058935, 0.012025770731270313], [0.008618018589913845, 0.005997100379317999, -0.003393204417079687, 0.005994992796331644, -0.0020836556795984507, 0.014056081883609295, -0.009017335250973701, -0.0046503921039402485, -0.01064327172935009, 0.004549143835902214, 0.0003847255720756948, 0.02413390390574932, -0.012023764662444592, -0.005198268685489893, -0.015729019418358803, 0.005360054317861795], [-0.0012475638650357723, 0.00884620938450098, 0.005846554413437843, 0.0037445041816681623, 0.010662611573934555, -0.0025045250076800585, -0.0075081828981637955, -0.0025586874689906836, -0.007555187214165926, -0.00981137529015541, -4.5352167944656685e-05, 0.002058741869404912, -0.001432940480299294, 0.01145447138696909, 0.002728622406721115, -0.011981405317783356], [-1.1806849215645343e-05, 7.869104479141242e-07, 2.5451806777709862e-06, 3.8547404983546585e-06, 9.796683116292115e-06, -0.0017787893302738667, 5.4651991376886144e-06, -1.8206420691058156e-06, 1.0099680366693065e-05, -1.3546837180911098e-06, 0.0019128452986478806, -0.0005634448025375605, 1.1285006621619686e-05, 1.054100357578136e-05, 1.84967830136884e-05, -3.1567446967528667e-06], [3.1871946703176945e-05, -8.177866402547807e-05, -2.6779627660289407e-05, -6.52659364277497e-05, -4.411350528243929e-05, -0.004397876560688019, 6.54813411529176e-05, 3.101797847193666e-05, 4.6301661313918885e-06, 1.787978362699505e-06, 0.003348324215039611, 0.0005458610248751938, -0.00010904463852057233, -3.2669322536094114e-05, 9.348339517600834e-06, 1.9236413209000602e-05], [6.874901828268776e-06, -1.7334452422801405e-05, -8.102686479105614e-06, -3.3742093364708126e-05, -5.725722076022066e-06, -0.003238713601604104, 1.3287811270856764e-05, 1.4472399925580248e-05, 7.832224218873307e-05, -6.224917342478875e-06, 0.002019145991653204, 0.0002372766175540164, 1.6088798702185159e-06, 9.098449282873844e-08, 1.4908416233083699e-05, 3.7418690368440366e-08], [-2.5657851438154466e-05, -3.939324233215302e-05, -1.5484247342101298e-05, -2.6128895115107298e-05, -1.2574476386362221e-05, -0.0020114369690418243, 1.0667295100574847e-05, 1.893147054943256e-05, 0.00014788545377086848, 2.3858051463321317e-06, 0.00168654415756464, 0.00017880940868053585, -2.2962698494666256e-05, 1.1554485354281496e-05, 2.791242877719924e-05, -2.089372401314904e-06], [1.4538859431922901e-05, -3.058592483284883e-05, -6.084454071242362e-06, -6.588282849406824e-05, -2.1033640223322436e-05, -0.0047878422774374485, 3.634001041064039e-05, 1.647930002945941e-05, -4.436817835085094e-05, -2.037404919974506e-05, 0.0030768427532166243, -0.00017843548266682774, -2.0831299480050802e-05, -1.520994737802539e-05, -9.399617738381494e-06, -2.068443973257672e-05], [-0.005497926380485296, -0.0011534806108102202, -0.0011096937814727426, -0.012654944323003292, 0.0013102837838232517, 0.9468778967857361, 0.00734640983864665, 0.009227592498064041, 0.011100118979811668, 0.004299934953451157, -0.6706139445304871, -0.12407238036394119, 0.007734275888651609, 7.498034392483532e-05, 0.009757406078279018, 0.004013851284980774], [8.308322321681771e-06, -6.922267493791878e-05, -1.3798684449284337e-05, -6.475847476394847e-05, -3.8282938476186246e-05, -0.005338510498404503, 6.052391472621821e-05, 2.557808875280898e-05, -0.00014063534035813063, -5.849320587003604e-06, 0.0032120603136718273, 0.0006472234963439405, -3.1128947739489377e-06, -2.7744967155740596e-05, 2.2059626644477248e-05, 1.6618369045318104e-05], [-4.171171440248145e-06, -5.688649252988398e-06, -1.201371105707949e-06, -1.7268490410060622e-05, 4.164416168350726e-06, -0.0014287736266851425, 6.4083351389854215e-06, 4.92667504659039e-06, -7.004340204730397e-06, -2.211526179962675e-06, 0.000808596087154001, -0.00021875114180147648, -2.2135976905701682e-05, 5.236284323473228e-06, 8.831398190523032e-06, -1.393570073560113e-06], [-0.00025475159054622054, -0.0002637940924614668, 8.120436541503295e-05, -0.0007452946156263351, 6.072116957511753e-05, -0.031788744032382965, 0.00030048968619666994, 0.00030531027005054057, -0.0014207380590960383, -0.0005044695571996272, 0.007638762705028057, -0.006262706592679024, -0.000650125730317086, 5.7235549320466816e-05, 0.00027153859264217317, -0.00013797267456538975], [3.3631640690146014e-06, 3.095983629464172e-05, -2.1911206715685694e-07, 1.7391442952430225e-06, 2.8706459488603286e-05, -0.0028120120987296104, -3.424827809794806e-05, -1.2593933433890925e-06, -5.849886656505987e-05, -1.1559168342500925e-05, 0.0019093044102191925, -0.00043099792674183846, -7.508422186219832e-06, 3.13325654133223e-05, -3.272620006100624e-06, 2.9101481686666375e-06], [0.005914484616369009, -0.006090541835874319, 0.00435598473995924, 0.015267837792634964, -0.016640860587358475, 0.1837170571088791, -0.0016009591054171324, -0.0024867530446499586, 0.026322152465581894, 0.005629917606711388, -0.10496971756219864, 0.34222596883773804, -0.0029976817313581705, -0.009015262126922607, -0.01859741099178791, 0.012569377198815346], [0.010932357981801033, -0.0064652650617063046, -0.0019608899019658566, -0.010529057122766972, -0.010296766646206379, 0.33040764927864075, 0.0036083662416785955, 0.00620510708540678, 0.03306062892079353, 0.007942445576190948, -0.4632883071899414, -0.3125249147415161, -0.0011104511795565486, -0.0067696780897676945, -0.017737729474902153, 0.008281839080154896], [1.1454280866018962e-05, -3.7851266824873164e-05, -2.4868631953722797e-05, -9.396857058163732e-05, 1.2905777111882344e-05, -0.006508283317089081, 3.8317801227094606e-05, 4.206156518193893e-05, 7.411510068777716e-06, -1.8821196135831997e-05, 0.0021552604157477617, -0.0009107119403779507, -4.222084317007102e-05, 5.661083832819713e-06, 1.3084178135613911e-05, -8.566108590457588e-06], [3.8687871892761905e-06, 6.2065951169643085e-06, 3.268775117248879e-06, -3.098412707913667e-05, 2.1533400285989046e-05, -0.003570555243641138, 4.011099463241408e-06, 1.0040865163318813e-05, -5.092395804240368e-05, -1.6643489288981073e-05, 0.0024878617841750383, -0.0003604762314353138, -1.6986337868729606e-05, 2.550313547544647e-05, -1.667436436036951e-06, -3.135535735054873e-05], [-1.6266618331428617e-05, -1.5488507415284403e-05, -8.927928320190404e-06, -4.466263635549694e-05, 1.4967916285968386e-05, -0.0035084569826722145, -7.80925438448321e-06, 3.0172745027812198e-05, 0.00011406451812945306, -2.1494151951628737e-05, 0.0015017217956483364, -0.0014266000362113118, 2.6729909222922288e-05, 2.3275339117390104e-05, 3.122951602563262e-05, -2.0552261048578657e-05], [-5.9983422033838e-06, 2.4227707399404608e-05, 3.67540496881702e-06, -7.4185368248436134e-06, 3.192095391568728e-05, -0.0022270567715168, -2.3438444259227253e-05, -3.837510291759827e-07, 1.1628861102508381e-05, -7.995742521416105e-07, 0.0023042382672429085, 6.18523481534794e-05, 1.3208385098550934e-05, 2.7873851649928838e-05, 9.71344252320705e-06, -2.1461490177898668e-05]], "rec.bias_ih_l0": [-0.013730448670685291, -0.013015040196478367, -0.010862941853702068, -0.016852132976055145, -0.014039198867976665, -1.4896838665008545, -0.012564034201204777, -0.011055303737521172, -0.024292081594467163, -0.009310987778007984, -0.9567745923995972, -0.370861679315567, -0.02603972516953945, -0.013323434628546238, -0.01793787069618702, -0.012703007087111473, -0.01203104667365551, -0.012305213138461113, -0.010717293247580528, -0.017537692561745644, -0.01320995669811964, 1.3198952674865723, -0.011876944452524185, -0.011599984019994736, -0.007472342345863581, -0.00906330719590187, 1.7019764184951782, 0.5853762626647949, -0.02239065244793892, -0.01277603954076767, -0.016083143651485443, -0.012269078753888607, -0.005529936868697405, -0.008933736011385918, 0.007492182310670614, 0.004030478186905384, 0.010979329235851765, -0.05750400945544243, -0.00536228297278285, -0.0022993821185082197, -0.0223818589001894, -0.001687288167886436, -0.24033702909946442, 0.24312752485275269, 0.0016078486805781722, -0.0027096658013761044, 0.014754623174667358, 0.010950500145554543, -0.013745270669460297, -0.013053147122263908, -0.010899849236011505, -0.017054246738553047, -0.014049503952264786, 0.3686715066432953, -0.012640882283449173, -0.011262883432209492, -0.024224821478128433, -0.009315193630754948, 0.10835660248994827, 0.20568281412124634, -0.026088973507285118, -0.013331026770174503, -0.018088985234498978, -0.01271666120737791], "rec.bias_hh_l0": [-0.013730448670685291, -0.013015040196478367, -0.010862941853702068, -0.016852132976055145, -0.014039198867976665, -1.6028783321380615, -0.012564034201204777, -0.011055303737521172, -0.024292081594467163, -0.009310987778007984, -0.9358075261116028, -0.30284714698791504, -0.02603972516953945, -0.013323434628546238, -0.01793787069618702, -0.012703007087111473, -0.01203104667365551, -0.012305213138461113, -0.010717293247580528, -0.017537692561745644, -0.01320995669811964, 1.388786792755127, -0.011876944452524185, -0.011599984019994736, -0.007472342345863581, -0.00906330719590187, 1.609650731086731, 0.42623069882392883, -0.02239065244793892, -0.01277603954076767, -0.016083143651485443, -0.012269078753888607, 0.007058143615722656, 0.0021040996070951223, -0.006949512753635645, 0.008713780902326107, -0.016584502533078194, 0.09809736162424088, 0.00524854613468051, -0.002053166041150689, 0.005385955795645714, 0.005935863126069307, -0.2766702175140381, 0.2220688909292221, -0.006029973272234201, -0.001484841457568109, -0.020395414903759956, -0.006528716534376144, -0.013745270669460297, -0.013053147122263908, -0.010899849236011505, -0.017054246738553047, -0.014049503952264786, 0.35297977924346924, -0.012640882283449173, -0.011262883432209492, -0.024224821478128433, -0.009315193630754948, -0.043631866574287415, 0.1417539268732071, -0.026088973507285118, -0.013331026770174503, -0.018088985234498978, -0.01271666120737791], "lin.weight": [[0.0018994665006175637, -0.0018231439171358943, 9.783976565813646e-05, 0.006585759576410055, 0.0014972721692174673, 0.22857767343521118, -0.0007996665081009269, -0.004372365307062864, -0.014128551818430424, -0.0053572398610413074, -0.4033169150352478, 0.8036450147628784, 0.002698716940358281, 0.0017909026937559247, 0.010684764944016933, -0.004996400326490402]], "lin.bias": [-0.17500977218151093]}}