{"model_data": {"model": "SimpleRNN", "input_size": 1, "skip": 1, "output_size": 1, "unit_type": "LSTM", "num_layers": 1, "hidden_size": 16, "bias_fl": true}, "state_dict": {"rec.weight_ih_l0": [[0.399687796831131], [0.32676151394844055], [-0.2722416818141937], [0.015680652111768723], [-0.07877108454704285], [-0.5986760854721069], [-0.3182336091995239], [-0.01583343744277954], [0.31439077854156494], [-0.011282587423920631], [-0.40548059344291687], [-0.44606003165245056], [-0.5279715061187744], [0.46973928809165955], [-0.03281492367386818], [-0.17754597961902618], [0.21925239264965057], [0.26902303099632263], [-0.06907384842634201], [0.01165030337870121], [-0.017672628164291382], [-0.5532768368721008], [-0.307550311088562], [-0.009993006475269794], [0.19503268599510193], [0.010364205576479435], [-0.47999992966651917], [-0.2948298752307892], [-0.27185702323913574], [0.4965725541114807], [-0.04872197285294533], [-0.3803623616695404], [0.5865728259086609], [0.34192851185798645], [0.5245640873908997], [-0.2877158224582672], [0.31800970435142517], [-0.35279184579849243], [0.5592672228813171], [-0.045504674315452576], [-0.5616545677185059], [0.6552079319953918], [0.5133422613143921], [-0.7658666372299194], [0.4233585298061371], [0.5387081503868103], [-0.4662744104862213], [0.4418126046657562], [0.28654375672340393], [0.3170354664325714], [-0.3882693946361542], [0.015747249126434326], [-0.09134995937347412], [-0.3948403298854828], [-0.5077201128005981], [-0.01527244970202446], [0.3087446093559265], [-0.12368115782737732], [-0.8216054439544678], [-0.4821103513240814], [-0.6396417617797852], [0.44268739223480225], [0.0187616478651762], [-0.3475273549556732]], "rec.weight_hh_l0": [[0.006019173189997673, -0.10219386219978333, -0.07282313704490662, -0.010746664367616177, 0.004059699829667807, 0.039000991731882095, 0.16360047459602356, -0.0004020270425826311, 0.037620704621076584, 0.03597880154848099, -0.019543690606951714, 0.0496525913476944, -0.0764017254114151, -0.11282947659492493, 0.008139071054756641, 0.0005290951230563223], [-0.04281448572874069, -0.061995979398489, 0.0816604271531105, -0.007635666523128748, -0.0059680333361029625, 0.2517246603965759, 0.18818427622318268, -0.007442035246640444, 0.04024575650691986, 0.048402342945337296, 0.002613359596580267, -0.049966130405664444, 0.06889917701482773, -0.07424135506153107, 0.019818687811493874, -0.03315383195877075], [-0.05115584284067154, 0.037693917751312256, -0.060624901205301285, -0.0025943988002836704, 0.02896222472190857, -0.07494004815816879, 0.14008456468582153, 0.004234429448843002, -0.009660635143518448, -0.06336919963359833, -0.07147017121315002, 0.08474596589803696, 0.14874206483364105, -0.017602447420358658, -0.044512033462524414, 0.047757767140865326], [-0.006685376632958651, -0.012725763954222202, 0.04187625274062157, -0.00036969053326174617, 0.0005974331288598478, -0.05993642657995224, 0.14649176597595215, -0.00011123212607344612, -0.0023866803385317326, 0.003258008975535631, 0.08523271232843399, -0.06620462983846664, 0.05575358122587204, -0.027467217296361923, -0.0011016211938112974, 0.04033537954092026], [-0.0008175053517334163, -0.05517988279461861, 0.07676742225885391, -0.0013231652555987239, 0.013371488079428673, -0.08333365619182587, 0.14688146114349365, 0.00013881434279028326, -0.0029458608478307724, 0.022463969886302948, 0.14975455403327942, -0.05992482975125313, 0.03470723330974579, -0.03620512783527374, -0.009411768987774849, 0.04084112495183945], [-0.13973703980445862, -0.1293743997812271, 0.11492980271577835, -0.001983846304938197, -0.008713269606232643, 0.3842686414718628, -0.03543207794427872, -0.11142010986804962, 0.12262514233589172, 0.0434119738638401, 0.13145692646503448, -0.1320943981409073, 0.025325387716293335, -0.07058596611022949, -0.011470011435449123, 0.045841462910175323], [-0.005489636212587357, -0.004183504264801741, 0.0203867144882679, -0.0001016261157928966, 0.02278911881148815, -0.15096384286880493, 0.02723941020667553, 0.008419131860136986, 0.02244197390973568, -0.008876594714820385, -0.0201889518648386, -0.00382758560590446, 0.0314788855612278, -0.030254075303673744, 0.009114678017795086, 0.04126473143696785], [-0.009286853484809399, -0.011844996362924576, 0.008807932026684284, 0.00017614816897548735, -0.00026324938517063856, -0.07316966354846954, 0.08241747319698334, 0.001989635406062007, 0.004288520663976669, -0.0011999892303720117, 0.041508547961711884, -0.027282459661364555, 0.02972615882754326, -0.012811969965696335, 0.005238677375018597, 0.014475827105343342], [-0.004819601308554411, -0.004035331774502993, -0.015477619133889675, -0.008671249262988567, 0.0011811270378530025, 0.05318135768175125, -0.12151691317558289, 0.0009547153604216874, 0.03071882389485836, 0.0005365806282497942, -0.07290284335613251, 0.008433623239398003, 0.043331123888492584, -0.07968705147504807, -0.018297228962183, -0.09519261866807938], [-0.015342842787504196, -0.02838016487658024, 0.06952886283397675, -0.004776780493557453, 0.0241291094571352, -0.0069075389765203, 0.11529665440320969, 0.003475859761238098, 0.003715451806783676, 0.020349107682704926, 0.004453645087778568, -0.11040568351745605, 0.04763747751712799, -0.03310821205377579, -0.002710543340072036, 0.047449491918087006], [-0.1359398066997528, 0.029537810012698174, 0.08751147985458374, 0.006266269367188215, -0.0311039499938488, -0.3925991952419281, 0.07634560763835907, -0.0026426021941006184, 0.05780486762523651, -0.09974619746208191, 0.14166536927223206, 0.06397810578346252, 0.17244111001491547, 0.1395719200372696, -0.19974878430366516, 0.0917067900300026], [0.12110089510679245, 0.09351956099271774, 0.10892720520496368, -0.026906536892056465, 0.08111520856618881, 0.0006942048203200102, -0.1837555170059204, 0.031093930825591087, -0.0451953150331974, 0.0009916572598740458, 0.15371330082416534, 0.07383612543344498, 0.20198006927967072, -0.04161025956273079, -0.11676020175218582, 0.022967055439949036], [0.0515785738825798, -0.09546314924955368, 0.15563514828681946, 0.008953932672739029, 0.04423372447490692, -0.24963507056236267, -0.051205068826675415, -0.0046307905577123165, 0.05908772349357605, -0.04385169595479965, 0.037954844534397125, -0.04985034465789795, 0.17301414906978607, 0.08671719580888748, -0.13105668127536774, 0.042982976883649826], [0.055324703454971313, -0.16428084671497345, -0.020936081185936928, -0.011992211453616619, 0.014647108502686024, 0.24922789633274078, -0.1158355325460434, 0.007947116158902645, 0.1083335280418396, 0.036368221044540405, 0.035637855529785156, -0.09481678158044815, -0.0931447222828865, -0.19517727196216583, 0.03446505591273308, 0.06771960854530334], [-0.056176282465457916, -0.03805339336395264, 0.027770668268203735, 0.0015840970445424318, -0.0018866488244384527, -0.198838472366333, 0.17303283512592316, 0.0010394153650850058, -0.005874281749129295, -0.01694277487695217, -0.021258531138300896, -0.050955336540937424, 0.05307406559586525, -0.054499346762895584, -0.0903959795832634, 0.11923428624868393], [0.06719425320625305, -0.02256990782916546, -0.05025896430015564, 0.005601448006927967, 0.03229450434446335, -0.2341720461845398, -0.10794432461261749, -0.008707927539944649, -0.004722991958260536, 0.009137311019003391, 0.1314937174320221, 0.11121087521314621, 0.02932600863277912, 0.0802234634757042, 0.025139683857560158, -0.07431928813457489], [-0.04395164176821709, -0.06527821719646454, -0.05820753797888756, -0.011025501415133476, 0.0010435370495542884, 0.2745141386985779, -0.06290369480848312, 0.0018846410093829036, 0.06132657453417778, 0.013352002017199993, 0.05721866711974144, -0.06524492055177689, 0.0665808767080307, -0.0919763594865799, 0.045077547430992126, 0.05937693268060684], [-0.08559118956327438, -0.1487872302532196, 0.07630493491888046, -0.008631349541246891, -0.009380511939525604, 0.23655137419700623, -0.03556978330016136, -0.004887306597083807, 0.021497434005141258, -0.019411897286772728, 0.11646565049886703, -0.0291571207344532, 0.08107943832874298, -0.030987536534667015, 0.02088319882750511, 0.0064924913458526134], [0.08134418725967407, 0.06570162624120712, 0.25927460193634033, -0.013220516964793205, 0.10737190395593643, -0.11670750379562378, 0.009366411715745926, 0.01458942610770464, -0.0065787178464233875, -0.07234346866607666, -0.0965036004781723, -0.21560262143611908, 0.06315425783395767, -0.012828606180846691, -0.1640603244304657, 0.18532218039035797], [0.0003555617877282202, -0.0007617405499331653, 0.017874954268336296, -0.00033768764114938676, 0.0003421636065468192, -0.019576162099838257, 0.08212240040302277, 5.823377796332352e-05, -0.0019468906102702022, 0.0004520478250924498, 0.04144778102636337, -0.03033357858657837, 0.021955424919724464, -0.006627141963690519, 6.733850750606507e-05, 0.014328990131616592], [-0.03713907673954964, -0.03339521586894989, 0.0643424242734909, -0.0010824848432093859, 0.011076184920966625, -0.06068950518965721, 0.07424119114875793, 0.0004057096957694739, -0.003098108107224107, 0.015335298143327236, 0.08022013306617737, -0.07146138697862625, 0.11962320655584335, -0.006092504598200321, -0.01041417196393013, 0.032934434711933136], [0.2777189612388611, 0.13095895946025848, -0.21213503181934357, -0.02223910577595234, -0.09871391952037811, 0.6572770476341248, -0.6014882922172546, -0.03571038320660591, -0.08954910188913345, 0.11167289316654205, -0.19643281400203705, 0.393240749835968, -0.45878252387046814, 0.058775462210178375, 0.23751844465732574, -0.3494095504283905], [0.03527252376079559, -0.0012589553371071815, 0.08879800885915756, -0.007722560316324234, 0.04119272902607918, -0.09015844762325287, 0.039160314947366714, 0.014423290267586708, 0.001925589400343597, -0.006459654774516821, -0.05892164632678032, 0.007432887330651283, 0.023934902623295784, -0.0004664805019274354, -0.016610901802778244, 0.09993526339530945], [-0.002405685605481267, -0.0022547882981598377, 0.0011996820103377104, -0.00011317754251649603, -3.593698420445435e-05, -0.025087935850024223, 0.041422970592975616, 0.0014897504588589072, 0.002527497010305524, -0.0006995971780270338, 0.01889153942465782, -0.012028342112898827, 0.010538498871028423, -0.0035691363736987114, 0.005044591147452593, 0.0025300122797489166], [-0.040243085473775864, -0.013698244467377663, 0.0433497317135334, -0.010000544600188732, 0.006091497838497162, 0.002179803792387247, 0.14818915724754333, 0.004265648312866688, 0.024727648124098778, 0.008016492240130901, -0.013789067976176739, -0.022727059200406075, -0.01623913086950779, -0.10536015778779984, -0.026194656267762184, 0.02988823875784874], [-0.01999569498002529, 0.026139026507735252, 0.06298908591270447, -0.009249802678823471, 0.03203718736767769, -0.018644070252776146, 0.04787212237715721, 0.009297615848481655, 0.0005984755698591471, 0.010746645741164684, -0.048287421464920044, -0.049430590122938156, 0.03134303539991379, -0.030086038634181023, 0.006073237396776676, 0.022161193192005157], [-0.005591578781604767, 0.11609417200088501, 0.03399333730340004, -0.00985647551715374, 0.1271866410970688, -0.25426068902015686, -0.16040709614753723, 0.009865138679742813, -0.07214062660932541, -0.0012561760377138853, -0.17694257199764252, -0.045896951109170914, 0.04163365066051483, -0.016656646504998207, 0.0402129702270031, 0.11146064847707748], [0.12518350780010223, -0.023857837542891502, -0.056141775101423264, -0.02722872793674469, 0.11933016031980515, -0.18072077631950378, 0.14741632342338562, 0.02725309133529663, -0.06478866934776306, -0.05805159732699394, 0.05692754685878754, -0.23370417952537537, 0.08312701433897018, -0.07387804239988327, -0.004272576421499252, 0.0556345134973526], [0.060445982962846756, -0.10312991589307785, 0.14469142258167267, 0.00664054648950696, 0.05398513004183769, -0.38086989521980286, -0.0750415027141571, -0.003407685784623027, 0.023439865559339523, -0.02677372470498085, 0.09127656370401382, -0.20936991274356842, 0.07952586561441422, -0.0711299404501915, -0.16036467254161835, 0.03890958055853844], [-0.020520435646176338, 0.019683049991726875, 0.018347568809986115, -0.012721060775220394, 0.010093131102621555, 0.2563830018043518, 0.2412291318178177, 0.010565586388111115, 0.07570949196815491, 0.09456203877925873, 0.0627550333738327, 0.06877337396144867, -0.07572176307439804, -0.13752751052379608, 0.0831337571144104, -0.03875874727964401], [-0.04933232069015503, -0.07035697996616364, 0.036894816905260086, 0.0005023338017053902, 0.00132556795142591, -0.21865957975387573, 0.02730496972799301, 0.0026334174908697605, -0.007351023610681295, -0.021069655194878578, 0.03394388407468796, -0.08523097634315491, 0.06626202166080475, -0.018668167293071747, -0.05621705949306488, 0.048156410455703735], [-0.12258263677358627, -0.017861463129520416, 0.015856901183724403, 0.003990791272372007, 0.01512940227985382, -0.18713845312595367, 0.021556783467531204, -0.005834418348968029, -0.011344058439135551, -0.05659356713294983, 0.08748887479305267, -0.09511830657720566, 0.0009669872815720737, 0.08215924352407455, -0.11794155091047287, 0.16670222580432892], [-0.12501585483551025, 0.11316050589084625, -0.23615093529224396, 0.03271552920341492, 0.0751751959323883, 0.3439866602420807, 0.010808377526700497, 0.09462155401706696, 0.11832024157047272, 0.0021789432503283024, 0.28248679637908936, 0.05938996002078056, -0.0749627947807312, 0.0677054151892662, 0.07844706624746323, -0.2277146279811859], [-0.1811642199754715, -0.1406712830066681, 0.022666634991765022, 0.1020667627453804, -0.08715610951185226, 0.3099120855331421, 0.14386236667633057, -0.07967769354581833, 0.15816012024879456, -0.08030008524656296, -0.1020650714635849, -0.06984777003526688, 0.11721652001142502, 0.12098343670368195, 0.12353590130805969, -0.14352302253246307], [0.073238804936409, 0.18902651965618134, -0.2611795961856842, 0.15544016659259796, 0.08153786510229111, 0.3567793071269989, 0.08170177787542343, 0.015026784501969814, 0.08046621084213257, 0.2312634438276291, 0.03997140750288963, -0.1579229235649109, 0.08995931595563889, 0.1995929330587387, 0.14440076053142548, 0.10276127606630325], [-0.05258406698703766, -0.1483442485332489, 0.14987049996852875, -0.17895135283470154, 0.04885103181004524, -0.14017297327518463, 0.03134699538350105, 0.14663878083229065, -0.02979750744998455, 0.2412494271993637, -0.036594096571207047, 0.022117266431450844, 0.02201060764491558, 0.10936903208494186, -0.12701672315597534, 0.2542036473751068], [-0.15105479955673218, -0.08277536183595657, -0.09539910405874252, 0.04526620730757713, -0.1709517389535904, 0.15553238987922668, -0.060786474496126175, -0.024211999028921127, 0.022850757464766502, -0.0788717195391655, -0.028347624465823174, 0.11732161045074463, 0.06023179739713669, -0.01391951646655798, 0.2198008894920349, -0.03881879895925522], [-0.0249094907194376, 0.11515402048826218, -0.22649067640304565, 0.04460805654525757, 0.020559774711728096, 0.4143660366535187, 0.08300671726465225, -0.035454653203487396, 0.23590926826000214, 0.006704055238515139, -0.04553529992699623, -0.09305691719055176, -0.08445827662944794, -0.27441567182540894, 0.24472713470458984, -0.14492887258529663], [-0.026848582550883293, -0.0441838875412941, 0.06507136672735214, -0.002347863744944334, -0.024064108729362488, -0.08340516686439514, 0.38050907850265503, -0.010958408936858177, -0.11001040786504745, 0.03268780931830406, 0.22333857417106628, -0.054013412445783615, -0.06080843508243561, -0.053347453474998474, -0.11622758954763412, 0.14273320138454437], [-0.03973601758480072, -0.05910123512148857, 0.033268921077251434, 0.08501458913087845, 0.09849028289318085, -0.03457103669643402, 0.06717846542596817, -0.04273465275764465, 0.05410416051745415, -0.2019186019897461, 0.09431996196508408, 0.15600673854351044, -0.061525117605924606, 0.11656440794467926, 0.16703762114048004, -0.23447544872760773], [-0.08775179088115692, 0.2245103120803833, -0.12198781222105026, -0.023788457736372948, 0.0034763573203235865, -0.2583809792995453, 0.22842122614383698, -0.06122417002916336, -0.25339382886886597, 0.011311235837638378, -0.10073600709438324, -0.06384965777397156, 0.2555557191371918, -0.11259260028600693, -0.09866492450237274, 0.21913546323776245], [-0.19771218299865723, -0.011181735433638096, -0.21318838000297546, 0.0599777027964592, -0.2026006430387497, 0.4081294536590576, -0.21543486416339874, -0.04721981659531593, 0.25362446904182434, 0.10282290726900101, -0.2149200290441513, 0.28028491139411926, -0.011545548215508461, -0.05367916822433472, 0.2568809986114502, -0.10958681255578995], [-0.1499163806438446, 0.21938654780387878, 0.04854424297809601, -0.03302384540438652, 0.06298307329416275, 0.35551217198371887, -0.15059390664100647, 0.14441676437854767, 0.061800070106983185, 0.09603925049304962, -0.021094847470521927, -0.20408111810684204, 0.13941195607185364, -0.22333140671253204, 0.17370955646038055, -0.2984960079193115], [-0.1521155685186386, 0.14610664546489716, -0.09607703983783722, -0.1321386694908142, 0.1713305413722992, -0.4730137288570404, -0.01624986343085766, -0.04025081545114517, 0.12039277702569962, 0.09800484776496887, 0.01396092213690281, -0.09371447563171387, 0.11398617178201675, -0.009107735008001328, -0.0483844019472599, 0.213865265250206], [-0.06396909058094025, -0.01849694922566414, 0.028617801144719124, 0.0755397379398346, -0.17425213754177094, 0.05927834287285805, -0.2014969438314438, -0.04301350563764572, -0.06071658059954643, -0.00812483113259077, 0.0306655615568161, 0.09572265297174454, -0.15111850202083588, -0.060491956770420074, 0.04079153388738632, -0.23071430623531342], [-0.15489381551742554, -0.21380463242530823, -0.030072921887040138, -0.03811943531036377, -0.02051347866654396, 0.2951805591583252, 0.0481204092502594, 0.27478083968162537, 0.40913498401641846, 0.22904156148433685, 0.08151619136333466, 0.15880776941776276, -0.026155434548854828, 0.0631868988275528, 0.14709517359733582, 0.08408551663160324], [0.11449795961380005, 0.03415058180689812, 0.0679025873541832, 0.1588265746831894, 0.07833989709615707, -0.05461985245347023, -0.03504881262779236, -0.19065141677856445, 0.03736179694533348, -0.23215100169181824, -0.16794754564762115, 0.20210063457489014, -0.012464625760912895, 0.22269800305366516, -0.22719332575798035, 0.028318539261817932], [0.09847715497016907, 0.21137206256389618, -0.10472894459962845, -0.04500730708241463, 0.0038904959801584482, 0.12721066176891327, 0.06859084218740463, 0.07930877059698105, 0.09660965949296951, 0.1411844938993454, 0.24153052270412445, -0.20341810584068298, 0.1562245488166809, 0.14569242298603058, 0.03292982652783394, 0.13349182903766632], [-0.10707473009824753, 0.0031615211628377438, 0.0571407824754715, -0.009381568059325218, -0.008310390636324883, 0.12404490262269974, -0.026799175888299942, 0.0012001529103145003, 0.028889967128634453, 0.02746620774269104, 0.04976706951856613, -0.12574458122253418, 0.10462895035743713, -0.12792861461639404, -0.013200961984694004, -0.028959359973669052], [0.028323758393526077, -0.05536428093910217, -0.05710744857788086, -0.005535087548196316, -0.0034534535370767117, 0.1744888871908188, 0.18773573637008667, -0.007560781203210354, 0.05028901621699333, 0.01242514792829752, 0.18469418585300446, -0.015008684247732162, -0.009128094650804996, 0.005425402894616127, 0.03295660391449928, 0.01791383884847164], [-0.0782737210392952, 0.04812396317720413, 0.07575172185897827, -0.005574019625782967, 0.04678473621606827, -0.17836235463619232, -0.0035767878871411085, 0.0049607716500759125, 0.011387267149984837, 0.019719397649168968, 0.11552786827087402, -0.09711787104606628, 0.13509167730808258, 0.05404415354132652, 0.041745491325855255, -0.05196405574679375], [-0.006061013322323561, -0.011758682318031788, 0.03997300565242767, -0.00035310329985804856, 0.0005119204288348556, -0.05650469288229942, 0.14280985295772552, -7.456005550920963e-05, -0.0022595669142901897, 0.002815418876707554, 0.08200502395629883, -0.06344626843929291, 0.05307953059673309, -0.02584506757557392, -0.0010080276988446712, 0.03821656107902527], [-0.03805295005440712, -0.052137602120637894, 0.09269759804010391, -0.0012398865073919296, 0.012806205078959465, -0.09621097147464752, 0.16949288547039032, 0.00027288252022117376, -0.0022403812035918236, 0.017810599878430367, 0.09162095934152603, -0.036386046558618546, 0.0566234365105629, -0.030779534950852394, -0.015259717591106892, 0.061512112617492676], [-0.1055179014801979, -0.08162566274404526, 0.14018438756465912, -0.017693502828478813, 0.008893707767128944, 0.1248110979795456, -0.19101887941360474, -0.038205333054065704, 0.03577698767185211, 0.0468236468732357, -0.029906990006566048, 0.07523279637098312, 0.09716681391000748, 0.018440669402480125, 0.09802423417568207, -0.03914416953921318], [-0.15794403851032257, -0.11844483017921448, 0.18466603755950928, -0.03741869702935219, 0.08965432643890381, -0.17736086249351501, 0.4191707670688629, 0.04333210736513138, 0.03484822437167168, 0.025268901139497757, 0.10556076467037201, -0.07647452503442764, 0.0985255315899849, -0.1645229607820511, -0.028245845809578896, 0.20444561541080475], [-0.006202831864356995, -0.007766171358525753, 0.006246085278689861, 4.784357952303253e-05, -0.00017150089843198657, -0.05851688235998154, 0.07421703636646271, 0.0018381894333288074, 0.003674596780911088, -0.0009282689425162971, 0.034006517380476, -0.023547060787677765, 0.02213260531425476, -0.009217953309416771, 0.005901303607970476, 0.009884348139166832], [-0.02825121209025383, 0.05000797286629677, -0.06397341936826706, -0.008472457528114319, 0.0020413848105818033, 0.04126988723874092, 0.039170581847429276, 0.002277184510603547, 0.033058274537324905, -0.011902677826583385, -0.061054620891809464, 0.03691788390278816, -0.06043371558189392, 0.013807452283799648, -0.01605050638318062, -0.02577986940741539], [-0.0037675939965993166, -0.031002068892121315, 0.09346079081296921, -0.007614533882588148, 0.0345495343208313, -0.04661932215094566, 0.12697038054466248, 0.0063753086142241955, 0.010198802687227726, 0.03899462893605232, 0.05128273740410805, -0.033724382519721985, 0.010128684341907501, -0.0845932736992836, -0.0026259534060955048, 0.11651968210935593], [0.12167293578386307, -0.1683753877878189, 0.03714817762374878, -0.015444382093846798, 0.16061489284038544, -0.21454927325248718, 0.10530231148004532, 0.0022914379369467497, 0.08166998624801636, -0.011683621443808079, 0.2070484608411789, -0.12265414744615555, 0.19907183945178986, 0.0499754399061203, 0.04916283115744591, -0.00119025819003582], [0.0764179676771164, 0.16319212317466736, 0.11506208777427673, -0.030158068984746933, 0.0028934860602021217, -0.2064392864704132, 0.004222731571644545, 0.03471536561846733, 0.02324683591723442, -0.018888838589191437, 0.0952938124537468, -0.09374210238456726, -0.07335395365953445, -0.06435275077819824, 0.05037061497569084, 0.13532982766628265], [0.0026356647722423077, -0.11129435151815414, 0.037343673408031464, 0.0057152314111590385, 0.030071957036852837, 0.028783727437257767, 0.20684389770030975, -0.003309396328404546, 0.024700723588466644, -0.07000058889389038, -0.11269833147525787, 0.10642324388027191, 0.053464386612176895, 0.06570810824632645, -0.03187013044953346, -0.022252578288316727], [-0.13841362297534943, -0.06048174947500229, 0.04573383554816246, -0.009565088897943497, -0.011070776730775833, 0.23850490152835846, 0.06858531385660172, 0.008420608006417751, 0.03734269738197327, 0.04544879496097565, -0.03655250370502472, -0.15639939904212952, 0.13556748628616333, 0.012501126155257225, 0.03495574742555618, 0.06246354430913925], [-0.03078245371580124, -0.013434629887342453, 0.020733213052153587, 0.0012185877421870828, -0.000526153133250773, -0.18016797304153442, 0.13556326925754547, 0.002054573269560933, -0.008737335912883282, -0.02375425398349762, 0.03545260801911354, 0.007822155021131039, 0.12063983827829361, -0.03245242312550545, -0.0373670794069767, 0.014591867104172707], [-0.10296860337257385, 0.03293764218688011, 0.08578096330165863, 0.0038906754925847054, -0.014365722425282001, -0.07113470882177353, 0.09083937108516693, -0.011454873718321323, 0.00814671628177166, -0.09333011507987976, -0.10917604714632034, 0.07356709241867065, 0.07179247587919235, 0.023019127547740936, 0.007778446190059185, 0.042959704995155334]], "rec.bias_ih_l0": [-0.059687696397304535, -0.14854958653450012, 0.15967272222042084, -0.39394956827163696, -0.3059539198875427, 0.052196018397808075, -0.038755740970373154, -0.2564201354980469, -0.11584040522575378, -0.13023295998573303, -0.18357503414154053, -0.20869305729866028, 0.017413659021258354, 0.12186308205127716, -0.06065906956791878, -0.07319439202547073, -0.17175793647766113, -0.21378496289253235, 0.18428468704223633, -0.28493988513946533, 0.05619922652840614, 0.3282639682292938, 0.07557503879070282, -0.13870179653167725, -0.15370787680149078, -0.04313338175415993, 0.2548355162143707, 0.20538119971752167, -0.02793147787451744, -0.28240957856178284, -0.26075026392936707, -0.03351360931992531, -0.05714976042509079, 0.029273856431245804, 0.0059417313896119595, 0.005784354638308287, 0.11223254352807999, -0.022085051983594894, -0.3376612663269043, 0.013786680996418, -0.07917310297489166, -0.12800376117229462, -0.20860743522644043, 0.19726186990737915, -0.10572768747806549, 0.015392682515084743, 0.24992254376411438, 0.03623628243803978, -0.15900546312332153, -0.2980307936668396, 0.23761264979839325, -0.4018184542655945, -0.27316829562187195, 0.11119809001684189, -0.2524818181991577, -0.2738933265209198, 0.17683090269565582, -0.22847050428390503, 0.11900456249713898, 0.10852763801813126, -0.031386539340019226, 0.1570471078157425, -0.01286192424595356, 0.01900016888976097], "rec.bias_hh_l0": [-0.07516438513994217, -0.01991698332130909, 0.19208945333957672, -0.35839033126831055, -0.047873418778181076, -0.10514750331640244, 0.1665537804365158, -0.35033363103866577, -0.027285395190119743, 0.023248275741934776, -0.14838121831417084, -0.03219694644212723, -0.2489982396364212, -0.2859463095664978, -0.21801087260246277, 0.01969546638429165, -0.03960135206580162, 0.03908853232860565, 0.14574779570102692, -0.2427133470773697, -0.13201777637004852, 0.427460253238678, 0.0731591209769249, -0.2416064441204071, -0.292581170797348, 0.22913047671318054, 0.10142997652292252, -0.18399088084697723, 0.13966943323612213, 0.11517422646284103, -0.05707550421357155, 0.03331838175654411, 0.06699763983488083, 0.15359923243522644, -0.1506430208683014, 0.06481056660413742, -0.16428165137767792, 0.15062110126018524, -0.188935786485672, 0.017416710034012794, 0.20617926120758057, -0.08845967054367065, -0.25499215722084045, 0.17430035769939423, -0.22950786352157593, 0.030056729912757874, -0.19052933156490326, -0.19986261427402496, -0.06572438776493073, -0.15458545088768005, 0.10964356362819672, -0.2967570424079895, -0.058916207402944565, 0.07820192724466324, -0.1976678967475891, -0.1595584899187088, -0.05340506508946419, -0.21815159916877747, -0.17512226104736328, -0.10451715439558029, 0.09617739170789719, -0.17405205965042114, 0.02565876953303814, -0.12581080198287964], "lin.weight": [[-0.1830989420413971, -0.10180896520614624, -0.3115868866443634, 0.10449298471212387, -0.13693836331367493, 0.19485916197299957, -0.09468664973974228, 0.10825612396001816, 0.4146670699119568, -0.13333776593208313, -0.2579185366630554, 0.26828256249427795, -0.16750293970108032, -0.22056043148040771, 0.2571367621421814, -0.22387546300888062]], "lin.bias": [-0.1548919528722763]}}