{"model_data": {"model": "SimpleRNN", "input_size": 1, "skip": 1, "output_size": 1, "unit_type": "LSTM", "num_layers": 1, "hidden_size": 16, "bias_fl": true}, "state_dict": {"rec.weight_ih_l0": [[-0.0001444323279429227], [0.0001032765576383099], [0.0014960620319470763], [-0.00011011333845090121], [0.0025884900242090225], [-0.005631172563880682], [-0.11127406358718872], [0.00566752627491951], [0.35051867365837097], [-0.7157931923866272], [-0.11514062434434891], [0.15957249701023102], [-0.0037728147581219673], [0.19232845306396484], [0.0016280591953545809], [1.090193748474121], [-0.0007823390769772232], [0.0003345354343764484], [0.0012142155319452286], [-0.0010573023464530706], [0.002190143335610628], [-0.005088657606393099], [-0.12286670506000519], [0.00608779676258564], [0.9989253878593445], [-0.2141718566417694], [-0.13231261074543], [0.007965004071593285], [-0.004016099963337183], [0.6013167500495911], [0.0018722173990681767], [-0.8660687208175659], [0.001284420141018927], [-0.021171029657125473], [0.0016575383488088846], [-0.004693267866969109], [-0.021286223083734512], [0.025108473375439644], [-0.878718376159668], [-0.049229979515075684], [-2.855621337890625], [1.5008774995803833], [-0.9031784534454346], [-0.02383543737232685], [-0.00891068670898676], [-3.257335901260376], [-0.018840782344341278], [-1.8259481191635132], [-0.0004024395311716944], [-0.0001773134572431445], [0.001583971083164215], [-0.00020543932623695582], [0.0026108473539352417], [-0.005062566604465246], [-0.14483173191547394], [0.005519402213394642], [-0.6038718223571777], [-0.6132081151008606], [-0.15249067544937134], [0.5833193063735962], [-0.003982666414231062], [0.6806135773658752], [0.001577516202814877], [-0.08575528115034103]], "rec.weight_hh_l0": [[-7.16786234988831e-05, 0.00010606111754896119, 0.00023575827071908861, 0.00018772156909108162, -0.00010373577242717147, -9.272324678022414e-05, 0.0022773677483201027, 5.6561166275059804e-05, 0.002429608255624771, 0.0026819196064025164, 0.002165141748264432, -0.007635399699211121, -0.00010519305942580104, -0.012104184366762638, 0.00025802667369134724, 0.00217537023127079], [-0.00013249351468402892, 9.117135050473735e-05, 0.0002006234717555344, 0.00037560390774160624, -0.0002837971260305494, 3.516241486067884e-05, 0.0007798378937877715, 4.077136327396147e-05, 0.004813862033188343, -0.0001958227512659505, 0.0008544017327949405, -0.004448536783456802, -5.864059858140536e-06, -0.013976768590509892, 0.00013019551988691092, 0.0019320008577778935], [-0.00010247456521028653, 5.043691271566786e-05, -0.00016735833196435124, -2.3128533939598128e-05, 1.0361345630371943e-05, 4.036762402392924e-05, 0.0016450431430712342, -0.00017891175230033696, 0.0008512157946825027, 0.004771096166223288, 0.0015348118031397462, -0.004916413687169552, -0.00011940151307499036, -0.01261116936802864, -0.0001986678398679942, 0.011188375763595104], [-0.00012184076331323013, 0.0002358124911552295, -5.092857463750988e-05, -0.00013508068514056504, 0.00010347117495257407, -0.00013321528967935592, 0.002990287495777011, 5.37470041308552e-05, 0.0015572747215628624, 0.006936416495591402, 0.0027837574016302824, -0.009904708713293076, -0.0002758949704002589, -0.007161628920584917, 0.00020236877026036382, 0.00902942381799221], [-0.0001670865312917158, 0.00019341096049174666, 3.902548996848054e-05, 6.314511119853705e-05, -8.287159289466217e-05, -0.00035000601201318204, 0.00010803323675645515, 7.399272726615891e-05, 0.004000829998403788, 0.006697593256831169, 0.00011110295599792153, -0.011399367824196815, -0.00016267792670987546, -0.00990995392203331, 0.00029746981454081833, 0.006339266896247864], [-0.0005543354782275856, 0.00017652803217060864, 0.0010130263399332762, 0.0012840868439525366, -0.0009385595330968499, 7.34881468815729e-05, 0.003275622148066759, 0.00025715818628668785, 0.008196679875254631, -0.014429301023483276, 0.0027834370266646147, -0.0036903780419379473, 8.13350998214446e-05, -0.00820808857679367, 0.00019066600361838937, 0.0012223953381180763], [-0.01214919425547123, 0.007462761364877224, 0.004087167792022228, 0.010889934375882149, -0.005364676937460899, -0.02000102959573269, 0.07803192734718323, 0.004985518753528595, -0.15295439958572388, -0.06179547309875488, 0.07624577730894089, 0.021353378891944885, -0.008312812075018883, 0.025764599442481995, 0.012894760817289352, -0.125379279255867], [0.00019160086230840534, -0.0003569522232282907, -0.0002976540708914399, 3.6354438634589314e-05, -6.916566053405404e-05, 0.00046497007133439183, 5.4888685554033145e-05, -0.00040711736073717475, -0.0005284270737320185, 0.0016987426206469536, 0.00024715220206417143, -0.005234211683273315, 0.00035549065796658397, -0.005747635383158922, -0.00048499484546482563, -0.0014804026577621698], [-0.014671816490590572, -0.0183456651866436, 0.03501221910119057, 0.042441848665475845, -0.02001451887190342, -0.055194105952978134, -0.2656427323818207, 0.016292143613100052, 1.572519063949585, 0.675799548625946, -0.26432931423187256, 0.3602014482021332, 0.01978403329849243, -1.1615666151046753, -0.0025720675475895405, 1.135944128036499], [0.041899316012859344, 0.02414487861096859, -0.08543959259986877, -0.10460490733385086, -0.012468474917113781, 0.009464309550821781, 0.4147612452507019, -0.004980340600013733, 1.9703468084335327, 0.4323791563510895, 0.4057250916957855, -0.6677907705307007, 0.00961421336978674, 0.6339135766029358, 0.02558300271630287, 0.06271377950906754], [-0.01329558901488781, 0.005866410676389933, 0.005464591085910797, 0.012759644538164139, -0.007338104769587517, -0.01840720698237419, 0.09257368743419647, 0.0036674283910542727, -0.1745334267616272, -0.058310192078351974, 0.09097663313150406, 0.028865881264209747, -0.007924343459308147, 0.021997375413775444, 0.011400292627513409, -0.14112024009227753], [0.017048176378011703, -0.018918491899967194, 0.0006077669677324593, -0.007199267856776714, 0.012635610066354275, -0.0245659239590168, -0.10577560216188431, -0.016811553388834, 0.02515455335378647, -0.026763219386339188, -0.11110075563192368, 0.09013568609952927, 0.014215188100934029, -0.6424400210380554, -0.016422105953097343, 0.7089210152626038], [-0.0002514696097932756, 0.00018304024706594646, 0.0002675421710591763, 0.00042521534487605095, -0.0003462725435383618, 0.00017322998610325158, 0.00359272095374763, 0.00016917577886488289, 0.007298676297068596, -0.001453460892662406, 0.003358336864039302, -0.007521172519773245, -0.0001154152923845686, -0.009745028801262379, 0.00020723810303024948, 0.0011755280429497361], [0.01686703972518444, -0.005651108454912901, 0.0015303739346563816, -0.0071199387311935425, 0.013708305545151234, -0.026915740221738815, -0.15302330255508423, 0.0002551959187258035, 0.0914449617266655, 0.21518133580684662, -0.14832033216953278, -0.026793072000145912, 0.00996516365557909, 0.3434131145477295, 0.0020230074878782034, 0.004436783492565155], [-0.00022956368047744036, 0.00010769518848974258, 0.0006549066747538745, 0.0010039829649031162, -0.0006097161094658077, -0.000605245353654027, 0.00015534904378000647, -7.109568105079234e-05, 0.005654357839375734, -0.001380327856168151, 0.00021859865228179842, -0.002091275528073311, 0.00012708503345493227, -0.016896922141313553, 5.42529123777058e-05, 5.6810993555700406e-05], [-0.03716626763343811, 0.01812254823744297, 0.04935840517282486, 0.04176827520132065, -0.047380100935697556, 0.00568389380350709, -0.4242618978023529, 0.024968193843960762, -0.6858292818069458, -0.31974032521247864, -0.43984290957450867, 0.12856853008270264, -0.025042174383997917, -0.8290761709213257, 0.02782193198800087, 1.258302927017212], [-4.347898357082158e-05, 8.563835581298918e-05, 0.00017940277757588774, 0.00013047496031504124, -8.169715874828398e-05, -8.048171730479226e-05, 0.001536309951916337, 4.4640306441579014e-05, 0.0021645568776875734, 0.0013506492832675576, 0.0013036694144830108, -0.00642987759783864, -8.109564805636182e-05, -0.011148571036756039, 0.00022831966634839773, 0.0015561552718281746], [-0.0001078975255950354, 0.00010915261373156682, 0.00020054361084476113, 0.0003399625129532069, -0.00026186511968262494, -3.593299334170297e-05, -5.860915280209156e-06, 5.012162000639364e-05, 0.00411266228184104, -0.0017954603536054492, 1.6759360732976347e-05, -0.0037738517858088017, -1.3292719813762233e-05, -0.013557827100157738, 0.000167650927323848, 0.0001751994714140892], [-0.00011021792306564748, 7.299071148736402e-05, -0.00013238750398159027, -1.5648469343432225e-05, 6.206343641679268e-06, -2.796378976199776e-05, 0.0013873885618522763, -0.000141507713124156, 0.0008367517148144543, 0.0037169046700000763, 0.0012943185865879059, -0.0033031979110091925, -0.00012911333760712296, -0.011874430812895298, -0.00014304782962426543, 0.010066411457955837], [-0.00011523561261128634, 0.00022149679716676474, -4.387674925965257e-05, -0.00011827070557046682, 8.6463667685166e-05, -0.00016485099331475794, 0.0027534791734069586, 5.9363734180806205e-05, 0.0015740739181637764, 0.0055536627769470215, 0.0025419634766876698, -0.007874106988310814, -0.00024318962823599577, -0.006898149847984314, 0.00021121134341228753, 0.007646619807928801], [-0.00014621924492530525, 0.00016644748393446207, 2.1055897377664223e-05, 5.5126281949924305e-05, -9.069545194506645e-05, -0.00033578602597117424, 2.3988990506040864e-05, 7.254615775309503e-05, 0.0038365351501852274, 0.005807902663946152, -1.891881402116269e-05, -0.008297630585730076, -0.00013375311391428113, -0.009267332032322884, 0.000266360177192837, 0.005659667309373617], [-0.0004990588640794158, 0.00015591064584441483, 0.0009055720292963088, 0.0011511960765346885, -0.0008490656036883593, 1.7923077393788844e-05, 0.002703981939703226, 0.00021840112458448857, 0.007695730309933424, -0.013251733034849167, 0.0022621522657573223, -0.002592335920780897, 7.751349039608613e-05, -0.008571476675570011, 0.00020204609609209, 0.0011534302029758692], [-0.017217135056853294, 0.011060073971748352, 0.005997811444103718, 0.015024322085082531, -0.007717297412455082, -0.02879549376666546, 0.09910766780376434, 0.0057309153489768505, -0.2098090797662735, -0.020472025498747826, 0.10062507539987564, 0.0765732079744339, -0.012434198521077633, -0.10340289026498795, 0.018938668072223663, -0.08290405571460724], [0.00016364958719350398, -0.00032565361470915377, -0.00023301912005990744, 5.877255171071738e-05, -8.354112651431933e-05, 0.0003664395771920681, -0.0002353386371396482, -0.00036898767575621605, -0.000652227143291384, 0.0014533854555338621, -3.890586958732456e-05, -0.004673107527196407, 0.0003293408080935478, -0.006609648931771517, -0.0004412435810081661, -0.0018109835218638182], [0.011637279763817787, -0.00650847889482975, -0.03668351098895073, -0.03429320082068443, 0.008481022901833057, -0.027983691543340683, -0.2821483910083771, -0.039660681039094925, -0.4255668520927429, 0.14950570464134216, -0.28094854950904846, 0.40367215871810913, 0.0065518817864358425, -0.28194132447242737, 0.003657730994746089, -0.29381585121154785], [-0.02884363755583763, -0.020778419449925423, 0.06968697160482407, 0.040069758892059326, -0.006357210222631693, 0.014078451320528984, -0.5178214907646179, 0.02570829726755619, -0.13467192649841309, 0.04972533509135246, -0.506788432598114, 0.8034577965736389, 0.027728451415896416, 0.46506592631340027, -0.027397913858294487, 1.7393699884414673], [-0.018290292471647263, 0.009071221575140953, 0.0077440389432013035, 0.01761411316692829, -0.010181652382016182, -0.0262952521443367, 0.11916287243366241, 0.0041239336133003235, -0.2339857518672943, -0.007945132441818714, 0.12124370038509369, 0.08447539806365967, -0.01185252983123064, -0.1106516495347023, 0.016826029866933823, -0.09602245688438416], [0.0014878016663715243, -0.0203242227435112, 0.004117884207516909, 0.005436014849692583, 0.01762426644563675, -0.038484640419483185, -0.029762521386146545, -0.009143095463514328, 0.19305159151554108, 0.18452122807502747, -0.029598640277981758, 0.31559932231903076, 0.014992965385317802, -0.881639301776886, -0.022404097020626068, 1.1235251426696777], [-0.00020657006825786084, 0.00020037134527228773, 0.00022093052393756807, 0.00035757411387749016, -0.0003043796750716865, 0.0001285302423639223, 0.0026410946156829596, 0.0001712673547444865, 0.006417666096240282, -0.0027903534937649965, 0.0023348613176494837, -0.006346697919070721, -9.222547669196501e-05, -0.00860374141484499, 0.0002051859482889995, -0.00048637459985911846], [0.028218073770403862, -0.03246388956904411, -0.016043173149228096, -0.02291390858590603, 0.036027759313583374, -0.05253032594919205, -0.26735350489616394, -0.01801348850131035, 0.34638166427612305, 1.2185072898864746, -0.26115572452545166, -0.6158078908920288, 0.013928769156336784, 1.158198356628418, -0.018488135188817978, 0.22300603985786438], [-0.00021618939354084432, 0.00015037406410556287, 0.0006985391373746097, 0.001035000430420041, -0.0005936013185419142, -0.0007882860954850912, -0.0006684543332085013, -6.092526746215299e-05, 0.0054963319562375546, -0.0019070894923061132, -0.0006289044977165759, -0.001431938144378364, 9.921447053784505e-05, -0.016618002206087112, 5.8627716498449445e-05, -0.000822489382699132], [-0.0657077506184578, 0.057922136038541794, 0.013165658339858055, 0.034018486738204956, -0.009761552326381207, -0.05730435624718666, 0.34525108337402344, 0.029763728380203247, -0.4704881012439728, -1.3513824939727783, 0.3562609553337097, 0.686211109161377, -0.051042988896369934, -0.7662890553474426, 0.061829566955566406, -1.0074090957641602], [-0.051374103873968124, 0.04000100493431091, 0.008248179219663143, 0.013444574549794197, 0.002103349892422557, 0.016405750066041946, 0.013014991767704487, 0.032176047563552856, 0.0363091304898262, 0.08275672048330307, 0.014813055284321308, 0.042448367923498154, -0.04688617214560509, -0.0008496502414345741, 0.022648442536592484, -0.046652860939502716], [0.019693413749337196, -0.03277437016367912, 0.011180750094354153, 0.00202981592155993, 0.007888567633926868, -0.0047097173519432545, -0.04047488421201706, -0.022092819213867188, -0.03165588900446892, -0.02144281566143036, -0.04040519893169403, 0.06951186060905457, 0.02575184591114521, 0.06274589896202087, -0.02114257588982582, -0.001239888952113688], [0.02980562299489975, -0.013066939078271389, -0.04046395793557167, -0.03930218890309334, 0.022634083405137062, 0.002491495106369257, -0.03522227331995964, -0.025369636714458466, -0.0215486828237772, -0.10942962020635605, -0.036910321563482285, -0.12757016718387604, 0.019139880314469337, -0.04441745579242706, -0.00949089415371418, 0.05346371605992317], [0.05104294419288635, -0.02858646772801876, -0.04361145943403244, -0.05154276266694069, 0.029976528137922287, -0.012017554603517056, -0.035176392644643784, -0.034951381385326385, -0.027416041120886803, -0.13489198684692383, -0.037427425384521484, -0.14510208368301392, 0.03972873091697693, -0.06482657045125961, -0.020801270380616188, 0.06737518310546875], [-0.008750010281801224, 0.03778064250946045, 0.015408758074045181, 0.01325346902012825, -0.06839345395565033, 0.014484976418316364, 0.008418969810009003, 0.038116149604320526, 0.00513073056936264, 0.1010069027543068, 0.011247259564697742, 0.04801744222640991, -0.029284853488206863, 0.022742725908756256, 0.03789680078625679, -0.020930280908942223], [0.0003003884921781719, 0.012546878308057785, 0.0027170267421752214, 0.0017727852100506425, -0.0006217227200977504, -0.04129480943083763, 0.03432827070355415, 0.015955859795212746, 0.037501972168684006, -0.01707831211388111, 0.03514700010418892, 0.05676008760929108, -0.008246553130447865, 0.0036232462152838707, 0.023046432062983513, -0.06556834280490875], [-0.01134996023029089, 0.002246138406917453, 0.004322943743318319, 0.0022601610980927944, -0.011031344532966614, -0.03663799166679382, -0.06408108025789261, 0.02052002213895321, -0.06546604633331299, 0.39875027537345886, -0.021496953442692757, 0.7412813901901245, -0.010569383390247822, 0.062206070870161057, 0.00690412288531661, -0.5617179870605469], [0.010356342419981956, -0.02512015774846077, 0.0008710984257049859, -0.0010820092866197228, 0.005815903656184673, 0.007944575510919094, -0.03485485166311264, -0.030738936737179756, -0.026139602065086365, -0.046305716037750244, -0.034601785242557526, -0.03415690362453461, 0.015736395493149757, 0.017622284591197968, -0.018889129161834717, 0.016222946345806122], [-0.009277951903641224, 0.0018729586154222488, 0.042543597519397736, 0.03297311067581177, -0.007158291060477495, -0.013906334526836872, -0.11812300980091095, 0.040791843086481094, 0.9592800736427307, -1.1503064632415771, -0.10722572356462479, -0.4247581958770752, -0.016155507415533066, 1.959358811378479, 0.0033718489576131105, 0.8884474039077759], [-0.023901332169771194, -0.004302787594497204, -0.00799822062253952, -0.00076290313154459, -0.02187119610607624, 0.02986156940460205, -0.06712396442890167, -0.03490959480404854, 0.6883001327514648, 0.8737736344337463, -0.07754677534103394, -0.3999814987182617, -0.001372127910144627, -1.1620529890060425, -0.007308469153940678, -0.7162052392959595], [-0.02179785817861557, 0.004034628160297871, 0.016443820670247078, 0.01461830921471119, -0.014187452383339405, -0.04276571422815323, -0.12256006896495819, 0.03001663088798523, -0.06772281229496002, 0.42034703493118286, -0.07862121611833572, 0.7440889477729797, -0.01439017616212368, 0.049218982458114624, 0.0111504215747118, -0.5755817294120789], [-0.05208507925271988, -0.023283854126930237, 0.07125123590230942, 0.08030878752470016, -0.04060864821076393, -0.05392591655254364, -0.5856226086616516, -0.002930141519755125, 0.07176369428634644, -0.15207841992378235, -0.5839236974716187, 0.0027296291664242744, 0.014711029827594757, -0.7154163718223572, 0.008365797810256481, 0.7005048394203186], [-0.026854878291487694, 0.03406804800033569, -0.0045577953569591045, 0.0038191103376448154, -0.017141936346888542, 0.010952237993478775, 0.023379424586892128, 0.023067325353622437, 0.03226856514811516, 0.035600028932094574, 0.02398659475147724, -0.054384857416152954, -0.03912637010216713, -0.06035066768527031, 0.02356984093785286, -0.00515775429084897], [0.023790426552295685, -0.03842044994235039, 0.01841249130666256, 0.012141352519392967, 0.017030319198966026, 0.03725958243012428, 0.018060609698295593, -0.00783562008291483, -0.216030552983284, 2.0668911933898926, 0.03146042302250862, -0.4572393596172333, 0.047939687967300415, 0.3281850516796112, -0.036393385380506516, -0.442283570766449], [0.020916679874062538, -0.032657574862241745, 0.00253347703255713, -0.008604932576417923, 0.02665269933640957, -0.0007357841823250055, -0.039135683327913284, -0.024172650650143623, -0.03761797770857811, -0.026228243485093117, -0.03968021646142006, 0.01506123412400484, 0.02618815004825592, 0.040778402239084244, -0.03326190635561943, 0.02693236619234085], [4.024993540951982e-05, 0.011863342486321926, -0.02013896219432354, -0.010539539158344269, -0.023594625294208527, 0.02968444861471653, 0.15644784271717072, -0.0031714043579995632, 0.530210554599762, -0.25270405411720276, 0.15595214068889618, 0.6160889267921448, -0.017104918137192726, 0.4508912265300751, 0.006711235735565424, 0.13923242688179016], [-5.3161118557909504e-05, 0.00010843274503713474, 0.00019085385429207236, 0.00014332254067994654, -8.485753642162308e-05, -8.62279994180426e-05, 0.0025128673296421766, 4.6649063733639196e-05, 0.002472533844411373, 0.0028241751715540886, 0.0023868894204497337, -0.007877605967223644, -0.00010249020851915702, -0.01144068781286478, 0.0002573962847236544, 0.0024263050872832537], [-0.00011933298083022237, 8.171283116098493e-05, 0.00016645537107251585, 0.00034345328458584845, -0.0002651607501320541, 4.7406108933500946e-05, 0.0012965901987627149, 2.150375075871125e-05, 0.004668997135013342, -1.2696104022325017e-05, 0.0013560496736317873, -0.004479802679270506, 3.1621489142708015e-06, -0.013478416018188, 0.0001137011859100312, 0.002041549189016223], [-9.667354606790468e-05, 5.951437560725026e-05, -0.0001763646287145093, -3.90190034522675e-05, 1.9994045942439698e-05, 3.195185854565352e-05, 0.0016150216106325388, -0.00017829248099587858, 0.0007350677624344826, 0.00483798747882247, 0.0015129039529711008, -0.005021124146878719, -0.0001261418656213209, -0.012365258298814297, -0.00018672352598514408, 0.011115030385553837], [-0.0001169236857094802, 0.0002457651717122644, -6.585330993402749e-05, -0.00015175739827100188, 0.00010944719542749226, -0.00013971982116345316, 0.0029654933605343103, 5.7237888540839776e-05, 0.0015781607944518328, 0.006928297691047192, 0.002760923933237791, -0.010092430748045444, -0.0002780517970677465, -0.006863375194370747, 0.00021311352611519396, 0.00899994745850563], [-0.00015954535047058016, 0.00019039533799514174, 2.0683874026872218e-05, 5.0297967391088605e-05, -8.794904715614393e-05, -0.00035580992698669434, 0.00017848971765488386, 7.636479858774692e-05, 0.004146621096879244, 0.006827981676906347, 0.00018393770733382553, -0.011579574085772038, -0.00015377061208710074, -0.009405105374753475, 0.00029498725780285895, 0.006573949940502644], [-0.000529276323504746, 0.0001670832425588742, 0.0009476425475440919, 0.0012272086460143328, -0.0009234041208401322, 9.620081982575357e-05, 0.0033367692958563566, 0.0002011976030189544, 0.008257605135440826, -0.013904613442718983, 0.0028673370834439993, -0.0032612625509500504, 8.672882540849969e-05, -0.008938896469771862, 0.00015019511920399964, 0.0013426068471744657], [-0.012042690068483353, 0.007070990279316902, 0.0035032823216170073, 0.010674617253243923, -0.005566587671637535, -0.018928779289126396, 0.10706057399511337, 0.004966008476912975, -0.15930593013763428, -0.08004238456487656, 0.10554376989603043, 0.016080331057310104, -0.00788917951285839, 0.0583830364048481, 0.012179776094853878, -0.15744909644126892], [0.00019567430717870593, -0.0003571566485334188, -0.00030797944054938853, 1.8167691450798884e-05, -5.784926543128677e-05, 0.00046849632053636014, 0.0003125455987174064, -0.0004070828144904226, -0.0006205279496498406, 0.0018390413606539369, 0.0005118162953294814, -0.005376802291721106, 0.0003556730807758868, -0.005409871693700552, -0.00048609080840833485, -0.001465192879550159], [-0.023250441998243332, 0.01018442865461111, 0.0021094786934554577, 0.02738846465945244, -0.02274666540324688, -0.009649382904171944, -0.002702106721699238, 0.028143195435404778, -1.0189059972763062, 0.3697255253791809, -0.00023738271556794643, -0.4677893817424774, 0.0005520879640243948, 0.06272386014461517, 0.008582689799368382, -1.1484763622283936], [0.030101144686341286, -0.06465054303407669, 0.056879620999097824, 0.030202511698007584, 0.0027265672106295824, -0.011977283284068108, -0.31439048051834106, -0.027105338871479034, 1.2432079315185547, -0.35342392325401306, -0.29697081446647644, -0.5295350551605225, 0.038291510194540024, 0.6851797103881836, -0.04088664799928665, -1.9856117963790894], [-0.013067666441202164, 0.0054344721138477325, 0.0046527199447155, 0.012366755865514278, -0.00745112169533968, -0.01709527149796486, 0.12306061387062073, 0.0036746980622410774, -0.18084107339382172, -0.07861661911010742, 0.12168391048908234, 0.021904217079281807, -0.0074013578705489635, 0.056663960218429565, 0.01051364280283451, -0.17408941686153412], [-0.022998837754130363, -0.016631154343485832, 0.019419685006141663, 0.015630774199962616, 0.013201585039496422, -0.008795796893537045, -0.04506257176399231, -0.01959586702287197, 0.35465356707572937, 0.20849044620990753, -0.048995643854141235, 0.38073718547821045, -0.002168170176446438, -0.7114869356155396, -0.03232641890645027, 0.12180342525243759], [-0.0002353526942897588, 0.00018124966300092638, 0.00023140317352954298, 0.00038739334559068084, -0.00032513641053810716, 0.00017873440810944885, 0.00399343715980649, 0.00014983717119321227, 0.007299812510609627, -0.0011997655965387821, 0.003744498360902071, -0.00752961216494441, -0.00011258169251959771, -0.009175230748951435, 0.00019937826436944306, 0.0014072924386709929], [0.021674517542123795, -0.022685399278998375, -0.029624368995428085, -0.03297923505306244, 0.04246470704674721, -0.039792027324438095, -0.4870171546936035, 0.0010394639102742076, 0.5988370180130005, 1.1213550567626953, -0.4796478748321533, -0.8648463487625122, 0.008665393106639385, 1.0213631391525269, -0.019104281440377235, -0.7823181748390198], [-0.0001961552770808339, 8.599083957960829e-05, 0.0005856120842508972, 0.000938015291467309, -0.0005842379759997129, -0.0005400045774877071, 0.0008773162844590843, -0.00011198334686923772, 0.00545011181384325, -0.0008874633931554854, 0.0009424857562407851, -0.00201168074272573, 0.0001407355593983084, -0.016507398337125778, 2.3128684915718623e-05, 0.00023064918059390038], [-0.03848632797598839, 0.02193347178399563, 0.028503693640232086, 0.038453131914138794, -0.026913510635495186, -0.04106112942099571, 0.32005780935287476, 0.028304362669587135, -0.2540891468524933, -0.06819663941860199, 0.3263234794139862, 0.7535737156867981, -0.02300919219851494, -0.8784130811691284, 0.04791314899921417, -0.8298889994621277]], "rec.bias_ih_l0": [-0.07788656651973724, -0.05223404988646507, -0.061507683247327805, -0.07609841972589493, -0.09846638888120651, -0.052538253366947174, 0.19168737530708313, -0.043951366096735, -1.7435271739959717, -1.5718169212341309, 0.19554375112056732, 0.06375636905431747, -0.0665484294295311, 0.9081006646156311, -0.04991231858730316, -1.9385583400726318, -0.06381320208311081, -0.04138416424393654, -0.048827629536390305, -0.06262905150651932, -0.08291039615869522, -0.046242162585258484, 0.0594511404633522, -0.03707645460963249, 1.7240049839019775, 2.1952199935913086, 0.049125395715236664, 0.007488134782761335, -0.051124054938554764, 0.33710044622421265, -0.04083067178726196, 2.300530433654785, 0.004051426891237497, -0.01481896173208952, 0.0008906424627639353, 0.00791870802640915, 0.00018258336058352143, -0.006210337392985821, -0.0814233347773552, -0.005859049037098885, -0.13821855187416077, 0.13894030451774597, -0.08191516250371933, 0.21223236620426178, 0.014105507172644138, 0.1707698106765747, -0.009820747189223766, -0.09444311261177063, -0.07895953208208084, -0.05286673083901405, -0.06186457350850105, -0.07666090875864029, -0.10000614076852798, -0.052775632590055466, 0.22803112864494324, -0.044592224061489105, 0.2265678346157074, -0.5821212530136108, 0.23301629722118378, 0.05478452891111374, -0.0674506276845932, 0.2940462529659271, -0.05042160674929619, 0.5521537661552429], "rec.bias_hh_l0": [-0.07788656651973724, -0.05223404988646507, -0.061507683247327805, -0.07609841972589493, -0.09846638888120651, -0.052538253366947174, 0.19168737530708313, -0.043951366096735, -1.6407382488250732, -1.5718051195144653, 0.19554375112056732, 0.06375636905431747, -0.0665484294295311, 0.9084224104881287, -0.04991231858730316, -1.9909753799438477, -0.06381320208311081, -0.04138416424393654, -0.048827629536390305, -0.06262905150651932, -0.08291039615869522, -0.046242162585258484, 0.0594511404633522, -0.03707645460963249, 1.816738247871399, 2.1952168941497803, 0.049125395715236664, 0.007488134782761335, -0.051124054938554764, 0.3360745310783386, -0.04083067178726196, 2.3239526748657227, 0.004109649918973446, -0.014852187596261501, 0.0005037033697590232, 0.007944764569401741, 0.0003183660446666181, -0.006313144229352474, -0.08135337382555008, -0.005898601375520229, 0.09861044585704803, 0.08270612359046936, -0.08190975338220596, 0.2123868316411972, 0.013736271299421787, 0.052179157733917236, -0.009346386417746544, -0.016134880483150482, -0.07895953208208084, -0.05286673083901405, -0.06186457350850105, -0.07666090875864029, -0.10000614076852798, -0.052775632590055466, 0.22803112864494324, -0.044592224061489105, 0.21419626474380493, -0.5821233987808228, 0.23301629722118378, 0.05478452891111374, -0.0674506276845932, 0.2965492904186249, -0.05042160674929619, 0.5640855431556702], "lin.weight": [[-0.016822615638375282, 0.033895935863256454, 0.002944641513749957, -0.00028899425524286926, 0.00288914586417377, -0.01124135684221983, 0.10551106929779053, 0.02599906176328659, -0.7606772184371948, -0.45203614234924316, 0.12253434211015701, 0.24472074210643768, -0.03140551596879959, 0.008338451385498047, 0.03137722238898277, 0.13615837693214417]], "lin.bias": [-0.1614411622285843]}}