{"model_data": {"model": "SimpleRNN", "input_size": 1, "skip": 1, "output_size": 1, "unit_type": "LSTM", "num_layers": 1, "hidden_size": 16, "bias_fl": true}, "state_dict": {"rec.weight_ih_l0": [[-0.00042627620860002935], [0.0005449492018669844], [0.004262997768819332], [0.0038928422145545483], [0.00028261469560675323], [0.0013683639699593186], [-0.027527358382940292], [0.000583910325076431], [-0.00389542686752975], [-0.336800217628479], [-0.053707994520664215], [-0.049960821866989136], [6.440508059313288e-06], [0.21324776113033295], [0.00038348606904037297], [1.072222352027893], [-0.00042111630318686366], [0.0005112473736517131], [0.0060736872255802155], [0.007128949277102947], [0.0002984016318805516], [0.0014779077610000968], [-0.15497377514839172], [0.0006208047270774841], [0.8038191795349121], [-0.3226417899131775], [-0.11751426756381989], [-0.23095256090164185], [2.165509431506507e-05], [0.637394905090332], [0.00038294680416584015], [-0.6658593416213989], [0.006182761397212744], [-0.004997482057660818], [-0.18008765578269958], [-0.2092762589454651], [0.00973663479089737], [0.0667576789855957], [-0.8838939666748047], [-0.03277907893061638], [-2.1440703868865967], [1.3409193754196167], [-0.8844776153564453], [-0.2079651951789856], [-0.007447001524269581], [-3.3417482376098633], [0.02449692413210869], [-1.584503173828125], [-0.000410045322496444], [0.0005204904009588063], [0.0036463818978518248], [0.0031365968752652407], [0.0002982951991725713], [0.00127412099391222], [-0.23056618869304657], [0.0005444553680717945], [-0.49687114357948303], [-0.29215389490127563], [-0.09274891763925552], [0.5962580442428589], [-6.285177278186893e-06], [0.5917204022407532], [0.0004003500798717141], [0.058854129165410995]], "rec.weight_hh_l0": [[-5.486821464728564e-05, 4.1462128137936816e-05, 5.4886058933334425e-05, 0.0001540411467431113, 1.3127585589245427e-05, 0.00011541217099875212, -0.0004403374914545566, -3.260157973272726e-05, 0.001495999749749899, -0.0010190062457695603, -0.0006174926529638469, 0.0021407543681561947, -4.686642932938412e-05, -0.0010097794001922011, 2.0389319615787826e-05, 0.0018028636695817113], [-0.00011511053162394091, 0.00018093636026605964, 0.00023488482111133635, 0.00027602093177847564, 1.1263457054155879e-05, 9.329155000159517e-05, 0.000509408419020474, -1.0893918442889117e-05, -0.0008224662742577493, -0.0008076265221461654, -0.00015229090058710426, 6.698477227473632e-05, -0.00010440217738505453, -0.0010893004946410656, 5.188051727600396e-05, -0.0016286845784634352], [-0.0006174680893309414, 0.0007699592388235033, -0.003166720038279891, -0.0037316277157515287, 0.0001293553359573707, 0.0003915966663043946, -0.022718463093042374, 4.737303970614448e-05, 0.01514733862131834, -0.013276699930429459, -0.010318607091903687, 0.003575586946681142, 0.00019953417358919978, 0.041402168571949005, -3.863238453050144e-05, -0.016305308789014816], [-0.000874235003720969, 0.0011308171087875962, -0.0042871758341789246, -0.004918554797768593, 0.00011514451034599915, 0.0005708374083042145, -0.032647889107465744, 0.0001354669511783868, 0.024609766900539398, -0.016914058476686478, -0.01600109040737152, 0.008949791081249714, 0.00011064236605307087, 0.06046212837100029, -0.00017069498426280916, -0.013468405231833458], [1.3610668247565627e-05, -3.538384771673009e-05, -0.000217673514271155, -0.00019223964773118496, 1.0913567166426219e-05, 8.711163536645472e-05, -0.0005161129520274699, -5.1100971177220345e-05, 0.000259108142927289, 0.00015638259355910122, -0.0003304109559394419, 0.00045718508772552013, -1.0164512787014246e-05, -0.0002955706149805337, 3.8632002542726696e-05, 0.00017743880744092166], [7.16523063601926e-05, -5.947984755039215e-05, -0.0002109618653776124, -0.0003725767892319709, 0.00013681840209756047, 0.00010852442937903106, -0.0014089662581682205, -0.00013942737132310867, -0.001249965513125062, -0.001756316632963717, -0.0011838952777907252, -0.0007322941673919559, 1.6522339137736708e-05, 0.002226439071819186, 0.00022283443831838667, -0.003534300485625863], [-0.004914540797472, 0.006063410546630621, 0.057392120361328125, 0.06387414783239365, -0.000851767195854336, -0.014777332544326782, -0.03290720283985138, 0.006541913840919733, -0.33995792269706726, -0.14707863330841064, -0.06453989446163177, 0.09743663668632507, 0.0052393837831914425, -0.09338922053575516, 7.11182365193963e-05, -0.02316596731543541], [5.608296851278283e-05, -0.00014956429367884994, -0.00024548007058911026, -0.0002747804392129183, 0.00013486020907294005, 0.00032631357316859066, -0.00029703250038437545, -0.0002692957641556859, -0.0010659749386832118, -0.0009713973850011826, -0.0015653353184461594, -0.00012839576811529696, -3.1990282877814025e-05, 0.0018481513252481818, 0.00027145646163262427, -0.001310401945374906], [0.004170093219727278, -0.017335321754217148, -0.024480508640408516, -0.030406521633267403, -0.001972674857825041, -0.011721016839146614, -0.2968215048313141, 0.005017732735723257, 1.5113344192504883, 0.6258518695831299, 0.026023566722869873, 0.14711453020572662, 0.000456685374956578, -1.0812443494796753, -0.010585010051727295, 0.9825692176818848], [0.007884354330599308, -0.024329131469130516, -0.1882551610469818, -0.21954591572284698, 0.004846784286201, 0.03986712172627449, 0.8000007271766663, -0.020037811249494553, 2.2753942012786865, 0.528365969657898, 0.3467552065849304, -0.5060064196586609, -0.008493160828948021, 0.6645793318748474, -0.0014882938703522086, 0.08332623541355133], [-0.003388130571693182, 0.0018391285557299852, 0.009351073764264584, 0.005639749579131603, -0.00044233756489120424, -0.006328478455543518, 0.13701383769512177, 0.004026716109365225, -0.3549673557281494, -0.10417081415653229, 0.02658047527074814, -0.10109513998031616, 0.0005119644338265061, 0.07928632199764252, -0.004449826665222645, -0.25965428352355957], [-0.00030274951132014394, -0.003747138660401106, 0.01437288522720337, 0.011139890179038048, -0.00276742922142148, -0.00407805573195219, 0.09801881015300751, 0.003292364999651909, 0.08857189863920212, 0.039953719824552536, 0.036397166550159454, 0.08663658797740936, -0.0010407870868220925, -0.5365901589393616, -0.00636846199631691, 0.6430783271789551], [-3.621031646616757e-05, 7.114764594007283e-05, 0.00021226404351182282, 0.00029151246417313814, -1.571887514728587e-05, -4.142675606999546e-06, -0.0003464844776317477, 1.9715240341611207e-05, -0.0001671203353907913, -0.00026144084404222667, 4.005160735687241e-05, 0.0008200846496038139, -3.1490933906752616e-05, -0.0006466305931098759, -1.3544357898354065e-05, 0.0001223478466272354], [0.0063606202602386475, -0.008988847956061363, -0.04526183754205704, -0.055163800716400146, 0.0034618815407156944, 0.007877972908318043, -0.01828184723854065, -0.007847771979868412, -0.032167982310056686, 0.31225672364234924, -0.03550996258854866, 0.05437290295958519, 0.001203870284371078, 0.17200376093387604, 0.0065590133890509605, -0.021393492817878723], [5.493931530509144e-05, -0.00020059158850926906, -0.0008085702429525554, -0.0007340565789490938, 0.00012067462375853211, 0.0004102258535567671, -0.0016387179493904114, -0.00030187558149918914, -0.0002771435829345137, -0.0007659507100470364, -0.0017610627692192793, 0.0008075657533481717, -1.4277347872848623e-05, 0.0013155265478417277, 0.0002421775716356933, 0.00030229808180592954], [0.006693383678793907, -0.012253152206540108, -0.09904064238071442, -0.10876984149217606, 0.00843680277466774, 0.043045394122600555, -0.3811405301094055, -0.024015111848711967, -0.6253095865249634, -0.2533586025238037, -0.6966038942337036, 0.13097341358661652, -0.006498989649116993, -0.6364884972572327, 0.023160744458436966, 1.1530449390411377], [-5.546191823668778e-05, 4.25085672759451e-05, 6.041150481905788e-05, 0.00016302033327519894, 1.2177687494840939e-05, 0.00011530815390869975, -0.0004173146444372833, -3.1762469006935135e-05, 0.0014715330908074975, -0.0010121550876647234, -0.0006223271484486759, 0.0021446512546390295, -4.839556640945375e-05, -0.0009699586080387235, 1.940042056958191e-05, 0.0017468561418354511], [-0.00011005257692886516, 0.00017205503536388278, 0.0002226238138973713, 0.00024982469039969146, 1.3493662663677242e-05, 9.803480497794226e-05, 0.0005557764088734984, -1.536689705972094e-05, -0.0008732920396141708, -0.0007949129794724286, -0.00015993525448720902, -6.48207133053802e-05, -9.938577568391338e-05, -0.0009675071923993528, 5.420249726739712e-05, -0.0015938146971166134], [-0.0006209227722138166, 0.0006218457710929215, -0.004391653463244438, -0.005241886246949434, 0.0002525924064684659, 0.0007796479621902108, -0.023082923144102097, -0.0002157401031581685, 0.01595705933868885, -0.014379148371517658, -0.011002803221344948, 0.0022537813056260347, 7.95573287177831e-05, 0.04668807238340378, 0.00011367109254933894, -0.02512308396399021], [-0.0009216339094564319, 0.000862611283082515, -0.006427064072340727, -0.007546592969447374, 0.00025632319739088416, 0.0012062464375048876, -0.035108841955661774, -0.00030477746622636914, 0.02628237195312977, -0.01869877427816391, -0.01751963049173355, 0.007448889780789614, -9.504571062279865e-05, 0.07050883024930954, 7.355362868111115e-06, -0.02773907594382763], [1.4129460396361537e-05, -3.4174292522948235e-05, -0.00020975460938643664, -0.0001828488166211173, 1.0918166481133085e-05, 8.704693027539179e-05, -0.0005118529079481959, -5.1010818424401805e-05, 0.0002402021927991882, 0.0001613226777408272, -0.00031815157853998244, 0.0004438496252987534, -1.0685990673664492e-05, -0.00030417487141676247, 3.889490835717879e-05, 0.00016392530233133584], [7.57292946218513e-05, -5.7145247410517186e-05, -0.00024223991204053164, -0.00041116561624221504, 0.0001413698773831129, 0.00011078857642132789, -0.0015085182385519147, -0.00013720794231630862, -0.0012636081082746387, -0.0017956186784431338, -0.001164591871201992, -0.0007282873848453164, 1.658493965805974e-05, 0.002150449901819229, 0.00022188739967532456, -0.0038020755164325237], [-0.012008171528577805, 0.020925579592585564, 0.10650446265935898, 0.1147526428103447, -0.004469993989914656, -0.04224446415901184, -0.10525096207857132, 0.02206960693001747, -0.5806641578674316, -0.26294592022895813, -0.14566904306411743, 0.36756110191345215, 0.01199315208941698, -0.1275850087404251, -0.006328898016363382, 0.05510050058364868], [5.993038939777762e-05, -0.00015351921319961548, -0.00024367710284423083, -0.000273949553957209, 0.00013841835607308894, 0.0003293216577731073, -0.0002991902001667768, -0.00027309125289320946, -0.001089364755898714, -0.001025308738462627, -0.001545753562822938, -0.0001556512142997235, -3.340875628055073e-05, 0.001870916923508048, 0.0002750461862888187, -0.001468902686610818], [0.00630101328715682, -0.01898311637341976, -0.09013712406158447, -0.11063142120838165, 0.005803848151117563, 0.042517516762018204, -0.1752629578113556, -0.02963506616652012, -0.322212278842926, 0.08453185111284256, 0.057347431778907776, 0.3400901257991791, -0.006367046386003494, -0.35320308804512024, 0.018178045749664307, -0.45071426033973694], [-0.006280016619712114, 0.011705723591148853, 0.020755644887685776, 0.03187141939997673, -0.004524844698607922, -0.0013364182086661458, -0.7706838250160217, 0.004978061653673649, 0.008160308934748173, -0.18244823813438416, -0.18535125255584717, 0.6760331392288208, -0.002070230897516012, 0.5919451713562012, -0.008272010833024979, 1.5627623796463013], [-0.003926004748791456, 0.0033526106271892786, 0.025836504995822906, 0.02638339437544346, -0.0025159718934446573, -0.01140802912414074, 0.12085460871458054, 0.007499829865992069, -0.4181235730648041, -0.08132366091012955, 0.06608067452907562, -0.10345666855573654, 0.0010886216768994927, -0.10128838568925858, -0.00698812585324049, -0.17974142730236053], [0.0005125791649334133, -0.007479165215045214, 0.04518764466047287, 0.050130657851696014, 0.00021387622109614313, -0.004271417856216431, 0.09024772047996521, 0.0010403005871921778, 0.29931941628456116, 0.0515008345246315, 0.11231186240911484, 0.294689804315567, -0.003839359153062105, -0.7632500529289246, -0.0044517177157104015, 0.9809694290161133], [-3.651560837170109e-05, 7.178637315519154e-05, 0.00021684404055122286, 0.0002983410668093711, -1.526394953543786e-05, -4.244448064127937e-06, -0.00039973051752895117, 1.9823030015686527e-05, -0.00016761105507612228, -0.00029977638041600585, 3.789684342336841e-05, 0.0008464466081932187, -3.1836007110541686e-05, -0.0006971103139221668, -1.3232695891929325e-05, 0.00010602082329569384], [0.010379846207797527, -0.014135483652353287, -0.08528178185224533, -0.10637911409139633, 0.007661840412765741, 0.005845206324011087, 0.014006303623318672, -0.0114826001226902, 0.10315272212028503, 1.3049302101135254, 0.02145363949239254, -0.4438694417476654, 0.00014784245286136866, 0.8209375143051147, 0.006926966365426779, 0.12377353757619858], [5.527082976186648e-05, -0.00019781275477726012, -0.00078038708306849, -0.0007025923696346581, 0.000121060133096762, 0.00041358720045536757, -0.0015900384169071913, -0.0003030660445801914, -0.00040751995402388275, -0.0008154112147167325, -0.00176419282797724, 0.0008086339221335948, -1.6972646335489117e-05, 0.0014301232295110822, 0.00024369220773223788, 0.00010986640700139105], [-0.0030333646573126316, 0.018512794747948647, 0.08196410536766052, 0.0950569435954094, 0.0022767926566302776, -0.026073206216096878, 0.15101929008960724, 0.01766199804842472, -0.2974376380443573, -1.2020388841629028, 0.17494983971118927, 0.7646809220314026, -0.00406801188364625, -0.7541279792785645, -0.009367239661514759, -0.8062154054641724], [0.000241472662310116, -0.0019822348840534687, -0.004167409148067236, -0.004437100142240524, 0.0009513305267319083, 0.002168655628338456, 0.0003106078947894275, -0.0018809473840519786, 0.0036343284882605076, 0.016638778150081635, -0.0025720163248479366, -0.009958806447684765, 0.0006936219288036227, -0.002865759190171957, 0.0010215895017609, -0.006697969511151314], [-0.0019590917509049177, 0.0006173016736283898, 0.007193306460976601, 0.008230823092162609, -0.0007605121354572475, -0.0007274904637597501, -0.014553180895745754, 0.0010006413795053959, -0.01735640875995159, -0.024831589311361313, -0.009007307700812817, 0.026459606364369392, 7.575076597277075e-05, 0.006594704929739237, -0.0015402010176330805, 0.006289786659181118], [-0.0019527116091921926, 0.011384712532162666, 0.06871394068002701, 0.081690713763237, -0.0024675801396369934, -0.020174898207187653, -0.07043857872486115, 0.011717927642166615, -0.0956401601433754, -0.1546497344970703, 0.032256755977869034, 0.005987196229398251, 0.0021339161321520805, -0.03995091840624809, -0.0036241530906409025, 0.05370022729039192], [-0.0023910636082291603, 0.013426690362393856, 0.0810808315873146, 0.09597688168287277, -0.0025445977225899696, -0.025087863206863403, -0.10658281296491623, 0.014446279034018517, -0.10297638922929764, -0.17070546746253967, 0.0426299013197422, -0.0014938398962840438, 0.003312622895464301, -0.052275948226451874, -0.004098206292837858, 0.07089149206876755], [0.0006013615056872368, 0.0007026143721304834, -0.0002807642158586532, -0.00043736855150200427, -0.0009526964859105647, -0.00011029227607650682, 0.00035647398908622563, 2.6663992684916593e-05, 0.004028535448014736, -0.0041526504792273045, -0.0046964227221906185, -0.004243285395205021, 0.0006162161589600146, 0.0015375602524727583, -0.00046781872515566647, -0.006590797565877438], [-0.0007514036260545254, -0.0015579127939417958, -0.01696302741765976, -0.021331025287508965, 0.0007103298557922244, 0.004487719386816025, 0.008722234517335892, -0.0024254790041595697, 0.029871653765439987, 0.00830977875739336, -0.005105674732476473, 0.008080375380814075, -7.729688513791189e-05, 0.009687302634119987, 0.0006426615291275084, -0.02006498910486698], [0.002971863839775324, 0.0004087518318556249, -0.03138536587357521, -0.04457427188754082, -0.0010841962648555636, 0.0014024160336703062, 0.5271388292312622, -0.0002727437240537256, -0.031077692285180092, 0.515395998954773, 0.35613876581192017, 0.7496035695075989, 0.0005172209930606186, 0.05914462357759476, 0.0003522044571582228, -0.5133838653564453], [5.396697815740481e-05, 0.0009671656880527735, 0.009511417709290981, 0.011575271375477314, -0.0006782820564694703, -0.0028525327797979116, -0.00516943633556366, 0.0017658028518781066, -0.015667779371142387, -0.012243770994246006, 0.004350157920271158, 0.002830769633874297, -0.0005340659408830106, -0.0038814356084913015, -0.000716485024895519, 0.016855215653777122], [-0.008951782248914242, 0.019913969561457634, 0.034914225339889526, 0.03816976770758629, 0.0011753840371966362, -0.005024864338338375, -0.21494144201278687, 0.007485370617359877, 0.8527472615242004, -1.2486906051635742, -0.07950267195701599, -0.33303695917129517, -0.002055814955383539, 2.0397942066192627, -0.0025734188966453075, 1.0021101236343384], [-0.004278676584362984, -0.0008975736564025283, -0.05743293836712837, -0.07336976379156113, 0.0006512997206300497, 0.010741299949586391, -0.016543736681342125, -0.004427887033671141, 0.6554549336433411, 0.7656438946723938, -0.15367652475833893, -0.34883663058280945, 0.0025507062673568726, -1.0483585596084595, 0.00028502484201453626, -0.6894445419311523], [0.012103390879929066, -0.024297412484884262, -0.01569158397614956, -0.007877514697611332, 0.010516490787267685, 0.00890838447958231, -0.13578197360038757, -0.017364900559186935, -0.024534132331609726, 0.5417513847351074, 0.021458974108099937, 0.6844398975372314, -0.0019240721594542265, -0.06876964867115021, 0.02196577936410904, -0.5972062349319458], [-0.019772464409470558, 0.0027607290539890528, 0.021078716963529587, 0.015176846645772457, -0.009435134939849377, -0.002073433715850115, -0.3392295241355896, 0.010475346818566322, 0.04058193787932396, -0.07774332165718079, -0.38071513175964355, -0.0142009686678648, 0.004598551895469427, -0.7465600967407227, -0.018587321043014526, 0.7443607449531555], [0.0011845733970403671, -0.0020846480038017035, 0.00010268875485053286, 0.0005762240616604686, 0.001955399289727211, 0.0018399044638499618, 0.0010095968609675765, -0.002210854087024927, -0.003974460065364838, -0.003900909097865224, -0.005093410611152649, -0.007524894550442696, 4.32946762884967e-05, 0.003795014228671789, 0.0022401283495128155, 0.004342426545917988], [-0.006891865283250809, -0.0023888936266303062, 0.025552254170179367, 0.037798862904310226, -0.0044639697298407555, -0.004149931482970715, -0.04249144345521927, 0.005948117468506098, -0.15276600420475006, 1.8030275106430054, 0.19026854634284973, -0.40956512093544006, 6.494001922874304e-07, 0.3978855609893799, -0.00930860172957182, -0.33762326836586], [-0.00039172364631667733, -0.0025604781694710255, -0.006827699951827526, -0.007837916724383831, 0.0014677110593765974, 0.003915503155440092, 0.0019330085488036275, -0.0029178548138588667, 0.005686029326170683, -0.001692302292212844, -0.019598472863435745, -0.003985622897744179, 0.0008731043781153858, 0.000684304628521204, 0.0009770684409886599, -0.013426829129457474], [0.0031231676694005728, 0.0006672344170510769, -0.03983509540557861, -0.04750220850110054, -0.0018227329710498452, 0.0019523295341059566, 0.07081703841686249, -0.0013649484608322382, 0.45442262291908264, -0.05351594090461731, 0.12099885940551758, 0.6126133799552917, 0.0005878004594705999, 0.533025324344635, 0.0003922928008250892, 0.23845037817955017], [-5.466748552862555e-05, 4.2571828089421615e-05, 6.0133799706818536e-05, 0.00016138405771926045, 1.2592107850650791e-05, 0.00011579971032915637, -0.00048293027793988585, -3.2421841751784086e-05, 0.0014459349913522601, -0.0010053578298538923, -0.000609156908467412, 0.0021680225618183613, -4.806172728422098e-05, -0.0010312567465007305, 2.0406925614224747e-05, 0.0018006163882091641], [-0.0001158916056738235, 0.00018518291471991688, 0.00023692284594289958, 0.00027428267640061677, 1.1768108379328623e-05, 9.102206240640953e-05, 0.0005536995595321059, -8.868167242326308e-06, -0.0008375078905373812, -0.0008303536451421678, -0.000152628417708911, 5.0654311053222045e-05, -0.00010481931531103328, -0.0010663635330274701, 5.268497989163734e-05, -0.0016399812884628773], [-0.0006432989030145109, 0.0008101875428110361, -0.002877399092540145, -0.0033698957413434982, 0.00013300791033543646, 0.0003366443852428347, -0.023290462791919708, 8.110064663924277e-05, 0.015885908156633377, -0.013974619098007679, -0.009498156607151031, 0.005207215901464224, 0.00018644808733370155, 0.037618257105350494, -4.8293135478161275e-05, -0.015877708792686462], [-0.0009144504438154399, 0.0011950060725212097, -0.0039015309885144234, -0.0044303173199296, 0.00011224054469494149, 0.0005076443776488304, -0.0332079716026783, 0.0001763221516739577, 0.025901151821017265, -0.01812116615474224, -0.01468935888260603, 0.011736699379980564, 8.593372331233695e-05, 0.054571859538555145, -0.00019145380065310746, -0.012960966676473618], [1.3808168660034426e-05, -3.428211130085401e-05, -0.00021626651869155467, -0.00019018944294657558, 1.0956370715575758e-05, 8.785274985712022e-05, -0.000583505374379456, -5.134714228915982e-05, 0.00025248416932299733, 0.00015763644478283823, -0.00033682084176689386, 0.0004567034193314612, -1.0422989362268709e-05, -0.0003090566606260836, 3.899505827575922e-05, 0.00017465747077949345], [7.027512765489519e-05, -5.7833982282318175e-05, -0.00017176178516820073, -0.0003225213731639087, 0.00013861323532182723, 0.00010896266030613333, -0.0015480711590498686, -0.0001394766877638176, -0.0011982887517660856, -0.0018678379710763693, -0.0011235466226935387, -0.0007009792607277632, 1.6540127035113983e-05, 0.002133477246388793, 0.00021983181068208069, -0.0035073955077677965], [-0.008016740903258324, 0.012420090846717358, 0.09535666555166245, 0.1033521443605423, -0.001672109356150031, -0.027300981804728508, 0.02443310245871544, 0.01400796789675951, -0.3117237091064453, -0.21473883092403412, -0.04594067856669426, 0.10441059619188309, 0.007051714695990086, 0.03996763750910759, -0.004712335299700499, 0.045130450278520584], [5.5298820370808244e-05, -0.00014602211012970656, -0.00023581393179483712, -0.00025306272436864674, 0.00013607137952931225, 0.00033057251130230725, -0.00042343029053881764, -0.00027015735395252705, -0.0010320107685402036, -0.0010523255914449692, -0.0015541079919785261, -0.00011295034346403554, -3.1803210731595755e-05, 0.0017568340990692377, 0.0002720751508604735, -0.0013029043329879642], [0.007107694633305073, -0.010589071549475193, -0.036596547812223434, -0.03776870295405388, -0.0018413017969578505, -0.0013217015657573938, -0.038177475333213806, -0.0011689011007547379, -0.8336855173110962, 0.43658435344696045, -0.031181903555989265, -0.5859218239784241, 0.0007732806261628866, 0.09471264481544495, -0.005962596274912357, -0.9847317337989807], [0.0012357831001281738, -0.02063106745481491, -0.09982089698314667, -0.129250630736351, 0.0033125162590295076, 0.014087011106312275, -0.07370782643556595, -0.006674721371382475, 1.100879192352295, -0.5057702660560608, -0.19976384937763214, -0.6283912658691406, -0.00397160928696394, 0.795271635055542, -0.0020304701756685972, -2.082371950149536], [-0.0035863369703292847, 0.0017166829202324152, 0.013958555646240711, 0.01091455016285181, -0.00039244553772732615, -0.007190639153122902, 0.15045464038848877, 0.00444169994443655, -0.3480048179626465, -0.12928840517997742, 0.05474238470196724, -0.11191266030073166, 0.0005171821685507894, 0.10628856718540192, -0.004957933910191059, -0.29680222272872925], [0.003715129569172859, -0.0029666228219866753, 0.01001300010830164, 0.011055273935198784, 0.005266095511615276, 0.0026970228645950556, -0.08631999790668488, -0.005387631244957447, 0.2558329701423645, 0.20126290619373322, -0.017362739890813828, 0.3320416808128357, -0.0048726992681622505, -0.690409779548645, 0.006583348847925663, 0.045050982385873795], [-3.58262550435029e-05, 7.030744745861739e-05, 0.00021368351008277386, 0.0002929791808128357, -1.5606676242896356e-05, -4.8638521548127756e-06, -0.00032795857987366617, 1.9584422261686996e-05, -0.000178318761754781, -0.00026722910115495324, 4.9633938033366576e-05, 0.0008126001921482384, -3.1373812817037106e-05, -0.0006318055675365031, -1.3378846233536024e-05, 0.0001135813508881256], [0.01231489796191454, -0.023824922740459442, -0.12273386120796204, -0.14507938921451569, 0.005354247055947781, 0.012646704912185669, -0.27319321036338806, -0.01375674270093441, 0.2972630262374878, 1.2958829402923584, -0.14413253962993622, -0.7608750462532043, 0.0017277911538258195, 0.9605759382247925, 0.00536913238465786, -0.624018669128418], [5.421110836323351e-05, -0.00019629255984909832, -0.0008018047665245831, -0.000717419374268502, 0.0001203625142807141, 0.0004120192024856806, -0.0018666719552129507, -0.0003017328854184598, -0.0002472860796842724, -0.000773149193264544, -0.0017657204298302531, 0.0008466631406918168, -1.5083724065334536e-05, 0.0012713721953332424, 0.00024177330487873405, 0.000308832386508584], [-0.0011670771054923534, -0.006214051973074675, -0.039133865386247635, -0.05605055391788483, 0.001994062215089798, 0.002766431774944067, 0.5244707465171814, -0.0012822450371459126, -0.2707935571670532, -0.09200876206159592, 0.21980471909046173, 0.5054214596748352, -0.006246228236705065, -0.7790682315826416, -0.0009008631459437311, -0.8718311190605164]], "rec.bias_ih_l0": [0.00019735463138204068, 0.0010110990842804313, 0.055849093943834305, 0.0730082169175148, -0.0009663779637776315, 0.004224976059049368, 0.3385181725025177, 0.0017609328497201204, -1.7178376913070679, -1.5612883567810059, 0.21243558824062347, 0.03694159537553787, 9.281114216719288e-06, 0.9166977405548096, 0.0007304482278414071, -1.8803764581680298, 0.00024119958106894046, 0.0006141217891126871, 0.06506560742855072, 0.08956429362297058, -0.0009544915519654751, 0.00446510873734951, 0.4614008963108063, 0.0017667212523519993, 1.7199373245239258, 2.096313714981079, 0.07206649333238602, 0.011503982357680798, 4.2693816794781014e-05, 0.3879530131816864, 0.0009808097966015339, 2.2593135833740234, 0.0001276739640161395, -0.0042752791196107864, -0.01299613993614912, -0.013441839255392551, 0.00023377106117550284, 0.0016656621592119336, -0.06880182027816772, -0.0018500034930184484, -0.16871888935565948, 0.09714502096176147, -0.07464946806430817, 0.17501291632652283, -0.0005743621150031686, 0.16081799566745758, 0.0005659408052451909, -0.08401210606098175, 0.000197913235751912, 0.0009921364253386855, 0.05654294416308403, 0.07414325326681137, -0.0009676149929873645, 0.004248676355928183, 0.30608707666397095, 0.0017690964741632342, 0.26091575622558594, -0.36125701665878296, 0.25894275307655334, 0.02539239451289177, 9.200091881211847e-06, 0.3619188368320465, 0.000739859591703862, 0.5355905890464783], "rec.bias_hh_l0": [0.00019735463138204068, 0.0010110990842804313, 0.055849093943834305, 0.0730082169175148, -0.0009663779637776315, 0.004224976059049368, 0.3385181725025177, 0.0017609328497201204, -1.619683027267456, -1.561276912689209, 0.21243558824062347, 0.03694159537553787, 9.281114216719288e-06, 0.9169373512268066, 0.0007304482278414071, -1.9306590557098389, 0.00024119958106894046, 0.0006141217891126871, 0.06506560742855072, 0.08956429362297058, -0.0009544915519654751, 0.00446510873734951, 0.4614008963108063, 0.0017667212523519993, 1.8087819814682007, 2.096310615539551, 0.07206649333238602, 0.011503982357680798, 4.2693816794781014e-05, 0.386991411447525, 0.0009808097966015339, 2.281646966934204, 0.00015171196719165891, -0.004289357457309961, -0.013225791044533253, -0.013426107354462147, 0.00029093597549945116, 0.0016104272799566388, -0.06873475015163422, -0.0018667015247046947, 0.06338749825954437, 0.041769180446863174, -0.0746443122625351, 0.17516422271728516, -0.000717048766091466, 0.043573278933763504, 0.0007600244134664536, -0.006270111538469791, 0.000197913235751912, 0.0009921364253386855, 0.05654294416308403, 0.07414325326681137, -0.0009676149929873645, 0.004248676355928183, 0.30608707666397095, 0.0017690964741632342, 0.24957308173179626, -0.36125898361206055, 0.25894275307655334, 0.02539239451289177, 9.200091881211847e-06, 0.36422261595726013, 0.000739859591703862, 0.5460798144340515], "lin.weight": [[0.0011034633498638868, 0.005978589411824942, 0.004526952281594276, 0.0023990627378225327, 0.0020029693841934204, 0.0006989853573031723, -0.004182588309049606, -0.0008101485436782241, -0.7073144316673279, -0.473766952753067, 0.2789977192878723, 0.2989252507686615, 0.004396604839712381, 0.03646710887551308, 0.004242980852723122, 0.15205195546150208]], "lin.bias": [-0.16131186485290527]}}