{"model_data": {"model": "SimpleRNN", "input_size": 1, "skip": 1, "output_size": 1, "unit_type": "LSTM", "num_layers": 1, "hidden_size": 32, "bias_fl": true}, "state_dict": {"rec.weight_ih_l0": [[0.0677301362156868], [0.00940579641610384], [0.00777034368366003], [-0.012048992328345776], [0.015578285790979862], [0.0047624786384403706], [0.016637837514281273], [-0.03426933288574219], [-0.015713971108198166], [0.015240472741425037], [0.03699113056063652], [0.056574828922748566], [-0.005301150493323803], [0.0428708977997303], [-0.0007161064422689378], [-0.05228386074304581], [-0.004366532899439335], [7.91839265730232e-05], [0.018946919590234756], [0.005451429635286331], [-0.10748298466205597], [0.08638627827167511], [0.007593314163386822], [0.023520683869719505], [-0.00011176440602866933], [0.8115386366844177], [-0.012495729140937328], [-0.15172043442726135], [0.12934131920337677], [0.01769685000181198], [-0.07460290193557739], [0.05540609732270241], [0.05291026458144188], [0.004842761438339949], [0.016769295558333397], [0.00014933840429876], [-0.003471542615443468], [0.0018238172633573413], [0.0166611447930336], [-0.031891025602817535], [-0.0037081127520650625], [0.01764724962413311], [0.01968776434659958], [0.02361392043530941], [-0.0037988382391631603], [0.018040496855974197], [-0.0005495300865732133], [-0.0407683365046978], [-0.009165477007627487], [-0.00015207620162982494], [0.008421603590250015], [0.02127743884921074], [-0.05237046256661415], [0.04510226100683212], [0.0033072992227971554], [-0.0008154753013513982], [-0.00010121695959242061], [0.14431679248809814], [-0.005986227188259363], [-0.31874004006385803], [0.08124267309904099], [0.010819470509886742], [-0.036975983530282974], [0.039286017417907715], [-0.04976343363523483], [0.027455998584628105], [0.035255856812000275], [0.0043042306788265705], [0.028305059298872948], [0.004064956679940224], [-0.05207508057355881], [-0.03281993791460991], [-0.003699909895658493], [-0.006217844784259796], [-0.045498576015233994], [-0.003043351462110877], [-0.032020144164562225], [-0.019695835188031197], [-0.020172758027911186], [0.035346247255802155], [0.06377735733985901], [0.0006491607055068016], [-0.0489327646791935], [0.04063870385289192], [-0.014735119417309761], [1.5065784454345703], [0.04100683704018593], [0.006131513975560665], [0.02455047518014908], [-0.39242374897003174], [-0.006275146268308163], [-0.5709301829338074], [0.016864320263266563], [0.0341167151927948], [-0.03339606150984764], [-0.00015038509445730597], [0.06568298488855362], [0.009615588001906872], [0.008994750678539276], [-0.012127705849707127], [0.017777102068066597], [0.004145633429288864], [0.014495979063212872], [-0.03205263242125511], [-0.01559546496719122], [0.01570502296090126], [0.03657974302768707], [0.052281733602285385], [-0.003984625916928053], [0.045074693858623505], [-0.0010043226648122072], [-0.05675118416547775], [-0.003554759779945016], [0.00025161969824694097], [0.021412741392850876], [0.006327296607196331], [-0.11262908577919006], [0.004215144086629152], [0.008129189722239971], [0.025013424456119537], [-0.0015442431904375553], [-0.5394338965415955], [-0.012470643036067486], [-0.8919178247451782], [0.13146257400512695], [0.019919486716389656], [-0.07639264315366745], [0.055953219532966614]], "rec.weight_hh_l0": [[-0.0037631664890795946, 5.212183532421477e-05, 0.006459598895162344, -0.002894062316045165, -9.265729022445157e-05, 0.007403164636343718, -0.006499466486275196, -0.0020282287150621414, -0.0017308051465079188, -0.005106810946017504, -0.002851619152352214, 0.0013644950231537223, 0.0028510335832834244, -0.0002897281083278358, -0.002962557366117835, 0.012027381919324398, 0.005125642288476229, 0.001206935034133494, -0.008073108270764351, 0.0037438352592289448, 0.012400029227137566, 0.053549934178590775, -0.002219913061708212, -0.0026613527443259954, -0.01070879865437746, -0.09187160432338715, -0.001698272186331451, 0.014204515144228935, -0.0030965227633714676, 0.0008331360877491534, -0.0032115704379975796, -0.0024162130430340767], [-0.00022819828882347792, 0.00019292393699288368, 0.00012847075413446873, 3.5152759210177464e-06, 6.200859206728637e-05, 5.703697752323933e-05, -0.000551912235096097, 0.0005691331462003291, -0.0001316454290645197, 6.757740629836917e-05, -0.0002146556944353506, -0.00028603876125998795, -0.0002210781240137294, 0.0001933891762746498, -3.3551692467881367e-05, -0.002484349999576807, -0.00024455299717374146, 2.1093941541039385e-05, 0.0003732264449354261, 0.00022670207545161247, 1.951093327079434e-05, 0.0025931044947355986, 0.0004982955870218575, 0.00031375157414004207, -0.0022275487426668406, 0.003936855588108301, 0.0001922586961882189, -0.003349510719999671, -0.00032750016544014215, -9.071001841221005e-05, -0.00013246784510556608, -0.00012368473107926548], [-0.001804703613743186, -0.00011060883844038472, -0.0004157020302955061, -0.0003234220785088837, 0.0014742977218702435, 0.0012635869206860662, -0.0019057581666857004, -0.00026888155844062567, -0.0003174792800564319, -0.0002955857780762017, -0.0007495174068026245, 0.0007460758206434548, 0.0004084270913153887, -1.1300930054858327e-05, -0.0003862328012473881, 0.002270757919177413, 0.0019212033366784453, 7.004298822721466e-05, -0.0026665329933166504, 0.0008063862915150821, -0.0022325310856103897, 0.02119985967874527, 0.0014546902384608984, 0.00035357882734388113, -0.0028103357180953026, -0.007063997443765402, 0.00020746380323544145, 0.0006363814463838935, -0.0009506222559139132, 0.0014670661184936762, -0.0009342266130261123, -0.0013267038157209754], [3.298633237136528e-05, -9.863151353783906e-05, 0.00017928706074599177, 0.00013065169332548976, 2.8885226129204966e-05, -0.00017136252427008003, 0.0004645898879971355, -4.8309633712051436e-05, 5.5373297072947025e-05, 7.730747893219814e-05, -0.00013844764907844365, -6.600574124604464e-05, 0.0003927306388504803, 4.421219273353927e-05, -0.00011368016566848382, 0.000254311686148867, 0.00010757566633401439, -2.3015854822006077e-05, 0.00014147743058856577, -0.0001345154596492648, 0.0006342987180687487, -0.0017459169030189514, -0.0006705248961225152, 1.8147038645111024e-05, 5.6045981182251126e-05, -0.0010878522880375385, -0.0001862834469648078, -0.0006326595321297646, 7.145637209760025e-05, 0.0001449502888135612, -0.00017218590073753148, -5.912119377171621e-06], [-0.0013459735782817006, 0.004843359813094139, 0.002486415905877948, -0.002911424031481147, 0.008128926157951355, 0.010402793996036053, -0.0012887384509667754, 0.006786942016333342, -0.0020201324950903654, -0.00017793920414987952, -0.0036713038571178913, 0.0033744501415640116, 0.0005222185282036662, -0.0040511502884328365, -0.0012345097493380308, 0.014163954183459282, 0.00998434517532587, 0.0012218861375004053, -0.010800404474139214, 0.0038925358094274998, 0.004900095984339714, -0.016731705516576767, -0.0019742960575968027, -0.010776601731777191, -0.008692914620041847, 0.030780497938394547, 0.0016203011618927121, -0.012642580084502697, 0.013707851991057396, 0.00405446020886302, 0.000262303656199947, -0.0010905008530244231], [-0.0030460008420050144, 0.000384883867809549, 0.0018329750746488571, 0.0005849567824043334, 0.0009955110726878047, -0.01049041748046875, -0.0011834872420877218, -0.0012388845207169652, -0.0007203816785477102, -0.0017835008911788464, -0.0012143909698352218, -0.0001689736673142761, 0.00011682944023050368, -0.0009478951105847955, -0.0004872324934694916, 0.00029634975362569094, 0.002128118183463812, 0.00022565729159396142, -0.0017228513024747372, 2.0361520000733435e-05, -0.00028317159740254283, 0.006499515846371651, 0.0012035862309858203, -0.001046542078256607, -0.0013717542169615626, 0.012177469208836555, -0.0002703478094190359, 0.0010575155029073358, 0.0013834491837769747, 0.0010488303378224373, -0.0009221303043887019, -0.0002927274617832154], [-0.004116339143365622, -0.00015451993385795504, 0.00504118949174881, -0.002324372297152877, 0.0006534563144668937, 0.005567746236920357, -0.0029492147732526064, -0.0017818142659962177, -0.0006272263708524406, -0.00027430083719082177, -0.00019093707669526339, -0.0019996860064566135, 0.0020860980730503798, 0.0009559163590893149, -0.0021614537108689547, 0.007733152713626623, -0.0008467366569675505, 0.000462909898487851, -0.0035516084171831608, -0.0002979059936478734, 0.00010172652400797233, 0.03408534452319145, -0.0020615989342331886, -0.003436364233493805, -0.005457940511405468, -0.031386151909828186, -0.00020826749096158892, 0.011574744246900082, 0.0012719593942165375, 0.004232178907841444, -0.002256940584629774, -0.002939885947853327], [-0.0023957379162311554, -0.0005195362027734518, -0.00012951664393767715, -0.0011522284476086497, -0.007881724275648594, 0.002436877228319645, -0.00034905897337011993, -0.006912111304700375, 0.0013477368047460914, 0.0009084400371648371, -0.0033044577576220036, -0.007438621483743191, 0.0037460774183273315, 0.007011720445007086, -0.0005984125891700387, 0.006532356608659029, -0.010359097272157669, 0.0008698726305738091, 0.011755437590181828, 0.00490537378937006, 0.005250675603747368, -0.024051448330283165, -0.0022796078119426966, 0.005837795324623585, -0.0071931458078324795, 0.0371573269367218, -0.0006501720054075122, 0.01822519861161709, -0.01253724005073309, 0.0015263328095898032, -0.002660089870914817, -0.0023132397327572107], [0.0002487526508048177, -1.9908276954083703e-05, -7.16315844329074e-05, -0.00021284502872731537, -5.546051761484705e-05, 4.934298704029061e-05, 9.926931670634076e-05, 0.00010318851127522066, -2.185027551604435e-05, 9.302966645918787e-07, 0.00010111919982591644, 6.847597978776321e-05, -3.743542038137093e-05, 1.7100404875236563e-05, -3.4941838293889305e-06, 0.0003764545836020261, 2.3541182599728927e-05, 5.924438301008195e-05, 0.0002104301383951679, -0.00017196066619362682, 0.0005932058556936681, -0.0022730843629688025, -0.0003236170450691134, -5.907802005822305e-06, -0.0017291491385549307, 0.0014471703907474875, 0.00011565667955437675, -0.0015707602724432945, 4.8033187340479344e-05, -0.00020376266911625862, 0.00022320228163152933, 7.09530504536815e-05], [0.0031567795667797327, -0.0006832762155681849, 0.0019234387436881661, 0.0008867021533660591, 0.0042611705139279366, 8.469088061247021e-05, 0.0012298175133764744, 0.0028604543767869473, -0.0008318909094668925, -0.0014483898412436247, 0.0011270123068243265, -0.0008992222719825804, 0.0009877969278022647, -0.0036886846646666527, 0.00012789350876118988, -0.0014212126843631268, -0.0022180210798978806, -0.00046740207471884787, 0.0023358657490462065, 0.0012619573390111327, 0.004190091975033283, 0.024762704968452454, -0.0028615256305783987, -0.004254405852407217, 0.0004460065974853933, -0.03227075934410095, 5.349503771867603e-05, -0.010209420695900917, -0.0008182471501640975, 0.0031584170646965504, 0.0011138325789943337, -0.00028359907446429133], [-0.0016824131598696113, 0.0010762029560282826, 0.006281834561377764, -0.0015037968987599015, 0.0010619984241202474, 0.004688611254096031, -0.004660379607230425, -0.004085754044353962, -0.0010011508129537106, 0.0013488364638760686, -0.0009232065640389919, 0.00032780528999865055, -0.0005078978138044477, -0.001494492287747562, -0.0031129037961363792, 0.009505798108875751, 0.0014157523401081562, 0.001166443806141615, -0.00730283185839653, -0.00015334734052885324, 0.0034326580353081226, 0.022804802283644676, 0.003686989890411496, 0.0062239933758974075, -0.008536080829799175, -0.015092338435351849, -0.0008841804228723049, 0.009241322055459023, -0.00014870843733660877, 0.0015431633219122887, -0.003001238452270627, -0.003237656783312559], [-0.000990993226878345, 0.0038460479117929935, 0.003615059657022357, -0.00960779283195734, -0.0030170483514666557, 0.00908972043544054, -0.01478950772434473, -0.009017527103424072, 0.0010360779706388712, 0.0052192979492247105, -0.0001231644710060209, -0.0009232271113432944, -0.002982226200401783, 0.003983422182500362, -0.001380241708829999, 0.039358917623758316, -0.0035953910555690527, 0.003278546268120408, -0.021390093490481377, 0.002400460885837674, -0.019466493278741837, 0.033441100269556046, -0.002650142414495349, -0.02136855758726597, -0.027799712494015694, -0.04731447994709015, -2.6555517251836136e-06, 0.02998419851064682, 0.0002359375066589564, 0.011852467432618141, -0.004046793095767498, -0.011827491223812103], [-8.382237137993798e-05, 0.00010163483239011839, -3.3073586109821917e-06, 4.9202328227693215e-05, -2.8829403163399547e-05, 7.504929089918733e-05, 1.1997396541119087e-05, 0.00046998567995615304, -0.00013815834245178849, 0.00019234245701227337, 0.00011329078552080318, -0.0003447949711699039, 7.683798685320653e-06, 0.0004013759025838226, 3.996166560682468e-05, 0.00024739824584685266, -0.0005751583958044648, 4.303844252717681e-05, 0.0003564041689969599, -0.00041245610918849707, 0.00046228236169554293, -0.0024673102889209986, -0.0007901747594587505, 0.0005726501694880426, -0.0006109228124842048, 0.008075689896941185, -0.00017775007290765643, -0.0014009000733494759, -0.0004368930240161717, -0.00012138674355810508, 0.00020349075202830136, -4.950930815539323e-05], [-0.00037831588997505605, 0.001615482964552939, 0.0014190507354214787, 0.0013514189049601555, -0.004057134967297316, 0.0077758971601724625, -0.004525577649474144, 0.005539966281503439, -0.00043206987902522087, -0.004575392231345177, -0.0026221289299428463, -0.004655767232179642, 0.002090203110128641, 0.0007962697418406606, -0.0014640522422268987, 0.017955517396330833, 0.00010294716048520058, 0.0017858600476756692, 0.004056023433804512, 0.007579556666314602, 0.008153194561600685, 0.008659616112709045, 0.0004664353036787361, -0.004789796192198992, -0.010028333403170109, -0.004996956326067448, 0.00044992868788540363, 0.009893503040075302, 0.009758609347045422, -0.01151090394705534, 0.001134819583967328, -0.0028166761621832848], [-5.3114894399186596e-05, -2.8762000511051156e-05, 0.00015003069711383432, 0.00018534746777731925, 0.0004061552172061056, 2.2983254893915728e-05, -4.9782109272200614e-05, -6.172191206132993e-05, -0.00013017897435929626, 8.069102477747947e-05, -0.0005518866237252951, 0.00015393164358101785, 0.00010771058441605419, -0.00018481329607311636, -5.5317832448054105e-05, -0.0001963649847311899, 0.0004320387088228017, 0.00010566398850642145, -0.0004970883601345122, -4.414179056766443e-05, -7.921981887193397e-05, -2.565560134826228e-05, -7.575102790724486e-05, -0.00011388997518224642, 0.018400711938738823, 0.0013213952770456672, -7.486330287065357e-05, 0.001183838932774961, 0.0001217334865941666, 0.0003395533130969852, -0.00019534891180228442, -6.94588670739904e-05], [0.0015444866148754954, 0.0005967841134406626, 0.0019108556443825364, 0.000994672765955329, 0.003271856578066945, -0.005613923538476229, 0.0022132673766463995, -0.00294679868966341, -0.0015829694457352161, 0.002278432948514819, -0.0025196457281708717, 0.004077623598277569, 0.0004451184649951756, -0.003663599258288741, -0.00046250413288362324, -0.06620929390192032, 0.003418632782995701, 0.000482819858007133, -0.00376392831094563, -0.004297534469515085, 0.0014939357060939074, -0.02698257938027382, -0.005458429921418428, -0.003663918934762478, -0.006471266970038414, 0.062311429530382156, -0.0021656916942447424, 0.015390745364129543, 0.005737878382205963, 0.004031043965369463, -0.00034422436146996915, -4.79020454804413e-05], [-0.0007431103731505573, 0.0005162031739018857, 0.0061199851334095, -0.0028811218217015266, 0.002458210801705718, -0.00010494171874597669, -0.0040100738406181335, -0.004753909073770046, 1.636089109524619e-05, 0.0022337983828037977, -4.181280019111e-05, -0.0004348290094640106, -0.0006654384196735919, -0.00045339344069361687, -0.0007092842133715749, 0.010948248207569122, 0.0025136477779597044, 0.0007350510568358004, -0.0048465123400092125, -0.00031351784127764404, -0.007253654301166534, 0.008919826708734035, -0.0006348554161377251, -0.005749596282839775, -0.007472772616893053, -0.016199177131056786, -4.7137753426795825e-05, 0.014526359736919403, 0.005725238937884569, 0.005114611703902483, -0.000924259948078543, -0.002290990436449647], [9.984338248614222e-05, 2.2012363842804916e-05, -1.5386465747724287e-05, -6.190909971337533e-07, 3.7826299376320094e-05, 4.0167848055716604e-05, 6.157153256935999e-05, -2.1082569219288416e-05, -1.7790731362765655e-05, -2.293169018230401e-06, -1.3102136108500417e-05, 5.83132314204704e-05, 3.6425697089725873e-06, -5.5495496781077236e-05, -1.161760064860573e-05, -2.8511192795122042e-05, 7.518579513998702e-05, 8.0712023191154e-05, 8.707030247023795e-06, -8.172453817678615e-05, 7.393467967631295e-05, -0.0007955894689075649, -6.364149885484949e-05, -5.0753158575389534e-05, 0.015695706009864807, 0.0012100033927708864, 1.355276890535606e-05, -0.0007650855113752186, 0.0001305449550272897, -2.7009507903130725e-05, 6.750708416802809e-05, 3.1550152925774455e-05], [0.0006915820413269103, 0.0017729571554809809, -0.00042818105430342257, -0.00046345897135324776, 0.0008078415994532406, 0.0022388543002307415, -0.0005507401656359434, -0.0008407165296375751, -0.00019345409236848354, -0.0006082803593017161, -0.001488420763053, 0.002328539500012994, 0.001341319875791669, 0.0011635569389909506, 3.7162895750952885e-05, 0.0009278760990127921, 0.0027582379989326, 0.00030092598171904683, -0.002470597391948104, -0.0006224806420505047, 0.002168147126212716, -0.008830098435282707, -0.001558260410092771, -0.003806798718869686, -0.0032444982789456844, 0.02484346367418766, 0.000895401113666594, 0.008931080810725689, 0.005955080036073923, 0.0013153206091374159, 0.001037180656567216, 8.616973354946822e-05], [0.0024757750798016787, -0.0033135106787085533, 0.008763805031776428, 0.0018054813845083117, 0.009932111948728561, 0.0017488537123426795, 0.0010578244691714644, -0.007603136356920004, -0.0029454808682203293, -0.003314664587378502, -0.00017346152162645012, 0.003943112213164568, 0.005540084093809128, -0.006839152425527573, -0.007072174921631813, -0.009735052473843098, 0.0020032033789902925, 0.0002525282616261393, 0.0065614222548902035, 0.0026608805637806654, 0.006303409114480019, 0.01003730297088623, -0.01530908327549696, 0.002908064518123865, 0.004122268408536911, -0.02914918214082718, -0.0034742162097245455, -0.013573077507317066, -0.003570397151634097, 0.0007082236115820706, 5.292861260386417e-06, 0.0019779393915086985], [0.005428656470030546, -0.0028014059644192457, 0.000502634618896991, -0.0011275064898654819, 0.007628520950675011, 0.0011516509111970663, 0.006834172643721104, -0.00493877287954092, -0.00048311366117559373, -0.0014116730308160186, -0.005164172500371933, 0.00596439465880394, 0.0024763650726526976, -0.006216709036380053, -0.0006366700399667025, 0.00369902397505939, -0.002087053144350648, 0.0004807360237464309, 0.0022944482043385506, 0.0013940271455794573, -0.004804919473826885, 0.012949209660291672, -0.007066148333251476, -0.00022945919772610068, -0.0017903882544487715, -0.023185933008790016, 0.00017862905224319547, 0.027711857110261917, -0.007352669723331928, 0.0016717471880838275, 0.001621234230697155, 0.00015198640176095068], [0.003302820259705186, 0.01157328300178051, -0.07623646408319473, -0.02653457224369049, 0.01100943423807621, -0.036126509308815, 0.006819560658186674, -0.05917401984333992, 0.07925263047218323, -0.024111157283186913, -0.048834968358278275, -0.022544672712683678, -0.011465066112577915, 0.03703782707452774, -0.038725998252630234, -0.031446050852537155, -0.05620181933045387, 0.040913186967372894, 0.013685697689652443, 0.014774835668504238, -0.13220933079719543, 0.17128659784793854, 0.009634495712816715, -0.048102572560310364, -0.09523548185825348, -0.06486506015062332, -0.0039437394589185715, 0.6983470916748047, -0.03127153962850571, -0.055548716336488724, 0.017654869705438614, 0.01535339280962944], [0.0013524822425097227, -0.001536372466944158, 0.0012627525720745325, 0.0021688388660550117, 0.002433890476822853, 0.0023630643263459206, 0.0008096013916656375, -0.0014265079516917467, -0.002404463943094015, -0.0012627005344256759, -0.006333266384899616, 0.0030137994326651096, 0.003009155625477433, -0.001600557123310864, -0.00039828152512200177, 0.00011586373875616118, 0.00804875884205103, 0.00022640031238552183, -0.0017126561142504215, -0.003910771105438471, 0.004416183568537235, -0.0031527343671768904, -0.0016370461089536548, -0.0011060726828873158, -9.023147140396759e-05, -0.011729160323739052, -0.001225389656610787, 0.0053186314180493355, -0.006756776478141546, 0.0016741640865802765, -0.0011690076207742095, 0.0001158128070528619], [-0.009397703222930431, 0.006776565220206976, 0.00010939670028164983, 0.002243942581117153, -0.004435844719409943, 0.012354974634945393, -0.006675055716186762, -0.006492322776466608, -0.003356652334332466, -0.0012050322256982327, 0.002270584926009178, -0.014746913686394691, -0.0025531877763569355, -0.006354812532663345, -0.0011282367631793022, 0.019413897767663002, 0.006038754712790251, 0.0015559629537165165, -0.013901916332542896, 0.003497509052976966, 0.0060484753921628, -0.021062320098280907, -0.005620888434350491, -0.022847535088658333, -0.008005683310329914, 0.021319011226296425, 0.002027000766247511, -0.009466315619647503, 0.012327686883509159, -0.007913010194897652, -0.006470841355621815, -0.003594055073335767], [0.0015549641102552414, -0.00045410997699946165, -0.000201048023882322, -0.00013337259588297457, -0.0005054551875218749, 0.00048021378461271524, 0.000690678134560585, 0.0005575611721724272, 4.199587783659808e-05, -0.0006308306474238634, 0.00016183368279598653, 0.001579510630108416, 0.00018368398013990372, 3.0106080885161646e-05, 0.0008549492922611535, -0.0008161943405866623, 0.000754629319999367, -0.0028975072782486677, 0.0015946135390549898, -0.0010523900855332613, 0.0017161869909614325, -0.005197963677346706, -0.0007032898720353842, 0.00041280098957940936, 0.07528487592935562, 0.004467684775590897, 3.284900594735518e-05, -0.017316855490207672, -7.597928288305411e-06, -0.001046808436512947, 0.0009558716556057334, 0.0005085065495222807], [-0.03790273889899254, 0.019909782335162163, 0.077202208340168, -0.010511450469493866, 0.13823120296001434, 0.029734782874584198, -0.08436848223209381, -0.03945968672633171, -0.05834782123565674, -0.023477500304579735, -0.11971606314182281, 0.1942518651485443, 0.014319034293293953, -0.1375390887260437, -0.08896591514348984, -0.03519556298851967, 0.2104901820421219, 0.04044319689273834, -0.06879225373268127, 0.04852084815502167, -0.010212699882686138, 0.47616302967071533, -0.02878132276237011, -0.10061675310134888, -0.08295433968305588, 0.11372750252485275, -0.036429088562726974, -0.20532765984535217, 0.04090290144085884, 0.08272650092840195, -0.024057336151599884, -0.011996421962976456], [0.0003733208286575973, 1.8355298379901797e-05, -0.00016432111442554742, 0.00025248347083106637, 1.4371677025337704e-05, -0.00018461092258803546, 0.00044585426803678274, 9.085328201763332e-06, 6.086111534386873e-05, 0.0003011389053426683, 6.644898530794308e-05, -7.787949698467855e-07, 0.00025938291219063103, -7.282354090420995e-06, 5.956120367045514e-05, -0.0010818641167134047, -0.00023754361609462649, 1.8572000044514425e-05, -0.00010254488006467, -0.0008257455774582922, 4.574157719616778e-05, -0.0016965147806331515, -0.0006643155938945711, -5.851913010701537e-05, -0.0019295731326565146, 0.004525726195424795, -0.000265804206719622, -0.0009410000639036298, -0.0001981178647838533, 0.00018674362218007445, -0.00012458587298169732, -2.2000609533279203e-05], [-0.11208418011665344, -0.05028333142399788, 0.01008399948477745, 0.007984276860952377, -0.024791155010461807, 0.02776871994137764, -0.03759363666176796, -0.01974831521511078, 0.00309392181225121, 0.02894403785467148, 0.013092705979943275, -0.08240827172994614, 0.04345928132534027, 0.0505472756922245, 0.07306709885597229, -0.015414989553391933, -0.06654876470565796, -0.06341385096311569, -0.03804520517587662, -0.05153603479266167, -0.08349862694740295, -0.20199094712734222, 0.03180951997637749, 0.04766638204455376, 0.10330845415592194, -0.725365161895752, -0.01792922616004944, 0.14051784574985504, -0.19237422943115234, 0.03741205111145973, -0.04723014310002327, -0.06287939101457596], [-0.007992248050868511, 0.0015824149595573545, 0.0010421026963740587, -0.007713462691754103, -0.0015367567539215088, 0.013131008483469486, -0.0044081201776862144, -0.008952171541750431, -0.002100954297930002, 0.003334213513880968, -0.0033442636486142874, 0.0012901776935905218, -0.0022556630428880453, -0.004158174619078636, 0.0019861499313265085, 0.02777818590402603, 0.003179957391694188, 0.001603035139851272, -0.011195963248610497, -0.008343887515366077, -0.01437258068472147, 0.050189245492219925, 0.0016617035726085305, -0.015200876630842686, -0.013861763291060925, -0.06611021608114243, 0.00294415932148695, -0.0037511007394641638, 0.010457347147166729, 0.010481711477041245, -0.0038093070033937693, -0.001102557755075395], [-0.0005480946856550872, -8.506810445396695e-06, -0.00040898655424825847, -6.712452159263194e-05, -0.001765548367984593, 0.0009063630132004619, -0.002210390754044056, 0.0015530812088400126, -3.2251497032120824e-05, -0.000948503497056663, 0.00017968911561183631, -0.001392229925841093, 0.0007593731861561537, -0.0010243416763842106, 0.00013629242312163115, 0.0008170142536982894, -0.0006029832875356078, 0.00013291450159158558, -0.0019528723787516356, 0.0012123939814046025, 0.0037114014849066734, 0.011378785595297813, -0.00034861458698287606, 0.0017223352333530784, -0.0018249074928462505, 0.004988550208508968, 0.000974186637904495, 0.014175395481288433, 0.0003759776591323316, 0.00038381863851100206, -0.0002447718579787761, -0.000524194329045713], [-0.001381013193167746, -0.0003429868083912879, -0.000462981901364401, -0.0010122046805918217, 0.0004476967151276767, 0.0007352193933911622, -0.001636903965845704, 0.0011590281501412392, 3.984675640822388e-05, 0.00017299957107752562, 0.0005011955508962274, -0.0006415136158466339, 5.636533023789525e-05, 0.0011369676794856787, 0.0002064298023469746, 0.002296984661370516, -2.8951108106411994e-05, -7.271129288710654e-05, -0.0015462421579286456, 0.0005646158242598176, -0.0007450987468473613, 0.007222106214612722, 0.0006089197704568505, 0.0015427658800035715, -0.002852853387594223, -0.008777255192399025, 0.0002633381518535316, 0.0028401855379343033, -0.0014894078485667706, 0.0006600652122870088, -0.00102183036506176, -0.0009996143635362387], [0.0010812511900439858, 0.0005634771659970284, 0.0006424476159736514, -0.0005721383495256305, -0.0015761733520776033, 0.0006942767067812383, -0.0006112975534051657, 0.0017512206686660647, -0.00015651241119485348, -0.0011054972419515252, 0.0011962327407673001, -0.00027268592384643853, -0.0002921819977927953, 0.00048070724005810916, -0.00011160277790622786, 0.004126249812543392, -0.00039996791747398674, 2.644707274157554e-05, 0.002029948402196169, 0.0011939152609556913, 0.004961657803505659, 0.03203628212213516, 3.617824404500425e-05, 0.003615961642935872, -0.00174137472640723, -0.03883083164691925, 0.0001264035381609574, -0.020342176780104637, -0.0028414579574018717, -0.0005222032777965069, 0.0008275914588011801, -0.0016545570688322186], [-0.0011093104258179665, -0.0003578541218303144, 0.005285148974508047, -0.0002808643039315939, -0.00018060578440781683, 0.0028461182955652475, -0.002523776376619935, 0.001145539921708405, -0.00103181682061404, -0.0036144049372524023, -0.0027732672169804573, 0.0035913363099098206, 0.0028136319015175104, -0.0010297929402440786, -0.0015903437742963433, 0.0029350847471505404, 0.0029519672971218824, 0.0007640455733053386, -0.0037411267403513193, 0.002796183107420802, 0.0067408946342766285, 0.03966629132628441, -0.004519014619290829, 0.0022632440086454153, -0.006803511176258326, -0.05402393266558647, -0.0020976271480321884, 0.019353710114955902, -0.002719385549426079, -0.0023512498009949923, -0.0006026633782312274, 4.574484773911536e-05], [-0.00017017456411849707, 8.551847713533789e-05, 0.00013382892939262092, -1.7193677194882184e-05, 0.00010284047311870381, 3.042219213966746e-05, -0.00026962158153764904, 0.00021793768974021077, -0.00012617242464330047, 5.6747849157545716e-06, -0.00022075955348554999, 3.899767034454271e-05, -0.00013536262849811465, 9.547607623971999e-05, -2.4869312255759723e-05, -0.005905234254896641, 1.225222604261944e-05, 3.688020660774782e-05, 0.00011475627979962155, 0.0002315059391548857, -1.7473691968916683e-06, 0.0016860642936080694, 0.00033315777545794845, 0.00017759151523932815, -0.0009822881547734141, 0.002390730194747448, 0.00010523214587010443, -0.002065407345071435, -0.0006228485726751387, -6.240693619474769e-05, -2.523826333344914e-05, -0.00010127611312782392], [-0.0008370524737983942, -4.139410157222301e-05, -8.449866436421871e-05, -0.00023399996280204505, 0.0012877053814008832, 0.001001635449938476, -0.000525774376001209, -0.000199844638700597, -0.000555800215806812, -0.00039140513399615884, -0.0014621842419728637, 0.0006240672082640231, 0.00013274565571919084, -0.0008047361043281853, -0.0002522448485251516, 0.0012238980270922184, 0.0017817500047385693, 0.00015753968909848481, -0.001147471833974123, 0.0007094331667758524, -0.000704494770616293, 0.010523583739995956, 0.0008321921923197806, 9.510647942079231e-06, -0.0006408351473510265, -0.009938254952430725, -0.00012023247836623341, 0.0007546550477854908, 0.0008517002570442855, 0.000533039856236428, -0.000910205184482038, -0.0006126411026343703], [-1.7377624317305163e-05, -0.00017976155504584312, 0.00028076631133444607, 9.744200360728428e-05, -6.844693416496739e-05, -0.0001840391050791368, 0.0002475324145052582, 1.9539422282832675e-05, -0.00019351832452230155, 1.676668216532562e-05, -4.358701698947698e-05, -0.00012894491374026984, 0.0002683286147657782, 8.271017577499151e-05, -0.0001160654574050568, -3.564615690265782e-05, 8.731408888706937e-05, -2.5195247872034088e-05, 0.00012038659042445943, -0.00025174589245580137, -2.6301675461581908e-05, -0.0026967197190970182, -0.0004387687367852777, 0.00016457142191939056, 6.815827418904519e-06, -0.0004249471821822226, -3.730634489329532e-05, 0.001167817390523851, 5.144883107277565e-05, 1.5050556612550281e-05, -0.0001312802778556943, -2.299163315910846e-05], [-0.001878819428384304, 0.00229053245857358, 0.0015129708917811513, -0.00021138669399078935, 0.004731575958430767, 0.00635535828769207, -0.0014042053371667862, 0.00713642593473196, -0.0011094922665506601, -0.0017190045909956098, -0.001008807448670268, -0.0012973006814718246, 0.002096397103741765, -0.0012991938274353743, -0.000728360319044441, 0.0007573554175905883, 0.003516936441883445, 0.0008685454376973212, -0.006826502270996571, 0.004625401459634304, 0.0052436115220189095, -0.015342925675213337, -0.0007116454071365297, -0.0025690977927297354, -0.005966519471257925, 0.025721224024891853, 0.0004373171541374177, -0.0023145563900470734, 0.006520132068544626, 0.0005351536674425006, 0.00039431339246220887, -0.0008169732172973454], [-0.0025559132918715477, 0.00018279804498888552, 0.0014209137298166752, 0.00022519683989230543, 0.0005558932316489518, -0.00864972174167633, -0.0005542280268855393, -0.0008213892579078674, -0.0003960921021644026, -0.0018556825816631317, -0.0007329011568799615, -0.00016665567818563432, 0.00011108171020168811, -0.0004893013974651694, -0.000396605406422168, 0.00039997053681872785, 0.0013617604272440076, 0.0001569160376675427, -0.0010960869258269668, -5.6963079259730875e-05, -4.899498162558302e-05, 0.004375235643237829, 0.0008549569174647331, -0.000675930583383888, -0.0007470141863450408, 0.009301773272454739, -0.00013961085642222315, -9.083070472115651e-05, 0.0010818836744874716, 0.0005621699965558946, -0.0005969080957584083, -0.00029306524083949625], [-0.00254240189678967, -0.00016288738697767258, 0.004908008500933647, -0.0016384109621867537, 0.00023062129912432283, 0.0035247919149696827, -0.002175669651478529, -0.0008752239518798888, -0.00046957653830759227, -0.0008340008207596838, -0.00023984932340681553, -0.0013358491705730557, 0.0019404534250497818, 0.00040358968544751406, -0.0014565300662070513, 0.005580606870353222, -0.0006038752617314458, 0.00035209767520427704, -0.002590988529846072, 0.0002515982196200639, 0.0019656228832900524, 0.02681152895092964, -0.002728076884523034, -0.0024172046687453985, -0.003951065242290497, -0.02242099493741989, -0.0010114866308867931, 0.00953598227351904, 0.0008021540706977248, 0.0028945638332515955, -0.0012675307225435972, -0.0020131391938775778], [0.00011508068564580753, -0.0021065908949822187, 1.5950769011396915e-05, -0.00042394656338728964, 0.00133828807156533, 0.00019733139197342098, 0.002548460615798831, -0.00450537446886301, 0.0014117134269326925, -0.0005877536023035645, -0.0017091857735067606, -0.0018400847911834717, 0.0030503326561301947, 0.005804583430290222, -0.00038232110091485083, 0.001934172585606575, -0.007055572234094143, 0.0003567547246348113, 0.007634717505425215, 0.0040396819822490215, 0.0044079734943807125, -0.017230236902832985, -0.0011312967399135232, 0.008685413748025894, -0.0052289534360170364, 0.028516188263893127, -0.00017436705820728093, 0.01622649095952511, -0.012783876620233059, -0.00045457377564162016, -0.000851587625220418, -0.0018187192035838962], [0.00020222546299919486, 7.142135291360319e-05, -0.00013760715955868363, 8.530249033356085e-05, -6.316228245850652e-05, 0.00012912209786009043, 0.00011055177310481668, 0.00012004921882180497, -1.924713387779775e-06, 0.00017746731464285403, 7.475863640138414e-06, 3.4799180866684765e-05, 6.066803325666115e-05, -1.741657433740329e-05, 2.1703426682506688e-05, -5.723445428884588e-05, -0.0001017631875583902, 3.460802190602408e-06, 9.131913247983903e-05, -0.0003511115210130811, 0.00018296694906894118, -0.002184322802349925, -0.0002964902960229665, 0.00010836066212505102, -0.001155638019554317, 0.0018642893992364407, 1.4458009900408797e-06, -0.0007389870006591082, 1.218166380567709e-05, 5.5870619689812884e-05, 0.00016262380813714117, 6.064739864086732e-05], [0.0009078658767975867, -0.0003779744729399681, 0.0019728336483240128, 0.0007915080059319735, 0.004003818612545729, 0.0004085828841198236, 0.0011033518239855766, 0.0007116512861102819, -0.0011585592292249203, -0.0010737936245277524, 0.0006882830639369786, 0.0005514551885426044, 0.0008446183055639267, -0.003805571934208274, -0.00019719454576261342, -0.0018728808499872684, -0.0007657369715161622, -0.00011470174649730325, -0.0025427183136343956, -0.0005614017718471587, -0.0010536015033721924, 0.015334093011915684, -0.002225027419626713, -0.0054900310933589935, 0.0009534587734378874, -0.019382987171411514, -0.0004910163697786629, -0.0053803264163434505, -0.001381541253067553, 0.0023721116594970226, 0.00024433303042314947, 0.00015646031533833593], [-0.0002540956193115562, 0.00015737427747808397, 0.004083228297531605, 5.729424628952984e-06, -0.000966409279499203, 0.002568261232227087, -0.0007772677345201373, -0.0012480862205848098, -4.8655347200110555e-05, -2.8867840228485875e-05, -0.0007615842041559517, 0.0002657414006534964, -0.0001305800979025662, 0.00045549962669610977, -0.0017527752788737416, 0.0044687106274068356, 0.001047088298946619, 0.00019297054677736014, -0.001564970356412232, 0.0012310163583606482, 0.0052730124443769455, 0.01267646811902523, 0.0017642886377871037, 0.005288050509989262, -0.005110261030495167, -0.009122136980295181, -0.0010563316754996777, 0.008265189826488495, 0.00022089631238486618, -0.002110409317538142, -0.0003098610322922468, -0.0016807280480861664], [0.0023899355437606573, 0.0020850072614848614, 0.0034986683167517185, -0.004879049025475979, -0.004823923576623201, -0.0001486053952248767, -0.007331760134547949, -0.0016018357127904892, 0.0017090198816731572, 0.002107315929606557, -0.00016917662287596613, -0.00037722557317465544, -0.001780680031515658, 0.004565824754536152, 0.0010589422890916467, 0.01956135965883732, -0.0019182831747457385, 0.0014937389642000198, -0.011254723183810711, 0.0042981249280273914, -0.0010919584892690182, 0.02622998133301735, -0.005496954545378685, -0.009356102906167507, -0.015789343044161797, -0.02896127663552761, -0.00027804667479358613, 0.03342307358980179, 0.0006273469189181924, 0.0039686704985797405, 0.000997787225060165, -0.00580673199146986], [-6.364487489918247e-05, -1.564221383887343e-05, 9.601137571735308e-05, -1.7780929510990973e-06, 0.0002341420331504196, 5.622524622594938e-05, 0.00016341134323738515, -0.000156622554641217, -0.00013620519894175231, 0.00011348249245202169, 8.537410758435726e-05, 0.00010233354259980842, 7.253817602759227e-05, 0.00016355804109480232, -1.96155633602757e-05, 0.0002146901679225266, 7.197196828201413e-05, 3.375296000740491e-05, 9.337726805824786e-05, -0.0004325825721025467, 0.0003834778326563537, -0.002172267297282815, -0.0007445669616572559, 0.00041485196561552584, -0.00022286592866294086, 0.0055083539336919785, -0.00012789563334081322, -0.0008673475822433829, -0.0005571758956648409, -2.478266651451122e-05, 0.00015422518481500447, -9.656292240833864e-05], [0.0025365082547068596, -0.0014891504542902112, 0.0016403821064159274, 0.0031565590761601925, -0.004711661487817764, 0.0022638440132141113, 0.0018456504913046956, 0.006891968194395304, 0.0012373783392831683, -0.004078437574207783, -0.00020443463290575892, -0.002321222797036171, 0.003025170648470521, 0.0031487869564443827, -0.0007210656185634434, 0.008846533484756947, -0.0037143174558877945, 0.0009774604113772511, 0.010710492730140686, 0.005765206646174192, 0.009145467542111874, 0.00024051725631579757, 0.0006904242909513414, 0.0022817940916866064, -0.006738447584211826, 0.0019512994913384318, -0.0002876408107113093, 0.015227409079670906, 0.0026074282359331846, -0.004425425548106432, 0.0024720029905438423, -0.000643283361569047], [-1.95620068552671e-05, -2.473143467796035e-05, 0.00010240865958621725, 0.00011970246123382822, 0.0002984219172503799, 9.724134542921092e-06, -3.0717641493538395e-05, -3.804873995250091e-05, -8.245977369369939e-05, 5.2050338126719e-05, -0.0004238974070176482, 9.594600851414725e-05, 8.50986034492962e-05, -0.00010947044211206958, -2.2836677089799196e-05, -8.23967857286334e-05, 0.00028764698072336614, 4.637911479221657e-05, -0.00031925883376970887, -3.6290915886638686e-05, -3.953468694817275e-05, 1.9147324564983137e-05, -5.087392855784856e-05, -8.254055865108967e-05, 0.014860023744404316, 0.0009743172558955848, -5.3769654186908156e-05, 0.0008663396001793444, 7.591991743538529e-05, 0.000207814053283073, -0.0001528879947727546, -4.09271233365871e-05], [0.00043338772957213223, 0.00040949814138002694, 0.0014410617295652628, 0.0005462518893182278, 0.0017326145898550749, -0.0028618352953344584, 0.0013875506119802594, -0.0016820923192426562, -0.0011109171900898218, 0.0013990809675306082, -0.0013127295533195138, 0.0024907824117690325, 0.00035277276765555143, -0.00231368001550436, -0.0003283740661572665, -0.06042272597551346, 0.001999061554670334, 0.00028451354592107236, -0.0023216810077428818, -0.0026516118086874485, 0.0011538821272552013, -0.018264610320329666, -0.003397590247914195, -0.002186982659623027, -0.0038180616684257984, 0.042597632855176926, -0.00044858173350803554, 0.01196597982198, 0.0034473950508981943, 0.0026247547939419746, -0.00029624655144289136, -1.1695194189087488e-05], [-0.0003566020168364048, 0.00028287709574215114, 0.004222826566547155, -0.0021039582788944244, 0.0023466956336051226, -0.0010686680907383561, -0.0022314749658107758, -0.0031694264616817236, -8.046066068345681e-05, 0.0017636942211538553, -4.304352478357032e-05, 0.0003956435539294034, -0.0006341917905956507, -0.000969023909419775, -0.0006085041095502675, 0.007688382174819708, 0.0025028525851666927, 0.00045274264994077384, -0.003203312400728464, -0.0009591784910298884, -0.005904823541641235, 0.0014372237492352724, -0.0027046571485698223, -0.003930473700165749, -0.005269468761980534, -0.010686174035072327, 5.996033360133879e-05, 0.008354401215910912, 0.004865158349275589, 0.0038556819781661034, -0.001007632352411747, -0.0010359958978369832], [5.762194632552564e-05, 1.2879975656687748e-05, -5.522342235053657e-06, -6.0236443459871225e-06, 2.5743078367668204e-05, 2.5010082026710734e-05, 4.231833736412227e-05, -1.6951587895164266e-05, -1.0064856724056881e-05, 5.098737801745301e-06, -9.166998097498436e-06, 1.0229636245639995e-05, 4.262546553945867e-06, -3.8242524169618264e-05, -1.7110434100686689e-06, 1.5099709571586573e-06, 4.290318611310795e-05, 2.8828077120124362e-05, 1.2818645700463094e-06, -5.762583532487042e-05, 4.976633863407187e-05, -0.0006654993630945683, -4.6157372707966715e-05, -3.928665319108404e-05, 0.012579292990267277, 0.0010583793045952916, 9.899297765514348e-06, -0.00045310723362490535, 8.53964957059361e-05, -7.47415879231994e-06, 3.8919333746889606e-05, 2.37997155636549e-05], [0.00038143666461110115, 0.001068968209438026, -0.0001756450074026361, -0.0002960730926133692, 0.0005818447098135948, 0.001634226064197719, -0.0003498167498037219, -0.0006285703275352716, -0.0001577673974679783, 5.148501440999098e-05, -0.0009204608504660428, 0.0014092006022110581, 0.0008194636320695281, 0.0006242775125429034, 0.000293837976641953, 0.0007125463453121483, 0.0016671742778271437, 0.00019888269889634103, -0.0014945546863600612, -0.0003907933714799583, 0.0014270612737163901, -0.007550325244665146, -0.0010437510209158063, -0.0023603409063071012, -0.002041187835857272, 0.015344793908298016, 0.0008954153163358569, 0.004612930119037628, 0.0035540801472961903, 0.0008512813947163522, 0.0006380703416652977, 2.0611822037608363e-05], [-0.00015560939209535718, -0.0014820051146671176, 0.00753782456740737, 0.001039802678860724, 0.008651446551084518, 0.0037041606847196817, 0.001268118736334145, -0.008325330913066864, -0.00337733025662601, -0.0005196288111619651, -0.0008319980697706342, 0.0035818747710436583, 0.0031131517607718706, -0.006207686848938465, -0.0061790854670107365, -0.0046096984297037125, 0.004970152396708727, 0.0008098634425550699, 0.0030539247673004866, -0.0005796717014163733, -0.0008813347667455673, 0.005737996194511652, -0.010717778466641903, -0.0030361253302544355, 0.0023770041298121214, -0.014606486074626446, -0.0033338861539959908, -0.009737617336213589, -0.003714874852448702, 0.005601468030363321, -0.0026231189258396626, 0.0014282658230513334], [0.0038726055063307285, 0.0003813712392002344, 0.0009839260019361973, 0.000532414298504591, 0.003524920903146267, 0.0011493200436234474, 0.002780029783025384, -0.003697015345096588, -0.0017413165187463164, 0.0005633888649754226, -0.004208576399832964, 0.004952500108629465, 0.0016685252776369452, -0.0046512349508702755, -0.00021681048383470625, 0.0016682087443768978, 0.003754955716431141, 0.000753127911593765, -0.0006040794542059302, -0.0011492077028378844, -0.0019211950711905956, 0.020724041387438774, -0.004128953907638788, -0.002088865265250206, -0.0003764995781239122, -0.017913799732923508, 0.0003205301472917199, 0.0140609135851264, 0.0015181006165221334, -0.0008086833986453712, 0.0013779400615021586, 0.001986180432140827], [0.007249056827276945, 0.027838697656989098, 0.022066688165068626, 0.020283374935388565, -0.016744466498494148, -0.15163712203502655, 0.011684335768222809, 0.04909246414899826, 0.00716866971924901, -0.02233036607503891, -0.017250658944249153, -0.053365349769592285, -0.030881067737936974, 0.01975209079682827, -0.013322990387678146, -0.16178563237190247, -0.08724307268857956, 0.02576492354273796, 0.038099922239780426, 0.0064329425804317, -0.13649868965148926, 0.15252572298049927, -0.004440778866410255, 0.032452091574668884, -0.09630793333053589, -0.09703317284584045, -0.11888830363750458, 0.6680938005447388, -0.032012082636356354, -0.041567109525203705, -0.01566416025161743, 0.024528058245778084], [0.0010338954161852598, -0.001351958722807467, 0.0008785935933701694, 0.001975409220904112, 0.0027004636358469725, 0.002316280733793974, 0.0008592701051384211, -0.0011264262720942497, -0.0019595648627728224, -0.0009429618949070573, -0.0062471614219248295, 0.0025716673117130995, 0.003097295528277755, -0.00114947569090873, -0.00032753971754573286, -0.00048296366003341973, 0.006801294628530741, 0.00020302973280195147, -0.0015104730846360326, -0.003069598227739334, 0.0034908484667539597, -0.003797936486080289, -0.001280108466744423, -0.00044665904715657234, -0.0007140397792682052, -0.008648821152746677, -0.0012500787852331996, 0.007988295517861843, -0.005267799831926823, 0.0013897158205509186, -0.0007816576980985701, 0.00013057267642579973], [-0.005655788816511631, 0.0028564806561917067, 0.0015520077431574464, 0.003388437908142805, -0.009464969858527184, 0.0070193554274737835, -0.006770689506083727, 0.007590640336275101, -0.0013281306019052863, -0.005163818132132292, 0.006465925369411707, -0.01033396553248167, 0.00415501045063138, 0.0013053842121735215, -0.0007913243607617915, 0.00989566184580326, -0.009190842509269714, 0.0013590571470558643, -0.0017494030762463808, 0.007901730015873909, 0.004240015987306833, -0.027420412749052048, 0.00020940510148648173, -0.01305364165455103, -0.006119557656347752, 0.020498810335993767, 0.00014260574243962765, 0.004107252229005098, -0.011692075990140438, -0.006594736594706774, 0.0011261936742812395, -0.004330966621637344], [0.000769551086705178, -0.0004702733422163874, 0.00012378794781398028, -9.639124618843198e-05, -0.0002720217453315854, 0.0004232579958625138, 0.0004396360309328884, 0.00021312864555511624, 3.7676289821320097e-07, -0.00033907403121702373, 7.703799201408401e-05, 0.0007309169159270823, 0.0002119700366165489, 5.1842354878317565e-05, 0.004725986160337925, 0.00010382320760982111, 0.00037265161518007517, -0.010367403738200665, 0.0008455045754089952, -0.0002777960035018623, 0.0008558132103644311, -0.003494933247566223, -0.00041779264574870467, 0.00016855333524290472, 0.09772420674562454, 0.0024601221084594727, -2.3042395696393214e-05, -0.010104456916451454, -5.335640707926359e-06, -0.0005823970423080027, 0.000564971414860338, 0.0002805369149427861], [-0.07631487399339676, 0.0035952082835137844, -0.06158815324306488, -0.06673407554626465, 0.013097158633172512, 0.09107482433319092, -0.05416522175073624, -0.037151072174310684, 0.023401279002428055, 0.040007151663303375, 0.04285983368754387, -0.03755498677492142, -0.031159665435552597, 0.008054149337112904, 0.005432559177279472, 0.1393534392118454, -0.01665510982275009, -0.011854510754346848, -0.0648561343550682, -0.03872620314359665, -0.07246148586273193, 0.151738241314888, 0.03905221074819565, -0.052706021815538406, 0.03573496267199516, 0.07051587849855423, 0.08742355555295944, 0.022741634398698807, 0.0068520670756697655, 0.05139454826712608, 0.02902454510331154, -0.03068801946938038], [0.0002402465615887195, -6.483349716290832e-05, 7.622299017384648e-05, 0.00014145072782412171, -0.00011292661656625569, -0.00027008409961126745, 0.0002385330735705793, 0.00011934321082662791, 5.063639036961831e-05, 0.0002872029144782573, 0.00023735656577628106, -7.713724335189909e-05, 0.00022883169003762305, -2.917781239375472e-05, 3.1298557587433606e-05, 0.00036595374695025384, -0.000369685934856534, 4.559152785077458e-06, -1.6482128557981923e-05, -0.0005861561512574553, 8.18271073512733e-05, -0.0015044991159811616, -0.00047452535363845527, 6.757387018296868e-05, -0.001280401716940105, 0.003109515178948641, -0.00020598531409632415, -0.0003432653029449284, -0.00018041250586975366, 7.787016511429101e-05, 3.261561505496502e-05, -5.1824252295773476e-05], [-0.039779335260391235, -0.028033938258886337, -0.025867817923426628, -0.03605625778436661, 0.06445153802633286, 0.05013822391629219, -0.056376226246356964, -0.03678153082728386, -0.0060401191003620625, 0.06878651678562164, 0.03613286092877388, -0.030468907207250595, -0.0242162998765707, -0.03350992128252983, -0.0015860993880778551, 0.12325362861156464, -0.03146783635020256, -0.004323454573750496, -0.14052139222621918, -0.08809474110603333, -0.12862788140773773, -0.16175833344459534, 0.0054176379926502705, -0.0746377483010292, 0.018975501880049706, 0.06639508903026581, 0.015982121229171753, 0.4722559154033661, 0.0460333414375782, 0.10448303073644638, -0.0026388289406895638, -0.018967699259519577], [-0.003050632309168577, 0.0008726087398827076, 0.0022444960195571184, -0.00528242252767086, -0.007012360729277134, 0.0049672904424369335, -0.003301856806501746, -0.0014782382640987635, -0.0010828610975295305, 0.00296414690092206, -0.0017955832881852984, 0.0011305086081847548, -0.0012701788218691945, 0.000260381493717432, 0.0013651639455929399, 0.016296805813908577, 0.0012446423061192036, 0.001296704518608749, -0.009443135932087898, -0.004583422560244799, -0.0040696463547647, 0.02548872120678425, -0.0008339977939613163, -0.0044038682244718075, -0.009680966846644878, -0.040577929466962814, 0.0013964016688987613, 0.004220329225063324, 0.007227221038192511, 0.004543068818747997, -0.0028024606872349977, -0.0014273724518716335], [0.0003358186804689467, -0.0001191840783576481, 0.0003167067770846188, -5.9096229961141944e-05, -0.0007718935958109796, 0.0007765463087707758, -0.0011599945137277246, 0.0004519902286119759, -0.0005223932676017284, 0.0001563940750202164, 0.0003242485981900245, -0.0004151818866375834, -0.0004545369010884315, -0.0020339726470410824, 7.654343062313274e-05, 0.0004169375170022249, -0.0005410962039604783, 2.1437106624944136e-05, -0.0009998894529417157, 0.00016193895135074854, 0.0014386080438271165, 0.00534052262082696, -0.000762996613048017, 0.001345246215350926, -0.0010506741236895323, 0.0032033815514296293, 0.0003616921603679657, 0.006256458815187216, -8.021256508072838e-05, -0.00027495587710291147, 0.00016948161646723747, 0.00023432144371327013], [-0.0006506550125777721, -0.00010909444972639903, 0.00011124331649625674, -0.00016875111032277346, 0.000538623717147857, 0.0007052094442769885, -0.0007196715450845659, 0.0009629935957491398, 1.2238717317814007e-05, -0.00021993240807205439, 0.0001951670419657603, 0.0003955172433052212, 0.0002719374606385827, -0.00044439907651394606, 0.00032025770633481443, 0.0020467224530875683, 9.757996303960681e-05, -8.570044883526862e-05, -0.00026187481125816703, 0.0008018410881049931, 0.0016572368331253529, 0.00836951658129692, -0.0006037455168552697, 0.0021529290825128555, -0.0009738578810356557, -0.00990455411374569, 0.0001654377847444266, 0.002206298289820552, -0.0018114803824573755, -0.0002546821197029203, -0.0005687052616849542, -0.0002142815210390836], [0.001708212192170322, 0.0002076672244584188, 0.0008536538807675242, 0.00043007967178709805, -0.0007899418123997748, -8.251680264947936e-05, 0.0009123311610892415, 0.0010911074932664633, -0.00013377191498875618, -0.0009507258655503392, 0.0006635672762058675, 0.0002471150364726782, 7.526702393079177e-05, -0.0002930828486569226, 7.59908198233461e-06, 0.001120114466175437, 0.00033782233367674053, 2.852725265256595e-05, 0.001611674320884049, 0.0009093440603464842, 0.003370484570041299, 0.019955117255449295, -0.0007891627610661089, 0.0014849904691800475, -0.0011939184041693807, -0.023898081853985786, -0.00017987033061217517, -0.010516040027141571, -0.0017084425780922174, 0.001483522355556488, 0.0010349065996706486, -0.0008436250500380993], [-0.1989390254020691, 0.11932896822690964, -0.0927061215043068, -0.02908252738416195, -0.1692056506872177, -0.1123199462890625, -0.05660037323832512, 0.10210976004600525, 0.04657026007771492, -0.01631084829568863, 0.01873433031141758, -0.27990296483039856, -0.1003018394112587, 0.2101718932390213, 0.056746888905763626, -0.2671276926994324, -0.1692144274711609, -0.008074093610048294, 0.10909406840801239, -0.007216461468487978, -0.10432466864585876, -0.08412793278694153, 0.153927281498909, 0.2034742385149002, 0.043069131672382355, -0.10057210922241211, -0.062322285026311874, -0.14203263819217682, -0.18859639763832092, -0.11960215121507645, 0.010084730572998524, 0.05675037205219269], [-0.023920517414808273, -0.21099144220352173, 0.14691060781478882, 0.2288254201412201, 0.0729571208357811, -0.021887430921196938, -0.10531620681285858, -0.0861024409532547, -0.06406892091035843, 0.06227358803153038, -0.1789093017578125, 0.16534829139709473, 0.1811862587928772, -0.11996054649353027, -0.037813451141119, -0.08870609849691391, 0.20507903397083282, -0.0015338353114202619, -0.29238972067832947, -0.03851485252380371, -0.14179369807243347, -0.031855154782533646, -0.0422569178044796, -0.08056127279996872, 0.06007588654756546, 0.0608091875910759, -0.07263381779193878, -0.06441101431846619, 0.4718540906906128, 0.35605552792549133, -0.44757920503616333, -0.06159944459795952], [-0.008367360569536686, -0.06355053186416626, -0.12545716762542725, -0.03287036716938019, -0.07769704610109329, 0.09330398589372635, 0.045564934611320496, 0.05154486373066902, 0.06102955341339111, 0.002505226992070675, 0.15157447755336761, -0.09876652806997299, 0.03754602372646332, 0.11791776120662689, 0.01938413642346859, 0.15341542661190033, -0.10794525593519211, -0.011205240152776241, 0.06946573406457901, 0.0041651250794529915, -0.0030963383615016937, 0.07480087876319885, 0.03101581335067749, 0.037697382271289825, 0.07248406857252121, -0.01161251962184906, 0.117729552090168, 0.05677343159914017, -0.20166653394699097, -0.06458886712789536, 0.06333418935537338, -0.05241230130195618], [0.04353724792599678, -0.04893676936626434, -0.04412088170647621, -0.1357281506061554, 0.01761660911142826, 0.129147469997406, 0.08453699201345444, -0.00026877736672759056, 0.025081953033804893, -0.039793629199266434, 0.06570905447006226, 0.005790950730443001, 0.036902766674757004, 0.005114785395562649, -0.027424873784184456, 0.3118200898170471, -0.012234916910529137, 0.002177631249651313, 0.07280708104372025, 0.06310267001390457, 0.004796911496669054, 0.04468439146876335, -0.0049326117150485516, -0.0610901303589344, -0.015660222619771957, 0.05979026108980179, 0.12145689874887466, 0.13970153033733368, -0.018931815400719643, -0.0284339040517807, 0.0934310182929039, 0.02091001532971859], [-0.09634753316640854, -0.04927736520767212, -0.10809310525655746, -0.023341668769717216, -0.17891643941402435, 0.015108386054635048, -0.0013272709911689162, 0.17770741879940033, 0.0018153626006096601, -0.023390602320432663, 0.07720815390348434, -0.16770122945308685, 0.037286002188920975, 0.1550198346376419, 0.039960820227861404, -0.0109499366953969, -0.1453056037425995, 0.026524227112531662, 0.13072635233402252, 3.460079460637644e-05, -0.06395494937896729, -0.0030044361483305693, 0.10821922868490219, 0.19740276038646698, -0.023630967363715172, -0.123766228556633, 0.02763758972287178, -0.0017750916304066777, -0.13059407472610474, -0.12585574388504028, 0.045853499323129654, 0.024570735171437263], [-0.012135377153754234, 0.03592066094279289, 0.004844417795538902, -0.007122325245290995, -0.03809741139411926, -0.10998918861150742, 0.07953143119812012, 0.051222316920757294, 0.007526877336204052, -0.019113857299089432, 0.022300243377685547, -0.04219438135623932, -0.020235447213053703, 0.04653552547097206, -0.00420520780608058, -0.12226595729589462, -0.099347323179245, 0.023919660598039627, 0.11554693430662155, 0.004675364121794701, -0.02696923352777958, 0.004782091826200485, 0.008322464302182198, 0.04574545472860336, -0.1450241208076477, -0.050284069031476974, -0.07676868140697479, -0.12875744700431824, -0.1527727246284485, -0.07097377628087997, 0.05296151340007782, 0.01997561566531658], [-0.25335192680358887, 0.23569583892822266, -0.10464686155319214, 0.00581963500007987, -0.16672292351722717, -0.15192076563835144, -0.14644776284694672, 0.0572604276239872, 0.03819005936384201, -0.018038421869277954, -0.05639459565281868, -0.27344000339508057, -0.2067079395055771, 0.18182255327701569, 0.049819786101579666, -0.37458735704421997, -0.052373580634593964, 0.016701936721801758, 0.018375126644968987, -0.004392629489302635, -0.1067744791507721, -0.05014779418706894, 0.18076743185520172, 0.19528090953826904, -0.09162677824497223, -0.17047253251075745, -0.11021469533443451, -0.12642160058021545, -0.12177455425262451, -0.08235470950603485, -0.023642566055059433, 0.07877663522958755], [0.09865808486938477, 0.18320919573307037, 0.01677425019443035, -0.08987054973840714, 0.17175476253032684, 0.017695222049951553, 0.05301310867071152, -0.17487791180610657, -0.004365655593574047, -0.08460719883441925, -0.10314326733350754, 0.17953701317310333, -0.12014079838991165, -0.14586161077022552, 0.01210576668381691, -0.014881172217428684, 0.19120292365550995, -0.01309019885957241, -0.007700316142290831, 0.049528900533914566, 0.0999833196401596, 0.022744067013263702, -0.05718052014708519, -0.1594112664461136, 0.10817407071590424, 0.12778803706169128, 0.004001697059720755, 0.055080220103263855, 0.09880301356315613, -0.004051087889820337, 0.06696295738220215, 0.14984634518623352], [-0.03613295406103134, 0.03311856463551521, 0.08248768746852875, 0.035694487392902374, -0.0038664801977574825, -0.049118585884571075, -0.04413289204239845, 0.014823411591351032, -0.10671684890985489, 0.029679352417588234, -0.023255616426467896, 0.008068681694567204, -0.011605099774897099, -0.07167477905750275, 0.012663472443819046, -0.11620411276817322, 0.0007882089703343809, 0.03193824738264084, -0.034649357199668884, -0.02845451794564724, -0.015485321171581745, -0.035181306302547455, 0.035535264760255814, 0.04065469652414322, -0.031711455434560776, -0.03704660013318062, -0.12792301177978516, -0.04828555881977081, 0.04211193323135376, 0.06391385197639465, -0.07466739416122437, 0.0010104879038408399], [0.17482464015483856, -0.0326329730451107, -0.01017074380069971, -0.1753205806016922, 0.08191846311092377, 0.12528389692306519, 0.13987205922603607, -0.02661784365773201, 0.01676824316382408, -0.17023693025112152, 0.04150368645787239, 0.05830368027091026, 0.020707525312900543, -0.07510899752378464, -0.04354386031627655, 0.37410587072372437, -0.0193743035197258, 0.012854622676968575, 0.17410241067409515, 0.17696548998355865, 0.059756796807050705, 0.09563624113798141, -0.07827245444059372, -0.10627783834934235, -0.020567527040839195, 0.14609375596046448, 0.12103001773357391, 0.2839411795139313, -0.009829866699874401, -0.12043464928865433, 0.21564534306526184, 0.12018675357103348], [0.0995800569653511, 0.15932144224643707, 0.09140581637620926, -0.07977212965488434, 0.14478453993797302, -0.06500407308340073, 0.028302403166890144, -0.12333305925130844, -0.04614006355404854, -0.11141208559274673, -0.20076560974121094, 0.11720405519008636, -0.11215278506278992, -0.18005922436714172, -0.005048662424087524, -0.10341127961874008, 0.08061596006155014, 0.013890181668102741, 0.11386939883232117, 0.08507917076349258, 0.1009650006890297, -0.04166661202907562, -0.15550701320171356, -0.13960005342960358, -0.00729961646720767, 0.06635284423828125, -0.07440542429685593, 0.11852731555700302, -0.018704824149608612, -0.05617299675941467, 0.07315826416015625, 0.17885704338550568], [-0.1187625601887703, 0.06824032217264175, -0.1976282149553299, -0.08465299755334854, -0.21209822595119476, -0.011417366564273834, 0.013040637597441673, 0.16902093589305878, 0.11699642241001129, -0.07861702144145966, 0.0873018279671669, -0.27244099974632263, -0.043974559754133224, 0.2888280749320984, 0.031585242599248886, -0.001241021789610386, -0.17430704832077026, -0.0007175114005804062, 0.15983735024929047, 0.06947187334299088, -0.07259666174650192, -0.05488220229744911, 0.163829043507576, 0.17034746706485748, 0.00039992507663555443, -0.018118858337402344, 0.061054084450006485, -0.226354718208313, -0.18080422282218933, -0.23064450919628143, 0.2256438285112381, 0.030476707965135574], [0.062034882605075836, 0.2110082060098648, -0.12029053270816803, -0.19253256916999817, -0.03051135130226612, 0.037768036127090454, 0.12593546509742737, 0.03815819323062897, 0.06155070662498474, -0.10607630759477615, 0.10025263577699661, -0.12543702125549316, -0.1965656280517578, 0.07138805091381073, 0.017037751153111458, 0.16506075859069824, -0.1353033035993576, 0.00944683700799942, 0.24999986588954926, 0.065497986972332, 0.08715526014566422, 0.05770871415734291, 0.014957912266254425, 0.02492510713636875, -0.06403138488531113, -0.02274991013109684, 0.07687921077013016, 0.09054037183523178, -0.2986757755279541, -0.28279945254325867, 0.3866026699542999, 0.1093810498714447], [0.07144416868686676, 0.09873716533184052, 0.12243086844682693, 0.01410798542201519, 0.1466083973646164, -0.06539461761713028, -0.028268007561564445, -0.13855434954166412, -0.06505497545003891, -0.01709584891796112, -0.12408622354269028, 0.164554163813591, -0.06714531034231186, -0.2046573907136917, -0.023936182260513306, -0.0717611163854599, 0.1748090386390686, 0.0010157967917621136, -0.10100796073675156, 0.023540068417787552, 0.04599633812904358, 0.0002579018473625183, -0.08315778523683548, -0.129670187830925, -0.05504598468542099, 0.07517630606889725, -0.09618033468723297, 0.06181924045085907, 0.17680147290229797, 0.1152043268084526, -0.04521886259317398, 0.04316761717200279], [-0.012347632087767124, 0.021324489265680313, 0.01309675071388483, 0.01793285831809044, 0.018794234842061996, -0.05675946921110153, -0.0377434566617012, -0.012686112895607948, -0.006458633579313755, 0.009081334806978703, -0.03286775201559067, 0.010372062213718891, -0.024460919201374054, -0.016598470509052277, -0.14755885303020477, -0.05720312520861626, 0.022885490208864212, 0.05733375623822212, -0.03386297449469566, -0.0013577513163909316, -0.005658227019011974, -0.021237730979919434, -0.04385768994688988, -0.017410587519407272, -0.12733504176139832, 0.011534533463418484, -0.02742498181760311, -0.02604939416050911, 0.06083287298679352, 0.032539013773202896, -0.029128748923540115, 0.008234703913331032], [-0.0026180839631706476, 0.1803445816040039, -0.02147866040468216, -0.03984765708446503, -0.08971399813890457, -0.12855441868305206, 0.11769980192184448, 0.09623988717794418, 0.0012927546631544828, -0.04440099000930786, 0.05889646336436272, -0.09117890894412994, -0.13965165615081787, 0.0710262879729271, 0.046960968524217606, -0.18443463742733002, -0.1828862875699997, 0.00019940176571253687, 0.24963201582431793, 0.023118704557418823, 0.04626920074224472, 0.021375810727477074, 0.029263457283377647, 0.10980980843305588, -0.0795944407582283, -0.17859143018722534, -0.10036065429449081, -0.18551668524742126, -0.3564665913581848, -0.16073808073997498, 0.20022156834602356, 0.05551665648818016], [0.05901164561510086, -0.11730431020259857, -0.05448904260993004, -0.010267979465425014, -0.04509914293885231, 0.07147974520921707, 0.028110351413488388, 0.12332285195589066, 0.009015345014631748, 0.01076100766658783, 0.12392423301935196, 0.007989957928657532, 0.1395946741104126, 0.09066421538591385, -0.018388519063591957, 0.2043650597333908, -0.12481082230806351, 0.014037969522178173, 0.05327232554554939, -0.00937161035835743, -0.0061004855670034885, -0.044836271554231644, 0.10106262564659119, 0.011941480450332165, -0.006680130958557129, -0.0075798942707479, 0.07119595259428024, -0.11489865928888321, -0.027574028819799423, -0.036860838532447815, 0.08416540920734406, -0.09970919787883759], [-0.010621549561619759, -0.00351319438777864, -0.01132521964609623, -0.00814173836261034, -0.005632541608065367, 0.013388864696025848, 0.007890546694397926, 0.004988342989236116, 0.008609223179519176, -0.00035239962744526565, 0.007357869762927294, -0.020284108817577362, -0.003929584287106991, 0.010755122639238834, 0.03960796073079109, 0.05124141275882721, -0.015505542978644371, -0.14052321016788483, 0.010377260856330395, 0.0026086019352078438, -0.017102841287851334, 0.025445427745580673, 0.010470432229340076, 0.005317036993801594, 0.15484119951725006, -0.0019360074074938893, 0.014066120609641075, 0.015388838946819305, -0.022549966350197792, -0.004356414545327425, 0.0009874089155346155, -0.0016009632963687181], [-0.18554052710533142, 0.1499747931957245, 0.011908188462257385, 0.07599014788866043, -0.019768569618463516, -0.18257440626621246, -0.08068355917930603, -0.09150887280702591, -0.015582387335598469, 0.11503028124570847, -0.08944935351610184, -0.03133024275302887, -0.13832974433898926, -0.009421496652066708, 0.03709596395492554, -0.46709975600242615, 0.06744194030761719, -0.02665216475725174, -0.15669356286525726, -0.14324644207954407, -0.008192608132958412, -0.07381810992956161, 0.019462034106254578, 0.037460412830114365, 0.03253714367747307, -0.09783412516117096, -0.14879338443279266, -0.2444620132446289, 0.024070829153060913, 0.11354776471853256, -0.23528149724006653, -0.009689956903457642], [-0.10559362918138504, 0.013048174791038036, -0.003002270357683301, 0.15526197850704193, -0.06681578606367111, -0.0688134953379631, -0.0879988893866539, 0.016178583726286888, -0.01486210897564888, 0.12194591760635376, -0.012727261520922184, 0.005855856463313103, -0.02485606260597706, 0.05034085363149643, 0.050284359604120255, -0.2631659209728241, 0.023219577968120575, 0.008468082174658775, -0.13631294667720795, -0.19150198996067047, -0.017846660688519478, -0.01780802570283413, 0.04602442681789398, 0.07987361401319504, -0.0018087542848661542, -0.17920508980751038, -0.07630927115678787, -0.25394946336746216, 0.024319935590028763, 0.08287125825881958, -0.15578901767730713, -0.0724497139453888], [-0.06067048758268356, -0.03777289763092995, 0.024436919018626213, 0.050944048911333084, -0.007874807342886925, -0.1510554999113083, -0.029133517295122147, -0.0017187920166179538, 0.010324368253350258, -0.008993481285870075, -0.04688313230872154, -0.09601356089115143, -0.03158712014555931, 0.007518798112869263, 0.0043057631701231, -0.16707293689250946, -0.07063265144824982, -0.01271779090166092, 0.022621244192123413, -0.00207147398032248, -0.19946086406707764, -0.09501535445451736, 0.023564692586660385, 0.025359192863106728, -0.006079396232962608, 0.0334659218788147, -0.12554298341274261, -0.17972604930400848, -0.06842117756605148, -0.005029000341892242, -0.06121170148253441, 0.03492238372564316], [-0.013878649100661278, -0.008815239183604717, -0.0860113874077797, 0.036028388887643814, 0.03365224972367287, -0.008141548372805119, 0.01115128118544817, -0.0279274582862854, 0.040647707879543304, -0.10562412440776825, 0.05344332754611969, 0.09931618720293045, -0.0659746378660202, 0.020393239334225655, -0.04839117079973221, -0.04293159767985344, 0.05568262189626694, -0.03620155155658722, -0.001020187744870782, 0.053010839968919754, -0.03952440991997719, -2.6856460571289062, 0.04063296318054199, -0.04452422261238098, -0.020242108032107353, 1.0172713994979858, 0.0012069697258993983, 0.8887386918067932, -0.005819534417241812, -0.009221003390848637, -0.0004093328316230327, 0.02712719514966011], [0.049889836460351944, 0.029579775407910347, 0.011811652220785618, -0.021037651225924492, 0.0546337366104126, -0.020653417333960533, -0.0030774150509387255, -0.02743133157491684, -0.0025343839079141617, -0.03169883415102959, -0.06657472252845764, 0.09164293110370636, -0.025993118062615395, -0.06165319308638573, -0.056824248284101486, 0.02672772854566574, 0.14262273907661438, 0.02827596664428711, -0.006291183177381754, 0.03752639517188072, 0.030634339898824692, 0.04184524342417717, -0.08598460257053375, -0.06760862469673157, -0.0871986523270607, 0.004960130900144577, 0.009779334999620914, -0.004823809955269098, 0.1737782061100006, 0.015252598561346531, 0.033042315393686295, 0.029473910108208656], [0.13061346113681793, 0.07696514576673508, 0.07416538149118423, -0.007230161223560572, 0.15950742363929749, 0.03496534004807472, -0.011618071235716343, -0.1941727250814438, -0.01975923962891102, -0.021446468308568, -0.18252387642860413, 0.280606210231781, -0.04899105429649353, -0.19519026577472687, -0.05759035795927048, 0.0939285159111023, 0.29305028915405273, -0.007106767036020756, -0.1730276495218277, 0.010152020491659641, 0.11985751986503601, 0.006869999226182699, -0.12187369167804718, -0.20178866386413574, -0.010656777769327164, 0.15556690096855164, 0.03346303850412369, 0.09208348393440247, 0.36744123697280884, 0.11865325272083282, 0.004409792833030224, 0.05412900075316429], [0.023632340133190155, -0.02506537362933159, 0.02003508433699608, 0.010601694695651531, 0.0008536865934729576, -0.0011782271321862936, 0.010328629985451698, -0.00775325670838356, -0.00891271885484457, -0.005198654718697071, -0.013329786248505116, 0.02450849488377571, 0.019851425662636757, -0.005834390874952078, -0.055885814130306244, -0.03296172246336937, 0.013851014897227287, 0.07121716439723969, 0.017834564670920372, 0.0012995250290259719, 0.025330886244773865, -0.07244140654802322, -0.01581859588623047, -0.015540293417870998, -0.16966162621974945, -0.07999341934919357, -0.0001672108774073422, -0.13208919763565063, 0.05084223672747612, -0.005009433254599571, 0.00014776263560634106, -0.0010367712238803506], [-0.02461906708776951, -0.031644511967897415, -0.01796054095029831, -0.08731916546821594, -0.1354164332151413, 0.002520002191886306, 0.04830465838313103, 0.09206283837556839, 0.08576305210590363, -0.21993649005889893, 0.005901578813791275, -0.12937253713607788, -0.021084580570459366, 0.1280074268579483, -0.015149741433560848, 0.030673077329993248, -0.16319119930267334, -0.013137081637978554, 0.23695674538612366, 0.25325003266334534, -0.0048859152011573315, -0.5237086415290833, 0.05035410821437836, 0.10644541680812836, 0.027946408838033676, -0.15674950182437897, 0.005881681572645903, 2.8897061347961426, -0.14803709089756012, -0.20190322399139404, 0.1223999485373497, 0.08699806034564972], [0.012591220438480377, 0.06618575006723404, 0.04390108957886696, -0.004622715059667826, -0.02125440537929535, -0.13607963919639587, 0.05536966398358345, 0.041039615869522095, -0.024371132254600525, -0.04208114743232727, -0.022533245384693146, -0.02375471405684948, -0.053298525512218475, -0.009271691553294659, -0.03231331706047058, -0.168190598487854, -0.08116523921489716, 0.05632118135690689, 0.11363308131694794, 0.014984377659857273, -0.03862825036048889, -0.011536183767020702, 0.000763450691010803, 0.04483598843216896, -0.1545354574918747, -0.042558249086141586, -0.13586510717868805, -0.07301194965839386, -0.0944557711482048, -0.06259319931268692, 0.04812387377023697, 0.06594661623239517], [0.03230108693242073, 0.09522604197263718, -0.04005318135023117, -0.017956417053937912, -0.014375588856637478, 0.029664546251296997, -0.04409408941864967, -0.08174727112054825, -0.005828490946441889, -0.050075408071279526, -0.1051044911146164, 0.12945185601711273, -0.08354759961366653, -0.07425472885370255, 0.040301334112882614, -0.02458398975431919, 0.20775990188121796, -0.010089769028127193, -0.043481774628162384, 0.020370928570628166, 0.09727226197719574, -0.2140425443649292, -0.06495074927806854, -0.0325341522693634, 0.053576961159706116, -2.6887400150299072, 0.009543096646666527, -0.3000921308994293, 0.15157748758792877, 0.04013765603303909, -0.0278201662003994, 0.10958392918109894], [-0.024046145379543304, -0.17729918658733368, -0.13332422077655792, -0.09529925137758255, -0.21557417511940002, 0.11237996816635132, 0.20826716721057892, 0.21758189797401428, 0.0843593180179596, -0.041516177356243134, 0.1039886474609375, -0.08432473242282867, 0.12605924904346466, 0.27003201842308044, 0.005289825610816479, 0.3936649560928345, -0.20338693261146545, 0.002991042798385024, 0.22006842494010925, 0.03224332630634308, -0.025405894964933395, 0.01741563156247139, 0.18369130790233612, 0.11181459575891495, -0.03554927185177803, -0.0015692934393882751, 0.14715400338172913, -0.09540820121765137, -0.20612743496894836, -0.20875337719917297, 0.19683250784873962, -0.01844245195388794], [0.2418794184923172, -0.14603397250175476, -0.056904200464487076, -0.09562697261571884, 0.028289439156651497, 0.17764218151569366, 0.18602091073989868, 0.0960780456662178, 0.033368613570928574, -0.13127677142620087, 0.049489300698041916, 0.06862514466047287, 0.13097791373729706, 0.011828623712062836, -0.02664851024746895, 0.42186176776885986, -0.0960453674197197, 0.010775242932140827, 0.18106481432914734, 0.12946085631847382, 0.08226246386766434, 0.11458323150873184, -0.06473827362060547, -0.06446969509124756, 0.018513964489102364, 0.11519693583250046, 0.18930603563785553, 0.27261805534362793, -0.04794280603528023, -0.19506365060806274, 0.31934279203414917, 0.03253401443362236], [-0.2473192662000656, 0.19446080923080444, 0.03538829833269119, 0.13355019688606262, -0.11675883084535599, -0.2728210687637329, -0.23720386624336243, 0.005446326453238726, -0.016667215153574944, 0.05048768222332001, -0.1165768951177597, -0.20771849155426025, -0.1863010823726654, 0.08297722786664963, 0.05664202198386192, -0.39743128418922424, -0.04338061437010765, -0.00691733555868268, -0.060553375631570816, -0.08354920893907547, -0.13274314999580383, -0.10009639710187912, 0.12964555621147156, 0.19624637067317963, -0.015274479053914547, -0.12407660484313965, -0.23340387642383575, -0.26169338822364807, -0.1042405441403389, 0.046865228563547134, -0.2006482481956482, 0.03280183672904968], [-0.1394616663455963, -0.032126303762197495, 0.004466351121664047, 0.17895621061325073, -0.08200311660766602, -0.06527691334486008, -0.15770168602466583, 0.053177669644355774, -0.008740324527025223, 0.14414389431476593, 0.015622992068529129, -0.07311452925205231, 0.030474554747343063, 0.08740599453449249, 0.025980887934565544, -0.24056808650493622, -0.018357668071985245, -0.021904494613409042, -0.18805445730686188, -0.13819047808647156, -0.0541887991130352, -0.09254346787929535, 0.06645708531141281, 0.10947178304195404, 0.059480927884578705, -0.09298177063465118, -0.054685596376657486, -0.21513588726520538, 0.048250459134578705, 0.0822017565369606, -0.16612061858177185, -0.15676870942115784], [-0.0038226370234042406, 6.19587954133749e-05, 0.006360553205013275, -0.0028931235428899527, -8.558684203308076e-05, 0.007439386565238237, -0.0065446821972727776, -0.0020454295445233583, -0.0017133115325123072, -0.0051300665363669395, -0.002876860089600086, 0.0013147019781172276, 0.0028116637840867043, -0.0002335709723411128, -0.002970703411847353, 0.012051858939230442, 0.005092177074402571, 0.0012066857889294624, -0.008165399543941021, 0.0037699665408581495, 0.012394995428621769, 0.0532023087143898, -0.002134480280801654, -0.002732810564339161, -0.010747751221060753, -0.09218915551900864, -0.0016445036744698882, 0.01641325280070305, -0.0030570838134735823, 0.0008199741132557392, -0.00318429758772254, -0.0024333870969712734], [-0.00022131786681711674, 0.00019921001512557268, 0.00012827948376070708, -4.052887106809067e-06, 8.416514174314216e-05, 6.508422666229308e-05, -0.000558224506676197, 0.000560280226636678, -0.00013295392272993922, 6.338534876704216e-05, -0.0002258975146105513, -0.0003583443467505276, -0.000232202117331326, 0.00017708395898807794, -3.3927954063983634e-05, -0.002636035904288292, -0.00026708864606916904, 2.0602557924576104e-05, 0.00039013553760014474, 0.00021869679039809853, 2.500988557585515e-05, 0.0025839947629719973, 0.0004978793440386653, 0.00030463418806903064, -0.0022506737150251865, 0.0038434062153100967, 0.00019350298680365086, -0.0035584326833486557, -0.00025734707014635205, -9.694654727354646e-05, -0.00012281972158234566, -0.00010738375567598268], [-0.0018538919975981116, -0.00011216758866794407, -0.0004419407050590962, -0.0003283294499851763, 0.0014430342707782984, 0.0012529132654890418, -0.0019303507870063186, -0.0002983756421599537, -0.00029073693440295756, -0.000322738807881251, -0.0006843655719421804, 0.000745470984838903, 0.0004172863846179098, 8.455127681372687e-05, -0.0003843701852019876, 0.0022661713883280754, 0.0019425443606451154, 6.665375985903665e-05, -0.002652928698807955, 0.0008143984596244991, -0.002270207041874528, 0.02164149098098278, 0.0014570234343409538, 0.00034001559833996, -0.0028307600878179073, -0.007133143488317728, 0.00020365719683468342, 0.0008450341993011534, -0.0009910686640068889, 0.0015094781992956996, -0.0009311662870459259, -0.001365332631394267], [1.4598265806853306e-05, -9.403482545167208e-05, 0.00018432422075420618, 0.00012766361760441214, 1.8362252376391552e-05, -0.0001664743322180584, 0.00047792750410735607, -5.671802500728518e-05, 4.824264397029765e-05, 8.637657447252423e-05, -0.00014497502706944942, -4.4414155127014965e-05, 0.0003843274316750467, 3.403618757147342e-05, -0.000101702447864227, 0.0002449223247822374, 0.00011163983435835689, -1.9118671843898483e-05, 0.00013212075282353908, -0.0001419593463651836, 0.000648079498205334, -0.0019559036009013653, -0.0006496895221062005, 7.37920390747604e-06, 5.929113831371069e-05, -0.0010696129174903035, -0.00018267369887325913, -0.0006332576740533113, 0.00010005763033404946, 0.00015527309733442962, -0.00016755449178162962, -1.032905174724874e-06], [-0.001139974338002503, 0.004858226515352726, 0.0024581351317465305, -0.0029927308205515146, 0.007985280826687813, 0.010419929400086403, -0.0014278583694249392, 0.006594687234610319, -0.0020251385867595673, -0.0001108036158257164, -0.0036418125964701176, 0.0037102338392287493, 0.0003900799201801419, -0.003929215017706156, -0.0012259028153494, 0.014308745041489601, 0.010013360530138016, 0.001215340569615364, -0.0107470927760005, 0.003821845632046461, 0.004890616983175278, -0.015096544288098812, -0.0019332743249833584, -0.010945647023618221, -0.008705506101250648, 0.03069680742919445, 0.0016946119721978903, -0.013158638030290604, 0.013505194336175919, 0.003925934433937073, 0.0003288987500127405, -0.0011472502956166863], [-0.0029196985997259617, 0.0004320898442529142, 0.0016205607680603862, 0.0005876483046449721, 0.0007522747619077563, -0.010929509997367859, -0.0007723298040218651, -0.0012802381534129381, -0.0007086865371093154, -0.0017637111013755202, -0.0009904673788696527, -0.0001450593990739435, 0.00010117955389432609, -0.0009916294366121292, -0.0004462274955585599, -0.00011519668623805046, 0.0020017914939671755, 0.0002132883237209171, -0.0017058000667020679, -8.493468340020627e-05, -0.0003086383221670985, 0.007294002454727888, 0.0010011784033849835, -0.0009148174431174994, -0.0014398962957784534, 0.013342081569135189, -0.0003042283351533115, -0.0008025171118788421, 0.0015169410035014153, 0.0008215229609049857, -0.000674994895234704, -0.00023152836365625262], [-0.004142662975937128, -0.00015317773795686662, 0.005005248356610537, -0.0023119552060961723, 0.0007168303127400577, 0.005580272991210222, -0.002920471830293536, -0.0018839614931493998, -0.0006256644264794886, -0.00026916858041659, -0.00021661139908246696, -0.001987734343856573, 0.00206579128280282, 0.000973670044913888, -0.0021730810403823853, 0.0077180457301437855, -0.0008145436877384782, 0.00046233244938775897, -0.0035785119980573654, -0.0003040796727873385, -0.00015334802446886897, 0.034044601023197174, -0.0019040171755477786, -0.0034990236163139343, -0.0054747844114899635, -0.031053105369210243, -0.00016091379802674055, 0.012485923245549202, 0.0013120080111548305, 0.0042593893595039845, -0.0022740031126886606, -0.0029376631136983633], [-0.0024178465828299522, -0.0004390823014546186, -0.0001708317722659558, -0.0012127095833420753, -0.00780815863981843, 0.0025797374546527863, -0.00027441795100457966, -0.00679004518315196, 0.0012581967748701572, 0.0008532828651368618, -0.003287641331553459, -0.007444280665367842, 0.003658982692286372, 0.006581137888133526, -0.000585933739785105, 0.006601514294743538, -0.010226564481854439, 0.0008803735836409032, 0.011567988432943821, 0.00473161181434989, 0.005233605392277241, -0.022541161626577377, -0.00223640538752079, 0.005362869240343571, -0.007185067981481552, 0.03730476647615433, -0.000605110835749656, 0.017187263816595078, -0.012367768213152885, 0.001509023131802678, -0.0025247696321457624, -0.0021270362194627523], [0.00024720426881685853, -1.7178555935970508e-05, -7.50293766031973e-05, -0.00021594396093860269, -6.832893268438056e-05, 4.885758607997559e-05, 9.729608427733183e-05, 0.00011274807911831886, -1.9640334357973188e-05, -4.738735697173979e-06, 0.00011192702368134633, 6.858260894659907e-05, -3.846837716992013e-05, 2.1022899090894498e-05, -2.223547653557034e-06, 0.0003775388759095222, 2.1248624761938117e-05, 5.963988587609492e-05, 0.00022040592739358544, -0.00017123870202340186, 0.0005964126321487129, -0.0022031040862202644, -0.0003169110859744251, 7.756548257020768e-06, -0.0017359196208417416, 0.0013968494022265077, 0.00011512848868733272, -0.0015961157623678446, 2.8248799935681745e-05, -0.00021239824127405882, 0.00022826081840321422, 7.295179966604337e-05], [0.0031324734445661306, -0.0006984181236475706, 0.0019341903971508145, 0.000893226417247206, 0.004127846099436283, 7.185105641838163e-05, 0.0011843489482998848, 0.0028684299904853106, -0.0007930459687486291, -0.0014282462652772665, 0.001115814782679081, -0.0009834321681410074, 0.0009822787251323462, -0.0036716146860271692, 0.00011462002294138074, -0.001430746167898178, -0.0022514420561492443, -0.0004702808801084757, 0.002525209914892912, 0.001344424788840115, 0.004199568182229996, 0.024918679147958755, -0.0028142589144408703, -0.004156135022640228, 0.0004397532611619681, -0.03250173106789589, 5.2990417316323146e-05, -0.00938617903739214, -0.0008215094567276537, 0.003067826386541128, 0.001083437935449183, -0.0003073200350627303], [-0.0016389533411711454, 0.0010851527331396937, 0.006247072946280241, -0.0015182435745373368, 0.0011734160361811519, 0.0046806540340185165, -0.00464354082942009, -0.004140617325901985, -0.0010347801726311445, 0.001345306052826345, -0.0008888564771041274, 0.00033467652974650264, -0.0005027260049246252, -0.0015904090832918882, -0.0030972419772297144, 0.00950811430811882, 0.0013555546756833792, 0.001187685877084732, -0.007379430811852217, -0.00019996261107735336, 0.0033452732022851706, 0.02271343395113945, 0.003642554860562086, 0.006003505550324917, -0.008495407178997993, -0.015203086659312248, -0.0008555912063457072, 0.009242950938642025, -0.00016333107487298548, 0.0016000797040760517, -0.0029534611385315657, -0.0032342018093913794], [-0.0008461556863039732, 0.003827236592769623, 0.003565457882359624, -0.009585367515683174, -0.002788153011351824, 0.009255978278815746, -0.014759266749024391, -0.009362496435642242, 0.0010315213585272431, 0.0051730419509112835, -9.90791741060093e-05, -0.0009958954760804772, -0.002911627059802413, 0.003916892688721418, -0.0013800609158352017, 0.03932039067149162, -0.003567416686564684, 0.0032855963800102472, -0.021332554519176483, 0.00244098505936563, -0.01967192441225052, 0.03393634408712387, -0.002776955720037222, -0.02151288092136383, -0.027818219736218452, -0.046625301241874695, 8.328715193783864e-05, 0.03116585686802864, 0.0002626698696985841, 0.011868161149322987, -0.0038711100351065397, -0.011863336898386478], [-6.386623863363639e-05, 0.0001138527222792618, -1.3456571650749538e-05, 4.575826824293472e-05, -5.3739408031105995e-05, 8.365107350982726e-05, 9.842608960752841e-06, 0.0004979948862455785, -0.00013509663403965533, 0.00019189348677173257, 0.00011491186887724325, -0.0003649505670182407, 1.1988714732069639e-06, 0.00041481462540104985, 4.5629018131876364e-05, 0.0002561286964919418, -0.00060029182350263, 4.2470466723898426e-05, 0.0003679788496810943, -0.00040822086157277226, 0.00046222162200137973, -0.002480141818523407, -0.0007769314688630402, 0.0005568386404775083, -0.000610345508903265, 0.007975829765200615, -0.00017308695532847196, -0.00163452816195786, -0.00041508569847792387, -0.00012946205970365554, 0.00021382125851232558, -3.821462087216787e-05], [5.6381748436251655e-05, 0.001584152807481587, 0.0013182323891669512, 0.0012444836320355535, -0.004352312069386244, 0.007842360995709896, -0.004256099928170443, 0.005330730229616165, -0.00039783716783858836, -0.004721086472272873, -0.0026135973166674376, -0.00443949643522501, 0.002108647022396326, 0.0006672012968920171, -0.0014629557263106108, 0.01794789358973503, 0.0003067502984777093, 0.0017835935577750206, 0.004091879818588495, 0.007540024816989899, 0.008293275721371174, 0.009337389841675758, 0.00038750466774217784, -0.004494240041822195, -0.010048449039459229, -0.005197419319301844, 0.0005016293725930154, 0.010465276427567005, 0.009644875302910805, -0.011479942128062248, 0.0012719548540189862, -0.0026571170892566442], [-4.535386324278079e-05, -2.6164294467889704e-05, 0.00016058790788520128, 0.0001840437762439251, 0.0003976138832513243, 2.5913608624250628e-05, -5.2700121159432456e-05, -5.9349524235585704e-05, -0.00013274895900394768, 7.248875044751912e-05, -0.000548117037396878, 0.0001528275024611503, 0.00010271208884660155, -0.00017750891856849194, -4.4773489207727835e-05, -0.00020357384346425533, 0.0004312293604016304, 0.00010820302122738212, -0.0004757949791382998, -4.159153832006268e-05, -7.302031008293852e-05, 5.613383473246358e-05, -7.769586227368563e-05, -0.00010868666868191212, 0.019529398530721664, 0.001301957992836833, -7.339967851294205e-05, 0.0010437845485284925, 0.0001260107383131981, 0.0003136466257274151, -0.00019313732627779245, -6.520620809169486e-05], [0.0016126015689224005, 0.0006174069712869823, 0.0017474493943154812, 0.0009710023296065629, 0.0034011683892458677, -0.007295528892427683, 0.0019870202522724867, -0.0027170535176992416, -0.0015426016179844737, 0.002181422198191285, -0.002535671228542924, 0.004038198851048946, 0.00034934826544485986, -0.003419355722144246, -0.0004386689397506416, -0.07137198746204376, 0.003375891363248229, 0.0004790251550730318, -0.0036273705773055553, -0.004179464653134346, 0.0014307351084426045, -0.02652948722243309, -0.005209054332226515, -0.003437558189034462, -0.006814443971961737, 0.06302640587091446, -0.0030403584241867065, 0.01210673339664936, 0.005566249135881662, 0.00395999476313591, -0.00030540337320417166, -6.870793731650338e-05], [-0.0007069403654895723, 0.0004861331544816494, 0.006086108740419149, -0.002887167502194643, 0.002601454732939601, 2.8197480787639506e-05, -0.003940463066101074, -0.004709995351731777, 1.9989300199085847e-05, 0.0022869063541293144, -3.529573223204352e-05, -0.00036258893669582903, -0.0006754036294296384, -0.000620089762378484, -0.0006883699679747224, 0.010929935611784458, 0.002556181512773037, 0.0007272149669006467, -0.0048210821114480495, -0.00040910436655394733, -0.007471045944839716, 0.009076721034944057, -0.0006500679301097989, -0.005699523724615574, -0.00748361786827445, -0.01580270566046238, 4.6332461351994425e-06, 0.014204482547938824, 0.005723984912037849, 0.005191592033952475, -0.0009027538471855223, -0.0022439437452703714], [0.00010153825132874772, 2.1991854737279937e-05, -1.797928780433722e-05, -2.7401569013818516e-07, 3.445901529630646e-05, 4.096521661267616e-05, 5.854073242517188e-05, -1.8767750589177012e-05, -1.764258740877267e-05, -4.8688029892218765e-06, -1.0709023626986891e-05, 6.244314863579348e-05, 2.4913583729357924e-06, -5.2223367674741894e-05, -1.588865416124463e-05, -3.343884236528538e-05, 7.403633935609832e-05, 8.583061571698636e-05, 1.0917564395640511e-05, -8.265562064480036e-05, 7.167632429627702e-05, -0.0007776897982694209, -6.124818901298568e-05, -4.783748590853065e-05, 0.016858600080013275, 0.0011859361547976732, 1.3166993994673248e-05, -0.0007872142596170306, 0.00012465723557397723, -3.0860868719173595e-05, 6.734512135153636e-05, 3.019737960130442e-05], [0.0006012071389704943, 0.0018143589841201901, -0.00045631537795998156, -0.00047207422903738916, 0.0007761860615573823, 0.0022940270137041807, -0.0006408816552720964, -0.0008618318825028837, -0.00017115157970692962, -0.0006643134984187782, -0.0014454867923632264, 0.002225877484306693, 0.0012998415622860193, 0.0011689233360812068, 5.131536454427987e-05, 0.0009914112742990255, 0.002708961721509695, 0.0002981816360261291, -0.0024136051069945097, -0.0005778108024969697, 0.0020341856870800257, -0.007468169089406729, -0.0015694372123107314, -0.003693205304443836, -0.003227896522730589, 0.024249564856290817, 0.0008951285271905363, 0.007751930970698595, 0.005859354045242071, 0.0013130474835634232, 0.0010401289910078049, 5.6039803894236684e-05], [0.0024234356824308634, -0.0033221489284187555, 0.008802544325590134, 0.001825339044444263, 0.009824907407164574, 0.0015331595204770565, 0.0009711325983516872, -0.007524874061346054, -0.002941207028925419, -0.0033502192236483097, -0.0001714255486149341, 0.0037741935811936855, 0.00553103256970644, -0.006814389955252409, -0.007053588982671499, -0.009743777103722095, 0.0018159269820898771, 0.0002452698245178908, 0.006494220811873674, 0.0027384108398109674, 0.006266124080866575, 0.011107219383120537, -0.01514145266264677, 0.003004818456247449, 0.0041200704872608185, -0.029761455953121185, -0.003498433856293559, -0.01268620416522026, -0.0036198077723383904, 0.0006658433703705668, -3.626418765634298e-05, 0.0019173286855220795], [0.005120576824992895, -0.002823351416736841, 0.0005024786223657429, -0.001110956072807312, 0.007472323719412088, 0.0011200556764379144, 0.006652588490396738, -0.0047957575879991055, -0.0004584826237987727, -0.0014343841467052698, -0.005182947032153606, 0.005729337222874165, 0.0024437489919364452, -0.006096896715462208, -0.0006744497222825885, 0.0037169698625802994, -0.0020920734386891127, 0.00048396209604106843, 0.0023215566761791706, 0.001392984646372497, -0.004834555089473724, 0.012977791018784046, -0.006841156166046858, -0.0002015915233641863, -0.0018243725644424558, -0.022813722491264343, 0.0001547931315144524, 0.028414441272616386, -0.0071657015942037106, 0.001754554221406579, 0.001528413500636816, 1.012834400171414e-05], [0.0003961239126510918, 0.00756082683801651, -0.06386928260326385, -0.036854665726423264, 0.011215110309422016, 0.0075418828055262566, -0.002868714975193143, -0.007861067540943623, 0.027042603120207787, -0.0038029307033866644, 0.03092833422124386, 0.004239168483763933, -0.017707766965031624, 0.007956627756357193, -0.00024960978771559894, 0.052514832466840744, -0.00181712512858212, -0.011150526814162731, -0.01091973390430212, 0.002521117450669408, -0.0595896914601326, 0.02044883370399475, 0.010050266049802303, -0.021548481658101082, 0.004686365369707346, -0.0005162949673831463, 0.014697213657200336, 0.39285004138946533, -0.01788562536239624, -0.0024381643161177635, 0.03311431407928467, 0.0002407948049949482], [0.0011394256725907326, -0.0015321292448788881, 0.0012033844832330942, 0.002182257827371359, 0.0024099850561469793, 0.0023236458655446768, 0.0006979745230637491, -0.0013798231957480311, -0.002375178039073944, -0.0011769424891099334, -0.006327355746179819, 0.0028432076796889305, 0.0030181417241692543, -0.0015600986080244184, -0.0003971027035731822, 9.740913810674101e-05, 0.00787843856960535, 0.00022745672322344035, -0.0017326722154393792, -0.0037372929509729147, 0.00433668727055192, -0.002646262990310788, -0.0015564225614070892, -0.0010825401404872537, -6.548291275976226e-05, -0.011757266707718372, -0.0012389280600473285, 0.005968960002064705, -0.006794680841267109, 0.0017210579244419932, -0.0012694154866039753, 3.4310942282900214e-05], [-0.008864377625286579, 0.006817284971475601, -4.363089828984812e-06, 0.0019656100776046515, -0.003906043479219079, 0.012372334487736225, -0.006509639788419008, -0.0065801506862044334, -0.003317243419587612, -0.0012404993176460266, 0.0021059992723166943, -0.014232192188501358, -0.0026541852857917547, -0.00638238713145256, -0.0011238662991672754, 0.01944071613252163, 0.006439034827053547, 0.0015590620459988713, -0.013658840209245682, 0.0034089526161551476, 0.006276866886764765, -0.018915368244051933, -0.005456763319671154, -0.022565808147192, -0.008011886849999428, 0.021020375192165375, 0.002078193938359618, -0.010103250853717327, 0.012294303625822067, -0.00791959185153246, -0.00611088378354907, -0.0033389043528586626], [0.0011990590719506145, -0.0008512283675372601, 0.0002786722616292536, -0.00021200865739956498, -0.0005307485116645694, 0.0006539122550748289, 0.0007151281461119652, 0.0003521252074278891, -1.3050105735601392e-05, -0.0005755658494308591, 0.00018726928101386875, 0.0010823087068274617, 0.00039080443093553185, 0.00015138217713683844, 0.004992814734578133, -5.7317909522680566e-05, 0.000538671447429806, -0.011001033708453178, 0.0014507453888654709, -0.00025295926025137305, 0.0013523792149499059, -0.004113994538784027, -0.0006868931814096868, 0.00030645914375782013, 0.09942592680454254, 0.004338609520345926, -6.567801756318659e-05, -0.01574823074042797, -0.00012107966176699847, -0.0010049804113805294, 0.0009330970933660865, 0.00045152127859182656], [-0.06663879752159119, -0.04206451401114464, 0.027268027886748314, 0.009864854626357555, 0.04610849916934967, 0.059592075645923615, -0.053082238882780075, -0.022422021254897118, -0.01607527583837509, 0.020259246230125427, -0.0416516549885273, 0.082916758954525, 0.06247549504041672, -0.012609055265784264, -0.022296002134680748, -0.001985273091122508, 0.06367358565330505, 0.038568269461393356, -0.09433156996965408, -0.05412789806723595, 0.008460238575935364, -0.28259584307670593, -0.011632202193140984, -0.04132179170846939, -0.07224170863628387, 0.01634697988629341, 0.007501671556383371, -0.31299248337745667, -0.026557553559541702, 0.07784498482942581, -0.059608664363622665, -0.06039101630449295], [0.00036731184809468687, 2.2137252017273568e-05, -0.0001781373139237985, 0.0002456098154652864, 2.4882616344257258e-05, -0.00016471951676066965, 0.0004348489746917039, 7.871632078604307e-06, 5.5828539188951254e-05, 0.00030584551859647036, 5.942183270235546e-05, 5.461174168885918e-06, 0.00025347870541736484, -6.89911212248262e-06, 5.961377974017523e-05, -0.001246811356395483, -0.0002180843730457127, 1.863750549091492e-05, -0.0001020210693241097, -0.0008256154833361506, 4.858771353610791e-05, -0.001517115393653512, -0.0006523490883409977, -5.412212703959085e-05, -0.0019538947381079197, 0.004427424166351557, -0.000253834092291072, -0.001100896974094212, -0.0001956745545612648, 0.00019546583644114435, -0.00012950156815350056, -3.1218212825478986e-05], [0.004695346113294363, -0.02304774522781372, 0.07125486433506012, -0.046385325491428375, 0.11404676735401154, 0.014905470423400402, 0.0015121718170121312, -0.059054773300886154, -0.021137133240699768, -0.05638303607702255, -0.018716884776949883, 0.12715554237365723, 0.00383776449598372, -0.10493520647287369, 0.0036123383324593306, 0.0211798045784235, 0.13900361955165863, -0.02449737675487995, -0.003273250302299857, 0.04855538159608841, -0.055345188826322556, -0.42308470606803894, -0.026539228856563568, -0.07562488317489624, 0.06007416546344757, 0.13916508853435516, -0.016768760979175568, -0.06603185832500458, 0.017207320779561996, 0.05161057412624359, 0.03453328087925911, 0.05230392888188362], [-0.0077741993591189384, 0.0015805321745574474, 0.0009754924685694277, -0.007645984645932913, -0.0012365179136395454, 0.013272636570036411, -0.004542444832623005, -0.009334954433143139, -0.002053267089650035, 0.0033654472790658474, -0.003366009332239628, 0.0011659443844109774, -0.002264203503727913, -0.004208856262266636, 0.001939438283443451, 0.027764134109020233, 0.003273966256529093, 0.0015896408585831523, -0.011226887814700603, -0.008362333290278912, -0.014800619333982468, 0.05122995376586914, 0.0016910595586523414, -0.015239449217915535, -0.013900675810873508, -0.06610271334648132, 0.0030019935220479965, -0.0031429105438292027, 0.010378655977547169, 0.010547400452196598, -0.003617324400693178, -0.0011166924377903342], [-0.0006089214002713561, 1.091293688659789e-05, -0.00042701393249444664, -8.244004129664972e-05, -0.0017954468494281173, 0.0009160562767647207, -0.0022477873135358095, 0.0015655491733923554, -2.9118493330315687e-05, -0.0009741638787090778, 0.00016485757078044116, -0.0014379327185451984, 0.0007597240037284791, -0.0009616955649107695, 0.00013823012704961002, 0.0008431696332991123, -0.0005561510915867984, 0.00013389773084782064, -0.00194539746735245, 0.0012541060568764806, 0.0036678786855190992, 0.01173323206603527, -0.000295782316243276, 0.001721773180179298, -0.0018140904139727354, 0.005075713619589806, 0.0009766792645677924, 0.013822409324347973, 0.0003451901429798454, 0.0004242428985890001, -0.0002774794411379844, -0.000514089479111135], [-0.0013783781323581934, -0.00034440745366737247, -0.00045387219870463014, -0.0010068583069369197, 0.00039589309017173946, 0.0007220419938676059, -0.0016321581788361073, 0.001156597980298102, 3.924874181393534e-05, 0.0001766154309734702, 0.0004876737657468766, -0.0006654680473729968, 5.225180575507693e-05, 0.0011662389151751995, 0.00020587490871548653, 0.002251014346256852, -1.9485180018818937e-05, -7.105850818334147e-05, -0.0015799603424966335, 0.0005675651482306421, -0.0007623825222253799, 0.006845792755484581, 0.0006461856537498534, 0.0015396997332572937, -0.002870667725801468, -0.008660540916025639, 0.000253729842370376, 0.0031219893135130405, -0.0014517613453790545, 0.0006794235669076443, -0.0010286851320415735, -0.001001866185106337], [0.0010133231990039349, 0.0005560464924201369, 0.0005924216820858419, -0.0005921177216805518, -0.0016041490016505122, 0.0007229871116578579, -0.0006513705011457205, 0.0017607485642656684, -0.00015099318989086896, -0.001113305101171136, 0.0012033606180921197, -0.0003212075971532613, -0.00029471726156771183, 0.0005250198300927877, -0.0001239097473444417, 0.004127848893404007, -0.0004987510037608445, 2.301838503626641e-05, 0.002020530868321657, 0.0012099010637030005, 0.0049353186041116714, 0.03214656189084053, 0.00011410995648475364, 0.0036462247371673584, -0.0017404045211151242, -0.03967301547527313, 0.00014008321159053594, -0.0192799661308527, -0.0028677505906671286, -0.0006877861451357603, 0.0008262067567557096, -0.0016805595951154828]], "rec.bias_ih_l0": [-0.4009310305118561, -0.22917520999908447, -0.3470996916294098, -0.2952728569507599, -0.41011273860931396, -0.2025441825389862, -0.26318567991256714, -0.3633349537849426, -0.30299806594848633, -0.3749125897884369, -0.43479737639427185, -0.5650407075881958, -0.22719044983386993, -0.45168352127075195, -0.26171988248825073, -0.27193716168403625, -0.2552012801170349, -0.26631778478622437, -0.3095046877861023, -0.41885873675346375, -0.408136785030365, -0.6292434930801392, -0.2014750838279724, -0.4422508776187897, -0.30694064497947693, -1.907468557357788, -0.24237768352031708, -0.9959230422973633, -0.323502779006958, -0.3922794759273529, -0.3619143068790436, -0.3127947747707367, -0.30090129375457764, -0.23175930976867676, -0.22869092226028442, -0.2148585319519043, -0.2853490710258484, -0.1590583324432373, -0.19824455678462982, -0.26794323325157166, -0.19705328345298767, -0.26929789781570435, -0.31261706352233887, -0.41825294494628906, -0.22029273211956024, -0.3265550434589386, -0.1988634169101715, -0.23544162511825562, -0.18458305299282074, -0.20063656568527222, -0.22325395047664642, -0.30456221103668213, -0.295881450176239, 1.3367947340011597, -0.13778771460056305, -0.32188841700553894, -0.23468586802482605, 2.2690701484680176, -0.18772384524345398, 2.083285093307495, -0.2600438594818115, -0.2843429744243622, -0.27940112352371216, -0.23834232985973358, -0.0004019807674922049, 0.006892268545925617, -0.020205182954669, -0.0017820106586441398, -0.011252335272729397, -0.013853132724761963, -0.0004491555446293205, 0.012979363091289997, 0.005253336858004332, 0.006264283321797848, 0.02254798635840416, -0.01396879367530346, -0.009472263045608997, 0.012073686346411705, 0.00837708730250597, 0.001738809747621417, -0.015234761871397495, -0.004101645201444626, 0.005499640014022589, -0.002827238291501999, -0.003098666900768876, 0.010411922819912434, 0.00867654662579298, 0.011625322513282299, 0.016730014234781265, -0.03635024651885033, 0.005536290816962719, -0.0066644879989326, 0.0045576938427984715, -0.006483093835413456, 0.0021828131284564734, -0.001833112444728613, -0.4013615548610687, -0.23014730215072632, -0.34858593344688416, -0.2957369387149811, -0.4107153117656708, -0.21446330845355988, -0.2634406089782715, -0.36424875259399414, -0.30335167050361633, -0.3751176595687866, -0.43460842967033386, -0.565218448638916, -0.22794552147388458, -0.45194992423057556, -0.26390546560287476, -0.28323793411254883, -0.2554459273815155, -0.26957184076309204, -0.3094439208507538, -0.41900205612182617, -0.40910589694976807, 0.5469319820404053, -0.20233634114265442, -0.4432491362094879, -0.3173290193080902, -0.11865967512130737, -0.24430716037750244, -0.7597787380218506, -0.32370010018348694, -0.3925175964832306, -0.36252841353416443, -0.3130226731300354], "rec.bias_hh_l0": [-0.4009310305118561, -0.22917520999908447, -0.3470996916294098, -0.2952728569507599, -0.41011273860931396, -0.2025441825389862, -0.26318567991256714, -0.3633349537849426, -0.30299806594848633, 