{"model_data": {"model": "SimpleRNN", "input_size": 1, "skip": 1, "output_size": 1, "unit_type": "LSTM", "num_layers": 1, "hidden_size": 32, "bias_fl": true}, "state_dict": {"rec.weight_ih_l0": [[0.0009233990567736328], [-0.004160530399531126], [-0.002124488353729248], [0.0006519043818116188], [-0.0016768776113167405], [0.0010943904053419828], [0.00013871394912712276], [-0.003614921821281314], [-0.003254637122154236], [-0.0020215909462422132], [-0.0014055914944037795], [-0.005249442998319864], [0.002596166916191578], [-0.00014078550157137215], [-0.0007969234720803797], [-0.008898613043129444], [0.0001273144007427618], [-0.0018875292735174298], [-0.005230075214058161], [0.001082221744582057], [0.0012381271226331592], [0.2893613576889038], [-0.0034106241073459387], [-0.00014749729598406702], [-0.006210261955857277], [0.7496212124824524], [-0.0005703797796741128], [-0.7526213526725769], [-0.005401509813964367], [0.004217222332954407], [-0.0007184022688306868], [-0.0019939199555665255], [0.0009152698330581188], [-0.004085655324161053], [-0.0021025980822741985], [0.0006740453536622226], [-0.0016666378360241652], [0.0011473111808300018], [0.00015352203627116978], [-0.0034050075337290764], [-0.003212899435311556], [-0.001918188063427806], [-0.001367104472592473], [-0.005103264003992081], [0.002447606297209859], [-0.0001576611102791503], [-0.0007377610309049487], [-0.008969342336058617], [0.00016131644952110946], [-0.0018511732341721654], [-0.005142081994563341], [0.0010548674035817385], [0.0012293767649680376], [0.39333438873291016], [-0.0032367834355682135], [-0.00012009208876406774], [-0.006048108451068401], [-0.17316903173923492], [-0.0005761522334069014], [0.38064318895339966], [-0.005282263271510601], [0.0041885641403496265], [-0.0006955041317269206], [-0.0019751146901398897], [-0.002304038032889366], [0.0019095720490440726], [-0.0023796549066901207], [0.003834045957773924], [0.0025291035417467356], [-0.007323906756937504], [0.003155140671879053], [0.009678876958787441], [0.0061007398180663586], [6.439474964281544e-05], [-0.0032360139302909374], [-0.0042685242369771], [-0.004521201830357313], [-0.0029881447553634644], [0.0066409544087946415], [-0.006960959639400244], [-0.005316084250807762], [-0.00031346105970442295], [-0.009478725492954254], [0.007005373947322369], [-0.0017645062180235982], [1.4669839143753052], [-0.008308094926178455], [0.006086524110287428], [0.019254211336374283], [-0.7803119421005249], [-0.0024854417424649], [-0.5047801733016968], [0.004934791009873152], [-0.00011785884998971596], [0.0022274397779256105], [0.004405268933624029], [0.001039989641867578], [-0.0041527156718075275], [-0.002141553908586502], [0.0007794478442519903], [-0.0016635054489597678], [0.0015919746365398169], [0.0001296021364396438], [-0.0031449333764612675], [-0.0031971680000424385], [-0.0022723099682480097], [-0.0014547037426382303], [-0.005253497511148453], [0.0029028363060206175], [-0.00019230150792282075], [-0.0009236113401129842], [-0.009413921274244785], [0.0002573773090261966], [-0.0015619361074641347], [-0.0048297434113919735], [0.0010077140759676695], [0.0012528127990663052], [0.19109705090522766], [-0.0028518489561975002], [-6.54012183076702e-05], [-0.007185712922364473], [-0.12255146354436874], [-0.0006148680695332587], [-1.269607663154602], [-0.005291772540658712], [0.004446637816727161], [-0.0007833864656277001], [-0.0020374171435832977]], "rec.weight_hh_l0": [[5.210075414652238e-06, 3.0724109819857404e-05, -5.16440522915218e-05, 1.295174683946243e-06, 3.310601414341363e-06, -3.6743243981618434e-05, 2.215010317740962e-05, 3.360282426001504e-05, 3.880860094795935e-05, 3.311799082439393e-05, -1.4449751688516699e-05, -2.5350031137350015e-05, -3.8299789594020694e-05, 3.759622131838114e-06, 4.2135212424909696e-05, -3.690296216518618e-05, -0.00023312296252697706, -4.305879338062368e-05, -6.921285967109725e-05, 0.00017485844728071243, 6.7819346440956e-05, 2.289914118591696e-05, -9.311641042586416e-05, 0.00012959867308381945, 0.00010140395170310512, -0.0007720737485215068, -0.00012371959746815264, -0.0002278102474519983, 4.103682658751495e-05, 7.751791417831555e-05, 2.7826925361296162e-05, 4.189902756479569e-05], [5.963313014945015e-05, -4.737333074444905e-05, 3.802860010182485e-05, 1.57778322318336e-05, -5.362313004297903e-06, -1.8865681340685114e-05, -3.4271499316673726e-05, -2.545612005633302e-06, -5.3853778808843344e-05, 2.5626306978665525e-06, -2.19679823203478e-05, 7.267366163432598e-05, 9.240779036190361e-05, -5.3356425269157626e-06, 1.2033988241455518e-05, 0.00013455197040457278, -3.918512084055692e-05, -3.1603867682861164e-05, 1.3036376003583428e-05, 5.0464001105865464e-05, 8.56949991430156e-05, -0.002371964743360877, 2.542498123148107e-06, 3.142142668366432e-05, -0.00013637779920827597, -0.0003768047026824206, 6.959351594559848e-06, 0.001797103090211749, -3.7049299862701446e-05, 4.16560833400581e-05, 4.521322625805624e-05, 4.342269676271826e-06], [0.0003428132040426135, 2.265888178953901e-05, 6.170207780087367e-05, -0.00012503341713454574, 5.637108642986277e-06, 2.496421802788973e-05, -0.00013736134860664606, -0.00024781320826150477, -2.641368701006286e-05, 0.00012080476153641939, -6.722412217641249e-05, 4.231008279020898e-05, 0.00022777686535846442, -0.00010222067794529721, -0.00026266707573086023, -7.167458875301236e-07, -0.0003229498106520623, -0.00014222941535990685, 0.00011509922478580847, 7.849160465411842e-05, 0.0005954935331828892, -0.0007726739859208465, 0.00010476711031515151, 0.00020182925800327212, 1.0726072105171625e-05, 8.291041012853384e-05, -5.856085772393271e-05, 0.0003666079428512603, -8.258106390712783e-05, 2.6395005988888443e-05, 0.0001605892030056566, 0.00011148821795359254], [1.6119387510116212e-05, 2.550075441831723e-05, 8.522888492734637e-06, -3.5834707432513824e-06, 3.977778305852553e-06, -1.9734159195650136e-07, -8.047395567700732e-06, -9.49734021560289e-06, 1.9644063286250457e-05, 6.043952907930361e-06, -1.0860805559786968e-05, -1.738376340654213e-05, 1.7924992789630778e-05, -1.4037002529221354e-06, -2.2437048755818978e-05, -1.9299903215141967e-05, -1.322001753578661e-05, -2.490003862476442e-05, -8.119097401504405e-06, 8.455753231828567e-06, 1.2769287422997877e-05, -0.0023367698304355145, -5.85863972446532e-06, 6.547341399709694e-06, 9.235796824214049e-06, -0.0010767614003270864, -6.498511311292532e-07, -0.00037894415436312556, 1.2408412658260204e-05, 5.848210093972739e-06, 8.992531547846738e-06, 2.34350318351062e-05], [3.6636742152040824e-05, 1.0028867109213024e-05, 1.315920235356316e-05, -5.2910677368345205e-06, 1.181813331641024e-05, -5.848975888511632e-06, -1.4194799405231606e-05, -2.521607166272588e-05, 5.521177627088036e-06, 1.8727354472503066e-05, -2.1026797185186297e-05, -1.5015002645668574e-06, 4.856212399317883e-05, -6.436619059968507e-06, -1.7976577510125935e-05, 2.794052670651581e-05, -5.6372766266576946e-05, -2.325943023606669e-05, -2.6175800940109184e-06, 2.928289359260816e-05, 0.00012462545419111848, -0.0008503842982463539, 7.700919923081528e-06, 2.2262311176746152e-05, -3.3302676456514746e-05, 0.0001223070576088503, 4.955172244081041e-06, 0.0006989856483414769, 1.1846889719890896e-05, 1.3115595720591955e-05, 2.4693506929907016e-05, 2.0465349734877236e-05], [9.33187038754113e-05, 6.532701081596315e-05, 5.035826688981615e-06, 9.338579729956109e-06, -1.46761738051282e-06, -4.3900410673813894e-05, -6.891501107020304e-05, 6.787843631173018e-06, 4.6375691454159096e-05, 5.584845712292008e-05, -4.624871871783398e-05, -2.267246054543648e-05, 0.00013789520016871393, -2.7001042326446623e-05, -0.00010234992805635557, -5.244511703494936e-05, -0.0001190835318993777, -9.978851448977366e-05, -3.721055691130459e-05, 0.00021105761697981507, 0.00026841062936000526, -0.0024122532922774553, -5.43932692380622e-05, 0.00010757071140687913, 9.089938248507679e-05, -0.001681003486737609, -0.00015013014490250498, -0.00040422793244943023, 2.0512188712018542e-05, 4.213361535221338e-05, 0.00014479058154392987, 0.00010818031296366826], [0.0002853814803529531, 4.683915540226735e-05, 0.0001409367105225101, -0.00017623527674004436, 3.2493258913746104e-05, 0.00012485581100918353, -0.00019161841191817075, -0.0003551791305653751, -9.979823516914621e-06, 0.0001798183366190642, -9.877309639705345e-05, 1.8552265828475356e-05, 0.00036224216455593705, -0.00013282705913297832, -0.0003253056784160435, -1.2056134437443689e-05, -0.00024929657229222357, -0.00012567659723572433, 0.00014201395970303565, -4.689140769187361e-05, 0.0006447794148698449, -0.0002859777014236897, 0.0001881788339233026, 0.00011305987572995946, 8.039508429646958e-06, -4.8199381126323715e-05, -7.389638994936831e-06, 0.00028339115669950843, -6.352033233270049e-05, -2.6040375814773142e-05, 0.00017411667795386165, 0.0001138027582783252], [6.794041837565601e-05, 4.97128494316712e-05, 5.875359056517482e-05, 8.114615752674581e-07, 2.7780935852206312e-05, 1.0227929124084767e-05, -0.00012229678395669907, -3.7737921957159415e-05, 2.540121022320818e-05, 2.811381455103401e-05, -5.1342882215976715e-05, -2.144892278010957e-05, 0.00011799884669017047, -3.0147415600367822e-05, -8.267065277323127e-05, -2.3188340492197312e-05, -4.906539834337309e-05, -3.287516301497817e-05, 1.6278394468827173e-05, -3.590060805436224e-05, 9.725904237711802e-05, -0.005210844799876213, 2.5724581064423546e-05, 2.2235291908145882e-05, 2.115064035024261e-06, -0.001352408085949719, 4.396937583805993e-06, 0.00020875940390396863, 8.029067430470604e-06, 2.249111821583938e-05, 7.944468961795792e-05, 6.950453098397702e-05], [4.900140629615635e-05, -9.197858162224293e-05, 3.609195118770003e-05, 2.6371477360953577e-05, -3.1226682040141895e-05, -2.350065733480733e-05, -3.715480488608591e-05, 1.6354337276425213e-05, -0.00010263661533826962, -1.4151612049317919e-05, 3.3470571452198783e-06, 0.00012365102884359658, 6.032730743754655e-05, -6.647218924626941e-06, 2.9728331355727278e-05, 0.00020792827126570046, -2.8790465876227245e-05, -2.183571814384777e-05, 3.837500844383612e-05, 2.802673407131806e-05, 4.843650458496995e-05, -0.003934353124350309, 7.109920716175111e-06, 3.2998170354403555e-05, -0.00022480454936157912, 0.00015721115050837398, 5.229215389590536e-07, 0.0012967801885679364, -8.456830983050168e-05, 3.190790812368505e-05, 2.9641927540069446e-05, -2.595013938844204e-05], [6.0945026234549005e-06, 9.244428838428576e-06, 1.854647598520387e-05, 7.61706075991242e-07, 5.53654854229535e-06, 1.541122401249595e-06, -2.9204411475802772e-05, -2.3813415737095056e-06, -8.878641892806627e-06, 1.3198834949434968e-06, -1.1576141332625411e-05, -1.2739382100335206e-06, 9.762743502506055e-06, -7.124135663616471e-06, -3.9789112634025514e-05, -1.1737996828742325e-05, 4.774728040501941e-06, 4.7536647684864874e-07, 1.9094435629085638e-05, -2.524364390410483e-05, 1.557003997731954e-05, -0.0006851714570075274, 1.659250665397849e-05, -1.2370682270557154e-05, 1.8728042050497606e-06, -0.0003067736397497356, 9.303022125095595e-06, 0.0005910826730541885, -5.70005386180128e-06, -5.357368877412227e-07, 1.83826432476053e-05, 1.2375965525279753e-05], [3.553591886884533e-05, 3.020108306373004e-05, 2.7092020900454372e-05, -3.287469735369086e-05, 1.9787774363067e-05, 1.986801544262562e-05, -4.118081778869964e-05, -7.2594360972289e-05, 1.4971907148719765e-05, 4.145149068790488e-05, -3.1230872991727665e-05, -1.5905206964816898e-05, 7.343597826547921e-05, -2.6239898943458684e-05, -8.745084051042795e-05, -6.917494829394855e-06, -7.208215538412333e-05, -2.846159077307675e-05, 2.632308860484045e-05, -1.5787883285156568e-06, 0.00017378297343384475, -0.000353855371940881, 4.1635466914158314e-05, 2.7089596187579446e-05, -1.2144304264438688e-06, 0.00016604442498646677, 1.9219515934310039e-07, 0.0009149290272034705, 3.3614085168665042e-06, 7.616233688167995e-07, 4.1336224967380986e-05, 3.717351137311198e-05], [7.484288653358817e-05, -4.90160527988337e-05, 2.4916553229559213e-05, 5.155308099347167e-05, -3.6778901630896144e-06, -5.259351746644825e-05, -2.05156047741184e-05, 2.9336528314161114e-05, -6.845471216365695e-05, -2.1756857677246444e-05, -2.033555574598722e-05, 8.528880425728858e-05, 0.00012125294597353786, 3.848705091513693e-06, 6.466758350143209e-05, 0.00016038883768487722, -4.835371146327816e-05, -2.4759656298556365e-05, 3.33648786181584e-05, 8.732378046261147e-05, 9.111949475482106e-05, -0.0044178226962685585, 1.2598834473465104e-05, 3.6917856050422415e-05, -0.00018791278125718236, -0.00013801708701066673, 6.120984608060098e-07, 0.0011131977662444115, -5.7451332395430654e-05, 6.269481673371047e-05, 4.541501039057039e-05, 4.138987151236506e-06], [7.481894863303751e-05, -2.5357088816235773e-05, -2.6523042834014632e-05, 2.5300692868768238e-05, -1.5762911061756313e-05, -5.435822458821349e-05, -1.09283319034148e-05, -1.2186334060970694e-05, -3.597083923523314e-05, -9.022948006531806e-07, 1.1882530998263974e-05, 5.028166560805403e-05, 8.393276220886037e-05, 3.0287787922134157e-06, -4.673539660871029e-05, 2.2900514522916637e-05, -0.00010897787433350459, -4.8641486500855535e-05, 5.373860403778963e-05, 9.683954704087228e-05, 0.00024352669424843043, 0.0007646519225090742, 2.072050301649142e-05, 8.421301754424348e-05, -1.9578354113036767e-05, 8.25372917461209e-05, -5.028066152590327e-05, -0.0006987521192058921, -7.668649777770042e-05, 6.14897653576918e-05, 5.523415529751219e-05, 3.959445166401565e-05], [4.08622290706262e-05, 2.0303659766796045e-05, 3.385695526958443e-05, -1.8245000319438986e-05, 1.2290833183215e-05, 1.72050222317921e-05, -4.6265737182693556e-05, -3.807337998296134e-05, 8.739398253965192e-06, 2.7583580958889797e-05, -2.2931973944650963e-05, -1.0069507879961748e-05, 5.0955990445800126e-05, -2.206299723184202e-05, -0.00010155843483516946, -1.1253993761783931e-05, -4.2403658881084993e-05, -2.5929013645509258e-05, 2.1047413611086085e-05, -2.094715273415204e-05, 0.0001221604470629245, -0.00023032285389490426, 3.1363080779556185e-05, 1.1980560884694569e-05, 6.168605523271253e-06, -0.00026411033468320966, 6.884727099532029e-06, 5.5740285461070016e-05, 2.7878168111783452e-06, -4.364344022178557e-06, 3.603306322474964e-05, 2.8971562642254867e-05], [0.0003894318360835314, 6.066925197956152e-05, 0.00022116673062555492, -0.0002947156026493758, 7.27067090338096e-05, 0.0001966331183211878, -0.00033994848490692675, -0.00045623831101693213, -8.759859338169917e-05, 0.00023087325098458678, -0.00019415872520767152, 0.00013173221668694168, 0.0005956402746960521, -0.00026261748280376196, -0.0002757592301350087, 0.0001429346011718735, -0.0002530136553104967, -0.00013673267676495016, 0.000256441708188504, -7.074902532622218e-05, 0.0007737132837064564, 0.00020567198225762695, 0.00025943267974071205, 0.00014584712334908545, -0.0001403000351274386, -0.0005784579552710056, -2.8233067496330477e-05, 0.0007990680751390755, -0.00014673189434688538, -6.317748920992017e-05, 0.0003390074416529387, 0.00021341665706131607], [8.45639078761451e-05, -0.00035178568214178085, 8.51993490869063e-07, -6.26981709501706e-05, -0.0001575872302055359, 4.876225284533575e-05, -8.991254435386509e-05, -0.00011014749179594219, -0.00040117729804478586, 8.13423866929952e-06, 7.488996925530955e-05, 0.0004352389951236546, 0.00012318661902099848, -7.095900946296751e-05, -5.069089820608497e-05, 0.0006333715282380581, -8.307518874062225e-05, 7.019811891950667e-05, 0.0002689370885491371, -5.289493128657341e-05, 0.00011760010238504037, -0.00767508614808321, 0.00016015765140764415, 3.973268758272752e-05, -0.0006405154708772898, 5.936146408203058e-05, -3.545769868651405e-05, 0.00043336115777492523, -0.000360986334271729, -6.778055103495717e-05, 1.5979660020093434e-05, -0.00016690169286448509], [0.0004063154337927699, -1.5411114873131737e-06, -0.00023542980488855392, 6.33663366897963e-05, -0.00010864625073736534, -0.00014697217557113618, 0.00020129299082327634, 4.864132642978802e-05, 1.2007932127744425e-05, 4.5233744458528236e-05, 6.44149913568981e-05, 6.200843199621886e-05, 0.0003134310245513916, 5.7825262047117576e-05, 0.0001408574462402612, -6.895942988194292e-06, -0.00021308007126208395, -0.00016238927491940558, -8.71057782205753e-05, 0.0005063303979113698, 0.0005570201901718974, 0.00033227246603928506, -0.00014250697859097272, 0.00022907064703758806, 0.0001573286863276735, -0.0016212293412536383, -0.0003545476065482944, -0.0006951461546123028, -4.270020508556627e-05, 0.00011893226474057883, 6.854835373815149e-05, 0.00010284094605594873], [5.2810402848990634e-05, 2.6052415705635212e-05, -6.128276436356828e-05, 2.5911873308359645e-05, -1.3555875739257317e-05, -7.174990605562925e-05, 4.875132071902044e-05, 4.479376002564095e-05, 2.3439733922714368e-05, 3.0395725843845867e-05, -7.86089640314458e-06, -1.026439895213116e-05, 0.00011147840996272862, 9.828831025515683e-06, 4.31835615017917e-05, -2.3242375391419046e-05, -0.0001118363652494736, -5.368397614802234e-05, -5.099931513541378e-05, 0.0002124052116414532, 0.0001303608005400747, -0.0019648149609565735, -7.707130134804174e-05, 0.00011628685751929879, 7.280498539330438e-05, -0.0021331729367375374, -0.0001283069868804887, 0.00017407980340067297, 1.8325323253520764e-05, 5.031139517086558e-05, 2.793012208712753e-05, 4.223771975375712e-05], [0.0001385263167321682, 2.4165756258298643e-05, 3.7005243939347565e-05, -5.370367034629453e-06, -3.8123553167679347e-06, -3.844996899715625e-05, -7.496563921449706e-05, -1.903610427689273e-05, 1.2587570097366552e-07, 0.00014383050438482314, -2.5323246518382803e-05, 5.184340352570871e-06, 0.0002470454201102257, -7.727117917966098e-05, -0.00011294197611277923, -1.9520446585374884e-05, -9.093228436540812e-05, -7.560324593214318e-05, 2.0204770407872275e-05, -1.621400224394165e-05, 0.0002434297202853486, -0.0026490783784538507, 3.1743263662065146e-06, 5.613027678919025e-05, 7.450990779034328e-06, 0.0002945270389318466, -4.168248051428236e-05, -4.454120426089503e-05, -1.4630929399572778e-05, 5.061826959718019e-05, 7.87575772847049e-05, 5.9891539422096685e-05], [0.0011813577730208635, 4.439562326297164e-05, -0.00010022997594205663, 1.4984799236117397e-05, -0.00013336366100702435, -0.0003699224325828254, -5.751911521656439e-05, -0.00014947840827517211, -2.0706904251710512e-05, 0.0002349042915739119, -4.951338269165717e-05, 0.0001786588691174984, 0.0007620386895723641, -5.631081876344979e-05, -0.0001154373530880548, 2.9125561923137866e-05, -0.0007377045112662017, -0.00046156495227478445, 4.1914528992492706e-05, 0.0005519036785699427, 0.0014963411958888173, 9.610193956177682e-05, -0.00018255325267091393, 0.0006922330358065665, 0.00014540819393005222, -0.0014408017741516232, -0.0004903200315311551, 0.0005486813606694341, -0.0002732499851845205, 0.0002799364738166332, 0.00035180270788259804, 0.0002918164827860892], [0.00016427833179477602, 2.9303440896910615e-05, -0.00015045671898406, 0.00022577769414056093, -6.611798016820103e-05, -0.000266193354036659, 0.00017216388368979096, 6.952659896342084e-05, 1.833815622376278e-05, 5.4457312216982245e-05, -3.990779532614397e-06, 2.09297922992846e-05, 0.0005893372581340373, 8.53462188388221e-05, 0.0002117380645358935, -4.45620171376504e-05, -0.0005905074067413807, -0.00015778768283780664, -0.00011953167268075049, 0.0005931375781074166, 0.0003009032807312906, 0.000843962887302041, -0.00021254563762340695, 0.0006036341073922813, 0.00018899718998000026, -0.0019344346364960074, -0.0003647817939054221, -0.0005561176221817732, 1.1981373063463252e-05, 0.00025872481637634337, 7.675719098187983e-05, 0.00011795304453698918], [0.018049873411655426, 0.016037439927458763, -0.000746044039260596, 0.012076403014361858, -0.0006559349130839109, -0.01747310906648636, 0.0037797940894961357, 0.006188756320625544, 0.009843090549111366, -0.008533010259270668, -0.0006827875622548163, 0.004559606313705444, 0.04683515056967735, 0.009839693084359169, -0.015794387087225914, -0.03551806882023811, -0.022857913747429848, -0.01782946288585663, -0.0009361241827718914, 0.010998683981597424, 0.02337195724248886, 0.4297020733356476, -0.00994570180773735, 0.018232516944408417, 0.015495890751481056, 0.09967467188835144, -0.017084751278162003, 0.817468523979187, -0.007089871913194656, 0.024823738262057304, 0.001186590874567628, 0.011685432866215706], [0.00022246474691201001, 6.299628148553893e-05, 6.028802818036638e-05, 2.2262563561525894e-06, 5.602635155810276e-07, -6.918870349181816e-05, -0.00022171872842591256, -1.4139175618765876e-05, 2.3456204871763475e-05, 0.00016379360749851912, -8.90309238457121e-05, 2.7483511075843126e-06, 0.0004386379150673747, -0.000111926652607508, -0.0001851138804340735, -4.361215906101279e-05, -0.00015515153063461185, -0.00013190836762078106, -3.937408109777607e-06, 0.00015397924289572984, 0.00038677992415614426, -0.003557009855285287, -3.514754644129425e-05, 0.00012389128096401691, 4.822507980861701e-05, -0.0006384265725500882, -0.00016559514915570617, -0.00034276500809937716, -1.2283217074582353e-05, 7.58613387006335e-05, 0.00022447072842624038, 0.0001335271226707846], [0.0004378040903247893, 1.1554408956726547e-05, -0.00016911071725189686, 5.722083005821332e-05, -5.915570363868028e-05, -0.00016770922229625285, 9.295809286413714e-05, 3.236344855395146e-05, 7.874772563809529e-06, 7.439650653395802e-05, 6.297752861428307e-06, 5.711260382668115e-05, 0.0003071571118198335, 2.093983130180277e-05, 0.00010758190910564736, -1.623641946935095e-05, -0.0002523604780435562, -0.00020213449897710234, -6.634959572693333e-05, 0.0005468733725138009, 0.000727278005797416, 0.00026839159545488656, -0.0001482657389715314, 0.00022276665549725294, 0.00012004139716736972, -0.0016738413833081722, -0.0002788175770547241, -0.0008670690003782511, -5.586402039625682e-05, 0.0001447530958103016, 0.00011136581451864913, 0.00012011529179289937], [0.0002026566071435809, -0.00038184376899152994, -6.631776341237128e-05, -6.783876597182825e-05, -0.0001933845051098615, 3.87823092751205e-05, -5.190777301322669e-05, -0.00015684906975366175, -0.0004250086785759777, 2.9624578019138426e-05, 0.0001124844275182113, 0.0004551089368760586, 0.00026650921790860593, -6.638609193032607e-05, -0.00010203145939158276, 0.0005997866974212229, -0.00017949167522601783, 5.3541865781880915e-05, 0.00029530818574130535, 2.4833070710883476e-05, 0.00032396751339547336, -0.004386956337839365, 0.00017719014431349933, 7.937654299894348e-05, -0.0005735273589380085, -0.00048641959438100457, -8.37536426843144e-05, -0.0010460418416187167, -0.00039375093183480203, -3.317865412100218e-05, -7.358390121225966e-06, -0.00019059664919041097], [0.005083299241960049, -0.0053395843133330345, -0.013540703803300858, 0.0017256999853998423, -0.015880798920989037, 0.007308215834200382, 0.0019452190026640892, -0.0058799986727535725, -0.008910808712244034, 0.016898728907108307, 0.005304962862282991, 0.009764699265360832, 0.013169906102120876, 0.0008261635084636509, 0.0023077705409377813, 0.01744101569056511, 0.010823981836438179, -0.006429797969758511, 0.011282863095402718, 0.013622235506772995, 0.002272147685289383, 0.5167997479438782, 0.012562614865601063, -0.013612023554742336, -0.017167378216981888, 0.22900837659835815, -0.00985004659742117, -0.08444556593894958, -0.009293165989220142, 0.012320558540523052, -0.002808560151606798, -0.0014886838616803288], [0.0004560616798698902, 2.988396408909466e-05, -2.925080480054021e-05, 1.6092648365884088e-05, -3.7090960631758207e-06, -0.00014005669800098985, -3.7622935451508965e-06, -1.4127592748991447e-06, 1.765011802490335e-05, 5.455856444314122e-05, -1.8960688976221718e-05, -8.765881830186117e-06, 0.00013468705583363771, -8.43989801069256e-06, 9.364262950839475e-06, -2.5056990125449374e-05, -0.00030316037009470165, -0.00017971477063838392, -1.5472602171939798e-05, 0.0002213308325735852, 0.0005898803938180208, -0.0002905235451180488, -7.952815940370783e-05, 0.00020645061158575118, 4.1522271203575656e-05, -0.0003294197958894074, -6.45349791739136e-05, 0.0003911641542799771, -7.966851626406424e-06, 7.127127901185304e-05, 5.379586582421325e-05, 5.574843817157671e-05], [-0.008276541717350483, -0.004900448489934206, -0.001159203820861876, -0.015881825238466263, 0.0043501099571585655, 0.006065011955797672, -0.0015409407205879688, -0.02471899800002575, -0.004465816076844931, 0.016868140548467636, 0.0023337886668741703, 0.0018649973208084702, 0.0042886133305728436, -0.016630839556455612, 0.01126974169164896, 0.0038407074753195047, 0.004015080165117979, 0.022572321817278862, 0.014434629119932652, -0.0008868303266353905, -0.0033021667040884495, -0.24587057530879974, 0.014588647522032261, -0.004002606030553579, -0.005057856440544128, -0.17733801901340485, 0.007424810901284218, 0.23930692672729492, -0.004468397703021765, -0.010220425203442574, 3.2669209758751094e-05, -0.0017328823450952768], [7.788065704517066e-05, -5.462393346533645e-06, -3.645360266091302e-05, 6.0176495026098564e-05, -1.655268306421931e-06, -5.5905678891576827e-05, 3.2338844903279096e-05, 3.215177639503963e-05, -2.156862865376752e-05, -2.378517820034176e-05, 3.6490782804321498e-06, 3.8002599467290565e-05, 0.00018331717001274228, 2.26132724492345e-05, 4.860375338466838e-05, 6.299183587543666e-05, -4.310894655645825e-05, -2.064548243652098e-05, 2.8787830160581507e-05, 9.972418774850667e-05, 9.285035775974393e-05, -0.0036051953211426735, 1.3004584616282955e-05, 2.884945206460543e-05, -9.707372373668477e-05, -8.898138185031712e-05, -4.160254684393294e-05, 0.0010189019376412034, -4.567528594634496e-05, 7.842191553208977e-05, 1.0301354450348299e-05, 1.5466932381968945e-05], [4.238162364345044e-05, 4.361964329291368e-06, -1.7816590116126463e-05, 7.593380360049196e-06, -1.2811249689548276e-05, -2.1685809770133346e-05, 8.99697988643311e-06, 7.477548479073448e-06, 4.350837116362527e-06, 1.4106606158748036e-06, 1.9411529592616716e-06, -2.1521400412893854e-06, 4.4686450564768165e-05, 5.80308278586017e-06, 7.16692375135608e-06, -1.1844924301840365e-05, -4.087840352440253e-05, -3.484561966615729e-05, -1.5455481843673624e-05, 5.496404264704324e-05, 6.467222556238994e-05, -0.0005543941515497863, -2.8755936000379734e-05, 3.830722198472358e-05, 2.1500911316252314e-05, -0.0012327191652730107, -2.6499736122787e-05, -0.0012707358691841364, 1.3045288369539776e-06, 1.7579477571416646e-05, 8.801815056358464e-06, 1.2899359717266634e-05], [8.716223965166137e-05, 3.772748095798306e-05, 5.945965676801279e-05, -8.33213489386253e-05, 2.6909592634183355e-05, 9.632732690079138e-05, -7.289901986951008e-05, -0.00016572147433180362, 2.1573003323283046e-05, 7.29365783627145e-05, -4.224367148708552e-05, -2.4444660084554926e-05, 6.537917943205684e-05, -4.975300907972269e-05, -0.00017351587302982807, -1.7216765627381392e-05, -5.1516257371986285e-05, -2.0310713807702996e-05, 4.022846769657917e-05, -7.826662476873025e-05, 0.00020119454711675644, -3.3735177566995844e-05, 9.01349339983426e-05, -1.5758976132929092e-06, 9.948838851414621e-06, -3.1044091883813962e-06, 2.209799458796624e-05, 0.0005958537803962827, 9.517589205643162e-06, -3.6583191104000434e-05, 5.0750430091284215e-05, 4.2335770558565855e-05], [6.356657831929624e-05, -2.5457866286160424e-06, 3.43914216500707e-05, -2.5228950107702985e-05, 9.033280548464973e-06, 2.0657505956478417e-05, -3.4769946068990976e-05, -5.7542623835615814e-05, -6.37361017652438e-06, 3.4464515920262784e-05, -2.7557174689718522e-05, 1.6464611690025777e-05, 4.618303137249313e-05, -1.6573478205827996e-05, -5.661996692651883e-05, 4.7605590225430205e-05, -4.3381260184105486e-05, -2.7727688575396314e-05, 5.673965119967761e-07, 2.951275291707134e-06, 0.00012292872997932136, -0.0008077910752035677, 1.3376511560636573e-05, 1.9477580281090923e-05, -4.3788579205283895e-05, -0.000349817710230127, 9.747814146976452e-06, 0.0014467739965766668, -1.638177877794078e-07, 4.865768801209924e-07, 3.748508243006654e-05, 2.090591260639485e-05], [5.770928055426339e-06, 3.033252687600907e-05, -5.2772011258639395e-05, 1.5815779761396698e-06, 3.0797828003414907e-06, -3.699897933984175e-05, 2.2875432478031144e-05, 3.39175239787437e-05, 3.8469574064947665e-05, 3.294486305094324e-05, -1.4136496247374453e-05, -2.3698290533502586e-05, -3.5907065466744825e-05, 3.7204254113021307e-06, 4.348626680439338e-05, -3.655127511592582e-05, -0.00023523488198406994, -4.2226205550832674e-05, -6.915454287081957e-05, 0.00017633583047427237, 6.920482701389119e-05, 2.7385418434278108e-05, -9.3382470367942e-05, 0.00013188295997679234, 0.00010272192594129592, -0.000805188319645822, -0.00012937861902173609, -0.0002232159167760983, 4.015229569631629e-05, 8.020448149181902e-05, 2.8238746381248347e-05, 4.251173959346488e-05], [6.007351112202741e-05, -4.95143722218927e-05, 3.866015322273597e-05, 1.5534540580119938e-05, -7.763417670503259e-06, -1.8784110579872504e-05, -3.52119495801162e-05, -2.6381439965916798e-06, -5.4935768275754526e-05, 2.6797549708135193e-06, -1.9601375242928043e-05, 7.325518527068198e-05, 8.929815521696582e-05, -6.160546490718843e-06, 1.0792175089591183e-05, 0.000133235240355134, -3.915455818059854e-05, -3.187164475093596e-05, 1.3073644367977977e-05, 4.875383456237614e-05, 8.682477346155792e-05, -0.002299396088346839, 1.5863746511968202e-06, 3.1746618333272636e-05, -0.00013424083590507507, -0.00036804244155064225, 6.906024736963445e-06, 0.0017627752386033535, -3.774672222789377e-05, 4.016255843453109e-05, 4.2690098780440167e-05, 1.5384787275252165e-06], [0.0003658462956082076, 2.2873915440868586e-05, 6.145541556179523e-05, -0.00012530585809145123, 4.300537057133624e-06, 1.871096173999831e-05, -0.0001405419607181102, -0.0002529670891817659, -2.7917649276787415e-05, 0.00012315747153479606, -6.881083390908316e-05, 4.634931974578649e-05, 0.0002325669047422707, -0.00010484556696610525, -0.0002673118142411113, 1.8742642851066194e-06, -0.00034042567131109536, -0.000153748580487445, 0.00011591586371650919, 8.66247428348288e-05, 0.0006224196986295283, -0.0007561618112958968, 0.00010188823944190517, 0.00021402021229732782, 9.562713785271626e-06, 5.01235990668647e-05, -6.331668555503711e-05, 0.00035572360502555966, -8.725614316063002e-05, 3.11591247736942e-05, 0.00016695863450877368, 0.00011720915790647268], [1.4237922187021468e-05, 2.823125760187395e-05, 8.936983249441255e-06, -3.558683374649263e-06, 6.652986940025585e-06, -7.732657536507759e-07, -8.007779797480907e-06, -8.732536116440315e-06, 2.3509408492827788e-05, 5.9422682170406915e-06, -1.2050188161083497e-05, -2.1262483642203733e-05, 1.4700452993565705e-05, -1.352678850707889e-06, -1.8480381186236627e-05, -2.094534102070611e-05, -1.2481972589739598e-05, -2.530990241211839e-05, -1.0919021406152751e-05, 1.1836194971692748e-05, 1.1370055290171877e-05, -0.0022974233143031597, -6.720205874444218e-06, 6.354573997668922e-06, 1.0996325727319345e-05, -0.001152791897766292, 1.0024436960520688e-06, -0.0003308974555693567, 1.6822643374325708e-05, 5.3837106861465145e-06, 9.984751159208827e-06, 2.524731826269999e-05], [3.9974107494344935e-05, 8.590483957959805e-06, 1.3551979463954922e-05, -5.0598323468875606e-06, 1.089108354790369e-05, -6.763169949408621e-06, -1.4657074643764645e-05, -2.5132250812021084e-05, 4.268028078513453e-06, 1.9169947336195037e-05, -2.048642454610672e-05, 6.444889066870019e-08, 5.102014256408438e-05, -6.52259768685326e-06, -1.8374421415501274e-05, 2.8620126613532193e-05, -5.772174699814059e-05, -2.3982331185834482e-05, -2.604088194857468e-06, 3.0350292945513502e-05, 0.00012963479093741626, -0.0008304910734295845, 7.103700681909686e-06, 2.316552672709804e-05, -3.3413183700758964e-05, 0.00011168931814609095, 4.452071607374819e-06, 0.0006880782311782241, 1.056963355949847e-05, 1.3575046068581287e-05, 2.4792419935693033e-05, 1.980973502213601e-05], [0.00010410670802230015, 6.213552842382342e-05, 5.568693268287461e-06, 7.364835710177431e-06, -1.2505466884249472e-06, -4.352027099230327e-05, -7.050579006318003e-05, 2.1762039068562444e-06, 4.2122330341953784e-05, 5.6462482461938635e-05, -4.7256100515369326e-05, -1.9251736375736073e-05, 0.00015084771439433098, -2.7632657292997465e-05, -0.000100967641628813, -4.665933738579042e-05, -0.00012041110312566161, -9.906350896926597e-05, -3.2499738154001534e-05, 0.00021704814571421593, 0.0002725458762142807, -0.0023716255091130733, -5.0064336392097175e-05, 0.00010866625234484673, 8.570912177674472e-05, -0.0017987070605158806, -0.00015113214612938464, -0.0002530731726437807, 1.7036456483765505e-05, 4.189309765934013e-05, 0.00014624305185861886, 0.00010830599057953805], [0.00031057558953762054, 4.754832116304897e-05, 0.0001414596918039024, -0.00017580839630682021, 3.1640782253816724e-05, 0.00011965574230998755, -0.00019436712318565696, -0.00036284426460042596, -1.0721528269641567e-05, 0.00018526379426475614, -0.00010097873018821701, 2.1649053451255895e-05, 0.0003857844858430326, -0.00013558812497649342, -0.00033202068880200386, -1.0304553143214434e-05, -0.0002657660807017237, -0.00013920009951107204, 0.00014309871767181903, -3.625379395089112e-05, 0.0006814023945480585, -0.00028381875017657876, 0.00018724121036939323, 0.0001245290186489001, 7.865926818340085e-06, -9.782068082131445e-05, -1.3001666047784965e-05, 0.00028929245308972895, -6.702407699776813e-05, -2.025486719503533e-05, 0.00018038717098534107, 0.00011930413165828213], [6.743810081388801e-05, 4.550754601950757e-05, 6.07293113716878e-05, -5.769929884991143e-07, 2.9522780096158385e-05, 1.01417635960388e-05, -0.00011788653500843793, -3.807800021604635e-05, 2.2331145373755135e-05, 2.883419620047789e-05, -5.2700223022839054e-05, -1.8242839360027574e-05, 0.00011739048204617575, -2.899052924476564e-05, -8.319208427565172e-05, -1.9234992578276433e-05, -4.791118044522591e-05, -3.173145159962587e-05, 1.8034812455880456e-05, -3.354053114890121e-05, 9.685030818218365e-05, -0.0051068528555333614, 2.589493124105502e-05, 2.158034112653695e-05, 8.433508469352091e-08, -0.0015125060454010963, 2.1523185296246083e-06, 0.0004063703818246722, 5.813317784486571e-06, 2.1362962797866203e-05, 7.982623355928808e-05, 6.668744754279032e-05], [4.6481305616907775e-05, -9.159775072475895e-05, 3.485078559606336e-05, 2.536066858738195e-05, -3.178290353389457e-05, -2.3267328288056888e-05, -3.621482755988836e-05, 1.622399031475652e-05, -0.00010148625733563676, -1.4118984836386517e-05, 4.313185854698531e-06, 0.0001218902034452185, 5.686225995304994e-05, -6.728342214046279e-06, 2.786987170111388e-05, 0.0002040715771727264, -2.732729808485601e-05, -2.1461914002429694e-05, 3.773057323996909e-05, 2.588789902802091e-05, 4.4566200813278556e-05, -0.0038257690612226725, 6.903251232870389e-06, 3.111752448603511e-05, -0.00021996557188685983, 0.00011836489284178242, 4.581610255627311e-07, 0.0012917290441691875, -8.31239449325949e-05, 3.03614233416738e-05, 2.7424128347774968e-05, -2.7149390007252805e-05], [6.677034434687812e-06, 9.944269550032914e-06, 1.872380198619794e-05, 9.080591780730174e-07, 6.1089976952644065e-06, 1.148045498666761e-06, -2.9387965696514584e-05, -1.9191318187949946e-06, -7.910270142019726e-06, 1.3895978554501198e-06, -1.1912772606592625e-05, -2.136036073352443e-06, 7.858535354898777e-06, -7.088824986567488e-06, -3.991908670286648e-05, -1.1788254596467596e-05, 4.268523298378568e-06, -1.0290877980878577e-06, 1.7740116163622588e-05, -2.4116152417263947e-05, 1.5799718312337063e-05, -0.0006459326250478625, 1.5544495909125544e-05, -1.168374001281336e-05, 2.1757480226369807e-06, -0.000310170667944476, 9.303361366619356e-06, 0.0005610107909888029, -4.5093256630934775e-06, -5.349081106942322e-07, 1.9025119399884716e-05, 1.3363127436605282e-05], [3.926022691302933e-05, 2.995726390508935e-05, 2.6868670829571784e-05, -3.284780541434884e-05, 1.9291221178718843e-05, 1.8736747733782977e-05, -4.1301864257548004e-05, -7.282262231456116e-05, 1.4717565136379562e-05, 4.303023524698801e-05, -3.108365854131989e-05, -1.5172138773777988e-05, 7.734110113233328e-05, -2.6595349481794983e-05, -8.815481123747304e-05, -6.460361419158289e-06, -7.722683949396014e-05, -3.049414044653531e-05, 2.5750061467988417e-05, 1.183810695692955e-06, 0.00018428936891723424, -0.0003412662772461772, 4.045336027047597e-05, 2.9956770958960988e-05, -1.0381797892478062e-06, 0.00015563220949843526, -9.383698511555849e-07, 0.0008821187075227499, 2.924669161075144e-06, 1.966824129340239e-06, 4.209982216707431e-05, 3.784001091844402e-05], [7.042515062494203e-05, -4.81278111692518e-05, 2.41080233536195e-05, 5.0375198043184355e-05, -3.941665909223957e-06, -5.194281038711779e-05, -1.980190609174315e-05, 3.070569800911471e-05, -6.631529686274007e-05, -2.1383961211540736e-05, -1.9362047169124708e-05, 8.256133151007816e-05, 0.00011577313853194937, 3.613634817156708e-06, 6.23807281954214e-05, 0.00015553140838164836, -4.55078152299393e-05, -2.3563703507534228e-05, 3.119988105027005e-05, 8.373618038604036e-05, 8.454437192995101e-05, -0.004278096836060286, 1.125255130318692e-05, 3.4530712582636625e-05, -0.00018162404012400657, -0.00019082354265265167, 1.3044324305155897e-06, 0.0011348132975399494, -5.475507350638509e-05, 6.1229889979586e-05, 4.31558582931757e-05, 3.132873871436459e-06], [7.2598057158757e-05, -2.479352588125039e-05, -2.3133134163799696e-05, 2.431625580356922e-05, -1.578175761096645e-05, -5.236480865278281e-05, -1.2557108675537165e-05, -1.4068832570046652e-05, -3.6009016184834763e-05, -4.091253686056007e-06, 1.1439439731475431e-05, 4.1961415263358504e-05, 7.210870535345748e-05, 2.6081640953634633e-06, -4.288782656658441e-05, 2.4348233637283556e-05, -0.0001079975045286119, -4.653696669265628e-05, 5.436580249806866e-05, 8.577939297538251e-05, 0.00022230957983992994, 0.0007106296834535897, 2.221564318460878e-05, 8.357466867892072e-05, -2.235120155091863e-05, 0.00010666545131243765, -4.109088331460953e-05, -0.0006355538498610258, -7.585493585793301e-05, 5.811700248159468e-05, 5.640759991365485e-05, 3.920597009710036e-05], [4.543850081972778e-05, 1.9797447748715058e-05, 3.389061021152884e-05, -1.84359942068113e-05, 1.1942444871237967e-05, 1.6526848412468098e-05, -4.647420428227633e-05, -3.8599628169322386e-05, 8.243203410529532e-06, 2.863457120838575e-05, -2.321062311239075e-05, -8.696348231751472e-06, 5.3402254707179964e-05, -2.2527698092744686e-05, -0.00010128876601811498, -9.646536454965826e-06, -4.543025715975091e-05, -2.834382939909119e-05, 2.0752069758600555e-05, -1.8815177099895664e-05, 0.00012597927707247436, -0.00021943550382275134, 3.0407332815229893e-05, 1.4096061931923032e-05, 5.204410626902245e-06, -0.00028645191923715174, 5.9294916354701854e-06, 5.6099608627846465e-05, 1.729863242871943e-06, -3.71241480934259e-06, 3.702590402099304e-05, 2.979423152282834e-05], [0.00040289750904776156, 6.163497891975567e-05, 0.00021862334688194096, -0.00029235027614049613, 7.429964898619801e-05, 0.0001894386950880289, -0.0003390451893210411, -0.0004539800575003028, -8.65060937940143e-05, 0.00023242671159096062, -0.0001948902936419472, 0.00013230531476438046, 0.0006133693386800587, -0.000262781570199877, -0.0002758641785476357, 0.0001407247327733785, -0.0002633134718053043, -0.00014455268683377653, 0.00025470874970778823, -6.143346399767324e-05, 0.0007890660199336708, 0.0002041288826148957, 0.000255831255344674, 0.00015471005463041365, -0.00013872723502572626, -0.0006096252473071218, -3.754017598112114e-05, 0.0008298555621877313, -0.0001482412772020325, -5.649051672662608e-05, 0.0003425907634664327, 0.00021814920182805508], [7.803941116435453e-05, -0.00034996707108803093, -1.1097334208898246e-05, -6.86105340719223e-05, -0.0001607521844562143, 5.061484262114391e-05, -8.083901047939435e-05, -0.00010895486047957093, -0.0003981070767622441, 1.1346422070346307e-05, 7.8817545727361e-05, 0.0004290552460588515, 0.00011818529310403392, -7.105449185473844e-05, -5.776146281277761e-05, 0.0006180444033816457, -7.75316875660792e-05, 7.391337567241862e-05, 0.000272262841463089, -5.646749559673481e-05, 0.00010886391828535125, -0.007345834281295538, 0.00016416460857726634, 3.064755946979858e-05, -0.0006223312811926007, -5.509695620276034e-05, -3.7682581023545936e-05, 0.0005196657730266452, -0.0003582864301279187, -6.793155625928193e-05, 7.653245120309293e-06, -0.00017089441826101393], [0.00040578871266916394, -3.8374361110982136e-07, -0.00023465049162041396, 6.489159568445757e-05, -0.00011264115164522082, -0.00014681601896882057, 0.0002023353154072538, 5.081561175757088e-05, 1.3293310985318385e-05, 4.3801850551972166e-05, 6.841745926067233e-05, 5.993370359647088e-05, 0.00032510102028027177, 5.9643560234690085e-05, 0.00014201895100995898, -8.843383511702996e-06, -0.00021287087292876095, -0.00016160130326170474, -8.730618719710037e-05, 0.0005049864412285388, 0.0005495701916515827, 0.0003430914075579494, -0.00014150727656669915, 0.0002300761261722073, 0.00015717727364972234, -0.0016512422589585185, -0.00035215006209909916, -0.0006917754653841257, -4.1012815927388147e-05, 0.00011967215687036514, 6.617659528274089e-05, 0.00010181603283854201], [5.2710278396261856e-05, 2.5425733838346787e-05, -5.980047717457637e-05, 2.6262378014507703e-05, -1.4793370610277634e-05, -7.100224320311099e-05, 5.046477235737257e-05, 4.4807762606069446e-05, 2.3235679691424593e-05, 2.8290858608670533e-05, -5.972363396722358e-06, -1.064105163095519e-05, 0.00010520299838390201, 1.1917788469872903e-05, 4.510831422521733e-05, -2.248103373858612e-05, -0.00010673294309526682, -5.231656177784316e-05, -5.049684477853589e-05, 0.00020811027206946164, 0.0001232298236573115, -0.0019405572675168514, -7.53766144043766e-05, 0.0001123181646107696, 7.150913734221831e-05, -0.002143980236724019, -0.00012488772335927933, 0.00020130585471633822, 1.8450766219757497e-05, 4.885223097517155e-05, 2.5497598471702076e-05, 4.061453364556655e-05], [0.0001323823380516842, 2.1037974875071086e-05, 3.610975545598194e-05, -3.228937885069172e-06, -3.108673126916983e-06, -3.7283884012140334e-05, -7.070006540743634e-05, -1.7445536286686547e-05, -1.7104418930102838e-06, 0.0001386715448461473, -2.4867578758858144e-05, 8.872421858541202e-06, 0.00023690077068749815, -7.569069566670805e-05, -0.00010494032176211476, -1.4665783965028822e-05, -8.756392344366759e-05, -7.141194510040805e-05, 2.128212872776203e-05, -2.1444922822411172e-05, 0.00022927866666577756, -0.0026074929628521204, 4.827184511668747e-06, 5.3821040637558326e-05, 2.826487389029353e-06, 0.00022962543880566955, -3.9183676562970504e-05, 4.4794916902901605e-05, -1.7655635019764304e-05, 4.9365458835382015e-05, 7.570305751869455e-05, 5.77631508349441e-05], [0.0012074373662471771, 4.7726214688736945e-05, -9.838413097895682e-05, 1.637962668610271e-05, -0.00013349101936910301, -0.0003824120503850281, -5.934305227128789e-05, -0.0001486550463596359, -2.0135137674515136e-05, 0.0002354269236093387, -5.223583139013499e-05, 0.0001803073100745678, 0.0007558272336609662, -5.8863450249191374e-05, -0.00011781290959334001, 2.8896725780214183e-05, -0.0007495319587178528, -0.000473432126455009, 3.929579906980507e-05, 0.000562461675144732, 0.0015171252889558673, 0.00011786510731326416, -0.00018688931595534086, 0.0006994829745963216, 0.00014504551654681563, -0.0015679303323850036, -0.0004877041792497039, 0.0005950251361355186, -0.00027310510631650686, 0.0002912157797254622, 0.0003584676596801728, 0.00030082775629125535], [0.00016372406389564276, 2.9419459679047577e-05, -0.0001478888443671167, 0.00023690106172580272, -7.014439324848354e-05, -0.0002681491314433515, 0.00017399129865225405, 6.832221697550267e-05, 1.745567897160072e-05, 5.501405757968314e-05, -2.233209670521319e-06, 2.1281392037053593e-05, 0.000587792950682342, 9.048477659234777e-05, 0.0002092479116981849, -4.420111872605048e-05, -0.0005993977538309991, -0.0001569434389239177, -0.00011875636118929833, 0.0005996031686663628, 0.0002935886150225997, 0.0008385046967305243, -0.00021018100960645825, 0.0006131598493084311, 0.0001891682477435097, -0.0019681339617818594, -0.00036650002584792674, -0.0005455888458527625, 1.2269365470274352e-05, 0.00026218610582873225, 7.601536344736814e-05, 0.00011825143883470446], [0.003931383602321148, -0.004576010163873434, -0.00863350834697485, -0.013744382187724113, -0.010341156274080276, 0.004814093932509422, 0.004934586584568024, -0.018003012984991074, -0.004031884018331766, 0.007894352078437805, 0.007503253407776356, 0.016780048608779907, 0.032902203500270844, -0.008930805139243603, 0.00092165736714378, -0.00914700049906969, 0.0018230353016406298, 0.0046710362657904625, 0.014862562529742718, 0.015687359496951103, 0.006462352816015482, 0.4720735251903534, 0.008895103819668293, -0.007491021417081356, -0.00515013886615634, 0.025445710867643356, -0.009914315305650234, 0.762749195098877, -0.01584777794778347, 0.0005564062739722431, -0.0050530643202364445, -5.9486159443622455e-05], [0.0002183090546168387, 5.695884465239942e-05, 5.614462133962661e-05, 3.5857372040482005e-06, 6.067820095267962e-07, -6.508648948511109e-05, -0.0002122633159160614, -1.7765278244041838e-05, 1.937205161084421e-05, 0.0001589987223269418, -8.602240995969623e-05, 8.256235560111236e-06, 0.0004314834950491786, -0.00010848596139112487, -0.00017253962869290262, -3.5397686588112265e-05, -0.000152172680827789, -0.0001247182080987841, 1.061155785464507e-06, 0.00014885592099744827, 0.00037442086613737047, -0.0035081871319562197, -2.940062950074207e-05, 0.00012139841419411823, 4.0951446862891316e-05, -0.0007532435120083392, -0.0001590696192579344, -0.0001616480149095878, -1.780035745468922e-05, 7.44705248507671e-05, 0.00021463207667693496, 0.0001289912615902722], [0.000448935927124694, 1.1863606232509483e-05, -0.00017321656923741102, 6.159705662867054e-05, -6.24194581178017e-05, -0.00017351690621580929, 9.956119902199134e-05, 3.8408790715038776e-05, 8.549779522581957e-06, 7.155061030061916e-05, 1.0154014489671681e-05, 5.809509821119718e-05, 0.0003188182017765939, 2.5086150344577618e-05, 0.00011715621803887188, -1.4214312614058144e-05, -0.0002570663928054273, -0.000205157688469626, -6.922578904777765e-05, 0.0005569173372350633, 0.0007230495102703571, 0.0002898395759984851, -0.00015008416085038334, 0.00022610904125031084, 0.00011930049367947504, -0.0017298883758485317, -0.00028271685005165637, -0.0008695125579833984, -5.5075306590879336e-05, 0.00014904349518474191, 0.00010890962585108355, 0.00012088696530554444], [0.00018597311282064766, -0.0003701981040649116, -7.13276895112358e-05, -6.559629400726408e-05, -0.00019004303612746298, 3.865721737383865e-05, -4.5064247387927026e-05, -0.00014851112791802734, -0.00041176725062541664, 2.7167647203896195e-05, 0.00011117149551864713, 0.00043892706162296236, 0.00025162234669551253, -6.450775981647894e-05, -9.79956312221475e-05, 0.0005756749305874109, -0.00016381940804421902, 5.600788426818326e-05, 0.00029032654128968716, 2.1318581275409088e-05, 0.0002950092894025147, -0.0041989050805568695, 0.00017553381621837616, 6.756617221981287e-05, -0.0005501206615008414, -0.0006577478488907218, -8.12876969575882e-05, -0.0009217237238772213, -0.00038118314114399254, -3.297103467048146e-05, -1.2475914445531089e-05, -0.00018799377721734345], [0.00874942447990179, 0.010859976522624493, 3.8016922189854085e-05, 0.012601877562701702, 0.00027525617042556405, -0.0054702493362128735, -0.0019875678699463606, 0.013547619804739952, -0.00030076722032390535, -0.005128352902829647, -0.002488711616024375, 0.005951177328824997, 0.01749752275645733, 0.008380431681871414, -0.00852221716195345, 0.002162952907383442, -0.007751883938908577, -0.01149697508662939, -0.0030872849747538567, -0.0022563959937542677, 0.011382333934307098, 0.02881835401058197, -0.004570967983454466, 0.005995648913085461, 0.0018331236205995083, 0.3195111155509949, -0.010518507100641727, 0.10657169669866562, -0.008366500027477741, 0.01518014632165432, 0.0050162989646196365, 0.007487779017537832], [0.00046596943866461515, 2.7650155971059576e-05, -2.9456025004037656e-05, 1.7961714547709562e-05, -5.259299086901592e-06, -0.00014477198419626802, -3.918044967576861e-06, 5.114166583553015e-07, 1.4956450286263134e-05, 5.492767013492994e-05, -1.8460634237271734e-05, -4.232071660226211e-06, 0.00013142317766323686, -8.692523806530517e-06, 8.778190931479912e-06, -2.14475530810887e-05, -0.00030766980489715934, -0.00018309385632164776, -1.4510612345475238e-05, 0.00022176689526531845, 0.0005899231182411313, -0.00028050364926457405, -8.110728958854452e-05, 0.0002096106909448281, 3.909645238309167e-05, -0.00036155886482447386, -6.667450361419469e-05, 0.0003938489535357803, -1.1996578905382194e-05, 7.443301001330838e-05, 5.5774249631213024e-05, 5.6823140766937286e-05], [-0.004781080409884453, 0.0007333825342357159, -0.002991229062899947, 0.0018746772548183799, -0.005945259239524603, 0.0021554434206336737, -0.0016881779301911592, -0.0014201364247128367, 0.0020263988990336657, 0.012085771188139915, 0.0009875240502879024, 0.0003433286619838327, -0.0077004749327898026, 0.00031578735797666013, -0.0019073429284617305, 0.008148844353854656, 0.007709338795393705, 0.0012568439124152064, 0.0014382431982085109, -0.00120883050840348, -0.010233390145003796, 0.47660571336746216, 0.002045136410742998, -0.005961822811514139, -0.002161020180210471, -0.04259208217263222, -0.00213340250775218, 0.6595838069915771, -0.002843564609065652, 0.0033745907712727785, -0.00202164426445961, -0.0014255995629355311], [7.1696937084198e-05, -4.899314717476955e-06, -3.644943353720009e-05, 5.9494464949239045e-05, -2.617935479065636e-06, -5.476387741509825e-05, 3.278094663983211e-05, 3.32297058776021e-05, -1.9957031327066943e-05, -2.4234004740719683e-05, 5.3627309171133675e-06, 3.5709959774976596e-05, 0.0001723474561003968, 2.271432640554849e-05, 4.610932228388265e-05, 5.861479075974785e-05, -3.852667214232497e-05, -1.91246836038772e-05, 2.6833396987058222e-05, 9.341894474346191e-05, 8.352441363967955e-05, -0.0035021735820919275, 1.2007425539195538e-05, 2.5779350835364312e-05, -9.262383537134156e-05, -0.00014739790640305728, -3.9682770875515416e-05, 0.0010494133457541466, -4.429940236150287e-05, 7.457935862476006e-05, 6.976611985010095e-06, 1.3214894352131523e-05], [3.876034315908328e-05, 9.902573765430134e-06, -1.8508262655814178e-05, 9.362878699903376e-06, -1.0770495464385021e-05, -2.2723073925590143e-05, 1.0071638826048002e-05, 1.0736897820606828e-05, 1.0738317541836295e-05, 6.713426614624041e-07, 2.2222344853162213e-07, -9.443644557904918e-06, 3.833934897556901e-05, 6.584630682482384e-06, 8.418430297751911e-06, -1.6866117221070454e-05, -3.727050352608785e-05, -3.642566662165336e-05, -2.0841862351517193e-05, 5.561542639043182e-05, 5.7170767831848934e-05, -0.0005490710027515888, -3.198558624717407e-05, 3.59280857082922e-05, 2.4945491531980224e-05, -0.0012620895868167281, -2.3433920432580635e-05, -0.001257043913938105, 8.961379535321612e-06, 1.713372694212012e-05, 7.507396730943583e-06, 1.4615490727010183e-05], [9.625305392546579e-05, 3.735833161044866e-05, 5.834672265336849e-05, -8.156017429428175e-05, 2.6472320314496756e-05, 9.381026029586792e-05, -7.178420491982251e-05, -0.00016571134619880468, 2.1510433725779876e-05, 7.387645018752664e-05, -4.2033942008856684e-05, -2.3856562620494515e-05, 6.91652821842581e-05, -4.905813329969533e-05, -0.00017322921485174447, -1.6429183233412914e-05, -5.6517819757573307e-05, -2.3703072656644508e-05, 3.864384052576497e-05, -7.415533036692068e-05, 0.00021566836221609265, -3.05200410366524e-05, 8.772483852226287e-05, 1.157619976766e-06, 9.73825626715552e-06, -1.1576514225453138e-05, 2.0919836970278993e-05, 0.000581817002967, 9.696402230474632e-06, -3.4611031878739595e-05, 5.086163218948059e-05, 4.264642848283984e-05], [6.619149644393474e-05, -3.70180350728333e-06, 3.4269422030774876e-05, -2.3664169930270873e-05, 7.854240720917005e-06, 1.9468552636681125e-05, -3.434593600104563e-05, -5.6397060689050704e-05, -7.059109975671163e-06, 3.380903945071623e-05, -2.6278628865838982e-05, 1.6959891581791453e-05, 4.567925134324469e-05, -1.6148322174558416e-05, -5.532051727641374e-05, 4.7322009777417406e-05, -4.3225121771683916e-05, -2.8204533009557053e-05, 7.213945707462699e-08, 3.7252843867463525e-06, 0.00012562541814986616, -0.0007830451941117644, 1.1890944733750075e-05, 1.99225360120181e-05, -4.3338535760995e-05, -0.0003348157333675772, 9.54391998675419e-06, 0.0014137226389721036, -5.008919288229663e-07, 1.0032279078586726e-06, 3.612200453062542e-05, 1.948569479282014e-05], [-0.007788699585944414, -0.004088690038770437, -0.0013497431064024568, -0.0068590654991567135, -0.0018832519417628646, 0.007791021838784218, -0.0029526259750127792, -0.009047094732522964, -0.0025429970119148493, 0.0036781863309442997, 0.0008911021868698299, 0.005180996377021074, 0.0016274257795885205, -0.0039648134261369705, -0.0008255657739937305, 0.0026278928853571415, 0.006436068098992109, 0.008318345993757248, 0.008158032782375813, -0.003078319365158677, -0.004221518989652395, 0.01794912852346897, 0.009273412637412548, -0.004927352070808411, -0.0011993643129244447, 0.01171458512544632, 0.0007951536681503057, -0.0017106006853282452, -0.006062669679522514, -0.005681012757122517, -0.00016982101078610867, -0.002738488605245948], [-0.0006279526278376579, -0.015110966749489307, -0.007055388297885656, -0.0012972878757864237, -0.009960228577256203, 0.003496703691780567, 0.0039366246201097965, -0.006689116358757019, -0.010727464221417904, -0.0010961474617943168, 0.011216890066862106, 0.012774597853422165, 0.0027053742669522762, 0.003273006994277239, 0.0014609474455937743, 0.0161883607506752, 0.003990644123405218, 0.008072305470705032, 0.010325830429792404, 0.0025349596980959177, 0.0009247234556823969, -0.011163982562720776, 0.009550154209136963, -0.004447307903319597, -0.015029716305434704, -0.007249160204082727, -0.006953942123800516, 0.0055128950625658035, -0.014095747843384743, 0.00555774662643671, -0.008332912810146809, -0.01205376721918583], [-0.0012053798418492079, -0.007666216231882572, -0.0068697379902005196, -0.005188341718167067, -0.005459489766508341, 0.005871616303920746, 0.0017014773329719901, -0.007840890437364578, -0.007234572432935238, 0.003350048093125224, 0.0043322062119841576, 0.008698842488229275, 0.0014840271323919296, -0.002536151558160782, 0.002836016472429037, 0.011375939473509789, 0.00448229955509305, 0.005603337660431862, 0.008503392338752747, 0.0036961189471185207, -0.0002992634254042059, -0.01918994076550007, 0.009016766212880611, -0.005259813275188208, -0.010873831808567047, -0.01721256785094738, -0.0034380913712084293, 0.007722343783825636, -0.00805363804101944, -0.0011790611315518618, -0.002740441355854273, -0.00467667868360877], [-0.008052609860897064, 0.0028028953820466995, 0.005380753893405199, -0.017374185845255852, 0.002548832446336746, 0.017509661614894867, -0.012373936362564564, -0.019454725086688995, 0.00024279083299916238, 0.013563161715865135, -0.007734920363873243, 0.002585897920653224, 0.0007314062677323818, -0.01212051697075367, -0.009921207092702389, -0.00155505514703691, 0.010538464412093163, 0.005348065868020058, 0.010254687629640102, -0.013721275143325329, -0.006945211440324783, 0.014452014118432999, 0.01432475633919239, -0.0105636827647686, 0.00295692915096879, 0.03338054567575455, 0.007729288190603256, -0.0013646946754306555, -0.0045564910396933556, -0.015339983627200127, 0.0075428299605846405, 0.004717253148555756], [0.0005161580629646778, -0.011073444038629532, -0.005657015834003687, 3.538768942235038e-05, -0.009990361519157887, 0.0013826257782056928, 0.0029749986715614796, -0.0041203792206943035, -0.009113017469644547, -0.0006692205206491053, 0.010453506372869015, 0.011150243692100048, 0.0025477611925452948, 0.0038313674740493298, 0.0009119047899730504, 0.013593229465186596, 0.0028386826161295176, 0.004040582571178675, 0.0072945780120790005, 0.0023918950464576483, 0.0006084485212340951, -0.017025118693709373, 0.006452951580286026, -0.0029624265152961016, -0.013157868757843971, -0.008165293373167515, -0.006467266008257866, 0.008647930808365345, -0.010862044058740139, 0.004638950806111097, -0.006407566834241152, -0.009002680890262127], [0.006383919157087803, 0.003752659074962139, -0.0012689722934737802, 0.013150637969374657, 0.002719269134104252, -0.017432374879717827, 0.009047845378518105, 0.01584116369485855, 0.004972805269062519, -0.010316654108464718, 0.002777154790237546, -0.007475736550986767, -0.0019097563344985247, 0.009122094139456749, 0.006954493001103401, -0.005226287990808487, -0.010476205497980118, -0.006221475545316935, -0.010370174422860146, 0.010047538205981255, 0.006112006958574057, -0.022391244769096375, -0.013396969065070152, 0.011148192919790745, 0.002668231725692749, -0.0313289612531662, -0.004259784705936909, 0.0038427573163062334, 0.008238269947469234, 0.010649951174855232, -0.003197954036295414, 0.0014853738248348236], [-0.0027690702117979527, 0.005982343573123217, 0.006294349208474159, -0.004707373213022947, 0.004064604174345732, 0.0057975840754806995, -0.0069471318274736404, -0.004983566235750914, 0.004172489512711763, 0.002995574614033103, -0.005661241244524717, -0.003513702191412449, -9.872894588625059e-05, -0.0031168460845947266, -0.007111311890184879, -0.006281381938606501, 0.0021356737706810236, -0.0004824876959901303, 0.00016590338782407343, -0.008158848620951176, -0.0029494045302271843, 0.01743662729859352, 0.00216774083673954, -0.0017636436969041824, 0.0067097521387040615, 0.02375071682035923, 0.00423159496858716, -0.007896770723164082, 0.0028170642908662558, -0.005529155023396015, 0.005244523286819458, 0.004942343570291996], [-0.008443325757980347, -0.002326279180124402, 0.004515796434134245, -0.014465223997831345, -0.0011603431776165962, 0.015125625766813755, -0.01190089900046587, -0.020861461758613586, -0.002976771676912904, 0.012175805866718292, -0.0036035520024597645, 0.008318324573338032, 0.0028519341722130775, -0.010621201246976852, -0.010434622876346111, 0.005542018450796604, 0.00986513588577509, 0.006828854791820049, 0.013133847154676914, -0.014039256609976292, -0.007145755458623171, 0.020640037953853607, 0.01648598164319992, -0.01112241018563509, -0.003876099828630686, 0.03785368427634239, 0.005969678517431021, -0.0011690680403262377, -0.009936625137925148, -0.010895563289523125, 0.005432553123682737, 0.0006053348770365119], [0.000457834976259619, -0.014405401423573494, -0.006406477186828852, -0.004533843602985144, -0.011907786130905151, 0.006555261556059122, 0.001527199405245483, -0.011928794905543327, -0.016164839267730713, 5.240039172349498e-05, 0.011535454541444778, 0.015110923908650875, 0.005507621914148331, 0.003495515091344714, -0.003057225374504924, 0.01681613177061081, 0.005776985082775354, 0.008085808716714382, 0.013156421482563019, -0.001540752244181931, 7.729297067271546e-05, -0.0071857888251543045, 0.013010692782700062, -0.007030221167951822, -0.016047492623329163, -0.0007446517702192068, -0.007605724036693573, 0.004629621282219887, -0.015583288855850697, 0.002834513783454895, -0.007524268236011267, -0.011692004278302193], [0.0035095983184874058, -0.005153053905814886, -0.003151782089844346, 0.011679495684802532, -0.0035596750676631927, -0.010256992653012276, 0.007565938867628574, 0.013063653372228146, -0.0038971388712525368, -0.01643374003469944, 0.007933855056762695, 0.0032679790165275335, -0.004880462307482958, 0.010630290023982525, 0.00720056751742959, 0.005533895920962095, -0.005722708068788052, 0.00011346384417265654, -0.005150488577783108, 0.00659010699018836, 0.003494204953312874, -0.012233514338731766, -0.008291012607514858, 0.005604685749858618, -0.006322958506643772, -0.01755630411207676, -0.006366033107042313, 0.002241859445348382, -0.002419688506051898, 0.01020271796733141, -0.006713232956826687, -0.007060451433062553], [-0.0016431957483291626, 0.010396190918982029, 0.00657739769667387, -0.005322146229445934, 0.008693775162100792, 0.004908878821879625, -0.005443103611469269, -0.0024398495443165302, 0.008116856217384338, 0.005286863073706627, -0.011745632626116276, -0.010204479098320007, -0.001808765227906406, -0.005582768935710192, -0.004612135700881481, -0.011298050172626972, 5.561203943216242e-05, -0.0033010304905474186, -0.004523887764662504, -0.006087519694119692, -0.0023321262560784817, 0.024559838697314262, -0.002424151636660099, 0.00018096026906277984, 0.012467378750443459, 0.0165052842348814, 0.007141894195228815, -0.009421929717063904, 0.010109740309417248, -0.009358779527246952, 0.00722850626334548, 0.008903739973902702], [0.0022591890301555395, 0.010317868553102016, 0.004048769827932119, 0.004197031259536743, 0.008319037966430187, -0.005149449221789837, 0.0010776577983051538, 0.010033785365521908, 0.008326356299221516, 0.0014377140905708075, -0.010031397454440594, -0.018006186932325363, -0.003835510229691863, -0.0019567867275327444, 0.005218897480517626, -0.011736543849110603, -0.004520815331488848, -0.007626837119460106, -0.012858367525041103, 0.003504669526591897, 0.0006956831202842295, 0.005753436591476202, -0.011719592846930027, 0.00546336779370904, 0.017801132053136826, 0.002245243638753891, 0.007530136965215206, -0.010856306180357933, 0.017425790429115295, -0.003586085280403495, 0.004606191534548998, 0.007851905189454556], [-0.0045373267494142056, -4.343493492342532e-05, 0.0015158264432102442, -0.008083545602858067, 0.002307252725586295, 0.009448355063796043, -0.003021353157237172, -0.008322290144860744, 0.0019037986639887094, 0.004500849638134241, -0.003893603105098009, -0.0018557757139205933, -0.021010134369134903, -0.005195991136133671, -0.0004848289245273918, -0.0030206667724996805, 0.0051261186599731445, 0.005903087556362152, 0.004968870431184769, -0.0038678806740790606, -0.003940638154745102, 0.014728729613125324, 0.007203865330666304, -0.004183629527688026, 0.006716629955917597, 0.041746970266103745, 0.00428732531145215, -0.010637836530804634, -0.0006906390772201121, -0.010021238587796688, 0.0016845782520249486, 0.0007234297809191048], [-0.003963446710258722, 0.006440208293497562, 0.00300497654825449, -0.010165785439312458, 0.005742587614804506, 0.009641417302191257, -0.006042900960892439, -0.01037902757525444, 0.005256450269371271, 0.01122325100004673, -0.00846082903444767, -0.005023770499974489, 0.0012103711487725377, -0.009864581748843193, -0.00434367498382926, -0.00890628807246685, 0.004966067615896463, 0.0019330314826220274, 0.003729616990312934, -0.005618206690996885, -0.003425109665840864, 0.024859286844730377, 0.00664510065689683, -0.004509258549660444, 0.00902494229376316, 0.013254606164991856, 0.006624672561883926, -0.005108967889100313, 0.003207916859537363, -0.01013696938753128, 0.00633475836366415, 0.0072741941548883915], [-0.0026614952366799116, 0.007902899757027626, 0.010852282866835594, -0.0029479670338332653, 0.006851074285805225, 0.0036222694907337427, -0.008156831376254559, -0.0030939746648073196, 0.007985287345945835, -0.0005061703850515187, -0.006857918109744787, -0.0059290179051458836, -0.0032560594845563173, -0.0007645454606972635, -0.012815705500543118, -0.009115206077694893, -0.0008377909543924034, -0.002132824622094631, -0.0033219745382666588, -0.013201422058045864, -0.003150167176499963, 0.012136452831327915, -0.0013658900279551744, 0.0012427776819095016, 0.0098267812281847, 0.026296773925423622, 0.005215552635490894, -0.013649534434080124, 0.004671416711062193, -0.0044174776412546635, 0.006103234831243753, 0.005720945540815592], [0.0009688848513178527, 0.015886997804045677, 0.005457419902086258, 0.0022856316063553095, 0.012119045481085777, -0.0016226677689701319, -0.000599598977714777, 0.011638570576906204, 0.010424092411994934, 0.003081357106566429, -0.01282560732215643, -0.016911664977669716, -0.005277612246572971, -0.005645982455462217, 0.009924215264618397, -0.01955668069422245, -0.0007680924609303474, -0.007904584519565105, -0.015392765402793884, 0.005006919614970684, -0.001473182113841176, 0.00699662696570158, -0.012400372885167599, 0.004582207649946213, 0.01902870088815689, -0.00482949148863554, 0.009215465746819973, -0.002063494175672531, 0.021301394328475, -0.007816060446202755, 0.007778735365718603, 0.012533863075077534], [0.004173944238573313, 0.00874315109103918, 0.005082231014966965, 0.007713420316576958, 0.006349524948745966, -0.010341904126107693, 0.0017857427010312676, 0.010637707076966763, 0.008961915969848633, -0.00640600873157382, -0.0036468852777034044, -0.01026949193328619, -0.0035060045775026083, 0.004934471566230059, -0.0015434237429872155, -0.010966031812131405, -0.009951146319508553, -0.008152756839990616, -0.01159168966114521, 0.0008612794918008149, 0.003401147434487939, -0.009080625139176846, -0.012581574730575085, 0.00932034570723772, 0.00943805929273367, -0.011410233564674854, 0.0006728774169459939, -0.004985274281352758, 0.010367301292717457, 0.005307126324623823, 0.0020626576151698828, 0.005686862859874964], [0.006000632885843515, 0.009911957196891308, 0.004488631617277861, 0.008827020414173603, 0.0063272928819060326, -0.009720656089484692, 0.002733865287154913, 0.011467166244983673, 0.009871799498796463, -0.003656157525256276, -0.004709175322204828, -0.0122875040397048, -0.0022642696276307106, 0.005115890875458717, -0.00019044455257244408, -0.010953116230666637, -0.0085608484223485, -0.012544473633170128, -0.013438408263027668, 0.0029383543878793716, 0.003711132798343897, -0.016370560973882675, -0.01348961889743805, 0.009159715846180916, 0.010283048264682293, -0.006263770163059235, 0.00127203029114753, -0.0036549607757478952, 0.013352763839066029, 0.0060313246212899685, 0.0020797080360352993, 0.007077048998326063], [0.005431573372334242, 0.007882537320256233, 0.0023205007892102003, 0.010109946131706238, 0.005374266766011715, -0.011015672236680984, 0.005173783749341965, 0.014348998665809631, 0.008189315907657146, -0.00798442680388689, -0.002284869085997343, -0.012620433233678341, -0.003031876403838396, 0.006592544261366129, 0.004535548388957977, -0.012186224572360516, -0.008666517212986946, -0.009137799963355064, -0.0155247887596488, 0.00717459712177515, 0.004151469562202692, -0.007927441969513893, -0.015956390649080276, 0.00985188502818346, 0.012460554949939251, -0.010794445872306824, -0.00045814397162757814, -0.004417283460497856, 0.013581140898168087, 0.007002764381468296, -0.00030864443397149444, 0.004064781591296196], [-0.004578586667776108, 0.003568889107555151, 0.0077728102914988995, -0.004536808468401432, 0.003397491527721286, 0.0070190466940402985, -0.007065817713737488, -0.005213341675698757, 0.0032068130094558, 0.00042602946632541716, -0.0043927086517214775, -0.0017008285503834486, -0.00012682800297625363, -0.0023775706067681313, -0.00844982173293829, -0.00639314902946353, 0.0032311780378222466, 0.0029267785139381886, 0.00136155029758811, -0.011601650156080723, -0.004115666728466749, 0.025995440781116486, 0.0031015214044600725, -0.0026600551791489124, 0.007821207866072655, 0.029790986329317093, 0.004514508415013552, -0.009358306415379047, -3.909613951691426e-05, -0.006360633764415979, 0.0038468141574412584, 0.00225877296179533], [-0.004806609824299812, -0.005866273306310177, -0.002423765603452921, -0.005358703434467316, -0.0030861259438097477, 0.00758575601503253, -0.001310963649302721, -0.007515700999647379, -0.004691304173320532, 0.0029251982923597097, 0.0020712348632514477, 0.00585574796423316, 0.001157492632046342, -0.0031289663165807724, 0.001605260418727994, 0.004765136167407036, 0.006563738454133272, 0.007845591753721237, 0.008024828508496284, -0.0011941815027967095, -0.00420660013332963, 0.017205575481057167, 0.008795793168246746, -0.00572354206815362, -0.0034712213091552258, 0.00921185128390789, 0.0003335129003971815, -0.0006088698864914477, -0.00610794173553586, -0.003998170606791973, -0.0015916217816993594, -0.004386307206004858], [0.0032811749260872602, 0.010247359052300453, -0.002414933405816555, -0.008380000479519367, 0.011204397305846214, 0.01096926536411047, -0.007196769583970308, -0.006536302622407675, 0.0018697851337492466, 0.005081178154796362, -0.013832615688443184, -0.012790537439286709, 0.011928441002964973, -0.012232493609189987, -0.004524533636868, -0.01367704663425684, 0.0015940426383167505, 0.000507235701661557, 0.007630642969161272, -0.013140938244760036, 0.0027826011646538973, -2.5731329917907715, 0.007358324248343706, 0.0007763630128465593, 0.011490311473608017, 0.93805992603302, 0.013144813477993011, 0.9983204007148743, 0.0015675888862460852, -0.0007357552531175315, 0.012971094809472561, 0.015967346727848053], [0.006144925020635128, 0.00758010521531105, 0.002383264247328043, 0.011202548630535603, 0.005479608196765184, -0.012772275134921074, 0.00647387420758605, 0.016037916764616966, 0.008120141923427582, -0.009713511914014816, -0.0009741454850882292, -0.012296845205128193, -0.0035584347788244486, 0.008213372901082039, 0.00452092569321394, -0.01229673158377409, -0.01024346798658371, -0.00881800428032875, -0.015847893431782722, 0.007340703625231981, 0.004890934098511934, -0.026144495233893394, -0.017417680472135544, 0.011344407685101032, 0.010844177566468716, -0.016135860234498978, -0.0014387656701728702, -0.0005884572747163475, 0.0131826838478446, 0.00802086666226387, -0.0012755492934957147, 0.0034512607380747795], [-0.003040487412363291, -0.00807863101363182, -0.004760115873068571, -0.006552818231284618, -0.006071694660931826, 0.008795996196568012, -0.0016116485930979252, -0.009619138203561306, -0.008442981168627739, 0.00605333037674427, 0.0033317639026790857, 0.009602381847798824, 0.004467925988137722, -0.003992474637925625, 0.0013374123955145478, 0.010971910320222378, 0.008676424622535706, 0.006937874481081963, 0.010714052245020866, -0.0002476017689332366, -0.0027743179816752672, 0.014864658936858177, 0.011403844691812992, -0.00893615372478962, -0.009782497771084309, 0.00922124832868576, -0.0010573624167591333, 0.003593249013647437, -0.009005456231534481, -0.004147646948695183, -0.0017388107953593135, -0.005131733138114214], [-2.5847430151770823e-06, -0.010776239447295666, -0.00389244151301682, -0.0024464770685881376, -0.009096925146877766, 0.002067728666588664, -5.953678555670194e-05, -0.01318676769733429, -0.0059229484759271145, -0.0037122422363609076, 0.0125667043030262, 0.021387480199337006, 0.005934267770498991, 0.005014993250370026, -0.010748474858701229, 0.01323803048580885, 0.00038491387385874987, 0.00692683644592762, 0.01672181487083435, -0.006044279783964157, 0.0019753053784370422, -0.008128545247018337, 0.013171405531466007, -0.003190321149304509, -0.025702565908432007, -0.0013303718296810985, -0.008975707925856113, 0.006225348450243473, -0.02510222978889942, 0.007876385934650898, -0.005522365216165781, -0.00816867034882307], [-0.012954458594322205, -0.030860673636198044, -0.019642477855086327, -0.011532976292073727, -0.012292523868381977, 0.020584652200341225, 0.01389471348375082, -0.02188972756266594, -0.029272785410284996, -0.0049372767098248005, 0.016129828989505768, 0.027185048907995224, 0.005896545946598053, -0.0015750008169561625, 0.012390890158712864, 0.04046459496021271, 0.015432621352374554, 0.032529279589653015, 0.027288159355521202, -0.00014599031419493258, -0.01813829131424427, -0.7766669392585754, 0.026266232132911682, -0.015509815886616707, -0.04581328481435776, 0.2633601129055023, 9.381875861436129e-05, 2.3893866539001465, -0.029129156842827797, 0.0012232214212417603, -0.019447755068540573, -0.02657766081392765], [0.0009359724936075509, -0.005325022619217634, -0.0033028246834874153, 0.002568858675658703, -0.005035513546317816, -0.002760882256552577, 0.002158382209017873, 0.0008921152330003679, -0.00466174865141511, -0.00403409032151103, 0.006257642526179552, 0.007892342284321785, -0.00099810934625566, 0.003693508915603161, 0.0002366987318964675, 0.008048677816987038, -0.0007658464019186795, -6.443665915867314e-05, 0.0017176822293549776, 0.0024368539452552795, 0.0011999340495094657, -0.015520602464675903, 0.0005840535741299391, 0.0004400197067297995, -0.008799489587545395, -0.014030525460839272, -0.006120325066149235, 0.007202459499239922, -0.005936801433563232, 0.0050256806425750256, -0.0035099065862596035, -0.0045797028578817844], [0.011301057413220406, 0.007754742633551359, 0.005677555687725544, 0.01967797242105007, 0.008278093300759792, -0.004600828047841787, -0.0026881953235715628, 0.01179923303425312, 0.00750834122300148, -0.008523030206561089, -0.005524905864149332, -0.018801579251885414, -0.004951535724103451, 0.0037750881165266037, -0.01013255026191473, -0.024249574169516563, -0.006275985389947891, -0.011592759750783443, -0.0016054479638114572, -0.005219539161771536, 0.0068069323897361755, -0.17203548550605774, -0.0006761364638805389, 0.004901218228042126, 0.03527233004570007, -2.2867870330810547, 0.006018074695020914, 0.1678958386182785, 0.014851318672299385, 0.02831621840596199, 0.004397265147417784, 0.006028987932950258], [-0.002588078146800399, -0.008124683052301407, -0.0019657129887491465, -0.0033175970893353224, -0.00685497373342514, 0.004091991111636162, -0.002131578978151083, -0.008061382919549942, -0.006496066693216562, -0.0007325537735596299, 0.007834464311599731, 0.014573830179870129, 0.0039754947647452354, 0.0010177100775763392, -0.004650655668228865, 0.01120975986123085, 0.004108314402401447, 0.007397234905511141, 0.01179357897490263, -0.005291183013468981, -0.0011716214939951897, 0.0003944382769986987, 0.010481645353138447, -0.004955161362886429, -0.015569795854389668, -0.0015365973813459277, -0.004791816230863333, 0.012254295870661736, -0.01645272597670555, 0.0020819695200771093, -0.002608315320685506, -0.005821806378662586], [-0.007554436568170786, 0.002879864303395152, 0.00451944675296545, -0.01580796390771866, 0.002070497488602996, 0.016910584643483162, -0.01055764127522707, -0.01639951393008232, 0.0005577084375545382, 0.012008126825094223, -0.00784013606607914, 0.0007395197171717882, 0.004009334370493889, -0.010486941784620285, -0.006886072922497988, -0.0027766975108534098, 0.009982212446630001, 0.004797914065420628, 0.008272443898022175, -0.011604038998484612, -0.0059270900674164295, 0.02496352791786194, 0.011944477446377277, -0.010025679133832455, 0.005421402398496866, 0.03468403220176697, 0.007471083197742701, 0.004520166665315628, -0.002589614363387227, -0.018425818532705307, 0.006536315195262432, 0.0036750095896422863], [0.0015542387263849378, -0.011733800172805786, -0.0071333725936710835, 0.0043617370538413525, -0.00797975528985262, -0.003333107801154256, 0.006578398868441582, 0.0024158733431249857, -0.008420935831964016, -0.004392231814563274, 0.01001798827201128, 0.008734558708965778, 0.0008615466649644077, 0.004920358303934336, 0.006210799794644117, 0.012363335117697716, 0.0004949502763338387, 0.003732411889359355, 0.0038722434546798468, 0.007006382569670677, 0.001955234445631504, -0.019347062334418297, 0.0017907994333654642, -0.0005679046735167503, -0.011361125856637955, -0.014203445054590702, -0.006470233201980591, 0.009280681610107422, -0.008229363709688187, 0.0074872225522994995, -0.00819433107972145, -0.009918240830302238], [0.00030303187668323517, -0.015564373694360256, -0.007807815447449684, 0.0014315166044980288, -0.010833709500730038, 0.0015482428716495633, 0.0053619868122041225, -0.003257962642237544, -0.01158017385751009, -0.004350809380412102, 0.012561625801026821, 0.013089839369058609, 0.0019267580937594175, 0.005635404959321022, 0.004112524911761284, 0.01704101264476776, 0.0032638446427881718, 0.007539150305092335, 0.00858898926526308, 0.004750789608806372, 0.0012952315155416727, -0.01831066608428955, 0.007476122584193945, -0.003417933825403452, -0.015175003558397293, -0.007292505819350481, -0.00808034185320139, 0.0054363077506423, -0.013344711624085903, 0.006945471279323101, -0.009451343677937984, -0.013491954654455185], [4.738913503388176e-06, 3.08817507175263e-05, -5.17880980623886e-05, 3.1452353255190246e-07, 3.7189818158367416e-06, -3.531484617269598e-05, 2.17091273952974e-05, 3.306076177977957e-05, 3.888936043949798e-05, 3.3456988603575155e-05, -1.4881923561915755e-05, -2.5804311007959768e-05, -4.165603968431242e-05, 3.6229057513992302e-06, 4.176411312073469e-05, -3.663055758806877e-05, -0.00023054188932292163, -4.2630319512682036e-05, -6.98957810527645e-05, 0.00017281896725762635, 6.62908423691988e-05, 4.2554576793918386e-05, -9.352847700938582e-05, 0.00012876768596470356, 0.0001023870354401879, -0.000782107119448483, -0.00012494991824496537, -0.00018112282850779593, 4.195057408651337e-05, 7.556731725344434e-05, 2.784888602036517e-05, 4.182535849395208e-05], [6.016101178829558e-05, -4.914181408821605e-05, 3.78747281502001e-05, 1.6146997950272635e-05, -6.883444712002529e-06, -1.9087057808064856e-05, -3.435608232393861e-05, -2.5818437734415056e-06, -5.6117558415280655e-05, 1.978136651814566e-06, -2.08490982913645e-05, 7.418161112582311e-05, 9.186184615828097e-05, -5.659218459186377e-06, 1.2958032129972707e-05, 0.0001353005354758352, -3.900759475072846e-05, -3.0936735129216686e-05, 1.3892479728383478e-05, 5.09894744027406e-05, 8.611304656369612e-05, -0.002319249790161848, 2.573527353888494e-06, 3.1921921618049964e-05, -0.00013700300769414753, -0.00026275397976860404, 6.826300250395434e-06, 0.0018556611612439156, -3.822005965048447e-05, 4.223281212034635e-05, 4.4435368181439117e-05, 2.5973238280130317e-06], [0.0003444346075411886, 2.2533149603987113e-05, 6.170025153551251e-05, -0.00012359533866401762, 5.71603868593229e-06, 2.3207994672702625e-05, -0.00013574352487921715, -0.0002471641346346587, -2.639789272507187e-05, 0.00011997503315797076, -6.679911894025281e-05, 4.180652467766777e-05, 0.00023109970788937062, -0.00010107855632668361, -0.000262407906120643, -1.4772075473956647e-06, -0.000322864594636485, -0.0001435279264114797, 0.00011474495113361627, 7.974277104949579e-05, 0.0005988588090986013, -0.0007400173926725984, 0.00010481182835064828, 0.00019999388314317912, 1.0590634701657109e-05, 0.0001042664225678891, -5.8327987062511966e-05, 0.00038136602961458266, -8.221976895583794e-05, 2.9088743758620694e-05, 0.00015959794109221548, 0.00011068732419516891], [1.5856619938858785e-05, 2.5592171368771233e-05, 8.695227734278888e-06, -4.008074483863311e-06, 4.198635451757582e-06, 6.896245849929983e-07, -7.056874437694205e-06, -1.0334680155210663e-05, 1.9433678971836343e-05, 6.252474577195244e-06, -1.1228145922359545e-05, -1.711533150228206e-05, 1.7395594113622792e-05, -1.7041526234606863e-06, -2.096907155646477e-05, -1.896789763122797e-05, -1.2878862435172778e-05, -2.4336377464351244e-05, -7.503012056986336e-06, 1.0441305676067714e-05, 1.2405489542288706e-05, -0.0022679746616631746, -5.025314294471173e-06, 6.070609288144624e-06, 8.573227205488365e-06, -0.0010652312776073813, -2.0550658064166782e-07, -0.000267443829216063, 1.193836305901641e-05, 5.4095171435619704e-06, 9.040450095199049e-06, 2.3631073418073356e-05], [3.6537243431666866e-05, 9.39604524319293e-06, 1.3641508303408045e-05, -5.512380539585138e-06, 1.1565928616619203e-05, -5.227823294262635e-06, -1.4588684280170128e-05, -2.575226972112432e-05, 4.5126503209758084e-06, 1.8726599591900595e-05, -2.0996154489694163e-05, -7.978024427757191e-07, 4.733695459435694e-05, -6.559237590408884e-06, -1.8029106286121532e-05, 2.8661268515861593e-05, -5.5187476391438395e-05, -2.2865937353344634e-05, -2.3247566787176766e-06, 2.8564056265167892e-05, 0.0001253212394658476, -0.000846269482281059, 8.343181434611324e-06, 2.1218640540610068e-05, -3.4364144084975123e-05, 0.00015754504420328885, 5.587608484347584e-06, 0.0007190246251411736, 1.1539077604538761e-05, 1.288031580770621e-05, 2.475104520271998e-05, 1.9953697119490243e-05], [9.230484283762053e-05, 6.54466639389284e-05, 5.741102540923748e-06, 9.314368980994914e-06, -8.339861778949853e-07, -4.3375108361942694e-05, -6.84181650285609e-05, 7.00874807080254e-06, 4.668722249334678e-05, 5.5479475122410804e-05, -4.648699541576207e-05, -2.3203381715575233e-05, 0.00013514670717995614, -2.7237538233748637e-05, -0.0001018860493786633, -5.282992424326949e-05, -0.00011846041888929904, -9.929922089213505e-05, -3.752111297217198e-05, 0.0002098075347021222, 0.0002657634613569826, -0.0022125800605863333, -5.453260018839501e-05, 0.00010690522321965545, 9.11313618416898e-05, -0.0016453173011541367, -0.00014841736992821097, -0.00020296353613957763, 2.1051957446616143e-05, 4.2017054511234164e-05, 0.0001440680935047567, 0.00010784735786728561], [0.0002861676621250808, 4.648378671845421e-05, 0.00014006788842380047, -0.000170895888004452, 3.201455911039375e-05, 0.00012231165601406246, -0.00018916856788564473, -0.00035010292776860297, -9.688046702649444e-06, 0.00017681531608104706, -9.723920811666176e-05, 1.769142363627907e-05, 0.00036386019201017916, -0.00013056513853371143, -0.0003228419227525592, -1.2851923202106263e-05, -0.00024929127539508045, -0.0001263441808987409, 0.00014144484885036945, -4.50542829639744e-05, 0.0006465997430495918, -0.00025450793327763677, 0.00018815541989170015, 0.0001116112107411027, 8.327549949171953e-06, -3.7883601180510595e-05, -7.342603112192592e-06, 0.00027739471988752484, -6.266704440349713e-05, -2.0531961126835085e-05, 0.0001720636646496132, 0.00011239373270655051], [6.804153963457793e-05, 4.9281596147920936e-05, 5.939250695519149e-05, 1.8771894474411965e-06, 2.7547166610020213e-05, 1.0335605111322366e-05, -0.00011789422569563612, -3.735566860996187e-05, 2.52212630584836e-05, 2.7331028832122684e-05, -5.1179576985305175e-05, -2.1092680981382728e-05, 0.00012063336180290207, -2.996733019244857e-05, -8.317794709000736e-05, -2.3143777070799842e-05, -4.8819463700056076e-05, -3.2053078030003235e-05, 1.65618857863592e-05, -3.719033702509478e-05, 9.704774129204452e-05, -0.005042674019932747, 2.655150274222251e-05, 2.1834724975633435e-05, 1.7319546259386698e-06, -0.0012551210820674896, 4.268306838639546e-06, 0.00042616340215317905, 7.462297617166769e-06, 2.346278961340431e-05, 7.89903206168674e-05, 6.912576645845547e-05], [4.917263868264854e-05, -9.331750334240496e-05, 3.5722470784094185e-05, 2.6502964828978293e-05, -3.248051507398486e-05, -2.3982671336852945e-05, -3.706978168338537e-05, 1.6454680007882416e-05, -0.00010410699178464711, -1.4177780940372031e-05, 4.411497684486676e-06, 0.0001245624152943492, 6.079768718336709e-05, -7.1507088250655215e-06, 2.9632195946760476e-05, 0.0002080100675811991, -2.86538343061693e-05, -2.163042881875299e-05, 3.9410941099049523e-05, 2.84785455733072e-05, 4.7776240535313264e-05, -0.0038049269933253527, 7.633017048647162e-06, 3.2898937206482515e-05, -0.00022504321532323956, 0.0002605797490105033, 8.083894442734163e-08, 0.0013800323940813541, -8.532591891707852e-05, 3.307305814814754e-05, 2.887410119001288e-05, -2.729048537730705e-05], [6.162505997053813e-06, 9.25316726352321e-06, 1.855117989180144e-05, 1.0428675523144193e-06, 5.525558208319126e-06, 1.2368064972179127e-06, -2.8668076993199065e-05, -2.018457735175616e-06, -8.907751180231571e-06, 1.260333647223888e-06, -1.1484666174510494e-05, -1.3148547850505565e-06, 1.0278749869030435e-05, -6.965926331758965e-06, -3.911958265234716e-05, -1.1869003174069803e-05, 4.700060799223138e-06, 4.4315302716313454e-07, 1.907507066789549e-05, -2.487247547833249e-05, 1.566470746183768e-05, -0.0007157615618780255, 1.6350579244317487e-05, -1.2332148799032439e-05, 1.987829591598711e-06, -0.0002836583589669317, 9.292131835536566e-06, 0.0006080077146179974, -5.5898740356497e-06, -2.5577799078746466e-07, 1.8213779185316525e-05, 1.2305160453252029e-05], [3.569967520888895e-05, 3.0065117243793793e-05, 2.6780007829074748e-05, -3.161933636874892e-05, 1.9808059732895344e-05, 1.9084340237895958e-05, -4.052439908264205e-05, -7.125710544642061e-05, 1.4919165550963953e-05, 4.0671809983905405e-05, -3.096842920058407e-05, -1.5985729987733066e-05, 7.300086144823581e-05, -2.5629404262872413e-05, -8.617332059657201e-05, -6.479833700723248e-06, -7.200330583145842e-05, -2.8594713512575254e-05, 2.603208486107178e-05, -8.237444149017392e-07, 0.00017468146688770503, -0.00033452213392592967, 4.126730709685944e-05, 2.67679788521491e-05, -1.925428932736395e-06, 0.0001931306323967874, 3.4094782108695654e-07, 0.0008905183058232069, 3.6731573800352635e-06, 2.1171515527385054e-06, 4.0962855564430356e-05, 3.6940746213076636e-05], [7.37735754228197e-05, -5.0368442316539586e-05, 2.553186823206488e-05, 4.9555321311345324e-05, -4.559767603495857e-06, -5.078558388049714e-05, -2.1369734895415604e-05, 2.7044205126003362e-05, -7.03968689776957e-05, -2.0741086700581945e-05, -1.9836767023662105e-05, 8.648489165352657e-05, 0.00012033532402710989, 2.6410730242787395e-06, 6.316428334685043e-05, 0.00016113580204546452, -4.6800108975730836e-05, -2.3483706172555685e-05, 3.503254629322328e-05, 8.575578249292448e-05, 9.006614709505811e-05, -0.004317605867981911, 1.4314134205051232e-05, 3.559105971362442e-05, -0.00018942568567581475, -2.4471812139381655e-05, 1.3732773140873178e-06, 0.0012686247937381268, -5.8657926274463534e-05, 6.235163891687989e-05, 4.527431519818492e-05, 2.9563814223365625e-06], [7.589509186800569e-05, -2.5115805328823626e-05, -2.728145227592904e-05, 2.4656179448356852e-05, -1.6677582607371733e-05, -5.732107092626393e-05, -1.2390741176204756e-05, -1.2396144484227989e-05, -3.5363926144782454e-05, -1.335766569354746e-06, 1.3100932847009972e-05, 5.068683822173625e-05, 8.372164302272722e-05, 3.956804903282318e-06, -5.086260716780089e-05, 2.1377538359956816e-05, -0.00010845238284673542, -5.0529783038655296e-05, 5.479318497236818e-05, 9.933619003277272e-05, 0.00024412113998550922, 0.0008997205295599997, 2.2937283574719913e-05, 8.348225674126297e-05, -1.5474832252948545e-05, 1.0127198038389906e-05, -5.2590545237762854e-05, -0.0007260051206685603, -7.64682627050206e-05, 5.84940098633524e-05, 5.632004467770457e-05, 3.9922520954860374e-05], [4.1058312490349635e-05, 2.022146145463921e-05, 3.385070158401504e-05, -1.751278614392504e-05, 1.2230399079271592e-05, 1.680899913480971e-05, -4.59066650364548e-05, -3.7378638808149844e-05, 8.838725079840515e-06, 2.7144938940182328e-05, -2.2687567252432927e-05, -1.0182508958678227e-05, 5.108016557642259e-05, -2.1694544557249174e-05, -0.00010103217209689319, -1.1313307368254755e-05, -4.195267320028506e-05, -2.6056117349071428e-05, 2.097556171065662e-05, -2.0777528334292583e-05, 0.00012303453695494682, -0.00022977773915044963, 3.1355601095128804e-05, 1.159598286903929e-05, 6.188865881995298e-06, -0.00025923343491740525, 6.947622296138434e-06, 7.677052053622901e-05, 2.967164164147107e-06, -3.535029463819228e-06, 3.569863838492893e-05, 2.8726501113851555e-05], [0.00039280718192458153, 5.9460351621964946e-05, 0.0002203019248554483, -0.00028607543208636343, 7.17254588380456e-05, 0.0001927789708133787, -0.0003350749029777944, -0.00044804380740970373, -8.951687050284818e-05, 0.00022746114700566977, -0.00019166350830346346, 0.00013257868704386055, 0.0006066499627195299, -0.0002588182978797704, -0.0002733782457653433, 0.00014357143663801253, -0.00025559330242685974, -0.00013815719285048544, 0.0002570778888184577, -6.795550143579021e-05, 0.0007789111114107072, 0.00024592908448539674, 0.00026010884903371334, 0.0001466272515244782, -0.00014287157682701945, -0.0005785524845123291, -3.0022380087757483e-05, 0.0007654127548448741, -0.00014687654038425535, -5.086029341327958e-05, 0.00033645331859588623, 0.00021211775310803205], [8.373351738555357e-05, -0.00035593443317338824, -1.447390673092741e-06, -6.59537545288913e-05, -0.0001605575962457806, 5.173184763407335e-05, -8.84799737832509e-05, -0.00011315318988636136, -0.0004059608618263155, 1.0151365131605417e-05, 7.788782386342064e-05, 0.0004384270287118852, 0.0001301432930631563, -7.270661444636062e-05, -5.364255412132479e-05, 0.0006357251550070941, -8.202610479202121e-05, 7.038508920231834e-05, 0.0002728989929892123, -5.623283504974097e-05, 0.00011417216592235491, -0.007478045765310526, 0.00016594849876128137, 3.400560672162101e-05, -0.0006446156767196953, 0.00018362565606366843, -3.667222335934639e-05, 0.00047226823517121375, -0.0003640399663709104, -6.607240356970578e-05, 1.3168571967980824e-05, -0.00017086172010749578], [0.00040466681821271777, -7.794516818648844e-07, -0.0002357179473619908, 5.9775680711027235e-05, -0.00010856670269276947, -0.00014510625624097884, 0.00020107589079998434, 4.6456538257189095e-05, 1.2989790775463916e-05, 4.7023720981087536e-05, 6.324085552478209e-05, 6.067969661671668e-05, 0.0003048185899388045, 5.7143348385579884e-05, 0.0001424009824404493, -7.071942036418477e-06, -0.0002119440323440358, -0.00016183270781766623, -8.772056753514335e-05, 0.0005068753962405026, 0.0005544006708078086, 0.00032042499515227973, -0.00014259302406571805, 0.00022847851505503058, 0.0001596713555045426, -0.0016613638726994395, -0.0003553175483830273, -0.0005891316686756909, -4.083588282810524e-05, 0.00011564968735910952, 6.891442171763629e-05, 0.00010311994992662221], [5.263132698019035e-05, 2.5879760869429447e-05, -6.236910121515393e-05, 2.4608341846033e-05, -1.3910685083828866e-05, -7.226230809465051e-05, 5.026866710977629e-05, 4.521659866441041e-05, 2.3978353056008928e-05, 3.128130265395157e-05, -7.564993211417459e-06, -1.0461123565619346e-05, 0.00010813667176989838, 9.972116458811797e-06, 4.573945625452325e-05, -2.3475733541999944e-05, -0.00011210476804990321, -5.382818926591426e-05, -5.243080886430107e-05, 0.00021563378686551005, 0.0001296841073781252, -0.0018251226283609867, -7.879288023104891e-05, 0.00011737293243641034, 7.479436317225918e-05, -0.002108316170051694, -0.00013132939056959003, 0.00034043213236145675, 1.9060698832618073e-05, 4.911977157462388e-05, 2.761152973107528e-05, 4.20453397964593e-05], [0.00013797414430882782, 2.389567089267075e-05, 3.726809882209636e-05, -6.039882464392576e-06, -4.1511061681376304e-06, -3.982132693636231e-05, -7.44749340810813e-05, -1.880419767985586e-05, 5.963102012174204e-07, 0.00014252096298150718, -2.488786594767589e-05, 5.106858225190081e-06, 0.0002480383845977485, -7.585491403006017e-05, -0.00011160942813148722, -2.0721679902635515e-05, -9.034754475578666e-05, -7.617042138008401e-05, 1.9024584617000073e-05, -1.8032451407634653e-05, 0.00024297570053022355, -0.0024637808091938496, 1.1869180980284e-06, 5.5012085795169696e-05, 9.671533916844055e-06, 0.0003494632546789944, -4.1124196286546066e-05, 3.280368400737643e-05, -1.4505885701510124e-05, 4.921431900584139e-05, 7.819649908924475e-05, 5.9298450651112944e-05], [0.0011782628716900945, 4.5860648242523894e-05, -9.66748921200633e-05, 4.866712970397202e-06, -0.00013119120558258146, -0.00036327142152003944, -6.257258064579219e-05, -0.00015917667769826949, -2.052874697255902e-05, 0.00023923676053527743, -5.313762812875211e-05, 0.00017817469779402018, 0.0007597433868795633, -6.171219138195738e-05, -0.00011923722922801971, 2.922686871897895e-05, -0.0007350446539930999, -0.000460432464024052, 4.446877210284583e-05, 0.0005452510085888207, 0.00149503443390131, 1.2389671610435471e-05, -0.00017821404617279768, 0.0006884572212584317, 0.00014348533295560628, -0.00140089588239789, -0.0004898243932984769, 0.0006829086923971772, -0.0002735436428338289, 0.0002702627971302718, 0.00035460107028484344, 0.0002934707445092499], [0.00016227009473368526, 2.9749004170298576e-05, -0.0001518243079772219, 0.0002190327359130606, -6.663354724878445e-05, -0.0002652621187735349, 0.00017348329129163176, 6.842448055977002e-05, 1.9719445845112205e-05, 5.628787403111346e-05, -4.810275640920736e-06, 2.0040613890159875e-05, 0.0005808123969472945, 8.52880475576967e-05, 0.00021577431471087039, -4.398797682370059e-05, -0.0005914782523177564, -0.00015779450768604875, -0.00012207940744701773, 0.0005964453448541462, 0.0002984714228659868, 0.0008182784076780081, -0.00021545859635807574, 0.0006082827458158135, 0.0001924445095937699, -0.0019819990266114473, -0.0003708019503392279, -0.0004584257258102298, 1.4224860933609307e-05, 0.0002523664152249694, 7.633525819983333e-05, 0.00011836538033094257], [0.009562009014189243, 0.0013587576104328036, -0.004452088847756386, 0.012337436899542809, -0.00936430599540472, -0.015010024420917034, 0.005105198360979557, 0.007395720575004816, -2.9970764444442466e-05, -0.010888525284826756, 0.009564319625496864, 0.006601070985198021, 0.02978868968784809, 0.011046051979064941, -0.011133141815662384, -0.015628954395651817, -0.018113084137439728, -0.0068555776961147785, -0.00034876566496677697, 0.009918156079947948, 0.018025970086455345, 0.21638235449790955, -0.008298923261463642, 0.011875221505761147, 0.0038295467384159565, -0.04820745065808296, -0.01324411854147911, 0.5688005685806274, -0.007141829468309879, 0.020190490409731865, -0.0033630861435085535, -0.00033523509046062827], [0.00022173961042426527, 6.287136784521863e-05, 6.046268026693724e-05, 1.76141190877388e-06, 7.923399039100332e-07, -7.176031795097515e-05, -0.00021995972201693803, -1.1635140253929421e-05, 2.4074193788692355e-05, 0.00016324238094966859, -8.905664435587823e-05, 2.2257463569985703e-06, 0.0004441672354005277, -0.00011134549276903272, -0.0001842837082222104, -4.5220171159598976e-05, -0.00015539370360784233, -0.0001326981873717159, -5.916808277106611e-06, 0.00015086638450156897, 0.00038526070420630276, -0.0033357152715325356, -3.794620351982303e-05, 0.00012378896644804627, 5.06183278048411e-05, -0.0005536559619940817, -0.00016339409921783954, -0.00017649550864007324, -1.1495535545691382e-05, 7.522111991420388e-05, 0.0002230222016805783, 0.00013277219841256738], [0.0004398166493047029, 1.2376031918392982e-05, -0.0001690582139417529, 5.289476757752709e-05, -5.824465915793553e-05, -0.00016582984244450927, 9.196325845550746e-05, 2.9346030714805238e-05, 8.61552052811021e-06, 7.631576590938494e-05, 4.8148435780603904e-06, 5.568825508817099e-05, 0.00029572859057225287, 1.9847859221044928e-05, 0.00010915550956269726, -1.6205540305236354e-05, -0.00025005810311995447, -0.00020150444470345974, -6.69685541652143e-05, 0.0005479523679241538, 0.0007259725243784487, 0.00024729478172957897, -0.00014793334412388504, 0.00022066745441406965, 0.00012073993275407702, -0.0017082463018596172, -0.0002775424800347537, -0.0007505426183342934, -5.4198000725591555e-05, 0.00014000611554365605, 0.00011164144962094724, 0.0001202411949634552], [0.00020328587561380118, -0.00038492088788188994, -7.006612577242777e-05, -6.817070243414491e-05, -0.0001962356036528945, 3.884762918460183e-05, -4.836583320866339e-05, -0.00015724812692496926, -0.0004269725177437067, 2.9984459615661763e-05, 0.00011610078945523128, 0.00045605353079736233, 0.0002715752925723791, -6.598218897124752e-05, -0.00010214661597274244, 0.0005979627603664994, -0.00017821784422267228, 5.2555478760041296e-05, 0.00029592798091471195, 2.629169284773525e-05, 0.00032334751449525356, -0.004229681566357613, 0.0001783981715561822, 7.52485211705789e-05, -0.0005711237899959087, -0.0004302180022932589, -8.588486525695771e-05, -0.0012163319624960423, -0.0003947580116800964, -2.9769516913802363e-05, -1.1004068255715538e-05, -0.0001942094531841576], [6.832699000369757e-05, -0.007225814741104841, -0.0050046853721141815, -0.0007991340826265514, -0.003997165244072676, 0.0031848433427512646, 0.004085016902536154, -0.007273924071341753, -0.014733725227415562, 0.007044198457151651, 0.0024111871607601643, 0.009913935326039791, -0.005145811475813389, -0.003067174693569541, 0.012148729525506496, 0.01297223661094904, 0.0019651958718895912, 0.007607384119182825, 0.010232913307845592, 0.0047390698455274105, -0.00047527256538160145, 0.09369949996471405, 0.010135600343346596, -0.006061331368982792, -0.014368855394423008, 0.04444415494799614, -0.0033514085225760937, -0.1669502705335617, -0.010205479338765144, 0.00017761613707989454, -0.004803826101124287, -0.004945991560816765], [0.000455756759038195, 3.041782656509895e-05, -2.7694504751707427e-05, 1.3394192137639038e-05, -2.4705648229428334e-06, -0.00013758035493083298, -5.69526264371234e-06, -4.341736712376587e-06, 1.7688234947854653e-05, 5.5771670304238796e-05, -2.0277449948480353e-05, -9.370184670842718e-06, 0.00013498100452125072, -9.778214007383212e-06, 7.830701179045718e-06, -2.4267110347864218e-05, -0.00029883484239690006, -0.00018085392366629094, -1.4150004062685184e-05, 0.00021977335563860834, 0.0005932045169174671, -0.00033506337786093354, -7.774332334520295e-05, 0.00020230711379554123, 3.934858978027478e-05, -0.00029839706257916987, -6.246056727832183e-05, 0.00043986141099594533, -7.655839908693451e-06, 6.86958446749486e-05, 5.4523887229152024e-05, 5.590672299149446e-05], [-0.006551301572471857, -0.018436400219798088, -0.0067732203751802444, -0.012879099696874619, -0.003955428022891283, 0.004847760312259197, 0.012295088730752468, -0.008875367231667042, -0.009441735222935677, 0.012578113004565239, 0.005999699700623751, 0.007753403391689062, -0.003553178394213319, -0.009999309666454792, 0.0036497204564511776, 0.016546282917261124, -0.0004676442767959088, 0.003678126260638237, 0.0043813008815050125, 5.420103843789548e-05, -0.006942108739167452, -0.4091600179672241, 0.004175866954028606, -0.0014428176218643785, -0.017738254740834236, -0.028064610436558723, 0.008752895519137383, -0.023467252030968666, -0.0007988233701325953, -0.012584004551172256, -0.01164976041764021, -0.013284335844218731], [7.730634388281032e-05, -5.905953912588302e-06, -3.5956378269474953e-05, 5.739300831919536e-05, -1.5807305544512928e-06, -5.407425487646833e-05, 3.185407695127651e-05, 3.0397344744415022e-05, -2.1935255062999204e-05, -2.2178845028975047e-05, 3.8411621972045396e-06, 3.875723996316083e-05, 0.0001832870621001348, 2.1639036276610568e-05, 4.765190169564448e-05, 6.340952677419409e-05, -4.151483153691515e-05, -1.9845194401568733e-05, 2.9077642466290854e-05, 9.769837197382003e-05, 9.19825688470155e-05, -0.0034694268833845854, 1.3487702744896524e-05, 2.7269918064121157e-05, -9.70999026321806e-05, 1.5297508070943877e-05, -4.12305562349502e-05, 0.0011529852636158466, -4.6320565161295235e-05, 7.508377166232094e-05, 1.0335662409488577e-05, 1.555471317260526e-05], [4.232006540405564e-05, 4.458034709386993e-06, -1.883702861960046e-05, 7.608462510688696e-06, -1.3212608791945968e-05, -2.1620755433104932e-05, 9.895165931084193e-06, 7.373403605015483e-06, 4.534428626357112e-06, 1.3455627367875422e-06, 2.0618706457753433e-06, -2.152024308088585e-06, 4.4773951231036335e-05, 5.944769327470567e-06, 8.895211067283526e-06, -1.1680320312734693e-05, -4.0806582546792924e-05, -3.480522718746215e-05, -1.5523566617048346e-05, 5.666869765263982e-05, 6.461542943725362e-05, -0.00047264405293390155, -2.8671898689935915e-05, 3.829568231594749e-05, 2.095735544571653e-05, -0.0012973183766007423, -2.661971484485548e-05, -0.0011888050939887762, 1.262770865650964e-06, 1.755584162310697e-05, 8.38363393995678e-06, 1.2861215509474277e-05], [8.944128785515204e-05, 3.7452242395374924e-05, 5.818105273647234e-05, -7.962692325236276e-05, 2.6598911063047126e-05, 9.3036811449565e-05, -7.098958303686231e-05, -0.0001611210755072534, 2.1813913917867467e-05, 7.070468564052135e-05, -4.143459955230355e-05, -2.472629967087414e-05, 6.631360156461596e-05, -4.7880177589831874e-05, -0.00017046721768565476, -1.714275640551932e-05, -5.271167538012378e-05, -2.1677540644304827e-05, 3.8690544897690415e-05, -7.532272138632834e-05, 0.0002040723484242335, -4.379290203360142e-06, 8.794669702183455e-05, -4.158123942943348e-07, 1.019187766360119e-05, 6.053533525118837e-06, 2.1419604308903217e-05, 0.000555526465177536, 1.043715383275412e-05, -3.291645407443866e-05, 4.9822810979094356e-05, 4.180839823675342e-05], [6.531093822559342e-05, -3.410108092793962e-06, 3.375942833372392e-05, -2.347978988836985e-05, 8.277529559563845e-06, 1.871541462605819e-05, -3.408688280615024e-05, -5.518477701116353e-05, -7.357684808084741e-06, 3.31634801113978e-05, -2.6911096938420087e-05, 1.7011638192343526e-05, 4.5487591705750674e-05, -1.5768840967211872e-05, -5.463336856337264e-05, 4.802368857781403e-05, -4.401868500281125e-05, -2.8264656066312455e-05, -6.577861455525635e-08, 4.91176251671277e-06, 0.00012529072409961373, -0.0007940504583530128, 1.163662182079861e-05, 2.0773926735273562e-05, -4.386500222608447e-05, -0.0002860771492123604, 9.447336196899414e-06, 0.0014538544928655028, -1.5907716033325414e-07, 1.964164766832255e-06, 3.692993414006196e-05, 1.9938339391956106e-05]], "rec.bias_ih_l0": [-0.008794628083705902, -0.016219526529312134, -0.007374671753495932, -0.01780794747173786, -0.010997273027896881, -0.017026852816343307, -0.007007812149822712, -0.02035210095345974, -0.017293250188231468, -0.01776904985308647, -0.013022001832723618, -0.018590660765767097, -0.028162773698568344, -0.010786582715809345, -0.0131263742223382, -0.020631389692425728, -0.0095783406868577, -0.012445357628166676, -0.014593738131225109, -0.011468249373137951, 