{"model_data": {"model": "SimpleRNN", "input_size": 1, "skip": 1, "output_size": 1, "unit_type": "LSTM", "num_layers": 1, "hidden_size": 16, "bias_fl": true}, "state_dict": {"rec.weight_ih_l0": [[0.00750556169077754], [-0.28988561034202576], [-0.031480561941862106], [0.009008120745420456], [0.004220031667500734], [-0.05235063284635544], [0.0018185117514804006], [0.0034642622340470552], [0.0017651027301326394], [0.0010359431616961956], [-0.29715874791145325], [0.001693533267825842], [0.004342876840382814], [0.0018514215480536222], [-0.011784066446125507], [0.0009541328181512654], [0.004014165140688419], [-0.6693342328071594], [-0.4017832577228546], [0.7738315463066101], [0.003872442524880171], [-0.03939735144376755], [0.0018123347545042634], [0.0026425241958349943], [0.0017552833305671811], [0.0010939917992800474], [0.1281922459602356], [0.0018163544591516256], [0.004072804003953934], [0.0016692111967131495], [-0.01107525359839201], [0.0010383938206359744], [0.3240896761417389], [-1.2198961973190308], [1.1309183835983276], [1.7911276817321777], [-0.008270682767033577], [-0.4160439968109131], [0.008063698187470436], [-0.007888967171311378], [0.04887676239013672], [0.01338335033506155], [-0.4782952070236206], [0.009858712553977966], [0.014272885397076607], [0.001966612646356225], [0.15616852045059204], [-0.007096125278621912], [0.006026150193065405], [-0.5530555844306946], [-0.520344078540802], [1.4033548831939697], [0.003622388932853937], [-0.053415652364492416], [0.0016774593386799097], [0.0033818474039435387], [0.001194174401462078], [0.0007018589531071484], [0.01731131225824356], [0.0014045416610315442], [0.004175013396888971], [0.0017108650645241141], [-0.012577402405440807], [0.0008263846975751221]], "rec.weight_hh_l0": [[-0.002734942827373743, 0.006621815264225006, 0.02647855505347252, 0.012681693769991398, 0.0013612606562674046, 0.0034527783282101154, -0.001606923178769648, -0.0015824259025976062, -0.002106955274939537, -0.0021329454611986876, 0.007892685011029243, -0.0023762548808008432, 0.0029786708764731884, 0.0019140280783176422, -0.0013725960161536932, -0.001471089432016015], [-0.07153796404600143, 0.276418000459671, -0.07925160974264145, 0.3249000310897827, -0.020973101258277893, 0.11412054300308228, 0.002121509285643697, 0.027975909411907196, -0.0024776181671768427, -0.002470105653628707, 0.6090929508209229, -0.002720242366194725, 0.005633176304399967, -0.006939640734344721, -0.00550965778529644, 0.0058295405469834805], [0.09618455171585083, -0.2842886447906494, 0.1691242903470993, 0.5152589082717896, 0.0007952716550789773, -0.07518058270215988, 0.01258523017168045, -0.004921857267618179, 0.04105623811483383, 0.027417566627264023, 0.7599800825119019, 0.016626056283712387, 0.004671846982091665, 0.015013414435088634, 0.09514813870191574, -0.009191139601171017], [0.10153589397668839, -0.7761513590812683, -0.6490330696105957, -0.51457279920578, 0.0019718145485967398, -0.13184985518455505, -0.0033971064258366823, 2.027109803748317e-05, -0.01822592318058014, -0.008294404484331608, -0.08617422729730606, 0.0022269899491220713, -0.013583168387413025, -0.011339961551129818, -0.032368503510951996, -0.005184987094253302], [-0.0005468640010803938, -0.00016388866060879081, 0.01542014442384243, 0.0043950872495770454, 8.359862840734422e-05, 0.000303608801914379, -6.780463445466012e-05, -0.00013098747876938432, -0.00015295992488972843, -0.00011882818944286555, 0.007044664118438959, -9.578713070368394e-05, 8.421309757977724e-05, 2.753716671577422e-06, -0.00010413948621135205, -7.424533396260813e-05], [-0.003395091276615858, 0.05951728671789169, 0.16183632612228394, -0.038336023688316345, -0.0007417296292260289, -0.00038647843757644296, -0.004527571145445108, -0.0019291279604658484, -0.00421676691621542, -0.005043266341090202, 0.024696188047528267, -0.005781820043921471, 0.005415308754891157, 0.005080655217170715, -0.004485336598008871, -0.0023443056270480156], [-0.0011538333492353559, 0.0017807111144065857, 0.007456509862095118, 0.0034176940098404884, 3.9576032577315345e-05, 0.0012244712561368942, -2.7134896640745865e-07, 0.00013718061381950974, -0.00012925517512485385, -0.0001714801328489557, 0.0042748539708554745, -0.00017828986165113747, -1.052733750839252e-05, 2.1472416847245768e-05, -2.338250669708941e-05, -8.820756920613348e-05], [0.0011965676676481962, -0.0014702389016747475, 0.0031328166369348764, 0.0030824027489870787, -4.8964993766276166e-05, -0.0009699753718450665, 1.5994151908671483e-05, -8.79840154084377e-05, -2.636879071360454e-05, 3.2557916711084545e-05, -0.0007443060749210417, 1.3119842151354533e-05, -4.1113129555014893e-05, 3.041215904886485e-06, -0.00016450585098937154, -4.60547653347021e-06], [-0.002351018600165844, 0.0036806780844926834, 0.010680734179913998, 0.003574804402887821, 0.00013780526933260262, 0.002136695897206664, -0.0002479026443324983, -2.665463853190886e-06, 9.69836037256755e-07, -0.0003188051050528884, 0.0060256244614720345, -0.0002879961102735251, -0.00018435421225149184, 0.00024808745365589857, 0.00010811081301653758, -0.00021976383868604898], [-0.002483371179550886, 0.0030005951412022114, 0.011465761810541153, 0.004298314917832613, 0.0002821930102072656, 0.0023421458899974823, -0.00020010162552352995, 1.245235853275517e-05, -0.00038356450386345387, -0.0004578137013595551, 0.009199939668178558, -0.00041773205157369375, 5.7858436775859445e-05, 0.00033345812698826194, -0.00017305463552474976, -0.00034739263355731964], [-0.15840694308280945, 0.5871394872665405, -0.550101637840271, 1.0668226480484009, 0.01061929203569889, 0.08828771859407425, 0.009533422067761421, -0.0019592370372265577, -0.019016239792108536, 0.012339621782302856, -0.14156049489974976, 0.01759546436369419, -0.018803060054779053, -0.019264068454504013, -0.07740002125501633, 0.02100509963929653], [-0.003648293437436223, 0.0035619502887129784, 0.01118361297994852, 0.006310903001576662, 0.0003125922230537981, 0.00356097798794508, -0.0002822135284077376, -2.9500562959583476e-05, -0.00045331590808928013, -0.0005562247824855149, 0.009552977979183197, -0.0003207751433365047, 0.00034206637064926326, 0.00037012711982242763, -0.00022324958990793675, -0.00043158233165740967], [0.00029316890868358314, 0.00010379265586379915, 0.007090891245752573, 0.002210723701864481, 5.765213063568808e-05, -0.0008278695167973638, -4.8179052100749686e-05, 0.00015400575648527592, 0.000115622126031667, 0.00010918844782281667, 0.00114439707249403, -0.000153619097545743, 0.00039328576531261206, 4.753718530992046e-05, 6.050309821148403e-06, -5.935168519499712e-05], [-0.0016497868346050382, 0.0018243257654830813, 0.005683789029717445, 0.004860200919210911, 0.00018205546075478196, 0.0016911663115024567, -4.850115510635078e-05, -5.722197784052696e-06, -0.00023219741706270725, -0.0002673861163202673, 0.004785314202308655, -0.00022933418222237378, 9.734679770190269e-05, 0.00013884923828300089, -0.00011120939598185942, -0.0001779095910023898], [-0.002190842991694808, 0.008080840110778809, 0.0023457135539501905, -0.0003554383583832532, 0.00018052603991236538, 0.0026293452829122543, 0.0001348956284346059, -0.0001912933075800538, 0.0006742997211404145, -0.00018369358440395445, 0.004785908851772547, -0.00028482265770435333, 0.0003092382394243032, 0.0002962051657959819, 0.0014857952482998371, -0.00020896377100143582], [-0.001544230617582798, 0.0005105264717712998, 0.013104083016514778, 0.006263964343816042, 0.00023555786174256355, 0.0012657818151637912, -6.50972142466344e-05, -2.6467652787687257e-05, -0.00032273397664539516, -0.0003075047570746392, 0.007992536760866642, -0.0002814110484905541, 0.00020933245832566172, 0.00013791520905215293, -0.00014066304720472544, -0.0001435489539289847], [-0.002586100483313203, 0.006003102287650108, 0.013124884106218815, 0.00588081544265151, 0.0015761104878038168, 0.003019976196810603, -0.0022101597860455513, -0.001739559113048017, -0.0027936899568885565, -0.0026233417447656393, 0.003063319018110633, -0.003036776790395379, 0.0034088001120835543, 0.0021691382862627506, -0.0022179277148097754, -0.0017617030534893274], [-0.10697375982999802, -0.020621735602617264, -0.07760701328516006, 0.06611175090074539, -0.024795519188046455, 0.09297987073659897, 0.0059491489082574844, 0.02110992558300495, -0.00477050244808197, 0.00926157832145691, 0.8863451480865479, 0.014201926067471504, 0.0068711633794009686, -0.013830463401973248, -0.033637985587120056, 0.01678604632616043], [-0.020810000598430634, -0.28592997789382935, -0.6458677649497986, -0.7581468820571899, -0.011208873242139816, -0.01971556432545185, -0.009712841361761093, -0.010751442052423954, 0.009059777483344078, 0.006432548630982637, 0.601115882396698, 0.00455876300111413, 0.016963040456175804, 0.014138094149529934, 0.008753165602684021, 0.0014359060442075133], [0.011404663324356079, -0.37131428718566895, -0.12471365928649902, 0.3407091200351715, -0.0033651082776486874, -0.08408145606517792, 0.020832082256674767, -0.005609018262475729, -0.0012510961387306452, 0.020464017987251282, -0.7285330295562744, 0.031979214400053024, -0.03770509734749794, -0.03351947292685509, -0.029178354889154434, 0.03323452174663544], [-0.0005312533467076719, -9.173723810818046e-05, 0.013791462406516075, 0.004049326758831739, 7.759594154777005e-05, 0.00029465631814673543, -5.563980812439695e-05, -0.00012105588393751532, -0.00014038807421457022, -0.00010817990551004186, 0.006445229984819889, -8.534132939530537e-05, 6.810067861806601e-05, -1.4073552847548854e-06, -8.802183583611622e-05, -6.654465687461197e-05], [-0.002910968381911516, 0.0374055914580822, 0.08102762699127197, -0.0434880256652832, 0.0011785157257691026, -0.0006463490426540375, -0.005674845539033413, -0.0030295441392809153, -0.005753755569458008, -0.005535794422030449, 0.0019427352817729115, -0.006941512227058411, 0.00593084329739213, 0.005429379176348448, -0.006298060994595289, -0.0031073482241481543], [-0.001117885927669704, 0.0017570755444467068, 0.007156684063374996, 0.003357699140906334, 2.7019481422030367e-05, 0.001177229918539524, -1.9192748368368484e-06, 0.0001359938905807212, -0.00010982560343109071, -0.00015599372272845358, 0.004133305512368679, -0.00016675735241733491, -1.8702203306020238e-05, 1.274996975553222e-05, -1.0298498636984732e-05, -7.800900493748486e-05], [0.0011329971021041274, -0.0011684760684147477, 0.0030830258037894964, 0.002549805911257863, -5.2796291129197925e-05, -0.0009033196838572621, 4.8736506869317964e-05, -7.322196324821562e-05, -2.9832712243660353e-05, 2.680541183508467e-05, -0.0005556782125495374, 6.928607035661116e-06, -8.428153523709625e-05, 7.908188308647368e-06, -0.00017034122720360756, -7.646050107723568e-06], [-0.0023478087969124317, 0.003783636959269643, 0.010202182456851006, 0.0037246448919177055, 0.00013993850734550506, 0.002133776433765888, -0.0002179515577154234, 4.405770596349612e-05, -9.210652933688834e-06, -0.00032023739186115563, 0.005858550779521465, -0.00028432306135073304, -0.0002722597273532301, 0.00023351053823716938, 8.4948907897342e-05, -0.00021411277703009546], [-0.0024198261089622974, 0.0029222730081528425, 0.011000889353454113, 0.004331550560891628, 0.00026032282039523125, 0.0023094089701771736, -0.00016008401871658862, 2.642485560500063e-05, -0.0003553732531145215, -0.0004288647323846817, 0.008952171541750431, -0.0003874096437357366, 5.012414590055414e-07, 0.00030709270504303277, -0.00013150113227311522, -0.00032869100687094033], [-0.11174099892377853, 0.6832996606826782, -1.2310965061187744, 0.7957137823104858, 0.0033997222781181335, 0.17732033133506775, -0.003970046062022448, -0.003232551971450448, 0.006974708288908005, 0.005546089261770248, -0.28502973914146423, -0.0028106055688112974, 0.010010688565671444, -0.0016911737620830536, 0.0008977096294984221, 0.00298103503882885], [-0.003551134141162038, 0.003505591070279479, 0.01082699280232191, 0.006398849654942751, 0.0002962130820378661, 0.0035037302877753973, -0.00023532425984740257, -1.1289301255601458e-05, -0.00042021871195174754, -0.0005308658583089709, 0.009378827176988125, -0.0003166041278745979, 0.0002664376806933433, 0.0003565128135960549, -0.00017673928232397884, -0.00040997425094246864], [0.00026816761237569153, 0.00016365146439056844, 0.006872909143567085, 0.0020278964657336473, 3.830714922514744e-05, -0.0007986982818692923, -3.507064684526995e-05, 0.0001863607030827552, 0.00020879793737549335, 0.00014061985712032765, 0.0010944345267489552, -0.00014065198774915189, 0.00037917893496342003, 4.6678236685693264e-05, 6.00377497903537e-05, -5.5943844927242026e-05], [-0.0016444213688373566, 0.0019279139814898372, 0.005597664508968592, 0.004664626903831959, 0.0001728335628286004, 0.0017081542173400521, -3.7047899240860716e-05, 8.71855093009799e-07, -0.00021863100118935108, -0.00025673353229649365, 0.004808761645108461, -0.00022909589461050928, 8.368823182536289e-05, 0.00013813006808049977, -9.584147483110428e-05, -0.00016673357458785176], [-0.002206786535680294, 0.007721384521573782, 0.0035964720882475376, -7.658754475414753e-05, 0.0002545438474044204, 0.0026689316146075726, 2.4372449843212962e-05, -0.00014028733130544424, 0.0005618135328404605, -0.0003289924643468112, 0.004475126974284649, -0.0003993543505202979, 0.00029461627127602696, 0.00034463402698747814, 0.001461247680708766, -0.00028861663304269314], [-0.0014752476708963513, 0.0004856438608840108, 0.012537284754216671, 0.006112809758633375, 0.00021880405256524682, 0.0012193743605166674, -6.227042467799038e-05, -2.4124774427036755e-05, -0.00029626305331476033, -0.0002871463366318494, 0.0075058648362755775, -0.0002634022675920278, 0.0001843446952989325, 0.0001309492945438251, -0.00011710307444445789, -0.0001345757773378864], [-0.010840381495654583, 0.26138100028038025, -0.1953132301568985, -0.3079763650894165, 0.010102768428623676, -0.014091274701058865, 0.011450917460024357, -0.011708843521773815, 0.014366963878273964, 0.015472118742763996, 0.06356396526098251, 0.012150371447205544, -0.004588666837662458, -0.0033046118915081024, 0.02235710434615612, 0.004801309667527676], [0.14804495871067047, -0.8367210030555725, 0.7558878064155579, 0.9237646460533142, 0.005620186682790518, -0.29259777069091797, -0.017355185002088547, 0.0001813378621591255, -0.03811073675751686, -0.021922336891293526, -0.4970061182975769, -0.023560184985399246, -0.0014178503770381212, 0.0022162196692079306, -0.07048807293176651, -0.0007803537300787866], [-0.10327976197004318, 0.5896698832511902, 0.5946711897850037, -0.38686126470565796, 0.029233058914542198, 0.15053153038024902, -0.007679375819861889, -0.013964594341814518, -0.011086332611739635, -0.01580485887825489, -1.2937239408493042, -0.014600326307117939, 0.02715863659977913, 0.01605411060154438, 0.01741911843419075, -0.03301168605685234], [0.03613880276679993, -0.8597902059555054, -0.9431102871894836, 0.2615315318107605, 0.006274467799812555, 0.07457531988620758, -0.004105133004486561, -0.00288404175080359, 0.003033688059076667, -0.006841626949608326, 0.05504511669278145, -0.003205975517630577, 0.007327395956963301, 0.005879363045096397, 0.029114898294210434, -0.01197778433561325], [0.01830046996474266, -0.016946809366345406, 0.007932150736451149, -0.0033728403504937887, -0.018130162730813026, -0.01982733979821205, -0.011603059247136116, 0.010858003050088882, -0.005949991289526224, -0.013556529767811298, 0.01040935143828392, -0.008939972147345543, 0.01356095727533102, 0.000981533550657332, -0.00803401693701744, -0.007045822683721781], [-0.00047725008334964514, -0.22225335240364075, 0.16059748828411102, 0.5506895780563354, 0.002424641977995634, -0.0003557472082320601, -0.007768710609525442, 0.010892513208091259, -0.01603841595351696, -0.015170209109783173, 0.05405433475971222, -0.01281881146132946, 0.0016932995058596134, 0.008108316920697689, -0.018698643893003464, -0.010055421851575375], [0.02028614841401577, 0.01473172940313816, -0.0013820998137816787, 0.0062465057708323, 0.01303053554147482, -0.0021579661406576633, -0.015876056626439095, -0.006392540875822306, -0.01253475435078144, -0.009754450060427189, 0.0024014669470489025, -0.014760828576982021, 0.005863598082214594, 0.007631043903529644, -0.006146330386400223, -0.016582882031798363], [-0.0250666793435812, 0.007323584519326687, -0.01093368697911501, 0.020521806553006172, 0.008632947690784931, 0.03537231311202049, 0.004260038025677204, -0.01118262019008398, 0.0033617003355175257, 0.01117273885756731, 0.007870095781981945, 0.007921747863292694, -0.0031715785153210163, -0.004234192427247763, 0.0007187950541265309, 0.00849946029484272], [0.007095831912010908, 0.07035994529724121, -0.025304052978754044, -0.01463411096483469, 0.019491253420710564, 0.005571735091507435, -0.007317763287574053, -0.005198265425860882, -0.01636604219675064, -0.009591248817741871, 0.0037145251408219337, -0.013279651291668415, 0.0010432590497657657, 0.008832501247525215, -0.007258697412908077, -0.014900023117661476], [0.02499123476445675, 0.003407369600608945, -0.00017387460684403777, -0.004254288040101528, 0.020522447302937508, -0.01914597861468792, -0.013479559682309628, -0.005198582541197538, -0.018347349017858505, -0.01899064891040325, -0.0066025881096720695, -0.021871518343687057, 0.0033230120316147804, 0.01355262752622366, -0.0021951734088361263, -0.02742750383913517], [-0.033934373408555984, 0.1617669314146042, 1.4550113677978516, 0.506761372089386, -0.004181143827736378, -0.06762436032295227, 0.0008461812976747751, 0.011366203427314758, -0.0011435969499871135, -0.004677341785281897, 0.7620554566383362, -0.0041802492924034595, -0.006838711444288492, 0.0047906325198709965, -0.0028047407977283, -0.000443841825472191], [0.02141500450670719, -0.0011223929468542337, 0.006187198217958212, -0.003794373944401741, 0.02106841653585434, -0.013072636909782887, -0.011439843103289604, -0.006415946874767542, -0.014807709492743015, -0.011788466013967991, -0.009915635921061039, -0.018055474385619164, -0.00014436361379921436, 0.011555896140635014, -0.003387262113392353, -0.021365726366639137], [-0.008077852427959442, 0.00828111544251442, -0.0005965173477306962, -0.014784182421863079, -0.011319546960294247, -0.002196159679442644, 0.004804139956831932, 0.000179734401172027, 0.0049886745400726795, 0.008835803717374802, 0.0017385262763127685, 0.012209499254822731, -0.01138671487569809, -0.013738150708377361, -0.007781585678458214, 0.019957341253757477], [-0.015713568776845932, 0.0135129289701581, -0.009427359327673912, 0.006313194055110216, -0.006908933166414499, 0.016285348683595657, 0.0019369247602298856, -0.00246618315577507, 0.0010597826912999153, 0.004648918751627207, 0.009153810329735279, 0.008539978414773941, 0.0016267847968265414, -0.012268731370568275, -0.007026171311736107, 0.012178013101220131], [0.0033400082029402256, 0.24200016260147095, -0.08449994772672653, -0.07766938209533691, 0.009320921264588833, 0.011236078105866909, -0.006444019265472889, -0.0026188332121819258, -0.016062874346971512, -0.007473011035472155, 0.03906629979610443, -0.00916640367358923, 0.0033355727791786194, 0.004432127345353365, -0.017044037580490112, -0.0071348026394844055], [0.01676870696246624, -0.02367611788213253, 0.009573990479111671, 0.0043050446547567844, 0.02628532610833645, -0.01142659317702055, -0.0074241613037884235, -0.007445995230227709, -0.010115256533026695, -0.012113295495510101, -0.007978138513863087, -0.017040157690644264, -0.0017955227522179484, 0.014359034597873688, 0.007489215116947889, -0.027015043422579765], [-0.002685054438188672, 0.0073839519172906876, 0.026008794084191322, 0.014373157173395157, 0.0013604904524981976, 0.0034946114756166935, -0.001599201699718833, -0.0015546272043138742, -0.002102526603266597, -0.0021376025397330523, 0.008684461936354637, -0.0023791692219674587, 0.0029648570343852043, 0.001919058500789106, -0.001331108040176332, -0.0014812591252848506], [-0.05557922273874283, 0.4021756649017334, -0.3542555570602417, 0.20499013364315033, -0.022385887801647186, 0.0871501937508583, -0.00034705441794358194, 0.025342943146824837, -0.002597138052806258, -0.002411025110632181, 0.3956950604915619, -0.0033923988230526447, 0.0046755666844546795, -0.006581596098840237, -0.011613896116614342, 0.005396575666964054], [-0.03313315287232399, 0.18133506178855896, -0.7662043571472168, 0.1043093353509903, 0.0022801540326327085, 0.006607644259929657, -0.0035151613410562277, -0.015337055549025536, -0.001961280358955264, 0.010742438957095146, 0.036069080233573914, 0.0016709420597180724, -0.013391067273914814, 0.0017479141242802143, -0.020778359845280647, 0.011513985693454742], [0.14184102416038513, -1.027024745941162, -0.5977627635002136, 0.24879680573940277, 0.005258282646536827, -0.16119273006916046, -0.008054293692111969, 0.001769435591995716, -0.019565889611840248, -0.013632156886160374, -0.6090946197509766, -0.004888721741735935, -0.007546527311205864, -0.005545432213693857, -0.017220711335539818, -0.009103018790483475], [-0.000582599313929677, -4.977578282705508e-05, 0.015091738663613796, 0.004331337288022041, 8.605910261394456e-05, 0.00034430588129907846, -6.858456617919728e-05, -0.0001239953126059845, -0.00016019976465031505, -0.00012646928371395916, 0.007265203166753054, -0.00010361721069784835, 8.327660907525569e-05, 6.967171884753043e-06, -0.00011824609828181565, -7.817722507752478e-05], [-0.003574143396690488, 0.05933167040348053, 0.1453302502632141, -0.03585021570324898, -0.0004532622988335788, -0.000274377380264923, -0.004558986518532038, -0.0021647701505571604, -0.004323646891862154, -0.004885670263320208, 0.027417020872235298, -0.005674013402312994, 0.0053047253750264645, 0.004915645811706781, -0.004667493049055338, -0.0022917904425412416], [-0.0011918630916625261, 0.0019259838154539466, 0.00739250285550952, 0.0034036964643746614, 4.552577593130991e-05, 0.0012782482663169503, -2.997049023178988e-06, 0.00014625300536863506, -0.00013699404371436685, -0.00017693157133180648, 0.004358101170510054, -0.0001859746262198314, -1.1570593414944597e-05, 2.3973883799044415e-05, -3.819615449174307e-05, -8.904121204977855e-05], [0.0012177100870758295, -0.0013489399570971727, 0.003228005487471819, 0.0031715312507003546, -5.507428795681335e-05, -0.0010041269706562161, 1.295602760365e-05, -9.19923695619218e-05, -1.584694837220013e-05, 3.9037444366840646e-05, -0.0008193642715923488, 2.1850375560461544e-05, -3.696725980262272e-05, -9.352299343845516e-07, -0.0001455284800613299, -5.672776296705706e-06], [-0.0024337153881788254, 0.004008954856544733, 0.010518543422222137, 0.0035064530093222857, 0.0001430837291991338, 0.0022699213586747646, -0.0002532454382162541, 2.344489075767342e-05, -9.802515705814585e-06, -0.00034063830389641225, 0.006247126031666994, -0.0003151840064674616, -0.00018504654872231185, 0.0002695147122722119, 0.00010344591282773763, -0.00023413523740600795], [-0.0025443851482123137, 0.003071804065257311, 0.011234063655138016, 0.004183867014944553, 0.0002942004648502916, 0.0024290471337735653, -0.00020990220946259797, 2.3686050553806126e-05, -0.00040423806058242917, -0.00047275240649469197, 0.009362144395709038, -0.00043508666567504406, 5.731277633458376e-05, 0.0003471967065706849, -0.00020844904065597802, -0.00035633385414257646], [-0.04596710577607155, 1.204386591911316, -0.7282619476318359, 0.8037353754043579, -0.01604425348341465, 0.07042252272367477, 0.013225606642663479, -0.0047867437824606895, 0.035793714225292206, 0.018730390816926956, -0.2648860812187195, 0.026268474757671356, 0.004666587803512812, -0.0035273199900984764, 0.07490750402212143, -0.0012317388318479061], [-0.0037447575014084578, 0.00364674162119627, 0.01096109114587307, 0.006130245514214039, 0.00032948190346360207, 0.0036874322686344385, -0.00029453029856085777, -1.3350841072679032e-05, -0.00048527875333093107, -0.0005791345611214638, 0.00971572007983923, -0.00034403702011331916, 0.00034093839349225163, 0.00038243597373366356, -0.00028324450249783695, -0.0004412069683894515], [0.00022911398264113814, 0.0002175965200876817, 0.007164343260228634, 0.0021382952108979225, 6.183880032040179e-05, -0.0007552833412773907, -4.7777313739061356e-05, 0.00015419613919220865, 0.00010948412091238424, 0.00010633985220920295, 0.0012465821346268058, -0.00015832504141144454, 0.00039275645394809544, 5.033880370319821e-05, -1.2133480595366564e-05, -6.112998380558565e-05], [-0.0016853103879839182, 0.0018706601113080978, 0.00563646387308836, 0.00465383380651474, 0.00019089689885731786, 0.0017345137894153595, -5.593318201135844e-05, -5.536365733860293e-06, -0.0002501383423805237, -0.0002733080182224512, 0.004803610034286976, -0.00023650350340176374, 9.79569012997672e-05, 0.00014043196279089898, -0.0001543685793876648, -0.00017651394591666758], [-0.0022995241452008486, 0.008531766012310982, 0.0020656927954405546, -0.0003759326646104455, 0.00017895962810143828, 0.0027511557564139366, 0.00014372909208759665, -0.00013364502228796482, 0.0006914356490597129, -0.0002125016471836716, 0.004912659991532564, -0.00032722469768486917, 0.00027979761944152415, 0.00033322288072668016, 0.001485203392803669, -0.0002456165384501219], [-0.001600015559233725, 0.0004918575286865234, 0.012950503267347813, 0.006059343460947275, 0.0002467188169248402, 0.0013263565488159657, -7.358448056038469e-05, -1.9499737391015515e-05, -0.0003444674366619438, -0.0003195062163285911, 0.008082078769803047, -0.0002950709022115916, 0.00020794426382053643, 0.0001440087507944554, -0.00018811084737535566, -0.00014809185813646764]], "rec.bias_ih_l0": [-0.043420303612947464, 0.20621156692504883, -1.3365243673324585, -0.49131157994270325, -0.022501753643155098, -0.2758720815181732, -0.01763988472521305, -0.012820476666092873, -0.018008707091212273, -0.02078356221318245, -1.1458277702331543, -0.020168736577033997, -0.01236199401319027, -0.013409644365310669, -0.014096241444349289, -0.02866235375404358, -0.015797434374690056, 0.27883973717689514, 1.6451518535614014, 0.6678961515426636, -0.019497312605381012, -0.06687654554843903, -0.016670333221554756, -0.011671597138047218, -0.017362141981720924, -0.019974451512098312, 1.1968177556991577, -0.019111651927232742, -0.011765996925532818, -0.012748765759170055, -0.017962081357836723, -0.027919063344597816, -0.0008900288958102465, 0.3264191746711731, -0.2734600305557251, -0.47026148438453674, 0.01706177182495594, 0.1125502958893776, 0.007321547716856003, 0.005904691759496927, -0.06825108826160431, -0.010775933973491192, 0.08664625883102417, -0.0239292923361063, 0.026445824652910233, -0.003527321619912982, -0.07759415358304977, -0.006014648824930191, -0.04320676624774933, 0.4157572388648987, 0.44438713788986206, -0.44320276379585266, -0.022541765123605728, -0.18307486176490784, -0.017666973173618317, -0.012854454107582569, -0.018045574426651, -0.020814942196011543, -0.3714362382888794, -0.020190997049212456, -0.012401565909385681, -0.013423510827124119, -0.014140983112156391, -0.02869534119963646], "rec.bias_hh_l0": [-0.043422598391771317, 0.24891866743564606, -1.4087764024734497, -0.4633660316467285, -0.022501753643155098, -0.2681366801261902, -0.01763988472521305, -0.012820476666092873, -0.018008707091212273, -0.02078356221318245, -0.9914138317108154, -0.020168736577033997, -0.01236199401319027, -0.013409644365310669, -0.014096241444349289, -0.02866235375404358, -0.015796944499015808, 0.2720271646976471, 1.7673507928848267, 0.6594806909561157, -0.019497312605381012, -0.06284605711698532, -0.016670333221554756, -0.011671597138047218, -0.017362141981720924, -0.019974451512098312, 1.3486707210540771, -0.019111651927232742, -0.011765996925532818, -0.012748765759170055, -0.017962081357836723, -0.027919063344597816, -0.10284942388534546, -0.030903510749340057, 0.05924863740801811, -0.25535598397254944, -0.003220093436539173, 0.009501437656581402, -0.022515995427966118, -0.012004663236439228, 0.03930951654911041, -0.006944506894797087, 0.4496525824069977, 0.005632153246551752, -0.00808231346309185, 0.012537081725895405, 0.02500515803694725, -0.005250303540378809, -0.04321518540382385, 0.39737170934677124, 0.5626912713050842, -0.4403866231441498, -0.022541765123605728, -0.1796807497739792, -0.017666973173618317, -0.012854454107582569, -0.018045574426651, -0.020814942196011543, -0.3306659758090973, -0.020190997049212456, -0.012401565909385681, -0.013423510827124119, -0.014140983112156391, -0.02869534119963646], "lin.weight": [[-0.0824199840426445, 0.7793170213699341, -0.4004468619823456, -0.4357217848300934, 0.004257773980498314, 0.22878272831439972, 0.004614800680428743, 0.004655307158827782, 0.011428982019424438, 0.0005700974725186825, 0.40715292096138, 5.314072041073814e-05, 0.0036834552884101868, 0.00815355870872736, 0.030780291184782982, -0.010993562638759613]], "lin.bias": [-0.14020706713199615]}}