{"model_data": {"model": "SimpleRNN", "input_size": 1, "skip": 1, "output_size": 1, "unit_type": "LSTM", "num_layers": 1, "hidden_size": 16, "bias_fl": true}, "state_dict": {"rec.weight_ih_l0": [[-0.3794710636138916], [0.008068671450018883], [0.10185134410858154], [0.2513948082923889], [0.0306822769343853], [-0.4067080616950989], [0.01014543417841196], [-0.0074012367986142635], [0.2537379860877991], [-0.5415307283401489], [-0.668538510799408], [-0.08260686695575714], [-0.005742608569562435], [0.05070243775844574], [0.1274198740720749], [-0.17686371505260468], [-0.22086648643016815], [-0.1640469878911972], [0.2119830846786499], [0.4534417390823364], [0.028990257531404495], [-0.5683155059814453], [0.05123676359653473], [0.010950006544589996], [0.49520766735076904], [-0.2503049671649933], [-0.5013102293014526], [-0.03468349948525429], [-0.11185237020254135], [0.05361318960785866], [0.18896037340164185], [-0.16236630082130432], [0.5931724905967712], [-0.7107276916503906], [0.700896680355072], [0.6882697343826294], [0.3379063606262207], [-0.5135722756385803], [-0.19427260756492615], [0.3530241847038269], [0.6233730316162109], [-0.4206146001815796], [0.310259610414505], [-0.4528997838497162], [0.39623114466667175], [0.3823566734790802], [0.5404221415519714], [-0.2116626501083374], [-0.6709321737289429], [-0.12100356072187424], [-0.019124122336506844], [0.2550734877586365], [0.034460004419088364], [-0.7273434400558472], [0.028500845655798912], [-0.08918464928865433], [0.14134518802165985], [-0.2778140902519226], [0.5048964619636536], [-0.10265694558620453], [-0.009550785645842552], [0.04699185490608215], [0.13978569209575653], [-0.2283782958984375]], "rec.weight_hh_l0": [[0.1492263525724411, 0.06410510092973709, 0.06938309222459793, 0.03447443246841431, 0.04633461683988571, -0.012734905816614628, 0.12159565091133118, 0.07159466296434402, -0.006955901626497507, -0.1343459039926529, -0.015545442700386047, -0.06001545861363411, -0.002070870017632842, 0.03582127019762993, 0.0017687099752947688, -0.11767047643661499], [-0.00024875873350538313, 0.02289138175547123, 0.10124955326318741, 0.08601174503564835, 0.03897281736135483, -0.012120268307626247, 0.1291678100824356, 0.0368901789188385, 0.02794286422431469, -0.09080127626657486, -0.012708521448075771, -0.07246747612953186, -0.004573980811983347, 0.04791993275284767, -0.05060167238116264, 0.0656483918428421], [0.02506256476044655, -0.01042192243039608, 0.1734025925397873, 0.20619814097881317, 0.05241388827562332, -0.12391538172960281, 0.13778671622276306, 0.010839993134140968, 0.0684627816081047, -0.06409600377082825, -0.11871805042028427, -0.07000666856765747, 0.031096864491701126, 0.05406749248504639, -0.008633472956717014, 0.07772132754325867], [0.13427738845348358, -0.07312940806150436, 0.1988368034362793, 0.16065265238285065, 0.0698433443903923, -0.025624731555581093, 0.12364020943641663, 0.081471286714077, 0.08505012840032578, -0.06983604282140732, -0.10675130039453506, -0.1065414547920227, 0.016825364902615547, 0.0755406990647316, -0.0008422516984865069, 0.024780435487627983], [0.016426848247647285, -0.015611565671861172, 0.0378882922232151, 0.022299161180853844, 0.0022943720687180758, -0.024773642420768738, 0.004002066794782877, 0.0042290519922971725, 0.008863839320838451, -0.023802734911441803, 0.045485127717256546, -0.0017779367044568062, -0.0007445670780725777, 0.0019179199589416385, 0.00017725072393659502, 0.0006247635465115309], [-0.0897672101855278, -0.057864412665367126, 0.025186019018292427, 0.12780098617076874, 0.007070586085319519, 0.07610871642827988, 0.10612709820270538, -0.03118184395134449, -0.06945798546075821, 0.046382129192352295, -0.07191064208745956, -0.03923629969358444, 0.040799062699079514, 0.015120752155780792, -0.07400066405534744, -0.032083019614219666], [-0.019251279532909393, 0.03529695048928261, -0.050151996314525604, -0.026831911876797676, -0.0017315548611804843, 0.027462536469101906, -0.007142466027289629, -0.012557219713926315, -0.00892539881169796, 0.012891525402665138, -0.0749143436551094, 0.021732328459620476, 0.0020142332650721073, -0.015995357185602188, 0.009085077792406082, -0.004796931054443121], [0.05086232349276543, -0.041850745677948, 0.06831274926662445, 0.03486661612987518, 0.0028589305002242327, -0.0483463890850544, 0.012399590574204922, 0.013643106445670128, 0.014634263701736927, -0.04876957833766937, 0.08336368203163147, -0.016773603856563568, -0.0001442416396457702, 0.007642083801329136, -0.007343047298491001, -0.0008767448016442358], [0.03917800635099411, -0.02527754381299019, 0.0915040671825409, 0.0837586373090744, 0.024813389405608177, -0.06651955097913742, 0.0525011345744133, 0.04367559030652046, 0.0331801176071167, -0.010976670309901237, 0.07309374958276749, -0.05920412763953209, 0.005949529353529215, 0.041108012199401855, -0.022716058418154716, 0.011584857478737831], [0.22886723279953003, -0.10556529462337494, 0.2034398913383484, 0.09097571671009064, 0.013781721703708172, -0.21361398696899414, 0.06259462237358093, 0.04647120088338852, -0.0021290837321430445, -0.2142798751592636, -0.18472543358802795, -0.05755191668868065, 0.04232686012983322, 0.026008345186710358, 0.049667708575725555, -0.024917514994740486], [0.06360151618719101, 0.09204603731632233, -0.2522461712360382, -0.35993725061416626, -0.01707306317985058, 0.03635963797569275, -0.06527803838253021, 0.1121046245098114, -0.2208070009946823, -0.10207999497652054, 0.44842860102653503, -0.04794361814856529, -0.04677686467766762, 0.040039464831352234, -0.41130203008651733, -0.04753812402486801], [0.03377918899059296, -0.029784422367811203, 0.0611267127096653, 0.047061435878276825, 0.005096587352454662, -0.06375928968191147, 0.030927317216992378, 0.02894413098692894, 0.021813876926898956, -0.04415319487452507, 0.013075578957796097, -0.040185488760471344, -0.008088924922049046, 0.02263626456260681, -0.034794170409440994, 0.017754513770341873], [0.018640533089637756, -0.024080993607640266, 0.032816898077726364, 0.03196866437792778, 0.0016758035635575652, -0.050741177052259445, -0.002532290993258357, 0.0024818959645926952, 0.0071612936444580555, -0.026557940989732742, 0.018078040331602097, 0.005488033406436443, 0.003423917805776, -0.00289926421828568, 0.005803448148071766, -0.02538973093032837], [0.0465867854654789, -0.04848995804786682, 0.08002026379108429, 0.044826000928878784, 0.0024971633683890104, -0.06818471103906631, 0.011915118433535099, 0.012313543818891048, 0.018312301486730576, -0.04677683487534523, 0.0898355096578598, -0.01731978915631771, -0.0026566609740257263, 0.007973254658281803, -0.0037332542706280947, 0.006010626908391714], [-0.007251379080116749, 0.07212874293327332, -0.0781269371509552, -0.03741804510354996, 0.008141161873936653, 0.01229136437177658, -0.017723828554153442, -0.004321645013988018, -0.010677431710064411, -2.9559929316747002e-05, -0.11047932505607605, 0.017812393605709076, 0.002956447657197714, -0.0022048763930797577, -0.008225031197071075, -0.023479096591472626], [0.08376935124397278, -0.025672731921076775, 0.05084344372153282, 0.01650947704911232, 0.0025464361533522606, -0.09348487108945847, -0.00366211193613708, 0.002115280134603381, 0.0010495362803339958, -0.12523174285888672, 0.02355249412357807, 0.004509947262704372, 0.010690771043300629, -0.0037334037479013205, 0.012913878075778484, -0.03567589819431305], [0.16323322057724, -0.004893610719591379, 0.15661539137363434, 0.05857904627919197, 0.018473917618393898, -0.00383304082788527, 0.09370335936546326, 0.017256811261177063, -0.00984162837266922, -0.02181124873459339, 0.06327366083860397, -0.08296116441488266, -0.016149483621120453, 0.05067548155784607, 0.05541840195655823, 0.040635038167238235], [0.12939293682575226, -0.10485603660345078, 0.10240720957517624, 0.2044491022825241, 0.05557217076420784, -0.12038440257310867, 0.16076703369617462, 0.090006023645401, 0.04934662580490112, -0.19429120421409607, -0.05115294083952904, -0.10842417925596237, 0.0004455607559066266, 0.06883445382118225, -0.09845782071352005, -0.05110309645533562], [0.012179930694401264, -0.25105640292167664, 0.07928318530321121, 0.3253961205482483, 0.09135358780622482, -0.1358717381954193, 0.18907399475574493, 0.0845564678311348, 0.19200125336647034, 0.002602660795673728, -0.10105422139167786, -0.1543295532464981, -0.0018156685400754213, 0.0968676283955574, 0.05671072006225586, -0.1187380775809288], [0.12182387709617615, -0.18736110627651215, 0.2055436670780182, 0.1695687621831894, 0.09669028222560883, -0.3077176511287689, 0.164688840508461, 0.09993033111095428, 0.1715787798166275, -0.16522757709026337, -0.08197466284036636, -0.16591514647006989, 0.04986670985817909, 0.10559745132923126, 0.01649872399866581, -0.07153201848268509], [0.01590028963983059, -0.01284137275069952, 0.03366855904459953, 0.020902438089251518, 0.0021612695418298244, -0.021781528368592262, 0.0033412515185773373, 0.003277197014540434, 0.008653405122458935, -0.017300115898251534, 0.04083198681473732, -0.0008086147718131542, -0.00039735433529131114, 0.001740006497129798, 0.0015614933799952269, 0.0006246084230951965], [0.1839440017938614, -0.08213090151548386, 0.07280654460191727, 0.09977208077907562, 0.008964357897639275, 0.05865797400474548, 0.09166532754898071, 0.007778715807944536, 0.060476578772068024, -0.15456251800060272, -0.13654901087284088, -0.06281860917806625, 0.011800442822277546, 0.04277259111404419, -6.670791481155902e-05, 0.06870241463184357], [-0.008744136430323124, 0.02960648573935032, -0.04143957793712616, -0.019711827859282494, -0.0010421595070511103, 0.01455101277679205, 0.0049725985154509544, -0.012004743330180645, -0.006254496052861214, 0.004255649633705616, -0.07726184278726578, 0.019444316625595093, 0.0020617591217160225, -0.013569804839789867, 0.010865885764360428, -0.005296135321259499], [0.039414726197719574, -0.034694258123636246, 0.061322517693042755, 0.030736690387129784, 0.0022442596964538097, -0.06141012907028198, 0.00990275852382183, 0.010963602922856808, 0.012515389360487461, -0.03614228218793869, 0.07842772454023361, -0.013046147301793098, -3.82795806217473e-05, 0.006065013352781534, -0.004619528539478779, 0.0025154566392302513], [0.18953582644462585, -0.1261177510023117, 0.19333280622959137, 0.17517881095409393, 0.04167338088154793, -0.20867472887039185, 0.07221732288599014, 0.07624930143356323, 0.1193275973200798, -0.1297726184129715, 0.05063057318329811, -0.10086677223443985, 0.02569212205708027, 0.06156928837299347, -0.0007667029858566821, -0.0018391691846773028], [0.08545252680778503, -0.034671708941459656, 0.19914919137954712, 0.1465754210948944, 0.025224333629012108, -0.19302381575107574, 0.03730591759085655, 0.04738448187708855, 0.0753297358751297, -0.25123727321624756, 0.0629786029458046, -0.06071236729621887, 0.04783036559820175, 0.030614282935857773, -0.04758312553167343, -0.12202652543783188], [-0.7512965798377991, 0.5672811269760132, -0.7794201374053955, -0.5604689121246338, -0.16309180855751038, 0.814424455165863, -0.37834396958351135, -0.235523521900177, -0.22452379763126373, 0.74437415599823, 0.4005376696586609, 0.33868542313575745, -0.23061448335647583, -0.1167985051870346, -0.28377822041511536, 0.4165162444114685], [0.048402320593595505, -0.053678084164857864, 0.08507323265075684, 0.058090806007385254, 0.0038422008510679007, -0.060846567153930664, 0.02392945997416973, 0.028659921139478683, 0.026737820357084274, -0.05336408689618111, 0.06463555246591568, -0.03995183855295181, -0.004778592847287655, 0.019424887374043465, -0.02393418177962303, 0.013535238802433014], [0.05337826907634735, -0.02452731877565384, 0.037788212299346924, 0.02219618298113346, 0.001282793004065752, -0.08026989549398422, -0.0018284338293597102, 0.0034110641572624445, 0.007768481038510799, -0.023747654631733894, 0.03111329674720764, 0.004466908518224955, 0.004435553681105375, -0.0020686392672359943, 0.005136135965585709, -0.009801783598959446], [0.03198901563882828, -0.032653313130140305, 0.0580749474465847, 0.029728524386882782, 0.0018159489845857024, -0.0488361231982708, 0.008244900964200497, 0.007506012916564941, 0.012327167205512524, -0.0313391387462616, 0.07620016485452652, -0.010231380350887775, -0.001342304516583681, 0.005162460263818502, -0.0020255185663700104, 0.00397504772990942], [-0.0006817698013037443, 0.05502516031265259, -0.03632552549242973, -0.0220752265304327, 0.010926663875579834, -0.03466464579105377, -0.012903708964586258, 0.005005326122045517, -0.007055811118334532, -0.06493399292230606, -0.13940618932247162, 0.015173560939729214, 0.00919682253152132, 0.002377896336838603, 0.0018372938502579927, -0.039772190153598785], [0.08707092702388763, -0.01629394106566906, 0.029026884585618973, 0.013067875057458878, 0.0020266149658709764, -0.09361771494150162, -0.0033237116876989603, 0.0023887180723249912, 0.0017334618605673313, -0.0855921283364296, 0.0052853962406516075, 0.0050362818874418736, 0.00705649983137846, -0.003243231913074851, 0.010085985995829105, -0.025185568258166313], [-0.07859589159488678, 0.15194162726402283, -0.23397786915302277, -0.19235898554325104, 0.0011671463726088405, -0.006061245687305927, -0.20332112908363342, 0.16968147456645966, 0.05749296769499779, 0.14280211925506592, 0.21105416119098663, 0.048323504626750946, -0.1377439945936203, 0.1676691174507141, -0.11648353189229965, -0.15920235216617584], [0.21139761805534363, -0.3452272117137909, 0.16902978718280792, 0.2934015393257141, 0.295308381319046, -0.05730264633893967, 0.2840896546840668, 0.1397472769021988, 0.19792060554027557, -0.07382368296384811, -0.5027856230735779, -0.11932411044836044, -0.011867242865264416, 0.14721810817718506, -0.0851944163441658, -0.04304852336645126], [0.1486332267522812, 0.09219684451818466, 0.0565885566174984, -0.16940507292747498, -0.001491906470619142, -0.14953143894672394, -0.260688841342926, 0.06348899006843567, -0.23214872181415558, -0.14496919512748718, 0.40333378314971924, 0.006000661291182041, -0.03424157574772835, -0.1852823942899704, -0.3000165522098541, -0.1121964305639267], [0.09154843538999557, -0.07646219432353973, -0.24699845910072327, -0.3606209456920624, -0.18017087876796722, -0.00947526004165411, -0.1985430270433426, 0.005248588509857655, -0.2683570086956024, -0.1591181457042694, 0.3230254352092743, 0.30503425002098083, -0.10210631787776947, -0.02103198878467083, -0.2991665005683899, -0.13474829494953156], [-0.15668143332004547, -0.08630403876304626, -0.14966924488544464, -0.10822885483503342, -0.16487812995910645, 0.2386578470468521, -0.10125142335891724, 0.1378464549779892, -0.14352498948574066, 0.13856562972068787, 0.006759357638657093, 0.12367516756057739, -0.16164860129356384, -0.03469015657901764, -0.17949730157852173, -0.045176491141319275], [-0.19105108082294464, 0.10108014941215515, 0.03202641382813454, -0.05163074657320976, 0.19754672050476074, -0.08310817927122116, 0.20228873193264008, 0.0849248394370079, -0.14554235339164734, 0.21795536577701569, -0.08097580820322037, -0.03339136764407158, 0.18663865327835083, -0.19859012961387634, 0.02188444696366787, -0.08318861573934555], [0.12725521624088287, -0.07216493785381317, 0.3887920677661896, 0.29525625705718994, 0.047231175005435944, -0.2706097364425659, -0.22306382656097412, 0.06398162245750427, 0.058921776711940765, 0.019228383898735046, 0.002593073295429349, -0.039671748876571655, -0.049012452363967896, 0.0726860761642456, 0.08384835720062256, 0.0031706776935607195], [-0.19265460968017578, 0.05274180322885513, -0.09132545441389084, -0.21689674258232117, -0.06145784631371498, 0.0834103599190712, -0.012351447716355324, 0.005729501601308584, 0.03821723908185959, -0.05152689293026924, 0.08327717334032059, 0.1288480907678604, 0.08395738154649734, -0.08098652958869934, -0.05079999566078186, 0.022463003173470497], [-0.07606620341539383, 0.266145795583725, -0.27632269263267517, -0.2904427647590637, -0.18021902441978455, 0.3366403877735138, -0.3332817256450653, -0.23007383942604065, -0.07772311568260193, 0.12922866642475128, 0.2284087836742401, 0.0730242058634758, -0.14803922176361084, -0.11936679482460022, -0.3062393367290497, 0.11001113802194595], [-0.010351715609431267, -0.1500060111284256, -0.05959462746977806, -0.10441738367080688, -0.07961760461330414, -0.12594027817249298, -0.0521896556019783, 0.10875723510980606, -0.04872635006904602, 0.06476368755102158, -0.24911794066429138, -0.14893868565559387, 0.1715027093887329, -0.13380561769008636, -0.17925354838371277, 0.0787879005074501], [-0.09485278278589249, -0.06436510384082794, 0.047427404671907425, -0.1727566123008728, 0.010252291336655617, 0.03366805240511894, -0.09226542711257935, 0.1091964989900589, -0.04659757390618324, 0.009246373549103737, 0.6026052236557007, -0.24234728515148163, -0.1441340148448944, 0.16592969000339508, -0.29859229922294617, 0.07030560076236725], [0.07278565317392349, 0.09952090680599213, 0.29533565044403076, 0.14150835573673248, -0.010762115009129047, -0.03154102712869644, -0.08172197639942169, 0.07623282819986343, 0.2112068384885788, -0.07886592298746109, -0.235902339220047, -0.18108539283275604, 0.021378710865974426, 0.045510657131671906, -0.1967538744211197, -0.08104753494262695], [-0.3297719359397888, -0.020965786650776863, -0.26511111855506897, -0.019618311896920204, -0.2477327585220337, 0.2038000375032425, -0.2689686715602875, 0.08616521209478378, -0.17244984209537506, -0.019893677905201912, -0.040797390043735504, 0.03725143522024155, -0.29640939831733704, -0.1412084847688675, -0.2997175455093384, 0.25013989210128784], [0.02229827083647251, 0.20096825063228607, -0.11072999984025955, -0.13405580818653107, -0.16625528037548065, 0.16862501204013824, -0.06605841964483261, -0.14173968136310577, -0.09620914608240128, -0.13233612477779388, 0.16413548588752747, 0.14549173414707184, -0.07419206947088242, -0.16139370203018188, -0.001987847965210676, -0.16926930844783783], [-0.13637839257717133, 0.06119352579116821, -0.28951478004455566, -0.28935831785202026, -0.15548428893089294, 0.2834582030773163, -0.3492821753025055, 0.11889617890119553, -0.09018132835626602, 0.10867900401353836, -0.041636873036623, 0.1765553057193756, -0.17551526427268982, 0.016303345561027527, -0.3890951871871948, 0.02616717666387558], [-0.10041923075914383, -0.10773232579231262, 0.27554914355278015, 0.11331932246685028, -0.008466394618153572, -0.16255715489387512, 0.12670285999774933, -0.08665118366479874, -0.0712510496377945, 0.09049805253744125, 0.06164710223674774, -0.06846106052398682, -0.002737141912803054, -0.07172944396734238, 0.07415822148323059, 0.010200472548604012], [-0.06368083506822586, -0.047506269067525864, 0.12671414017677307, -0.011812903918325901, 0.025475813075900078, -0.0280451662838459, 0.07500004023313522, 0.044618189334869385, 0.05791749805212021, -0.05811874940991402, 0.10019034147262573, -0.06026120483875275, 0.04955284297466278, 0.036333177238702774, 0.03290144354104996, -0.09713882952928543], [-0.11697037518024445, 0.002777721732854843, 0.14351892471313477, 0.029151789844036102, 0.04151223972439766, 0.06870092451572418, 0.12704011797904968, 0.061792898923158646, 0.0014778737677261233, 0.04909257963299751, -0.021899379789829254, -0.07068037241697311, 0.019849849864840508, 0.049270737916231155, -0.06189577281475067, -0.0522954948246479], [-0.012182905338704586, 0.019022136926651, 0.06552986800670624, 0.22013196349143982, 0.05112054571509361, -0.0775429978966713, 0.12637266516685486, 0.05732201412320137, 0.08183880150318146, -0.09038354456424713, 0.03149581328034401, -0.08505070209503174, 0.010577044449746609, 0.05805927887558937, -0.024790562689304352, 0.025589441880583763], [0.06134927272796631, -0.16212104260921478, 0.0462886206805706, 0.10933616757392883, 0.07838884741067886, -0.14329853653907776, 0.13036492466926575, 0.05544450134038925, 0.11593706160783768, 0.1375654637813568, 0.05762558430433273, -0.1022915467619896, 0.05353358015418053, 0.07989166676998138, 0.004560438450425863, -0.005481156520545483], [0.011256073601543903, -0.011883140541613102, 0.03245759382843971, 0.02011232264339924, 0.0017894692718982697, -0.019938865676522255, 0.0027365160640329123, 0.002930265851318836, 0.008036215789616108, -0.01571670174598694, 0.04090213030576706, -0.000283669272903353, -0.00101958226878196, 0.0013812792021781206, 0.00037950731348246336, 0.001485607586801052], [0.10076603293418884, 0.12640568614006042, 0.06994762271642685, 0.1543383002281189, 0.008454354479908943, 0.13237132132053375, 0.01827324740588665, -0.05508797615766525, -0.10929221659898758, -0.15742585062980652, 0.03467283770442009, -0.07201144099235535, -0.011127469129860401, 0.019906671717762947, 0.027275295928120613, 0.053949978202581406], [-0.01518595963716507, 0.03034253790974617, -0.043028026819229126, -0.02194002829492092, -0.0004837356391362846, 0.02163524366915226, -0.005750409793108702, -0.011004321277141571, -0.005771491676568985, 0.009828089736402035, -0.06702958047389984, 0.01892847754061222, 0.003167910734191537, -0.01415437925606966, 0.011734231375157833, -0.005003249738365412], [0.04996710643172264, -0.04234352335333824, 0.07481633871793747, 0.03626713156700134, 0.0032629715278744698, -0.04529841989278793, 0.012039571069180965, 0.014541709795594215, 0.015165197663009167, -0.05204245448112488, 0.07581645995378494, -0.017094749957323074, 6.567956006620079e-05, 0.007867743261158466, -0.007682977709919214, -0.002825112547725439], [0.032501593232154846, -0.02708348259329796, 0.07735656201839447, 0.0838504284620285, 0.02019129879772663, 0.005834219977259636, 0.03973813354969025, 0.033749617636203766, 0.03999350965023041, -0.007108601741492748, 0.020158089697360992, -0.04660582169890404, 0.002261294284835458, 0.03264106065034866, -0.004556288011372089, 0.005847116932272911], [0.041152361780405045, -0.08558673411607742, 0.18348538875579834, 0.12437263131141663, 0.014731638133525848, -0.155365452170372, 0.0372338630259037, 0.05514910817146301, -0.019968587905168533, -0.23779535293579102, 0.12687522172927856, -0.06181880086660385, -0.017185905948281288, 0.026423664763569832, -0.021135736256837845, -0.050569869577884674], [0.21674567461013794, -0.0213569737970829, -0.08931443095207214, -0.047487642616033554, -0.0027830859180539846, 0.006280216388404369, -0.03371885046362877, 0.14072944223880768, -0.009546730667352676, -0.20849861204624176, 0.16723105311393738, -0.06396138668060303, 0.029621867462992668, 0.0823018029332161, -0.20909525454044342, -0.04302757978439331], [0.0326039157807827, -0.026196487247943878, 0.05546248331665993, 0.04296749830245972, 0.005393071565777063, -0.05420568957924843, 0.02954304963350296, 0.02839079312980175, 0.020416272804141045, -0.047321610152721405, 0.01842694915831089, -0.038358550518751144, -0.0077947527170181274, 0.02235349640250206, -0.036269087344408035, 0.0171879380941391], [0.0320807620882988, -0.011743219569325447, 0.03481170907616615, 0.025928780436515808, 0.0013308670604601502, -0.027330473065376282, -0.0031742809806019068, 0.0016079172492027283, 0.007023001089692116, -0.03292928263545036, 0.03019510954618454, 0.006943806540220976, 0.0011515832738950849, -0.003246382577344775, 0.005709283985197544, -0.014052902348339558], [0.045836854726076126, -0.04770132526755333, 0.07874713093042374, 0.044305115938186646, 0.0024336704518646, -0.06680002808570862, 0.011507906019687653, 0.012291002087295055, 0.01827785186469555, -0.04667151719331741, 0.08925237506628036, -0.017100710421800613, -0.0026989970356225967, 0.007908754982054234, -0.003994132857769728, 0.005970161873847246], [0.003688518889248371, 0.06643784791231155, -0.06100417301058769, -0.02826528251171112, 0.009074751287698746, 0.040232785046100616, -0.01115393079817295, -0.000772931263782084, -0.0005084392032586038, 0.02177613042294979, -0.10556402802467346, 0.014784964732825756, 0.0031214910559356213, 0.0007726194453425705, -0.0147879458963871, -0.026005439460277557], [0.06748800724744797, -0.022462282329797745, 0.050231821835041046, 0.01795092411339283, 0.0035299570299685, -0.09254073351621628, -0.0034809326753020287, 0.002673625946044922, 0.0025150454603135586, -0.09667839109897614, -0.022584469988942146, 0.0038188693579286337, 0.008414062671363354, -0.003606222104281187, 0.015182682313024998, -0.045330535620450974]], "rec.bias_ih_l0": [-0.0067235673777759075, 0.00232759490609169, 0.14611761271953583, 0.023159246891736984, -0.19432567059993744, -0.018460510298609734, -0.10473299026489258, -0.22273962199687958, -0.0547260157763958, -0.17963476479053497, -0.24824285507202148, -0.10307122766971588, 0.03963445872068405, -0.28246620297431946, 0.11552443355321884, -0.12445846199989319, -0.17305690050125122, -0.1295575201511383, -0.20335771143436432, -0.18029624223709106, -0.039507992565631866, -0.23519819974899292, -0.03471750393509865, -0.01684911921620369, -0.14733247458934784, 0.016295770183205605, 0.6418727040290833, -0.16548509895801544, -0.15562494099140167, -0.2103346586227417, -0.2268822342157364, -0.29823142290115356, -0.04369117692112923, 0.2653957009315491, -0.2241034358739853, -0.1407129019498825, 0.09945372492074966, 0.2548549473285675, 0.2059003859758377, 0.07361534237861633, -0.25974634289741516, 0.09694124758243561, -0.2615337371826172, -0.1316424459218979, 0.11755973845720291, -0.15579180419445038, -0.17294511198997498, 0.022893888875842094, 0.013795716688036919, 0.0016303344164043665, -0.041027430444955826, -0.029287947341799736, -0.03414108604192734, -0.2284274399280548, -0.07345572859048843, -0.15633077919483185, 0.2465609610080719, -0.05590654909610748, -0.3548415005207062, -0.21911530196666718, -0.04787676781415939, -0.3460305631160736, 0.03280511125922203, -0.34206393361091614], "rec.bias_hh_l0": [-0.053602609783411026, 0.25235021114349365, 0.0016772496746852994, 0.21006160974502563, -0.09251391887664795, 0.15701641142368317, -0.055933501571416855, -0.10329360514879227, 0.007799223531037569, -0.006208089645951986, -0.03331124410033226, -0.27026817202568054, -0.14209942519664764, -0.30441293120384216, 0.15632511675357819, -0.0686463788151741, 0.08572597056627274, -0.16884411871433258, 0.022425120696425438, -0.2522915303707123, -0.07126176357269287, 0.15091244876384735, -0.00796810444444418, -0.18520094454288483, 0.030754441395401955, -0.05356607586145401, 0.8469561338424683, -0.17478016018867493, -0.2361099272966385, -0.20743493735790253, 0.07511886954307556, 0.030969930812716484, -0.22877494990825653, -0.13754183053970337, 0.17458905279636383, 0.12560828030109406, -0.1806744486093521, 0.06347272545099258, -0.17563451826572418, -0.1638561487197876, 0.14973314106464386, 0.18176953494548798, 0.14272941648960114, 0.22897516191005707, -0.2203126698732376, 0.0908195897936821, 0.08265092223882675, 0.031252164393663406, -0.18727293610572815, -0.0940525010228157, 0.2847466468811035, -0.015923485159873962, -0.014815415255725384, -0.11415743082761765, -0.07357130944728851, -0.25325489044189453, 0.2890706956386566, -0.09922335296869278, -0.29865142703056335, -0.19470423460006714, 0.012159008532762527, -0.2768675684928894, 0.10872854292392731, -0.01822200044989586], "lin.weight": [[-0.2824535071849823, 0.4264194965362549, -0.4146067500114441, -0.5577887892723083, -0.229462668299675, 0.3023717701435089, -0.19192233681678772, -0.07205074280500412, -0.3669843375682831, 0.11842725425958633, 0.43997201323509216, 0.2281985729932785, -0.2996382415294647, -0.11006652563810349, -0.3858150541782379, 0.06791696697473526]], "lin.bias": [-0.08634742349386215]}}