{"model_data": {"model": "SimpleRNN", "input_size": 1, "skip": 1, "output_size": 1, "unit_type": "GRU", "num_layers": 1, "hidden_size": 16, "bias_fl": true}, "state_dict": {"rec.weight_ih_l0": [[0.12882405519485474], [0.001692906254902482], [-1.0800037384033203], [0.08812905102968216], [0.04105672985315323], [0.0679391622543335], [-0.2716064155101776], [-0.03800586983561516], [0.06805523484945297], [-0.0379195362329483], [0.10680287331342697], [0.48788973689079285], [-0.14310014247894287], [0.010275191627442837], [-0.0008828167337924242], [-0.0029977804515510798], [-0.018492836505174637], [0.0005318061448633671], [-0.03800049051642418], [-0.00641763536259532], [-0.009317050687968731], [-0.001720310072414577], [1.2355730533599854], [1.272769570350647], [-0.013266156427562237], [-0.005129242781549692], [0.0008301400812342763], [-0.35249531269073486], [-0.7186747789382935], [-0.014924592338502407], [-0.00024214557197410613], [-0.00479523278772831], [-0.1704149693250656], [0.0701150968670845], [1.6828974485397339], [-0.08547493070363998], [-0.11190260201692581], [-0.07651882618665695], [1.023687720298767], [1.714771032333374], [-0.13120515644550323], [0.17864888906478882], [-0.20877836644649506], [4.034955024719238], [2.3052408695220947], [0.2656302750110626], [0.012004287913441658], [0.09690538048744202]], "rec.weight_hh_l0": [[0.058542400598526, 0.021114591509103775, -0.034318070858716965, 0.03742729499936104, 0.040196698158979416, 0.013971904292702675, 0.042765796184539795, -0.02095675840973854, 0.03227353096008301, 0.0771285742521286, 0.025209803134202957, 0.18255583941936493, -0.028895828872919083, 0.07648198306560516, -0.000993097317405045, 0.023601891472935677], [0.010035881772637367, 0.003035337431356311, 0.007529987022280693, 0.0009660911746323109, 0.0020945710130035877, 0.0020282668992877007, 0.009941846132278442, -0.013854512944817543, 0.005059894639998674, 0.008836946450173855, 0.009889927692711353, 0.0707734078168869, -0.023357221856713295, -0.004406233783811331, 0.0013109524734318256, 0.0007379814051091671], [-0.01974242925643921, 0.08906811475753784, 1.3034199476242065, -0.07634687423706055, 0.06695512682199478, -0.05492500588297844, 0.1851690262556076, -0.07886840403079987, 0.03116205334663391, 0.040310200303792953, -0.035542573779821396, -2.3670413494110107, -1.9890412092208862, -0.09259345382452011, -0.09400861710309982, -0.08521674573421478], [0.0025517006870359182, 0.013425985351204872, -0.0021830175537616014, 0.013978772796690464, 0.014345458708703518, -0.0026238299906253815, 0.06699880957603455, -0.015832891687750816, 0.004037015605717897, 0.027512745931744576, -0.0048089963383972645, 0.1298951655626297, -0.05514993891119957, 0.04334864765405655, 0.00014220002049114555, 0.02187582105398178], [0.013557502068579197, 0.01665998436510563, -0.013410661369562149, 0.014109156094491482, 0.004871675278991461, -0.0009995418367907405, 0.05264391377568245, -0.06156949698925018, 0.006584488786756992, 0.04065072163939476, 0.007772125769406557, 0.14911726117134094, -0.06573496013879776, 0.03363333269953728, 0.003939558286219835, 0.017576104030013084], [-0.0015940882731229067, 0.0010636134538799524, -0.0032496117055416107, 0.006984885782003403, 0.01495440024882555, -0.001142083783634007, -0.015116136521100998, -0.004110979847609997, 0.0029351741541177034, 0.002224757568910718, -0.010470300912857056, 0.08552458882331848, -0.018262390047311783, 0.016361288726329803, -0.006665084045380354, 0.001833561691455543], [0.07289789617061615, -0.035015154629945755, -0.24378623068332672, 0.05203209072351456, 0.04872789606451988, 0.03725400194525719, -0.41073524951934814, -0.15234021842479706, 0.06988947093486786, -0.11297973245382309, 0.09731456637382507, 0.04403430223464966, -0.17701071500778198, -0.04734792560338974, -0.059497490525245667, -0.03474436700344086], [-0.09347271174192429, -0.0447387769818306, 1.0136923789978027, -0.08378453552722931, -0.006391471717506647, -0.08488187938928604, 1.687441349029541, 0.2928001284599304, 0.05398116633296013, -0.1771194189786911, -0.10712242871522903, 0.33492332696914673, -0.16738927364349365, -0.061361346393823624, -0.09563393890857697, 0.001866911188699305], [0.019612645730376244, 0.008093439973890781, -0.05926045402884483, 0.020266996696591377, 0.01631145179271698, 0.0026152448263019323, 0.033786118030548096, -0.02486942894756794, 0.011533164419233799, 0.029239309951663017, 0.0036425557918846607, 0.13538075983524323, -0.03317554295063019, 0.04986003786325455, 0.0022586470004171133, 0.015324324369430542], [0.0016008929815143347, 0.0021269810386002064, 0.010615789331495762, -0.006944086868315935, -0.002663735533133149, 0.002841763664036989, 0.06567666679620743, -0.0015705656260251999, 0.0017031324096024036, 0.0037810327485203743, 0.017176121473312378, 0.032418303191661835, -0.016646629199385643, -0.03540492057800293, -0.000582359149120748, -0.017546184360980988], [0.05354522541165352, 0.043702222406864166, 0.017541274428367615, 0.022812766954302788, 0.0035831956192851067, -0.0013724180171266198, 0.09646592289209366, -0.08290985971689224, 0.012285278178751469, 0.08820358663797379, 0.038697678595781326, 0.20101620256900787, -0.0953688770532608, 0.06275954842567444, 0.007841710932552814, 0.03230864927172661], [0.06767070293426514, 0.08327250182628632, -0.30404898524284363, -0.015782717615365982, 0.008080972358584404, -0.012530290521681309, 2.111455202102661, 0.7853469252586365, 3.5798548196908087e-05, 0.058368951082229614, 0.010015444830060005, 0.5828304290771484, 0.7323372960090637, -0.11745624989271164, 0.009690715931355953, -0.06365726888179779], [-0.06687331199645996, -0.05612486973404884, 0.20030316710472107, -0.08461793512105942, 0.010476421564817429, 0.03266343101859093, -0.48493334650993347, -0.6055253148078918, -0.044607896357774734, -0.09191255271434784, -0.0991050973534584, -0.2724110186100006, -0.3606702983379364, -0.10429000109434128, -0.01375627052038908, -0.15503740310668945], [-0.00023849605349823833, -0.012644734233617783, 0.034362971782684326, 0.0047773877158761024, 0.0019203779520466924, 0.002384469611570239, 0.09999745339155197, -0.06185412034392357, 0.009501490741968155, -0.018437903374433517, 0.002855312079191208, 0.07515650987625122, -0.12288782745599747, -0.003642879193648696, 0.001667627366259694, -0.005096030421555042], [-0.00026364141376689076, 0.0001694040111033246, -0.001859717769548297, 0.001545617007650435, 0.00012453869567252696, 0.0010691576171666384, -0.0012935420963913202, -0.00713688600808382, 0.0003863851597998291, 0.0003285299171693623, 0.00019985518883913755, 0.04853642359375954, -0.0028604858089238405, 0.0017134009394794703, 0.000953412614762783, 0.0016131284646689892], [-0.003743364941328764, -0.004891269374638796, 0.001229548011906445, 0.004256362561136484, 0.008549872785806656, 0.0029752133414149284, -0.012596210464835167, -0.006096451543271542, 0.005340938456356525, -0.01005730964243412, -0.0037673034239560366, 0.05221915245056152, -0.014809858985245228, 0.000603799126110971, -0.0012388189788907766, 0.0003221506776753813], [-0.005165343638509512, -0.0012240334181115031, 0.01927412673830986, -0.004946280270814896, -0.0016412199474871159, -0.001230143941938877, 0.013058975338935852, -0.02016381360590458, -0.003488546935841441, -0.0040809763595461845, -0.002237150678411126, 0.01203975174576044, -0.012671436183154583, -0.006969763897359371, -0.00033272133441641927, -0.0037155302707105875], [0.0014535236405208707, 0.0011805730173364282, 0.0002939628902822733, 0.0008768421830609441, -0.00016526802210137248, 0.0005385676049627364, 0.002385074505582452, -0.0036473574582487345, 0.0004391642287373543, 0.002475595334544778, 0.00010832359112100676, 0.003202594816684723, -0.0028159155044704676, 0.0008537099929526448, 0.0007837681332603097, 0.0014675083803012967], [0.04327133670449257, 0.013982882723212242, 0.07252766191959381, 0.0243825763463974, -0.018452316522598267, 0.018683629110455513, 0.05952656641602516, -0.027649233117699623, 0.004039273597300053, 0.045359909534454346, 0.04485927149653435, 0.1256011575460434, -0.03301899507641792, 0.02566768042743206, 0.025995559990406036, 0.03616084158420563], [-0.002078950172290206, -0.0005819920916110277, 0.009431855753064156, -0.0010415076976642013, -0.0017372161382809281, 0.00011301093036308885, 0.013068961910903454, -0.010224911384284496, -0.0013204130809754133, 0.0007122141541913152, 0.00019619855447672307, 0.005189838819205761, -0.0063036843203008175, -0.00359523668885231, 0.000670490029733628, -0.0009683301905170083], [-0.00022159396030474454, -0.0033025064039975405, 0.010172871872782707, -0.0006441848818212748, 0.0004193922213744372, 0.0008345050155185163, 0.006521617993712425, 0.004016962833702564, 0.0010521592339500785, -0.0051040370017290115, -0.00036427302984520793, 0.001689123921096325, -0.0002013275952776894, -0.0032658756244927645, -0.0011015968630090356, -0.003290998749434948], [0.0006303949630819261, -0.0008617702987976372, 0.006758265662938356, -0.001147748320363462, -0.0011885006679221988, -0.0001664114824961871, 0.0038854561280459166, -0.007495283614844084, -0.001225464977324009, 0.0005838407669216394, -0.0002990500070154667, -0.0003191366558894515, -0.008823199197649956, -0.0009313327609561384, -5.660814349539578e-05, -0.0008113566436804831], [-0.29145804047584534, 0.034441255033016205, 1.4652464389801025, -0.22073325514793396, -0.25973284244537354, -0.13850915431976318, -0.12385906279087067, -1.6823152303695679, -0.2100122570991516, 0.06881794333457947, -0.23262910544872284, -0.44537338614463806, -1.0301553010940552, 0.1125040128827095, -0.038247887045145035, 0.0288163460791111], [-0.09718617051839828, -0.07264308631420135, -0.660554826259613, 0.00018099130829796195, -0.05565785989165306, 0.006694046780467033, -1.3998011350631714, -0.6963215470314026, 0.0013635638169944286, -0.12268505990505219, -0.08767196536064148, -0.5304543972015381, 0.8445502519607544, 0.03347325325012207, 0.03890964016318321, 0.05854460969567299], [-0.0020209369249641895, -0.0029122952837496996, 0.0014838135102763772, -0.000612437492236495, -0.0002619786828290671, 0.0008611534140072763, 0.00978314969688654, -0.004072166047990322, 3.0813636840321124e-05, -0.0015529163647443056, 0.0007681455463171005, 0.008074725978076458, -0.004661996383219957, -0.0034618356730788946, -0.00010941173968603835, -0.002026932779699564], [0.0012197684263810515, 0.0056409514509141445, 0.008349879644811153, 0.00225324765779078, -0.0024413776118308306, -0.0018133147386834025, 0.033638641238212585, -0.03628375008702278, -0.0024024476297199726, 0.008959157392382622, 0.002883444307371974, 0.049079932272434235, -0.021184785291552544, 0.0007903818041086197, 0.0014664664631709456, 0.004241920541971922], [-0.00012246092956047505, -0.0026099015958607197, 0.007327895611524582, -0.0010772683890536427, -0.0003243370447307825, -0.00013978092465549707, 0.004024516325443983, -0.0001075606924132444, -0.0004652185598388314, 0.00017003998800646514, -6.965016655158252e-05, 0.0005347794503904879, -0.0030476388055831194, -0.003984298091381788, -0.0004125677514821291, -0.0036864602006971836], [-0.07638625055551529, 0.01791059784591198, -0.5314450860023499, -0.05474711209535599, -0.17527228593826294, 0.06730055063962936, -0.6567255258560181, -0.04560767859220505, -0.11277338117361069, -0.009471487253904343, -0.09439653903245926, 0.058385420590639114, 0.6280530095100403, -0.03468932583928108, 0.11732878535985947, 0.15518882870674133], [-0.03145517036318779, -0.045414138585329056, -1.0983171463012695, -0.017707159742712975, 0.09196624904870987, -0.046361617743968964, 0.35883423686027527, -0.020511236041784286, 0.02647528052330017, -0.10035176575183868, -0.024210480973124504, -0.35984277725219727, 0.6536210775375366, -0.13984940946102142, -0.057311974465847015, -0.15270055830478668], [0.000697445822879672, 0.011972041800618172, 0.014859668910503387, 0.003285207087174058, -0.00828543771058321, -0.004977136850357056, 0.0738951787352562, -0.06907352060079575, -0.006832928396761417, 0.017674122005701065, 0.007352495566010475, 0.08308736979961395, -0.0449463427066803, 0.00028339907294139266, 0.0023772763088345528, 0.008958851918578148], [-0.0002509361947886646, 0.00013173271145205945, -0.0003615358436945826, 2.629353002703283e-05, 7.679081318201497e-05, 0.00014878800720907748, 0.0001942041708389297, -0.00164202437736094, 0.00017692121036816388, 0.0003047015343327075, -0.000107057043351233, 0.001778511330485344, -0.0012123462511226535, 6.455121911130846e-05, 0.00012088059156667441, 0.00016516489267814904], [-0.0001652164210099727, 0.0027607555966824293, 0.002367990789934993, 0.0005879907985217869, -0.0018803171114996076, -0.0012102560140192509, 0.017218301072716713, -0.02418796345591545, -0.0007843964849598706, 0.003805676707997918, 0.001666465075686574, 0.022798581048846245, -0.013050610199570656, -0.00057155208196491, 0.0007056391914375126, 0.0015506866620853543], [-0.2578746974468231, -0.07214698940515518, 0.042422227561473846, -0.2224372923374176, -0.1498589813709259, -0.050662919878959656, -0.1092979907989502, -0.06849944591522217, -0.14116497337818146, -0.14994896948337555, -0.26003703474998474, 0.1788683533668518, 0.04214952513575554, -0.032734114676713943, -0.04168175905942917, -0.08889676630496979], [-0.09658387303352356, -0.15430231392383575, 0.018377438187599182, -0.0653543770313263, -0.037183962762355804, -0.007588659878820181, -0.049687162041664124, -0.06192150339484215, -0.02061964012682438, -0.1450640708208084, -0.08781637996435165, 0.014415060169994831, -0.07109925895929337, 0.007299800869077444, 0.0194875355809927, -0.03777037933468819], [-0.11238954216241837, -0.010940257459878922, -0.862682044506073, -0.10967767983675003, -0.04786704108119011, -0.11331076174974442, 0.6030207276344299, -0.6019206643104553, -0.053370747715234756, 0.02696087956428528, -0.16487370431423187, -1.27889084815979, -0.6300173997879028, 0.029405873268842697, -0.017490947619080544, -0.07438664138317108], [-0.03817541152238846, 0.003860706463456154, -0.07763349264860153, -0.19730032980442047, -0.16005867719650269, -0.008144678547978401, -0.1257779747247696, -0.007402664981782436, -0.02465813420712948, -0.04819764941930771, -0.09571942687034607, 0.12843593955039978, 0.028407780453562737, -0.09236325323581696, 0.014376526698470116, -0.02751094289124012], [-0.07645099610090256, -0.02303815446794033, -0.07037825137376785, -0.11385128647089005, -0.3294973373413086, -0.008292104117572308, -0.05532145872712135, -0.014632971957325935, -0.12382511794567108, 0.004793436266481876, -0.02521699294447899, 0.10226376354694366, 0.017045455053448677, -0.000978009426034987, 0.11427713185548782, 0.038340549916028976], [-0.11758451163768768, -0.03861740976572037, 0.014573786407709122, -0.11645067483186722, -0.045636795461177826, -0.16255789995193481, -0.09649904072284698, -0.016217369586229324, -0.04786433279514313, -0.10973617434501648, -0.13264892995357513, 0.08379977196455002, 0.09221867471933365, -0.015440654009580612, -0.0853460356593132, -0.10438092052936554], [-0.029804037883877754, -0.0022453879937529564, -0.6992791891098022, -0.014984747394919395, 0.007815356366336346, -0.006811175961047411, 1.028838038444519, -1.8860760927200317, -0.01740398071706295, -0.027469076216220856, 0.009205497801303864, -1.030848741531372, 1.0303401947021484, -0.07370102405548096, -0.008250853978097439, -0.026215115562081337], [0.011189593002200127, -0.03637399896979332, 0.20264510810375214, -0.04950312152504921, -0.03517790883779526, 0.05293012037873268, 0.5057076811790466, 1.667698860168457, -0.01795412227511406, -0.07492553442716599, -0.0042366767302155495, 0.1331750750541687, 1.8813914060592651, -0.12080678343772888, 0.016980666667222977, -0.04597046598792076], [-0.10324634611606598, 0.020657258108258247, -0.07047087699174881, -0.06188264116644859, -0.17523160576820374, -0.00022422093024943024, -0.04447096213698387, -0.01932509057223797, -0.2220160961151123, 0.048232998698949814, -0.07184456288814545, 0.11858576536178589, 0.00882804673165083, -0.05107875168323517, 0.03601349890232086, -0.031398456543684006], [-0.05249630659818649, -0.09954700618982315, -0.010216831229627132, -0.11215981096029282, 0.015995793044567108, -0.0019555583130568266, -0.06970646977424622, -0.08744101226329803, 0.06191686913371086, -0.18527422845363617, -0.07921828329563141, 0.04012114182114601, -0.09220333397388458, -0.05717679113149643, -0.03464715927839279, -0.03763667494058609], [-0.1948377639055252, -0.05489503592252731, 0.03027801401913166, -0.18957962095737457, -0.0915200486779213, -0.0018495377153158188, -0.09416845440864563, -0.03152642026543617, -0.08652114868164062, -0.12676528096199036, -0.24013863503932953, 0.13417671620845795, 0.03014238178730011, -0.11022830009460449, -0.02982272580265999, -0.07965322583913803], [-0.024647800251841545, 0.043848972767591476, -0.5508381724357605, -0.014787479303777218, 0.011511516757309437, -0.0038219080306589603, 0.6873765587806702, -0.8223915100097656, -0.03942503407597542, 0.05103820189833641, -0.052714020013809204, 1.3228706121444702, -1.4200124740600586, 0.018209954723715782, -0.030578158795833588, -0.009367618709802628], [-0.04791504889726639, -0.021716993302106857, 0.08581002056598663, -0.01399780809879303, -0.018685199320316315, -0.03363687917590141, -0.7217121124267578, -0.4947648346424103, -0.004704506602138281, -0.020611312240362167, -0.03323513641953468, 0.803353488445282, 2.1749162673950195, 0.03573337942361832, -0.0027184821665287018, 0.0006843860610388219], [0.2081691324710846, 0.14529919624328613, -0.13733580708503723, 0.01080354768782854, 0.10371281206607819, 0.06243031844496727, -0.08320268243551254, -0.018774747848510742, 0.09366962313652039, 0.1324533373117447, 0.10161742568016052, 0.024007510393857956, -0.061865225434303284, -0.17357273399829865, 0.008802004158496857, 0.008780772797763348], [-0.011733300052583218, 0.03877667337656021, -0.036399152129888535, -0.02259816788136959, 0.08300918340682983, -0.06028945371508598, -0.04836069792509079, 0.0071381572633981705, -0.01633821614086628, -0.01733635552227497, -0.055412549525499344, 0.020593658089637756, 0.011251384392380714, -0.017105499282479286, -0.16771109402179718, -0.10688009858131409], [0.030061110854148865, 0.03869780898094177, -0.07186941802501678, -0.03291400149464607, 0.09349509328603745, -0.018398020416498184, -0.12422949820756912, -0.013267179019749165, -0.04237544909119606, 0.029392767697572708, -0.04758237302303314, 0.05108680576086044, -0.04058164730668068, -0.07550657540559769, -0.09757024794816971, -0.1935662031173706]], "rec.bias_ih_l0": [-0.08259125798940659, -0.1504572629928589, -0.582045316696167, -0.0932437852025032, -0.14490771293640137, -0.09571114927530289, 0.6624369025230408, 0.17191872000694275, -0.09097753465175629, -0.1426667422056198, -0.1984848827123642, 0.016225434839725494, 0.1622670590877533, -0.1874472051858902, -0.10732685774564743, -0.12124653905630112, -0.04905582219362259, -0.003387885633856058, -0.5677317380905151, -0.016777681186795235, -0.043548423796892166, -0.009829903952777386, 2.3632972240448, 2.1564643383026123, -0.043964628130197525, -0.03838058188557625, -0.004652603063732386, -0.0866720899939537, 2.1230809688568115, -0.07037140429019928, -0.0007666060701012611, -0.013729278929531574, 0.03756164759397507, -0.010974247008562088, -0.39367860555648804, 0.014943786896765232, 0.03936925157904625, 0.01580199785530567, -0.09853582084178925, -0.04320019856095314, 0.03694766387343407, -0.0006288583390414715, 0.007089352700859308, -0.4051172435283661, 0.08466431498527527, 0.009517968632280827, -0.00793334562331438, -0.018139174208045006], "rec.bias_hh_l0": [-0.08259125798940659, -0.1504572629928589, -0.5802595019340515, -0.0932437852025032, -0.14490771293640137, -0.09571114927530289, 0.6624369025230408, 0.17191877961158752, -0.09097753465175629, -0.1426667422056198, -0.1984848827123642, -0.006079394370317459, 0.16535377502441406, -0.1874472051858902, -0.10732685774564743, -0.12124653905630112, -0.04905582219362259, -0.003387885633856058, -0.5677317380905151, -0.016777681186795235, -0.043548423796892166, -0.009829903952777386, 2.3632967472076416, 2.156458854675293, -0.043964628130197525, -0.03838058188557625, -0.004652603063732386, -0.0866720899939537, 2.156503438949585, -0.07037140429019928, -0.0007666060701012611, -0.013729278929531574, 0.07247628271579742, -0.006671900395303965, 0.3387804627418518, 0.012847906909883022, 0.049043428152799606, 0.030329586938023567, -0.2231520563364029, 0.14232514798641205, 0.0585053451359272, -0.01719631999731064, 0.034979552030563354, 0.38482004404067993, 0.23229628801345825, -0.003538203425705433, -0.004693830851465464, -0.009174207225441933], "lin.weight": [[0.07281168550252914, 0.014173035509884357, -0.31649014353752136, 0.03101988136768341, 0.05149119347333908, 0.02121777832508087, -0.27992552518844604, -0.46163809299468994, 0.04280133917927742, 0.0374138280749321, 0.022142603993415833, 0.128980815410614, 0.33520999550819397, 0.04381909221410751, -0.00972556322813034, 0.006549551151692867]], "lin.bias": [0.08058162033557892]}}