{"model_data": {"model": "SimpleRNN", "input_size": 1, "skip": 1, "output_size": 1, "unit_type": "GRU", "num_layers": 1, "hidden_size": 16, "bias_fl": true}, "state_dict": {"rec.weight_ih_l0": [[-0.027528611943125725], [0.006597448606044054], [-0.7133926153182983], [-0.016898972913622856], [0.003744879039004445], [0.1382751613855362], [-0.0053156702779233456], [0.33762127161026], [0.09734667837619781], [0.07330860942602158], [-0.005879388190805912], [0.5141429901123047], [-0.4780067503452301], [0.08783110976219177], [0.019350389018654823], [0.137176513671875], [-0.002784020733088255], [0.002683000173419714], [0.15976528823375702], [-0.001834584167227149], [-0.00031623945687897503], [-0.019682517275214195], [1.1984132528305054], [1.1634330749511719], [-0.020665597170591354], [-0.017094729468226433], [-0.0048183840699493885], [-0.3353847861289978], [-0.8808940052986145], [-0.0046874224208295345], [-0.0021732777822762728], [-0.0056633129715919495], [0.040880508720874786], [-0.0933118462562561], [1.6105985641479492], [0.09497955441474915], [-0.0308772511780262], [0.11434955149888992], [1.4358055591583252], [2.4496052265167236], [0.11638164520263672], [0.21640732884407043], [0.07157322019338608], [4.258469581604004], [2.7121779918670654], [-0.15794283151626587], [0.07856045663356781], [0.10013504326343536]], "rec.weight_hh_l0": [[0.005503023508936167, -0.0015188977122306824, 0.015006200410425663, 0.00465245358645916, 0.0011447699507698417, 0.005557297263294458, 0.04278142750263214, -0.1019013375043869, 0.0009328870801255107, 0.0010103262029588223, 0.000444502366008237, 0.07044509798288345, -0.08347739279270172, 0.011129297316074371, -0.006060098297894001, 0.002678995719179511], [0.004720295779407024, 0.004528026562184095, 0.026293769478797913, 0.005131283774971962, -0.0016702947905287147, 0.004732974339276552, -0.0007921163341961801, -0.010025104507803917, 0.007235790602862835, -0.0009198014158755541, 0.0010567042045295238, 0.09349840134382248, 0.015904625877738, -0.007080182898789644, 0.013594921678304672, 0.012334803119301796], [0.06947445869445801, 0.1886758655309677, 1.3399826288223267, -0.08045721054077148, 0.015319102443754673, -0.08453149348497391, 0.5981053113937378, -0.12319792062044144, -0.07284852117300034, -0.07010175287723541, -0.09211239218711853, -2.618077516555786, -2.1616532802581787, -0.056541137397289276, 0.13559786975383759, 0.010397598147392273], [-0.004305901937186718, 0.001185733126476407, -0.008279908448457718, 0.003602155251428485, -0.0008090838673524559, 0.011028616689145565, 0.006751249544322491, -0.006371670868247747, 0.009975675493478775, 0.0067327809520065784, 0.004371171351522207, 0.08349244296550751, -0.004628944210708141, -0.005420515779405832, 0.00360159226693213, 0.006743738893419504], [0.000367717380868271, 0.000435042631579563, 0.004826263524591923, 0.0008243967313319445, -0.0002715951413847506, 0.0009217709884978831, -0.00067229283740744, -0.020653020590543747, 0.0006671074661426246, 0.0012217271141707897, 0.0009722435497678816, 0.005045952275395393, -0.014565790072083473, 0.0004839058092329651, -0.0004409896500874311, 0.0006408607005141675], [0.012718334794044495, -0.017198672518134117, 0.04932898283004761, 0.027041474357247353, 0.00033654121216386557, 0.014002915471792221, -0.1735207885503769, 0.011239082552492619, 0.034975629299879074, 0.05154075101017952, 0.01773325353860855, 0.2889549434185028, 0.0840710997581482, -0.020655019208788872, -0.003173563629388809, 0.003224479965865612], [-0.13172262907028198, -0.1187964603304863, -0.2257883995771408, 0.05074483901262283, -0.03589905798435211, -0.02880094014108181, -0.6027708649635315, 0.4919089674949646, 0.003935000393539667, -0.029712451621890068, 0.03504998981952667, -0.1832924783229828, 0.6313738822937012, 0.10040431469678879, -0.022698555141687393, 0.13286055624485016], [0.07219205051660538, 0.31980612874031067, 1.1548848152160645, -0.027891183272004128, -0.0129454480484128, 0.03457202762365341, 1.447725534439087, 0.5296990871429443, -0.014120114035904408, 0.22020363807678223, 0.32537394762039185, 0.7781044840812683, -0.6384446620941162, 0.0635102242231369, 0.05732325464487076, -0.07397884130477905], [0.00939728133380413, -0.008646802045404911, 0.008244647644460201, 0.028590945526957512, -0.001423220499418676, 0.04448815435171127, -0.08765530586242676, 0.05969126150012016, 0.03195008262991905, 0.06274423003196716, 0.02155199460685253, 0.15302486717700958, 0.042679332196712494, -0.03536126762628555, 0.009584741666913033, 0.00013204496644902974], [0.005044922698289156, -0.008329635486006737, -0.05201074853539467, 0.028914637863636017, 0.003217659192159772, 0.04358542710542679, -0.24263426661491394, 0.000603280495852232, 0.03341231122612953, 0.03656458109617233, 0.01893710158765316, 0.24149276316165924, 0.06426239013671875, -0.023296931758522987, -0.0163457989692688, 0.033817358314991], [0.0016752979718148708, -0.001161621417850256, 0.02010294608771801, 0.007451777346432209, -0.0003911714884452522, 0.005205568857491016, -0.029204394668340683, -0.038665834814310074, 0.008929302915930748, 0.00863068737089634, 0.005464679561555386, 0.11091220378875732, -0.011898013763129711, -0.0006639142520725727, 0.0016467772657051682, 0.0060284752398729324], [0.04687219113111496, 0.15288306772708893, -0.5149211287498474, -0.09074947983026505, -0.03362508863210678, -0.031155120581388474, 2.2237725257873535, 1.0157197713851929, -0.059932172298431396, 0.01440746895968914, 0.10881049931049347, 0.738603413105011, 0.7984388470649719, -0.1689746081829071, 0.07273677736520767, -0.06309472024440765], [-0.00518371257930994, -0.022457441315054893, -0.08964419364929199, 0.021553585305809975, 0.0036319082137197256, 0.049581337720155716, -0.5261436104774475, -0.41719281673431396, -0.006153468042612076, 0.012501349672675133, -0.08526064455509186, -0.3859335482120514, -0.11502083390951157, -0.03566218912601471, -0.09892305731773376, 0.13406796753406525], [0.009545551612973213, -0.01910255290567875, 0.05934952199459076, 0.02009781077504158, -0.0013201216934248805, 0.004437503404915333, -0.07428745180368423, -0.13817359507083893, 0.014853950589895248, 0.03447117656469345, 0.011189651675522327, 0.23933272063732147, -0.058031320571899414, -0.006603684276342392, -0.024708645418286324, -0.0066395411267876625], [0.004102093633264303, -0.002104109385982156, 0.013162217102944851, 0.0036521439906209707, 0.003904130542650819, -0.0043850610964000225, 0.021773982793092728, -0.08108814060688019, -0.0006886229384690523, 0.0014365054666996002, 0.0020233215764164925, 0.11922463774681091, -0.02741400897502899, 0.010374973528087139, -0.010623941197991371, -0.0019827799405902624], [0.007391999941319227, -0.017185727134346962, 0.04630817472934723, 0.025912949815392494, 0.008574487641453743, 0.018448665738105774, -0.12565898895263672, -0.029007235541939735, 0.014234917238354683, 0.03380570188164711, 0.014651590026915073, 0.20470917224884033, 0.03936959058046341, 0.015409529209136963, -0.045440662652254105, 0.015218054875731468], [0.00017140875570476055, -0.0008147615008056164, -0.004372647497802973, 0.00036168823135085404, -0.0005354414461180568, 0.0005574776441790164, -0.004430405329912901, 0.0050730048678815365, 0.0004433967696968466, 0.00035939441295340657, 0.00018280117365065962, -0.004939501639455557, -0.00016786568448878825, -0.0002035746001638472, 0.0005289286491461098, 0.0003425854374654591], [-0.001665077288635075, 0.000414724403526634, -0.0010136961936950684, -0.0013350954977795482, -0.0001424611546099186, -0.0004738489806186408, 0.002388985129073262, -0.0020807350520044565, -0.0009580865735188127, -0.0013238509418442845, -3.344439755892381e-05, 0.006780850701034069, -0.0043098051100969315, -0.0007014730363152921, 0.0001604869175935164, -0.000684615399222821], [0.013698222115635872, -0.009943684563040733, 0.3139117360115051, 0.0026397360488772392, 0.004840562120079994, -0.01298830658197403, 0.05852527171373367, 0.05935436859726906, -0.008051857352256775, 0.0031126185785979033, 0.006540709640830755, 0.06561899930238724, 0.14785915613174438, -0.0005678796442225575, 0.0002215118583990261, -0.003725385759025812], [0.00010278676199959591, -0.00034623840474523604, 0.0005257634911686182, -0.00021925591863691807, 0.000376744894310832, -8.186798368114978e-05, -0.003408285789191723, -0.002105150604620576, -0.0005387983983382583, -8.948751201387495e-05, -3.595547468648874e-07, -0.005202983971685171, -0.005373300053179264, 0.00042021810077130795, -0.0012081614695489407, -0.0005692766862921417], [4.99306634083041e-06, 5.86976639169734e-05, 0.0004653946962207556, -4.430622357176617e-05, 6.838065019110218e-05, -0.000154559820657596, 0.0007423469214700162, 0.00024040412972681224, -0.00011573034134926274, -5.9742669691331685e-05, -2.3971575501491316e-05, -0.0004229079931974411, 0.0001857952302088961, 0.00019452910055406392, -2.211019818787463e-05, -0.00014644517796114087], [-0.001211612718179822, -0.0012739653466269374, -0.015471787191927433, 0.0015712681924924254, -0.0007715105311945081, -0.0005669380188919604, -0.030173804610967636, 0.02613714151084423, 0.0012598915491253138, 0.002852677833288908, -0.000349935406120494, -0.022565528750419617, -0.006436903961002827, 0.0016158270882442594, -0.0007010954432189465, -0.001438467763364315], [-0.06556539982557297, -0.16954050958156586, 0.8423513174057007, 0.07188674062490463, 0.03279794380068779, 0.05991791933774948, 0.050055209547281265, -1.459580898284912, 0.11988705396652222, -0.03563341498374939, -0.10292671620845795, -0.10710608214139938, -1.0851540565490723, -0.12553450465202332, 0.023449046537280083, -0.03820425271987915], [0.06453057378530502, 0.18594686686992645, -1.166011929512024, -0.02629517763853073, 0.014795645140111446, -0.06531144678592682, -1.6494187116622925, -1.0430042743682861, -0.07670404762029648, 0.030104415491223335, 0.11106903851032257, -0.7935119867324829, 1.0110927820205688, 0.04804832860827446, -0.03522511571645737, -0.07565242052078247], [0.0017321251798421144, -0.002815572777763009, -0.02082895301282406, 0.0014246596256271005, -0.0013760660076513886, 0.0021621081978082657, -0.03702400624752045, 0.02953219600021839, -4.424539292813279e-05, 0.004587909672409296, 0.0008395751938223839, -0.03886931389570236, -0.007014495320618153, -0.004390366841107607, -0.0007863522041589022, -0.0014677232829853892], [-0.0002466966980136931, -0.004752067383378744, -0.0356714129447937, 0.006335131824016571, -0.0011426738929003477, 0.0037288544699549675, -0.04227639362215996, 0.020030179992318153, 0.0019094750750809908, 0.0063054910860955715, 0.0034425051417201757, -0.007864672690629959, -0.040523216128349304, -0.004206835757941008, 0.0020098485983908176, -0.0010407851077616215], [-0.001039431313984096, -0.0011362646473571658, -0.00868227332830429, -6.301600660663098e-05, -0.00016193173360079527, -0.0007594995549879968, -0.010090700350701809, 0.012224104255437851, -0.0013730883365496993, -0.0002810372388921678, -0.00042379743536002934, -0.007048608735203743, -0.01127185020595789, 0.0018253786256536841, -0.0017681068275123835, -0.0010987857822328806], [-0.05639723688364029, -0.15897132456302643, -0.4473273456096649, -0.0456094890832901, 0.02895771712064743, -0.08012769371271133, -0.8330858945846558, 0.29943346977233887, 0.10548078268766403, -0.1299513876438141, -0.16177652776241302, 0.03703359514474869, 0.5332092642784119, -0.23296116292476654, 0.003937495406717062, 0.09212463349103928], [0.09286130964756012, 0.004519846756011248, -1.0808426141738892, 0.057127777487039566, -0.02202044054865837, -0.02152985706925392, 0.43565088510513306, -0.10927079617977142, 0.05271182954311371, 0.08532421290874481, 0.04237612709403038, -0.35023435950279236, 0.8571921586990356, 0.01170537993311882, 0.014051307924091816, -0.05404184013605118], [-0.0006112956907600164, -0.0031653300393372774, -0.009679358452558517, 0.0013400015886873007, -0.0006464055040851235, 0.0006045856862328947, -0.029256103560328484, 0.0025242313276976347, 0.00032211054349318147, 0.0044100238010287285, 0.0011482364498078823, -0.014443949796259403, -0.021107397973537445, -0.00042762199882417917, 0.003863431978970766, -6.853389641037211e-05], [-0.0002492330386303365, -0.00021217986068222672, -0.0032731250394135714, 0.0005538127734325826, 0.00025903331697918475, -0.000659408513456583, -0.0006426831823773682, -0.012854019179940224, -0.0010037898318842053, 0.00045569860958494246, -1.3923006918048486e-05, 0.006590855307877064, -0.009805702604353428, 0.001338663510978222, -0.0006991041009314358, -0.0006821341812610626], [-0.0010727401822805405, 5.325363599695265e-05, 0.00728590926155448, 0.0011255929712206125, -0.0006095744902268052, 0.0005515269585885108, 0.005701086949557066, 0.00021252385340631008, -0.001338659436441958, 5.3586874855682254e-05, 3.7229416193440557e-05, 0.0025110573042184114, 0.007573156151920557, -0.0019666082225739956, 0.00061957654543221, -0.0009902826277539134], [-0.40346699953079224, -0.232153058052063, 0.04160357266664505, 0.07824121415615082, 0.1036289855837822, 0.27282074093818665, 0.05512865260243416, -0.010555964894592762, 0.1062806099653244, -0.10452988743782043, 0.00033011616324074566, 0.06394834071397781, 0.05742928385734558, 0.12691380083560944, -0.20427632331848145, 0.08934693038463593], [-0.1252743899822235, -0.43045133352279663, -0.0012793377973139286, 0.14212100207805634, 0.044320669025182724, 0.18450012803077698, 0.16821856796741486, 0.023675015196204185, 0.27832266688346863, 0.0734061449766159, -0.15938763320446014, 0.0031922997441142797, 0.04305499792098999, -0.20176751911640167, -0.1131744533777237, 0.2735341489315033], [0.1176677942276001, 0.046021316200494766, -1.1443463563919067, -0.010392941534519196, -0.06881210952997208, -0.2073981612920761, 1.0049268007278442, -0.7629835605621338, -0.06346932053565979, 0.002295444253832102, -0.022104961797595024, -1.362228512763977, -0.2537252902984619, 0.02761058323085308, 0.09635403752326965, -0.0020077868830412626], [0.17410165071487427, 0.15964263677597046, 0.07275113463401794, -0.2972063720226288, -0.08912701159715652, 0.058551352471113205, -0.09511945396661758, -0.002801180351525545, -0.12776023149490356, -0.08842334896326065, 0.17395631968975067, 0.06962800770998001, 0.029790719971060753, -0.1389792561531067, 0.05944838374853134, -0.1834607720375061], [0.17212428152561188, 0.1021752655506134, 0.0041624149307608604, -0.09428725391626358, -0.1561233252286911, -0.007153654471039772, -0.002913343720138073, 0.011071944609284401, -0.0488252118229866, 0.04518650472164154, 0.11206093430519104, 0.024099916219711304, 0.014000101946294308, -0.09687094390392303, 0.07469229400157928, -0.010231412947177887], [0.25136175751686096, 0.10710832476615906, -0.05994405969977379, 0.10600605607032776, -0.0940256416797638, -0.5451175570487976, -0.17189250886440277, 0.05291587859392166, -0.11876899003982544, 0.08614088594913483, -0.1535838097333908, 0.10086312144994736, 0.10754124075174332, 0.060567304491996765, 0.330003947019577, -0.20784050226211548], [0.06146322190761566, -0.07237833738327026, -0.9345133304595947, 0.05347343161702156, -0.02492225356400013, -0.02796408161520958, 0.8475805521011353, -1.8488458395004272, 0.02586563304066658, 0.08720986545085907, -0.04214804619550705, -1.0752748250961304, 1.278941035270691, -0.06002897396683693, 0.060850102454423904, -0.0010403073392808437], [0.006906590890139341, -0.064912810921669, 0.16936983168125153, 0.03953325375914574, 0.02334248274564743, 0.02092130482196808, 0.9264830946922302, 1.9668357372283936, 0.05255350470542908, 0.031070249155163765, -0.05309554934501648, 0.39469975233078003, 1.8854161500930786, -0.03727944195270538, -0.010247677564620972, 0.07104554772377014], [0.11255206912755966, 0.16999587416648865, 0.04067858308553696, -0.13818103075027466, -0.08593517541885376, -0.07975176721811295, -0.15024873614311218, 0.030693577602505684, -0.25019097328186035, -0.003272972535341978, 0.11189859360456467, 0.12467208504676819, 0.08757027238607407, -0.0365721769630909, 0.09174457937479019, -0.22381119430065155], [-0.15626837313175201, 0.015967929735779762, 0.0776490643620491, -0.1721166968345642, -0.006372659467160702, 0.10051700472831726, -0.1058124378323555, 0.05791650712490082, -0.14222407341003418, -0.3440740406513214, 0.03843642771244049, 0.14831185340881348, 0.06546270102262497, 0.018800057470798492, 0.024106768891215324, -0.25961315631866455], [0.02715105563402176, -0.17037241160869598, 0.024940919131040573, 0.12890003621578217, 0.061142660677433014, -0.1757810264825821, 0.021479839459061623, 0.040547534823417664, 0.09229807555675507, 0.024544041603803635, -0.38337671756744385, 0.0581141822040081, 0.05299753695726395, -0.16610270738601685, 0.08294441550970078, 0.12275972962379456], [-0.03092816099524498, 0.024086717516183853, -0.37593480944633484, -0.02853686362504959, 0.006086024921387434, -0.14719046652317047, 0.5963653922080994, -1.0743626356124878, -0.10793080180883408, -0.1456836462020874, -0.053356874734163284, 1.249329924583435, -1.4735294580459595, 0.09797222912311554, 0.051565952599048615, -0.000911438895855099], [0.0856628492474556, 0.07753756642341614, -0.04218205809593201, -0.07028206437826157, -0.0371859185397625, -0.03870716318488121, -0.8813534379005432, -0.40951547026634216, -0.058444440364837646, -0.008174770511686802, 0.03011028654873371, 0.9252216815948486, 1.9401421546936035, -0.07056627422571182, 0.032523538917303085, 0.00032266523339785635], [0.3825125992298126, 0.1849171221256256, 0.07101069390773773, -0.16153234243392944, -0.09799399971961975, -0.12803536653518677, 0.044157736003398895, -0.010884803719818592, -0.013716693967580795, 0.034741468727588654, -0.006501541472971439, -0.08821087330579758, -0.06681153923273087, -0.4948534369468689, 0.10425736010074615, 0.12857350707054138], [-0.20133373141288757, -0.22455903887748718, -0.005126128904521465, 0.09396584331989288, 0.090263232588768, 0.3579825758934021, 0.12565988302230835, 0.03199990466237068, 0.1695520430803299, 0.07594484090805054, 0.1426103562116623, -0.0013330393703654408, -0.018441317602992058, 0.054502107203006744, -0.385530561208725, -0.009333592839539051], [0.06041119620203972, 0.0729718953371048, -0.09065519273281097, -0.018203185871243477, -0.04216626659035683, -0.010628446005284786, -0.09628910571336746, 0.015497453510761261, -0.018403029069304466, 0.016916286200284958, 0.1402089148759842, -0.011503804475069046, 0.10012597590684891, 0.08562496304512024, 0.09890127182006836, -0.36045554280281067]], "rec.bias_ih_l0": [-0.27576494216918945, -0.3374572694301605, -0.6984171867370605, -0.22740425169467926, -0.08832941949367523, -0.3198280334472656, 0.7288435697555542, 0.25525081157684326, -0.16176097095012665, -0.28282126784324646, -0.28548794984817505, -0.06823378056287766, 0.08044709265232086, -0.3038557171821594, -0.22154267132282257, -0.308061808347702, 0.013422280550003052, -0.013404469937086105, -0.5244722962379456, -0.006775836460292339, -0.0017041079699993134, 0.029924442991614342, 2.604886054992676, 2.0255277156829834, 0.029864806681871414, 0.0692865401506424, 0.035426098853349686, -0.17802228033542633, 2.1212399005889893, 0.025376375764608383, -0.0026725048664957285, -0.030387651175260544, 0.026140566915273666, -0.013059977442026138, -0.39581337571144104, 0.021331217139959335, -0.017587581649422646, 0.005234431009739637, -0.05996205285191536, -0.04500073194503784, 0.01962006464600563, 0.029752075672149658, 0.0066519249230623245, -0.47639793157577515, 0.06106811389327049, -0.02145448327064514, 0.036085888743400574, -0.0009065529447980225], "rec.bias_hh_l0": [-0.27576494216918945, -0.3374572694301605, -0.6973269581794739, -0.22740425169467926, -0.08832941949367523, -0.3198280334472656, 0.7288435697555542, 0.25525087118148804, -0.16176097095012665, -0.28282126784324646, -0.28548794984817505, -0.08624737709760666, 0.08265471458435059, -0.3038557171821594, -0.22154267132282257, -0.308061808347702, 0.013422280550003052, -0.013404469937086105, -0.5244722962379456, -0.006775836460292339, -0.0017041079699993134, 0.029924442991614342, 2.6048855781555176, 2.0255234241485596, 0.029864806681871414, 0.0692865401506424, 0.035426098853349686, -0.17802228033542633, 2.1501219272613525, 0.025376375764608383, -0.0026725048664957285, -0.030387651175260544, 0.03506898134946823, 0.028221288695931435, 0.20099544525146484, -0.02249022200703621, -0.01771257445216179, 0.008613585494458675, -0.2595529556274414, 0.19770094752311707, 0.04004836454987526, 0.026026589795947075, 0.012757386080920696, 0.4154386520385742, 0.2842605710029602, -0.04697638005018234, 0.040161192417144775, -0.003943063784390688], "lin.weight": [[-0.024095363914966583, 0.006259663961827755, -0.2316715270280838, -0.04231404885649681, -0.001118359505198896, -0.08115822076797485, -0.2650194764137268, -0.4024334251880646, -0.07347111403942108, -0.0839986801147461, -0.040898729115724564, 0.10657963901758194, 0.45692580938339233, 0.0808553397655487, -0.017209989950060844, -0.04915272817015648]], "lin.bias": [0.06630318611860275]}}