{"model_data": {"model": "SimpleRNN", "input_size": 1, "skip": 1, "output_size": 1, "unit_type": "GRU", "num_layers": 1, "hidden_size": 16, "bias_fl": true}, "state_dict": {"rec.weight_ih_l0": [[0.00038597031380049884], [-0.5751273036003113], [-1.680078148841858], [0.0025222143158316612], [0.003929071128368378], [0.00016390976088587195], [-0.11189515143632889], [0.00023722118930891156], [0.006080671213567257], [0.4217706024646759], [-0.0004220354021526873], [0.006229919847100973], [-0.0018953405087813735], [0.14190047979354858], [0.0017339279875159264], [-0.002531524049118161], [0.00029665144393220544], [1.6867481470108032], [-0.17354631423950195], [-0.00015819973486941308], [0.0004394617862999439], [-0.00017177419795189053], [0.1742294579744339], [-0.0005975195672363043], [0.0007709182682447135], [-1.0494848489761353], [0.0001695190730970353], [-0.0012629410484805703], [0.0008041004184633493], [-0.4738369584083557], [0.00010419715545140207], [0.0014295930741354823], [0.010168037377297878], [1.01729154586792], [-0.7950465679168701], [0.003276128089055419], [0.005307170562446117], [0.0072736660949885845], [-0.6786031126976013], [-0.006868910044431686], [0.019402118399739265], [-0.8272539377212524], [0.00029056015773676336], [0.034856926649808884], [-0.007076852489262819], [0.8866910934448242], [0.011882366612553596], [0.022663800045847893]], "rec.weight_hh_l0": [[0.0020201767329126596, -0.001719352207146585, 0.001620025373995304, 0.0003484127519186586, -0.0006075616111047566, 0.0006408891640603542, -0.005100374575704336, -0.0016883675707504153, 0.0009340583928860724, -0.00433494383469224, -0.00010583450057310984, 0.000723404751624912, -0.0005787691916339099, -0.0009046004852280021, 0.00034864916233345866, 0.0017259586602449417], [-0.00800594873726368, 0.03323086351156235, 0.3168443441390991, -0.0335657112300396, 0.04033278673887253, -0.01788860745728016, 0.1884651631116867, 0.012888462282717228, -0.01695442572236061, 0.29137668013572693, 0.02223862335085869, -0.011865301057696342, -0.015006456524133682, -0.8124886155128479, 0.016043923795223236, 0.0029847254045307636], [-0.01754833199083805, -0.10618146508932114, 1.0225025415420532, -0.014284180477261543, 0.012084574438631535, 0.01456633023917675, 0.7951098084449768, -0.008242150768637657, -0.026919187977910042, 0.41012319922447205, 0.006563969422131777, -0.04902280122041702, 0.0022468215320259333, -0.28616034984588623, -0.01159344520419836, -0.019025331363081932], [0.0003835682291537523, -0.0027746323030442, -0.0006009374046698213, 0.00022506361710838974, -0.00029035512125119567, 3.045222911168821e-05, -0.0016701009590178728, -0.00012134903954574838, 0.0004100746591575444, -0.0007015093578957021, -2.8848496640421217e-06, 0.0005360416253097355, -0.00027264736127108335, 0.0020508698653429747, 0.00034055663854815066, 0.0006107738008722663], [0.0009687701240181923, -0.005129899829626083, 0.0004993839538656175, 0.0007414292776957154, -0.001177165424451232, 0.0002262491179862991, -0.0064793359488248825, -0.0004581282555591315, 0.0009345125290565193, -0.0012595453299582005, -0.0001391830010106787, 0.0008114294032566249, -0.0005331240827217698, 0.005283859558403492, 0.0006970636313781142, 0.0011447531869634986], [0.00013235989899840206, 0.00035684637259691954, -1.1906934105354594e-06, 3.6837584048043936e-05, -1.3337889868125785e-05, 3.373830622876994e-05, -3.638385169324465e-05, -6.361874693538994e-05, 3.6896552046528086e-05, 0.0002189393708249554, -6.500013114418834e-05, 1.7962731362786144e-05, 6.564635259564966e-05, -1.1495438229758292e-05, -1.1015024938387796e-05, -3.288007064838894e-05], [0.013521827757358551, -0.6344450116157532, -0.06334728002548218, 0.03825657442212105, -0.04097722843289375, 0.01817609928548336, 0.3377877175807953, -0.019973689690232277, 0.0203844141215086, 0.007888483814895153, -0.026353657245635986, 0.009645064361393452, 0.015865173190832138, 0.19438526034355164, -0.0006321045802906156, 1.3078617485007271e-05], [0.0008097848040051758, -0.000598282553255558, 0.00012571005208883435, 0.00017559545813128352, -0.00020598909759428352, 0.00011011262540705502, 1.6796037016320042e-05, -0.0002543473965488374, 0.00038581801345571876, -0.00014450866729021072, -0.00011771508434321731, 0.0003103339986409992, -9.778128151083365e-05, -0.0013754117535427213, 4.919803177472204e-05, 0.0004000226908829063], [0.0002450490719638765, 0.003876058617606759, -0.003623646916821599, 0.0002688392414711416, -0.0003954620042350143, -9.48230444919318e-05, -0.0036831970792263746, -0.00014307124365586787, -4.3667205318342894e-05, -0.0017142662545666099, -0.00019495922606438398, -3.979672692366876e-05, 0.0002898373641073704, 0.006493611726909876, -0.00011470764002297074, -0.00019415063434280455], [-0.016595274209976196, -0.2930854558944702, -0.31916752457618713, -0.04445160552859306, 0.05430903285741806, -0.0075677623972296715, -0.07037516683340073, 0.006787778344005346, -0.034908439964056015, 0.19650234282016754, 0.03331371769309044, -0.024268925189971924, -0.030012279748916626, 0.28000497817993164, -0.004455454181879759, 0.012195817194879055], [-6.151219622552162e-06, -0.0016642374685034156, 0.0009383463184349239, -2.5528213882353157e-05, 3.792727875406854e-05, -2.8650536478380673e-05, -0.00091977056581527, 5.092258652439341e-05, 4.754382825922221e-05, 0.00017466081771999598, 4.441299824975431e-05, 3.857204137602821e-05, -9.190149285132065e-05, 0.00034727351157926023, 7.305420149350539e-05, 7.819584425305948e-05], [-0.0017740654293447733, 0.006194618996232748, -0.005768945440649986, 3.5861619835486636e-05, 3.764169741771184e-05, -0.0006581406341865659, -0.00405098358169198, 0.0011234598932787776, -0.0008907143492251635, 0.0036075222305953503, -0.0002441653923597187, -0.0008118221303448081, 0.0011616356205195189, 0.008708816953003407, -0.0005482632550410926, -0.0019416913855820894], [-0.0001616519584786147, -0.0011466440046206117, 0.002367316512390971, -0.00016199339006561786, 0.0002097919787047431, -0.00011717970483005047, -0.0015278904465958476, 0.00010791326349135488, -0.00013190036406740546, 0.002454497618600726, 0.00010310814104741439, -0.00024273853341583163, -8.092866482911631e-05, 0.0025215770583599806, -0.00012311895261518657, -0.00023401407815981656], [0.011107784695923328, -0.070290707051754, -0.10954141616821289, 0.004967011045664549, -0.004762470722198486, 0.0017269360832870007, -0.14267300069332123, -0.007514325436204672, 0.007580827455967665, 0.11578426510095596, -0.003573704045265913, 0.0075049735605716705, -0.000132467903313227, -0.10114146769046783, -0.0007337958668358624, 0.007570241112262011], [-0.00019372371025383472, 0.001861361786723137, -0.0012542800977826118, 4.823219569516368e-05, -0.00015057128621265292, -5.0649960030568764e-05, -0.0004162255791015923, 8.818897185847163e-05, -0.0001300579315284267, 0.0028151993174105883, -1.733832868922036e-05, -0.00021198920148890465, 9.292733739130199e-05, 0.005519042257219553, -8.920709660742432e-05, -0.00016033575229812413], [-0.00141980592161417, -0.0019456454319879413, 0.001608590129762888, -0.00013877905439585447, 0.0005193033721297979, -0.0002928449830505997, -0.0012690807925537229, 0.0006930841482244432, -0.0009947934886440635, 0.013829394243657589, -0.00012586306547746062, -0.0010721327271312475, 0.0006677718483842909, 0.0066259680315852165, -0.00046524606295861304, -0.0013571226736530662], [-0.00017027945432346314, 0.0006848731427453458, -0.0009106598445214331, -5.439428787212819e-05, 8.861550304573029e-05, -1.3160622984287329e-05, 0.0008264571661129594, 6.331913027679548e-05, -9.30129608605057e-05, 0.0007392322295345366, 2.3213377062347718e-05, -5.2134189900243655e-05, 3.5021166695514694e-05, 0.0007409111130982637, -1.5728808648418635e-05, -7.631932385265827e-05], [0.02227047272026539, -0.3913719952106476, -0.9166683554649353, 0.0074095167219638824, 0.0007166489376686513, -0.010506107471883297, 1.6337324380874634, 0.018975473940372467, 0.05368763580918312, 1.0512211322784424, 0.0024655265733599663, 0.09854733198881149, -0.021262146532535553, -0.3688822090625763, 0.02332352288067341, 0.05201910063624382], [-0.025404999032616615, -0.05170506238937378, -0.10266242176294327, -0.03707864135503769, 0.05355701595544815, 0.004395634867250919, 0.8985922932624817, 0.0018524175975471735, -0.033793337643146515, 0.7660958170890808, 0.022435734048485756, -0.03506643325090408, -0.01365811750292778, -0.14580537378787994, -0.004863501992076635, -0.01174852903932333], [0.00011893503688042983, -8.471715409541503e-05, 0.0004593966295942664, 0.00016627213335596025, -0.00021952783572487533, -2.4817450139380526e-06, -0.0012005065800622106, -1.9288494513602927e-05, 7.601475226692855e-05, -0.001341489376500249, -9.946127829607576e-05, 3.116729931207374e-05, 4.398519376991317e-05, -0.00014859627117402852, 2.3588347175973468e-05, 3.7867175706196576e-05], [0.0009741479880176485, -0.0006632074946537614, 0.0019915099255740643, 0.0003549569519236684, -0.0003048095677513629, 0.00017810764256864786, -0.0038384259678423405, -0.00047201753477565944, 0.00048374413745477796, -0.004615196958184242, -0.00035258778370916843, 0.00037087700911797583, 0.0001536455238237977, -0.0018248633714392781, -2.3386925022350624e-05, 0.00029743550112470984], [-0.00012576473818626255, -1.793754199752584e-05, -7.59019167162478e-05, -3.308405212010257e-05, 3.908683720510453e-05, -2.2393756808014587e-05, 5.6755918194539845e-05, 5.882697951165028e-05, -6.122344348113984e-05, 7.064644159981981e-05, 2.2355774490279146e-05, -5.147967749508098e-05, 1.228843211720232e-05, 0.00014697361621074378, -7.58211217544158e-06, -6.089440648793243e-05], [-0.04030955210328102, -0.03700769692659378, 0.017727095633745193, -0.04372379928827286, 0.04730850085616112, -0.028339659795165062, 0.4560384452342987, 0.042976733297109604, -0.02995692752301693, 0.07173865288496017, 0.03865312784910202, -0.005311221815645695, -0.03053963929414749, 0.34000250697135925, 0.03114224411547184, 0.019542694091796875], [-0.0002473693457432091, 0.00018821489356923848, -0.0002231515245512128, -6.708683213219047e-05, 0.00010626896983012557, -4.539605288300663e-05, 0.0007059377385303378, 0.0001168962407973595, -0.0001531274028820917, 0.001034675631672144, 3.154268051730469e-05, -0.00011467527656350285, 4.4329091906547546e-05, 0.000657867465633899, -2.6998264729627408e-05, -0.0001230355555890128], [0.0002132924710167572, 0.0005616456037387252, -0.000329298636643216, 9.069176303455606e-05, -0.0002062898565782234, 2.50373559538275e-05, -0.0006115038995631039, -8.195824193535373e-05, 0.00015458904090337455, -0.0014800054486840963, -1.7616852346691303e-05, 9.259639773517847e-05, -7.087177073117346e-05, -4.104694016859867e-05, 4.011408964288421e-05, 0.00017540366388857365], [-0.02394513040781021, 1.0056755542755127, 0.8191034197807312, -0.01791735738515854, 0.013657841831445694, 0.002521165646612644, -0.41310277581214905, 0.010735871270298958, -0.026475027203559875, -0.29069003462791443, 0.016712382435798645, -0.02707311511039734, -0.012568127363920212, 0.6735463738441467, -0.012683072127401829, -0.014281063340604305], [2.548886368458625e-05, 7.587012805743143e-05, 6.272341124713421e-06, 3.776944868150167e-05, -6.563486385857686e-05, -3.5370512705412693e-06, -0.00040884449845179915, -9.275923389395757e-07, 3.566662417142652e-05, -0.0005124695017002523, -8.722551683604252e-06, 2.529500488890335e-05, -1.046655870595714e-05, -4.4252014049561694e-05, 6.123692855908303e-06, 1.940244692377746e-05], [0.0021449546329677105, -0.002017715247347951, 0.0036632861010730267, 0.0005551392678171396, -0.0006067825015634298, 0.0003934088454116136, -0.004489294718950987, -0.0010606583673506975, 0.001065840944647789, -0.006945301778614521, -0.00037801358848810196, 0.0007693070219829679, -0.00021125817147549242, -0.0030116953421384096, 6.149722321424633e-05, 0.0009860647842288017], [-6.524775380967185e-05, 0.0004088605346623808, -0.0004589599557220936, 2.3431452063960023e-05, -4.98196532134898e-05, -1.0760359145933762e-05, -0.0004465091915335506, 4.874612932326272e-05, 1.6886591765796766e-05, -0.0009474348044022918, 1.3130515071679838e-05, 3.2162206480279565e-05, -2.4708704586373642e-05, -0.000315462879370898, 2.1643960280925967e-05, 1.7111240595113486e-05], [-0.028435854241251945, 0.37297141551971436, 0.5119094848632812, -0.004277579486370087, 0.006336648017168045, 0.007865414954721928, 0.27192234992980957, -0.0027846135199069977, -0.039326999336481094, -0.1471422165632248, -0.004228746984153986, -0.06199493259191513, 0.015435620211064816, 0.28483760356903076, -0.02372463420033455, -0.04362612962722778], [6.7191656853538e-05, 3.2976538477669237e-07, 0.0001255520764971152, 4.2818755900952965e-05, -8.707543747732416e-05, 6.685830612696009e-06, -0.00048704634536989033, -2.4504541215719655e-05, 5.737859828514047e-05, -0.0007053953595459461, -1.1780873137468006e-05, 4.4666263420367613e-05, -1.8041111616184935e-05, -0.0001611790939932689, 1.4184340216161218e-05, 5.3894233133178204e-05], [0.0008843269315548241, 0.00012078727741027251, 0.0008248636731877923, 0.00047607708256691694, -0.0004799012967851013, 0.00014271015243139118, -0.0032077732030302286, -0.0003317151858936995, 0.0005366911645978689, -0.005162165500223637, -0.0003027933125849813, 0.00039342508534900844, 2.5615563572500832e-05, -0.0012267535785213113, 2.287207098561339e-05, 0.00034689821768552065], [-0.010730220936238766, -0.04110339656472206, 0.002686321036890149, -0.008154941722750664, 0.009140698239207268, -0.00023186618636827916, -0.023895759135484695, 0.006311228033155203, -0.011450089514255524, -0.011150890029966831, 0.007689472287893295, -0.00397894624620676, -0.005734732840210199, -0.002646384760737419, -0.0034193084575235844, 0.00379643845371902], [-0.0006917503196746111, 1.0267225503921509, -0.057411666959524155, -0.02493707463145256, 0.0337209515273571, -0.0013267103349789977, -0.4021926820278168, 0.00533244339749217, 0.01210576482117176, -0.03305908292531967, 0.016630344092845917, 0.03810090944170952, -0.022795671597123146, -1.5809837579727173, 0.015345212072134018, 0.039983537048101425], [0.020468072965741158, 0.4177965819835663, -0.6277780532836914, 0.04353806748986244, -0.06746514141559601, -0.014430820010602474, -0.54226154088974, 0.014657889492809772, 0.06256194412708282, -0.8089473843574524, -0.0201107207685709, 0.08664275705814362, 0.02087569609284401, 0.058373600244522095, 0.042788315564394, 0.03254451975226402], [-0.006057034712284803, -0.03826513886451721, 0.015325265005230904, -0.01844940520823002, 0.020980434492230415, -0.005684984847903252, -0.017813660204410553, 0.007994405925273895, -0.009078515693545341, -0.07287465780973434, 0.013624969869852066, -0.0013171384343877435, -0.011264353059232235, 0.011341321282088757, -0.00030050528584979475, 0.006672072224318981], [0.0010432741837576032, 0.04790278524160385, -0.026572445407509804, 0.018734287470579147, -0.022099168971180916, 0.0026893895119428635, 0.03057035431265831, -0.0035309658851474524, 0.0056527405977249146, 0.10237955302000046, -0.013604968786239624, -0.0006499773007817566, 0.013515876606106758, -0.016760632395744324, 0.0001051189610734582, -0.009573022834956646], [0.005577773321419954, -0.03077203407883644, -0.015139320865273476, 0.0076036895625293255, -0.008614243939518929, -0.025697801262140274, 0.01764235459268093, 0.02120061405003071, 0.009038743562996387, -0.013769556768238544, -0.006284278817474842, 0.010430186055600643, 0.005264454521238804, 0.002599661471322179, 0.0077143083326518536, 0.0009185883682221174], [0.01138276606798172, 0.43793144822120667, -0.2668417692184448, 0.007805074565112591, -0.011313771829009056, 0.00022342441661749035, 1.3001747131347656, -0.006587736774235964, 0.002411521738395095, 0.1529020071029663, -0.005756227299571037, -0.0056540099903941154, 0.006649625487625599, -0.9508942365646362, 0.0003077109286095947, -0.005440323147922754], [-0.003267279826104641, 0.036418020725250244, 0.011379376985132694, -0.0024828973691910505, 0.0024506826885044575, 0.022119678556919098, -0.006512483116239309, -0.02337045408785343, -0.006191118620336056, 0.012372016906738281, 0.0010330445365980268, -0.011203121393918991, 0.0012542626354843378, 0.0016719367122277617, -0.007097521796822548, -0.007239641156047583], [-0.01471026986837387, -0.034187667071819305, 0.008673655800521374, -0.011711186729371548, 0.013377666473388672, 0.004947202745825052, -0.030980955809354782, 0.003352963365614414, -0.022655341774225235, -0.009937365539371967, 0.010485604405403137, -0.017038848251104355, -0.006146241910755634, -0.0049202521331608295, -0.013431396335363388, -0.003897174960002303], [0.015734586864709854, 0.8930230140686035, 0.2454969882965088, 0.02267177402973175, -0.032057538628578186, 0.008310220204293728, 0.41226840019226074, -0.014883472584187984, -0.0031538016628473997, 0.9811768531799316, -0.01305907778441906, -0.02310444787144661, 0.012880450114607811, 1.5622072219848633, -0.008604330942034721, -0.016959110274910927], [0.007357924245297909, 0.0142371179535985, -0.009809695184230804, 0.017099494114518166, -0.019629044458270073, 0.0020073645282536745, 0.013255647383630276, -0.005365386139601469, 0.009445608593523502, 0.042727772146463394, -0.01426149345934391, 0.0008869333541952074, 0.012558702379465103, -0.004758502822369337, -0.00041617071838118136, -0.007570316549390554], [-0.012822275049984455, -0.03674424812197685, 0.0005238685989752412, -0.004741170909255743, 0.003630670951679349, 0.005178764928132296, -0.03739932179450989, 0.002263355767354369, -0.022748110815882683, 0.008512884378433228, 0.004877239931374788, -0.02948019467294216, 0.0009437288390472531, -0.006128811277449131, -0.01722247153520584, -0.015803899616003036], [-0.004156944341957569, 0.007669385522603989, 0.005358539987355471, -0.015554675832390785, 0.01882127672433853, 0.001854811911471188, -0.01309038233011961, 0.0005921553820371628, -0.0052995840087533, -0.039201561361551285, 0.013479591347277164, 0.0031384387984871864, -0.014186078682541847, 0.007712940685451031, 0.0018297451315447688, 0.010147487744688988], [-0.009351520799100399, 1.7371760606765747, -1.0715831518173218, -0.01825782284140587, 0.033171381801366806, 0.011103946715593338, 1.1985136270523071, -0.003499001497402787, -0.013848768547177315, -1.0635039806365967, 0.016613051295280457, 0.0037071083206683397, -0.01805887185037136, 0.23718109726905823, 0.004110880196094513, 0.014788934960961342], [-0.0037307979073375463, -0.0003679727378766984, 0.010076494887471199, -0.005239520221948624, 0.007252350449562073, 0.012954352423548698, -0.006906008813530207, -0.008548646233975887, -0.011061606928706169, 0.023631155490875244, 0.00487646646797657, -0.012084170244634151, -0.0035781636834144592, -0.007022359874099493, -0.01703549548983574, -0.005274789407849312], [-0.006891809403896332, -0.021459121257066727, -0.0028926546219736338, 0.006082374602556229, -0.008097527548670769, 0.004108061082661152, -0.005668777506798506, -0.0011027168948203325, -0.012715679593384266, 0.038799040019512177, -0.0043592690490186214, -0.01948065683245659, 0.008705618791282177, -0.006765215191990137, -0.013792973011732101, -0.016984039917588234]], "rec.bias_ih_l0": [-0.002874198602512479, 0.18051256239414215, -0.565368115901947, -0.009267814457416534, -0.009572762995958328, -0.009806188754737377, 0.5021575093269348, -0.009669325314462185, -0.013279356993734837, 0.4953254163265228, -0.006426034029573202, -0.015385251492261887, -0.004567463882267475, 0.8443560004234314, -0.007463914342224598, -0.00608389638364315, -0.002346394583582878, 1.732011079788208, -0.40112558007240295, 0.0013456300366669893, 0.004176315385848284, -0.0003174144949298352, 1.9229512214660645, -0.0021480824798345566, 0.0021204394288361073, 1.8671510219573975, 0.0008988128392957151, 0.0060843476094305515, 0.0011574443196877837, 1.9110643863677979, 0.0011823460226878524, 0.004179669544100761, 0.009951815009117126, -0.017711225897073746, 0.0478970967233181, -0.000985045451670885, 0.0012387502938508987, 0.003134440863505006, 0.06798526644706726, -0.006622535642236471, 0.0033448210451751947, -0.03854178264737129, 0.0009635854512453079, 0.004132845904678106, -0.003099005436524749, -0.054894205182790756, 0.00042320683132857084, 0.008688834495842457], "rec.bias_hh_l0": [-0.002874198602512479, 0.16451901197433472, -0.5638539791107178, -0.009267814457416534, -0.009572762995958328, -0.009806188754737377, 0.5236158967018127, -0.009669325314462185, -0.013279356993734837, 0.5037168860435486, -0.006426034029573202, -0.015385251492261887, -0.004567463882267475, 0.842317521572113, -0.007463914342224598, -0.00608389638364315, -0.002346394583582878, 1.7317712306976318, -0.400971382856369, 0.0013456300366669893, 0.004176315385848284, -0.0003174144949298352, 1.9229869842529297, -0.0021480824798345566, 0.0021204394288361073, 1.8671636581420898, 0.0008988128392957151, 0.0060843476094305515, 0.0011574443196877837, 1.9111709594726562, 0.0011823460226878524, 0.004179669544100761, 0.007888040505349636, 0.058250024914741516, -0.08048151433467865, -0.0029364493675529957, 0.00513392174616456, -0.0007551843882538378, -0.06273481994867325, -0.00032162494608201087, 0.008275507017970085, 0.06885717809200287, 0.0023640296421945095, 0.006068602669984102, -0.006847547832876444, 0.05222658812999725, 0.00626539159566164, 0.008440673351287842], "lin.weight": [[-0.00960746593773365, -0.3004539906978607, 0.7111941576004028, -0.011320298537611961, 0.020366009324789047, 1.3102240700391121e-05, 0.08585576713085175, 0.003635124070569873, -0.0073081329464912415, 0.0417526513338089, 0.005314468871802092, -0.0007493416196666658, -0.003179905703291297, 0.1239217221736908, -0.004166392143815756, 0.0022052049171179533]], "lin.bias": [-0.02565395087003708]}}