{"model_data": {"model": "SimpleRNN", "input_size": 1, "skip": 1, "output_size": 1, "unit_type": "GRU", "num_layers": 1, "hidden_size": 16, "bias_fl": true}, "state_dict": {"rec.weight_ih_l0": [[0.08348336070775986], [-0.5271816849708557], [-0.6678887605667114], [0.0006272639147937298], [-0.011536460369825363], [-0.007084729615598917], [-0.41380563378334045], [0.22812312841415405], [-0.02188066951930523], [-0.4532417356967926], [-0.2541656196117401], [-0.009658926166594028], [-0.1528816521167755], [-0.09495382755994797], [-0.17276589572429657], [-0.02421962097287178], [0.019273219630122185], [0.3552892506122589], [0.2843291461467743], [-0.005846588872373104], [-0.08572973310947418], [0.05097178742289543], [0.4539133608341217], [0.08820748329162598], [0.04146982729434967], [0.34438782930374146], [0.14492951333522797], [0.0020695477724075317], [0.15392988920211792], [0.283400297164917], [0.34803521633148193], [0.023963816463947296], [0.2478950321674347], [0.5141573548316956], [-0.581976056098938], [-0.012973226606845856], [0.2330399751663208], [0.14602437615394592], [0.2510845363140106], [-0.6628283262252808], [-0.2271246612071991], [-0.404140442609787], [-0.23250670731067657], [0.08286353945732117], [0.3630619943141937], [1.142843246459961], [-0.2739449739456177], [-0.04430451616644859]], "rec.weight_hh_l0": [[0.05271279811859131, 0.11697737127542496, -0.03163716569542885, 0.008873560465872288, -0.06102225184440613, 0.019316446036100388, 0.01016959361732006, -0.09723909199237823, -0.03381887450814247, -0.020775804296135902, -0.13209401071071625, 0.018967032432556152, -0.00790974497795105, 0.05939464271068573, -0.06007935106754303, -0.0396806001663208], [-0.07715768367052078, -0.102962426841259, 0.07261165976524353, -0.018250273540616035, 0.09980557858943939, -0.002895770128816366, -0.03551750257611275, 0.012647299095988274, 0.07518952339887619, 0.06416179239749908, -0.13576893508434296, -0.05903751030564308, 0.11981945484876633, -0.010780706070363522, 0.10402506589889526, 0.10811734199523926], [-0.17227734625339508, -0.10218515992164612, 0.16483615338802338, -0.007760866079479456, -0.015568812377750874, 0.04452887922525406, -0.11985685676336288, 0.08694694936275482, 0.08444450050592422, 0.10264749825000763, -0.017561811953783035, -0.04599861428141594, -0.054325345903635025, -0.18098951876163483, 0.15722282230854034, 0.038316912949085236], [0.0021373836789280176, 0.011251215822994709, -0.008264449425041676, 0.0026895920746028423, -0.0024467522744089365, 0.004498363938182592, 0.0009870815556496382, 0.03868543356657028, -0.0019168253056704998, 0.0005185088375583291, -0.05872306227684021, 0.001816349453292787, 0.014187811873853207, 0.0219932459294796, -0.0010325827170163393, 0.0022007604129612446], [-0.03402787819504738, -0.0401698462665081, 0.02975417487323284, -0.0057613784447312355, -0.112721286714077, -0.012974027544260025, -0.02063000202178955, 0.19027557969093323, 0.03674153983592987, 0.028182800859212875, -0.08306843042373657, -0.013541271910071373, -0.09473665058612823, 0.06468688696622849, 0.030522622168064117, -0.02279786206781864], [-0.02038874290883541, -0.0595707967877388, 0.029387742280960083, -0.029008526355028152, -0.034005943685770035, -0.07304025441408157, -0.02830003760755062, 0.03121894970536232, 0.03699249029159546, 0.026412297040224075, 0.02958573028445244, -0.025689246132969856, -0.04296274110674858, -0.012369043193757534, 0.033421002328395844, 0.010082636959850788], [0.05123540014028549, -0.12861084938049316, 0.1472373753786087, 0.02446865662932396, 0.2033747285604477, -0.018231429159641266, -0.02931884117424488, 0.012396745383739471, 0.03412877023220062, 0.024293450638651848, -0.01539266761392355, -0.06053575500845909, -0.21348412334918976, -0.06714142858982086, 0.009588451124727726, -0.058022186160087585], [-0.053321242332458496, -0.0651598572731018, -0.08848123252391815, -0.0257196594029665, 0.03869782015681267, -0.012126860208809376, 0.0607309527695179, 0.05034715682268143, -0.02196972817182541, -0.1308162957429886, -0.09122820943593979, -0.04474549740552902, 0.08594220131635666, -0.14108455181121826, -0.04947130009531975, -0.025984663516283035], [-0.004444214049726725, 0.016485290601849556, 0.008219814859330654, 0.014106696471571922, -0.07250774651765823, 0.04017544910311699, 0.013614753261208534, -0.08920295536518097, -0.049458812922239304, -0.04938507825136185, 0.030787497758865356, 0.02636433206498623, -0.03363519161939621, -0.003086932934820652, -0.03578018397092819, 0.02293223701417446], [-0.012669707648456097, 0.0720716342329979, 0.06180267408490181, 0.023459697142243385, 0.19027473032474518, 0.07667895406484604, -0.014308021403849125, -0.05170900374650955, -0.04107467457652092, -0.027504077181220055, 0.04409795626997948, 0.08750113844871521, 0.08913407474756241, -0.11253040283918381, -0.009947736747562885, -0.03449522703886032], [0.014410904608666897, -0.11495745927095413, -0.02212899923324585, -0.012995473109185696, -0.06453975290060043, -0.021662471815943718, 0.07254502177238464, -0.14723190665245056, -0.004138380289077759, 0.024305006489157677, -0.20658986270427704, 0.005605748854577541, -0.035446081310510635, 0.15135212242603302, -0.01724422536790371, -0.10312875360250473], [-0.003954729996621609, 0.011790077202022076, -0.013409263454377651, 0.0021934793330729008, -0.007995059713721275, 0.005132975056767464, 0.002343188039958477, 0.0067934198305010796, -0.004432845860719681, -0.005343107506632805, -0.016423454508185387, 0.0022752878721803427, 0.015665894374251366, -0.014193716458976269, 0.0026115288492292166, -0.0021803227718919516], [-0.03452589362859726, 0.01720154657959938, -0.003569726599380374, 0.01543089933693409, -0.03858316317200661, 0.029871199280023575, 0.008748349733650684, 0.07120067626237869, -0.018222441896796227, -0.02000209130346775, -0.03167762979865074, -0.0022746382746845484, 0.026417549699544907, -0.16051407158374786, -0.004085017368197441, 0.0006384708103723824], [-0.09397456794977188, -0.07861098647117615, 0.07820331305265427, -0.015553358942270279, 0.005670958664268255, 0.0191460233181715, -0.08845002949237823, -0.07011064141988754, 0.08708243817090988, 0.07476162910461426, 0.14135533571243286, -0.03305833041667938, -0.04678325355052948, -0.04134126007556915, 0.09784432500600815, 0.024429060518741608], [0.16055099666118622, 0.058750566095113754, -0.027886128053069115, -0.0660322979092598, 0.09729194641113281, -0.0030275066383183002, 0.10887361317873001, 0.013368490152060986, 0.045995209366083145, -0.07010401040315628, -0.11651129275560379, -0.04438362643122673, 0.12024001777172089, 0.1857653260231018, -0.09853819757699966, 0.1168702244758606], [0.004842339549213648, -0.0067496816627681255, 0.021633939817547798, -0.0055763511918485165, -0.04225078970193863, -0.0009342467528767884, 0.049690525978803635, -0.013915344141423702, 0.012177933938801289, 0.03516911715269089, 0.06754554063081741, -0.007372328545898199, -0.017191128805279732, 0.08122201263904572, 0.004799677524715662, -0.06373947858810425], [0.008605673909187317, -0.014652798883616924, 0.013094168156385422, -0.01824839785695076, 0.045227739959955215, -0.048146024346351624, -0.017196491360664368, -0.06023301184177399, 0.03152620047330856, 0.032914936542510986, 0.04820830747485161, 0.0028255581855773926, -0.026232564821839333, 0.037532299757003784, 0.010272735729813576, -0.007022011559456587], [0.02395698055624962, -0.1912177950143814, 0.1834692806005478, -0.034681566059589386, 0.4376984238624573, 0.012394150719046593, -0.06106763705611229, -0.4915145933628082, -0.010989152826368809, 0.0027638631872832775, 0.45191723108291626, 0.09142914414405823, -0.30164384841918945, -0.4537917971611023, -0.10480058193206787, -0.09796584397554398], [0.04069530963897705, -0.11753156781196594, 0.1113901138305664, -0.03224921599030495, 0.3132760226726532, -0.033135246485471725, -0.021993102505803108, -0.35930344462394714, -0.004522914532572031, -0.016415974125266075, 0.3163309395313263, 0.07588687539100647, -0.20117095112800598, -0.3389303982257843, -0.08535749465227127, -0.07643265277147293], [-0.0003988237294834107, -0.0022297955583781004, 0.0033860860858112574, -2.845122799044475e-05, -0.0019897089805454016, -0.0013869883259758353, 0.00033759759389795363, 0.004299466032534838, 0.0001785207714419812, 0.0004811433027498424, -0.0012367323506623507, 0.00020968017634004354, -0.0008283104980364442, -0.0007313634851016104, -0.0010562760289758444, 0.00013210806355345994], [0.00902272667735815, -0.059414613991975784, 0.06443099677562714, -0.015708396211266518, 0.05055955797433853, -0.03294884040951729, -0.030861403793096542, -0.046198152005672455, 0.04815702512860298, 0.06313996762037277, 0.06702107191085815, -0.015946226194500923, -0.06331603974103928, 0.1049467995762825, 0.030223943293094635, 0.009808680973947048], [-0.010432918556034565, -0.017618944868445396, 0.014425625093281269, -0.0015442591393366456, 0.039334531873464584, -0.002316203434020281, -0.01617964170873165, -0.04992610216140747, -0.0001850670378189534, 0.007565609645098448, 0.03736952319741249, 0.008189762011170387, -0.023339737206697464, -0.05354950204491615, 0.0036201004404574633, -0.010653017088770866], [0.003446524031460285, -0.1470806896686554, 0.13842356204986572, -0.015538930892944336, 0.3832087516784668, -0.07351379096508026, -0.042771365493535995, -0.4527573585510254, -0.011797347106039524, -0.007457165513187647, 0.41404297947883606, 0.09635906666517258, -0.25233766436576843, -0.49281972646713257, -0.04678293317556381, -0.09352067857980728], [0.045315615832805634, -0.017087113112211227, 0.017976563423871994, -0.04340294748544693, 0.10287579149007797, -0.10544639080762863, 0.01281290128827095, -0.12700295448303223, 0.0526515431702137, -0.0008507334860041738, 0.11421799659729004, 0.016547609120607376, -0.05260682851076126, -0.05085359141230583, -0.009470674209296703, -0.012087371200323105], [0.0018161487532779574, -0.029782116413116455, 0.028880693018436432, -0.007195691578090191, 0.060878776013851166, -0.01539546437561512, -0.01423702947795391, -0.06937064230442047, 0.008528345264494419, 0.017263423651456833, 0.08251366019248962, 0.004360750783234835, -0.044167909771203995, -0.013352332636713982, 0.0037969041150063276, -0.010295111685991287], [0.014468961395323277, -0.18701662123203278, 0.18195220828056335, -0.04569247364997864, 0.4032028317451477, -0.05620339512825012, -0.0697157084941864, -0.4428432285785675, 0.020986849442124367, 0.022618092596530914, 0.44709426164627075, 0.09377911686897278, -0.28990018367767334, -0.4084711968898773, -0.05500367283821106, -0.07896055281162262], [0.02080201916396618, -0.018244555220007896, 0.009153223596513271, -0.006146494299173355, 0.09071853011846542, -0.02134045585989952, -0.015495331026613712, -0.11761491745710373, -0.016429521143436432, -0.0038965579587966204, 0.07890578359365463, 0.04665810614824295, -0.04250029847025871, -0.09125861525535583, -0.026387067511677742, -0.0481412447988987], [-0.00029814764275215566, -0.013407674618065357, 0.013806839473545551, -0.0001453137956559658, 0.01514077465981245, 0.0026560022961348295, -0.004955214448273182, -0.014571769163012505, 0.0010167235741391778, 0.006174066569656134, 0.018741730600595474, -0.0019304028246551752, -0.015077145770192146, -0.001828417764045298, 0.0023167231120169163, 0.0006598405889235437], [0.025577140972018242, 0.00285004242323339, -0.012271447107195854, -0.02231588028371334, 0.09035453200340271, -0.06196192651987076, -0.009551146067678928, -0.12918762862682343, 0.014395952224731445, 0.0140141686424613, 0.0829266831278801, 0.038856904953718185, -0.03017878346145153, -0.021613573655486107, -0.01860124059021473, -0.04953548684716225], [0.059370752424001694, -0.4615180492401123, 0.436023473739624, -0.13299460709095, 0.6723192930221558, -0.30789390206336975, -0.2694375514984131, -0.7833499908447266, 0.1421053111553192, 0.3636312782764435, 0.7838152647018433, 0.12740442156791687, -0.5536693334579468, 0.17092420160770416, 0.21235385537147522, -0.10549593716859818], [0.0036519633140414953, -0.15168483555316925, 0.14115405082702637, -0.03567812591791153, 0.3683317303657532, -0.10079271346330643, -0.06259226053953171, -0.41973045468330383, 0.021344348788261414, 0.03427284210920334, 0.3792515993118286, 0.08997489511966705, -0.24488529562950134, -0.358289510011673, -0.024054991081357002, -0.10468372702598572], [0.008160406723618507, -0.026322951540350914, 0.025314413011074066, 0.0010524744866415858, 0.03343449905514717, 0.0009011917281895876, -0.0043757883831858635, -0.034940026700496674, -0.0008654459961690009, 0.0049328068271279335, 0.039575520902872086, -0.006598430685698986, -0.029238412156701088, -0.027193434536457062, -0.0007688971236348152, -0.00032428320264443755], [-0.26605281233787537, 0.01802513189613819, 0.19378864765167236, 0.07839761674404144, 0.14124804735183716, 0.1508958339691162, -0.007846425287425518, 0.11222005635499954, 0.2868115305900574, -0.060398172587156296, 0.0035805373918265104, 0.12662184238433838, 0.22295579314231873, 0.18087491393089294, 0.14093619585037231, 0.20478332042694092], [-0.14158160984516144, 0.20638106763362885, -0.21650542318820953, -0.10384410619735718, -0.15139882266521454, -0.014876973815262318, 0.03546056151390076, 0.20525653660297394, 0.09920070320367813, 0.18638893961906433, -0.12977908551692963, 0.22928759455680847, -0.170756533741951, -0.302707314491272, -0.13314424455165863, -0.019560787826776505], [0.14428800344467163, -0.07718585431575775, 0.07999546080827713, 0.07197635620832443, -7.4254376158933155e-06, 0.20512494444847107, -0.15945053100585938, 0.036452606320381165, -0.1656232476234436, -0.06608595699071884, -0.09968738257884979, 0.05920523777604103, 0.13563182950019836, 0.30476418137550354, 0.12359748035669327, 0.16558264195919037], [-0.05582695081830025, -0.12363866716623306, -0.13836583495140076, -0.008601867593824863, 0.21179161965847015, -0.015740390866994858, -0.1368173360824585, -0.03658704832196236, 0.049271319061517715, -0.04928579181432724, -0.09807713329792023, -0.1813533902168274, 0.11420381814241409, -0.05910138785839081, 0.23728761076927185, 0.13823138177394867], [0.11051061749458313, 0.027689864858984947, -0.20176270604133606, -0.14820504188537598, -0.06957391649484634, -0.01580131985247135, -0.01347290724515915, 0.06389334797859192, 0.052212171256542206, -0.05413776636123657, 0.18613745272159576, -0.23107296228408813, -0.178717702627182, -0.03573298454284668, 0.22834517061710358, 0.24084974825382233], [-0.12364096939563751, -0.1909310668706894, 0.1816757768392563, -0.0776989534497261, -0.033526185899972916, -0.17818105220794678, -0.2564791440963745, 0.13398906588554382, 0.1709757000207901, 0.05516362935304642, 0.028005143627524376, -0.001715229358524084, -0.2037564218044281, -0.04928014427423477, 0.1999414712190628, 0.1538378894329071], [-0.26385727524757385, -0.12919363379478455, -0.27712807059288025, 0.0943652093410492, -0.14051231741905212, -0.14140695333480835, 0.08998803049325943, 0.004628634080290794, -0.16817334294319153, 0.004529561847448349, -0.0963611826300621, 0.12028921395540237, -0.1918376088142395, -0.2898004651069641, -0.05747337266802788, 0.06818706542253494], [0.26272067427635193, 0.08479204028844833, -0.1510145217180252, -0.17221367359161377, 0.05132573843002319, -0.05538381263613701, 0.014006138779222965, 0.04072152078151703, -0.22104404866695404, -0.11980168521404266, 0.22443124651908875, 0.15993298590183258, -0.06719014793634415, -0.005351759493350983, 0.012735575437545776, 0.03920843079686165], [0.1855216920375824, 0.0015599319012835622, -0.2172514796257019, 0.18574774265289307, 0.01755077764391899, 0.13689422607421875, 0.10026092827320099, -0.15798334777355194, -0.19452600181102753, 0.047213561832904816, 0.11016719043254852, 0.10363240540027618, 0.001163755776360631, 0.14854902029037476, 0.07129526883363724, 0.07077888399362564], [0.2668202519416809, 0.033639196306467056, 0.06680037081241608, -0.11963656544685364, 0.1840168535709381, 0.09768577665090561, 0.22686083614826202, -0.14589418470859528, -0.02621789649128914, 0.08559847623109818, -0.013342932797968388, 0.08798243850469589, 0.20756644010543823, 0.3807915151119232, 0.07313451170921326, -0.1508258879184723], [0.1331840604543686, 0.14913634955883026, 0.12465750426054001, -0.11672908812761307, 0.15988555550575256, 0.10701282322406769, -0.15348969399929047, 0.023979993537068367, 0.11545534431934357, 0.14355674386024475, 0.23728671669960022, 0.038665398955345154, 0.045462023466825485, 0.20314189791679382, -0.16716381907463074, 0.1370410919189453], [-0.09666911512613297, 0.21388576924800873, -0.148489847779274, -0.04017474129796028, -0.2295287698507309, -0.048062730580568314, 0.07207351177930832, 0.19542525708675385, 0.01907109096646309, -0.09593430906534195, 0.18061773478984833, -0.1669536828994751, 0.11581336706876755, -0.031329136341810226, 0.07545556128025055, 0.20879344642162323], [-0.22205889225006104, -0.12041538953781128, 0.10514266788959503, -0.10018996894359589, 0.14407819509506226, -0.1090213730931282, 0.0741518884897232, -0.12309137731790543, 0.01097964309155941, 0.041225921362638474, -0.13148781657218933, -0.18954728543758392, 0.0014363385271281004, -0.15993602573871613, 0.2727189064025879, -0.0651409775018692], [0.2346165031194687, 0.31127071380615234, -0.4059025049209595, 0.048591576516628265, 0.12953992187976837, -0.15118321776390076, 0.4747907221317291, -0.25189441442489624, -0.09439438581466675, -0.03900362551212311, 0.14741820096969604, 0.1291375458240509, 0.0488898791372776, 0.10215703397989273, -0.27781856060028076, -0.1377035230398178], [-0.019562149420380592, -0.1548149585723877, -0.06984694302082062, 0.19360226392745972, -0.026133153587579727, 0.17462335526943207, -0.14103761315345764, 0.01605359837412834, -0.2521175742149353, 0.06513582170009613, 0.047866810113191605, 0.25982314348220825, -0.1957533359527588, 0.29010435938835144, -0.24460050463676453, -0.23642832040786743], [-0.12259908020496368, 0.16316770017147064, 0.1374611258506775, -0.06346020847558975, -0.11499961465597153, -0.12071172147989273, -0.11965358257293701, -0.03430355340242386, 0.10883340984582901, -0.015471628867089748, 0.23035909235477448, 0.014658495783805847, 0.08665976673364639, 0.06343094259500504, 0.07777049392461777, 0.1824508160352707]], "rec.bias_ih_l0": [-0.20970767736434937, 0.07765961438417435, -0.23289749026298523, 0.08912499994039536, -0.21083790063858032, -0.02019835077226162, -0.11630024760961533, -0.03272940218448639, 0.1741614192724228, -0.0065621426329016685, -0.16065596044063568, 0.07687141001224518, -0.010279356501996517, 0.20734208822250366, 0.05395953729748726, -0.13878633081912994, 0.14537352323532104, 0.5142611861228943, 0.26496851444244385, -0.004411029629409313, 0.14481982588768005, 0.11753768473863602, 0.9917095303535461, 0.12164987623691559, 0.43913039565086365, 0.8489164113998413, 0.2548133432865143, 0.032104942947626114, 0.31358450651168823, 1.4021879434585571, 0.7192011475563049, 0.07240652292966843, -0.008941981941461563, -0.1069643497467041, 0.13626240193843842, 0.027450868859887123, 0.1278025209903717, -0.0828050822019577, 0.02073904685676098, -0.12145035713911057, -0.05503012612462044, -0.04176162928342819, 0.21248513460159302, 0.01994704268872738, -0.15834501385688782, -0.15177370607852936, -0.060411613434553146, 0.03942059725522995], "rec.bias_hh_l0": [-0.09251122176647186, -0.055738113820552826, -0.03326313570141792, 0.08220177888870239, 0.11081314831972122, -0.07255050539970398, 0.06495257467031479, -0.27157390117645264, -0.11372169852256775, 0.05502771958708763, -0.10650140047073364, -0.05849923938512802, -0.0314985066652298, 0.1574781835079193, -0.03227449208498001, 0.03845169022679329, 0.1439589112997055, 0.5133693814277649, 0.2732407748699188, -0.0043870992958545685, 0.144820436835289, 0.11753950268030167, 0.9918537735939026, 0.11474238336086273, 0.4390931725502014, 0.8490483164787292, 0.25489044189453125, 0.032116781920194626, 0.3135717511177063, 1.402324914932251, 0.7197147607803345, 0.07242091000080109, -0.024197766557335854, 0.0257546529173851, 0.08928250521421432, -0.08332597464323044, 0.10836642235517502, 0.06346669793128967, -0.12528619170188904, -0.14620880782604218, 0.14600731432437897, 0.20758989453315735, 0.10782123357057571, 0.05462108924984932, -0.09724492579698563, 0.02959904633462429, 0.16359934210777283, -0.11114518344402313], "lin.weight": [[-0.19986769556999207, -0.29058846831321716, 0.2916886508464813, -0.009197096340358257, -0.07366666197776794, -0.027981054037809372, -0.15910765528678894, 0.2053745537996292, 0.09443236142396927, 0.26998385787010193, 0.04303494095802307, -0.026508528739213943, -0.13542112708091736, 0.03356139734387398, 0.16216696798801422, 0.022063788026571274]], "lin.bias": [-0.0866333395242691]}}