{"model_data": {"model": "SimpleRNN", "input_size": 1, "skip": 1, "output_size": 1, "unit_type": "GRU", "num_layers": 1, "hidden_size": 16, "bias_fl": true}, "state_dict": {"rec.weight_ih_l0": [[-0.0035893067251890898], [-0.0015558856539428234], [0.03196746110916138], [-0.3116517961025238], [0.0176368597894907], [-0.0033189693931490183], [0.02488606981933117], [0.19460956752300262], [-0.10405023396015167], [-0.002899469807744026], [0.009736167266964912], [-0.017609072849154472], [0.024082595482468605], [0.004713876638561487], [0.003763551125302911], [-0.23497752845287323], [0.0019942980725318193], [-3.6444857869355474e-06], [0.01210244931280613], [0.24485072493553162], [0.007316178176552057], [0.0021952807437628508], [0.01329744141548872], [-0.2654525935649872], [0.03646397590637207], [0.00010437602031743154], [-0.00026855518808588386], [0.0007599754608236253], [0.007173224352300167], [0.00443045049905777], [0.004021503031253815], [0.10729143768548965], [0.02678823657333851], [0.007123016286641359], [0.039390016347169876], [0.3332817554473877], [-0.01767142117023468], [0.021918535232543945], [0.03812965378165245], [0.3452034890651703], [-1.1261014938354492], [0.005978752858936787], [-0.002345178509131074], [-0.038137972354888916], [-0.01332749705761671], [0.0410238653421402], [0.009416298009455204], [-0.607566773891449]], "rec.weight_hh_l0": [[0.0003234531031921506, 0.00026194180827587843, 0.001036021625623107, -0.002836307045072317, -0.00038302954635582864, 0.0004251317004673183, 0.0008482696721330285, 0.0007251872448250651, -0.0017701489850878716, -8.8361521193292e-06, 0.0003469405637588352, -0.00012196224997751415, -0.00033414462814107537, 0.0006677514757029712, 0.00018398456450086087, 0.001633281703107059], [-0.00015247706323862076, -4.3632968299789354e-05, -0.00026354988222010434, 0.00033159725717268884, 0.00011543567234184593, -0.00011615522089414299, -0.00021095950796734542, -0.0005723034264519811, -4.559614899335429e-05, 2.1986068531987257e-05, -2.1894051315030083e-05, 2.4438053515041247e-05, 0.00011724697833415121, -0.0002454118221066892, -4.771427484229207e-05, 0.0010278772097080946], [0.0016701556742191315, -0.0004893696750514209, 0.0035719899460673332, 0.02208603359758854, -0.0033687050454318523, 0.0018959499429911375, 0.0044624595902860165, 0.0010019522160291672, 0.008316350169479847, 0.00023779159528203309, -0.00022513851581607014, -0.0005496592493727803, -0.003603456076234579, 0.0037464103661477566, 0.002367254113778472, -0.025529133155941963], [-0.028852412477135658, -0.02040262706577778, -0.024283243343234062, -0.26708120107650757, 0.0017669027438387275, -0.02183740772306919, -0.02152751013636589, 0.10381529480218887, -0.041863083839416504, -0.004806130193173885, 0.014299048110842705, 0.01809973455965519, -0.0183578971773386, -0.018210289999842644, 0.00812026858329773, 0.25740620493888855], [0.0010729850037023425, -0.00028153281891718507, 0.0020955372601747513, 0.013213416561484337, -0.0011106382589787245, 0.0013918213080614805, 0.003291977569460869, -0.000813326274510473, 0.003455502912402153, 0.00021680479403585196, -0.0007564032566733658, -0.00027064449386671185, -0.0022947199176996946, 0.0014656060375273228, 0.002402661368250847, -0.013845893554389477], [0.00016011559637263417, 3.627266414696351e-05, 0.00022664757852908224, -0.0032537623774260283, -0.00014780546189285815, 9.007150947581977e-05, 0.0001367050426779315, -0.0004350175731815398, -0.0016077251639217138, -0.00011118793190689757, 0.00011441846436355263, -0.00026877879281528294, -6.887645577080548e-05, 0.00025325280148535967, 5.3347088396549225e-05, 0.0014637791318818927], [0.0018445173045620322, -0.0003275035123806447, 0.005045056343078613, 0.01701103337109089, -0.0032779204193502665, 0.0012665510876104236, 0.0031281840056180954, -0.0030935511458665133, 0.0005910971667617559, 0.0005309830885380507, -0.0004908036207780242, -0.0009065051563084126, -0.0030776404310017824, 0.0033415674697607756, 0.002609213115647435, -0.021973975002765656], [0.00835750624537468, -0.0029435711912810802, 0.04612162336707115, 0.021049201488494873, -0.02895309589803219, 0.00898906122893095, 0.031606275588274, 0.1185980886220932, -0.13183298707008362, 0.0028613668400794268, 0.00936053041368723, 0.008625226095318794, -0.041504718363285065, 0.03164568915963173, 0.031172703951597214, -0.1594109833240509], [-0.005015531554818153, 0.007025447208434343, -0.01511103380471468, 0.09394081681966782, 0.015651682391762733, -0.005214099772274494, -0.00614142045378685, 0.029590953141450882, 0.10777224600315094, 0.0035169499460607767, -0.001761963707394898, -0.004601870197802782, 0.013453581370413303, -0.008351607248187065, -0.007501790300011635, 0.0305740088224411], [0.0004329851071815938, 0.00013537959603127092, 0.0006341923144645989, 8.019192136998754e-06, -0.0003392168728169054, 0.0003712530597113073, 0.0007249111658893526, -0.00010407009540358558, 0.00032522808760404587, -0.000110599648905918, -0.00038594589568674564, -0.00024053908418864012, -0.0005267866654321551, 0.000469581107608974, 0.00019980021170340478, 0.0011607259511947632], [0.00035188949550502, 0.0001702801528153941, -0.000893838529009372, -0.0018372215563431382, 0.00023610159405507147, -0.0005045891739428043, -0.00016559427604079247, -0.004404034465551376, -0.005132909398525953, -0.00023881076776888222, -0.00030171158141456544, 0.00010681634012144059, 0.0002597321872599423, -0.0001820353645598516, -0.0002498812391422689, -0.006846261210739613], [0.0011514911893755198, 0.0005133266095072031, 0.002100900746881962, -0.006416665855795145, -0.0008212153916247189, 0.000896552053745836, 0.0019225389696657658, -7.694855594309047e-05, 0.0008715949952602386, -0.0002523797156754881, 4.482817166717723e-05, -0.00032955550705082715, -0.0014876935165375471, 0.0018750077579170465, 0.000850366021040827, 0.011792350560426712], [0.0005210961098782718, -0.0005769482813775539, 0.0031915195286273956, 0.018744803965091705, -0.0019149216823279858, 0.0007700287387706339, 0.0017524418653920293, -0.004076663870364428, 0.004800107330083847, 0.0005883994163013995, -0.0005872552865184844, -0.0007966459379531443, -0.001779688405804336, 0.0015553913544863462, 0.00404572207480669, -0.02099759876728058], [0.0008830763981677592, 0.00034895248245447874, 0.001954909646883607, -0.00019740092102438211, -0.0007324539474211633, 0.0006197375478222966, 0.0015834561781957746, 0.002952826675027609, 0.0003276668139733374, -9.226427937392145e-05, 0.00031392325763590634, -5.042065095040016e-05, -0.0010184275452047586, 0.001142095890827477, 0.0008469748427160084, -0.0022051751147955656], [-0.00021832442143931985, -0.0003146349627058953, 0.00047313663526438177, 0.004977678880095482, -0.00022928907128516585, 0.00034003457403741777, -0.00039629891398362815, -0.00315625942312181, -0.002976857591420412, 0.00025091355200856924, -0.0003087009536102414, -7.215501682367176e-05, 0.00016198656521737576, -0.0006481980672106147, 0.0004894026787951589, -0.0036571258679032326], [0.02862897515296936, 0.011957666836678982, 0.04213391989469528, -0.13341794908046722, -0.024660591036081314, 0.025656869634985924, 0.04188903421163559, 0.1926073431968689, -0.05174418166279793, 0.017182813957333565, -0.01491056103259325, -0.01391678862273693, -0.03586616739630699, 0.03766782954335213, 0.028804784640669823, 0.17223142087459564], [8.40433312987443e-06, -9.347310697194189e-05, -0.00015631786664016545, 0.0017613783711567521, 0.00019044172950088978, -9.604045044397935e-05, 0.00017471086175646633, 0.0013289053458720446, 0.002528365468606353, 9.790543117560446e-06, 0.0001223103899974376, 5.5231506848940626e-05, -0.0002107141917804256, 8.991118374979123e-05, -0.00021894872770644724, -0.001473821117542684], [9.758918167790398e-06, 5.366703589970712e-06, 3.046575147891417e-05, -8.010368765098974e-05, -6.656525783910183e-06, 1.0375014426244888e-05, 3.0622082704212517e-05, -4.4214124500285834e-05, -0.00014153953816276044, -3.042446294898582e-08, 1.2114329592805007e-06, 3.3319154226774117e-06, -1.9349061403772794e-05, 8.851798156683799e-06, 7.512108368246118e-06, -9.047945059137419e-05], [0.0002819474902935326, -0.0007016608724370599, 0.0020592031069099903, 0.009008962661027908, -0.001224115607328713, 0.00028630290762521327, 0.0004729190841317177, 0.005035866983234882, 0.009860378690063953, 0.0005151387886144221, -0.0001529242581455037, -0.0004198363749310374, -0.0013249373296275735, 0.0012084509944543242, 0.0011771504068747163, -0.007378176786005497], [0.06019463762640953, 0.04548987001180649, 0.02896045334637165, 0.2326100915670395, -0.003686365904286504, 0.044065192341804504, 0.015015801414847374, -0.018649065867066383, -0.16811318695545197, 0.022238928824663162, 0.027881931513547897, 0.0136408731341362, 0.007558856625109911, 0.06269800662994385, 0.0004908160190097988, -0.27803581953048706], [5.641413008561358e-05, -6.737286184943514e-06, 0.0006396739627234638, 0.007911274209618568, -0.0007303219754248857, -1.8759332306217402e-05, -0.0001265333266928792, 0.0034737621899694204, 0.008784647099673748, -8.771338616497815e-05, 0.00014048031880520284, -0.00017830217257142067, -6.739949185430305e-07, 0.0006624437519349158, 2.2375083062797785e-05, -0.005263022147119045], [-5.062758646090515e-05, -7.987813296495005e-05, 0.0004149344458710402, 0.0020923586562275887, -0.0002895385550800711, 0.00020793519797734916, 2.2298512703855522e-05, 0.0017270907992497087, 0.002456073649227619, 0.0001674486557021737, 0.00013823577319271863, -3.2258849387289956e-06, 5.689097451977432e-05, -6.857782136648893e-05, 0.00022549129789695144, -0.0016016765730455518], [0.0007058550254441798, -0.0009700286318548024, 0.0016943138325586915, 0.009865093044936657, -0.0017448795260861516, 0.0011985853780061007, 0.0025573307648301125, 0.005913551896810532, 0.01758520118892193, 0.000888078473508358, -0.0005727854440920055, -0.0011911776382476091, -0.0025787956546992064, 0.0021548632066696882, 0.0016983130481094122, -0.008746985346078873], [-0.001967386808246374, 0.00202551344409585, -0.03227264806628227, -0.12313487380743027, 0.019999492913484573, -0.015972191467881203, -0.02140224725008011, -1.0732940435409546, -0.03993198648095131, 0.0004242498253006488, -0.018637867644429207, -0.024613337591290474, 0.03367079421877861, -0.030031077563762665, -0.014551004394888878, 0.1515394151210785], [0.03805215284228325, 0.04910467565059662, 0.02114006318151951, 0.021501487120985985, 0.026036566123366356, 0.00838533416390419, 0.004885990172624588, 0.2091425657272339, 0.15242235362529755, 0.003468395909294486, 0.0349951796233654, 0.02279503084719181, 0.06276664137840271, 0.025837166234850883, -0.05545471981167793, -0.0710064247250557], [-6.658923211944057e-06, -1.4184616702550557e-05, -2.9944610560050933e-06, -5.1348462875466794e-05, 4.976976470061345e-06, -1.1672405889839865e-05, -3.7857069401070476e-05, -6.361757550621405e-05, 1.9194851120118983e-05, 1.1833863936772104e-05, -1.148717819887679e-05, 5.543785391637357e-06, 8.190151675080415e-06, 8.589925528212916e-06, 5.624187451758189e-06, -1.613815220480319e-05], [9.99410476651974e-05, 9.299756493419409e-05, 0.00011255667777732015, -0.0011265570065006614, -4.9291265895590186e-05, 8.077364327618852e-05, 4.155204078415409e-05, -0.0006370501359924674, -0.0007780412561260164, -8.314391743624583e-05, 2.0742578271892853e-05, 3.184628803865053e-05, -9.40568952501053e-06, 0.0001446105306968093, -4.1631239582784474e-05, 4.358889418654144e-05], [-0.00017583821318112314, -0.00012999650789424777, -0.00031556887552142143, -0.0001584441342856735, 0.0001993612095247954, -0.00033585648634471, -0.0003282736288383603, 0.0008871585596352816, 0.003262316109612584, -5.02310722367838e-05, -8.129368325171527e-06, -6.40631842543371e-05, 0.0003382917493581772, -0.0003589926636777818, -0.00015847408212721348, 0.0006097705336287618], [0.0004510524158831686, -0.0003857620758935809, 0.00037201488157734275, 0.005019807256758213, -0.0009301651734858751, 0.0005258978926576674, 0.0012835715897381306, 0.003163228277117014, 0.011758175678551197, -2.887306072807405e-05, -9.115634020417929e-05, -0.00040790269849821925, -0.0011791483266279101, 0.0009232197771780193, -3.654495958471671e-05, -0.0046696108765900135], [0.00014562669093720615, -0.00010146960994461551, 0.0005117160617373884, 0.00372143997810781, -0.0002467294398229569, -0.0001607946614967659, -0.00025349538191221654, 0.002324057510122657, 0.005037502385675907, 0.00021822421695105731, 0.0002080248814309016, -1.4657855899713468e-05, -0.0002590659132692963, 0.0006838696426711977, -0.00038253876846283674, -0.002804010873660445], [0.00015582366904709488, -0.00028746231691911817, 0.0009967186488211155, 0.0021897396072745323, -0.0008291713893413544, 0.0005178325809538364, 0.0008253763662651181, 0.0008299489854834974, 0.0032608851324766874, 5.950042759650387e-05, -0.00011672667460516095, -0.00040046116919256747, -0.0009081187890842557, 0.0009119408787228167, 0.00027500203577801585, -0.0026100294198840857], [-0.01995549350976944, -0.013568363152444363, -0.01611551083624363, 0.07865668833255768, 0.002866126364096999, -0.016969339922070503, -0.009783771820366383, 0.06145655736327171, -0.04989080876111984, -0.018824392929673195, 0.004702246747910976, 0.003784986212849617, 0.00966908223927021, -0.020682571455836296, -0.015287062153220177, -0.07402109354734421], [-0.16565866768360138, -0.09397851675748825, -0.04261454939842224, -0.029587041586637497, 0.05250474438071251, -0.07145193219184875, -0.028613051399588585, -0.029148995876312256, 0.0813981220126152, -0.026831675320863724, -0.07577313482761383, -0.019563067704439163, -0.018500646576285362, -0.09833323210477829, 0.02312440611422062, -0.01078462041914463], [-0.10506349056959152, -0.1266772449016571, -0.014155086129903793, -0.04554329439997673, 0.006252538412809372, -0.023388132452964783, -0.003999605774879456, -0.0025994237512350082, 0.011687011457979679, 0.009911883622407913, -0.07812793552875519, -0.02234691195189953, -0.044480979442596436, -0.06228505074977875, 0.05006515979766846, -0.003912553656846285], [-0.056747302412986755, -0.01884852908551693, -0.16360007226467133, 0.05583488196134567, 0.033603690564632416, -0.043208640068769455, -0.031861562281847, 0.018851246684789658, 0.09537318348884583, -0.0365368016064167, -0.001597904833033681, 0.02915780432522297, 0.013586340472102165, -0.04929107427597046, -0.07494022697210312, -0.06639264523983002], [-0.0653151199221611, -0.0242265984416008, -0.046775300055742264, 0.19940023124217987, 0.029909780248999596, -0.048414673656225204, -0.05587848275899887, 2.265559196472168, 1.3473331928253174, -0.008838260546326637, 0.01925790123641491, 0.041978154331445694, 0.025718821212649345, -0.06701947748661041, -0.04725944995880127, -0.36556094884872437], [-0.0035949554294347763, -0.035266030579805374, -0.03439461812376976, -0.044802747666835785, -0.16605210304260254, 0.031592585146427155, 0.017193986102938652, 0.023763136938214302, -0.104542076587677, 0.07253940403461456, -0.01874660700559616, -0.04901512712240219, -0.07067419588565826, 0.01589406467974186, 0.006278237793594599, 0.04872094467282295], [-0.049997784197330475, 0.0011216558050364256, 0.014408464543521404, 0.007581800688058138, 0.08602125197649002, -0.19220487773418427, -0.01640227437019348, -0.04999213665723801, 0.0858791396021843, -0.1324360966682434, 0.011048298329114914, 0.04031837731599808, 0.013102714903652668, -0.03041619248688221, 0.0640362873673439, -0.007852286100387573], [-0.03595489636063576, -0.014688998460769653, -0.04878268390893936, 0.07074560970067978, 0.08812984079122543, -0.02123063988983631, -0.1401372104883194, -0.042634278535842896, 0.1378655582666397, 0.02657068707048893, 0.04588552191853523, 0.017758743837475777, 0.09772022068500519, -0.061582937836647034, -0.05170759931206703, -0.05836319550871849], [-0.03733709454536438, -0.029722293838858604, -0.03221761807799339, -2.5292487144470215, -0.0003725839196704328, -0.006926734000444412, 0.006113532464951277, -0.32076773047447205, 1.332337737083435, 0.03138162940740585, -0.08621951192617416, -0.043584372848272324, -0.02755367010831833, -0.05030763894319534, 0.03242960199713707, 0.9059199690818787], [0.04324384778738022, 0.021433504298329353, 0.01229816023260355, 1.1086560487747192, 3.601619027904235e-05, 0.018658965826034546, -0.02383628487586975, -0.21966254711151123, 0.436829149723053, -0.00821276567876339, 0.04905242100358009, 0.00922108069062233, 0.011049200780689716, 0.04720984399318695, 0.01097444910556078, -0.3054422438144684], [-0.025994619354605675, 0.013603739440441132, 0.005500278901308775, 0.015245020389556885, 0.053260985761880875, -0.04055662080645561, -0.014299253933131695, -0.060285940766334534, 0.05726108327507973, -0.17439046502113342, 0.03570655733346939, 0.05228063464164734, 0.027405695989727974, -0.015808627009391785, 0.04445962980389595, 0.005553374998271465], [-0.04161375015974045, -0.06336656957864761, 0.02620137482881546, -0.07133625447750092, -0.043828438967466354, 0.014454640448093414, 0.06908274441957474, 0.1327386498451233, -0.11691241711378098, 0.04204360395669937, -0.19224292039871216, -0.0793071761727333, -0.07376249134540558, -0.0008729399996809661, 0.061495814472436905, 0.02143842913210392], [-0.008480415679514408, -0.045255180448293686, 0.04439954087138176, -0.08194029331207275, -0.02845100127160549, 0.022490983828902245, 0.000996653689071536, 0.08262235671281815, -0.0672512948513031, 0.0723705142736435, -0.08438201993703842, -0.1477542221546173, -0.03401393070816994, -0.01610698364675045, 0.05625007674098015, -0.08956091105937958], [-0.027555614709854126, -0.043512262403964996, -0.009618658572435379, -0.08913744986057281, -0.09205293655395508, 0.002729082712903619, 0.05505015701055527, 0.019715268164873123, -0.08275754749774933, -0.01353806909173727, -0.03459621220827103, -0.02510935440659523, -0.1556696742773056, 0.013806854374706745, 0.10519370436668396, 0.06731836497783661], [-0.10760332643985748, -0.06451648473739624, -0.03216255456209183, 0.006962332408875227, 0.055381469428539276, -0.04950853809714317, -0.037304140627384186, 0.011636760085821152, 0.07621413469314575, 0.02449483796954155, -0.06590396165847778, -0.03190982714295387, 0.04023543372750282, -0.1789303570985794, -0.02706550620496273, -0.012918065302073956], [-0.0001575228525325656, 0.037989888340234756, -0.07506322115659714, 0.08570851385593414, 0.04861101135611534, -0.040153395384550095, -0.005275312345474958, -0.04685940593481064, 0.07940803468227386, -0.022741831839084625, 0.020753508433699608, 0.0383169986307621, 0.08818013966083527, -0.017471356317400932, -0.21167641878128052, -0.06623262912034988], [0.03398565202951431, 0.0010817664442583919, 0.03296986222267151, -0.05317023769021034, -0.041300997138023376, 0.0345303900539875, 0.049893029034137726, -0.18591436743736267, -0.03631238266825676, 0.010546848177909851, -0.029809387400746346, -0.02243499830365181, -0.03295386955142021, 0.03268285468220711, 0.02935986965894699, -0.3515045940876007]], "rec.bias_ih_l0": [-0.03508251905441284, -0.019323131069540977, -0.04897460713982582, 0.8732037544250488, -0.018844084814190865, -0.03599521517753601, -0.01942235231399536, 1.1108903884887695, -0.0031614310573786497, -0.023294471204280853, -0.036942847073078156, -0.06023562699556351, -0.006699745077639818, -0.041066475212574005, -0.048214275389909744, -1.3952383995056152, 0.0018517229473218322, -0.0005388545105233788, 0.012305116280913353, 1.8649855852127075, 0.010313143022358418, 0.0046629211865365505, 0.021122608333826065, 2.0065178871154785, 2.4239730834960938, 0.00032729405211284757, 0.008929863572120667, 0.00982654932886362, 0.011072670109570026, 0.005941286217421293, 0.00551292160525918, -0.36882737278938293, -0.0017848571296781301, 0.0013108761049807072, -0.005710752680897713, 0.0008707302040420473, 0.003081358503550291, 0.00036275896127335727, -0.0012823025463148952, 0.14655940234661102, -0.01562623307108879, -0.0005232269177213311, -0.0024589120876044035, 0.0032846389804035425, 0.0009233495802618563, -0.001662037568166852, 0.003731777425855398, -0.013280372135341167], "rec.bias_hh_l0": [-0.03508251905441284, -0.019323131069540977, -0.04897460713982582, 0.8690526485443115, -0.018844084814190865, -0.03599521517753601, -0.01942235231399536, 1.1117019653320312, -0.027760924771428108, -0.023294471204280853, -0.036942847073078156, -0.06023651733994484, -0.006699745077639818, -0.041066475212574005, -0.048214275389909744, -1.4001522064208984, 0.0018517229473218322, -0.0005388545105233788, 0.012305116280913353, 1.854617953300476, 0.010313143022358418, 0.0046629211865365505, 0.021122608333826065, 2.012605667114258, 2.4259276390075684, 0.00032729405211284757, 0.008929863572120667, 0.00982654932886362, 0.011072670109570026, 0.005941286217421293, 0.00551292160525918, -0.3788354992866516, 0.0026183181907981634, -0.004958353005349636, 0.006861024536192417, -0.0003423514717724174, -0.004110058303922415, -0.0023011977318674326, -0.0031720558181405067, 0.02234933152794838, 0.006901788059622049, 0.001733819954097271, 0.010973621159791946, -0.00243949587456882, 4.494337918004021e-05, 0.0035097571089863777, -0.011045869439840317, 0.001600082265213132], "lin.weight": [[0.009308612905442715, -0.006052366923540831, 0.03199043869972229, -0.15101571381092072, -0.02684207819402218, 0.017331380397081375, 0.04636841267347336, -0.41430920362472534, 0.27787113189697266, 0.012349884957075119, -0.03816216066479683, -0.031007148325443268, -0.03452685475349426, 0.015800299122929573, 0.03290770575404167, 0.9340093731880188]], "lin.bias": [0.014735525473952293]}}