{"model_data": {"model": "SimpleRNN", "input_size": 1, "skip": 1, "output_size": 1, "unit_type": "GRU", "num_layers": 1, "hidden_size": 16, "bias_fl": true}, "state_dict": {"rec.weight_ih_l0": [[-0.01324282493442297], [-0.0015390083426609635], [-0.0006079253507778049], [-0.32581865787506104], [-0.0026716776192188263], [-4.961456738783454e-07], [-0.003020346164703369], [1.0939419269561768], [-0.617185652256012], [-0.001748395268805325], [-0.001979504944756627], [-0.00544748455286026], [-0.012163599021732807], [-0.0019080783240497112], [-0.0006730153691023588], [-0.9459348917007446], [-4.23744204454124e-05], [0.00013185638817958534], [-7.060357893351465e-05], [1.936035550897941e-05], [0.000550167984329164], [-0.00036475484375841916], [-5.7313256547786295e-05], [-0.5148010849952698], [0.09520524740219116], [0.00035686756018549204], [0.00014403440582100302], [-0.00020058936206623912], [0.00011799708590842783], [0.00031086921808309853], [0.00015154486754909158], [-0.20983873307704926], [0.011206368915736675], [0.007562779355794191], [-0.008358879946172237], [0.4104616045951843], [-0.00858566164970398], [0.008166956715285778], [-0.007606850005686283], [0.15895017981529236], [-1.3716603517532349], [-0.0015533861005678773], [-0.0017036502249538898], [-0.009123848751187325], [0.015009351074695587], [-0.0019742988515645266], [0.0005755843012593687], [-0.6129119396209717]], "rec.weight_hh_l0": [[0.0006774422363378108, 0.0006319965468719602, -0.000987841747701168, 0.00044571695616468787, -0.0008084542350843549, 0.001031442079693079, -0.0007796546560712159, 9.23954721656628e-05, 0.009745137766003609, 0.0003732960612978786, 0.00014895727508701384, -0.0007564694387838244, 0.0010072781005874276, 0.00017943736747838557, -0.0006952986586838961, 0.010017133317887783], [-6.223528180271387e-05, -1.4648504702563514e-06, 1.2456152035156265e-05, -0.0008721399935893714, 2.0717328879982233e-05, -1.570478707435541e-05, 3.850882058031857e-05, 0.0025697043165564537, -0.0023855227045714855, -1.7398705267623882e-06, -1.524776507721981e-05, 4.866308518103324e-05, -5.915453948546201e-05, 7.346004622377222e-07, 1.2421025530784391e-05, 0.001264162128791213], [-0.00018475097022019327, -2.5660283426987007e-05, 3.622013900894672e-05, -0.0012395774247124791, 7.782133616274223e-05, -2.4859862605808303e-05, 6.170418782858178e-05, 0.0012796759838238358, -0.0008645138004794717, 1.5955924027366564e-05, 1.957634049176704e-05, 9.661341755418107e-05, -0.00018292157619725913, 2.1702151570934802e-05, -5.937812147749355e-06, 0.00034410867374390364], [-0.02783193439245224, 0.011920437216758728, 0.0019762180745601654, 0.07492110878229141, -0.00956755131483078, -0.002389567671343684, 0.01278783567249775, 0.10810015350580215, -0.08288656175136566, 0.005256813485175371, 0.00095127965323627, 0.017224183306097984, -0.02725510112941265, 0.005775657016783953, 0.0009874746901914477, 0.12637658417224884], [-0.0004572704783640802, -3.2039541110862046e-05, 5.19794448337052e-05, 0.0006524609052576125, 0.00017195245891343802, -4.8225825594272465e-05, 0.0002021650579990819, 0.004613890778273344, -0.001365947537124157, 1.6315874745487235e-05, -7.079572969814762e-05, 0.0002772316802293062, -0.00039707578253000975, 1.458785936847562e-05, 3.226587068638764e-05, 0.0027424939908087254], [-6.306885916274041e-05, 4.0846139199857134e-06, -1.5435882232850417e-05, -0.00048191341920755804, 3.21306761179585e-05, 1.2552773114293814e-05, -1.2638422504096525e-06, 0.00031357412808574736, -0.0004386395448818803, 3.924875272787176e-05, 4.1379331378266215e-05, 1.0799235496961046e-05, -5.87975955568254e-05, 4.464786616154015e-05, -2.7404852517065592e-05, 0.00016209286695811898], [-2.594655961729586e-05, 5.1367864216445014e-05, -4.5232507545733824e-05, -0.0007913742447271943, 3.687111893668771e-05, 7.324274338316172e-05, 3.2156112865777686e-05, 0.002079087309539318, 0.0003582871286198497, 6.585540540982038e-05, -1.532381611468736e-05, 6.629372364841402e-05, -1.680604509601835e-05, 4.287085175747052e-05, -7.111723243724555e-05, 0.0014398928033187985], [-0.004877932369709015, 0.025864318013191223, -0.01125912182033062, 0.2321300059556961, -0.02881326712667942, 0.006683616433292627, 0.0011871136957779527, -0.10205516964197159, -0.09153347462415695, 0.006557471584528685, 0.00333553203381598, 0.0038325984496623278, -0.0014799506170675159, 0.009003819897770882, 0.0005130621138960123, -0.6752349138259888], [0.04796401411294937, 0.00327176321297884, -0.010599451139569283, 0.1760491579771042, -0.00517125241458416, 0.011401652358472347, -0.017819801345467567, -0.22318489849567413, 0.5455802083015442, -0.004214642569422722, -0.0015183339128270745, -0.023161251097917557, 0.046595536172389984, -0.006077516358345747, -0.0031425703782588243, 0.3081895709037781], [-0.00010190088505623862, -1.891390093078371e-05, 5.2828301704721525e-05, -0.001155226374976337, 2.9759745302726515e-05, -3.6501754948403686e-05, 7.925381942186505e-05, 0.0027446404565125704, -0.002022599568590522, -1.7930737158167176e-05, -3.754316276172176e-05, 9.490783122600988e-05, -0.00011791886936407536, -2.0916297216899693e-05, 1.848642568802461e-05, 0.0013299831189215183], [-0.00012252313899807632, -3.44596010108944e-05, 6.534428393933922e-05, 2.301916083524702e-06, 5.3279138228390366e-05, -3.615327295847237e-05, 8.91287054400891e-05, 0.0031162993982434273, -0.0008326332317665219, -4.691247795562958e-06, -4.332693788455799e-05, 0.00010552137973718345, -0.0001254502567462623, -1.9321571016917005e-05, 5.999966106173815e-07, 0.001590944011695683], [0.0002253236307296902, 0.00017601765284780413, -0.00018745024863164872, -0.0008525972370989621, -0.00013151433086022735, 0.00022662407718598843, -9.960776515072212e-05, 0.0025539277121424675, 0.0015789568424224854, 0.00015823835565242916, 1.0718486919358838e-05, -0.00010869031393667683, 0.00030985099147073925, 9.514646080788225e-05, -0.0002028786693699658, 0.003191622206941247], [0.000566447910387069, 0.00048233047709800303, -0.0006316592916846275, 9.687215060694143e-05, -0.0006016327533870935, 0.0006149087566882372, -0.0005204164190217853, -0.0002844812988769263, 0.008535368368029594, 0.0003279771190136671, 0.00016372386016882956, -0.0005291032139211893, 0.0007850168622098863, 0.00021249782002996653, -0.0004902451764792204, 0.00829429179430008], [-0.00016998920182231814, -1.7420043150195852e-05, 6.831911741755903e-05, -0.0009336728253401816, 3.986312367487699e-05, -4.808985977433622e-05, 0.0001172483098343946, 0.0029030574951320887, -0.0015969437081366777, -1.803725717763882e-05, -5.14782514073886e-05, 0.0001455398160032928, -0.00018292317690793425, -2.217152541561518e-05, 2.1601254047709517e-05, 0.0014560293639078736], [-3.93592199543491e-06, -3.4246106224600226e-05, 1.486544351791963e-05, -0.0007322888122871518, 4.5276763557922095e-05, -4.76703280583024e-06, -5.6777730605972465e-06, 0.0010547208366915584, -0.0009169270633719862, 1.668280310695991e-05, 3.017061135324184e-05, -8.896683539205696e-06, -2.595659316284582e-05, 1.916340261232108e-05, -1.997872459469363e-05, 0.0004185442521702498], [-0.04813529551029205, 0.007788796443492174, 0.0076590245589613914, 0.1289408951997757, -0.0012830191990360618, -0.007335219997912645, 0.014901723712682724, 0.09979794174432755, 0.33822426199913025, -0.00097965681925416, -0.0051786163821816444, 0.027181459590792656, -0.04956631734967232, 0.0001314130495302379, 0.004084481857717037, 0.7087198495864868], [-3.594705049181357e-05, -0.00018693349556997418, 0.00018577242735773325, 0.0010839342139661312, 3.0387249353225343e-05, -0.00012298073852434754, 0.00014025588461663574, -0.0014019019436091185, 0.0016987734707072377, -0.00024071038933470845, -0.00028600674704648554, 0.00011970556806772947, -4.363729749456979e-05, -0.00028481005574576557, 0.00013705786841455847, -1.726107620925177e-05], [-3.995453425886808e-06, -4.5007063818047754e-06, 2.870878006433486e-06, 0.00015096655988600105, 6.328059043880785e-06, -3.6655802659879555e-07, 3.33935031449073e-06, 0.00010298580309608951, 0.00025953236036002636, -4.221442850393942e-06, -4.796484518010402e-06, 3.610117801144952e-06, -2.227695631518145e-06, -5.441544544737553e-06, 6.854885441498482e-07, -2.848505391739309e-05], [-2.9417396945063956e-05, -4.250808615324786e-06, 5.1341230573598295e-06, -4.279668246454094e-06, 1.6757558114477433e-05, -1.8295528434464359e-06, 1.1051396541006397e-05, -2.8721074158966076e-06, 2.803890674840659e-05, 5.706338470190531e-06, 9.651075316696733e-08, 1.629616235732101e-05, -2.6413479645270854e-05, 4.009024451079313e-06, -5.13747818331467e-06, 0.00011238300066906959], [0.08805041760206223, -0.021778050810098648, -0.009805909357964993, 0.5992607474327087, 0.016160815954208374, 0.012057553045451641, -0.028791680932044983, -0.30370649695396423, 0.5768869519233704, -0.010754789225757122, 0.000613842683378607, -0.04149709641933441, 0.08306077122688293, -0.012861509807407856, -0.0007736803381703794, 0.07568518072366714], [3.480706800473854e-05, -8.625987902632914e-06, 3.2864888908079593e-06, 0.0005024009151384234, 7.36298352421727e-06, -2.0521351871138904e-06, -9.359579962620046e-06, -0.00014017011562827975, 0.0005278770113363862, 6.5872886807483155e-06, 1.2858708942076191e-05, -1.8765398635878228e-05, 2.6142584829358384e-05, 5.967452580080135e-06, -1.1272796655248385e-05, -0.0004607086593750864], [-5.050569961895235e-05, -1.5299034430427128e-06, 2.6464178972673835e-06, -0.0003963282215408981, 1.6192992916330695e-05, 8.817375629632807e-08, 1.1835781151603442e-05, 0.00024367701553273946, -0.0003281190001871437, 1.6689247104295646e-06, -4.053929387737298e-06, 2.046530607913155e-05, -3.879702853737399e-05, 7.211733077383542e-07, -3.2437932873108366e-07, 0.0003532438713591546], [-1.9227918528486043e-05, -1.775170494511258e-05, 1.7691652828943916e-05, 0.00026792497374117374, 1.5994948626030236e-05, -1.0482211109774653e-05, 1.6372281606891192e-05, -0.0002878790837712586, 0.00031513936119154096, -8.602053640061058e-06, -1.5835083104320802e-05, 1.671391692070756e-05, -1.787895780580584e-05, -1.3180550013203174e-05, 1.9218941815779544e-06, -8.469388376397546e-06], [-0.010212519206106663, -0.019173622131347656, 0.019227975979447365, -0.15103121101856232, 0.028461666777729988, -0.016642045229673386, 0.010210493579506874, -0.007864919491112232, -0.2671121060848236, -0.014602546580135822, -0.006514539010822773, 0.010593309998512268, -0.01982121728360653, -0.01532074622809887, 0.012607420794665813, 0.44886133074760437], [0.13846264779567719, 0.017065104097127914, -0.03468954935669899, -0.016097670421004295, -0.020259447395801544, 0.03492201492190361, -0.050331082195043564, -1.5316729545593262, 1.5075078010559082, 0.0008828598656691611, 0.00082444550935179, -0.06952179223299026, 0.1351853609085083, -0.008144445717334747, -0.009681941010057926, -0.07501845061779022], [4.36524851465947e-06, 3.0309098519865074e-07, 1.8524701772548724e-06, 0.00017980660777539015, 3.7017241538706003e-06, -2.717489905990078e-06, 5.939567699897452e-07, -0.00011165774776600301, 0.00012060020526405424, 4.1916596273949835e-06, 5.073140528111253e-06, -8.442737566838332e-07, 1.0057159443022101e-06, 5.0786456995410845e-06, -1.8782934603223111e-06, -0.00032092418405227363], [-4.070382146892371e-06, -6.7941191446152516e-06, 6.050465799489757e-06, 0.000209280478884466, 7.42979000278865e-06, -5.528048859559931e-06, 1.0060925887955818e-06, -0.00019879972387570888, 0.00014147436013445258, 4.0038969473243924e-07, 6.525689286718261e-07, -3.7678972830690327e-07, -2.1559465039899806e-06, -4.756549856210768e-07, -1.4767419997951947e-06, -0.0001865028461907059], [-3.8276095438050106e-05, -5.224681808613241e-05, 4.363602420198731e-05, 0.0005158294807188213, 3.236843258491717e-05, -2.5802051823120564e-05, 3.8230336940614507e-05, -0.0005452354671433568, 0.0006439801654778421, -4.5558765123132616e-05, -5.868233711225912e-05, 3.862063022097573e-05, -3.3163029002025723e-05, -5.7042274420382455e-05, 2.2321706637740135e-05, 8.935441292123869e-05], [-8.981253631645814e-05, -0.00013187680451665074, 0.0001459684717701748, 0.0009455250110477209, 5.44048598385416e-05, -9.443637100048363e-05, 0.00012786885781679302, -0.0008491593180224299, 0.0013335866387933493, -0.00015638132754247636, -0.000204330644919537, 0.00012424275337252766, -9.125351789407432e-05, -0.00019049459660891443, 8.727125532459468e-05, 1.0956751793855801e-05], [4.206997346045682e-06, -2.3154345853981795e-06, 3.3092605917772744e-06, 0.0001956174528459087, 8.657280886836816e-06, -3.7161089494475164e-06, 1.238866275343753e-06, -9.507985669188201e-05, 0.00015643145889043808, 4.124644419789547e-06, 4.825572887057206e-06, -1.1877694987560972e-06, 1.9529902601789217e-06, 4.672254817705834e-06, -2.379400029894896e-06, -0.00030267908005043864], [-9.339584721601568e-06, 6.106435648689512e-06, -3.956588443543296e-06, -2.9919372536824085e-05, 2.7599776331044268e-06, 1.9051287836191477e-06, -4.669838062909548e-07, 4.355735291028395e-05, -5.337322727427818e-05, 7.783394721627701e-06, 7.637495400558691e-06, 3.359084530529799e-06, -1.0579340596450493e-05, 9.23164770938456e-06, -3.7719105421274435e-06, -0.00011255261051701382], [0.04528605192899704, -0.011616704985499382, -0.00442159129306674, 0.12059665471315384, 0.005596018861979246, 0.003287747735157609, -0.014104265719652176, 0.03964022547006607, 0.4331294596195221, -0.0021157024893909693, 0.003402072936296463, -0.021798472851514816, 0.038538891822099686, -0.002394333016127348, -0.0023069370072335005, 0.1292833834886551], [0.012223360128700733, -0.008924735710024834, 0.004169065970927477, -0.021220730617642403, 0.008519255556166172, -0.003316373797133565, 0.0008592242957092822, -0.08123895525932312, 0.1246626153588295, -0.0061111245304346085, -0.0051539866253733635, -0.0012695251498371363, 0.01060920488089323, -0.006363686639815569, 0.002543011214584112, 0.029136676341295242], [-0.002300344640389085, -0.007095979992300272, 0.006999444216489792, -0.009450960904359818, 0.007454191334545612, -0.007156877778470516, 0.0037319327238947153, -0.007362938951700926, 0.005338052287697792, -0.004364867229014635, -0.0027418863028287888, 0.0030425575096160173, -0.0036196159198880196, -0.004547656513750553, 0.004993131849914789, -0.0035573558416217566], [0.0023054282646626234, 0.007890778593719006, -0.008479369804263115, 0.021398046985268593, -0.010937724262475967, 0.007442701142281294, -0.005279217381030321, 0.017943186685442924, -0.026047075167298317, 0.005402921698987484, 0.004757149610668421, -0.0042121512815356255, 0.002870861440896988, 0.006170851644128561, -0.004519418813288212, 0.0021630453411489725], [-0.008720279671251774, -0.008392454124987125, 0.01151425950229168, 0.717921793460846, 0.009466070681810379, -0.010624564252793789, 0.0034657083451747894, 2.172929525375366, 1.1633988618850708, 0.005319042596966028, 0.00796709954738617, 0.0026944472920149565, -0.018276190385222435, 0.006286230403929949, -0.005321957170963287, -0.23558025062084198], [-0.0022095574531704187, 0.006126451306045055, -0.006965941283851862, 0.008472021669149399, -0.009110516868531704, 0.006629728712141514, -0.001076528336852789, 0.011539160273969173, -0.015397660434246063, 0.004204689059406519, 0.002303694374859333, 0.0009668692364357412, -0.0009345011785626411, 0.005632785148918629, -0.004164567682892084, 0.008618542924523354], [-0.0035536980722099543, -0.006690434645861387, 0.007393271196633577, -0.023405494168400764, 0.00940514262765646, -0.006615076679736376, 0.005408876109868288, -0.017963454127311707, 0.02252787910401821, -0.004369169007986784, -0.004019499756395817, 0.004870401229709387, -0.003844636958092451, -0.004668570589274168, 0.0036607638467103243, 0.0018146428046748042], [0.002329127863049507, 0.010009423829615116, -0.008746294304728508, 0.014257118105888367, -0.011867308989167213, 0.007055585738271475, -0.006663353182375431, 0.026965323835611343, -0.04326887056231499, 0.006997175049036741, 0.007646116893738508, -0.0057005733251571655, 0.0024061151780188084, 0.008351262658834457, -0.005026582162827253, -0.004107621032744646], [-0.03658582642674446, -0.001681844936683774, -0.004531080834567547, -2.2890429496765137, -0.0016161119565367699, 0.002900699619203806, 0.002560210647061467, -0.06457972526550293, 1.171930193901062, 0.005919933784753084, 0.005093467887490988, 0.010223952122032642, -0.031599223613739014, 0.009656666778028011, -0.007487689610570669, 1.1703736782073975], [-0.020173337310552597, -0.005269569810479879, 0.008619546890258789, 1.1072267293930054, 0.012917214073240757, -0.004959764424711466, 0.012786854058504105, 0.34720757603645325, 0.7604595422744751, -0.008953222073614597, -0.01034365314990282, 0.014007633551955223, -0.018259279429912567, -0.011049331165850163, 0.008400031365454197, -0.20058149099349976], [-4.3203006498515606e-05, -0.007097615860402584, 0.006409726571291685, 0.015717916190624237, 0.008470384404063225, -0.0061139753088355064, 0.0013036966556683183, -0.015065024606883526, -0.009170745499432087, -0.007768027018755674, -0.005486662033945322, 0.00020556327945087105, -0.0004789622616954148, -0.0086709288880229, 0.006740959826856852, -0.001867173588834703], [0.0024125438649207354, -0.008324170485138893, 0.005792141426354647, 0.02095397189259529, 0.008694496005773544, -0.005232364870607853, 0.0002420484961476177, -0.012142034247517586, 0.0010008264798671007, -0.00685877725481987, -0.005788800772279501, -0.0015746122226119041, 0.002229011384770274, -0.008662845008075237, 0.00532545754685998, -0.0022222832776606083], [0.0017589232884347439, 0.01009936723858118, -0.008166088722646236, 0.01218442153185606, -0.011466105468571186, 0.006505018100142479, -0.006503083277493715, 0.03810088336467743, -0.06112606078386307, 0.007435467094182968, 0.00801621563732624, -0.0062714978121221066, 0.0017921392573043704, 0.008585295639932156, -0.005097055342048407, -0.013810742646455765], [0.009661911055445671, -0.008251802064478397, 0.004625818692147732, -0.03798896446824074, 0.008809000253677368, -0.003749671159312129, 0.002125895582139492, -0.07423069328069687, 0.1143934428691864, -0.005917020607739687, -0.005408620461821556, 0.000565559312235564, 0.00790785625576973, -0.006017246283590794, 0.002934652380645275, 0.024581775069236755], [0.0002637394645716995, -0.006217054557055235, 0.00575916888192296, 0.019757533445954323, 0.007539491169154644, -0.005509492941200733, 0.0011463501723483205, -0.009065753780305386, -0.009983841329813004, -0.006777500733733177, -0.004664050880819559, 5.6771030358504504e-05, -0.00018012587679550052, -0.008086767978966236, 0.005884926300495863, -0.003962474409490824], [0.002908112481236458, 0.005783686880022287, -0.006084669381380081, -0.007537221536040306, -0.007753355894237757, 0.005468185991048813, -0.0034651304595172405, 0.02175612933933735, 0.002300944412127137, 0.006973769050091505, 0.005919952876865864, -0.0031260892283171415, 0.0026827917899936438, 0.007396034896373749, -0.006352381315082312, 0.0005842217360623181], [-0.11086473613977432, -0.007845347747206688, 0.017624931409955025, -0.31984734535217285, 0.014829649589955807, -0.010313519276678562, 0.039605025202035904, 0.09318635612726212, -0.3034026324748993, -0.01882997713983059, -0.03170258551836014, 0.05474928021430969, -0.08792874217033386, -0.022712066769599915, 0.012661363929510117, -0.46396541595458984]], "rec.bias_ih_l0": [0.01907709427177906, -0.0033384310081601143, -0.0037029264494776726, 0.8895196914672852, -0.004816739819943905, -0.0017554329242557287, -0.0022773602977395058, 0.7120281457901001, 0.1154666543006897, -0.0051681105978786945, -0.005189210642129183, 0.00043254849151708186, 0.016019901260733604, -0.005086577497422695, -0.003483834443613887, -0.8296642303466797, 0.0007958218338899314, -5.2340961701702327e-05, -8.256638830062002e-05, 1.4683709144592285, -0.00021066975023131818, -0.0003612978325691074, 6.233668682398275e-05, 1.8492807149887085, 1.5010358095169067, -0.00013730635691899806, -0.0002005712449317798, 0.00023311363474931568, 0.0007571716560050845, -0.00019273236102890223, -0.0001816815056372434, -0.6298761963844299, -0.011644663289189339, -0.0019400151213631034, 0.001618496491573751, 0.034493736922740936, 0.0009017276461236179, -0.0007588843000121415, 0.003225499764084816, 0.2536509931087494, -0.02349245548248291, -0.003693596925586462, -0.0035270927473902702, 0.004530950915068388, -0.008060116320848465, -0.0037953064311295748, 0.0033258514013141394, -0.0002573856327217072], "rec.bias_hh_l0": [0.01907709427177906, -0.0033384310081601143, -0.0037029264494776726, 0.8881585001945496, -0.004816739819943905, -0.0017554329242557287, -0.0022773602977395058, 0.7123293280601501, 0.096773661673069, -0.0051681105978786945, -0.005189210642129183, 0.00043254849151708186, 0.016019901260733604, -0.005086577497422695, -0.003483834443613887, -0.8304579854011536, 0.0007958218338899314, -5.2340961701702327e-05, -8.256638830062002e-05, 1.4601058959960938, -0.00021066975023131818, -0.0003612978325691074, 6.233668682398275e-05, 1.854599952697754, 1.5019996166229248, -0.00013730635691899806, -0.0002005712449317798, 0.00023311363474931568, 0.0007571716560050845, -0.00019273236102890223, -0.0001816815056372434, -0.6312326192855835, -0.013282989151775837, -0.00031187242711894214, 0.0021635987795889378, 0.01725451461970806, 0.0005005038692615926, -0.0009531305404379964, 0.004528362769633532, 0.1170593723654747, -0.013314674608409405, -0.0029559831600636244, -0.006763044744729996, 0.00803940650075674, -0.01016614492982626, -0.004289053380489349, 0.0006490051746368408, 0.05644775554537773], "lin.weight": [[0.009485453367233276, 0.0010749800130724907, -0.0018011712236329913, -0.28867781162261963, -0.0039054513908922672, -0.0004886303213424981, -0.0055428980849683285, -0.21610304713249207, 0.3142167627811432, 0.004058417864143848, 0.0073340837843716145, -0.006692304275929928, 0.005636208690702915, 0.006005188915878534, -0.0014135842211544514, 1.044472098350525]], "lin.bias": [0.0050498307682573795]}}